1520530315.599645 0.00000000000000000000 0.00000000000000000000 0.00000000000000000000 0.00000000000000000000 0.00000000000000000000 0.00000000000000000000 -0.31331062444638607678 -0.10099702198924120911 -0.02208772265690245318 -0.00020142390655197406 -0.00009405808019000917 -0.00059074987981047253  7.46004977452853346165 10.80624844517921268050  0.07687115915883978301  0.00002997229609288438  0.00002799898042867567  0.00002783660676519609
1520530315.749639 0.00000000000000000000 0.00000000000000000000 0.00000000000000000000 0.00000000000000000000 0.00000000000000000000 0.00000000000000000000 -0.22465088430552640486 -0.09760699933972556697 -0.02595672005643291300  0.00022675471176104422 -0.00001585069971821236 -0.00051289732692428442 6.59063013191043811645 9.91737807969982654299 0.07449267835690416562 0.00002892663667937866 0.00002729810734584017 0.00002739621409096698
1520530315.899643 0.00000000000000000000 0.00000000000000000000 0.00000000000000000000 0.00000000000000000000 0.00000000000000000000 0.00000000000000000000 -0.14436753477162772574 -0.09825147162903048736 -0.02962317615517300745  0.00030364028609079194  0.00002441664281312671 -0.00049730254429046353 6.32239105036055626385 9.27219211628180772777 0.07377251347740247656 0.00002828181958339829 0.00002677137910216056 0.00002695942681441149
1520530316.049648 0.00000000000000000000 0.00000000000000000000 0.00000000000000000000 0.00000000000000000000 0.00000000000000000000 0.00000000000000000000 -0.07626879489735959028 -0.09109270974392032205 -0.03335095152614896141  0.00023891345631866766 -0.00004527288581620097 -0.00045083054495413015 5.49654011139429243826 8.69543271176567955649 0.07228719084088129632 0.00002777671297362069 0.00002631524196093893 0.00002654523646944257
1520530316.100221 0.00000000000000000000 0.00000000000000000000 0.00000000000000000000 0.00000000000000000000 0.00000000000000000000 0.00000000000000000000 -0.06655535860742248233 -0.08822372419872821780 -0.03445366094499345555  0.00012867846913175760 -0.00008833412395677663 -0.00039862527771485063 5.39583406988950642358 8.57788494426664449577 0.07284321469471531640 0.00002709134027792790 0.00002599827474762901 0.00002618731584468527
1520530316.300227 0.00000000000000000000 0.00000000000000000000 0.00000000000000000000 0.00000000000000000000 0.00000000000000000000 0.00000000000000000000 -0.03868753084458821656 -0.07066601643736453164 -0.03764865862978394873  0.00003713845266649305 -0.00000509751830858283 -0.00041890901846603640 4.61287516582975420931 7.74297881833472434465 0.06471706775295137104 0.00002606805650244506 0.00002532125705483946 0.00002554481134220142
1520530316.450231 0.00000000000000000000 0.00000000000000000000 0.00000000000000000000 0.00000000000000000000 0.00000000000000000000 0.00000000000000000000 -0.02799677241664017338 -0.06629002359070872152 -0.03916433444717428575  0.00002458538423332874 -0.00004657633025700062 -0.00038901545284705157 4.16391943691119603699 7.11647696995857170776 0.05938242767034539876 0.00002548647958059911 0.00002493389522368839 0.00002511434912598763
1520530316.650280 0.00000000000000000000 0.00000000000000000000 0.00000000000000000000 0.00000000000000000000 0.00000000000000000000 0.00000000000000000000 -0.01967456931553640889 -0.05668536527965549465 -0.04111152366938324032 -0.00004933318351544338 -0.00005655291844521263 -0.00035230319680938383 3.75513691389085746408 6.36015883319406505336 0.05505306135306782533 0.00002501806455008344 0.00002449673743317897 0.00002457874959582945
1520530316.850286 0.00000000000000000000 0.00000000000000000000 0.00000000000000000000 0.00000000000000000000 0.00000000000000000000 0.00000000000000000000 -0.02260817173576232589 -0.05174327926169888098 -0.04201114108275530445 -0.00001902583279152581 -0.00003781951453695428 -0.00044015819895187593 3.49043457310312810193 5.72317871697408353526 0.05251959058556179838 0.00002459140585029364 0.00002406693419656541 0.00002412057225126573
1520530316.949773 0.00000000000000000000 0.00000000000000000000 0.00000000000000000000 0.00000000000000000000 0.00000000000000000000 0.00000000000000000000 -0.02235650684671158794 -0.05175600828688257937 -0.04242616616767348053  0.00003246475696473135 -0.00008361879214380151 -0.00042471108492027684 3.39709806762788790735 5.38850378956132924912 0.05163571537909802250 0.00002447128892575353 0.00002389715569018431 0.00002394682743205827
1520530317.149779 0.00000000000000000000 0.00000000000000000000 0.00000000000000000000 0.00000000000000000000 0.00000000000000000000 0.00000000000000000000 -0.02719613293738338752 -0.04971216057452623044 -0.04246277350747612589  0.00011051302305785931 -0.00008272897546127639 -0.00035992008755058870 3.28638336722787238742 4.76902076304962729836 0.05048821434001906500 0.00002420520644552125 0.00002349503891940948 0.00002360043394243181
1520530317.299784 0.00000000000000000000 0.00000000000000000000 0.00000000000000000000 0.00000000000000000000 0.00000000000000000000 0.00000000000000000000 -0.03018159257855700800 -0.04401188153388797125 -0.04266933715271441913  0.00010546589425786061 -0.00016892366268527590 -0.00041371123136936603 3.25028348434936376066 4.42129005898484628290 0.05033476517315367549 0.00002391216126236440 0.00002316811887915251 0.00002332038020419690
1520530317.449747 0.00000000000000000000 0.00000000000000000000 0.00000000000000000000 0.00000000000000000000 0.00000000000000000000 0.00000000000000000000 -0.03202301273524327946 -0.04615375301779268968 -0.04222436709016209183  0.00013145394064047392 -0.00020943094594871579 -0.00041377415783054654 3.23866706539682525090 4.17710723687568830087 0.05040538613768397874 0.00002376706154080957 0.00002287358045185890 0.00002300718598137836
1520530317.649755 0.00000000000000000000 0.00000000000000000000 0.00000000000000000000 0.00000000000000000000 0.00000000000000000000 0.00000000000000000000 -0.03153445115777868402 -0.04607693235497142825 -0.04222664751352781659  0.00015583256781559937 -0.00003675506439072350 -0.00043786721320269680 3.23813596268518422150 3.99481092653222580324 0.05073184176376670240 0.00002368624252758680 0.00002256852157050556 0.00002269651586292342
1520530317.750237 0.00000000000000000000 0.00000000000000000000 0.00000000000000000000 0.00000000000000000000 0.00000000000000000000 0.00000000000000000000 -0.02883540263858353977 -0.04605579082731033752 -0.04236179322277795062  0.00024704190942483528  0.00001554062969875125 -0.00043369653856631922 3.23775300590491710295 3.88386782687304954464 0.05062279263380418948 0.00002325560805452041 0.00002228096534483941 0.00002239370723780889
1520530317.900242 0.00000000000000000000 0.00000000000000000000 0.00000000000000000000 0.00000000000000000000 0.00000000000000000000 0.00000000000000000000 -0.02783972070255084919 -0.04127982255367664693 -0.04257736628005003021  0.00034573219177395101 -0.00002292940027751663 -0.00046350834549594420 3.22678402324021273984 3.73485341784412749888 0.05034954746495446526 0.00002311916724260692 0.00002207284816130214 0.00002219175639374337
1520530318.050246 0.00000000000000000000 0.00000000000000000000 0.00000000000000000000 0.00000000000000000000 0.00000000000000000000 0.00000000000000000000 -0.02741779522724566154 -0.03750404779880017053 -0.04232743276227377005  0.00035924374575481687 -0.00004422662828587049 -0.00055483096930539363 3.19942358788387659629 3.62101197113660688842 0.05004844213082879772 0.00002306121522622330 0.00002188132045455387 0.00002198066748601296
1520530318.150816 0.00000000000000000000 0.00000000000000000000 0.00000000000000000000 0.00000000000000000000 0.00000000000000000000 0.00000000000000000000 -0.02934090957735312893 -0.03164357338991791169 -0.04263671821240952453  0.00030737192315322343  0.00002214625038242998 -0.00055832743751170054 3.15281615365654577232 3.51880045868448876334 0.04971371056963460461 0.00002288850807091933 0.00002169822514141291 0.00002185699376385922
1520530318.300772 0.00000000000000000000 0.00000000000000000000 0.00000000000000000000 0.00000000000000000000 0.00000000000000000000 0.00000000000000000000 -0.03388037519746642939 -0.03259410779228346516 -0.04241781416832595547  0.00026628575323526090  0.00000676657202829955 -0.00051008597316835847 3.03360381311088289635 3.40509654126093685989 0.04899569187636895057 0.00002258226246732015 0.00002145720891177135 0.00002162152984357960
1520530318.450777 0.00000000000000000000 0.00000000000000000000 0.00000000000000000000 0.00000000000000000000 0.00000000000000000000 0.00000000000000000000 -0.03509713632256196425 -0.03571951764792698214 -0.04229790301455053220  0.00018233708403263285 -0.00004764911350450592 -0.00042464294313263588 2.82049023174631274813 3.29004369566287246940 0.04775601541646251613 0.00002270671663872489 0.00002132382928237142 0.00002152817187384193
1520530318.600567 0.00000000000000000000 0.00000000000000000000 0.00000000000000000000 0.00000000000000000000 0.00000000000000000000 0.00000000000000000000 -0.03913999172079087735 -0.04102094335337202330 -0.04178193327432443843  0.00019150891432762480 -0.00004033258850508327 -0.00039765548492380626 2.52370927756491747473 3.18233164751716302021 0.04592964508841844429 0.00002242436948133202 0.00002111090130431935 0.00002130661265980667
1520530318.750571 0.00000000000000000000 0.00000000000000000000 0.00000000000000000000 0.00000000000000000000 0.00000000000000000000 0.00000000000000000000 -0.02742991721573348474 -0.04551032192995953934 -0.04254680636543980293  0.00017515384581131961 -0.00007440306846197257 -0.00036344822835861798 2.20931099533669561552 3.07257884642930489960 0.04400705663725037325 0.00002220642048781799 0.00002090862497080877 0.00002109841806160879
1520530318.900576 0.00000000000000000000 0.00000000000000000000 0.00000000000000000000 0.00000000000000000000 0.00000000000000000000 0.00000000000000000000 -0.02022395972629013189 -0.04825740783102654141 -0.04323140045921249758  0.00016493658806172247 -0.00017654215744865401 -0.00031034270038592468 1.90558978164288039814 2.95811076803290484705 0.04209934274173490060 0.00002193691915301193 0.00002070431514197188 0.00002088882080321132
1520530318.999955 0.00000000000000000000 0.00000000000000000000 0.00000000000000000000 0.00000000000000000000 0.00000000000000000000 0.00000000000000000000 -0.00933086057135954113 -0.05515554865300211634 -0.04387442638074758039  0.00018954430061429167 -0.00015641327167945250 -0.00029088214472720338 1.74213837327953413592 2.85099607539420274449 0.04127775939897101315 0.00002176181760087813 0.00002061628948261681 0.00002078686447737428
1520530319.149961 0.00000000000000000000 0.00000000000000000000 0.00000000000000000000 0.00000000000000000000 0.00000000000000000000 0.00000000000000000000 -0.00256332064088029892 -0.05592697507499840709 -0.04447152146133791228  0.00023193654123791535 -0.00012623371472061297 -0.00030413844590449510 1.51379080285342260126 2.65339754020860896233 0.03967873059741131719 0.00002131861037299862 0.00002040366201672902 0.00002058547143277667
1520530319.299965 0.00000000000000000000 0.00000000000000000000 0.00000000000000000000 0.00000000000000000000 0.00000000000000000000 0.00000000000000000000 -0.00118157117942889012 -0.05395834206657197651 -0.04462703328592894370  0.00025895401536559041 -0.00010767610787203803 -0.00029487680449270939 1.34638038038921314943 2.44573634942720374852 0.03825423391853829957 0.00002080115779875704 0.00002015390918220468 0.00002032560206436840
1520530319.399832 0.00000000000000000000 0.00000000000000000000 0.00000000000000000000 0.00000000000000000000 0.00000000000000000000 0.00000000000000000000 -0.00128539053801948549 -0.05355603906419573179 -0.04458449730003265915  0.00023013333945035271 -0.00006842408218445678 -0.00029308660141504544 1.27322237639438617940 2.31501627467902570956 0.03740932305178686079 0.00002069933393432260 0.00002002563082249065 0.00002017584252098719
1520530319.549837 0.00000000000000000000 0.00000000000000000000 0.00000000000000000000 0.00000000000000000000 0.00000000000000000000 0.00000000000000000000 -0.00497348277030949023 -0.05013868258252227733 -0.04464988923042249869  0.00021809135044865809 -0.00002018956840900167 -0.00022914979097328554 1.18500553356993743037 2.16906341848639350189 0.03646836858689685851 0.00002078622509385450 0.00001990867166377496 0.00002010060205683100
1520530319.699841 0.00000000000000000000 0.00000000000000000000 0.00000000000000000000 0.00000000000000000000 0.00000000000000000000 0.00000000000000000000 -0.01150445832993045314 -0.04478211800756674854 -0.04430770944385320487  0.00023003515256406605  0.00005870502044433674 -0.00017532777913253670 1.12654755427566555248 2.07968290686889112351 0.03599276052742371446 0.00002096501987369295 0.00001978964092237401 0.00002000673314976163
1520530319.800341 0.00000000000000000000 0.00000000000000000000 0.00000000000000000000 0.00000000000000000000 0.00000000000000000000 0.00000000000000000000 -0.01554538243799408193 -0.04594122582598215293 -0.04373104358321874829  0.00021091804298246922  0.00002588243726019458 -0.00008557970623813563 1.10515953715229420240 2.05965923432909869817 0.03584752371957704298 0.00002081033879635841 0.00001966069824455500 0.00001985250263243546
1520530319.900344 0.00000000000000000000 0.00000000000000000000 0.00000000000000000000 0.00000000000000000000 0.00000000000000000000 0.00000000000000000000 -0.01549947672027700458 -0.04605597920983509758 -0.04346605250956464550  0.00009315877630047061 -0.00002761225135180062 -0.00007383235085003459 1.08277888331345839568 2.05387147452906271283 0.03565226514036174549 0.00002045370792846405 0.00001950576756280032 0.00001961426965371574
1520530320.000347 0.00000000000000000000 0.00000000000000000000 0.00000000000000000000 0.00000000000000000000 0.00000000000000000000 0.00000000000000000000 -0.00853911771109742285 -0.04318123228888014198 -0.04411533758583997822  0.00001049277767941863 -0.00008810232928579041 -0.00019401625703702814 1.07406473494731913298 2.05193269384139309608 0.03522393376899890516 0.00002021824323282945 0.00001937291551559745 0.00001942180451576752
1520530320.100350 0.00000000000000000000 0.00000000000000000000 0.00000000000000000000 0.00000000000000000000 0.00000000000000000000 0.00000000000000000000 -0.00652508623810097062 -0.04718575008306629542 -0.04409261789921942176 -0.00001654936086851249 -0.00010767858751457996 -0.00016711600128395512 1.07167889374576752459 2.04947081582881773798 0.03464945742637702553 0.00001995081107179949 0.00001926588394743374 0.00001931500923804406
1520530320.200401 0.00000000000000000000 0.00000000000000000000 0.00000000000000000000 0.00000000000000000000 0.00000000000000000000 0.00000000000000000000 -0.00557417074157343789 -0.04803467899645579714 -0.04434244310434588832  0.00002280427287095773 -0.00006362247974031018 -0.00016542610254449548 1.06462570935251199522 2.03925161232425411484 0.03401741418913267062 0.00001965405101386932 0.00001917208933439922 0.00001923485911351489
1520530320.300404 0.00000000000000000000 0.00000000000000000000 0.00000000000000000000 0.00000000000000000000 0.00000000000000000000 0.00000000000000000000 -0.00738633691012439367 -0.04546983970340987002 -0.04477556819301544561  0.00013408973103835677 -0.00002916764076455415 -0.00023630173572050377 1.05562567949668095757 2.02395477923149869071 0.03338258205375136539 0.00001943232379032137 0.00001907722141231615 0.00001911540521078568
1520530320.450408 0.00000000000000000000 0.00000000000000000000 0.00000000000000000000 0.00000000000000000000 0.00000000000000000000 0.00000000000000000000 -0.00062481012846194416 -0.04128159132917402774 -0.04566774247266634779  0.00012440456848515516 -0.00001676824589216218 -0.00022094752105961802 1.03395268562791375899 1.97502224139985860241 0.03240183352685992862 0.00001924876120423546 0.00001894465062594376 0.00001894606796659908
1520530320.599869 0.00000000000000000000 0.00000000000000000000 0.00000000000000000000 0.00000000000000000000 0.00000000000000000000 0.00000000000000000000  0.00192685139142260205 -0.04010270552644696479 -0.04630449551203632413  0.00011790216096734493 -0.00003293033958173244 -0.00025833860409779034 0.99689937830502017846 1.86813642851918459975 0.03112145373892251723 0.00001922918349149286 0.00001885280562284739 0.00001886216975912801
1520530320.749874 0.00000000000000000000 0.00000000000000000000 0.00000000000000000000 0.00000000000000000000 0.00000000000000000000 0.00000000000000000000 -0.00024411198170212138 -0.04488498614761443628 -0.04641010003766062736  0.00013962025659885885 -0.00001559675016840243 -0.00030695152811052674 0.95136115772805129875 1.70441729198378943977 0.02960955543241287902 0.00001913029399702958 0.00001871254938860269 0.00001873054768611217
1520530320.899879 0.00000000000000000000 0.00000000000000000000 0.00000000000000000000 0.00000000000000000000 0.00000000000000000000 0.00000000000000000000 -0.00018496212446777817 -0.04666569437866602277 -0.04631397220577575247  0.00023249157370847554 -0.00004075605291861776 -0.00033976441643601056 0.89759502162188631313 1.54308037192381752867 0.02821105385466656651 0.00001894743692772860 0.00001856374855565955 0.00001858388898854881
1520530321.049740 0.00000000000000000000 0.00000000000000000000 0.00000000000000000000 0.00000000000000000000 0.00000000000000000000 0.00000000000000000000  0.00156976723731521101 -0.04159268352161133581 -0.04678003384927043734  0.00020830929449305993  0.00004319323961711257 -0.00033058686755191367 0.84359333051232099354 1.42454431660166647156 0.02714720781830841714 0.00001881708478435713 0.00001844175749049944 0.00001848896247089704
1520530321.199745 0.00000000000000000000 0.00000000000000000000 0.00000000000000000000 0.00000000000000000000 0.00000000000000000000 0.00000000000000000000  0.00350079505329329741 -0.04323743744059203170 -0.04679803725811073484  0.00024056072956865797  0.00005929653810558032 -0.00029277441036913232 0.79280179121220184513 1.33589492243209750910 0.02632501227322150278 0.00001874062552367522 0.00001833851026321081 0.00001839559259301400
1520530321.349750 0.00000000000000000000 0.00000000000000000000 0.00000000000000000000 0.00000000000000000000 0.00000000000000000000 0.00000000000000000000  0.00278022902447302381 -0.04236837401733224012 -0.04677696728831734485  0.00025178880652835194  0.00006406602950221989 -0.00026675001292451905 0.74661744397137830287 1.25050575922346984825 0.02549566145855440905 0.00001858264264876481 0.00001824880500217291 0.00001822874585431740
1520530321.499857 0.00000000000000000000 0.00000000000000000000 0.00000000000000000000 0.00000000000000000000 0.00000000000000000000 0.00000000000000000000  0.00222131506067932503 -0.04053921938559402333 -0.04674195613894219919  0.00032649782958771843  0.00000949040845137166 -0.00028635525415160435 0.70568382869088774889 1.16939937868110788166 0.02460760460996230456 0.00001850962482981274 0.00001814227551988393 0.00001814484003181401
1520530321.649862 0.00000000000000000000 0.00000000000000000000 0.00000000000000000000 0.00000000000000000000 0.00000000000000000000 0.00000000000000000000  0.00239446990467267855 -0.04055295768390266425 -0.04689078300047080927  0.00035792781843689033 -0.00003172698792330972 -0.00030732265450103563 0.67232900874644530020 1.09804270607058218623 0.02380747929533564081 0.00001854470426151559 0.00001807064524927132 0.00001813649178183681
1520530321.799867 0.00000000000000000000 0.00000000000000000000 0.00000000000000000000 0.00000000000000000000 0.00000000000000000000 0.00000000000000000000  0.00343485487952495654 -0.04185929243699160196 -0.04647691532546074228  0.00026286875806657244 -0.00003488507438733298 -0.00031486606482838535 0.64029226329335464651 1.02876604735473686780 0.02283510337238172858 0.00001853501000889473 0.00001796706458610176 0.00001809146533387690
1520530321.950155 0.00000000000000000000 0.00000000000000000000 0.00000000000000000000 0.00000000000000000000 0.00000000000000000000 0.00000000000000000000  0.00590108908222626745 -0.04314554969876722990 -0.04618179105032565318  0.00006495596017565812  0.00004388636899135069 -0.00028077426890437665 0.60878764484676717306 0.96836529383455860476 0.02180783303143181071 0.00001847786720567181 0.00001784393186845471 0.00001800545464164737
1520530322.100160 0.00000000000000000000 0.00000000000000000000 0.00000000000000000000 0.00000000000000000000 0.00000000000000000000 0.00000000000000000000  0.00928578852070047200 -0.03957863455095000926 -0.04715532203601997818  0.00000934409162364719  0.00005821988318086028 -0.00031444889686023597 0.58038980882950907958 0.91631309821042272734 0.02100255665106044722 0.00001832667955224076 0.00001772511251437568 0.00001788970657344080
1520530322.300208 0.00000000000000000000 0.00000000000000000000 0.00000000000000000000 0.00000000000000000000 0.00000000000000000000 0.00000000000000000000  0.01019521612463766130 -0.03590597247762726540 -0.04813049792789066833  0.00006816592678525646  0.00005460817620089254 -0.00033617044123076330 0.54627274346625231960 0.87275584919550452945 0.02037255105695834345 0.00001819467946782591 0.00001759946896245843 0.00001777052552874737
1520530322.550216 0.00000000000000000000 0.00000000000000000000 0.00000000000000000000 0.00000000000000000000 0.00000000000000000000 0.00000000000000000000  0.00874391002224884743 -0.03275555483665668066 -0.04871424851491717306  0.00009764248940007521 -0.00000820533679688815 -0.00035613477709191900 0.51141961805158608900 0.83391706764041928501 0.02009174245438547640 0.00001801436836133128 0.00001745205547305440 0.00001763225971864515
1520530322.700026 0.00000000000000000000 0.00000000000000000000 0.00000000000000000000 0.00000000000000000000 0.00000000000000000000 0.00000000000000000000  0.00890084237713605932 -0.03205080975593290610 -0.04900794365088927129  0.00012443783324243179  0.00000539492181755919 -0.00034556993807330198 0.49495091115612044330 0.81418150550661794185 0.02006160145217498331 0.00001790775895910678 0.00001737669803980257 0.00001756984511549414
1520530322.900065 0.00000000000000000000 0.00000000000000000000 0.00000000000000000000 0.00000000000000000000 0.00000000000000000000 0.00000000000000000000  0.00758433508275251685 -0.03163027053025389834 -0.04865826880521034042  0.00011061907656724390  0.00004075635445163264 -0.00039056313175032942 0.47844977618532036345 0.79349248837691410685 0.02004330613736577185 0.00001783640077784744 0.00001730688443539318 0.00001753784187208970
1520530323.050036 0.00000000000000000000 0.00000000000000000000 0.00000000000000000000 0.00000000000000000000 0.00000000000000000000 0.00000000000000000000  0.00819986979128208178 -0.03196746498369208017 -0.04888046460069736532  0.00013371642074936786  0.00003386678464748790 -0.00037905168332581080 0.46830988526084665891 0.78548380756675573178 0.02012198933774097739 0.00001772318191531141 0.00001724555139422021 0.00001744885088367719
1520530323.200077 0.00000000000000000000 0.00000000000000000000 0.00000000000000000000 0.00000000000000000000 0.00000000000000000000 0.00000000000000000000  0.00955682042797762615 -0.03105364038877139396 -0.04875545148591133721  0.00015037013826231445 -0.00002124333338926318 -0.00038623952927644431 0.46114426005996217439 0.77483036046406295050 0.02009815097943860179 0.00001763026685108925 0.00001717592675322122 0.00001734916744435389
1520530323.350082 0.00000000000000000000 0.00000000000000000000 0.00000000000000000000 0.00000000000000000000 0.00000000000000000000 0.00000000000000000000  0.01535239232343633270 -0.03004534168438557223 -0.04820585650140603307  0.00013639407721485568 -0.00004258643135564550 -0.00043431205957941173 0.45629186785435255080 0.76407009512705559295 0.01988654105586369625 0.00001755946611586705 0.00001710157941602557 0.00001730386825801548
1520530323.450085 0.00000000000000000000 0.00000000000000000000 0.00000000000000000000 0.00000000000000000000 0.00000000000000000000 0.00000000000000000000  0.01574589049154388395 -0.03039985227099382611 -0.04808084110829769636  0.00002709897339612032 -0.00002663134143130818 -0.00043815864274874812 0.45310070023600845790 0.75029551878328393233 0.01966565045986212734 0.00001744816313764425 0.00001702206202213930 0.00001716528509150862
1520530323.550346 0.00000000000000000000 0.00000000000000000000 0.00000000000000000000 0.00000000000000000000 0.00000000000000000000 0.00000000000000000000  0.01507833844901110797 -0.02921496749253841771 -0.04854792918694006421 -0.00004438128472014020  0.00000001297302361661 -0.00043889227917603908 0.45051096517441185929 0.73710217762596164093 0.01940062402751514814 0.00001731308940770930 0.00001692932219106625 0.00001702393394634148
1520530323.650349 0.00000000000000000000 0.00000000000000000000 0.00000000000000000000 0.00000000000000000000 0.00000000000000000000 0.00000000000000000000  0.01561125327729735550 -0.02780887795091269848 -0.04908632299834310431  0.00001774394708377184  0.00000630165237501519 -0.00041410957594701996 0.44912563880391354054 0.72793417200497734232 0.01921896874121402712 0.00001721102589585326 0.00001685991465989552 0.00001691276137501591
1520530323.750353 0.00000000000000000000 0.00000000000000000000 0.00000000000000000000 0.00000000000000000000 0.00000000000000000000 0.00000000000000000000  0.01320359688267763038 -0.02834429149392792696 -0.04888873850152262307  0.00007349840769904748 -0.00002030050650118840 -0.00041396734621647249 0.44812422747361968511 0.72262127296713241087 0.01910172676785174342 0.00001716726926810273 0.00001680733505173675 0.00001683523271958590
1520530323.900153 0.00000000000000000000 0.00000000000000000000 0.00000000000000000000 0.00000000000000000000 0.00000000000000000000 0.00000000000000000000  0.01268047663290832426 -0.02801600269506303309 -0.04916193202096656722  0.00011611668117866528 -0.00005229478879632388 -0.00040876387442596537 0.44732804340482196226 0.71808277801409581276 0.01899141473293070037 0.00001713404921085261 0.00001675033607921872 0.00001677321637725424
1520530324.050157 0.00000000000000000000 0.00000000000000000000 0.00000000000000000000 0.00000000000000000000 0.00000000000000000000 0.00000000000000000000  0.01074412283383307729 -0.02940009398669660504 -0.04931617890448599523  0.00008557717822589008 -0.00004397190998547344 -0.00041093942763017018 0.44680412906084315816 0.71455781102857096609 0.01896859600436928694 0.00001705308165162100 0.00001668328309282106 0.00001673127944739282
1520530324.200162 0.00000000000000000000 0.00000000000000000000 0.00000000000000000000 0.00000000000000000000 0.00000000000000000000 0.00000000000000000000  0.00963141259196459432 -0.03093310185000074791 -0.04936651981923683569  0.00003618065199843033  0.00000580941945041076 -0.00042196978445346476 0.44647459375998693742 0.71055435158305135790 0.01900512335356447161 0.00001695895468037843 0.00001661308941234703 0.00001667243787320169
1520530324.299908 0.00000000000000000000 0.00000000000000000000 0.00000000000000000000 0.00000000000000000000 0.00000000000000000000 0.00000000000000000000  0.01022336023536262947 -0.03289132499581227248 -0.04956981479725287854  0.00008729897492536341 -0.00001369232168096763 -0.00039406584098617461 0.44617419576053213293 0.70735799805591692557 0.01906589035310167143 0.00001691193917266267 0.00001658424441097506 0.00001663820378004140
1520530324.399911 0.00000000000000000000 0.00000000000000000000 0.00000000000000000000 0.00000000000000000000 0.00000000000000000000 0.00000000000000000000  0.01260990312447411894 -0.03314329285525984686 -0.05001726517530152849  0.00013999963096270282 -0.00004814401347969934 -0.00042130685396435630 0.44597898417103204460 0.70362155958335426131 0.01914591626106045344 0.00001685598492819333 0.00001654058288887308 0.00001660374601742447
1520530324.499994 0.00000000000000000000 0.00000000000000000000 0.00000000000000000000 0.00000000000000000000 0.00000000000000000000 0.00000000000000000000  0.01166242360451413655 -0.03165567010279177196 -0.04986699358859299908  0.00019424218704262516 -0.00007810932796268408 -0.00043461294553475668 0.44558494316144292569 0.69955032894488056172 0.01923171268969392153 0.00001681206597383168 0.00001648865144149067 0.00001654746219415918
1520530324.599917 0.00000000000000000000 0.00000000000000000000 0.00000000000000000000 0.00000000000000000000 0.00000000000000000000 0.00000000000000000000  0.01279243299793726522 -0.03073515579565977429 -0.04990925060919657735  0.00018625636734796228 -0.00005057631565095624 -0.00044184185293683889 0.44535275347605002283 0.69628440859269102869 0.01930067431138413406 0.00001682012793529562 0.00001645905223925693 0.00001654050549053147
1520530324.750020 0.00000000000000000000 0.00000000000000000000 0.00000000000000000000 0.00000000000000000000 0.00000000000000000000 0.00000000000000000000  0.01348563232006918730 -0.03010982881958758350 -0.04995561745823672017  0.00013691331261967354 -0.00003655118825447403 -0.00045525349627336244 0.44427189076576434346 0.69198604602191560176 0.01936137092335785126 0.00001682792316117093 0.00001640801390352329 0.00001650539253375381
1520530324.900024 0.00000000000000000000 0.00000000000000000000 0.00000000000000000000 0.00000000000000000000 0.00000000000000000000 0.00000000000000000000  0.01231891101354906821 -0.02962984815328834412 -0.04980346171935130795  0.00016238911685819386 -0.00005422344171310550 -0.00048873994171443492 0.44255600039179276983 0.68882909904482092500 0.01934359040460247731 0.00001683934426913825 0.00001638014945109309 0.00001649839594305071
1520530325.100816 0.00000000000000000000 0.00000000000000000000 0.00000000000000000000 0.00000000000000000000 0.00000000000000000000 0.00000000000000000000  0.01162742542466504818 -0.02949153427572394348 -0.04990884644202150250  0.00013964778553801841 -0.00005259686631764633 -0.00044627169409878451 0.43845811704682979837 0.68353524821173339276 0.01918776146428408103 0.00001669168285187134 0.00001627818020127432 0.00001637382363672891
1520530325.300822 0.00000000000000000000 0.00000000000000000000 0.00000000000000000000 0.00000000000000000000 0.00000000000000000000 0.00000000000000000000  0.00911530020160052599 -0.03029325479549755881 -0.04948132639001101563  0.00022304764834175803 -0.00009142609410891024 -0.00032258990914161634 0.43284054563844559516 0.67518755160250598646 0.01890967787289936711 0.00001663148719556792 0.00001620885891993131 0.00001627153516562833
1520530325.500828 0.00000000000000000000 0.00000000000000000000 0.00000000000000000000 0.00000000000000000000 0.00000000000000000000 0.00000000000000000000  0.00941841764090065037 -0.03181624719608033836 -0.04886269914240840007  0.00019563733425509273 -0.00007503605924594207 -0.00033168157180716061 0.42684084690560425424 0.66111841658140224620 0.01834735707681330041 0.00001659971535611485 0.00001613648864468733 0.00001625492206223803
1520530325.700918 0.00000000000000000000 0.00000000000000000000 0.00000000000000000000 0.00000000000000000000 0.00000000000000000000 0.00000000000000000000  0.01050056201567148295 -0.03155188849946780061 -0.04909753509093310597  0.00013952985550979048 -0.00013505262028980239 -0.00039557719035303811 0.42192205806725441297 0.64718046983789656590 0.01782880344112135196 0.00001659325706455153 0.00001607004520666337 0.00001622004726815430
1520530325.900924 0.00000000000000000000 0.00000000000000000000 0.00000000000000000000 0.00000000000000000000 0.00000000000000000000 0.00000000000000000000  0.01199886465633157213 -0.03029034461324913580 -0.04959185703234680193  0.00014726811358267675 -0.00012370008295381184 -0.00046147455372617805 0.41685132935079238781 0.64078883450350399009 0.01753681953339375141 0.00001653139900626392 0.00001600289099097541 0.00001614930519033562
1520530326.000543 0.00000000000000000000 0.00000000000000000000 0.00000000000000000000 0.00000000000000000000 0.00000000000000000000 0.00000000000000000000  0.01450985496314790429 -0.02819265372763881533 -0.05027530601278710348  0.00014014998373955325 -0.00012275613437878866 -0.00045572042299179069 0.41617675994505165527 0.64026662186273564092 0.01757707428441471903 0.00001660392413244643 0.00001598987127103026 0.00001615931259867073
1520530326.150548 0.00000000000000000000 0.00000000000000000000 0.00000000000000000000 0.00000000000000000000 0.00000000000000000000 0.00000000000000000000  0.01501597684004934465 -0.02735097106022500724 -0.05016933926984137870  0.00017099904313318774 -0.00011124398962402413 -0.00042612565214030109 0.41235618108692967398 0.63748916139630429356 0.01754974087311332240 0.00001661432087880187 0.00001594385506694755 0.00001611734824745383
1520530326.300552 0.00000000000000000000 0.00000000000000000000 0.00000000000000000000 0.00000000000000000000 0.00000000000000000000 0.00000000000000000000  0.01460428236214152305 -0.02573147961143540038 -0.05034465046963241402  0.00018969757210961750 -0.00010260182272912855 -0.00040294046784293715 0.41034019514260827721 0.63576596268065199702 0.01762981124589104928 0.00001664437824979397 0.00001591120962374312 0.00001609612639678422
1520530326.400206 0.00000000000000000000 0.00000000000000000000 0.00000000000000000000 0.00000000000000000000 0.00000000000000000000 0.00000000000000000000  0.01391375776318811569 -0.02530036559965560816 -0.05027289500157886004  0.00018285705902814321 -0.00007810785484000009 -0.00042310425468475369 0.40877878190010602522 0.63319961391338863699 0.01765028827570590264 0.00001669005849547147 0.00001590484371028823 0.00001609988154722313
1520530326.600213 0.00000000000000000000 0.00000000000000000000 0.00000000000000000000 0.00000000000000000000 0.00000000000000000000 0.00000000000000000000  0.01244484756318574477 -0.02451569884079453365 -0.05012100478105099149  0.00021831865618384604 -0.00008309400261456571 -0.00041679941961915467 0.40404089983332730496 0.62764889202332285745 0.01766387376773887949 0.00001674040183739705 0.00001587924172555026 0.00001607888882454929
1520530326.750427 0.00000000000000000000 0.00000000000000000000 0.00000000000000000000 0.00000000000000000000 0.00000000000000000000 0.00000000000000000000  0.01086964144183367141 -0.02320264277131022651 -0.04951295075281449826  0.00018784232763532953 -0.00002761869534737131 -0.00041881144821193512 0.39983430510050449458 0.62187001757471027652 0.01762512263502174700 0.00001668229384097937 0.00001581421755228598 0.00001604114370102161
1520530326.950432 0.00000000000000000000 0.00000000000000000000 0.00000000000000000000 0.00000000000000000000 0.00000000000000000000 0.00000000000000000000  0.01035134533541318819 -0.02208182775029273251 -0.04925578621335791746  0.00004538061446316672  0.00001784542725562146 -0.00036271872093323709 0.39293333355585818856 0.60996414712704105643 0.01744391924142317529 0.00001664198078523796 0.00001573506170653717 0.00001597634334604796
1520530327.050437 0.00000000000000000000 0.00000000000000000000 0.00000000000000000000 0.00000000000000000000 0.00000000000000000000 0.00000000000000000000  0.00954687319349771003 -0.02094483442930163142 -0.04940798215206315680  0.00000223158617800637  0.00005627460219907177 -0.00033949391393798710 0.38861499257594600554 0.60360951201694446056 0.01732937029891343586 0.00001656114942598721 0.00001570631273213179 0.00001592189011906470
1520530327.150431 0.00000000000000000000 0.00000000000000000000 0.00000000000000000000 0.00000000000000000000 0.00000000000000000000 0.00000000000000000000  0.01048880091220566989 -0.01974000479967738877 -0.04999737530333557556  0.00002090626459248923  0.00001986540412295951 -0.00029253275399389642 0.38474932559067248627 0.59916774878612077959 0.01727682091928148603 0.00001649024558931961 0.00001567699938677685 0.00001588378405359072
1520530327.250435 0.00000000000000000000 0.00000000000000000000 0.00000000000000000000 0.00000000000000000000 0.00000000000000000000 0.00000000000000000000  0.01127980697694098977 -0.01930963045951351875 -0.05026390912005308104  0.00007442268740304287 -0.00003936576233526147 -0.00029895261463389272 0.38062136826183284866 0.59593233590465677363 0.01723230974933863402 0.00001647102350024303 0.00001566038431404039 0.00001585387089533020
1520530327.400439 0.00000000000000000000 0.00000000000000000000 0.00000000000000000000 0.00000000000000000000 0.00000000000000000000 0.00000000000000000000  0.01157802073699834219 -0.02011884908151220439 -0.05096042466614304767  0.00012369735295792670 -0.00005370710716571514 -0.00024189138357971743 0.37441210771336752572 0.59315485056950634224 0.01721108540282670699 0.00001646277119129601 0.00001563095304206907 0.00001583651236829447
1520530327.550090 0.00000000000000000000 0.00000000000000000000 0.00000000000000000000 0.00000000000000000000 0.00000000000000000000 0.00000000000000000000  0.00973188381125966034 -0.01942482137418253055 -0.05071100418649273495  0.00013569963356201535 -0.00003263888400005880 -0.00014318183818768908 0.36916754436178633725 0.59004528139025058664 0.01728251790445852615 0.00001649470477811399 0.00001564456747177241 0.00001588327264089359
1520530327.650103 0.00000000000000000000 0.00000000000000000000 0.00000000000000000000 0.00000000000000000000 0.00000000000000000000 0.00000000000000000000  0.00936646897373642762 -0.01907426147653748169 -0.05085858074838084386  0.00016743676839473857 -0.00000983597203498203 -0.00007430298043472969 0.36641124760025217677 0.58817199435068157065 0.01733535215790327211 0.00001639097723491555 0.00001561233835687368 0.00001585922186032110
1520530327.750096 0.00000000000000000000 0.00000000000000000000 0.00000000000000000000 0.00000000000000000000 0.00000000000000000000 0.00000000000000000000  0.00539394155889935233 -0.01963613619814949182 -0.05050476014677349190  0.00018800222286156768 -0.00005097509229819618  0.00008080698443025050 0.36392329839249898393 0.58722037398106674555 0.01737389561801306118 0.00001616723647696490 0.00001556221653123393 0.00001579148152662106
1520530327.850099 0.00000000000000000000 0.00000000000000000000 0.00000000000000000000 0.00000000000000000000 0.00000000000000000000 0.00000000000000000000  0.00768434317736344744 -0.01666651334778357016 -0.05012332287167126088  0.00009544056503717213 -0.00008781557416209109  0.00005428095927426015 0.36244410511787189533 0.58629060301006707956 0.01735541428708636466 0.00001614352741355787 0.00001555789177897003 0.00001579481359144060
1520530327.950102 0.00000000000000000000 0.00000000000000000000 0.00000000000000000000 0.00000000000000000000 0.00000000000000000000 0.00000000000000000000  0.00997449711062316224 -0.01433779416309974818 -0.05020925740276083876 -0.00002639051201547615 -0.00013661773026661666 -0.00002538464899280707 0.36304409828804290461 0.58416541767048357769 0.01726363256178184424 0.00001623676797098637 0.00001557199592411173 0.00001582319666451304
1520530328.000280 0.00000000000000000000 0.00000000000000000000 0.00000000000000000000 0.00000000000000000000 0.00000000000000000000 0.00000000000000000000  0.01073388090415296377 -0.01647581620145065900 -0.05012152248601658283 -0.00005392591693699008 -0.00015546180023907284 -0.00004465651674046030 0.36263803093710994530 0.58230296815302828861 0.01718576274211015484 0.00001621441721004224 0.00001555742955607865 0.00001583094520306977
1520530328.100283 0.00000000000000000000 0.00000000000000000000 0.00000000000000000000 0.00000000000000000000 0.00000000000000000000 0.00000000000000000000  0.01054246274784304514 -0.01932991818176266197 -0.05012440611411674019 -0.00002786965926607172 -0.00011818913678919121 -0.00008667577650954572 0.36060776017279760897 0.57612516375270117486 0.01700088786435114893 0.00001620330721834677 0.00001556315024870701 0.00001582373201987672
1520530328.250288 0.00000000000000000000 0.00000000000000000000 0.00000000000000000000 0.00000000000000000000 0.00000000000000000000 0.00000000000000000000  0.00809662677351555976 -0.01493482744370929101 -0.05099776956716058768  0.00006984009327495267 -0.00001971982624935871 -0.00027252210402998924 0.35155653279884185869 0.56006017775447869411 0.01670265379118059459 0.00001614656532845098 0.00001554420491658153 0.00001583094644475322
1520530328.350291 0.00000000000000000000 0.00000000000000000000 0.00000000000000000000 0.00000000000000000000 0.00000000000000000000 0.00000000000000000000  0.00805035141193087209 -0.01498866794830770559 -0.05112445297730650040  0.00014319093770141154 -0.00001216192319847929 -0.00041998105291502646 0.34135840659721367052 0.54555932868027356974 0.01649860754163579718 0.00001610713522444994 0.00001551588971371254 0.00001579396924935627
1520530328.450338 0.00000000000000000000 0.00000000000000000000 0.00000000000000000000 0.00000000000000000000 0.00000000000000000000 0.00000000000000000000  0.00786640750296939070 -0.01621013318833081432 -0.05100792974190960366  0.00015626033892947536  0.00003061436893611498 -0.00052752149091694249 0.32897464122387415353 0.52944722951767486663 0.01629438343522941063 0.00001609085421704690 0.00001548920997776734 0.00001573727955685007
1520530328.550342 0.00000000000000000000 0.00000000000000000000 0.00000000000000000000 0.00000000000000000000 0.00000000000000000000 0.00000000000000000000  0.00729668977473526149 -0.01907294456358669260 -0.05059791628305092270  0.00009697749569138622  0.00008982573439900511 -0.00058386526421461138