1520530315.749639 0.00000000000000000000 0.00000000000000000000 0.00000000000000000000 0.00000000000000000000 0.00000000000000000000 0.00000000000000000000 -0.14298957077322085873 -0.07403191784473117654 -0.03165602664453733006  0.00002877202606278654 -0.00007011781433267235 -0.00056121707751824782
1520530315.899643 0.00000000000000000000 0.00000000000000000000 0.00000000000000000000 0.00000000000000000000 0.00000000000000000000 0.00000000000000000000 -0.14263185479074375062 -0.09254479822451695814 -0.03016947689883507991  0.00023820418663663984 -0.00001457334730684025 -0.00050825529047741306
1520530316.049648 0.00000000000000000000 0.00000000000000000000 0.00000000000000000000 0.00000000000000000000 0.00000000000000000000 0.00000000000000000000 -0.08286103968351087035 -0.09177132022006180556 -0.03261886386862098558  0.00030626429547559841  0.00002091662232013266 -0.00049604394258198029
1520530316.100221 0.00000000000000000000 0.00000000000000000000 0.00000000000000000000 0.00000000000000000000 0.00000000000000000000 0.00000000000000000000 -0.06810382366194629722 -0.08717650942893223620 -0.03382953059978393434  0.00023998387799945529 -0.00004503512962490820 -0.00045002063061894490
1520530316.300227 0.00000000000000000000 0.00000000000000000000 0.00000000000000000000 0.00000000000000000000 0.00000000000000000000 0.00000000000000000000 -0.05168600757221617631 -0.06634945996510119293 -0.03662858003968966214  0.00012376276641406090 -0.00008055186658986562 -0.00040392442862557915
1520530316.450231 0.00000000000000000000 0.00000000000000000000 0.00000000000000000000 0.00000000000000000000 0.00000000000000000000 0.00000000000000000000 -0.02453626453873295962 -0.06808873586558500390 -0.03897825252634987830  0.00003770233098733282 -0.00001002988549209929 -0.00041864762015863280
1520530316.650280 0.00000000000000000000 0.00000000000000000000 0.00000000000000000000 0.00000000000000000000 0.00000000000000000000 0.00000000000000000000 -0.01490211859915870768 -0.05828384167913457092 -0.04051601187373343738  0.00001757122345477197 -0.00005157912526958634 -0.00038254139926091060
1520530316.850286 0.00000000000000000000 0.00000000000000000000 0.00000000000000000000 0.00000000000000000000 0.00000000000000000000 0.00000000000000000000 -0.01957172701403283102 -0.03427525256885612104 -0.04283088442839524251 -0.00004626747164700216 -0.00005334237949376278 -0.00036089455132931939
1520530316.949773 0.00000000000000000000 0.00000000000000000000 0.00000000000000000000 0.00000000000000000000 0.00000000000000000000 0.00000000000000000000 -0.02348460971018326293 -0.04316103248005106335 -0.04253110851042721241 -0.00001548650261197019 -0.00003864531814614577 -0.00044415722333635449
1520530317.149779 0.00000000000000000000 0.00000000000000000000 0.00000000000000000000 0.00000000000000000000 0.00000000000000000000 0.00000000000000000000 -0.02130149037929563241 -0.04745217580757376402 -0.04317582562018413422  0.00004582954382602340 -0.00008576226544696313 -0.00041699792742936676
1520530317.299784 0.00000000000000000000 0.00000000000000000000 0.00000000000000000000 0.00000000000000000000 0.00000000000000000000 0.00000000000000000000 -0.03042794582532411599 -0.04617864474607753095 -0.04250894369309626136  0.00011160001600889496 -0.00008738428625658597 -0.00035902833888216268
1520530317.449747 0.00000000000000000000 0.00000000000000000000 0.00000000000000000000 0.00000000000000000000 0.00000000000000000000 0.00000000000000000000 -0.03308928680381154758 -0.04505790320859392323 -0.04216792865857603434  0.00010675184403549633 -0.00017218374361387256 -0.00041192439685149994
1520530317.649755 0.00000000000000000000 0.00000000000000000000 0.00000000000000000000 0.00000000000000000000 0.00000000000000000000 0.00000000000000000000 -0.03159845693815110934 -0.05020570045151710042 -0.04204012264774850682  0.00013195471085620673 -0.00019939594297142186 -0.00041615148276128095
1520530317.750237 0.00000000000000000000 0.00000000000000000000 0.00000000000000000000 0.00000000000000000000 0.00000000000000000000 0.00000000000000000000 -0.03171180747660244659 -0.05031596800429739835 -0.04188647294493933609  0.00015635101796219808 -0.00003376359163073183 -0.00043927612762514429
1520530317.900242 0.00000000000000000000 0.00000000000000000000 0.00000000000000000000 0.00000000000000000000 0.00000000000000000000 0.00000000000000000000 -0.03062016151751085352 -0.04515807762850495427 -0.04216627524204503985  0.00025179638093258039  0.00001133721226549054 -0.00043208189471359153
1520530318.050246 0.00000000000000000000 0.00000000000000000000 0.00000000000000000000 0.00000000000000000000 0.00000000000000000000 0.00000000000000000000 -0.03322055768332729531 -0.03850845385611052774 -0.04222047973238037682  0.00034403330646076940 -0.00002255964195805109 -0.00046708973789895604
1520530318.150816 0.00000000000000000000 0.00000000000000000000 0.00000000000000000000 0.00000000000000000000 0.00000000000000000000 0.00000000000000000000 -0.03175464700210648555 -0.03359242662483490766 -0.04209998567254193830  0.00035816689538576281 -0.00004288841202598812 -0.00055473945252493783
1520530318.300772 0.00000000000000000000 0.00000000000000000000 0.00000000000000000000 0.00000000000000000000 0.00000000000000000000 0.00000000000000000000 -0.03187582797934600254 -0.02900013712215803591 -0.04261065902114714865  0.00030787189107962581  0.00002249790367002915 -0.00055442542712495627
1520530318.450777 0.00000000000000000000 0.00000000000000000000 0.00000000000000000000 0.00000000000000000000 0.00000000000000000000 0.00000000000000000000 -0.03527615095732830608 -0.03339036367674990541 -0.04233478996514816739  0.00026932557231860120  0.00000381217290995963 -0.00050574690376043634
1520530318.600567 0.00000000000000000000 0.00000000000000000000 0.00000000000000000000 0.00000000000000000000 0.00000000000000000000 0.00000000000000000000 -0.03980025721786067949 -0.04074518312662332026 -0.04174570755826797347  0.00018418634069723198 -0.00004685322787679130 -0.00042468333252901520
1520530318.750571 0.00000000000000000000 0.00000000000000000000 0.00000000000000000000 0.00000000000000000000 0.00000000000000000000 0.00000000000000000000 -0.03731732110709856665 -0.04405670180874859954 -0.04178980282719806094  0.00018825416131708380 -0.00004136873431181587 -0.00039665967291654784
1520530318.900576 0.00000000000000000000 0.00000000000000000000 0.00000000000000000000 0.00000000000000000000 0.00000000000000000000 0.00000000000000000000 -0.02428190603711128520 -0.04926163274601590841 -0.04268103319309916183  0.00017522541286038888 -0.00008025745715967248 -0.00036163690636963086
1520530318.999955 0.00000000000000000000 0.00000000000000000000 0.00000000000000000000 0.00000000000000000000 0.00000000000000000000 0.00000000000000000000 -0.01786790902229741518 -0.05113141270654207593 -0.04336334974992778896  0.00016921502531526509 -0.00017899231211306521 -0.00031020418450064779
1520530319.149961 0.00000000000000000000 0.00000000000000000000 0.00000000000000000000 0.00000000000000000000 0.00000000000000000000 0.00000000000000000000 -0.00778752136696355974 -0.05624366704862070881 -0.04399028087414524890  0.00019091485699692512 -0.00015692068862188706 -0.00028941551777853766
1520530319.299965 0.00000000000000000000 0.00000000000000000000 0.00000000000000000000 0.00000000000000000000 0.00000000000000000000 0.00000000000000000000 -0.00123859861502350743 -0.05576835706677660265 -0.04452781248592795060  0.00023490879637573823 -0.00012446945275044140 -0.00030409333411266225
1520530319.399832 0.00000000000000000000 0.00000000000000000000 0.00000000000000000000 0.00000000000000000000 0.00000000000000000000 0.00000000000000000000 -0.00076030935135027150 -0.05355339815303004902 -0.04462231674983897778  0.00025927671876992559 -0.00010718578481292997 -0.00029469253676743409
1520530319.549837 0.00000000000000000000 0.00000000000000000000 0.00000000000000000000 0.00000000000000000000 0.00000000000000000000 0.00000000000000000000  0.00000350244394107524 -0.04963910225681545524 -0.04500776158741427030  0.00023044902826834470 -0.00006784380636053944 -0.00029049704724373195
1520530319.699841 0.00000000000000000000 0.00000000000000000000 0.00000000000000000000 0.00000000000000000000 0.00000000000000000000 0.00000000000000000000 -0.00501191927533229178 -0.04791215727490664988 -0.04462313398331547304  0.00021731269426266363 -0.00001821974106784606 -0.00022896944109880181
1520530319.800341 0.00000000000000000000 0.00000000000000000000 0.00000000000000000000 0.00000000000000000000 0.00000000000000000000 0.00000000000000000000 -0.01179786615089437225 -0.04417238455693245358 -0.04401507715236120666  0.00022906283319589822  0.00005607468287744839 -0.00017304877276520746
1520530319.900344 0.00000000000000000000 0.00000000000000000000 0.00000000000000000000 0.00000000000000000000 0.00000000000000000000 0.00000000000000000000 -0.01553029237371079951 -0.04591366882686701012 -0.04342914546334745302  0.00020916437330400380  0.00002489180032031800 -0.00008648250790436188
1520530320.000347 0.00000000000000000000 0.00000000000000000000 0.00000000000000000000 0.00000000000000000000 0.00000000000000000000 0.00000000000000000000 -0.01388510766702064428 -0.04821356543225885360 -0.04324036850832092826  0.00009199231608667028 -0.00002998958463623715 -0.00007654525766906295
1520530320.100350 0.00000000000000000000 0.00000000000000000000 0.00000000000000000000 0.00000000000000000000 0.00000000000000000000 0.00000000000000000000 -0.00697644614991762245 -0.04363084650541921433 -0.04417412075048562925  0.00001034619356089679 -0.00009048742831834385 -0.00019256632616152777
1520530320.200401 0.00000000000000000000 0.00000000000000000000 0.00000000000000000000 0.00000000000000000000 0.00000000000000000000 0.00000000000000000000 -0.00650293512319189467 -0.04884897011260053851 -0.04415860362769576108 -0.00001615401644190417 -0.00010440009904262255 -0.00016766607031521051
1520530320.300404 0.00000000000000000000 0.00000000000000000000 0.00000000000000000000 0.00000000000000000000 0.00000000000000000000 0.00000000000000000000 -0.00532806082284053868 -0.04941196175965494736 -0.04450962717022800830  0.00002398633258760841 -0.00006254659194317466 -0.00016650837801350537
1520530320.450408 0.00000000000000000000 0.00000000000000000000 0.00000000000000000000 0.00000000000000000000 0.00000000000000000000 0.00000000000000000000 -0.00759738256899602799 -0.04591453280546332893 -0.04489887347216196117  0.00013322496718211726 -0.00002441927289640520 -0.00023465594792472689
1520530320.599869 0.00000000000000000000 0.00000000000000000000 0.00000000000000000000 0.00000000000000000000 0.00000000000000000000 0.00000000000000000000 -0.00030526778982649600 -0.04143659388015095979 -0.04590153303989379791  0.00012378874772123354 -0.00001929269162462705 -0.00022158333226035277
1520530320.749874 0.00000000000000000000 0.00000000000000000000 0.00000000000000000000 0.00000000000000000000 0.00000000000000000000 0.00000000000000000000 -0.00053398861469280989 -0.04269649687268910199 -0.04628940701170643213  0.00011393700833476798 -0.00003332418259611779 -0.00026124266407619016
1520530320.899879 0.00000000000000000000 0.00000000000000000000 0.00000000000000000000 0.00000000000000000000 0.00000000000000000000 0.00000000000000000000 -0.00073434786766522081 -0.04731426058827505748 -0.04632795950285104741  0.00014178106755985219 -0.00001872351968755701 -0.00030615079672819957
1520530321.049740 0.00000000000000000000 0.00000000000000000000 0.00000000000000000000 0.00000000000000000000 0.00000000000000000000 0.00000000000000000000  0.00074183973546288352 -0.04535040376123007644 -0.04639611370958344333  0.00023301880233980742 -0.00003708740757170084 -0.00033705841047282858
1520530321.199745 0.00000000000000000000 0.00000000000000000000 0.00000000000000000000 0.00000000000000000000 0.00000000000000000000 0.00000000000000000000  0.00215529380782313778 -0.04172833361738432362 -0.04687046658635270202  0.00020882333117716926  0.00004255276765660909 -0.00032870604520565498
1520530321.349750 0.00000000000000000000 0.00000000000000000000 0.00000000000000000000 0.00000000000000000000 0.00000000000000000000 0.00000000000000000000  0.00430713838427116986 -0.04309583297957251397 -0.04685406247896934523  0.00023999643244710763  0.00006043827440256466 -0.00029207243169373311
1520530321.499857 0.00000000000000000000 0.00000000000000000000 0.00000000000000000000 0.00000000000000000000 0.00000000000000000000 0.00000000000000000000  0.00140771458257461075 -0.04188325221746237031 -0.04671530428924652867  0.00026497973632709428  0.00005924689566251371 -0.00026467565366285271
1520530321.649862 0.00000000000000000000 0.00000000000000000000 0.00000000000000000000 0.00000000000000000000 0.00000000000000000000 0.00000000000000000000  0.00156225094329102846 -0.04082277516869621536 -0.04667421062690166322  0.00033652381064331471  0.00000800562043948935 -0.00028226365925056179
1520530321.799867 0.00000000000000000000 0.00000000000000000000 0.00000000000000000000 0.00000000000000000000 0.00000000000000000000 0.00000000000000000000  0.00247815341347722585 -0.03977441197008443896 -0.04661197496245378380  0.00035293859188837670 -0.00003073602711662113 -0.00030774915119322277
1520530321.950155 0.00000000000000000000 0.00000000000000000000 0.00000000000000000000 0.00000000000000000000 0.00000000000000000000 0.00000000000000000000  0.00580818098985218072 -0.03977535172470914732 -0.04626724828372640042  0.00025801854188001774 -0.00002913642597656645 -0.00031401044396186931
1520530322.100160 0.00000000000000000000 0.00000000000000000000 0.00000000000000000000 0.00000000000000000000 0.00000000000000000000 0.00000000000000000000  0.00833289822989989604 -0.04174336329795063499 -0.04638835537921780910  0.00006526035029861566  0.00004271745053986998 -0.00028263294930712933
1520530322.300208 0.00000000000000000000 0.00000000000000000000 0.00000000000000000000 0.00000000000000000000 0.00000000000000000000 0.00000000000000000000  0.00997679708309937019 -0.03947250727488169075 -0.04758286350687408045  0.00001773507147808323  0.00005259535105519501 -0.00032011418183797413
1520530322.550216 0.00000000000000000000 0.00000000000000000000 0.00000000000000000000 0.00000000000000000000 0.00000000000000000000 0.00000000000000000000  0.01015595105585989297 -0.03491253433582073434 -0.04818234395578649409  0.00006843162124640052  0.00004835083690057378 -0.00033755458772805297
1520530322.700026 0.00000000000000000000 0.00000000000000000000 0.00000000000000000000 0.00000000000000000000 0.00000000000000000000 0.00000000000000000000  0.00899637548931708948 -0.03186995497395278543 -0.04887108729524987372  0.00009698209796162388 -0.00000673099561446050 -0.00035645438937007045
1520530322.900065 0.00000000000000000000 0.00000000000000000000 0.00000000000000000000 0.00000000000000000000 0.00000000000000000000 0.00000000000000000000  0.00911807219701873603 -0.03086976694648460584 -0.04894290323762479772  0.00012390847960094202  0.00001104670491946045 -0.00034909728474870105
1520530323.050036 0.00000000000000000000 0.00000000000000000000 0.00000000000000000000 0.00000000000000000000 0.00000000000000000000 0.00000000000000000000  0.00801233311356379374 -0.03073302462184859807 -0.04869602718108514972  0.00010897996136735373  0.00004202832346201886 -0.00039090972783841925
1520530323.200077 0.00000000000000000000 0.00000000000000000000 0.00000000000000000000 0.00000000000000000000 0.00000000000000000000 0.00000000000000000000  0.00794271565077052377 -0.03167153397507867230 -0.04867237634319696721  0.00013313159185694598  0.00003025701905367020 -0.00037686222730102441
1520530323.350082 0.00000000000000000000 0.00000000000000000000 0.00000000000000000000 0.00000000000000000000 0.00000000000000000000 0.00000000000000000000  0.00888445695796692171 -0.03099337098254522499 -0.04815268331279834446  0.00014594987543858047 -0.00002353269973170254 -0.00039099033076247369
1520530323.450085 0.00000000000000000000 0.00000000000000000000 0.00000000000000000000 0.00000000000000000000 0.00000000000000000000 0.00000000000000000000  0.01511722253613763736 -0.03011722473222040730 -0.04777386715357373470  0.00013844151013780743 -0.00004005211681465235 -0.00043820750699918257
1520530323.550346 0.00000000000000000000 0.00000000000000000000 0.00000000000000000000 0.00000000000000000000 0.00000000000000000000 0.00000000000000000000  0.01573416066713591993 -0.03099428373113386620 -0.04818840751579983595  0.00001770563007657828 -0.00002447119607344767 -0.00044068776726258028
1520530323.650349 0.00000000000000000000 0.00000000000000000000 0.00000000000000000000 0.00000000000000000000 0.00000000000000000000 0.00000000000000000000  0.01552086402999330178 -0.02909921319193303074 -0.04882965231039488457 -0.00004119902587161460  0.00000064379217798416 -0.00043625199819548712
1520530323.750353 0.00000000000000000000 0.00000000000000000000 0.00000000000000000000 0.00000000000000000000 0.00000000000000000000 0.00000000000000000000  0.01566479610422338506 -0.02759458472458576825 -0.04913803237877195640  0.00001742762322177683  0.00000397990476748587 -0.00041281449873008670
1520530323.900153 0.00000000000000000000 0.00000000000000000000 0.00000000000000000000 0.00000000000000000000 0.00000000000000000000 0.00000000000000000000  0.01305441415723252591 -0.02812892111894807479 -0.04897556849816082220  0.00007383452777424766 -0.00002674039841886215 -0.00041371042790784351
1520530324.050157 0.00000000000000000000 0.00000000000000000000 0.00000000000000000000 0.00000000000000000000 0.00000000000000000000 0.00000000000000000000  0.01260979964370175822 -0.02785861366643693077 -0.04924087753239360377  0.00011591191511053498 -0.00005144983150250358 -0.00040863176200142134
1520530324.200162 0.00000000000000000000 0.00000000000000000000 0.00000000000000000000 0.00000000000000000000 0.00000000000000000000 0.00000000000000000000  0.01066070742976064044 -0.02909225485364598518 -0.04931442014554165976  0.00008376855146138480 -0.00004049871502858243 -0.00041387877730784977
1520530324.299908 0.00000000000000000000 0.00000000000000000000 0.00000000000000000000 0.00000000000000000000 0.00000000000000000000 0.00000000000000000000  0.01022573346604964406 -0.03095259341605603731 -0.04946439084392395547  0.00003921431803712332  0.00000593769529556278 -0.00042212021610706736
1520530324.399911 0.00000000000000000000 0.00000000000000000000 0.00000000000000000000 0.00000000000000000000 0.00000000000000000000 0.00000000000000000000  0.01097646904298609297 -0.03255853515507024787 -0.04985524757126860024  0.00008804751747608873 -0.00001429186699345241 -0.00039390579034201731
1520530324.499994 0.00000000000000000000 0.00000000000000000000 0.00000000000000000000 0.00000000000000000000 0.00000000000000000000 0.00000000000000000000  0.01250977754587162191 -0.03322116968448599050 -0.04988475705382192094  0.00013943759272473522 -0.00005000311437886194 -0.00042033601160802703
1520530324.599917 0.00000000000000000000 0.00000000000000000000 0.00000000000000000000 0.00000000000000000000 0.00000000000000000000 0.00000000000000000000  0.01159567734956318784 -0.03220947180148639455 -0.04970283685479190416  0.00019362904400729354 -0.00007690211309990935 -0.00043524796660004966
1520530324.750020 0.00000000000000000000 0.00000000000000000000 0.00000000000000000000 0.00000000000000000000 0.00000000000000000000 0.00000000000000000000  0.01261348448745171560 -0.03100582836033641265 -0.04976051319889916724  0.00018587471360238155 -0.00005172446408518904 -0.00044121398812104422
1520530324.900024 0.00000000000000000000 0.00000000000000000000 0.00000000000000000000 0.00000000000000000000 0.00000000000000000000 0.00000000000000000000  0.01293553159476180762 -0.03016173368730050430 -0.04981532391184181896  0.00013754714676690900 -0.00003742470619769128 -0.00045569076399026474
1520530325.100816 0.00000000000000000000 0.00000000000000000000 0.00000000000000000000 0.00000000000000000000 0.00000000000000000000 0.00000000000000000000  0.01218073147304628637 -0.02988777373591596301 -0.04962751397258825803  0.00016091052696628821 -0.00005512948443415280 -0.00048497256263974633
1520530325.300822 0.00000000000000000000 0.00000000000000000000 0.00000000000000000000 0.00000000000000000000 0.00000000000000000000 0.00000000000000000000  0.01172066053534273969 -0.02938049038269816352 -0.04972893361546090046  0.00014156188287364071 -0.00005537509344531428 -0.00043880505867523677
1520530325.500828 0.00000000000000000000 0.00000000000000000000 0.00000000000000000000 0.00000000000000000000 0.00000000000000000000 0.00000000000000000000  0.00840598975561918267 -0.03030160846890902343 -0.04899461486671421312  0.00021783413592394840 -0.00008831543911573954 -0.00032300107920703840
1520530325.700918 0.00000000000000000000 0.00000000000000000000 0.00000000000000000000 0.00000000000000000000 0.00000000000000000000 0.00000000000000000000  0.00893061675502638576 -0.03176827499815033234 -0.04874405706013933831  0.00019531841584629370 -0.00008437792664863817 -0.00033713084600481242
1520530325.900924 0.00000000000000000000 0.00000000000000000000 0.00000000000000000000 0.00000000000000000000 0.00000000000000000000 0.00000000000000000000  0.01106331273078603808 -0.03207742603418936578 -0.04936801257208173199  0.00013910205564720017 -0.00013306478543880022 -0.00039815686980137929
1520530326.000543 0.00000000000000000000 0.00000000000000000000 0.00000000000000000000 0.00000000000000000000 0.00000000000000000000 0.00000000000000000000  0.01249125606710669960 -0.03006874509180142499 -0.04971163875720333025  0.00014887304993821160 -0.00012479363632952496 -0.00046321190499735374
1520530326.150548 0.00000000000000000000 0.00000000000000000000 0.00000000000000000000 0.00000000000000000000 0.00000000000000000000 0.00000000000000000000  0.01500516417501091687 -0.02809914604092949436 -0.05025851043985443689  0.00014175322949051329 -0.00012477688026475727 -0.00045217636228879167
1520530326.300552 0.00000000000000000000 0.00000000000000000000 0.00000000000000000000 0.00000000000000000000 0.00000000000000000000 0.00000000000000000000  0.01508238623865746503 -0.02679905245716376894 -0.05000416951512126618  0.00016837952768763891 -0.00011033651321828633 -0.00042848961037561376
1520530326.400206 0.00000000000000000000 0.00000000000000000000 0.00000000000000000000 0.00000000000000000000 0.00000000000000000000 0.00000000000000000000  0.01439565959567196823 -0.02510180905649846833 -0.05025733503411352471  0.00018793994816843532 -0.00010178070501064466 -0.00040526634327475974
1520530326.600213 0.00000000000000000000 0.00000000000000000000 0.00000000000000000000 0.00000000000000000000 0.00000000000000000000 0.00000000000000000000  0.01372175323503589672 -0.02500487619781745566 -0.05013356698236132863  0.00018919538839712538 -0.00007723345152150460 -0.00042876666701421650
1520530326.750427 0.00000000000000000000 0.00000000000000000000 0.00000000000000000000 0.00000000000000000000 0.00000000000000000000 0.00000000000000000000  0.01179081778052893173 -0.02322093166297149389 -0.04968206617952338616  0.00021579417100176632 -0.00008103181447875715 -0.00041657606908949551
1520530326.950432 0.00000000000000000000 0.00000000000000000000 0.00000000000000000000 0.00000000000000000000 0.00000000000000000000 0.00000000000000000000  0.01048867450635990704 -0.01931116846572577053 -0.04920897029227275926  0.00018140531983869252 -0.00003049231082535315 -0.00041516219209063393
1520530327.050437 0.00000000000000000000 0.00000000000000000000 0.00000000000000000000 0.00000000000000000000 0.00000000000000000000 0.00000000000000000000  0.00977159952366284806 -0.02142059452673069145 -0.04931304574407378155  0.00004058850985566595  0.00001968537765777739 -0.00035643591767095149
1520530327.150431 0.00000000000000000000 0.00000000000000000000 0.00000000000000000000 0.00000000000000000000 0.00000000000000000000 0.00000000000000000000  0.00939183511779408120 -0.01994575540971979186 -0.04959740413925940034 -0.00000732910988186559  0.00005658068563049086 -0.00033769114366975100
1520530327.250435 0.00000000000000000000 0.00000000000000000000 0.00000000000000000000 0.00000000000000000000 0.00000000000000000000 0.00000000000000000000  0.01024787247846941848 -0.01989385955777459025 -0.05006200362654024405  0.00002513241111429669  0.00001700634629196863 -0.00029226477569733528
1520530327.400439 0.00000000000000000000 0.00000000000000000000 0.00000000000000000000 0.00000000000000000000 0.00000000000000000000 0.00000000000000000000  0.01123317405038133307 -0.01868332213727924226 -0.05069045997993389813  0.00007154409882123341 -0.00004129781800773830 -0.00029542113074835770