1520530315.799640 0.00000000000000000000 0.00000000000000000000 0.00000000000000000000 0.00000000000000000000 0.00000000000000000000 0.00000000000000000000 -0.11146541829873425622 -0.07623076377064261222 -0.03383226856590768744  0.00005201239886812392 -0.00008212377503272346 -0.00059180249232345630
1520530315.949645 0.00000000000000000000 0.00000000000000000000 0.00000000000000000000 0.00000000000000000000 0.00000000000000000000 0.00000000000000000000 -0.10475786997480268647 -0.09426606754076065353 -0.03268023251074129304  0.00031398684341458718 -0.00000145753266396550 -0.00049987173374581046
1520530316.100221 0.00000000000000000000 0.00000000000000000000 0.00000000000000000000 0.00000000000000000000 0.00000000000000000000 0.00000000000000000000 -0.07776618529095299936 -0.08517929665589711596 -0.03392958972091156267  0.00026402566371155358 -0.00000145864888219428 -0.00049181487715456776
1520530316.300227 0.00000000000000000000 0.00000000000000000000 0.00000000000000000000 0.00000000000000000000 0.00000000000000000000 0.00000000000000000000 -0.04264093335359191855 -0.06264230349891168614 -0.03787808418978893393  0.00011544265200627668 -0.00006725458545365210 -0.00043414524221365569
1520530316.450231 0.00000000000000000000 0.00000000000000000000 0.00000000000000000000 0.00000000000000000000 0.00000000000000000000 0.00000000000000000000 -0.02129711901988776482 -0.06720830148628233192 -0.04001340631587754076  0.00000493790862466617 -0.00000187215541278589 -0.00040767185578219735
1520530316.650280 0.00000000000000000000 0.00000000000000000000 0.00000000000000000000 0.00000000000000000000 0.00000000000000000000 0.00000000000000000000 -0.02449827008107595752 -0.05832761957308660317 -0.04121699476398532624 -0.00001942920768814630 -0.00005169929135879097 -0.00034551581660300447
1520530316.850286 0.00000000000000000000 0.00000000000000000000 0.00000000000000000000 0.00000000000000000000 0.00000000000000000000 0.00000000000000000000 -0.03183766771839403181 -0.03481205601750449879 -0.04320814268039822187 -0.00011815931113469294 -0.00007106783459881580 -0.00034292691299719474
1520530316.949773 0.00000000000000000000 0.00000000000000000000 0.00000000000000000000 0.00000000000000000000 0.00000000000000000000 0.00000000000000000000 -0.02880105261490096061 -0.05020879532612766011 -0.04278900680063239120 -0.00009796437985083243 -0.00004112381317685453 -0.00043142589865169292
1520530317.149779 0.00000000000000000000 0.00000000000000000000 0.00000000000000000000 0.00000000000000000000 0.00000000000000000000 0.00000000000000000000 -0.03102061922266827546 -0.04616526713345438238 -0.04370061383792279985 -0.00004897024136107728 -0.00010128198138521022 -0.00039979372621888452
1520530317.349743 0.00000000000000000000 0.00000000000000000000 0.00000000000000000000 0.00000000000000000000 0.00000000000000000000 0.00000000000000000000 -0.04119295398979406359 -0.04842588888549354681 -0.04285893277705755955 -0.00002183322723786648 -0.00010870407480697903 -0.00033403575569068239
1520530317.549752 0.00000000000000000000 0.00000000000000000000 0.00000000000000000000 0.00000000000000000000 0.00000000000000000000 0.00000000000000000000 -0.04970847113506975112 -0.04166223056630378313 -0.04230862721601361121 -0.00000114424537354609 -0.00018010073510339297 -0.00036974722309151994
1520530317.750237 0.00000000000000000000 0.00000000000000000000 0.00000000000000000000 0.00000000000000000000 0.00000000000000000000 0.00000000000000000000 -0.04755194724162261494 -0.04317614817180246561 -0.04242068603141550126  0.00005355326724799348 -0.00010510563039944337 -0.00040946867705175555
1520530317.900242 0.00000000000000000000 0.00000000000000000000 0.00000000000000000000 0.00000000000000000000 0.00000000000000000000 0.00000000000000000000 -0.04398941085387308991 -0.04008607245886358639 -0.04282598655894910566  0.00015774181973347056 -0.00000962523084059564 -0.00036477056012307714
1520530318.050246 0.00000000000000000000 0.00000000000000000000 0.00000000000000000000 0.00000000000000000000 0.00000000000000000000 0.00000000000000000000 -0.04526145777381353208 -0.03692332994956033093 -0.04245757217367759212  0.00028533263382704652 -0.00001933879302658885 -0.00044742950673731292
1520530318.150816 0.00000000000000000000 0.00000000000000000000 0.00000000000000000000 0.00000000000000000000 0.00000000000000000000 0.00000000000000000000 -0.04493520730198788393 -0.03178751165940620071 -0.04254279631522223798  0.00024009739916474668 -0.00001633172733149376 -0.00052348970081831389
1520530318.300772 0.00000000000000000000 0.00000000000000000000 0.00000000000000000000 0.00000000000000000000 0.00000000000000000000 0.00000000000000000000 -0.04634144065396569867 -0.02895085943661834804 -0.04268198507301700778  0.00021386510477114316  0.00003180903209180992 -0.00054901473173635089
1520530318.450777 0.00000000000000000000 0.00000000000000000000 0.00000000000000000000 0.00000000000000000000 0.00000000000000000000 0.00000000000000000000 -0.03195864562464138803 -0.02495981516280253512 -0.04439182821312513683  0.00019838451882299340  0.00005719331596430198 -0.00046665429566315004
1520530318.600567 0.00000000000000000000 0.00000000000000000000 0.00000000000000000000 0.00000000000000000000 0.00000000000000000000 0.00000000000000000000 -0.03457680219292118273 -0.03028851142991254713 -0.04401911847289619734  0.00013096613201865365  0.00001045077951352086 -0.00038085566442044904
1520530318.750571 0.00000000000000000000 0.00000000000000000000 0.00000000000000000000 0.00000000000000000000 0.00000000000000000000 0.00000000000000000000 -0.03013826166361294884 -0.03328944487065189917 -0.04422427051827235167  0.00013725047746174636 -0.00000851758608923818 -0.00034310050331332525
1520530318.900576 0.00000000000000000000 0.00000000000000000000 0.00000000000000000000 0.00000000000000000000 0.00000000000000000000 0.00000000000000000000 -0.01645149265194471855 -0.03648378474331857857 -0.04553209408210930759  0.00010839284444416202 -0.00007444110001130963 -0.00027975049961684702
1520530318.999955 0.00000000000000000000 0.00000000000000000000 0.00000000000000000000 0.00000000000000000000 0.00000000000000000000 0.00000000000000000000 -0.00635334428907192300 -0.04002872944294467300 -0.04642936024774999004  0.00013442158074984014 -0.00017030410928091047 -0.00023019864398855514
1520530319.149961 0.00000000000000000000 0.00000000000000000000 0.00000000000000000000 0.00000000000000000000 0.00000000000000000000 0.00000000000000000000 -0.00369799942670223734 -0.04451612011371366973 -0.04649844129563079909  0.00017962124629324367 -0.00013897189921659639 -0.00022255893829967565
1520530319.299965 0.00000000000000000000 0.00000000000000000000 0.00000000000000000000 0.00000000000000000000 0.00000000000000000000 0.00000000000000000000 -0.00269607301138392007 -0.04590098871627887323 -0.04649079698880557998  0.00024433609321621605 -0.00009831820477116285 -0.00022278289202825577
1520530319.399832 0.00000000000000000000 0.00000000000000000000 0.00000000000000000000 0.00000000000000000000 0.00000000000000000000 0.00000000000000000000 -0.00042514098838604484 -0.03978214292929622975 -0.04694344221637684889  0.00025507828368306543 -0.00008078815028561375 -0.00024147732069850264
1520530319.549837 0.00000000000000000000 0.00000000000000000000 0.00000000000000000000 0.00000000000000000000 0.00000000000000000000 0.00000000000000000000 -0.00124408114286942459 -0.03579845410925635435 -0.04727264205728271690  0.00024760716460353767 -0.00002509744776457228 -0.00025920249466888381
1520530319.699841 0.00000000000000000000 0.00000000000000000000 0.00000000000000000000 0.00000000000000000000 0.00000000000000000000 0.00000000000000000000 -0.00473181974725885458 -0.03272015233259135958 -0.04707544722644688845  0.00023896568766334337  0.00002273319840106797 -0.00021891456305920799
1520530319.800341 0.00000000000000000000 0.00000000000000000000 0.00000000000000000000 0.00000000000000000000 0.00000000000000000000 0.00000000000000000000 -0.00783045251572127288 -0.03142417638262610252 -0.04663871204182010177  0.00020307525030716786  0.00007515941193178080 -0.00016323150484439162
1520530319.900344 0.00000000000000000000 0.00000000000000000000 0.00000000000000000000 0.00000000000000000000 0.00000000000000000000 0.00000000000000000000 -0.00564655091585687316 -0.03265712748983795599 -0.04640416458703826297  0.00008137062835603386  0.00002924042921533525 -0.00007948955203747172
1520530320.000347 0.00000000000000000000 0.00000000000000000000 0.00000000000000000000 0.00000000000000000000 0.00000000000000000000 0.00000000000000000000  0.00051582259223069437 -0.03390789744356577373 -0.04665436374686882104 -0.00004725862918164204 -0.00002992356316959916 -0.00008835013737151708
1520530320.100350 0.00000000000000000000 0.00000000000000000000 0.00000000000000000000 0.00000000000000000000 0.00000000000000000000 0.00000000000000000000  0.00999285181521983486 -0.02728898212783061744 -0.04786231048622344858 -0.00012062091325972435 -0.00009664379911512641 -0.00019821894051525469
1520530320.200401 0.00000000000000000000 0.00000000000000000000 0.00000000000000000000 0.00000000000000000000 0.00000000000000000000 0.00000000000000000000  0.01338759516333102445 -0.03026202673822578001 -0.04796671500940420663 -0.00011328433891737494 -0.00011976699522365222 -0.00017356437939433666
1520530320.300404 0.00000000000000000000 0.00000000000000000000 0.00000000000000000000 0.00000000000000000000 0.00000000000000000000 0.00000000000000000000  0.00826327171459865367 -0.03387931397496611596 -0.04768860837582133277 -0.00001529761390593374 -0.00007424049104507622 -0.00017686603633023526
1520530320.450408 0.00000000000000000000 0.00000000000000000000 0.00000000000000000000 0.00000000000000000000 0.00000000000000000000 0.00000000000000000000  0.00464835965207601679 -0.03236134539728997145 -0.04777405755133388998  0.00009656543387570494 -0.00004026938813645919 -0.00026349932364736530
1520530320.599869 0.00000000000000000000 0.00000000000000000000 0.00000000000000000000 0.00000000000000000000 0.00000000000000000000 0.00000000000000000000  0.00509514733541138829 -0.03132612788991382541 -0.04825965597683071207  0.00008605429326432851 -0.00003649193936625982 -0.00026991600914402330
1520530320.749874 0.00000000000000000000 0.00000000000000000000 0.00000000000000000000 0.00000000000000000000 0.00000000000000000000 0.00000000000000000000  0.00271332122056777919 -0.03193508032210323755 -0.04864972575530357446  0.00007776688562558114 -0.00006242709204325712 -0.00031843984035564846
1520530320.899879 0.00000000000000000000 0.00000000000000000000 0.00000000000000000000 0.00000000000000000000 0.00000000000000000000 0.00000000000000000000  0.00062204888909318660 -0.03746789444333561286 -0.04835946965855398433  0.00015923372270000916 -0.00004313857829286208 -0.00036240676008764220
1520530321.049740 0.00000000000000000000 0.00000000000000000000 0.00000000000000000000 0.00000000000000000000 0.00000000000000000000 0.00000000000000000000  0.00149926540395174689 -0.03744992158644431385 -0.04825334904359045163  0.00023632490769430841 -0.00004487043645252662 -0.00037105216827457583
1520530321.199745 0.00000000000000000000 0.00000000000000000000 0.00000000000000000000 0.00000000000000000000 0.00000000000000000000 0.00000000000000000000  0.00236420022315268373 -0.03333201986005333156 -0.04895638504776356204  0.00019131082892868587  0.00004858716898597913 -0.00034821417244342750
1520530321.349750 0.00000000000000000000 0.00000000000000000000 0.00000000000000000000 0.00000000000000000000 0.00000000000000000000 0.00000000000000000000  0.00296114075588834163 -0.03713091438031556474 -0.04859834832569715629  0.00020908858465272417  0.00005495700030571482 -0.00031956927823087201
1520530321.499857 0.00000000000000000000 0.00000000000000000000 0.00000000000000000000 0.00000000000000000000 0.00000000000000000000 0.00000000000000000000  0.00064097587680392515 -0.03743328579388896515 -0.04830121791455176117  0.00024119296390224138  0.00005735520799334483 -0.00030164143713889041
1520530321.599860 0.00000000000000000000 0.00000000000000000000 0.00000000000000000000 0.00000000000000000000 0.00000000000000000000 0.00000000000000000000  0.00082975250720051185 -0.03475801517900830445 -0.04847793970646327444  0.00031399733142268129  0.00000918611026478915 -0.00030748911510925886
1520530321.699863 0.00000000000000000000 0.00000000000000000000 0.00000000000000000000 0.00000000000000000000 0.00000000000000000000 0.00000000000000000000  0.00070969981297989179 -0.03426366194489472577 -0.04856381074239090462  0.00028936576339694600 -0.00001126058220523115 -0.00032049991647179670
1520530321.850152 0.00000000000000000000 0.00000000000000000000 0.00000000000000000000 0.00000000000000000000 0.00000000000000000000 0.00000000000000000000  0.00107327794655856165 -0.03247393374183801112 -0.04837133400702172542  0.00028545011542567219 -0.00001793029024476112 -0.00031201933153386348
1520530322.000157 0.00000000000000000000 0.00000000000000000000 0.00000000000000000000 0.00000000000000000000 0.00000000000000000000 0.00000000000000000000  0.00513524575922733387 -0.03475287353382472411 -0.04787397367391518777  0.00017975056321117543 -0.00001337221356390081 -0.00032155166821626086
1520530322.100160 0.00000000000000000000 0.00000000000000000000 0.00000000000000000000 0.00000000000000000000 0.00000000000000000000 0.00000000000000000000  0.00396825061499221296 -0.03644377332385177054 -0.04825525874915487928  0.00002118779053573489  0.00004145212324132576 -0.00035828151652175848
1520530322.250207 0.00000000000000000000 0.00000000000000000000 0.00000000000000000000 0.00000000000000000000 0.00000000000000000000 0.00000000000000000000  0.00404723271236503632 -0.03314698403871539634 -0.04921319337605960936 -0.00001724988192098575  0.00004763653582400821 -0.00035451491198190796
1520530322.500215 0.00000000000000000000 0.00000000000000000000 0.00000000000000000000 0.00000000000000000000 0.00000000000000000000 0.00000000000000000000  0.00484200475048344146 -0.02901879335670345256 -0.04985909639308089281  0.00004769734116555568  0.00003809275389898806 -0.00036919903725543427
1520530322.650023 0.00000000000000000000 0.00000000000000000000 0.00000000000000000000 0.00000000000000000000 0.00000000000000000000 0.00000000000000000000  0.00249873241977144594 -0.02814523354803032465 -0.05002590243345936966  0.00005413238520804177 -0.00001776442213592777 -0.00035983073924185957
1520530322.850030 0.00000000000000000000 0.00000000000000000000 0.00000000000000000000 0.00000000000000000000 0.00000000000000000000 0.00000000000000000000  0.00181392779694357895 -0.02945901532784682766 -0.04995368225305449328  0.00009953147875099689 -0.00000860806603920313 -0.00036963950108213233
1520530323.000035 0.00000000000000000000 0.00000000000000000000 0.00000000000000000000 0.00000000000000000000 0.00000000000000000000 0.00000000000000000000  0.00273780564183448254 -0.02900887685227887189 -0.04987226112448123194  0.00011382799277049760  0.00002158993562847059 -0.00040404924445802817
1520530323.150076 0.00000000000000000000 0.00000000000000000000 0.00000000000000000000 0.00000000000000000000 0.00000000000000000000 0.00000000000000000000  0.00223226346397986577 -0.02951063018924211107 -0.04983114534316138849  0.00014073671632183846  0.00005848419305875354 -0.00036782622450785076
1520530323.300080 0.00000000000000000000 0.00000000000000000000 0.00000000000000000000 0.00000000000000000000 0.00000000000000000000 0.00000000000000000000  0.00281329536135954076 -0.02688968366063601567 -0.04964418250223123080  0.00017887610208182762  0.00002130834588230737 -0.00031864506601621159
1520530323.450085 0.00000000000000000000 0.00000000000000000000 0.00000000000000000000 0.00000000000000000000 0.00000000000000000000 0.00000000000000000000  0.00194354414951462546 -0.02723174840981170894 -0.04855106463045902321  0.00023191261907500450  0.00001963008217712948 -0.00038928876268095241
1520530323.550346 0.00000000000000000000 0.00000000000000000000 0.00000000000000000000 0.00000000000000000000 0.00000000000000000000 0.00000000000000000000  0.00152042818457819181 -0.02876089536253719978 -0.04879960441986320313  0.00006920634875163972  0.00001293616600056432 -0.00039430786552418156
1520530323.650349 0.00000000000000000000 0.00000000000000000000 0.00000000000000000000 0.00000000000000000000 0.00000000000000000000 0.00000000000000000000  0.00080607592119255264 -0.02937258106689291312 -0.04918749119993709451  0.00001113489565062624  0.00003528375790008915 -0.00039912298905496945
1520530323.750353 0.00000000000000000000 0.00000000000000000000 0.00000000000000000000 0.00000000000000000000 0.00000000000000000000 0.00000000000000000000  0.00208003110204598232 -0.02803874759636109520 -0.04950403299623320347  0.00005983496750619756  0.00002384708633105091 -0.00040186938162910485
1520530323.900153 0.00000000000000000000 0.00000000000000000000 0.00000000000000000000 0.00000000000000000000 0.00000000000000000000 0.00000000000000000000  0.00109577040093578569 -0.02801249882844623895 -0.04951701938893419974  0.00012547043502445152 -0.00001402378647447136 -0.00040733831018970637
1520530324.050157 0.00000000000000000000 0.00000000000000000000 0.00000000000000000000 0.00000000000000000000 0.00000000000000000000 0.00000000000000000000  0.00251608131619540220 -0.02749730591962721085 -0.04993629549136886780  0.00014748493798336031 -0.00005484092129711029 -0.00041730813498140130
1520530324.200162 0.00000000000000000000 0.00000000000000000000 0.00000000000000000000 0.00000000000000000000 0.00000000000000000000 0.00000000000000000000  0.00374345266806062069 -0.02729644880446589414 -0.05033696286815573379  0.00011029352825241288 -0.00006108538712798809 -0.00042720906664804506
1520530324.299908 0.00000000000000000000 0.00000000000000000000 0.00000000000000000000 0.00000000000000000000 0.00000000000000000000 0.00000000000000000000  0.00274569598520910032 -0.02973304378727850347 -0.05046808787124094225  0.00005297757519269539 -0.00001307642096750519 -0.00042816258037593134
1520530324.449913 0.00000000000000000000 0.00000000000000000000 0.00000000000000000000 0.00000000000000000000 0.00000000000000000000 0.00000000000000000000  0.00305763875268044282 -0.02916614229134127656 -0.05087911736802941398  0.00010783677701587085 -0.00000192476947673220 -0.00042732541732213420
1520530324.549915 0.00000000000000000000 0.00000000000000000000 0.00000000000000000000 0.00000000000000000000 0.00000000000000000000 0.00000000000000000000  0.00219637113195013259 -0.03100987851654168209 -0.05062195349277467255  0.00020461001221114733 -0.00005770817804740254 -0.00044809006212738771
1520530324.700018 0.00000000000000000000 0.00000000000000000000 0.00000000000000000000 0.00000000000000000000 0.00000000000000000000 0.00000000000000000000  0.00233980864704100419 -0.02896420556274947530 -0.05067775725796929559  0.00021897430349050121 -0.00006087096608651481 -0.00043283856517941792
1520530324.850023 0.00000000000000000000 0.00000000000000000000 0.00000000000000000000 0.00000000000000000000 0.00000000000000000000 0.00000000000000000000  0.00069555580744542231 -0.02865872713312045406 -0.05055000728294444662  0.00019346151114192983 -0.00005233395752370316 -0.00042205141387451902
1520530325.000028 0.00000000000000000000 0.00000000000000000000 0.00000000000000000000 0.00000000000000000000 0.00000000000000000000 0.00000000000000000000  0.00009709050437083276 -0.02819504005672391483 -0.05067268110539439874  0.00014646537158423826 -0.00004679402596969305 -0.00043648713274314514
1520530325.100816 0.00000000000000000000 0.00000000000000000000 0.00000000000000000000 0.00000000000000000000 0.00000000000000000000 0.00000000000000000000 -0.00268104218037717437 -0.02945999253393962944 -0.05049108739698305454  0.00012567631585970164 -0.00004735170490034246 -0.00040908225302906375
1520530325.300822 0.00000000000000000000 0.00000000000000000000 0.00000000000000000000 0.00000000000000000000 0.00000000000000000000 0.00000000000000000000 -0.00388953363087059722 -0.02940569307319066544 -0.05039775534906919263  0.00012895631575918177 -0.00003497589036098394 -0.00037621419851955327
1520530325.500828 0.00000000000000000000 0.00000000000000000000 0.00000000000000000000 0.00000000000000000000 0.00000000000000000000 0.00000000000000000000 -0.00706424577512068837 -0.03043966441155659605 -0.04984803983347427248  0.00017806177985458759 -0.00006621373646399649 -0.00027938334522604720
1520530325.700918 0.00000000000000000000 0.00000000000000000000 0.00000000000000000000 0.00000000000000000000 0.00000000000000000000 0.00000000000000000000 -0.00656692738538237203 -0.03107624706975713538 -0.04975385252301998962  0.00012037838634928372 -0.00006726030742768288 -0.00030843673204142253
1520530325.900924 0.00000000000000000000 0.00000000000000000000 0.00000000000000000000 0.00000000000000000000 0.00000000000000000000 0.00000000000000000000 -0.00331822274470176554 -0.03047178540125723353 -0.05057252196812171696  0.00008037027174786337 -0.00011552877277622173 -0.00036400932681522846
1520530326.000543 0.00000000000000000000 0.00000000000000000000 0.00000000000000000000 0.00000000000000000000 0.00000000000000000000 0.00000000000000000000 -0.00101717523179560869 -0.02796863588161782252 -0.05125371523934695722  0.00010637675647830305 -0.00010373691774989242 -0.00042307227192285124
1520530326.150548 0.00000000000000000000 0.00000000000000000000 0.00000000000000000000 0.00000000000000000000 0.00000000000000000000 0.00000000000000000000  0.00086228380032570635 -0.02651060857408758104 -0.05136078107678721666  0.00010717421510904035 -0.00009577917604629258 -0.00042310487882115316
1520530326.300552 0.00000000000000000000 0.00000000000000000000 0.00000000000000000000 0.00000000000000000000 0.00000000000000000000 0.00000000000000000000 -0.00008061498155917333 -0.02490821442285050605 -0.05155618740998491045  0.00014999902222525028 -0.00007880184966194273 -0.00039194072944777466
1520530326.400206 0.00000000000000000000 0.00000000000000000000 0.00000000000000000000 0.00000000000000000000 0.00000000000000000000 0.00000000000000000000 -0.00141157480303881412 -0.02467014221242636723 -0.05130432514462798799  0.00017643422394459643 -0.00008384250882675731 -0.00038031997880028025
1520530326.600213 0.00000000000000000000 0.00000000000000000000 0.00000000000000000000 0.00000000000000000000 0.00000000000000000000 0.00000000000000000000 -0.00172702513862993661 -0.02530982492769491901 -0.05108338189485223113  0.00018411797355492664 -0.00006103643643968748 -0.00038241003430096758
1520530326.750427 0.00000000000000000000 0.00000000000000000000 0.00000000000000000000 0.00000000000000000000 0.00000000000000000000 0.00000000000000000000 -0.00236671081701754623 -0.02415180782678488444 -0.05052442107568421575  0.00021061672664052247 -0.00007485623013869191 -0.00038449112187169057
1520530326.950432 0.00000000000000000000 0.00000000000000000000 0.00000000000000000000 0.00000000000000000000 0.00000000000000000000 0.00000000000000000000 -0.00267799483208257336 -0.01990288189488838635 -0.05013375585058330031  0.00015087602606102176 -0.00003371549799232989 -0.00039654787786273739
1520530327.050437 0.00000000000000000000 0.00000000000000000000 0.00000000000000000000 0.00000000000000000000 0.00000000000000000000 0.00000000000000000000 -0.00349715869019500943 -0.02173321169185597410 -0.05005303839061263360  0.00001126272017245112  0.00003019206458515609 -0.00035892645706881647
1520530327.150431 0.00000000000000000000 0.00000000000000000000 0.00000000000000000000 0.00000000000000000000 0.00000000000000000000 0.00000000000000000000 -0.00218996268434848082 -0.01962775683633510848 -0.05043935331909415315 -0.00001883550840713074  0.00006152415060182631 -0.00035003857979938146
1520530327.250435 0.00000000000000000000 0.00000000000000000000 0.00000000000000000000 0.00000000000000000000 0.00000000000000000000 0.00000000000000000000  0.00036915480596293225 -0.01929292295970630455 -0.05105456694304629645 -0.00001315493851238465  0.00001741718424691497 -0.00029478477751084474
1520530327.400439 0.00000000000000000000 0.00000000000000000000 0.00000000000000000000 0.00000000000000000000 0.00000000000000000000 0.00000000000000000000  0.00166210675155130144 -0.01922585949967136817 -0.05164999043093333048  0.00001784940546825789 -0.00005546224911966281 -0.00027610759513400018
1520530327.550090 0.00000000000000000000 0.00000000000000000000 0.00000000000000000000 0.00000000000000000000 0.00000000000000000000 0.00000000000000000000  0.00190925359385807998 -0.01896022926924732788 -0.05189135520396620516  0.00007935734307897017 -0.00007289094983199675 -0.00022279783935012250
1520530327.650103 0.00000000000000000000 0.00000000000000000000 0.00000000000000000000 0.00000000000000000000 0.00000000000000000000 0.00000000000000000000  0.00119255129083491672 -0.01948702771283135002 -0.05176503432982247632  0.00009797953463113382 -0.00005004901806048350 -0.00014930893666094823
1520530327.750096 0.00000000000000000000 0.00000000000000000000 0.00000000000000000000 0.00000000000000000000 0.00000000000000000000 0.00000000000000000000  0.00025865814285293916 -0.01917343049883106498 -0.05186940444892800678  0.00013419060641795769 -0.00001988324440786795 -0.00009968022639626882
1520530327.800097 0.00000000000000000000 0.00000000000000000000 0.00000000000000000000 0.00000000000000000000 0.00000000000000000000 0.00000000000000000000 -0.00099663937966124852 -0.01898509480179780620 -0.05134394672301107604  0.00016545994706752305 -0.00005786512719111314  0.00002507330321317337
1520530327.900100 0.00000000000000000000 0.00000000000000000000 0.00000000000000000000 0.00000000000000000000 0.00000000000000000000 0.00000000000000000000 -0.00232854894679279103 -0.01753748356196816599 -0.05090456927513505037  0.00015000332669056960 -0.00008077107364546279  0.00004680046567001823
1520530328.000280 0.00000000000000000000 0.00000000000000000000 0.00000000000000000000 0.00000000000000000000 0.00000000000000000000 0.00000000000000000000  0.00071674139190609277 -0.01555269470175632204 -0.05101080146096333839  0.00004040925820830023 -0.00010473451153913106 -0.00003279895924590986
1520530328.100283 0.00000000000000000000 0.00000000000000000000 0.00000000000000000000 0.00000000000000000000 0.00000000000000000000 0.00000000000000000000  0.00090832511184772105 -0.01792218612255066720 -0.05106727800626559288 -0.00001961039636875347 -0.00015429235975212281 -0.00007455840816713064
1520530328.200287 0.00000000000000000000 0.00000000000000000000 0.00000000000000000000 0.00000000000000000000 0.00000000000000000000 0.00000000000000000000 -0.00020081432589657010 -0.01649282140047622289 -0.05151358856567238298 -0.00000776302959043136 -0.00010891863547716185 -0.00013660282480359287
1520530328.300290 0.00000000000000000000 0.00000000000000000000 0.00000000000000000000 0.00000000000000000000 0.00000000000000000000 0.00000000000000000000 -0.00194836065488433394 -0.01372858875867447384 -0.05198749307586201379  0.00006543018035303143 -0.00008477063238221669 -0.00023279559840003912
1520530328.400337 0.00000000000000000000 0.00000000000000000000 0.00000000000000000000 0.00000000000000000000 0.00000000000000000000 0.00000000000000000000 -0.00186688890226086859 -0.01269012450889956192 -0.05220803842182997895  0.00014435746037975408 -0.00005996535884206294 -0.00037475753970196745
1520530328.500340 0.00000000000000000000 0.00000000000000000000 0.00000000000000000000 0.00000000000000000000 0.00000000000000000000 0.00000000000000000000  0.00057474354393389755 -0.01414447164623269110 -0.05185437387421411998  0.00020242509605408507 -0.00005233116255316020 -0.00050338876562270609
1520530328.600344 0.00000000000000000000 0.00000000000000000000 0.00000000000000000000 0.00000000000000000000 0.00000000000000000000 0.00000000000000000000  0.00131477699981965884 -0.01807492939620498201 -0.05143477208807024914  0.00017623565519892277 -0.00004986619362964166 -0.00057547310238232903
1520530328.650346 0.00000000000000000000 0.00000000000000000000 0.00000000000000000000 0.00000000000000000000 0.00000000000000000000 0.00000000000000000000  0.00114444060426149657 -0.01846046984135738672 -0.05161403086924944844  0.00014208744713790236  0.00002063935113010408 -0.00070500429430465287
1520530328.750348 0.00000000000000000000 0.00000000000000000000 0.00000000000000000000 0.00000000000000000000 0.00000000000000000000 0.00000000000000000000  0.00319022937216983027 -0.01674623389544006857 -0.05205594909245361834  0.00017929611824711754  0.00005558341011367454 -0.00072546555885974224
1520530328.850087 0.00000000000000000000 0.00000000000000000000 0.00000000000000000000 0.00000000000000000000 0.00000000000000000000 0.00000000000000000000  0.00415039961643235821 -0.02128290114046923684 -0.05154821662965097806  0.00022097421897223225  0.00007514148103311978 -0.00065473296379604936
1520530329.000092 0.00000000000000000000 0.00000000000000000000 0.00000000000000000000 0.00000000000000000000 0.00000000000000000000 0.00000000000000000000  0.00361625006276454367 -0.03142654370590416968 -0.05040083941819688274  0.00026921615808615166  0.00008482757862725908 -0.00050464918511801903
1520530329.100095 0.00000000000000000000 0.00000000000000000000 0.00000000000000000000 0.00000000000000000000 0.00000000000000000000 0.00000000000000000000  0.00758331573828644693 -0.02955969259791060150 -0.05059464308785727171  0.00026114221131260041  0.00000138846323774071 -0.00022707247561900318
1520530329.200044 0.00000000000000000000 0.00000000000000000000 0.00000000000000000000 0.00000000000000000000 0.00000000000000000000 0.00000000000000000000  0.01002950771575259088 -0.02956410853865267321 -0.05076272532659424630  0.00024549796605303857 -0.00002884869513172318 -0.00011963725115879689
1520530329.300047 0.00000000000000000000 0.00000000000000000000 0.00000000000000000000 0.00000000000000000000 0.00000000000000000000 0.00000000000000000000  0.00948685904348675439 -0.03042736048388642797 -0.05055437660555556212  0.00024388090503412330 -0.00007074791434728658 -0.00008145554608545519
1520530329.400050 0.00000000000000000000 0.00000000000000000000 0.00000000000000000000 0.00000000000000000000 0.00000000000000000000 0.00000000000000000000  0.00923971870174943380 -0.02992493834656829305 -0.05062799242329228677  0.00023201293765838196 -0.00011185720503732173 -0.00005134494616663924
1520530329.650099 0.00000000000000000000 0.00000000000000000000 0.00000000000000000000 0.00000000000000000000 0.00000000000000000000 0.00000000000000000000  0.01007488824429409423 -0.02526941377046551182 -0.05083727316517731160  0.00022984295359185575 -0.00016923080744815999 -0.00012420880345254796
1520530329.750102 0.00000000000000000000 0.00000000000000000000 0.00000000000000000000 0.00000000000000000000 0.00000000000000000000 0.00000000000000000000  0.01273944819038495130 -0.02710151440657464911 -0.05073855012124937891  0.00022517682327298296 -0.00031998743948391702 -0.00053307412782793674
1520530329.850105 0.00000000000000000000 0.00000000000000000000 0.00000000000000000000 0.00000000000000000000 0.00000000000000000000 0.00000000000000000000  0.01364625227550554827 -0.02844658921525767062 -0.05072629987264384160  0.00022076219224574460 -0.00028711438384321041 -0.00068949779533762591
1520530329.950109 0.00000000000000000000 0.00000000000000000000 0.00000000000000000000 0.00000000000000000000 0.00000000000000000000 0.00000000000000000000  0.01443546329092332964 -0.02903579121021319237 -0.05124706729919067949  0.00025257632063162999 -0.00019406028860842085 -0.00062411782401358337
1520530330.050161 0.00000000000000000000 0.00000000000000000000 0.00000000000000000000 0.00000000000000000000 0.00000000000000000000 0.00000000000000000000  0.01576145302931022257 -0.03190984460264476019 -0.05128318050224388303  0.00028001062345610990 -0.00015033723990455714 -0.00060386425767102608
1520530330.150164 0.00000000000000000000 0.00000000000000000000 0.00000000000000000000 0.00000000000000000000 0.00000000000000000000 0.00000000000000000000  0.01711208339277255769 -0.03324940312246530555 -0.05097969037972634176  0.00028316077477844352  0.00004298445540061605 -0.00058106348264403513
1520530330.250167 0.00000000000000000000 0.00000000000000000000 0.00000000000000000000 0.00000000000000000000 0.00000000000000000000 0.00000000000000000000  0.01986463425047029635 -0.03273698193333328399 -0.05071016909206006035  0.00022654261655834546  0.00019317859315981953 -0.00059191007580876721
1520530330.350170 0.00000000000000000000 0.00000000000000000000 0.00000000000000000000 0.00000000000000000000 0.00000000000000000000 0.00000000000000000000  0.02239077747058622336 -0.03261343370253690782 -0.05067157853988232125  0.00019869524412124303  0.00026064614517246553 -0.00059969089428626369
1520530330.450787 0.00000000000000000000 0.00000000000000000000 0.00000000000000000000 0.00000000000000000000 0.00000000000000000000 0.00000000000000000000  0.02118130849000489369 -0.03143508950508347444 -0.05105549012800043168  0.00015683465978737993  0.00034476331248759731 -0.00056529582452022537
1520530330.550790 0.00000000000000000000 0.00000000000000000000 0.00000000000000000000 0.00000000000000000000 0.00000000000000000000 0.00000000000000000000  0.01809696814306464493 -0.03115680260818941630 -0.05135961917360783863  0.00013902442656102025  0.00036180233873608057 -0.00039309193622783238
1520530330.650793 0.00000000000000000000 0.00000000000000000000 0.00000000000000000000 0.00000000000000000000 0.00000000000000000000 0.00000000000000000000  0.01640955057715282051 -0.03171653924885890069 -0.05108849882066942433  0.00021461230561894669  0.00027248119921268360 -0.00023452333664814921
1520530330.700795 0.00000000000000000000 0.00000000000000000000 0.00000000000000000000 0.00000000000000000000 0.00000000000000000000 0.00000000000000000000  0.01437252584616450363 -0.03413036143473994338 -0.05083381288741723597  0.00018159170030387380  0.00020526214831659298 -0.00010079659560163625
1520530330.800798 0.00000000000000000000 0.00000000000000000000 0.00000000000000000000 0.00000000000000000000 0.00000000000000000000 0.00000000000000000000  0.01425759814811635405 -0.03622003802608390888 -0.05070351096724270284  0.00022089837787237710  0.00015099351950701589 -0.00002308072360330220
1520530330.850367 0.00000000000000000000 0.00000000000000000000 0.00000000000000000000 0.00000000000000000000 0.00000000000000000000 0.00000000000000000000  0.01480039001456540972 -0.03938445971767469411 -0.05052589951436065041 0.00022827540946642553 0.00003399641782799511 0.00000546856692881827
1520530330.950279 0.00000000000000000000 0.00000000000000000000 0.00000000000000000000 0.00000000000000000000 0.00000000000000000000 0.00000000000000000000  0.01510443558663015877 -0.04018391598362237166 -0.05049016897212733890  0.00025620195806963492 -0.00004990072028033050  0.00000260250446523149
1520530331.050282 0.00000000000000000000 0.00000000000000000000 0.00000000000000000000 0.00000000000000000000 0.00000000000000000000 0.00000000000000000000  0.01492830608520668428 -0.04212615722868853080 -0.05023676232861486179  0.00024825089616044369 -0.00020078718747931580 -0.00001510141549010645
1520530331.150285 0.00000000000000000000 0.00000000000000000000 0.00000000000000000000 0.00000000000000000000 0.00000000000000000000 0.00000000000000000000  0.01500447876031231996 -0.04342322926322099430 -0.05011554253405940684  0.00022739626379222723 -0.00023486113360098279 -0.00009443441343350573
1520530331.250735 0.00000000000000000000 0.00000000000000000000 0.00000000000000000000 0.00000000000000000000 0.00000000000000000000 0.00000000000000000000  0.01508294876600129765 -0.04462939372442657066 -0.04986837764634086817  0.00020399138750770257 -0.00030289548836038617 -0.00017370130763762009
1520530331.350738 0.00000000000000000000 0.00000000000000000000 0.00000000000000000000 0.00000000000000000000 0.00000000000000000000 0.00000000000000000000  0.01457988655413860156 -0.04501304668525013541 -0.04955944091362886328  0.00016543998381335337 -0.00036029307016598183 -0.00027304975520925747
1520530331.450741 0.00000000000000000000 0.00000000000000000000 0.00000000000000000000 0.00000000000000000000 0.00000000000000000000 0.00000000000000000000  0.01517315794077229475 -0.04466661219627796747 -0.04952751342990750760  0.00006225907803070477 -0.00043783585604894703 -0.00034555480990539192
1520530331.550744 0.00000000000000000000 0.00000000000000000000 0.00000000000000000000 0.00000000000000000000 0.00000000000000000000 0.00000000000000000000  0.01653238080828383846 -0.04440128620466455428 -0.04983466887267896245  0.00002406726465536246 -0.00049275043563702431 -0.00040763217399336448
1520530331.650479 0.00000000000000000000 0.00000000000000000000 0.00000000000000000000 0.00000000000000000000 0.00000000000000000000 0.00000000000000000000  0.01735456503485708138 -0.04463008252858952779 -0.05003200437748835799  0.00001922870367496733 -0.00046293094126705016 -0.00051335281052737711
1520530331.700481 0.00000000000000000000 0.00000000000000000000 0.00000000000000000000 0.00000000000000000000 0.00000000000000000000 0.00000000000000000000  0.01649116414523384491 -0.04452106463357102112 -0.05020064804493423738  0.00002479270362193964 -0.00035328723577653071 -0.00060720010132060101
1520530331.800484 0.00000000000000000000 0.00000000000000000000 0.00000000000000000000 0.00000000000000000000 0.00000000000000000000 0.00000000000000000000  0.01674580270653469941 -0.04421597671764744553 -0.05009023091309261488  0.00010243047891683512 -0.00026010804577890909 -0.00060128490078378925
1520530331.900488 0.00000000000000000000 0.00000000000000000000 0.00000000000000000000 0.00000000000000000000 0.00000000000000000000 0.00000000000000000000  0.01575943809749449226 -0.04422196729266816839 -0.05008870886053631843  0.00012520886157961182 -0.00013863657376748080 -0.00055685901668692500
1520530332.000491 0.00000000000000000000 0.00000000000000000000 0.00000000000000000000 0.00000000000000000000 0.00000000000000000000 0.00000000000000000000  0.01396793243762215787 -0.04491471666621518061 -0.04981709154697264857  0.00013289389760296695  0.00000608265099732972 -0.00055881861048064823
1520530332.100388 0.00000000000000000000 0.00000000000000000000 0.00000000000000000000 0.00000000000000000000 0.00000000000000000000 0.00000000000000000000  0.01345183109792057359 -0.04253823618771909731 -0.04976386933007352631  0.00016186033289847056  0.00006223022009657784 -0.00055208367287952497
1520530332.200392 0.00000000000000000000 0.00000000000000000000 0.00000000000000000000 0.00000000000000000000 0.00000000000000000000 0.00000000000000000000  0.01417302287424554094 -0.04117309910404504808 -0.04961005015058174428  0.00020192352103922195  0.00009488259448924274 -0.00051769989485257230
1520530332.300399 0.00000000000000000000 0.00000000000000000000 0.00000000000000000000 0.00000000000000000000 0.00000000000000000000 0.00000000000000000000  0.01417948703874275830 -0.04146922161765294323 -0.04932673251537791903  0.00017843463513556084  0.00014812236582179740 -0.00046895975879906147
1520530332.400401 0.00000000000000000000 0.00000000000000000000 0.00000000000000000000 0.00000000000000000000 0.00000000000000000000 0.00000000000000000000  0.01320096365981713281 -0.04122427506737832287 -0.04934419601137293027  0.00009881339434422103  0.00018863797405684684 -0.00035911744203645198
1520530332.450399 0.00000000000000000000 0.00000000000000000000 0.00000000000000000000 0.00000000000000000000 0.00000000000000000000 0.00000000000000000000  0.01200436764044662818 -0.04321640968682910477 -0.04924558694596072733  0.00007677619803465509  0.00018327485176075522 -0.00026963497529532984
1520530332.550483 0.00000000000000000000 0.00000000000000000000 0.00000000000000000000 0.00000000000000000000 0.00000000000000000000 0.00000000000000000000  0.01029085933198093349 -0.04418037842198076909 -0.04921377610392092816  0.00009479737377813395  0.00016772908589926037 -0.00021282916052120992
1520530332.600486 0.00000000000000000000 0.00000000000000000000 0.00000000000000000000 0.00000000000000000000 0.00000000000000000000 0.00000000000000000000  0.00914495310995059457 -0.04600464779692829687 -0.04924811134680239649  0.00010470528631574497  0.00012952446381057095 -0.00016096078576193716
1520530332.700489 0.00000000000000000000 0.00000000000000000000 0.00000000000000000000 0.00000000000000000000 0.00000000000000000000 0.00000000000000000000  0.00761537934519330908 -0.04956120066263142859 -0.04904019972561032142  0.00012719060565812685  0.00008000965325273385 -0.00006728365952186744
1520530332.800492 0.00000000000000000000 0.00000000000000000000 0.00000000000000000000 0.00000000000000000000 0.00000000000000000000 0.00000000000000000000  0.00573481712331252828 -0.05237007578475430525 -0.04864432261738086544  0.00019424008567347963 -0.00000317698668471833 -0.00003156600587449912
1520530332.900164 0.00000000000000000000 0.00000000000000000000 0.00000000000000000000 0.00000000000000000000 0.00000000000000000000 0.00000000000000000000  0.00427824122200907812 -0.05304796551137271055 -0.04835048304791697560  0.00027291132163379287 -0.00017363384191584232 -0.00003409461227314562
1520530333.000168 0.00000000000000000000 0.00000000000000000000 0.00000000000000000000 0.00000000000000000000 0.00000000000000000000 0.00000000000000000000  0.00313362284917856077 -0.05625001011729153372 -0.04809142496189261484  0.00028424387824602023 -0.00028433780478214919 -0.00007691009295146066
1520530333.100171 0.00000000000000000000 0.00000000000000000000 0.00000000000000000000 0.00000000000000000000 0.00000000000000000000 0.00000000000000000000  0.00102848800281758442 -0.05830961961388174408 -0.04735545294680698625  0.00030018027431462591 -0.00036509033641064754 -0.00006034864850930660
1520530333.150173 0.00000000000000000000 0.00000000000000000000 0.00000000000000000000 0.00000000000000000000 0.00000000000000000000 0.00000000000000000000 -0.00059083158096165270 -0.05891062700861285362 -0.04692299881458816130  0.00030077173213428492 -0.00033893526407926004 -0.00003420650552890671
1520530333.250175 0.00000000000000000000 0.00000000000000000000 0.00000000000000000000 0.00000000000000000000 0.00000000000000000000 0.00000000000000000000 -0.00177572801598390199 -0.05976910972783575776 -0.04648718798555663556  0.00026367325803075173 -0.00030629224143095070 -0.00003474965650645440
1520530333.350610 0.00000000000000000000 0.00000000000000000000 0.00000000000000000000 0.00000000000000000000 0.00000000000000000000 0.00000000000000000000 -0.00327948118013952558 -0.06136013961440222458 -0.04618939158121967981  0.00020929696612659982 -0.00032210179191712111 -0.00003411613052614763
1520530333.450613 0.00000000000000000000 0.00000000000000000000 0.00000000000000000000 0.00000000000000000000 0.00000000000000000000 0.00000000000000000000 -0.00277826403578134958 -0.06310201404954750293 -0.04629843110961193164  0.00018384996264010259 -0.00032112848082131273 -0.00005909902647073933
1520530333.650619 0.00000000000000000000 0.00000000000000000000 0.00000000000000000000 0.00000000000000000000 0.00000000000000000000 0.00000000000000000000 -0.00247089730115133662 -0.06311254655244465106 -0.04654942060317507346  0.00021143408659485564 -0.00027293298727987475 -0.00009094360289707524
1520530333.700541 0.00000000000000000000 0.00000000000000000000 0.00000000000000000000 0.00000000000000000000 0.00000000000000000000 0.00000000000000000000 -0.00315008432340447859 -0.06535964808856324637 -0.04606959029358407426  0.00025401008624590250 -0.00021011895570518681 -0.00059477818196116263
1520530333.800544 0.00000000000000000000 0.00000000000000000000 0.00000000000000000000 0.00000000000000000000 0.00000000000000000000 0.00000000000000000000 -0.00323063788936974730 -0.06817515130419120328 -0.04548832615959459702  0.00024682796339806811 -0.00013515604339011891 -0.00076940374794118218
1520530333.850545 0.00000000000000000000 0.00000000000000000000 0.00000000000000000000 0.00000000000000000000 0.00000000000000000000 0.00000000000000000000 -0.00228701792215644465 -0.06850519758711773322 -0.04543553040934099341  0.00014443033640089195 -0.00003236491484050823 -0.00086108894020623479
1520530333.950549 0.00000000000000000000 0.00000000000000000000 0.00000000000000000000 0.00000000000000000000 0.00000000000000000000 0.00000000000000000000 -0.00183333871696401605 -0.07044318212052977368 -0.04557874667490594695  0.00006940490105924333  0.00001149091695085794 -0.00085635868193105718
1520530334.000561 0.00000000000000000000 0.00000000000000000000 0.00000000000000000000 0.00000000000000000000 0.00000000000000000000 0.00000000000000000000  0.00055052695320138660 -0.06884561645903428118 -0.04596435342783460054  0.00007847753373159302  0.00009279127908633294 -0.00084808586681232455
1520530334.100216 0.00000000000000000000 0.00000000000000000000 0.00000000000000000000 0.00000000000000000000 0.00000000000000000000 0.00000000000000000000  0.00042014297757879653 -0.07451041725369511592 -0.04539581338819371342  0.00015480150959014676  0.00010068851791460378 -0.00085021070269068711
1520530334.350224 0.00000000000000000000 0.00000000000000000000 0.00000000000000000000 0.00000000000000000000 0.00000000000000000000 0.00000000000000000000  0.00359014553204468250 -0.07235356246114915679 -0.04742395078828619964  0.00026336759518747106  0.00001254936592164033 -0.00075371451947337312
1520530334.450227 0.00000000000000000000 0.00000000000000000000 0.00000000000000000000 0.00000000000000000000 0.00000000000000000000 0.00000000000000000000  0.00270283090641673879 -0.06804075833872058610 -0.04714095587894565065  0.00049134664034221614 -0.00012428660417630080 -0.00056405967549432064
1520530334.550086 0.00000000000000000000 0.00000000000000000000 0.00000000000000000000 0.00000000000000000000 0.00000000000000000000 0.00000000000000000000  0.00220904943271569903 -0.06852061290877164978 -0.04668186858889812607  0.00057477437496095184 -0.00012163030995707917 -0.00048244778197716444
1520530334.650089 0.00000000000000000000 0.00000000000000000000 0.00000000000000000000 0.00000000000000000000 0.00000000000000000000 0.00000000000000000000  0.00343830227928758380 -0.06819560561661454356 -0.04666737942458985128  0.00057038883657455465 -0.00010929486515976801 -0.00045535884310455161
1520530334.750092 0.00000000000000000000 0.00000000000000000000 0.00000000000000000000 0.00000000000000000000 0.00000000000000000000 0.00000000000000000000  0.00328775064801906797 -0.06850026837121404866 -0.04687827476231019863  0.00049462382612463498 -0.00009003652356053286 -0.00044076465666922194
1520530334.850095 0.00000000000000000000 0.00000000000000000000 0.00000000000000000000 0.00000000000000000000 0.00000000000000000000 0.00000000000000000000  0.00370638962868514044 -0.06828981527370986404 -0.04684449134908717088  0.00053495371549152628 -0.00007667216400749448 -0.00045001528439775519
1520530334.950928 0.00000000000000000000 0.00000000000000000000 0.00000000000000000000 0.00000000000000000000 0.00000000000000000000 0.00000000000000000000  0.00401116045722957077 -0.06712584455103227932 -0.04619675407760009955  0.00055754056675413194 -0.00006461098290252924 -0.00043105468146469348
1520530335.100933 0.00000000000000000000 0.00000000000000000000 0.00000000000000000000 0.00000000000000000000 0.00000000000000000000 0.00000000000000000000  0.00443858643978429623 -0.06329918572096927820 -0.04527050177792366764  0.00041381012529010975 -0.00003594006044520360 -0.00044499360762787485
1520530335.200936 0.00000000000000000000 0.00000000000000000000 0.00000000000000000000 0.00000000000000000000 0.00000000000000000000 0.00000000000000000000  0.00301194655320389951 -0.06474326234539572178 -0.04553107435747089093  0.00002980275774867563  0.00000146469697782251 -0.00056807319628829507
1520530335.300938 0.00000000000000000000 0.00000000000000000000 0.00000000000000000000 0.00000000000000000000 0.00000000000000000000 0.00000000000000000000  0.00242113972914456471 -0.06558023460709677677 -0.04587358194128549754 -0.00018846987390990584 -0.00003224248587703513 -0.00064342948322991837
1520530335.401458 0.00000000000000000000 0.00000000000000000000 0.00000000000000000000 0.00000000000000000000 0.00000000000000000000 0.00000000000000000000  0.00156911896454914193 -0.06644086516424455024 -0.04612766605712517037 -0.00034558052936618994 -0.00011105328515163479 -0.00063786441043188675
1520530335.501461 0.00000000000000000000 0.00000000000000000000 0.00000000000000000000 0.00000000000000000000 0.00000000000000000000 0.00000000000000000000  0.00108084518742122652 -0.06760072427126453953 -0.04638684094435611277 -0.00037023743781959838 -0.00013274903422767848 -0.00062210654642136983
1520530335.601512 0.00000000000000000000 0.00000000000000000000 0.00000000000000000000 0.00000000000000000000 0.00000000000000000000 0.00000000000000000000  0.00046811773886757529 -0.06757465119733467585 -0.04644298537938445354 -0.00032391877603081423 -0.00014930865838689189 -0.00061016567018456612
1520530335.750223 0.00000000000000000000 0.00000000000000000000 0.00000000000000000000 0.00000000000000000000 0.00000000000000000000 0.00000000000000000000  0.00076146386421887939 -0.06699451463208952462 -0.04664842528034463670 -0.00011930662228481931 -0.00012076905347675249 -0.00050740803860425693
1520530335.900227 0.00000000000000000000 0.00000000000000000000 0.00000000000000000000 0.00000000000000000000 0.00000000000000000000 0.00000000000000000000  0.00077702454794869604 -0.06724069127371698484 -0.04757172065788284332 -0.00004587517433729533 -0.00013769820238633711 -0.00047623991107826491
1520530336.000230 0.00000000000000000000 0.00000000000000000000 0.00000000000000000000 0.00000000000000000000 0.00000000000000000000 0.00000000000000000000  0.00244243258358550720 -0.06779926861782953340 -0.04783404295146093110  0.00009096884708545784 -0.00014032094109894632 -0.00041202268719856612
1520530336.100233 0.00000000000000000000 0.00000000000000000000 0.00000000000000000000 0.00000000000000000000 0.00000000000000000000 0.00000000000000000000  0.00196690219756562009 -0.06711120587707623819 -0.04705172501867606327  0.00031698626596374620 -0.00003937734763923582 -0.00039336483759126587
1520530336.200179 0.00000000000000000000 0.00000000000000000000 0.00000000000000000000 0.00000000000000000000 0.00000000000000000000 0.00000000000000000000  0.00285278425350994494 -0.06618120158305751399 -0.04609127955232599633  0.00040630630335091665  0.00000524998233797691 -0.00035539663208837427
1520530336.300182 0.00000000000000000000 0.00000000000000000000 0.00000000000000000000 0.00000000000000000000 0.00000000000000000000 0.00000000000000000000  0.00260697663924509522 -0.06560146127193335064 -0.04576371050297386306  0.00034927038673723940 -0.00002279756001394207 -0.00032522977854381130
1520530336.400185 0.00000000000000000000 0.00000000000000000000 0.00000000000000000000 0.00000000000000000000 0.00000000000000000000 0.00000000000000000000  0.00170125440069094996 -0.06558753669081446303 -0.04542655219921837295  0.00020137843089057056 -0.00005834006242445731 -0.00028078604729201996
1520530336.500188 0.00000000000000000000 0.00000000000000000000 0.00000000000000000000 0.00000000000000000000 0.00000000000000000000 0.00000000000000000000  0.00079012849738539250 -0.06663168005896159818 -0.04535322004109154648  0.00004075824900005482 -0.00012738934483554483 -0.00027467690259287236
1520530336.600584 0.00000000000000000000 0.00000000000000000000 0.00000000000000000000 0.00000000000000000000 0.00000000000000000000 0.00000000000000000000 -0.00030244016528892796 -0.06617433487108370649 -0.04577848451043048383 -0.00011273561913184056 -0.00016353626502871183 -0.00030875614383354781
1520530336.700586 0.00000000000000000000 0.00000000000000000000 0.00000000000000000000 0.00000000000000000000 0.00000000000000000000 0.00000000000000000000 -0.00219078725525757682 -0.06496762673921847864 -0.04643577803257179643 -0.00023049450003047138 -0.00016588143629860444 -0.00037145804895237017
1520530336.800590 0.00000000000000000000 0.00000000000000000000 0.00000000000000000000 0.00000000000000000000 0.00000000000000000000 0.00000000000000000000 -0.00492481887648222455 -0.06477269314050221327 -0.04660874452166283155 -0.00020188247734793569 -0.00010102425862812892 -0.00038174750162818863
1520530336.900594 0.00000000000000000000 0.00000000000000000000 0.00000000000000000000 0.00000000000000000000 0.00000000000000000000 0.00000000000000000000 -0.00641793390652002638 -0.06501400698466344719 -0.04704207572368134666 -0.00017707501070472428 -0.00001998745527834542 -0.00049909788478813045
1520530337.000258 0.00000000000000000000 0.00000000000000000000 0.00000000000000000000 0.00000000000000000000 0.00000000000000000000 0.00000000000000000000 -0.00671287692527248753 -0.06541417499301825644 -0.04719300583565989166  0.00000013432906459728 -0.00001462829805511902 -0.00054817296796974828
1520530337.100266 0.00000000000000000000 0.00000000000000000000 0.00000000000000000000 0.00000000000000000000 0.00000000000000000000 0.00000000000000000000 -0.00904172149143094885 -0.06584521821481363613 -0.04751915417042831130  0.00014356575998808769 -0.00001369567365139330 -0.00055204185997517904
1520530337.200351 0.00000000000000000000 0.00000000000000000000 0.00000000000000000000 0.00000000000000000000 0.00000000000000000000 0.00000000000000000000 -0.01004244549341338187 -0.06571847066642472202 -0.04752259172571630247  0.00022984199619066487 -0.00001492896239833405 -0.00057991522155822367
1520530337.300267 0.00000000000000000000 0.00000000000000000000 0.00000000000000000000 0.00000000000000000000 0.00000000000000000000 0.00000000000000000000 -0.01100400978313799231 -0.06576401567306279505 -0.04742949642346633993  0.00022754144884784783  0.00000133271536822679 -0.00060871740446393093
1520530337.400301 0.00000000000000000000 0.00000000000000000000 0.00000000000000000000 0.00000000000000000000 0.00000000000000000000 0.00000000000000000000 -0.01129596081366505793 -0.06638483129578028052 -0.04700859085586328590  0.00020551706529169485 -0.00000240414603965371 -0.00070015072634540426
1520530337.500304 0.00000000000000000000 0.00000000000000000000 0.00000000000000000000 0.00000000000000000000 0.00000000000000000000 0.00000000000000000000 -0.01124995802528347584 -0.06620108758863527121 -0.04665391190254427473  0.00025511149691560852 -0.00004333667780072820 -0.00075500401242026348
1520530337.600307 0.00000000000000000000 0.00000000000000000000 0.00000000000000000000 0.00000000000000000000 0.00000000000000000000 0.00000000000000000000 -0.01144593155387244737 -0.06619554049022052800 -0.04617773271634451060  0.00023377273501014686 -0.00004080034149180485 -0.00076005055563484582
1520530337.700310 0.00000000000000000000 0.00000000000000000000 0.00000000000000000000 0.00000000000000000000 0.00000000000000000000 0.00000000000000000000 -0.01057261071255091549 -0.06695376143117703904 -0.04547481327460355799  0.00026968825391227084 -0.00001440848312432910 -0.00071523199677487053
1520530337.800854 0.00000000000000000000 0.00000000000000000000 0.00000000000000000000 0.00000000000000000000 0.00000000000000000000 0.00000000000000000000 -0.00993972836553940267 -0.06774978463123831895 -0.04526862056994782751  0.00026692874864689403  0.00005192243182914617 -0.00070397201569834548
1520530337.950858 0.00000000000000000000 0.00000000000000000000 0.00000000000000000000 0.00000000000000000000 0.00000000000000000000 0.00000000000000000000 -0.01006925917938302634 -0.06897612789637323771 -0.04506208834550601977  0.00019468298183751437 -0.00001111759036442935 -0.00056272413985502352
1520530338.050862 0.00000000000000000000 0.00000000000000000000 0.00000000000000000000 0.00000000000000000000 0.00000000000000000000 0.00000000000000000000 -0.00966368316949337870 -0.06987605316179297532 -0.04538163479328797406  0.00013111504381038886 -0.00000475474503338119 -0.00047162024163674399
1520530338.150864 0.00000000000000000000 0.00000000000000000000 0.00000000000000000000 0.00000000000000000000 0.00000000000000000000 0.00000000000000000000 -0.00991874634885822615 -0.06995388741693667201 -0.04632322160710412862  0.00007917247957981276 -0.00000880574158716427 -0.00037172685711620338
1520530338.200470 0.00000000000000000000 0.00000000000000000000 0.00000000000000000000 0.00000000000000000000 0.00000000000000000000 0.00000000000000000000 -0.00938376255444203257 -0.06931348133157363978 -0.04687161476279332745  0.00011441159927827548 -0.00005861970148505585 -0.00030620273574337822
1520530338.300474 0.00000000000000000000 0.00000000000000000000 0.00000000000000000000 0.00000000000000000000 0.00000000000000000000 0.00000000000000000000 -0.00921667614859654136 -0.06879973488541485382 -0.04724013534610629894  0.00017126609408382547 -0.00006597194719544447 -0.00026754459172772193
1520530338.400477 0.00000000000000000000 0.00000000000000000000 0.00000000000000000000 0.00000000000000000000 0.00000000000000000000 0.00000000000000000000 -0.00829699834346822943 -0.06918903493971252650 -0.04756295459096739758  0.00020771466594597462 -0.00005860842213945913 -0.00023057662947836198
1520530338.500480 0.00000000000000000000 0.00000000000000000000 0.00000000000000000000 0.00000000000000000000 0.00000000000000000000 0.00000000000000000000 -0.00722932068339544789 -0.06892908136244035866 -0.04832101692588887387  0.00019593359177455213 -0.00012811574757426781 -0.00016147478658760743
1520530338.600260 0.00000000000000000000 0.00000000000000000000 0.00000000000000000000 0.00000000000000000000 0.00000000000000000000 0.00000000000000000000 -0.00703478061091127125 -0.06991136800049349564 -0.04865591758608887873  0.00025784579692619619 -0.00016363563125397111 -0.00016089267136674498
1520530338.700263 0.00000000000000000000 0.00000000000000000000 0.00000000000000000000 0.00000000000000000000 0.00000000000000000000 0.00000000000000000000 -0.00707579802365685198 -0.07008136003624870769 -0.04874635068721402953  0.00028937879903614852 -0.00017332497946149841 -0.00019773480101189914
1520530338.800266 0.00000000000000000000 0.00000000000000000000 0.00000000000000000000 0.00000000000000000000 0.00000000000000000000 0.00000000000000000000 -0.00669700130062441355 -0.06963134467197854005 -0.04872527225271740953  0.00030458227855021492 -0.00015725415554648236 -0.00019794257780303090
1520530338.900269 0.00000000000000000000 0.00000000000000000000 0.00000000000000000000 0.00000000000000000000 0.00000000000000000000 0.00000000000000000000 -0.00685289468900933656 -0.06877689767437240864 -0.04896418734212451551  0.00028977729668171708 -0.00011182180244224717 -0.00020392201548223641
1520530339.000272 0.00000000000000000000 0.00000000000000000000 0.00000000000000000000 0.00000000000000000000 0.00000000000000000000 0.00000000000000000000 -0.00648071861708899785 -0.06924591054158402148 -0.04917867208679143481  0.00027794595382354069 -0.00011138159894503747 -0.00020090226712032538
1520530339.100960 0.00000000000000000000 0.00000000000000000000 0.00000000000000000000 0.00000000000000000000 0.00000000000000000000 0.00000000000000000000 -0.00611051167146147139 -0.06857512592787992634 -0.04890623702467314371  0.00029191910552653279 -0.00008155962109621841 -0.00020124040440361033
1520530339.150962 0.00000000000000000000 0.00000000000000000000 0.00000000000000000000 0.00000000000000000000 0.00000000000000000000 0.00000000000000000000 -0.00645991499243416759 -0.06805442900025980568 -0.04866994188970185514  0.00028642847817929198 -0.00005291129450791753 -0.00015932443483491248
1520530339.250965 0.00000000000000000000 0.00000000000000000000 0.00000000000000000000 0.00000000000000000000 0.00000000000000000000 0.00000000000000000000 -0.00678424867413293317 -0.06773608559201360624 -0.04826872779173321804  0.00030898439113243763  0.00000585897640692942 -0.00012525985453168558
1520530339.350968 0.00000000000000000000 0.00000000000000000000 0.00000000000000000000 0.00000000000000000000 0.00000000000000000000 0.00000000000000000000 -0.00691072701012606511 -0.06733809344086609527 -0.04791394595023037994  0.00030363908229714981 -0.00001336724163612087 -0.00010242169516230782
1520530339.451687 0.00000000000000000000 0.00000000000000000000 0.00000000000000000000 0.00000000000000000000 0.00000000000000000000 0.00000000000000000000 -0.00566757739244098599 -0.06649526117337647979 -0.04787645094383405353  0.00015025765409088662 -0.00004891238296042607 -0.00010828637185317028
1520530339.551690 0.00000000000000000000 0.00000000000000000000 0.00000000000000000000 0.00000000000000000000 0.00000000000000000000 0.00000000000000000000 -0.00514570070287611453 -0.06604690457271134019 -0.04778125562577972135 -0.00000244468377229789 -0.00007531982914564802 -0.00014343784241289766
1520530339.651693 0.00000000000000000000 0.00000000000000000000 0.00000000000000000000 0.00000000000000000000 0.00000000000000000000 0.00000000000000000000 -0.00570698522586773373 -0.06619006583057762683 -0.04780454513698964569 -0.00012271816977118053 -0.00005528072628448553 -0.00022189823332178200
1520530339.751697 0.00000000000000000000 0.00000000000000000000 0.00000000000000000000 0.00000000000000000000 0.00000000000000000000 0.00000000000000000000 -0.00674590137411420522 -0.06531808766488569895 -0.04757445853290775961 -0.00004120393125206775 -0.00009168413438131555 -0.00028291693212628032
1520530339.851056 0.00000000000000000000 0.00000000000000000000 0.00000000000000000000 0.00000000000000000000 0.00000000000000000000 0.00000000000000000000 -0.00816169583321069668 -0.06497949334908179053 -0.04740048082119852763  0.00000596939580481182 -0.00003927116272259272 -0.00034369910770342803
1520530339.951059 0.00000000000000000000 0.00000000000000000000 0.00000000000000000000 0.00000000000000000000 0.00000000000000000000 0.00000000000000000000 -0.00952725879551065587 -0.06670549106989472066 -0.04733076754086145560 -0.00000918464850742768 -0.00006387371923507089 -0.00033618680195659600
1520530340.051062 0.00000000000000000000 0.00000000000000000000 0.00000000000000000000 0.00000000000000000000 0.00000000000000000000 0.00000000000000000000 -0.01145358262059504965 -0.06706445027497671962 -0.04720248943691020271  0.00005392232165805074  0.00001171608083008023 -0.00034043494871240207
1520530340.151065 0.00000000000000000000 0.00000000000000000000 0.00000000000000000000 0.00000000000000000000 0.00000000000000000000 0.00000000000000000000 -0.01290015624400856625 -0.06852282950666173378 -0.04745420590078164302  0.00011062370996215825  0.00011086446642104424 -0.00032861923828918455
1520530340.250395 0.00000000000000000000 0.00000000000000000000 0.00000000000000000000 0.00000000000000000000 0.00000000000000000000 0.00000000000000000000 -0.01433187750632906356 -0.06927455205625659973 -0.04780778884841487691  0.00020530454144545568  0.00009630183237678059 -0.00039429936026175156
1520530340.350399 0.00000000000000000000 0.00000000000000000000 0.00000000000000000000 0.00000000000000000000 0.00000000000000000000 0.00000000000000000000 -0.01556629952869681595 -0.06988137341843290995 -0.04801834414216132191  0.00028361350741309055  0.00008246678581601375 -0.00041784469199365238
1520530340.450401 0.00000000000000000000 0.00000000000000000000 0.00000000000000000000 0.00000000000000000000 0.00000000000000000000 0.00000000000000000000 -0.01594516684593856939 -0.06849182223199822006 -0.04805581796621511553  0.00040665303632352355  0.00005692089758590673 -0.00041626138123381277
1520530340.550404 0.00000000000000000000 0.00000000000000000000 0.00000000000000000000 0.00000000000000000000 0.00000000000000000000 0.00000000000000000000 -0.01638215683254625951 -0.06815537311111911911 -0.04811566765263340650  0.00038098876971169691  0.00009034451523151124 -0.00039893172692743122
1520530340.650347 0.00000000000000000000 0.00000000000000000000 0.00000000000000000000 0.00000000000000000000 0.00000000000000000000 0.00000000000000000000 -0.01680804033922171301 -0.06823971592460754965 -0.04807742917519357978  0.00036756026238527601  0.00009083677218331230 -0.00042020486647270004
1520530340.750350 0.00000000000000000000 0.00000000000000000000 0.00000000000000000000 0.00000000000000000000 0.00000000000000000000 0.00000000000000000000 -0.01706504640009838189 -0.06741647971933778516 -0.04793452114297006711  0.00034636379527163449  0.00007039194625217329 -0.00043790324635345224
1520530340.900354 0.00000000000000000000 0.00000000000000000000 0.00000000000000000000 0.00000000000000000000 0.00000000000000000000 0.00000000000000000000 -0.01714028447750380255 -0.06721344045353065677 -0.04763587716492759250  0.00035702787040417169  0.00007431538448146486 -0.00046834027760051639
1520530341.050774 0.00000000000000000000 0.00000000000000000000 0.00000000000000000000 0.00000000000000000000 0.00000000000000000000 0.00000000000000000000 -0.01620240513785889402 -0.06728760530585718713 -0.04725136113204313204  0.00038892378284302110  0.00000021049595861542 -0.00036696259230741338
1520530341.300782 0.00000000000000000000 0.00000000000000000000 0.00000000000000000000 0.00000000000000000000 0.00000000000000000000 0.00000000000000000000 -0.01530787607739959866 -0.06852333514516424640 -0.04646418042678347737  0.00035390882595411478 -0.00000155708698058609 -0.00026010721751756763
1520530341.450787 0.00000000000000000000 0.00000000000000000000 0.00000000000000000000 0.00000000000000000000 0.00000000000000000000 0.00000000000000000000 -0.01655318729617301365 -0.06854261236753572684 -0.04674196214870823124  0.00028617663038149339 -0.00012522126513236418 -0.00008157845480344822
1520530341.650717 0.00000000000000000000 0.00000000000000000000 0.00000000000000000000 0.00000000000000000000 0.00000000000000000000 0.00000000000000000000 -0.01697487747758226820 -0.06910455306971298450 -0.04648701804809289573  0.00027305727208061937 -0.00008943833124533331 -0.00004355430881151469
1520530341.900542 0.00000000000000000000 0.00000000000000000000 0.00000000000000000000 0.00000000000000000000 0.00000000000000000000 0.00000000000000000000 -0.01731890898680268215 -0.06971517029011595201 -0.04727869305171523984  0.00023314785349184882 -0.00007121501401374992 -0.00005437134130589795
1520530342.100548 0.00000000000000000000 0.00000000000000000000 0.00000000000000000000 0.00000000000000000000 0.00000000000000000000 0.00000000000000000000 -0.01725446969855685270 -0.06913786514631622970 -0.04647265672477297882  0.00038619785971559246 -0.00003063105562756022 -0.00010988548201739073
1520530342.250553 0.00000000000000000000 0.00000000000000000000 0.00000000000000000000 0.00000000000000000000 0.00000000000000000000 0.00000000000000000000 -0.01719864251069684602 -0.06943989947060086321 -0.04658364292407553980  0.00025084558264209242 -0.00003136823194738673 -0.00021742439403632584
1520530342.350675 0.00000000000000000000 0.00000000000000000000 0.00000000000000000000 0.00000000000000000000 0.00000000000000000000 0.00000000000000000000 -0.01755227309191385518 -0.07063966444674470158 -0.04686151895171726534  0.00012343768699439470 -0.00006510707052437327 -0.00029999399704852813
1520530342.450678 0.00000000000000000000 0.00000000000000000000 0.00000000000000000000 0.00000000000000000000 0.00000000000000000000 0.00000000000000000000 -0.01721076655483217213 -0.07071096962547150644 -0.04728232961773984333  0.00010663643298467801 -0.00010409590142713037 -0.00037948654885187389
1520530342.600683 0.00000000000000000000 0.00000000000000000000 0.00000000000000000000 0.00000000000000000000 0.00000000000000000000 0.00000000000000000000 -0.01629447782532039701 -0.07136936321825819440 -0.04749276017351779233  0.00014354274250152801 -0.00015206328441132568 -0.00038120254135004376
1520530342.750644 0.00000000000000000000 0.00000000000000000000 0.00000000000000000000 0.00000000000000000000 0.00000000000000000000 0.00000000000000000000 -0.01561267574474084138 -0.07077304055707339669 -0.04759240700502035543  0.00021617203301851527 -0.00011902986650622093 -0.00030559634421296872
1520530342.850648 0.00000000000000000000 0.00000000000000000000 0.00000000000000000000 0.00000000000000000000 0.00000000000000000000 0.00000000000000000000 -0.01518641166288189209 -0.06940419843568972069 -0.04732685703409958422  0.00029817482098669411 -0.00011958785763564088 -0.00031052037505849208
1520530342.950651 0.00000000000000000000 0.00000000000000000000 0.00000000000000000000 0.00000000000000000000 0.00000000000000000000 0.00000000000000000000 -0.01462501854445109536 -0.06794396875784550205 -0.04713324271921804504  0.00030487312179895069 -0.00012734506179071142 -0.00032657163053470881
1520530343.050654 0.00000000000000000000 0.00000000000000000000 0.00000000000000000000 0.00000000000000000000 0.00000000000000000000 0.00000000000000000000 -0.01418661409854314603 -0.06637536121814593959 -0.04739470900514185930  0.00029789535850241949 -0.00010430523882032679 -0.00034295802831546009
1520530343.101131 0.00000000000000000000 0.00000000000000000000 0.00000000000000000000 0.00000000000000000000 0.00000000000000000000 0.00000000000000000000 -0.01386482703446451081 -0.06530987649325377398 -0.04722508900762483613  0.00030446232040246191 -0.00007498919084591468 -0.00035048843376135321
1520530343.201134 0.00000000000000000000 0.00000000000000000000 0.00000000000000000000 0.00000000000000000000 0.00000000000000000000 0.00000000000000000000 -0.01331986643452797055 -0.06429153282551347548 -0.04719569603969152316  0.00030986411225832343 -0.00008144297556903526 -0.00037468052699848913
1520530343.301138 0.00000000000000000000 0.00000000000000000000 0.00000000000000000000 0.00000000000000000000 0.00000000000000000000 0.00000000000000000000 -0.01284615123100875216 -0.06212614467098895310 -0.04750542268999325551  0.00026195821618168054 -0.00005040263319245236 -0.00041173721710587616
1520530343.401141 0.00000000000000000000 0.00000000000000000000 0.00000000000000000000 0.00000000000000000000 0.00000000000000000000 0.00000000000000000000 -0.01232279549502754250 -0.05998652034688441853 -0.04768552310579766973  0.00031212876347089821 -0.00007783456812367368 -0.00041167558517633780
1520530343.501404 0.00000000000000000000 0.00000000000000000000 0.00000000000000000000 0.00000000000000000000 0.00000000000000000000 0.00000000000000000000 -0.01137341603001972706 -0.05795948787767286198 -0.04785162970482258887  0.00031564498392861910 -0.00005364364793956841 -0.00039595349271366159
1520530343.601407 0.00000000000000000000 0.00000000000000000000 0.00000000000000000000 0.00000000000000000000 0.00000000000000000000 0.00000000000000000000 -0.01025855755167981616 -0.05563273507919530569 -0.04791456815505628491  0.00032879463081657534 -0.00000986304167403332 -0.00034080490959307366
1520530343.701410 0.00000000000000000000 0.00000000000000000000 0.00000000000000000000 0.00000000000000000000 0.00000000000000000000 0.00000000000000000000 -0.01021788217036735148 -0.05385240576684868774 -0.04794608136033080142  0.00034037990785431779 -0.00005139900623070181 -0.00028773595065500058
1520530343.751410 0.00000000000000000000 0.00000000000000000000 0.00000000000000000000 0.00000000000000000000 0.00000000000000000000 0.00000000000000000000 -0.01039449017983024720 -0.05166754256545887797 -0.04789015955330284263  0.00036752333983882865 -0.00004469272962925617 -0.00036741998427111498
1520530343.851414 0.00000000000000000000 0.00000000000000000000 0.00000000000000000000 0.00000000000000000000 0.00000000000000000000 0.00000000000000000000 -0.00963603317874638619 -0.04934133542178337217 -0.04808574457457338164  0.00038968825809247200 -0.00006132023448289617 -0.00035236671712923442
1520530343.951402 0.00000000000000000000 0.00000000000000000000 0.00000000000000000000 0.00000000000000000000 0.00000000000000000000 0.00000000000000000000 -0.00851280084146863354 -0.04688529786042005404 -0.04844060705825197627  0.00039902432700570034 -0.00008473537176082459 -0.00031691433804333915
1520530344.051405 0.00000000000000000000 0.00000000000000000000 0.00000000000000000000 0.00000000000000000000 0.00000000000000000000 0.00000000000000000000 -0.00712241592629007936 -0.04373170913338905730 -0.04883885376297877196  0.00042106467960714082 -0.00007285317312624400 -0.00023854567121317120
1520530344.151408 0.00000000000000000000 0.00000000000000000000 0.00000000000000000000 0.00000000000000000000 0.00000000000000000000 0.00000000000000000000 -0.00678658052562293185 -0.04043957188873517627 -0.04916815162428284092  0.00043399582849949542 -0.00005431004131848536 -0.00016350450393305677
1520530344.251411 0.00000000000000000000 0.00000000000000000000 0.00000000000000000000 0.00000000000000000000 0.00000000000000000000 0.00000000000000000000 -0.00695562417796821882 -0.03748886106261477974 -0.04901946944998113870  0.00046984648170362263 -0.00000978717078827893 -0.00017391279408002986
1520530344.351408 0.00000000000000000000 0.00000000000000000000 0.00000000000000000000 0.00000000000000000000 0.00000000000000000000 0.00000000000000000000 -0.00658767658338162577 -0.03455321620783658593 -0.04913458496398113995  0.00043860483289953124 -0.00003596406211839960 -0.00021464368455611791
1520530344.451412 0.00000000000000000000 0.00000000000000000000 0.00000000000000000000 0.00000000000000000000 0.00000000000000000000 0.00000000000000000000 -0.00734549306080512377 -0.03169735047236370284 -0.04936175165771954781  0.00038179539988113714 -0.00001305566404029351 -0.00023703942506919079
1520530344.551415 0.00000000000000000000 0.00000000000000000000 0.00000000000000000000 0.00000000000000000000 0.00000000000000000000 0.00000000000000000000 -0.00770271073629021346 -0.03100693830843523000 -0.04959763328963554679  0.00037485230485526403  0.00002204336680030761 -0.00027153640522865164
1520530344.651418 0.00000000000000000000 0.00000000000000000000 0.00000000000000000000 0.00000000000000000000 0.00000000000000000000 0.00000000000000000000 -0.00743680289599367786 -0.02880623369785895865 -0.04962936287223388560  0.00040175440475513017 -0.00000469181872103115 -0.00025552509823310686
1520530344.751636 0.00000000000000000000 0.00000000000000000000 0.00000000000000000000 0.00000000000000000000 0.00000000000000000000 0.00000000000000000000 -0.00756883028386366122 -0.02642517728290683446 -0.04971774517574784058  0.00040612718132920669 -0.00002887929040586518 -0.00024859133322067040
1520530344.851639 0.00000000000000000000 0.00000000000000000000 0.00000000000000000000 0.00000000000000000000 0.00000000000000000000 0.00000000000000000000 -0.00926480728919941085 -0.02427142518354102885 -0.04959337811712113964  0.00037935935810535788 -0.00000777689492528403 -0.00028533180084437855
1520530344.951642 0.00000000000000000000 0.00000000000000000000 0.00000000000000000000 0.00000000000000000000 0.00000000000000000000 0.00000000000000000000 -0.00846011042235453835 -0.02217500262771906344 -0.04981646636925389504  0.00033742328743441963 -0.00003263588068186207 -0.00033645522732925892
1520530345.051645 0.00000000000000000000 0.00000000000000000000 0.00000000000000000000 0.00000000000000000000 0.00000000000000000000 0.00000000000000000000 -0.00905944624846909477 -0.02091642659788206515 -0.04972745872263615446  0.00036379379148109589 -0.00003377649024133324 -0.00031567584075983303
1520530345.151845 0.00000000000000000000 0.00000000000000000000 0.00000000000000000000 0.00000000000000000000 0.00000000000000000000 0.00000000000000000000 -0.00935783004937173167 -0.02090175870714292353 -0.04966801078159025634  0.00035564287664012793 -0.00003031714623398761 -0.00019631261137767285
1520530345.251745 0.00000000000000000000 0.00000000000000000000 0.00000000000000000000 0.00000000000000000000 0.00000000000000000000 0.00000000000000000000 -0.01046581967820728494 -0.01988120884641144878 -0.04957465086164823675  0.00037603502986294105 -0.00001586261792196862 -0.00013781376096656895
1520530345.351748 0.00000000000000000000 0.00000000000000000000 0.00000000000000000000 0.00000000000000000000 0.00000000000000000000 0.00000000000000000000 -0.01107993575372137780 -0.01882481845322250130 -0.04931697221778950924  0.00039366127777344911  0.00000869993511216156 -0.00012485579845755113
1520530345.451751 0.00000000000000000000 0.00000000000000000000 0.00000000000000000000 0.00000000000000000000 0.00000000000000000000 0.00000000000000000000 -0.01232737376978852890 -0.01836532674295282899 -0.04915893592677997304  0.00038853920930652792  0.00002017005666175487 -0.00012236840399367080
1520530345.551195 0.00000000000000000000 0.00000000000000000000 0.00000000000000000000 0.00000000000000000000 0.00000000000000000000 0.00000000000000000000 -0.01312783812420583764 -0.01838169600275582974 -0.04921905434512256761  0.00037389614681272167  0.00005720154993752588 -0.00017132056880792882
1520530345.651198 0.00000000000000000000 0.00000000000000000000 0.00000000000000000000 0.00000000000000000000 0.00000000000000000000 0.00000000000000000000 -0.01295368165172326204 -0.01786367070704622181 -0.04911778705499168785  0.00038594900292749398  0.00004056422423810572 -0.00018000878286173377
1520530345.751201 0.00000000000000000000 0.00000000000000000000 0.00000000000000000000 0.00000000000000000000 0.00000000000000000000 0.00000000000000000000 -0.01343071916641376887 -0.01759351996052862036 -0.04884794743749901885  0.00035441224386266711  0.00001558273310052820 -0.00019896316074363748
1520530345.801203 0.00000000000000000000 0.00000000000000000000 0.00000000000000000000 0.00000000000000000000 0.00000000000000000000 0.00000000000000000000 -0.01400478712738061418 -0.01703284981680612195 -0.04876119118909919697  0.00035223532776947514 -0.00000700146864206122 -0.00025483211801934747
1520530345.901206 0.00000000000000000000 0.00000000000000000000 0.00000000000000000000 0.00000000000000000000 0.00000000000000000000 0.00000000000000000000 -0.01492042737398457594 -0.01573125872141901971 -0.04849061935634415427  0.00030957279744526725 -0.00001521952589821946 -0.00029860021862481112
1520530345.951161 0.00000000000000000000 0.00000000000000000000 0.00000000000000000000 0.00000000000000000000 0.00000000000000000000 0.00000000000000000000 -0.01604636385184446054 -0.01504936766903337657 -0.04813552378117208486  0.00031358397979087428 -0.00000077678971659620 -0.00034475759969088718
1520530346.051476 0.00000000000000000000 0.00000000000000000000 0.00000000000000000000 0.00000000000000000000 0.00000000000000000000 0.00000000000000000000 -0.01665477455243469587 -0.01474296584085832071 -0.04810282941050442879  0.00033048895178589417 -0.00001822176728566343 -0.00035166094788741158
1520530346.151479 0.00000000000000000000 0.00000000000000000000 0.00000000000000000000 0.00000000000000000000 0.00000000000000000000 0.00000000000000000000 -0.01771974168832360710 -0.01489930959001211155 -0.04824996719832939235  0.00034975623372221666 -0.00006300689521796226 -0.00029678976415798141
1520530346.251483 0.00000000000000000000 0.00000000000000000000 0.00000000000000000000 0.00000000000000000000 0.00000000000000000000 0.00000000000000000000 -0.01811617639610025102 -0.01464734386971355655 -0.04831226814439958106  0.00039122757514257784 -0.00005135970792752440 -0.00023405975256573610
1520530346.301485 0.00000000000000000000 0.00000000000000000000 0.00000000000000000000 0.00000000000000000000 0.00000000000000000000 0.00000000000000000000 -0.01814042638401170207 -0.01455052897187512732 -0.04824826768279688594  0.00040302959059714677 -0.00002569407046151422 -0.00019441167941978903
1520530346.401376 0.00000000000000000000 0.00000000000000000000 0.00000000000000000000 0.00000000000000000000 0.00000000000000000000 0.00000000000000000000 -0.01844781902431034612 -0.01433547076481399805 -0.04815069962142369542  0.00039861152306037534  0.00000967441002889761 -0.00019297063711351507
1520530346.501379 0.00000000000000000000 0.00000000000000000000 0.00000000000000000000 0.00000000000000000000 0.00000000000000000000 0.00000000000000000000 -0.01922376621074905687 -0.01397114549693649621 -0.04794109803166626826  0.00041159260119828117  0.00004825778715830872 -0.00022581045190254729
1520530346.551380 0.00000000000000000000 0.00000000000000000000 0.00000000000000000000 0.00000000000000000000 0.00000000000000000000 0.00000000000000000000 -0.01979248279491467241 -0.01375160620058748888 -0.04788998104567054187  0.00041903806823564570  0.00004278694733074688 -0.00023966718235982686
1520530346.651383 0.00000000000000000000 0.00000000000000000000 0.00000000000000000000 0.00000000000000000000 0.00000000000000000000 0.00000000000000000000 -0.02001732092015749004 -0.01358117260879519728 -0.04783115712638393024  0.00040804170794670467  0.00004467362987007278 -0.00023272484867821640
1520530346.701385 0.00000000000000000000 0.00000000000000000000 0.00000000000000000000 0.00000000000000000000 0.00000000000000000000 0.00000000000000000000 -0.02037007161165800204 -0.01334871859237731981 -0.04777596126008501476  0.00037287336648012968  0.00005623530299278539 -0.00022255062588696274
1520530346.801545 0.00000000000000000000 0.00000000000000000000 0.00000000000000000000 0.00000000000000000000 0.00000000000000000000 0.00000000000000000000 -0.02077837833872813594 -0.01298277764385867908 -0.04784615140136967704  0.00035895731292847504  0.00006989527852234311 -0.00019747763904173440
1520530346.851546 0.00000000000000000000 0.00000000000000000000 0.00000000000000000000 0.00000000000000000000 0.00000000000000000000 0.00000000000000000000 -0.02130731154486857973 -0.01330941926395690263 -0.04772805424548529768  0.00035220395296942916  0.00012241592427385747 -0.00019498194943015697
1520530346.951549 0.00000000000000000000 0.00000000000000000000 0.00000000000000000000 0.00000000000000000000 0.00000000000000000000 0.00000000000000000000 -0.02178292832139087573 -0.01340908875616093898 -0.04759318273476934036  0.00035662648601362325  0.00014442162782668191 -0.00020330594025748201
1520530347.001551 0.00000000000000000000 0.00000000000000000000 0.00000000000000000000 0.00000000000000000000 0.00000000000000000000 0.00000000000000000000 -0.02229796801481214591 -0.01326530105597638343 -0.04738303274840811874  0.00038777126423525783  0.00014914073477113488 -0.00020947138768737889
1520530347.101554 0.00000000000000000000 0.00000000000000000000 0.00000000000000000000 0.00000000000000000000 0.00000000000000000000 0.00000000000000000000 -0.02279103697064873910 -0.01277085448339028081 -0.04730024327547471125  0.00044519179780763826  0.00010435280142570685 -0.00020088934730015754
1520530347.201400 0.00000000000000000000 0.00000000000000000000 0.00000000000000000000 0.00000000000000000000 0.00000000000000000000 0.00000000000000000000 -0.02324893866887190255 -0.01235319973869981186 -0.04727646990192791582  0.00045268368728064283  0.00006187346503122178 -0.00011947068189721971
1520530347.251402 0.00000000000000000000 0.00000000000000000000 0.00000000000000000000 0.00000000000000000000 0.00000000000000000000 0.00000000000000000000 -0.02337380825529406653 -0.01198463554798762792 -0.04722827558748426274  0.00043519770971420772  0.00007213347517640496 -0.00005737898495233601
1520530347.351405 0.00000000000000000000 0.00000000000000000000 0.00000000000000000000 0.00000000000000000000 0.00000000000000000000 0.00000000000000000000 -0.02333489733719610812 -0.01155551638077853549 -0.04713267505211039821  0.00042504009442650135  0.00008126613144688745 -0.00000495325910835859
1520530347.451408 0.00000000000000000000 0.00000000000000000000 0.00000000000000000000 0.00000000000000000000 0.00000000000000000000 0.00000000000000000000 -0.02275400090596261735 -0.01176599464559850705 -0.04707647599700218871  0.00036529946777040067  0.00011102413318690466 -0.00000768081785124393
1520530347.501410 0.00000000000000000000 0.00000000000000000000 0.00000000000000000000 0.00000000000000000000 0.00000000000000000000 0.00000000000000000000 -0.02289356252442186629 -0.01164443181466786811 -0.04690009953586880137 0.00040108890473444629 0.00004517252247674771 0.00001739041969958377
1520530347.601218 0.00000000000000000000 0.00000000000000000000 0.00000000000000000000 0.00000000000000000000 0.00000000000000000000 0.00000000000000000000 -0.02313145663953051351 -0.01146657308373198909 -0.04691861172078611031 0.00040588319658122634 0.00003824676534312857 0.00003523160861055054
1520530347.701222 0.00000000000000000000 0.00000000000000000000 0.00000000000000000000 0.00000000000000000000 0.00000000000000000000 0.00000000000000000000 -0.02323657842914365196 -0.01136243889271847628 -0.04676199449155259147 0.00040805824913905090 0.00003813210010803634 0.00004359401443163120
1520530347.801224 0.00000000000000000000 0.00000000000000000000 0.00000000000000000000 0.00000000000000000000 0.00000000000000000000 0.00000000000000000000 -0.02355380780003209565 -0.01137815380109465264 -0.04675500814260382526 0.00042380863832066788 0.00006666346169999529 0.00001733337349917602
1520530347.901227 0.00000000000000000000 0.00000000000000000000 0.00000000000000000000 0.00000000000000000000 0.00000000000000000000 0.00000000000000000000 -0.02397516569672734910 -0.01145289020746085781 -0.04673141476435777042  0.00045207249392560260  0.00005970131173896453 -0.00001442936369212596
1520530348.001163 0.00000000000000000000 0.00000000000000000000 0.00000000000000000000 0.00000000000000000000 0.00000000000000000000 0.00000000000000000000 -0.02416052842655522226 -0.01132095562454914911 -0.04636852745021196459  0.00049786882683145535  0.00002720365684073374 -0.00003951934090189671
1520530348.101166 0.00000000000000000000 0.00000000000000000000 0.00000000000000000000 0.00000000000000000000 0.00000000000000000000 0.00000000000000000000 -0.02428265977427334493 -0.01152353188671185330 -0.04605074676306797343  0.00046316030653258079  0.00002834858430569064 -0.00006377641230717341
1520530348.201169 0.00000000000000000000 0.00000000000000000000 0.00000000000000000000 0.00000000000000000000 0.00000000000000000000 0.00000000000000000000 -0.02440828264972315365 -0.01143505499881446522 -0.04602739730741575719  0.00044472451971977960  0.00003429232223472275 -0.00005078948759631785
1520530348.251170 0.00000000000000000000 0.00000000000000000000 0.00000000000000000000 0.00000000000000000000 0.00000000000000000000 0.00000000000000000000 -0.02457662040804617018 -0.01152041421262834167 -0.04607448143560452514  0.00045687176065664311  0.00000636958706216165 -0.00006076195338785125
1520530348.351173 0.00000000000000000000 0.00000000000000000000 0.00000000000000000000 0.00000000000000000000 0.00000000000000000000 0.00000000000000000000 -0.02436623576265309690 -0.01166059892847728409 -0.04593524596751113326  0.00044583670128997110 -0.00000342858389651429 -0.00004633794166788302
1520530348.451416 0.00000000000000000000 0.00000000000000000000 0.00000000000000000000 0.00000000000000000000 0.00000000000000000000 0.00000000000000000000 -0.02426907636946380037 -0.01153092413079894081 -0.04589049406697127270  0.00043865167457296137  0.00005428371478367844 -0.00005137894988733126
1520530348.551419 0.00000000000000000000 0.00000000000000000000 0.00000000000000000000 0.00000000000000000000 0.00000000000000000000 0.00000000000000000000 -0.02473106346815805850 -0.01140671971042028429 -0.04567505616932771711  0.00043848200118283765  0.00010277789999078071 -0.00007974553759558775
1520530348.651423 0.00000000000000000000 0.00000000000000000000 0.00000000000000000000 0.00000000000000000000 0.00000000000000000000 0.00000000000000000000 -0.02482995303554971778 -0.01114505350247283096 -0.04562699606976321903  0.00047262125371826195  0.00003653339526960934 -0.00008488115815592419
1520530348.751426 0.00000000000000000000 0.00000000000000000000 0.00000000000000000000 0.00000000000000000000 0.00000000000000000000 0.00000000000000000000 -0.02472716815029079793 -0.01114336121385396325 -0.04552650746241261592  0.00043733126144168444  0.00007220055262667575 -0.00012063467764799722
1520530348.801428 0.00000000000000000000 0.00000000000000000000 0.00000000000000000000 0.00000000000000000000 0.00000000000000000000 0.00000000000000000000 -0.02458470926693011663 -0.01125217331158098744 -0.04538449671758802012  0.00039174738918951776  0.00002264658598141556 -0.00009225004753690401
1520530349.201326 0.00000000000000000000 0.00000000000000000000 0.00000000000000000000 0.00000000000000000000 0.00000000000000000000 0.00000000000000000000 -0.02490498714466543931 -0.01051438078855677916 -0.04522323459441350557  0.00044417141992294216 -0.00000469379805939523 -0.00015723917821554588
1520530349.251106 0.00000000000000000000 0.00000000000000000000 0.00000000000000000000 0.00000000000000000000 0.00000000000000000000 0.00000000000000000000 -0.02491479513198329235 -0.01036313994770352541 -0.04527468449415369967  0.00045292661252265378 -0.00005273280963744676 -0.00010400368573219802
1520530349.351109 0.00000000000000000000 0.00000000000000000000 0.00000000000000000000 0.00000000000000000000 0.00000000000000000000 0.00000000000000000000 -0.02522220461544451287 -0.01049088493830469329 -0.04526444329738944783  0.00048387890727685659 -0.00004179563912335521 -0.00004666184735120308
1520530349.451112 0.00000000000000000000 0.00000000000000000000 0.00000000000000000000 0.00000000000000000000 0.00000000000000000000 0.00000000000000000000 -0.02529067227780626079 -0.01047489089848743435 -0.04513922059189062752  0.00052376812581029022 -0.00004131263007161265  0.00001836961525512770
1520530349.551115 0.00000000000000000000 0.00000000000000000000 0.00000000000000000000 0.00000000000000000000 0.00000000000000000000 0.00000000000000000000 -0.02538329386800742757 -0.01052920771353233961 -0.04500530068625261532 0.00052336005035924927 0.00005294493042896875 0.00002589481984412406
1520530349.650935 0.00000000000000000000 0.00000000000000000000 0.00000000000000000000 0.00000000000000000000 0.00000000000000000000 0.00000000000000000000 -0.02543296725205318465 -0.01053195917090250441 -0.04504040648874730463  0.00051270528747506612  0.00008344458545254999 -0.00000476607015310403
1520530349.750943 0.00000000000000000000 0.00000000000000000000 0.00000000000000000000 0.00000000000000000000 0.00000000000000000000 0.00000000000000000000 -0.02548384070632079071 -0.01039713179081141851 -0.04499778583970930751  0.00052032424091118159  0.00003817439680491081 -0.00002536939726911326
1520530349.800940 0.00000000000000000000 0.00000000000000000000 0.00000000000000000000 0.00000000000000000000 0.00000000000000000000 0.00000000000000000000 -0.02557045814744980661 -0.01024580759976571366 -0.04497080707086916623  0.00055501548692803030  0.00004077404895810230 -0.00006163570952887901
1520530349.900986 0.00000000000000000000 0.00000000000000000000 0.00000000000000000000 0.00000000000000000000 0.00000000000000000000 0.00000000000000000000 -0.02558557795778196656 -0.01031770306477448537 -0.04495150980353034703  0.00052998067599644317  0.00004438484180855633 -0.00006866090491509137
1520530349.950944 0.00000000000000000000 0.00000000000000000000 0.00000000000000000000 0.00000000000000000000 0.00000000000000000000 0.00000000000000000000 -0.02567411211368092819 -0.01032096085610011843 -0.04501186412058916231  0.00051948118692036473  0.00002300538449813785 -0.00008555872812338825
1520530350.051376 0.00000000000000000000 0.00000000000000000000 0.00000000000000000000 0.00000000000000000000 0.00000000000000000000 0.00000000000000000000 -0.02583764456046717950 -0.01026927777537638142 -0.04492617873887067709  0.00053450862627419824  0.00004178227894839561 -0.00008385774690778248
1520530350.101378 0.00000000000000000000 0.00000000000000000000 0.00000000000000000000 0.00000000000000000000 0.00000000000000000000 0.00000000000000000000 -0.02585218885658748661 -0.01018175025925895094 -0.04466830383899089707  0.00053459051513568719  0.00010341110561077875 -0.00011971364947375410
1520530350.201381 0.00000000000000000000 0.00000000000000000000 0.00000000000000000000 0.00000000000000000000 0.00000000000000000000 0.00000000000000000000 -0.02580088565681218360 -0.01007330339515259167 -0.04442900314144095086  0.00050835155324303839  0.00010388966371218040 -0.00014132364248690789
1520530350.251384 0.00000000000000000000 0.00000000000000000000 0.00000000000000000000 0.00000000000000000000 0.00000000000000000000 0.00000000000000000000 -0.02559641550204043089 -0.00994720450799307238 -0.04442177469284903230  0.00046755463468858117  0.00003920135916035310 -0.00011106469593923559
1520530350.351387 0.00000000000000000000 0.00000000000000000000 0.00000000000000000000 0.00000000000000000000 0.00000000000000000000 0.00000000000000000000 -0.02575456870073978763 -0.00990276046015299040 -0.04449513993132426376  0.00048074184447567583  0.00003186368052846931 -0.00007244734800458474
1520530350.401387 0.00000000000000000000 0.00000000000000000000 0.00000000000000000000 0.00000000000000000000 0.00000000000000000000 0.00000000000000000000 -0.02583382372982955325 -0.00991987878526347754 -0.04449772352995524233  0.00051724522208249264  0.00006275953491822563 -0.00003167375054952986
1520530350.501516 0.00000000000000000000 0.00000000000000000000 0.00000000000000000000 0.00000000000000000000 0.00000000000000000000 0.00000000000000000000 -0.02594406368665252635 -0.00982671226188470276 -0.04438082335701289127 0.00053571158188896097 0.00007623650011097828 0.00001161376733331328
1520530350.551518 0.00000000000000000000 0.00000000000000000000 0.00000000000000000000 0.00000000000000000000 0.00000000000000000000 0.00000000000000000000 -0.02598569357247226472 -0.00968174144189862598 -0.04431823869514293218 0.00053693370429748434 0.00010703713795631483 0.00005255639164463692
1520530350.651521 0.00000000000000000000 0.00000000000000000000 0.00000000000000000000 0.00000000000000000000 0.00000000000000000000 0.00000000000000000000 -0.02606552413734792781 -0.00963713845354761262 -0.04420255965380570640 0.00056043043691501014 0.00014213319307213254 0.00008200703739415501
1520530350.751524 0.00000000000000000000 0.00000000000000000000 0.00000000000000000000 0.00000000000000000000 0.00000000000000000000 0.00000000000000000000 -0.02642623512055697343 -0.00951424336901206952 -0.04407356554995910114 0.00061330008238607593 0.00010987101470841720 0.00009672473501346949
1520530350.851527 0.00000000000000000000 0.00000000000000000000 0.00000000000000000000 0.00000000000000000000 0.00000000000000000000 0.00000000000000000000 -0.02650385021001128855 -0.00964411478438232696 -0.04386805264134225474 0.00058555517634297145 0.00012846588415874101 0.00006856399582763380
1520530350.951573 0.00000000000000000000 0.00000000000000000000 0.00000000000000000000 0.00000000000000000000 0.00000000000000000000 0.00000000000000000000 -0.02656235343467947679 -0.00989522373276820709 -0.04383860882108045476 0.00052422853096872587 0.00012898210521780919 0.00005404071648340732
1520530351.051576 0.00000000000000000000 0.00000000000000000000 0.00000000000000000000 0.00000000000000000000 0.00000000000000000000 0.00000000000000000000 -0.02695767149225052756 -0.01004738489848342430 -0.04383000147583406697 0.00050281716580193145 0.00012948607197534308 0.00003885581141825585
1520530351.101578 0.00000000000000000000 0.00000000000000000000 0.00000000000000000000 0.00000000000000000000 0.00000000000000000000 0.00000000000000000000 -0.02707773973060219330 -0.01009868160269891679 -0.04357434523030531692  0.00053766249908900618  0.00015308540377966594 -0.00005493005868167590
1520530351.201581 0.00000000000000000000 0.00000000000000000000 0.00000000000000000000 0.00000000000000000000 0.00000000000000000000 0.00000000000000000000 -0.02764483570060498677 -0.00992282251181430923 -0.04325011501435881145  0.00059520101036332094  0.00017941121083891383 -0.00010604540145878683
1520530351.301683 0.00000000000000000000 0.00000000000000000000 0.00000000000000000000 0.00000000000000000000 0.00000000000000000000 0.00000000000000000000 -0.02778641774407976731 -0.01002296713791863726 -0.04326723650225251100  0.00060330258705577791  0.00015843423077933555 -0.00009703874429579768
1520530351.401685 0.00000000000000000000 0.00000000000000000000 0.00000000000000000000 0.00000000000000000000 0.00000000000000000000 0.00000000000000000000 -0.02795768073351630537 -0.01023292129288775991 -0.04329507804312510144  0.00063644816229859629  0.00014620141664624658 -0.00004169109258842488
1520530351.501759 0.00000000000000000000 0.00000000000000000000 0.00000000000000000000 0.00000000000000000000 0.00000000000000000000 0.00000000000000000000 -0.02792166657307255939 -0.01025606474258582319 -0.04314627590099368026 0.00065688331082033294 0.00014196425162338712 0.00002684776806443907
1520530351.601688 0.00000000000000000000 0.00000000000000000000 0.00000000000000000000 0.00000000000000000000 0.00000000000000000000 0.00000000000000000000 -0.02816421123917531993 -0.01020364255169454656 -0.04297334541943952785 0.00064123626043484220 0.00016328683003928552 0.00010308092946153554
1520530351.701695 0.00000000000000000000 0.00000000000000000000 0.00000000000000000000 0.00000000000000000000 0.00000000000000000000 0.00000000000000000000 -0.02848426463471170900 -0.01033243881488650311 -0.04307172466104119968 0.00066395624247902237 0.00016926978653429258 0.00012753789418306000
1520530351.801698 0.00000000000000000000 0.00000000000000000000 0.00000000000000000000 0.00000000000000000000 0.00000000000000000000 0.00000000000000000000 -0.02844622866475001594 -0.01010982132401564912 -0.04284429484250249637 0.00073574352503004588 0.00009488289692808573 0.00014108314195832280
1520530351.901701 0.00000000000000000000 0.00000000000000000000 0.00000000000000000000 0.00000000000000000000 0.00000000000000000000 0.00000000000000000000 -0.02864689015502486572 -0.00976787185874994704 -0.04251420345762964986 0.00072545592332285672 0.00015283661096408247 0.00011982647659336063
1520530352.001704 0.00000000000000000000 0.00000000000000000000 0.00000000000000000000 0.00000000000000000000 0.00000000000000000000 0.00000000000000000000 -0.02886843308065592181 -0.00967829065987567926 -0.04258237357620744956 0.00065757587566902078 0.00015161793238740513 0.00009953427470757770
1520530352.101805 0.00000000000000000000 0.00000000000000000000 0.00000000000000000000 0.00000000000000000000 0.00000000000000000000 0.00000000000000000000 -0.02911581093811010934 -0.00954511665435039958 -0.04269919449868377764 0.00060168503761453250 0.00014271204522980501 0.00010015774407420038
1520530352.201808 0.00000000000000000000 0.00000000000000000000 0.00000000000000000000 0.00000000000000000000 0.00000000000000000000 0.00000000000000000000 -0.02926608426266840909 -0.00965943895067749615 -0.04254906825176169027 0.00060325156908148849 0.00015313221772798128 0.00005324955806344098
1520530352.301811 0.00000000000000000000 0.00000000000000000000 0.00000000000000000000 0.00000000000000000000 0.00000000000000000000 0.00000000000000000000 -0.02955007282532301147 -0.00961794472026024361 -0.04219943749779746928  0.00062682115923775065  0.00009789087618654517 -0.00000500597799015380
1520530352.401814 0.00000000000000000000 0.00000000000000000000 0.00000000000000000000 0.00000000000000000000 0.00000000000000000000 0.00000000000000000000 -0.02976496719134720179 -0.00975380542442785478 -0.04208291904549590207  0.00061998110008338724  0.00007812045898807848 -0.00004880092932877554
1520530352.501469 0.00000000000000000000 0.00000000000000000000 0.00000000000000000000 0.00000000000000000000 0.00000000000000000000 0.00000000000000000000 -0.02997937450841469537 -0.00977953953556597033 -0.04205073585374971556  0.00061204335227264968  0.00005383708099409700 -0.00004753070558901373
1520530352.601472 0.00000000000000000000 0.00000000000000000000 0.00000000000000000000 0.00000000000000000000 0.00000000000000000000 0.00000000000000000000 -0.03022473990190101614 -0.00970276807900381268 -0.04201950198711683349 0.00060021406424880372 0.00006607541865223488 0.00001952180552703649
1520530352.701475 0.00000000000000000000 0.00000000000000000000 0.00000000000000000000 0.00000000000000000000 0.00000000000000000000 0.00000000000000000000 -0.03033821385435285511 -0.00978667730649971507 -0.04204092757136220632 0.00057342555357686026 0.00013928915768957943 0.00004836729357305305
