1520530315.599645 0.00000000000000000000 0.00000000000000000000 0.00000000000000000000 0.00000000000000000000 0.00000000000000000000 0.00000000000000000000 -0.23301186733022710706 -0.16284301803262674069 -0.01581434673694571275  0.00012903603577388691  0.00023461033677698917 -0.00046906643291553412 6.28258765390394469108 9.99709679237853521272 0.06882652589430336698 0.00002953964751521593 0.00002814310445255224 0.00002810820937983879
1520530315.749639 0.00000000000000000000 0.00000000000000000000 0.00000000000000000000 0.00000000000000000000 0.00000000000000000000 0.00000000000000000000 -0.42329930033802393163 -0.19373359731331257771 -0.00839440695313029006 -0.00072390941575932411  0.00024301629732741584 -0.00063738290625114848 4.44712783585550042176 5.90195174588105153646 0.04847473588467715588 0.00002780636551655668 0.00002735359815551403 0.00002763146811228945
1520530315.899643 0.00000000000000000000 0.00000000000000000000 0.00000000000000000000 0.00000000000000000000 0.00000000000000000000 0.00000000000000000000 -0.51753131092927984191 -0.20297103252982751087 -0.00478224437542499985 -0.00078931927454301714  0.00056297089373379963 -0.00068038192167249340 3.92264693622827032016 5.53615483583205314488 0.04828750127360328936 0.00002745098649552401 0.00002677404772564459 0.00002716035014627306
1520530316.100221 0.00000000000000000000 0.00000000000000000000 0.00000000000000000000 0.00000000000000000000 0.00000000000000000000 0.00000000000000000000 -0.41288629361906936666 -0.15259277122919095993 -0.01392167835935026465 -0.00068985653827344955  0.00022771275370125823 -0.00049225918172532770 3.52144123248082285826 5.19175079038238074247 0.04702103895066651190 0.00002694063621759997 0.00002601578435585175 0.00002634986544349275
1520530316.250226 0.00000000000000000000 0.00000000000000000000 0.00000000000000000000 0.00000000000000000000 0.00000000000000000000 0.00000000000000000000 -0.42796414488541367760 -0.09748216238547476042 -0.01630545851127793849 -0.00025213910668770865  0.00068760933798854877 -0.00068782973069075870 3.07446618479057542928 4.81820786226331954083 0.04352544915385053031 0.00002620638649053869 0.00002546173619463721 0.00002574211172606770
1520530316.400230 0.00000000000000000000 0.00000000000000000000 0.00000000000000000000 0.00000000000000000000 0.00000000000000000000 0.00000000000000000000 -0.40570355460729790043 -0.14270000098330509752 -0.01438778418331111177 -0.00028387541988776242  0.00064898558926930363 -0.00072631079222941367 2.82389976436653045155 4.50136108192320705257 0.04114051651313250374 0.00002583966570651522 0.00002509620161597982 0.00002534700598506053
1520530316.600278 0.00000000000000000000 0.00000000000000000000 0.00000000000000000000 0.00000000000000000000 0.00000000000000000000 0.00000000000000000000 -0.36951940236688329833 -0.13632937062050268229 -0.01649243439987334303 -0.00006975164332513811 -0.00001793026509614342 -0.00055002007266500045 2.52246020040134322215 4.08398891489860016435 0.03846965649512329444 0.00002552873278758809 0.00002471218895297099 0.00002498625862437960
1520530316.750283 0.00000000000000000000 0.00000000000000000000 0.00000000000000000000 0.00000000000000000000 0.00000000000000000000 0.00000000000000000000 -0.34187142158619626686 -0.00762158370514667838 -0.02485758466756506427 -0.00004803193334494121  0.00034227362392247280 -0.00069738225563600138 2.37494213022466427176 3.76861770278356589259 0.03696370341808521975 0.00002513807032752487 0.00002439215821541662 0.00002466260143737449
1520530316.949773 0.00000000000000000000 0.00000000000000000000 0.00000000000000000000 0.00000000000000000000 0.00000000000000000000 0.00000000000000000000 -0.33758923447474631363  0.00790625038770486135 -0.02582887229901389622  0.00005377319679461800  0.00048722596409918702 -0.00074988054479513291 2.23106603241707635021 3.40260753315906816496 0.03598943390942284382 0.00002481079502949006 0.00002407284980093640 0.00002428431901888456
1520530317.149779 0.00000000000000000000 0.00000000000000000000 0.00000000000000000000 0.00000000000000000000 0.00000000000000000000 0.00000000000000000000 -0.34070935860016049457  0.02046386808582075292 -0.02631593517937410448  0.00006130320253515829  0.00004456476474588187 -0.00068941257772749717 2.14755937205163105475 3.03501936829682694707 0.03536143086332879659 0.00002439895384184868 0.00002363428496295932 0.00002383744070839468
1520530317.299784 0.00000000000000000000 0.00000000000000000000 0.00000000000000000000 0.00000000000000000000 0.00000000000000000000 0.00000000000000000000 -0.35089838638262860204  0.00233570455359881097 -0.02500058024254149525 -0.00006436293048197927  0.00007866402759720351 -0.00057997421676631239 2.11849083803438986706 2.80156205500554111865 0.03524073572437806667 0.00002399026613400679 0.00002327067929242574 0.00002350701721308791
1520530317.449747 0.00000000000000000000 0.00000000000000000000 0.00000000000000000000 0.00000000000000000000 0.00000000000000000000 0.00000000000000000000 -0.35993139195246504070 -0.00789037767655522207 -0.02507147456582293349 -0.00000508606043828445 -0.00017516986987389571 -0.00040735398412514574 2.10298362464433052921 2.65996365704028159271 0.03532470848041479455 0.00002388481107913087 0.00002294731183239801 0.00002327499866818483
1520530317.649755 0.00000000000000000000 0.00000000000000000000 0.00000000000000000000 0.00000000000000000000 0.00000000000000000000 0.00000000000000000000 -0.36522650879850748762  0.02458440548851540189 -0.02762471153445734268  0.00009853490861750359  0.00016874834238295329 -0.00060053671976765394 2.09550172943073720333 2.53754216186395220589 0.03558036938464716192 0.00002394934398645865 0.00002264288140404723 0.00002303435467237944
1520530317.750237 0.00000000000000000000 0.00000000000000000000 0.00000000000000000000 0.00000000000000000000 0.00000000000000000000 0.00000000000000000000 -0.36494152949600344726  0.03174109461106223995 -0.02736836310721592336  0.00012218158866744274  0.00020685615907409894 -0.00073160515935244506 2.09631635089232304381 2.46135734401195538368 0.03572825745592017599 0.00002368867110102703 0.00002237626545741706 0.00002261396168811744
1520530317.900242 0.00000000000000000000 0.00000000000000000000 0.00000000000000000000 0.00000000000000000000 0.00000000000000000000 0.00000000000000000000 -0.35798039785190788331  0.02038703133991982136 -0.02619570540647331996  0.00021992982539149176  0.00027653675833641609 -0.00073366660000491999 2.08732520753858619145 2.40777806412784833867 0.03586503335876362747 0.00002313723380920062 0.00002206029609975931 0.00002220801537234669
1520530318.050246 0.00000000000000000000 0.00000000000000000000 0.00000000000000000000 0.00000000000000000000 0.00000000000000000000 0.00000000000000000000 -0.35795096703953843686  0.00117992679814397320 -0.02618579995108924127  0.00018187601605260874  0.00058585931514557445 -0.00091895520319352304 2.08508884161051266659 2.36561732409434632984 0.03599516574382728012 0.00002324777928319125 0.00002193225646665459 0.00002212303164739727
1520530318.150816 0.00000000000000000000 0.00000000000000000000 0.00000000000000000000 0.00000000000000000000 0.00000000000000000000 0.00000000000000000000 -0.34657166896805574607  0.01189163711445566547 -0.02910560855965018540  0.00025208134702996333  0.00064625664363344396 -0.00102291231947008294 2.08003218144190427097 2.33598028800006884964 0.03605013325618849906 0.00002324937432926442 0.00002181743342918184 0.00002206097386432645
1520530318.300772 0.00000000000000000000 0.00000000000000000000 0.00000000000000000000 0.00000000000000000000 0.00000000000000000000 0.00000000000000000000 -0.33246908435149941097  0.00596358844304765556 -0.02898571646291794174  0.00046723118002065677  0.00045094777345342917 -0.00093359173815930722 2.04228175473666073714 2.30195996973643124406 0.03597801454809201882 0.00002308571883162708 0.00002159723675441534 0.00002187896311093013
1520530318.450777 0.00000000000000000000 0.00000000000000000000 0.00000000000000000000 0.00000000000000000000 0.00000000000000000000 0.00000000000000000000 -0.32147725976189145403  0.01325527760136597719 -0.02953565004075252298  0.00052663876562957933  0.00006860459764523706 -0.00075076513649895778 1.96809501184044521871 2.26458291471890538205 0.03573697796470262644 0.00002312265686525521 0.00002147735865785671 0.00002183247964971801
1520530318.600567 0.00000000000000000000 0.00000000000000000000 0.00000000000000000000 0.00000000000000000000 0.00000000000000000000 0.00000000000000000000 -0.30796874824862802145  0.01286638885312315142 -0.02984530082566331372  0.00063923328695423003 -0.00008257344433375613 -0.00063962425958132561 1.84570664574114551293 2.23376408642960777584 0.03532184861754700950 0.00002273385147416731 0.00002125083425050046 0.00002156493206527607
1520530318.800573 0.00000000000000000000 0.00000000000000000000 0.00000000000000000000 0.00000000000000000000 0.00000000000000000000 0.00000000000000000000 -0.27254164864345692409  0.01169416494183502311 -0.03159402448642693179  0.00070734499773882152 -0.00026750752544265911 -0.00047194333058527390 1.63545886674878948597 2.18661407955982101115 0.03454714531613149037 0.00002233605581500557 0.00002097159288244583 0.00002128907516899624
1520530318.950577 0.00000000000000000000 0.00000000000000000000 0.00000000000000000000 0.00000000000000000000 0.00000000000000000000 0.00000000000000000000 -0.24678689816089002806  0.02157330172201517293 -0.03371098312149331533  0.00079772636343170391 -0.00062858455684737188 -0.00019309091014141507 1.46960322386616915047 2.13034784650577391218 0.03400168014791356275 0.00002214842643549840 0.00002078749883276684 0.00002113168080086593
1520530318.999955 0.00000000000000000000 0.00000000000000000000 0.00000000000000000000 0.00000000000000000000 0.00000000000000000000 0.00000000000000000000 -0.25068983894320995276  0.01871883697338846617 -0.03260238830851476532  0.00086822570841398972 -0.00058880502908508674 -0.00015727331517991329 1.41316522206378203386 2.09929183673622299366 0.03400741766844514458 0.00002171430230780467 0.00002072017422624658 0.00002104731435247866
1520530319.149961 0.00000000000000000000 0.00000000000000000000 0.00000000000000000000 0.00000000000000000000 0.00000000000000000000 0.00000000000000000000 -0.23404187597538098076  0.01863635599809826404 -0.03319992052619871042  0.00079197713403904421 -0.00059102613445125355 -0.00015177406453005139 1.27534350527318807167 1.99323461511936894652 0.03361304933083832103 0.00002167683609675208 0.00002053412275222889 0.00002088255447175067
1520530319.299965 0.00000000000000000000 0.00000000000000000000 0.00000000000000000000 0.00000000000000000000 0.00000000000000000000 0.00000000000000000000 -0.21270873089322253624  0.03156742384534147461 -0.03327125330333601666  0.00064569610041460401 -0.00052848722968574537 -0.00023841282030714940 1.17158009559788189868 1.87176034767311638696 0.02651760633140977722 0.00002142256614689657 0.00002026366615332296 0.00002059866043780626
1520530319.399832 0.00000000000000000000 0.00000000000000000000 0.00000000000000000000 0.00000000000000000000 0.00000000000000000000 0.00000000000000000000 -0.18008771236545728645  0.01527968593069611164 -0.03460763594931681730  0.00055561395091832688 -0.00047198933012204111 -0.00025083993410769456 1.11669919672501394281 1.81739062949576335448 0.02638115107784495122 0.00002132130013282586 0.00002012058414396050 0.00002041940627701552
1520530319.549837 0.00000000000000000000 0.00000000000000000000 0.00000000000000000000 0.00000000000000000000 0.00000000000000000000 0.00000000000000000000 -0.16846786165611343788  0.01697374257011125681 -0.03551739541569928077  0.00061217331391216951 -0.00072356289834324384 -0.00015923755358119641 1.05249234212636277874 1.73010493540590792882 0.02619193353595054494 0.00002130753091338439 0.00002003312592777615 0.00002033050452029481
1520530319.699841 0.00000000000000000000 0.00000000000000000000 0.00000000000000000000 0.00000000000000000000 0.00000000000000000000 0.00000000000000000000 -0.14507279117097474086  0.00588347713929829493 -0.03692192337866551100  0.00062425148534487500 -0.00084553885715128393 -0.00010909662551408103 1.00812904291883742580 1.68528525652652994005 0.02609290669467565979 0.00002135344277110005 0.00001996146345831837 0.00002031177669394105
1520530319.800341 0.00000000000000000000 0.00000000000000000000 0.00000000000000000000 0.00000000000000000000 0.00000000000000000000 0.00000000000000000000 -0.14587357786904447954  0.01004736977370442562 -0.03767868162226246237  0.00065081905030113919 -0.00098871125825416933  0.00010200481173252314 0.98698595860272197999 1.66640480379393407517 0.02603668885742559114 0.00002103271585574580 0.00001972872525196800 0.00001998963504588092
1520530319.900344 0.00000000000000000000 0.00000000000000000000 0.00000000000000000000 0.00000000000000000000 0.00000000000000000000 0.00000000000000000000 -0.13524194033518840974  0.00595581318376588696 -0.03892638074689225292  0.00069667544434561315 -0.00069671404882036363  0.00010820981834338047 0.97190161947575215429 1.66226682856586327475 0.02587546040580947573 0.00002069299663973722 0.00001957794678174164 0.00001973649123396844
1520530320.000347 0.00000000000000000000 0.00000000000000000000 0.00000000000000000000 0.00000000000000000000 0.00000000000000000000 0.00000000000000000000 -0.13124669043453424111 -0.01013747712590799127 -0.03770643687049115428  0.00074486249572462248 -0.00036946083787988771 -0.00006447654766032418 0.96419872095305214632 1.65736952537147552711 0.02559634730402268743 0.00002064139728175164 0.00001953920724325387 0.00001963984478829923
1520530320.100350 0.00000000000000000000 0.00000000000000000000 0.00000000000000000000 0.00000000000000000000 0.00000000000000000000 0.00000000000000000000 -0.12132491331069142348  0.02481495809565199481 -0.03967666193616872783  0.00049920189508471707 -0.00014227871680014991 -0.00004931615719695925 0.95973864991579815875 1.65339644673907404382 0.02527802969094487470 0.00002057727231909952 0.00001943560305981321 0.00001956189813116898
1520530320.200401 0.00000000000000000000 0.00000000000000000000 0.00000000000000000000 0.00000000000000000000 0.00000000000000000000 0.00000000000000000000 -0.12345110945973328254  0.06600790415190911642 -0.04426220721725352553  0.00043437938947852141 -0.00016001955439869493 -0.00003406615641529352 0.95431439722327726649 1.63911708194525629345 0.02480848640267451985 0.00002035517704325565 0.00001931363939891857 0.00001951706673469589
1520530320.300404 0.00000000000000000000 0.00000000000000000000 0.00000000000000000000 0.00000000000000000000 0.00000000000000000000 0.00000000000000000000 -0.12664701573506792487  0.02177077884807602365 -0.03908537694079341346  0.00052145560746456605  0.00002697084928824201 -0.00015834767762406090 0.93950741891311850829 1.62919722580858539196 0.02453280248576197517 0.00001958382864451610 0.00001914976714847159 0.00001929031764175792
1520530320.450408 0.00000000000000000000 0.00000000000000000000 0.00000000000000000000 0.00000000000000000000 0.00000000000000000000 0.00000000000000000000 -0.12709526166476847742  0.01096832703997657060 -0.03880492562197826456  0.00049311537920655073  0.00014519724843301801 -0.00024869565918356147 0.91913457695054689989 1.59966782857587519473 0.02404426655994431478 0.00001925014125277411 0.00001901673460502050 0.00001905295264088620
1520530320.550412 0.00000000000000000000 0.00000000000000000000 0.00000000000000000000 0.00000000000000000000 0.00000000000000000000 0.00000000000000000000 -0.12249125691325646326  0.00408536841094808006 -0.03817651733464046127  0.00040839950603149117  0.00050711574299271199 -0.00037053636759712389 0.90118354804442735162 1.55912390525881194847 0.02368096770099735113 0.00001918358700179678 0.00001894082355305317 0.00001896408466555795
1520530320.649871 0.00000000000000000000 0.00000000000000000000 0.00000000000000000000 0.00000000000000000000 0.00000000000000000000 0.00000000000000000000 -0.12157843402719281656  0.00592103170079081795 -0.03898425547278133035  0.00040353494782433859  0.00033592911063239891 -0.00042767344348464863 0.88095332543500948219 1.49736667450733440532 0.02321364764563903574 0.00001912841275984607 0.00001885827168199498 0.00001888292273901356
1520530320.799876 0.00000000000000000000 0.00000000000000000000 0.00000000000000000000 0.00000000000000000000 0.00000000000000000000 0.00000000000000000000 -0.11431161178807526524 -0.01236998539771053986 -0.03686602665020922986  0.00036017529172606850  0.00023453498334514243 -0.00048741838011169108 0.84073766402393823594 1.37978224312763386727 0.02255185718421422528 0.00001900787146397427 0.00001872192015300015 0.00001876665212440376
1520530320.949880 0.00000000000000000000 0.00000000000000000000 0.00000000000000000000 0.00000000000000000000 0.00000000000000000000 0.00000000000000000000 -0.11280657380295110170 -0.01705002168965397136 -0.03724497159460053025  0.00033313154465740372  0.00039254515290159211 -0.00049008602132943641 0.79446935262205164996 1.26708412864074881909 0.02188545823743134194 0.00001877769247914206 0.00001857215940524643 0.00001857202802712325
1520530321.049740 0.00000000000000000000 0.00000000000000000000 0.00000000000000000000 0.00000000000000000000 0.00000000000000000000 0.00000000000000000000 -0.11560587785919919368 -0.01237521461377863626 -0.03828372731551445141  0.00036219929217348409  0.00055722629644897016 -0.00053871486298620532 0.76394906872061574266 1.21050264540264684854 0.02152973621354936640 0.00001869724742307415 0.00001849769720093537 0.00001850478442664484
1520530321.199745 0.00000000000000000000 0.00000000000000000000 0.00000000000000000000 0.00000000000000000000 0.00000000000000000000 0.00000000000000000000 -0.11041793419406210897 -0.01756638124564303613 -0.03810726062597156322  0.00041271203158482869  0.00041716894752109066 -0.00050699836104376090 0.72055984152199825665 1.14194504412879016542 0.02109242574641942425 0.00001865490141093765 0.00001838296972239184 0.00001843437883034027
1520530321.349750 0.00000000000000000000 0.00000000000000000000 0.00000000000000000000 0.00000000000000000000 0.00000000000000000000 0.00000000000000000000 -0.10413267605334451671 -0.01766285498180605526 -0.03804348931709959636  0.00039669949700142133  0.00034298657571064971 -0.00042182200677433031 0.68181100389144300156 1.07707180452057005304 0.02063152827303913958 0.00001854752026797520 0.00001830685351044489 0.00001826779756004402
1520530321.499857 0.00000000000000000000 0.00000000000000000000 0.00000000000000000000 0.00000000000000000000 0.00000000000000000000 0.00000000000000000000 -0.10178589747993706249 -0.02509206825320588544 -0.03680476826123518092  0.00036018841353375303  0.00031193519089185213 -0.00044226816558677108 0.64718385173407622091 1.01915092836038767565 0.02016113168894788019 0.00001856287203484242 0.00001823278369732582 0.00001824856888525513
1520530321.599860 0.00000000000000000000 0.00000000000000000000 0.00000000000000000000 0.00000000000000000000 0.00000000000000000000 0.00000000000000000000 -0.10207737081264339762 -0.02379098270364651824 -0.03639104576850844819  0.00037695792995914076  0.00022269597116794510 -0.00045904889464277950 0.62682590755198142052 0.98336781148955021425 0.01984149984288212376 0.00001863952692607833 0.00001823042422165037 0.00001826532559621048
1520530321.749865 0.00000000000000000000 0.00000000000000000000 0.00000000000000000000 0.00000000000000000000 0.00000000000000000000 0.00000000000000000000 -0.10136305230786335496 -0.02446479181165894801 -0.03614928897301736971  0.00032985301672870118  0.00021372413168564653 -0.00045114708509138787 0.59881715749519548453 0.93120208595098419302 0.01927133046577947026 0.00001872651017094278 0.00001818194933030739 0.00001823599745818756
1520530321.850152 0.00000000000000000000 0.00000000000000000000 0.00000000000000000000 0.00000000000000000000 0.00000000000000000000 0.00000000000000000000 -0.09668897776539218947 -0.02467755585972513516 -0.03775405815453997116  0.00048203586469950250  0.00008812077264456197 -0.00041593031838524114 0.58046578731802978002 0.89796192262267260364 0.01880612572827451007 0.00001852925212702011 0.00001798907464692844 0.00001809136733711337
1520530321.950155 0.00000000000000000000 0.00000000000000000000 0.00000000000000000000 0.00000000000000000000 0.00000000000000000000 0.00000000000000000000 -0.09381506557443544669 -0.01614471375823376201 -0.04003086064305982905  0.00057407416893870758  0.00014707161891733427 -0.00045166421170993740 0.56253783941033030924 0.86554050160513607004 0.01834470616568939505 0.00001850642656913414 0.00001790513243066221 0.00001804355567628983
1520530322.100160 0.00000000000000000000 0.00000000000000000000 0.00000000000000000000 0.00000000000000000000 0.00000000000000000000 0.00000000000000000000 -0.09494238928185454174 -0.00426903569177072319 -0.04088659139782142848  0.00062559611165952415  0.00026211242254435606 -0.00045166451939109481 0.53796099933813523730 0.82543618811637375909 0.01782787021722262097 0.00001851133257388388 0.00001782217790379216 0.00001802313192924493
1520530322.300208 0.00000000000000000000 0.00000000000000000000 0.00000000000000000000 0.00000000000000000000 0.00000000000000000000 0.00000000000000000000 -0.09071793811452531775  0.00979762522280850506 -0.04072914334034968831  0.00038112506434415626  0.00063293386765607862 -0.00052095954459320569 0.50784028032474726189 0.78808505428282571437 0.01746841758043380516 0.00001828653442655471 0.00001767830920911670 0.00001786867261866361
1520530322.550216 0.00000000000000000000 0.00000000000000000000 0.00000000000000000000 0.00000000000000000000 0.00000000000000000000 0.00000000000000000000 -0.08578233437035588660  0.00373866363083000816 -0.04064697360748951299  0.00043832061564474863  0.00048416138329922714 -0.00046517138320422081 0.47653284088647535066 0.75603934629018154645 0.01735230082890067485 0.00001807162612110978 0.00001750978167645971 0.00001769105934013779
1520530322.700026 0.00000000000000000000 0.00000000000000000000 0.00000000000000000000 0.00000000000000000000 0.00000000000000000000 0.00000000000000000000 -0.08131916809355607678  0.01374837934294453196 -0.04120088519926489584  0.00020944445760428813  0.00033060908844462098 -0.00045062624414422998 0.46147078602386104595 0.73544869331333329043 0.01737186213137693544 0.00001788560867740455 0.00001742493966039138 0.00001758297293782573
1520530322.900065 0.00000000000000000000 0.00000000000000000000 0.00000000000000000000 0.00000000000000000000 0.00000000000000000000 0.00000000000000000000 -0.08732824626076531038  0.02388221489563744845 -0.04209876727161179083  0.00000925062837151170  0.00039758376721455579 -0.00058203661014307254 0.44594648311339196711 0.71778033523292739115 0.01744420429698110772 0.00001777282012973150 0.00001736001767561977 0.00001755737117815722
1520530323.050036 0.00000000000000000000 0.00000000000000000000 0.00000000000000000000 0.00000000000000000000 0.00000000000000000000 0.00000000000000000000 -0.08589462251361171252  0.02737268910814551551 -0.04160766367257713594 -0.00005135982611529451  0.00031268918146733926 -0.00062807700748590577 0.43773637637453755023 0.70770936044767118744 0.01750800593339800482 0.00001777511283254732 0.00001733927404267293 0.00001753160173968429
1520530323.200077 0.00000000000000000000 0.00000000000000000000 0.00000000000000000000 0.00000000000000000000 0.00000000000000000000 0.00000000000000000000 -0.08793215398002147964  0.02562355797100092716 -0.04058793669297899170 -0.00000291459840204880  0.00023401730809592555 -0.00053725554859094713 0.43165612353289201097 0.69908758342309773592 0.01755033200687719508 0.00001772069111746367 0.00001729147316929097 0.00001747046529044539
1520530323.350082 0.00000000000000000000 0.00000000000000000000 0.00000000000000000000 0.00000000000000000000 0.00000000000000000000 0.00000000000000000000 -0.09265518229475329381  0.02598555890741296656 -0.04247614581687822466  0.00014100344245141766  0.00041073099138066061 -0.00049045272170782734 0.42709148674702102078 0.68929896077102781327 0.01739487848288645208 0.00001767413971674325 0.00001718390129817578 0.00001740613807712699
1520530323.450085 0.00000000000000000000 0.00000000000000000000 0.00000000000000000000 0.00000000000000000000 0.00000000000000000000 0.00000000000000000000 -0.09004290784284525728  0.03326652625683215736 -0.04601262158560131404  0.00040016784419722817  0.00041188673346199636 -0.00046486459537270367 0.42439487548137261319 0.67806797447433531101 0.01717787638877243950 0.00001761595907153704 0.00001715468124694908 0.00001734137095782981
1520530323.550346 0.00000000000000000000 0.00000000000000000000 0.00000000000000000000 0.00000000000000000000 0.00000000000000000000 0.00000000000000000000 -0.08765560408998827879  0.04050890917819716802 -0.04600480707382337275  0.00062658298514405811  0.00040097418556366427 -0.00043045418964703422 0.42216267548938224419 0.66825500299454609898 0.01701771948464610856 0.00001745765937069315 0.00001704000825453677 0.00001712825900157560
1520530323.700351 0.00000000000000000000 0.00000000000000000000 0.00000000000000000000 0.00000000000000000000 0.00000000000000000000 0.00000000000000000000 -0.08890752595446843598  0.04637547574002975209 -0.04481394494733688394  0.00065550227728624667  0.00031417509870204315 -0.00044660108250301129 0.42032058386246295978 0.65887456798718779805 0.01687348124216128328 0.00001727263325884307 0.00001690275584776347 0.00001697498011336987
1520530323.850356 0.00000000000000000000 0.00000000000000000000 0.00000000000000000000 0.00000000000000000000 0.00000000000000000000 0.00000000000000000000 -0.08715531208729448975  0.04478587415898399593 -0.04438995462853725232  0.00062236479291774614  0.00024595838446190302 -0.00039049625409375081 0.41982142767062752275 0.65453469176346190661 0.01679790054868201057 0.00001720580797880027 0.00001681633320358441 0.00001686723163569475
1520530323.950154 0.00000000000000000000 0.00000000000000000000 0.00000000000000000000 0.00000000000000000000 0.00000000000000000000 0.00000000000000000000 -0.08680810786644779786  0.04281699994220772992 -0.04388826927075684808  0.00061283485405733335  0.00023899697995669514 -0.00039563209683747997 0.41960432934191532750 0.65237181422934831243 0.01678842009436220042 0.00001717063864255610 0.00001677011997693492 0.00001683392040633810
1520530324.100159 0.00000000000000000000 0.00000000000000000000 0.00000000000000000000 0.00000000000000000000 0.00000000000000000000 0.00000000000000000000 -0.08760118147883903805  0.03949363217916090907 -0.04374151179994459349  0.00053890450608071899  0.00013169571817629874 -0.00049064316612976622 0.41896644573913727205 0.64856345985963426148 0.01680836073485149004 0.00001706142677465437 0.00001670563458067481 0.00001677117682172374
1520530324.250163 0.00000000000000000000 0.00000000000000000000 0.00000000000000000000 0.00000000000000000000 0.00000000000000000000 0.00000000000000000000 -0.08677441134974080150  0.03253802229569691812 -0.04376013067604092588  0.00053204129316197031  0.00025040666909791233 -0.00060441760530186787 0.41870907876240920364 0.64487798476690216809 0.01686720164812071862 0.00001697377530547265 0.00001664976644456665 0.00001674141092673067
1520530324.299908 0.00000000000000000000 0.00000000000000000000 0.00000000000000000000 0.00000000000000000000 0.00000000000000000000 0.00000000000000000000 -0.08385165015717148396  0.03738130993105164002 -0.04334022495643637118  0.00061293404606059965  0.00024942411758965670 -0.00063613672642938760 0.41816529030497323616 0.64242576651328897608 0.01690464218297169086 0.00001689340729105042 0.00001661665685310145 0.00001668943354368715
1520530324.399911 0.00000000000000000000 0.00000000000000000000 0.00000000000000000000 0.00000000000000000000 0.00000000000000000000 0.00000000000000000000 -0.08573279954973891948  0.04546615849573201057 -0.04251236431286137263  0.00066133429665159605  0.00022042666300439059 -0.00065765057844884088 0.41836717153036856454 0.63792525806672573108 0.01698957804111660835 0.00001693498336553641 0.00001662185217153701 0.00001669821002929997
1520530324.499994 0.00000000000000000000 0.00000000000000000000 0.00000000000000000000 0.00000000000000000000 0.00000000000000000000 0.00000000000000000000 -0.08820551848637091241  0.04164889269300951768 -0.04294710304813276897  0.00064479290462130922  0.00012361119283434474 -0.00061877798694865251 0.41824057644465922889 0.63470526865547638451 0.01705485732793977222 0.00001692420580959062 0.00001657864009730266 0.00001665599626332318
1520530324.649919 0.00000000000000000000 0.00000000000000000000 0.00000000000000000000 0.00000000000000000000 0.00000000000000000000 0.00000000000000000000 -0.08913453793055892138  0.03536334038040104405 -0.04402502322003681162  0.00058390563602760050  0.00017162874479127887 -0.00061184541998046975 0.41770161793410021112 0.63182924683605135030 0.01712870301401322320 0.00001692313600461450 0.00001651356845130284 0.00001660586180354961
1520530324.800021 0.00000000000000000000 0.00000000000000000000 0.00000000000000000000 0.00000000000000000000 0.00000000000000000000 0.00000000000000000000 -0.09046841607431264920  0.03154482556458675091 -0.04454636176859358421  0.00063824439267900308  0.00037094757611166315 -0.00065392159894855353 0.41684099365068671972 0.62954339483625110230 0.01717816246670642727 0.00001697780324484693 0.00001648855565946270 0.00001663182333741538
1520530324.950026 0.00000000000000000000 0.00000000000000000000 0.00000000000000000000 0.00000000000000000000 0.00000000000000000000 0.00000000000000000000 -0.08842164698113924581  0.03440436218979073951 -0.04478026000550344721  0.00068726422610651430  0.00042378764597038885 -0.00063921140216322318 0.41523058376692673077 0.62709178874392801362 0.01716443886842344488 0.00001696550483475139 0.00001645629661665336 0.00001662413629142110
1520530325.100816 0.00000000000000000000 0.00000000000000000000 0.00000000000000000000 0.00000000000000000000 0.00000000000000000000 0.00000000000000000000 -0.08987051788219944937  0.03373673159532184634 -0.04474249214476553466  0.00075718484305659604  0.00023238891619041578 -0.00054836937446915137 0.41250518716409628750 0.62395822724617511223 0.01710601817101722530 0.00001680847753602406 0.00001634577229532990 0.00001649431731706959
1520530325.300822 0.00000000000000000000 0.00000000000000000000 0.00000000000000000000 0.00000000000000000000 0.00000000000000000000 0.00000000000000000000 -0.09436218676854367382  0.02895196737536928633 -0.04319998818403102125  0.00073201753959586057 -0.00024146066715694062 -0.00026969219391545621 0.40808770458788534707 0.61749186188301541378 0.01697600733696773626 0.00001684080123530635 0.00001635601197510554 0.00001642605639169066
1520530325.400825 0.00000000000000000000 0.00000000000000000000 0.00000000000000000000 0.00000000000000000000 0.00000000000000000000 0.00000000000000000000 -0.09279910585426331959  0.03331883050142294550 -0.04463038764484961174  0.00070444711917649764 -0.00020256436349414623 -0.00031479607130279223 0.40594196357391937324 0.61191220401212143010 0.01677950763302868062 0.00001685531503274856 0.00001627739359066809 0.00001643318270120983
1520530325.600915 0.00000000000000000000 0.00000000000000000000 0.00000000000000000000 0.00000000000000000000 0.00000000000000000000 0.00000000000000000000 -0.09232117901426149797  0.03605623598878088948 -0.04529126768925149926  0.00063762553342683163  0.00007015568112210499 -0.00032717088245310283 0.40131543226715371553 0.59869366088110742563 0.01635891148592807584 0.00001682430725084035 0.00001619548270989193 0.00001641828305102609
1520530325.800921 0.00000000000000000000 0.00000000000000000000 0.00000000000000000000 0.00000000000000000000 0.00000000000000000000 0.00000000000000000000 -0.09171164608723536560  0.03640800641565657830 -0.04600769265844035366  0.00064116011867780662 -0.00000388859819044137 -0.00034664752990843723 0.39724448317292221367 0.59013292292321550825 0.01606832724313857208 0.00001674430655996403 0.00001611381235853647 0.00001634034716598162
1520530325.950541 0.00000000000000000000 0.00000000000000000000 0.00000000000000000000 0.00000000000000000000 0.00000000000000000000 0.00000000000000000000 -0.09341338001393566237  0.03489329963203485763 -0.04493780462534092968  0.00056617254795230992  0.00016165773221536226 -0.00046254632761399045 0.39481671641807430939 0.58795363564186087224 0.01602933744932262539 0.00001685271009069124 0.00001608935672476955 0.00001633189950437437
1520530326.100546 0.00000000000000000000 0.00000000000000000000 0.00000000000000000000 0.00000000000000000000 0.00000000000000000000 0.00000000000000000000 -0.09440576809753313536  0.03767624774726197751 -0.04441402692715465395  0.00047205101264303503  0.00012290774898215368 -0.00044887617705690729 0.39188668583289437697 0.58559341069241754862 0.01604279130614626875 0.00001682437136449336 0.00001603128510789361