1520530315.749639 0.00000000000000000000 0.00000000000000000000 0.00000000000000000000 0.00000000000000000000 0.00000000000000000000 0.00000000000000000000 -0.21617204480184928905 -0.16751539809554438776 -0.01591966787686509635  0.00017093631976411238  0.00024790602614953121 -0.00044687166626610273
1520530315.899643 0.00000000000000000000 0.00000000000000000000 0.00000000000000000000 0.00000000000000000000 0.00000000000000000000 0.00000000000000000000 -0.55595983686728311923 -0.21216761929464331149 -0.00255767437197858185 -0.00076085579084544865  0.00023259231563591207 -0.00068987993554085476
1520530316.100221 0.00000000000000000000 0.00000000000000000000 0.00000000000000000000 0.00000000000000000000 0.00000000000000000000 0.00000000000000000000 -0.55627818943238582783 -0.20523994749056123643 -0.00367680372192052659 -0.00079585813647029219  0.00054779411871547917 -0.00067721720642177131
1520530316.250226 0.00000000000000000000 0.00000000000000000000 0.00000000000000000000 0.00000000000000000000 0.00000000000000000000 0.00000000000000000000 -0.41520569470288792857 -0.12914597116233428320 -0.01623293114475183457 -0.00068905142970841955  0.00023642389159639842 -0.00050033467333838620
1520530316.400230 0.00000000000000000000 0.00000000000000000000 0.00000000000000000000 0.00000000000000000000 0.00000000000000000000 0.00000000000000000000 -0.43552521827304968571 -0.10993400283839899201 -0.01492047406814876569 -0.00024870861797293627  0.00068211927212604882 -0.00068956724741085350
1520530316.600278 0.00000000000000000000 0.00000000000000000000 0.00000000000000000000 0.00000000000000000000 0.00000000000000000000 0.00000000000000000000 -0.39987430177361427130 -0.15431360005962510562 -0.01407422503480571137 -0.00028014228159362953  0.00060867875974971613 -0.00072580809781635429
1520530316.750283 0.00000000000000000000 0.00000000000000000000 0.00000000000000000000 0.00000000000000000000 0.00000000000000000000 0.00000000000000000000 -0.36648007498209861366 -0.04272997668556910433 -0.02180105406778313007 -0.00006981020496989438 -0.00000042969281437365 -0.00055809613304476380
1520530316.949773 0.00000000000000000000 0.00000000000000000000 0.00000000000000000000 0.00000000000000000000 0.00000000000000000000 0.00000000000000000000 -0.34199917775803956310  0.02033842043227068741 -0.02674852114587923310 -0.00004723077791756213  0.00033694244244355772 -0.00069995467877020641
1520530317.149779 0.00000000000000000000 0.00000000000000000000 0.00000000000000000000 0.00000000000000000000 0.00000000000000000000 0.00000000000000000000 -0.34045028821469947022  0.00622830439688089755 -0.02541582686785029063  0.00005713863417917794  0.00046612115885018182 -0.00074656227907798933
1520530317.299784 0.00000000000000000000 0.00000000000000000000 0.00000000000000000000 0.00000000000000000000 0.00000000000000000000 0.00000000000000000000 -0.34179967681325290618  0.03302767963999199419 -0.02728024301876103702  0.00003565795218024444  0.00004741736888429862 -0.00066939341060823167
1520530317.449747 0.00000000000000000000 0.00000000000000000000 0.00000000000000000000 0.00000000000000000000 0.00000000000000000000 0.00000000000000000000 -0.34822155614269789670 -0.01326532314387153175 -0.02447260846355023625 -0.00007120262198099474  0.00007275487938824281 -0.00058562360074129283
1520530317.649755 0.00000000000000000000 0.00000000000000000000 0.00000000000000000000 0.00000000000000000000 0.00000000000000000000 0.00000000000000000000 -0.37504657427954052329 -0.00129645656822827918 -0.02662012760677545317 -0.00000041338361030757 -0.00015781084499935565 -0.00041951176370359062
1520530317.750237 0.00000000000000000000 0.00000000000000000000 0.00000000000000000000 0.00000000000000000000 0.00000000000000000000 0.00000000000000000000 -0.37482817410672458758  0.01746632213665308409 -0.02613821166511529070  0.00009808763011630398  0.00016594765933083052 -0.00060030447320603552
1520530317.900242 0.00000000000000000000 0.00000000000000000000 0.00000000000000000000 0.00000000000000000000 0.00000000000000000000 0.00000000000000000000 -0.36401641716453170261  0.02793155698241815005 -0.02655192776671770616  0.00012249835563372602  0.00020695274686473804 -0.00072855297840564051
1520530318.050246 0.00000000000000000000 0.00000000000000000000 0.00000000000000000000 0.00000000000000000000 0.00000000000000000000 0.00000000000000000000 -0.35429073182639364559  0.01552083449272680278 -0.02724708603907884455  0.00022085322905947928  0.00029183186963386909 -0.00074658997115307710
1520530318.150816 0.00000000000000000000 0.00000000000000000000 0.00000000000000000000 0.00000000000000000000 0.00000000000000000000 0.00000000000000000000 -0.35144836892608671830 -0.00918133576769877488 -0.02698836065885676719  0.00018463332902393071  0.00058394727088553603 -0.00092289041688596097
1520530318.300772 0.00000000000000000000 0.00000000000000000000 0.00000000000000000000 0.00000000000000000000 0.00000000000000000000 0.00000000000000000000 -0.33817894808871712398  0.01073664127750304474 -0.02928009817194315162  0.00025193691986051916  0.00063116197175776961 -0.00102025355657563545
1520530318.450777 0.00000000000000000000 0.00000000000000000000 0.00000000000000000000 0.00000000000000000000 0.00000000000000000000 0.00000000000000000000 -0.32537255712046225797  0.01892082286181888395 -0.02983324033543557560  0.00047066041341521929  0.00042618823293744796 -0.00092593402364662221
1520530318.600567 0.00000000000000000000 0.00000000000000000000 0.00000000000000000000 0.00000000000000000000 0.00000000000000000000 0.00000000000000000000 -0.31181020940432624400  0.01746225997867651217 -0.02996158859350978726  0.00052812049982837138  0.00007231308231336157 -0.00075345180340144220
1520530318.800573 0.00000000000000000000 0.00000000000000000000 0.00000000000000000000 0.00000000000000000000 0.00000000000000000000 0.00000000000000000000 -0.27999390974644267072  0.00789720959088163581 -0.03090775022541591976  0.00064730847209298740 -0.00009324133367782936 -0.00062919915402623176
1520530318.950577 0.00000000000000000000 0.00000000000000000000 0.00000000000000000000 0.00000000000000000000 0.00000000000000000000 0.00000000000000000000 -0.25802746617225358339  0.03006349865583092876 -0.03423162483545863499  0.00072706581470689921 -0.00027889263820663000 -0.00045770247423702307
1520530318.999955 0.00000000000000000000 0.00000000000000000000 0.00000000000000000000 0.00000000000000000000 0.00000000000000000000 0.00000000000000000000 -0.24931778780933958051  0.02136225315843309422 -0.03335890599307867604  0.00080681797897448604 -0.00062644434093077806 -0.00018960846363741185
1520530319.149961 0.00000000000000000000 0.00000000000000000000 0.00000000000000000000 0.00000000000000000000 0.00000000000000000000 0.00000000000000000000 -0.24811668930872859962  0.00918277831955790873 -0.03172773517659859682  0.00087510298063093789 -0.00058812089219301058 -0.00015948108859711299
1520530319.299965 0.00000000000000000000 0.00000000000000000000 0.00000000000000000000 0.00000000000000000000 0.00000000000000000000 0.00000000000000000000 -0.23073260176083554285  0.01652045026923743345 -0.03303807226015510051  0.00078752033325360472 -0.00058905395326949966 -0.00015475458328746301
1520530319.399832 0.00000000000000000000 0.00000000000000000000 0.00000000000000000000 0.00000000000000000000 0.00000000000000000000 0.00000000000000000000 -0.20926323266131191536  0.02378032540411323739 -0.03333672724887494498  0.00064828531593825870 -0.00052942815563477750 -0.00023953668775214226
1520530319.549837 0.00000000000000000000 0.00000000000000000000 0.00000000000000000000 0.00000000000000000000 0.00000000000000000000 0.00000000000000000000 -0.17718241978703352935  0.01774522831581391152 -0.03497786266238973180  0.00056755798822874580 -0.00047117099038128661 -0.00025961409178812660
1520530319.699841 0.00000000000000000000 0.00000000000000000000 0.00000000000000000000 0.00000000000000000000 0.00000000000000000000 0.00000000000000000000 -0.16629703154534297704  0.00508834988683691189 -0.03536446174842473172  0.00062020213509764123 -0.00072030469194988894 -0.00016518064646629769
1520530319.800341 0.00000000000000000000 0.00000000000000000000 0.00000000000000000000 0.00000000000000000000 0.00000000000000000000 0.00000000000000000000 -0.14474306410043896731  0.02017712227963303767 -0.03859823760000222898  0.00062570178464183240 -0.00084265569784167679 -0.00010169671480345384
1520530319.900344 0.00000000000000000000 0.00000000000000000000 0.00000000000000000000 0.00000000000000000000 0.00000000000000000000 0.00000000000000000000 -0.14690058637530270524  0.01542907725740364291 -0.03900528202084416890  0.00065473833481374431 -0.00098105816594812323  0.00010251356141368701
1520530320.000347 0.00000000000000000000 0.00000000000000000000 0.00000000000000000000 0.00000000000000000000 0.00000000000000000000 0.00000000000000000000 -0.13827996600638700619  0.00357965014778212484 -0.03865918099713406414  0.00069842425281628484 -0.00069222093041178777  0.00010923950423129054
1520530320.100350 0.00000000000000000000 0.00000000000000000000 0.00000000000000000000 0.00000000000000000000 0.00000000000000000000 0.00000000000000000000 -0.13328240187523096583  0.00493041661926068610 -0.03765807413938691839  0.00073996271694114733 -0.00036673899516958825 -0.00005965661696957103
1520530320.200401 0.00000000000000000000 0.00000000000000000000 0.00000000000000000000 0.00000000000000000000 0.00000000000000000000 0.00000000000000000000 -0.12208285428001758310  0.02390120467431099821 -0.04017439188719804793  0.00050175850224617807 -0.00014842868598229957 -0.00005064236762450898
1520530320.300404 0.00000000000000000000 0.00000000000000000000 0.00000000000000000000 0.00000000000000000000 0.00000000000000000000 0.00000000000000000000 -0.12318611039933628770  0.07237096745541497789 -0.04378910211599885971  0.00042935106334190482 -0.00014773022570808227 -0.00003380059900296187
1520530320.450408 0.00000000000000000000 0.00000000000000000000 0.00000000000000000000 0.00000000000000000000 0.00000000000000000000 0.00000000000000000000 -0.13143722488234332868  0.02796017731158405295 -0.03994079780511847894  0.00052039264925012637  0.00003922676802473985 -0.00015597342909684901
1520530320.550412 0.00000000000000000000 0.00000000000000000000 0.00000000000000000000 0.00000000000000000000 0.00000000000000000000 0.00000000000000000000 -0.12701513100248554289  0.01022734323333267942 -0.03837414732709897025  0.00048936816702488633  0.00015710085843180226 -0.00024848517762320006
1520530320.649871 0.00000000000000000000 0.00000000000000000000 0.00000000000000000000 0.00000000000000000000 0.00000000000000000000 0.00000000000000000000 -0.12970889385872516608  0.01646832423030616596 -0.03938031184560613490  0.00040946223970980824  0.00050202364570813853 -0.00037072035301578810
1520530320.799876 0.00000000000000000000 0.00000000000000000000 0.00000000000000000000 0.00000000000000000000 0.00000000000000000000 0.00000000000000000000 -0.11764793251231560334  0.00590458566446080274 -0.03862747750593987367  0.00040019074245941678  0.00033735168517608422 -0.00042776405850605571
1520530320.949880 0.00000000000000000000 0.00000000000000000000 0.00000000000000000000 0.00000000000000000000 0.00000000000000000000 0.00000000000000000000 -0.11453834098896018001 -0.01253551105964775120 -0.03722510046361677399  0.00035944261120375836  0.00024284739391007096 -0.00048910706172521437
1520530321.049740 0.00000000000000000000 0.00000000000000000000 0.00000000000000000000 0.00000000000000000000 0.00000000000000000000 0.00000000000000000000 -0.11375904024325431130 -0.01740475571909131866 -0.03776604949608432238  0.00033127011447677451  0.00039935955219376696 -0.00049114200697663777
1520530321.199745 0.00000000000000000000 0.00000000000000000000 0.00000000000000000000 0.00000000000000000000 0.00000000000000000000 0.00000000000000000000 -0.11356475426580861510 -0.01222305764821346279 -0.03845852427793822192  0.00036470146805038804  0.00055023782153082641 -0.00053477824042876530
1520530321.349750 0.00000000000000000000 0.00000000000000000000 0.00000000000000000000 0.00000000000000000000 0.00000000000000000000 0.00000000000000000000 -0.10989221771925798687 -0.01685037821021102139 -0.03808942484157745029  0.00041531721548660844  0.00041189731166823949 -0.00050478414600826091
1520530321.499857 0.00000000000000000000 0.00000000000000000000 0.00000000000000000000 0.00000000000000000000 0.00000000000000000000 0.00000000000000000000 -0.10209005626956671464 -0.02035741687441417966 -0.03752266874307112754  0.00039510434664671824  0.00034307246006971321 -0.00041819884881179559
1520530321.599860 0.00000000000000000000 0.00000000000000000000 0.00000000000000000000 0.00000000000000000000 0.00000000000000000000 0.00000000000000000000 -0.10391732168403172709 -0.02390723533119613192 -0.03663764006196834622  0.00035986585938118661  0.00031162345841684801 -0.00044255148406860243
1520530321.749865 0.00000000000000000000 0.00000000000000000000 0.00000000000000000000 0.00000000000000000000 0.00000000000000000000 0.00000000000000000000 -0.10269590366265547721 -0.02315195098328480527 -0.03627469659743824681  0.00038684026996352403  0.00022140329462612196 -0.00045518705528849786
1520530321.850152 0.00000000000000000000 0.00000000000000000000 0.00000000000000000000 0.00000000000000000000 0.00000000000000000000 0.00000000000000000000 -0.10034082417725155578 -0.02835558853187942346 -0.03715308364299821364  0.00032974295361436965  0.00021176877603998039 -0.00045018043519769554
1520530321.950155 0.00000000000000000000 0.00000000000000000000 0.00000000000000000000 0.00000000000000000000 0.00000000000000000000 0.00000000000000000000 -0.09680465553637793152 -0.02313757030994046879 -0.03916672840481504742  0.00048424307080406821  0.00009278905069295412 -0.00042123130184643033
1520530322.100160 0.00000000000000000000 0.00000000000000000000 0.00000000000000000000 0.00000000000000000000 0.00000000000000000000 0.00000000000000000000 -0.09262553359418301824 -0.01137089069238175938 -0.04075092888443782035  0.00057035971728979363  0.00015755898446301349 -0.00045224277465428023
1520530322.300208 0.00000000000000000000 0.00000000000000000000 0.00000000000000000000 0.00000000000000000000 0.00000000000000000000 0.00000000000000000000 -0.08995956913314240300  0.01232601758321575508 -0.04129717024171907641  0.00061111347103258277  0.00029041307830428900 -0.00045067727144055034
1520530322.550216 0.00000000000000000000 0.00000000000000000000 0.00000000000000000000 0.00000000000000000000 0.00000000000000000000 0.00000000000000000000 -0.08946974802732711451  0.00467603040156547647 -0.04027340391474083792  0.00040168357833589410  0.00058530910654118929 -0.00051971832212555091
1520530322.700026 0.00000000000000000000 0.00000000000000000000 0.00000000000000000000 0.00000000000000000000 0.00000000000000000000 0.00000000000000000000 -0.08533350145940946097  0.00624279348290573098 -0.04013413210717826224  0.00043453523964923719  0.00048059536512907991 -0.00046589172204503126
1520530322.900065 0.00000000000000000000 0.00000000000000000000 0.00000000000000000000 0.00000000000000000000 0.00000000000000000000 0.00000000000000000000 -0.08219544224543036404  0.01790972237474196607 -0.04169922908358972280  0.00020300522602218732  0.00034281601326581940 -0.00045765432765168383
1520530323.050036 0.00000000000000000000 0.00000000000000000000 0.00000000000000000000 0.00000000000000000000 0.00000000000000000000 0.00000000000000000000 -0.08846465696702644765  0.02693695150962563400 -0.04190654589973727417  0.00000802379978956168  0.00039344916207733352 -0.00058068001750199538
1520530323.200077 0.00000000000000000000 0.00000000000000000000 0.00000000000000000000 0.00000000000000000000 0.00000000000000000000 0.00000000000000000000 -0.08565121918849509519  0.02075118995947424980 -0.04038721577192050383 -0.00005123229575432388  0.00030799230482337638 -0.00062174592998463112
1520530323.350082 0.00000000000000000000 0.00000000000000000000 0.00000000000000000000 0.00000000000000000000 0.00000000000000000000 0.00000000000000000000 -0.08792307742797100811  0.02759237920906323915 -0.04188957973220417547 -0.00000175421198358271  0.00024132121894949787 -0.00054065675384239880
1520530323.450085 0.00000000000000000000 0.00000000000000000000 0.00000000000000000000 0.00000000000000000000 0.00000000000000000000 0.00000000000000000000 -0.09119983714193138913  0.02534614634128371652