1520530315.649646 0.00000000000000000000 0.00000000000000000000 0.00000000000000000000 0.00000000000000000000 0.00000000000000000000 0.00000000000000000000 -0.59263052824666140328 -0.31822467672531773442  0.00766681348423297031 -0.00043227044903596732  0.00006071170390447229 -0.00037688736375768344 6.11305596657644034764 9.58131835382163110637 0.06675716276400928129 0.00002803512753709137 0.00002794770613491299 0.00002806523311437847
1520530315.799640 0.00000000000000000000 0.00000000000000000000 0.00000000000000000000 0.00000000000000000000 0.00000000000000000000 0.00000000000000000000 -0.61300659124813428047 -0.35402747295502517977  0.01555565552727933461 -0.00069621006182170482 -0.00021932987834032965 -0.00047229384867196412 4.29894809914670261719 5.70133081373792549584 0.07742082908763732452 0.00002761170852745408 0.00002705052311931383 0.00002758633425787129
1520530315.899643 0.00000000000000000000 0.00000000000000000000 0.00000000000000000000 0.00000000000000000000 0.00000000000000000000 0.00000000000000000000 -0.45029203725166705441 -0.17679523911627603727 -0.00855756806766129301 -0.00093503307794457131  0.00031330978443721674 -0.00058317974659734468 4.34665150251116649827 5.63714409828821505499 0.08081296565981468949 0.00002734928216367844 0.00002666684331142211 0.00002706539803508784
1520530316.100221 0.00000000000000000000 0.00000000000000000000 0.00000000000000000000 0.00000000000000000000 0.00000000000000000000 0.00000000000000000000 -0.39682786549620913119 -0.12135305460909462383 -0.01836852332511961991 -0.00073706442036960550  0.00009001749149708944 -0.00044792344415164773 3.61884995755835037201 5.30541191276229451290 0.07645397009865709248 0.00002687275384448719 0.00002597837778256439 0.00002635979546558005
1520530316.250226 0.00000000000000000000 0.00000000000000000000 0.00000000000000000000 0.00000000000000000000 0.00000000000000000000 0.00000000000000000000 -0.41443290824424222629 -0.10571351154097261005 -0.01448068878469078655 -0.00050250958971126034  0.00061664590178754945 -0.00063730609235324715 3.17809859135551375786 4.90802017582722793776 0.04729935837916061925 0.00002653100014279241 0.00002551501632924691 0.00002589532830424673
1520530316.400230 0.00000000000000000000 0.00000000000000000000 0.00000000000000000000 0.00000000000000000000 0.00000000000000000000 0.00000000000000000000 -0.40746017543385576465 -0.14805482046506221461 -0.01236702498948276385 -0.00047459447596028367  0.00066845697241839938 -0.00067324475686163796 2.84986980297629211023 4.56257776221690480867 0.04401387370324608833 0.00002586524585452427 0.00002511876193450893 0.00002535750652936859
1520530316.600278 0.00000000000000000000 0.00000000000000000000 0.00000000000000000000 0.00000000000000000000 0.00000000000000000000 0.00000000000000000000 -0.39670227990200856993 -0.17534920851292035149 -0.01211217027289973949 -0.00056617034252326632 -0.00001577253687599850 -0.00054995182344941881 2.53665163897086909373 4.16166142953057782705 0.04093391937876005721 0.00002544416569294994 0.00002472536916739199 0.00002492237562432457
1520530316.750283 0.00000000000000000000 0.00000000000000000000 0.00000000000000000000 0.00000000000000000000 0.00000000000000000000 0.00000000000000000000 -0.38670285681296856506 -0.06057548059522317035 -0.01860373611572900890 -0.00056822524963447520  0.00037474207224766023 -0.00065228218686573189 2.38018483471616226765 3.82944842902300797149 0.03915196147271216009 0.00002516614484134780 0.00002439996846198051 0.00002462002676364765
1520530316.949773 0.00000000000000000000 0.00000000000000000000 0.00000000000000000000 0.00000000000000000000 0.00000000000000000000 0.00000000000000000000 -0.38429632332826973995 -0.04668168739597027689 -0.01915692082772094823 -0.00046468377360402895  0.00052765430571031472 -0.00068859096106848705 2.23401279930256535522 3.44301652481614306467 0.03795542663150112961 0.00002491613899523249 0.00002405367783995599 0.00002420859137396430
1520530317.149779 0.00000000000000000000 0.00000000000000000000 0.00000000000000000000 0.00000000000000000000 0.00000000000000000000 0.00000000000000000000 -0.37859312442473758153 -0.04519393390885261680 -0.01879134906793293938 -0.00032028418061388615  0.00004867887703560243 -0.00073244519648429354 2.15211922782538689347 3.04200124554497364215 0.03725849446834368639 0.00002457816660231539 0.00002361932609625734 0.00002375088137887912
1520530317.299784 0.00000000000000000000 0.00000000000000000000 0.00000000000000000000 0.00000000000000000000 0.00000000000000000000 0.00000000000000000000 -0.36838840468843125908 -0.04470970790463364708 -0.01946505103776378920 -0.00033150692175772209  0.00007967202648867000 -0.00062817771014350406 2.11913747129174279138 2.80045126128854571235 0.03710900610994739141 0.00002415123474670557 0.00002322366998769621 0.00002342555585577429
1520530317.449747 0.00000000000000000000 0.00000000000000000000 0.00000000000000000000 0.00000000000000000000 0.00000000000000000000 0.00000000000000000000 -0.38229150529606159559 -0.04912024419638728184 -0.01939194096914052465 -0.00031089190942284241 -0.00016756822578615864 -0.00045400684579707291 2.10397461180286393656 2.65675934483782638651 0.03721721697118835631 0.00002401003085755196 0.00002292039050905145 0.00002317811866203432
1520530317.649755 0.00000000000000000000 0.00000000000000000000 0.00000000000000000000 0.00000000000000000000 0.00000000000000000000 0.00000000000000000000 -0.37591522198132126809 -0.01697826323321582898 -0.02205777681094915621 -0.00011551419465200960  0.00018765706424469245 -0.00075152664020365319 2.09511652464060693646 2.54760249476172129235 0.03747669925208341191 0.00002393291978957111 0.00002258520822787112 0.00002292405908506506
1520530317.750237 0.00000000000000000000 0.00000000000000000000 0.00000000000000000000 0.00000000000000000000 0.00000000000000000000 0.00000000000000000000 -0.37926349978555035092 -0.00303372326918348745 -0.02187642270169908726  0.00007550392254172243  0.00023418230968514630 -0.00087376083558218071 2.08783890914794900695 2.46268485323247166008 0.03757404327578156567 0.00002345134587229503 0.00002230242141108030 0.00002249039270140266
1520530317.900242 0.00000000000000000000 0.00000000000000000000 0.00000000000000000000 0.00000000000000000000 0.00000000000000000000 0.00000000000000000000 -0.38463225705381010044  0.00437226667520106659 -0.02168471737701234067  0.00008360191436245342  0.00030235658556651329 -0.00087134102853264552 2.08440243271853553608 2.40274463109124702953 0.03775239462823924003 0.00002340604150011042 0.00002211088665626356 0.00002231261121343320
1520530318.050246 0.00000000000000000000 0.00000000000000000000 0.00000000000000000000 0.00000000000000000000 0.00000000000000000000 0.00000000000000000000 -0.38242952903451332691 -0.01082850780738281622 -0.02216571083846666582  0.00003211782034544127  0.00061000510450888684 -0.00097177563630273221 2.08042531798545926591 2.36072041959556067070 0.03786590154546927434 0.00002348449635388998 0.00002197849963759115 0.00002222973603624515
1520530318.150816 0.00000000000000000000 0.00000000000000000000 0.00000000000000000000 0.00000000000000000000 0.00000000000000000000 0.00000000000000000000 -0.34984689463885032534 -0.00975830555339173358 -0.02570249825553467052  0.00011146624354477619  0.00070381483378696914 -0.00105511003714406880 2.07736855892738780938 2.33009083584766063524 0.03791112239672735779 0.00002339880422775053 0.00002182891614505305 0.00002211446674181417
1520530318.350774 0.00000000000000000000 0.00000000000000000000 0.00000000000000000000 0.00000000000000000000 0.00000000000000000000 0.00000000000000000000 -0.32997589271454136339 -0.01822421525639836976 -0.02584623365766162625  0.00035496622714152891  0.00039495532673902760 -0.00090650922428761398 2.02047220202614008500 2.27879484977746260554 0.03773933398385955623 0.00002301389600153732 0.00002149345488735750 0.00002177583166132385
1520530318.550780 0.00000000000000000000 0.00000000000000000000 0.00000000000000000000 0.00000000000000000000 0.00000000000000000000 0.00000000000000000000 -0.32316558370498910113 -0.00192725662895826136 -0.02660288844681623147  0.00040115286789768704  0.00005580002694279172 -0.00056284418355562410 1.89119685255960257031 2.23188555677353850371 0.03712880425083571467 0.00002283116640868007 0.00002124765595605904 0.00002148729570032082
1520530318.700570 0.00000000000000000000 0.00000000000000000000 0.00000000000000000000 0.00000000000000000000 0.00000000000000000000 0.00000000000000000000 -0.29198428573182783063  0.00567509424536877076 -0.02937310894639771908  0.00043027605694027221 -0.00007338362899897220 -0.00036635032605770730 1.74181540876451146360 2.20597139351071769298 0.03627782023342814716 0.00002254932731447478 0.00002106325321561931 0.00002128739143433911
1520530318.900576 0.00000000000000000000 0.00000000000000000000 0.00000000000000000000 0.00000000000000000000 0.00000000000000000000 0.00000000000000000000 -0.24558606548211966980  0.02628662670581732516 -0.03415992313323269053  0.00049741714078421241 -0.00045411447663157002 -0.00002809723556252347 1.51813019878156008069 2.14855027997917513716 0.03487619962313573407 0.00002225862683241786 0.00002080748397606495 0.00002104455909597494
1520530318.999955 0.00000000000000000000 0.00000000000000000000 0.00000000000000000000 0.00000000000000000000 0.00000000000000000000 0.00000000000000000000 -0.23993966018595871970  0.03054814119423490335 -0.03420687008854447070  0.00052824793047361843 -0.00046681683496519589  0.00001610150821342683 1.41156308940421770792 2.09861704133309956433 0.03464967413911630018 0.00002187549056148741 0.00002070127911205490 0.00002092383462451085
1520530319.149961 0.00000000000000000000 0.00000000000000000000 0.00000000000000000000 0.00000000000000000000 0.00000000000000000000 0.00000000000000000000 -0.21144579942980723519  0.02246846399758317681 -0.03501621457301286322  0.00053264003862974114 -0.00053863241643936979  0.00000118878425268004 1.27063135693093287593 1.99004671837644830923 0.03421659977360878846 0.00002154433267404376 0.00002051839251030642 0.00002075767554928474
1520530319.299965 0.00000000000000000000 0.00000000000000000000 0.00000000000000000000 0.00000000000000000000 0.00000000000000000000 0.00000000000000000000 -0.18976262417677813854  0.02717524291567803216 -0.03265099142947201077  0.00045670931308408759 -0.00049329888382623006 -0.00008766207167886742 1.17019326974093873517 1.86531475078429709313 0.02636948195673182588 0.00002131930528105808 0.00002030299474270796 0.00002052093764938391
1520530319.399832 0.00000000000000000000 0.00000000000000000000 0.00000000000000000000 0.00000000000000000000 0.00000000000000000000 0.00000000000000000000 -0.16130263791669047224  0.00059339924264876619 -0.03301786297008446613  0.00040144622641372823 -0.00047281654316405440 -0.00019974643236975626 1.11648296867343121974 1.80555787321781369137 0.02623511986677069460 0.00002134968590500010 0.00002016556570663339 0.00002038363018758319
1520530319.549837 0.00000000000000000000 0.00000000000000000000 0.00000000000000000000 0.00000000000000000000 0.00000000000000000000 0.00000000000000000000 -0.14448851528335349137  0.00215573841987905593 -0.03414127456815511941  0.00035261696852086495 -0.00076677530646503448 -0.00016349230928498404 1.05082306953095949709 1.71833720347355933811 0.02605941882825274850 0.00002131476095746729 0.00002009131493562071 0.00002030171019937432
1520530319.699841 0.00000000000000000000 0.00000000000000000000 0.00000000000000000000 0.00000000000000000000 0.00000000000000000000 0.00000000000000000000 -0.10903518051786936782 -0.00763045417918894499 -0.03610849090886066731  0.00023327315038512258 -0.00098717186627799596 -0.00010445258083226661 1.00118946153338783667 1.67181633402342977313 0.02594390154487895284 0.00002085953829324304 0.00001984771791116732 0.00002005238339286369
1520530319.800341 0.00000000000000000000 0.00000000000000000000 0.00000000000000000000 0.00000000000000000000 0.00000000000000000000 0.00000000000000000000 -0.09758569496132717125  0.00872700062572826646 -0.03803265426914888281  0.00021129668979871205 -0.00117570923110425904  0.00006163514242554326 0.97940414362616945443 1.65447982418985395370 0.02590603701158479197 0.00002061645276664428 0.00001968669379263269 0.00001984333362352251
1520530319.900344 0.00000000000000000000 0.00000000000000000000 0.00000000000000000000 0.00000000000000000000 0.00000000000000000000 0.00000000000000000000 -0.08486305017566134201  0.00715229896395365872 -0.03935186266134588912  0.00026270586459817193 -0.00087643647689218044  0.00001248870491104436 0.96591377207538597904 1.65145304511241741707 0.02576774605781962171 0.00002050091854062752 0.00001958650551533403 0.00001974940903607751
1520530320.000347 0.00000000000000000000 0.00000000000000000000 0.00000000000000000000 0.00000000000000000000 0.00000000000000000000 0.00000000000000000000 -0.07454042627405266241  0.00857452061996333455 -0.03919926801367516755  0.00031280808617756777 -0.00048591603933148975 -0.00007119190199055294 0.95731507649634928203 1.64699330656109443893 0.02550901272143374018 0.00002039708860272095 0.00001954422278829644 0.00001969089875391583
1520530320.100350 0.00000000000000000000 0.00000000000000000000 0.00000000000000000000 0.00000000000000000000 0.00000000000000000000 0.00000000000000000000 -0.07470418143689695756  0.02255346997505124768 -0.03935039252022404926  0.00023592162672443927 -0.00022923477054914151 -0.00005103415918388211 0.95381009681638428965 1.64150565652685576090 0.02518610445810232426 0.00002027911814612176 0.00001942120242268887 0.00001954679338961692
1520530320.200401 0.00000000000000000000 0.00000000000000000000 0.00000000000000000000 0.00000000000000000000 0.00000000000000000000 0.00000000000000000000 -0.07385348695123912510  0.02811046338374131523 -0.04101045996465445265  0.00023187791507395212 -0.00023791003556206952 -0.00010313359943794145 0.94972927227618852974 1.63127310001542036311 0.02477888269032407775 0.00002018668240017399 0.00001933850007572721 0.00001953026750348339
1520530320.300404 0.00000000000000000000 0.00000000000000000000 0.00000000000000000000 0.00000000000000000000 0.00000000000000000000 0.00000000000000000000 -0.08504852293479357728  0.00586064396721546529 -0.03720556527418110437  0.00038606211463991779 -0.00009934159700553954 -0.00016311376361061224 0.94098088987031658359 1.62090891715379581406 0.02452560836275627029 0.00001984887623004985 0.00001920003289987650 0.00001939934240138184
1520530320.450408 0.00000000000000000000 0.00000000000000000000 0.00000000000000000000 0.00000000000000000000 0.00000000000000000000 0.00000000000000000000 -0.09236317495829608759 -0.00785472651227490069 -0.03661651103014474523  0.00034855532084616486  0.00008612544074393773 -0.00021024936180496153 0.92357382899396667231 1.59291978127496403062 0.02405936202008131936 0.00001959516453558989 0.00001907560828304297 0.00001923354329587177
1520530320.550412 0.00000000000000000000 0.00000000000000000000 0.00000000000000000000 0.00000000000000000000 0.00000000000000000000 0.00000000000000000000 -0.09905232118646728479 -0.01675226778960810931 -0.03554423042066011396  0.00032746870318254824  0.00046464866952773546 -0.00034196223394527902 0.90513921325578239330 1.55239818190863410052 0.02369509528340232873 0.00001943497394605252 0.00001897556633332532 0.00001912220596193875
1520530320.599869 0.00000000000000000000 0.00000000000000000000 0.00000000000000000000 0.00000000000000000000 0.00000000000000000000 0.00000000000000000000 -0.09975463045344581947  0.00866893905767065348 -0.03792639942091992344  0.00033340436682205020  0.00041850969107656258 -0.00036883884751645054 0.89607795612194174328 1.52498669497078331858 0.02346794861430370055 0.00001948459594663241 0.00001897827761533613 0.00001911642441823385
1520530320.749874 0.00000000000000000000 0.00000000000000000000 0.00000000000000000000 0.00000000000000000000 0.00000000000000000000 0.00000000000000000000 -0.10115711631694983275  0.01279665234676066569 -0.03809207007209185203  0.00022055411060566385  0.00044135611889753207 -0.00035440197152703776 0.85614242505908311198 1.40859720615508865471 0.02276395698509267942 0.00001944550219260631 0.00001885199403800838 0.00001907067872588909
1520530320.899879 0.00000000000000000000 0.00000000000000000000 0.00000000000000000000 0.00000000000000000000 0.00000000000000000000 0.00000000000000000000 -0.09138060298170511131 -0.01326134746937674205 -0.03649077814619948457  0.00014618352190663277  0.00026775945425112007 -0.00022923435383658401 0.81102552400704597257 1.29355088119338335062 0.02211892521532575831 0.00001927545792313440 0.00001869012400992076 0.00001895518977308576
1520530321.049740 0.00000000000000000000 0.00000000000000000000 0.00000000000000000000 0.00000000000000000000 0.00000000000000000000 0.00000000000000000000 -0.09767485825773673802 -0.00388111916033362066 -0.03832670388896875641  0.00022398153601927708  0.00044985612140166129 -0.00034372344303522937 0.76432053013466727531 1.20525746500009023343 0.02157912795704645947 0.00001920296094060447 0.00001857449470239267 0.00001888515762999493
1520530321.199745 0.00000000000000000000 0.00000000000000000000 0.00000000000000000000 0.00000000000000000000 0.00000000000000000000 0.00000000000000000000 -0.09756028337786276650 -0.00382599819681657578 -0.03841514646959249407  0.00028095179570286226  0.00028767447295822030 -0.00036764595473141333 0.72077247515075881790 1.13841912562716296442 0.02116220118952614679 0.00001913159768570065 0.00001845361551612813 0.00001874619676081017
1520530321.349750 0.00000000000000000000 0.00000000000000000000 0.00000000000000000000 0.00000000000000000000 0.00000000000000000000 0.00000000000000000000 -0.09638564440882123330 -0.00542446779131413800 -0.03825921617853497714  0.00018308665251436069  0.00022139045652213186 -0.00032014309027591495 0.68204673834221418716 1.07647050435517988021 0.02071687011162473904 0.00001930283349194819 0.00001839044427586672 0.00001877003514539030
1520530321.499857 0.00000000000000000000 0.00000000000000000000 0.00000000000000000000 0.00000000000000000000 0.00000000000000000000 0.00000000000000000000 -0.09243173645705660135 -0.01523810875660461077 -0.03720478344488159506  0.00000645998010274040  0.00026932592142017882 -0.00014892451234467958 0.64803692674577595412 1.01923904324054159787 0.02024523409950038447 0.00001931838500990995 0.00001835521519141028 0.00001875275924807649
1520530321.599860 0.00000000000000000000 0.00000000000000000000 0.00000000000000000000 0.00000000000000000000 0.00000000000000000000 0.00000000000000000000 -0.09100502062499468692 -0.01481399650274102531 -0.03708804678974871732 -0.00008798376660114198  0.00021186266343448186 -0.00010206528099305186 0.62812558296582488016 0.98450327509242629986 0.01993296089711751179 0.00001929363963751668 0.00001829342694868972 0.00001870829112860961
1520530321.699863 0.00000000000000000000 0.00000000000000000000 0.00000000000000000000 0.00000000000000000000 0.00000000000000000000 0.00000000000000000000 -0.09314603434721865916 -0.01830027160340770565 -0.03626779372415227243 -0.00010876621555721157  0.00013436012628327635 -0.00005138504647761623 0.61065180203707147832 0.95119112979977393785 0.01956845047266635162 0.00001940357446789411 0.00001827531986302928 0.00001877397329366644
1520530321.850152 0.00000000000000000000 0.00000000000000000000 0.00000000000000000000 0.00000000000000000000 0.00000000000000000000 0.00000000000000000000 -0.09857705029012443776 -0.01501057998701410719 -0.03804925897293550546  0.00017138174533644357  0.00002603174264074399 -0.00006891293048471416 0.58442667487486832378 0.90338758148066100606 0.01890209335183154829 0.00001919509215027990 0.00001806510245564638 0.00001863625329655169
1520530321.950155 0.00000000000000000000 0.00000000000000000000 0.00000000000000000000 0.00000000000000000000 0.00000000000000000000 0.00000000000000000000 -0.09855443275824445071 -0.01221253779387703083 -0.03959520955205062670  0.00030363227674048949  0.00002389735801026325 -0.00017719716869824255 0.56763053221570447526 0.87316501814164448891 0.01845651922665694430 0.00001925329502785227 0.00001801678300707209 0.00001868101721506223
1520530322.100160 0.00000000000000000000 0.00000000000000000000 0.00000000000000000000 0.00000000000000000000 0.00000000000000000000 0.00000000000000000000 -0.09837193513463160510  0.00301851148128775811 -0.04065368944701969883  0.00040749454289692864  0.00012838857267029495 -0.00024689836961832770 0.54356341027453558556 0.83328923782313424340 0.01793263177932776647 0.00001920474210480561 0.00001791507547517287 0.00001865455049104931
1520530322.300208 0.00000000000000000000 0.00000000000000000000 0.00000000000000000000 0.00000000000000000000 0.00000000000000000000 0.00000000000000000000 -0.09880093193962924403  0.02195000770050760386 -0.04029340983001209603  0.00028940332608649481  0.00048480473824982269 -0.00030930187268996272 0.51519040545900240957 0.79794056575517247065 0.01759649265345728311 0.00001901125793215156 0.00001775084006132070 0.00001847601502199771
1520530322.600218 0.00000000000000000000 0.00000000000000000000 0.00000000000000000000 0.00000000000000000000 0.00000000000000000000 0.00000000000000000000 -0.10413153599616001288  0.01461646475743964835 -0.04023929246944455557  0.00024086735568327165  0.00031820127665618385 -0.00030705921301286786 0.48075634456507621017 0.76199684203165518603 0.01750870631090355872 0.00001868043188390901 0.00001755584166983106 0.00001824930308460304
1520530322.750027 0.00000000000000000000 0.00000000000000000000 0.00000000000000000000 0.00000000000000000000 0.00000000000000000000 0.00000000000000000000 -0.10514624261026413177  0.02068265747850266123 -0.03987692943315190169  0.00007001573390300492  0.00028997676313840523 -0.00031724289903208502 0.46804394864032949908 0.74201244018874223940 0.01756065085681489737 0.00001856216717176964 0.00001750548643479640 0.00001812983893587639
1520530322.950033 0.00000000000000000000 0.00000000000000000000 0.00000000000000000000 0.00000000000000000000 0.00000000000000000000 0.00000000000000000000 -0.11214845242102670919  0.01995990669005361789 -0.04034135104122086452  0.00000312638417029561  0.00027865938599461307 -0.00039309223044270246 0.45526313253432870720 0.72582365101247292571 0.01764397728050953740 0.00001837707621659583 0.00001742793887260554 0.00001801966773669197
1520530323.100074 0.00000000000000000000 0.00000000000000000000 0.00000000000000000000 0.00000000000000000000 0.00000000000000000000 0.00000000000000000000 -0.11040966863070313109  0.01839274452397606993 -0.03941888914228586227 -0.00005796259191172235  0.00017988750316402801 -0.00035840533468740155 0.44896973701375891830 0.71658420977904702109 0.01772248344119514707 0.00001829125587556460 0.00001739242790706227 0.00001793057732471122
1520530323.250079 0.00000000000000000000 0.00000000000000000000 0.00000000000000000000 0.00000000000000000000 0.00000000000000000000 0.00000000000000000000 -0.11634649605869823441  0.01808027429098034086 -0.03886043594720534067 -0.00008044866512212082  0.00021379547670194067 -0.00036135290042515062 0.44387221854331437854 0.70753735596618838599 0.01772414546217808765 0.00001817188720945480 0.00001732874320042039 0.00001768450695863493
1520530323.400084 0.00000000000000000000 0.00000000000000000000 0.00000000000000000000 0.00000000000000000000 0.00000000000000000000 0.00000000000000000000 -0.11890557164822217195  0.02039181727531426055 -0.04242480935385445351  0.00017310379617356430  0.00035440866998580296 -0.00031970213430589024 0.44024236659743043454 0.69503061631546581012 0.01747459906413935740 0.00001817931552348263 0.00001722985564976521 0.00001764748776140232
1520530323.500345 0.00000000000000000000 0.00000000000000000000 0.00000000000000000000 0.00000000000000000000 0.00000000000000000000 0.00000000000000000000 -0.11098159632841390898  0.03347948627304157126 -0.04514442233717862879  0.00052503495675753980  0.00038631344514796287 -0.00027325905927962156 0.43791693206264431515 0.68391876584665012295 0.01726693310477314669 0.00001802041795476507 0.00001714956430750484 0.00001747918244361833
1520530323.650349 0.00000000000000000000 0.00000000000000000000 0.00000000000000000000 0.00000000000000000000 0.00000000000000000000 0.00000000000000000000 -0.11817622375208509944  0.03405062934812406322 -0.04279728301512934069  0.00063085712190926835  0.00030151872704406896 -0.00030901113420916216 0.43531393501537374302 0.67254870730249793898 0.01709412721060012824 0.00001777022743978683 0.00001699998224433184 0.00001722297646656795
1520530323.800354 0.00000000000000000000 0.00000000000000000000 0.00000000000000000000 0.00000000000000000000 0.00000000000000000000 0.00000000000000000000 -0.11586720177389246700  0.03687251525610727582 -0.04267095571132802773  0.00062294981035663198  0.00027448323889286882 -0.00026367309832965927 0.43425118509132920597 0.66661197332576882513 0.01699263643966043499 0.00001763307065777725 0.00001689885001612557 0.00001706888689509897
1520530323.900153 0.00000000000000000000 0.00000000000000000000 0.00000000000000000000 0.00000000000000000000 0.00000000000000000000 0.00000000000000000000 -0.11724365690535729079  0.03217095147855783543 -0.04140310924176224261  0.00061501448764411009  0.00018672599391996638 -0.00025779011137947973 0.43403856562977982669 0.66445451112518327808 0.01697746269300268174 0.00001753073477211277 0.00001684283018831252 0.00001698761828659297
1520530324.050157 0.00000000000000000000 0.00000000000000000000 0.00000000000000000000 0.00000000000000000000 0.00000000000000000000 0.00000000000000000000 -0.11696567157452582297  0.03002437319620936129 -0.04141142040466194024  0.00062176395373418115  0.00006312380904331106 -0.00033173853781676713 0.43323025271047044260 0.66052449957574810302 0.01697840212825925052 0.00001743479636759194 0.00001677193056589082 0.00001693282617164256
1520530324.200162 0.00000000000000000000 0.00000000000000000000 0.00000000000000000000 0.00000000000000000000 0.00000000000000000000 0.00000000000000000000 -0.11461385649492290828  0.02572089603787270154 -0.04183029587688020384  0.00052927479530654256  0.00021804158993892733 -0.00049315753466266487 0.43261668319558194140 0.65675733889661169762 0.01702333516667567728 0.00001729584850260296 0.00001671818741760523 0.00001686485757991588
1520530324.299908 0.00000000000000000000 0.00000000000000000000 0.00000000000000000000 0.00000000000000000000 0.00000000000000000000 0.00000000000000000000 -0.11216704896344086018  0.02746741682280470082 -0.04132534960465202023  0.00058417882619718616  0.00023865472179037691 -0.00059949865593742489 0.43140471819988829294 0.65215632068825513112 0.01708094947249227946 0.00001717361601107389 0.00001666819042872280 0.00001680360073136347
1520530324.399911 0.00000000000000000000 0.00000000000000000000 0.00000000000000000000 0.00000000000000000000 0.00000000000000000000 0.00000000000000000000 -0.11122419144079105646  0.03321261968388707075 -0.04031542714445160436  0.00063857431896731040  0.00018760940582599465 -0.00059968857843396438 0.43137810959520617171 0.64731286223461836915 0.01716721440456221368 0.00001720670976773594 0.00001666195460648743 0.00001679923866784381
1520530324.499994 0.00000000000000000000 0.00000000000000000000 0.00000000000000000000 0.00000000000000000000 0.00000000000000000000 0.00000000000000000000 -0.11682175075416596777  0.03232822745858371372 -0.04091645283358892604  0.00060282855287037255  0.00009509573053342146 -0.00059310464861738669 0.43080940422638636100 0.64383148405655143964 0.01723368570898796762 0.00001719784980116459 0.00001659705264264524 0.00001672828728221752
1520530324.649919 0.00000000000000000000 0.00000000000000000000 0.00000000000000000000 0.00000000000000000000 0.00000000000000000000 0.00000000000000000000 -0.12021675260802623664  0.02800086823793983271 -0.04211583347090698537  0.00053449613022523573  0.00015183756047677094 -0.00056280945275274832 0.43029040995834727523 0.64108696042155255412 0.01731323190354078570 0.00001717979459952439 0.00001654638133289922 0.00001668792288233172
1520530324.800021 0.00000000000000000000 0.00000000000000000000 0.00000000000000000000 0.00000000000000000000 0.00000000000000000000 0.00000000000000000000 -0.11962339262728258205  0.02394741071824899731 -0.04271788766208380050  0.00057269543005471202  0.00033027481543240923 -0.00062563654190583894 0.42907096374677600181 0.63845444266405637634 0.01736298919675648492 0.00001720854067533219 0.00001650977169118033 0.00001669379783095354
1520530324.950026 0.00000000000000000000 0.00000000000000000000 0.00000000000000000000 0.00000000000000000000 0.00000000000000000000 0.00000000000000000000 -0.11533531795898202543  0.02653358559681585904 -0.04301301185718879594  0.00063323065219055149  0.00036578437776528929 -0.00062254216776382650 0.42698293239526463605 0.63578110299297441177 0.01734689135358020995 0.00001716677312156773 0.00001647915537708690 0.00001666932877987230
1520530325.100816 0.00000000000000000000 0.00000000000000000000 0.00000000000000000000 0.00000000000000000000 0.00000000000000000000 0.00000000000000000000 -0.11355303350034688659  0.02729220134266187314 -0.04312100940281701766  0.00066724802042562859  0.00019935481093267060 -0.00048257863638705856 0.42448168879248621144 0.63310141276830178558 0.01728861310075732391 0.00001706077430677405 0.00001639241498311540 0.00001656251217823065
1520530325.300822 0.00000000000000000000 0.00000000000000000000 0.00000000000000000000 0.00000000000000000000 0.00000000000000000000 0.00000000000000000000 -0.11627449731378301789  0.02821815962016817683 -0.04224725912541620748  0.00062904671766247423 -0.00029070797568913850 -0.00021479031317540531 0.41915400963157800618 0.62592790874678760904 0.01715592091266066044 0.00001698734385042594 0.00001635359720768166 0.00001643843382380774
1520530325.400825 0.00000000000000000000 0.00000000000000000000 0.00000000000000000000 0.00000000000000000000 0.00000000000000000000 0.00000000000000000000 -0.11315680875807347661  0.03174080163001528204 -0.04367574055938472366  0.00065070902515711442 -0.00022812771846122081 -0.00025993955587436975 0.41724098554586425136 0.62056897767395580168 0.01695788283656983475 0.00001703646918469058 0.00001630345399420434 0.00001647179680016957
1520530325.600915 0.00000000000000000000 0.00000000000000000000 0.00000000000000000000 0.00000000000000000000 0.00000000000000000000 0.00000000000000000000 -0.11283373792426772131  0.03358425723358583054 -0.04425294895893214231  0.00058847625713453762  0.00002210881982710499 -0.00030478608621339930 0.41185350962061140212 0.60666963436029663903 0.01651731698845062754 0.00001707061013170013 0.00001622696701465437 0.00001646585347202898
1520530325.800921 0.00000000000000000000 0.00000000000000000000 0.00000000000000000000 0.00000000000000000000 0.00000000000000000000 0.00000000000000000000 -0.11149062454613459239  0.03575280862593401693 -0.04513449806602579106  0.00059314990878502538 -0.00007334736632383248 -0.00031735390597500073 0.40727651999312031172 0.59768890512401084969 0.01621555236041395676 0.00001698305770917631 0.00001615057071155657 0.00001639040877843113
1520530325.950541 0.00000000000000000000 0.00000000000000000000 0.00000000000000000000 0.00000000000000000000 0.00000000000000000000 0.00000000000000000000 -0.11456244923383770984  0.03115427332700878085 -0.04380990906731533491  0.00051889251722625441  0.00010064059857553285 -0.00039856428196871445 0.40466645638165710253 0.59549300223083223571 0.01617591020726118906 0.00001716844780676399 0.00001614322490926084 0.00001641675919273098
1520530326.100546 0.00000000000000000000 0.00000000000000000000 0.00000000000000000000 0.00000000000000000000 0.00000000000000000000 0.00000000000000000000 -0.11634728703880067857  0.03312953405091200593 -0.04319603385468911982  0.00046222560144730811  0.00007848968638482097 -0.00036958201208527215 0.40143222124211225266 0.59304249773049233507 0.01619088585028235008 0.00001711108290909031 0.00001608847933849710 0.00001635544002476941
1520530326.250551 0.00000000000000000000 0.00000000000000000000 0.00000000000000000000 0.00000000000000000000 0.00000000000000000000 0.00000000000000000000 -0.11873042702449562724  0.02694484350797655622 -0.04286547351226908248  0.00039824217824099470  0.00009392873588619779 -0.00047844848862120369 0.39848391230613805503 0.59110208276761522228 0.01622403733510567603 0.00001711097863880757 0.00001603912807075772 0.00001631525867970530
1520530326.350204 0.00000000000000000000 0.00000000000000000000 0.00000000000000000000 0.00000000000000000000 0.00000000000000000000 0.00000000000000000000 -0.11669936808533656891  0.02682935094266857695 -0.04354632535125077530  0.00035750234092387907  0.00003399133304417620 -0.00046274288098560417 0.39646174789441379627 0.58937384711510631963 0.01623378031064320187 0.00001713049330826467 0.00001602413017413721 0.00001632902714150443
1520530326.550210 0.00000000000000000000 0.00000000000000000000 0.00000000000000000000 0.00000000000000000000 0.00000000000000000000 0.00000000000000000000 -0.11568018243103210529  0.02458016559879159721 -0.04340207159484506944  0.00037769263858405711  0.00005315479456826864 -0.00042812511945381979 0.39196062848326412853 0.58444688162733648973 0.01626495566925355643 0.00001721710418616287 0.00001598979918734932 0.00001633040409595627
1520530326.700216 0.00000000000000000000 0.00000000000000000000 0.00000000000000000000 0.00000000000000000000 0.00000000000000000000 0.00000000000000000000 -0.11335980015819481503  0.02444984254023357256 -0.04229856705237652892  0.00035353639148563194  0.00017956600985395327 -0.00046979966723593379 0.38825243439921802713 0.58003163933648249628 0.01627220794034869855 0.00001727890851868480 0.00001597092975001125 0.00001635226928840245
1520530326.900431 0.00000000000000000000 0.00000000000000000000 0.00000000000000000000 0.00000000000000000000 0.00000000000000000000 0.00000000000000000000 -0.10949859709368763017  0.02656809238046999727 -0.04619260604278285082  0.00046258893617314112  0.00010554114685512702 -0.00045172837439106728 0.38200482425536691489 0.57077397144444053101 0.01608867135132087053 0.00001733360780200684 0.00001592770521814436 0.00001633634705641389
1520530327.050437 0.00000000000000000000 0.00000000000000000000 0.00000000000000000000 0.00000000000000000000 0.00000000000000000000 0.00000000000000000000 -0.10836841017255244290  0.02302107531110422073 -0.04548854030297469486  0.00055391347385473622  0.00005278191850367568 -0.00044200828636662277 0.37669495124347829318 0.56281438925940108220 0.01595439493403351047 0.00001731144022520046 0.00001586127655963618 0.00001629117574957803
1520530327.200433 0.00000000000000000000 0.00000000000000000000 0.00000000000000000000 0.00000000000000000000 0.00000000000000000000 0.00000000000000000000 -0.10850512214464545779  0.03249729001575359100 -0.04519587216359642612  0.00064114810572461778 -0.00017497661954094817 -0.00034047124744884848 0.37127625449835732763 0.55689031293994661898 0.01588202081399621782 0.00001719294570674255 0.00001580080491237466 0.00001622079043806733
1520530327.350437 0.00000000000000000000 0.00000000000000000000 0.00000000000000000000 0.00000000000000000000 0.00000000000000000000 0.00000000000000000000 -0.11273578505297975061  0.03866508824838490316 -0.04448925042045653172  0.00070214701679755648 -0.00046811526414815725 -0.00016035066068936056 0.36587508385937278499 0.55343108182554556773 0.01586775773041476656 0.00001719191327884114 0.00001578084113387013 0.00001623508754055240
1520530327.500442 0.00000000000000000000 0.00000000000000000000 0.00000000000000000000 0.00000000000000000000 0.00000000000000000000 0.00000000000000000000 -0.11423050320464379903  0.04271580045803089615 -0.04469557161438011961  0.00072339388713919047 -0.00077841738245873037 -0.00000181437033728089 0.36091592277930123478 0.55114918913665755795 0.01592569320212752076 0.00001712766609519622 0.00001575794813898552 0.00001619290027086120
1520530327.600091 0.00000000000000000000 0.00000000000000000000 0.00000000000000000000 0.00000000000000000000 0.00000000000000000000 0.00000000000000000000 -0.11258536568539576073  0.05388354547384709842 -0.04673902700907574259  0.00071336456547310212 -0.00098392824439971923  0.00007766091551599517 0.35810376370607061025 0.54929681099591165516 0.01597914292639275591 0.00001705677234168686 0.00001576563354369735 0.00001616373976120212
1520530327.700094 0.00000000000000000000 0.00000000000000000000 0.00000000000000000000 0.00000000000000000000 0.00000000000000000000 0.00000000000000000000 -0.11394051374546730615  0.05944842839409621160 -0.04672223335492930313  0.00066550337975782318 -0.00118594320031997964  0.00009742110417111301 0.35596555891762210466 0.54808070711223055849 0.01604730393450263734 0.00001700943632345579 0.00001579421547427106 0.00001618565294066922
1520530327.750096 0.00000000000000000000 0.00000000000000000000 0.00000000000000000000 0.00000000000000000000 0.00000000000000000000 0.00000000000000000000 -0.12023097096633031389  0.06818562537819344849 -0.04902592216825482629  0.00060236833429660769 -0.00164197135961243021  0.00027952492247253642 0.35346450903525705733 0.54665657482030183267 0.01604220738252480974 0.00001647708067744663 0.00001568134975115691 0.00001601133720118161
1520530327.850099 0.00000000000000000000 0.00000000000000000000 0.00000000000000000000 0.00000000000000000000 0.00000000000000000000 0.00000000000000000000 -0.11696635223340012821  0.04105755941807300025 -0.04846510080592679459  0.00066045278260065882 -0.00152718411732889422  0.00035722740102150008 0.35400427594614441995 0.54719815876882449412 0.01602763999141824935 0.00001671478575258702 0.00001574065203863570 0.00001618403355995774
1520530327.950102 0.00000000000000000000 0.00000000000000000000 0.00000000000000000000 0.00000000000000000000 0.00000000000000000000 0.00000000000000000000 -0.11364868289540389079  0.03755891985033738001 -0.04822895257890209841  0.00077622044840053588 -0.00130456281746672040  0.00030664947774370390 0.35406983880457648661 0.54565176392767089641 0.01597302217248823195 0.00001705845739101507 0.00001581936002845350 0.00001637404428182776
1520530328.050282 0.00000000000000000000 0.00000000000000000000 0.00000000000000000000 0.00000000000000000000 0.00000000000000000000 0.00000000000000000000 -0.11445371123150827053  0.04158644841964084099 -0.04821497142265875752  0.00090343958203139999 -0.00110697389717699093  0.00038575352055366806 0.35240158266371252038 0.54226692909286244859 0.01587379478742939609 0.00001704920066322615 0.00001582417216164965 0.00001648597805177630
1520530328.150285 0.00000000000000000000 0.00000000000000000000 0.00000000000000000000 0.00000000000000000000 0.00000000000000000000 0.00000000000000000000 -0.11653796639768959631  0.04567359628030494278 -0.04741870802579248312  0.00110993023712707196 -0.00065456300816251964  0.00043941814444033856 0.34775063323055943609 0.53384134147049344676 0.01575013943542248607 0.00001678587522924033 0.00001578194826596263 0.00001649492880305767
1520530328.300290 0.00000000000000000000 0.00000000000000000000 0.00000000000000000000 0.00000000000000000000 0.00000000000000000000 0.00000000000000000000 -0.13356277013336539938  0.06319404713072705737 -0.04849074699989701365  0.00109148572918015777 -0.00009543201901465863  0.00048329901493174553 0.33606794786254973184 0.51299701432328348449 0.01552490872125926631 0.00001656938347085342 0.00001583515932811605 0.00001649622704942381
1520530328.350291 0.00000000000000000000 0.00000000000000000000 0.00000000000000000000 0.00000000000000000000 0.00000000000000000000 0.00000000000000000000 -0.12117280258034278384  0.06845533217199506471 -0.04730346152021284306 0.00084322944056069212 0.00012826013685370921 0.00057872773760856756 0.33075283262300614329 0.50610414759641730864 0.01547739661145972750 0.00001649019080758586 0.00001585840860126551 0.00001648145869881903
1520530328.450338 0.00000000000000000000 0.00000000000000000000 0.00000000000000000000 0.00000000000000000000 0.00000000000000000000 0.00000000000000000000 -0.11947236921280013355  0.07106827787451024114 -0.04772260606764402308 0.00070125852408863367 0.00031404167669733861 0.00054862725693071422 0.31937137658937447826 0.49151433807617134208 0.01533673539172355181 0.00001660108268367023 0.00001597144509830315 0.00001660203656461865
1520530328.550342 0.00000000000000000000 0.00000000000000000000 0.00000000000000000000 0.00000000000000000000 0.00000000000000000000 0.00000000000000000000 -0.11871943377906142569  0.06067466582819529275 -0.04974519859614118938 0.00085001159036735745 0.00051612824185787241 0.00048342825175138910 0.30788844972780271547 0.47945982510357826323 0.01519562993864850484 0.00001666902104834099 0.00001601411653769016 0.00001662662172173914
1520530328.600344 0.00000000000000000000 0.00000000000000000000 0.00000000000000000000 0.00000000000000000000 0.00000000000000000000 0.00000000000000000000 -0.11734050687818539660  0.06191639439455252220 -0.05051317872299179029 0.00093218398667006504 0.00062200886834311308 0.00028870182028347476 0.30235103514962885507 0.47371810215487181184 0.01513733209578708126 0.00001658980214283911 0.00001595804851631843 0.00001645993701228873
1520530328.700347 0.00000000000000000000 0.00000000000000000000 0.00000000000000000000 0.00000000000000000000 0.00000000000000000000 0.00000000000000000000 -0.11439825347798097954  0.06695812395444768195 -0.05085382293439320162 0.00114498649666670599 0.00069050316310909467 0.00009810107465057824 0.29283101164891262025 0.46286575666905843685 0.01502189538635429270 0.00001653602201771305 0.00001595491572180455 0.00001636504071831738
1520530328.800086 0.00000000000000000000 0.00000000000000000000 0.00000000000000000000 0.00000000000000000000 0.00000000000000000000 0.00000000000000000000 -0.10236687975936767381  0.04415821905385584195 -0.04752316337090763815  0.00133096701626824192  0.00055746354472278642 -0.00000277521355986574 0.28627584633175967577 0.45597072433031060612 0.01494341133449050493 0.00001666399197150535 0.00001597945045267423 0.00001648475016507723
1520530329.000092 0.00000000000000000000 0.00000000000000000000 0.00000000000000000000 0.00000000000000000000 0.00000000000000000000 0.00000000000000000000 -0.10086871850561567043  0.00047424503086522258 -0.04336210132090755065 0.00133441172290067462 0.00039910403692741518 0.00009370023387475332 0.27949672834548444644 0.44410023213527555219 0.01471025676328208132 0.00001663021869736210 0.00001608714983814506 0.00001645288297803577
1520530329.150097 0.00000000000000000000 0.00000000000000000000 0.00000000000000000000 0.00000000000000000000 0.00000000000000000000 0.00000000000000000000 -0.09564948335357285891 -0.00963905026909405230 -0.04237906881959721539  0.00139053899465494757 -0.00003955920597350619  0.00007704058186698287 0.27739532797278942944 0.43475092202349840953 0.01451867026625806162 0.00001639488451817322 0.00001594304575282195 0.00001607729136170904
1520530329.250095 0.00000000000000000000 0.00000000000000000000 0.00000000000000000000 0.00000000000000000000 0.00000000000000000000 0.00000000000000000000 -0.09486415440335446703 -0.01393782159281310891 -0.04261857460509418938  0.00144324224737090129 -0.00037382760599719391  0.00021753742973315825 0.27671447246292202315 0.42838306636014722439 0.01439092495048401553 0.00001642566570137150 0.00001594954270276155 0.00001610028290283401
1520530329.350049 0.00000000000000000000 0.00000000000000000000 0.00000000000000000000 0.00000000000000000000 0.00000000000000000000 0.00000000000000000000 -0.09698276312827086576 -0.03534575383299640855 -0.04171928479933054851  0.00132683376346992609 -0.00045935511378043320  0.00025799151235623204 0.27613407700408892920 0.42208448479567800549 0.01426902742879909529 0.00001671576355583704 0.00001600730683840757 0.00001623497004582013
1520530329.500053 0.00000000000000000000 0.00000000000000000000 0.00000000000000000000 0.00000000000000000000 0.00000000000000000000 0.00000000000000000000 -0.10429146646655632069 -0.02850889767432161423 -0.03928648984490528545  0.00114309428902153402 -0.00017189673135893920  0.00027337081646348210 0.27366287909477204909 0.41116060144538912891 0.01408892098090552478 0.00001665957353627099 0.00001610023480077051 0.00001650639897490514
1520530329.650099 0.00000000000000000000 0.00000000000000000000 0.00000000000000000000 0.00000000000000000000 0.00000000000000000000 0.00000000000000000000 -0.10179798513257674875 -0.02511373404204327378 -0.03844181171106901551 0.00108392553080332871 0.00014754973294835977 0.00030473637087004274 0.26942676019303196666 0.39927181450873022728 0.01389264929250485885 0.00001641914854511977 0.00001616926228618008 0.00001645938761582070
1520530329.750102 0.00000000000000000000 0.00000000000000000000 0.00000000000000000000 0.00000000000000000000 0.00000000000000000000 0.00000000000000000000 -0.09915763005651374862 -0.01153235511939046908 -0.03892093869736915762 0.00108799769278586454 0.00051259921840344580 0.00039736799825485571 0.26595850365741241506 0.39164715749051975946 0.01377613806063834705 0.00001641787068097468 0.00001610961993261229 0.00001644830551306382
1520530329.850105 0.00000000000000000000 0.00000000000000000000 0.00000000000000000000 0.00000000000000000000 0.00000000000000000000 0.00000000000000000000 -0.09982823315311420420  0.00142913156718544460 -0.04043800588474257690 0.00114686621539167983 0.00057095298698411369 0.00040668314382301586 0.26254672802409589893 0.38626506048035319507 0.01369099158928546202 0.00001663081911482881 0.00001606484034712896 0.00001649782259310269
1520530329.950109 0.00000000000000000000 0.00000000000000000000 0.00000000000000000000 0.00000000000000000000 0.00000000000000000000 0.00000000000000000000 -0.08749258392740039136  0.00998286676804869058 -0.03984903068752723709 0.00133708682943043679 0.00084449737170056924 0.00019523435559739370 0.25869129453942907304 0.38432752584716989297 0.01365646164018703528 0.00001664744465276148 0.00001589434480233314 0.00001625479772043356
1520530330.050161 0.00000000000000000000 0.00000000000000000000 0.00000000000000000000 0.00000000000000000000 0.00000000000000000000 0.00000000000000000000 -0.08105504490761022973  0.02531426774746663166 -0.04202965150540935446 0.00134236294951670804 0.00109426727038760868 0.00001817714782726678 0.25461627470492620429 0.38247243407649927915 0.01362420282070555232 0.00001658034538010261 0.00001577629463927412 0.00001629238235367907
1520530330.150164 0.00000000000000000000 0.00000000000000000000 0.00000000000000000000 0.00000000000000000000 0.00000000000000000000 0.00000000000000000000 -0.07495330529143465204  0.03230094986330434709 -0.04252717629044167752  0.00136549682095099567  0.00124281894271091641 -0.00015740967520516471 0.25017315881542229183 0.38152437864908650411 0.01362001447618898728 0.00001646659421453326 0.00001572489544373502 0.00001625478472071242
1520530330.250167 0.00000000000000000000 0.00000000000000000000 0.00000000000000000000 0.00000000000000000000 0.00000000000000000000 0.00000000000000000000 -0.07970438985244315822  0.02837654179467281185 -0.04297707329780679764  0.00136476674422567469  0.00121700605669481472 -0.00020388950040046421 0.24635601033401693938 0.38057187346371190717 0.01360905382106896398 0.00001664021516843563 0.00001581386754118023 0.00001629271446094333
1520530330.350170 0.00000000000000000000 0.00000000000000000000 0.00000000000000000000 0.00000000000000000000 0.00000000000000000000 0.00000000000000000000 -0.07032188233960355583  0.01510375637982046965 -0.03995387393380767788  0.00138569385642509546  0.00110653030278268423 -0.00022586230640258314 0.24224202311823583855 0.37861096379943331991 0.01360896552486837163 0.00001663858213647674 0.00001585502467641554 0.00001619589686118078
1520530330.450787 0.00000000000000000000 0.00000000000000000000 0.00000000000000000000 0.00000000000000000000 0.00000000000000000000 0.00000000000000000000 -0.07160048630506685163  0.01180037241697190833 -0.03939469129010906429  0.00143710285888704113  0.00082177601319235408 -0.00009356236355982695 0.23822819251336732616 0.37470918875821118688 0.01358885931936087976 0.00001650408124120404 0.00001587449284944919 0.00001626806008909721
1520530330.550790 0.00000000000000000000 0.00000000000000000000 0.00000000000000000000 0.00000000000000000000 0.00000000000000000000 0.00000000000000000000 -0.06760137136684188364  0.03011261100131673585 -0.04095840432003467618 0.00144060034894464444 0.00052682241632712667 0.00005921322670495449 0.23414250090292348938 0.36999908398669156817 0.01357183163618636002 0.00001625995668200136 0.00001589617942479745 0.00001610987287009406
1520530330.650793 0.00000000000000000000 0.00000000000000000000 0.00000000000000000000 0.00000000000000000000 0.00000000000000000000 0.00000000000000000000 -0.06469568618104289126  0.04193808020218393884 -0.04241568128238557001 0.00154450289101102332 0.00036883974563355271 0.00013514640674188014 0.23076786355760978142 0.36634875935408894865 0.01356504441623170541 0.00001620865012321109 0.00001591811896768487 0.00001587548682725417
1520530330.750797 0.00000000000000000000 0.00000000000000000000 0.00000000000000000000 0.00000000000000000000 0.00000000000000000000 0.00000000000000000000 -0.06512492538530050001  0.05541667247419043707 -0.04553503252513966398 0.00165330327398573195 0.00025446418487137345 0.00020497998181517475 0.22825499038420135611 0.36405806736494267239 0.01356010363817541919 0.00001622412326991772 0.00001589960127305566 0.00001604215688562473
1520530330.800798 0.00000000000000000000 0.00000000000000000000 0.00000000000000000000 0.00000000000000000000 0.00000000000000000000 0.00000000000000000000 -0.06611939707108023534  0.06024431234270971602 -0.04571414533494633226 0.00171424794545528276 0.00009319676017776761 0.00022928650265005985 0.22713997474599526005 0.36338609477287037164 0.01356908197558854591 0.00001641470082548730 0.00001598936864915889 0.00001645437379834142
1520530330.900277 0.00000000000000000000 0.00000000000000000000 0.00000000000000000000 0.00000000000000000000 0.00000000000000000000 0.00000000000000000000 -0.06506595694004109476  0.05231051251523794604 -0.04719297397663992782  0.00173572890974950703 -0.00000466730462800182  0.00012161862967098696 0.22507400867080865070 0.36241868326005854950 0.01359143588471333972 0.00001651890549446622 0.00001603400405120209 0.00001655567773815732
1520530331.000280 0.00000000000000000000 0.00000000000000000000 0.00000000000000000000 0.00000000000000000000 0.00000000000000000000 0.00000000000000000000 -0.07025468376278855287  0.05356102405515840437 -0.04708944042349408332  0.00158199171770262111 -0.00008955328535794367  0.00001399417747370115 0.22333810372978510350 0.36175952503074859656 0.01362454070155988579 0.00001678286041329124 0.00001613741867963372 0.00001672631405744135
1520530331.100283 0.00000000000000000000 0.00000000000000000000 0.00000000000000000000 0.00000000000000000000 0.00000000000000000000 0.00000000000000000000 -0.06350595566053338081  0.05911555460566809972 -0.04597430464285569285  0.00148230289757181550 -0.00011269576248008725 -0.00020626845949390894 0.22172410051498431249 0.36051971102792879087 0.01365254845457394492 0.00001702888923068161 0.00001634934423199778 0.00001723165193492831
1520530331.200286 0.00000000000000000000 0.00000000000000000000 0.00000000000000000000 0.00000000000000000000 0.00000000000000000000 0.00000000000000000000 -0.06345551733932969229  0.06021976064917802796 -0.04520667158933933810  0.00153815963003658832 -0.00001978611371237563 -0.00022122842831217676 0.22006168044704399467 0.35967682940030210048 0.01368588332318337875 0.00001705235880408780 0.00001643808524956269 0.00001731204849174086
1520530331.250735 0.00000000000000000000 0.00000000000000000000 0.00000000000000000000 0.00000000000000000000 0.00000000000000000000 0.00000000000000000000 -0.06511527529507978029  0.05568947489555273189 -0.04505131017052000503  0.00173842790313616662  0.00037764539382583329 -0.00016107471411534353 0.21915822155956940498 0.35891992229155017524 0.01370425335188305352 0.00001712410107121766 0.00001646886085310869 0.00001737414589315481
1520530331.350738 0.00000000000000000000 0.00000000000000000000 0.00000000000000000000 0.00000000000000000000 0.00000000000000000000 0.00000000000000000000 -0.06240930558290630481  0.04966506412626785216 -0.04512424363954489065  0.00171770813682649683  0.00103925326455159631 -0.00037374750056418880 0.21798310898434800076 0.35870837981659309257 0.01372509988345443042 0.00001718972291857674 0.00001645892982893323 0.00001741988609512350
1520530331.450741 0.00000000000000000000 0.00000000000000000000 0.00000000000000000000 0.00000000000000000000 0.00000000000000000000 0.00000000000000000000 -0.05778713242819250029  0.06488659546336596196 -0.04651660140724079434  0.00165995460302684888  0.00126668242168627258 -0.00037832602271881734 0.21643978070207736675 0.35798984826967333861 0.01374710383929628535 0.00001725232852681317 0.00001645790112051661 0.00001744366510757886
1520530331.550744 0.00000000000000000000 0.00000000000000000000 0.00000000000000000000 0.00000000000000000000 0.00000000000000000000 0.00000000000000000000 -0.04930261409745510803  0.07054043409747361160 -0.04806677944400297720  0.00174549763970483483  0.00137707922670740634 -0.00046488963063765528 0.21507422012016325086 0.35767286948425064397 0.01377632441368752125 0.00001729101310499548 0.00001643519308806912 0.00001744057732779364
1520530331.600746 0.00000000000000000000 0.00000000000000000000 0.00000000000000000000 0.00000000000000000000 0.00000000000000000000 0.00000000000000000000 -0.04278626978484850740  0.06617113330343460387 -0.04931054166449647114  0.00178341437076505265  0.00136228391564379618 -0.00057239674580467862 0.21447322591933323799 0.35709207232790823872 0.01380504528300405612 0.00001725448022776864 0.00001641124642665524 0.00001741031684735429
1520530331.700481 0.00000000000000000000 0.00000000000000000000 0.00000000000000000000 0.00000000000000000000 0.00000000000000000000 0.00000000000000000000 -0.03679688240594326115  0.06551652730926343926 -0.05159099083186589191  0.00175876989585865818  0.00137443776898988116 -0.00056100455948746930 0.21285535704735683571 0.35619483740810675698 0.01386427665317231661 0.00001730078500038073 0.00001643118684140082 0.00001739845895083567
1520530331.750483 0.00000000000000000000 0.00000000000000000000 0.00000000000000000000 0.00000000000000000000 0.00000000000000000000 0.00000000000000000000 -0.03826740230598362630  0.06373568124467414442 -0.05278573021842353219  0.00175334666646034852  0.00162932296181555894 -0.00057059342793628514 0.21218094160296932515 0.35541787934345908662 0.01390263976812864538 0.00001728160044194031 0.00001642836902540976 0.00001739695758157166
1520530331.850486 0.00000000000000000000 0.00000000000000000000 0.00000000000000000000 0.00000000000000000000 0.00000000000000000000 0.00000000000000000000 -0.03455843838333638035  0.04756692144793264049 -0.05352587068766541389  0.00173078393095385812  0.00169670034778844452 -0.00056923291795716951 0.21057207544416917111 0.35348557802410462969 0.01399285561925682313 0.00001734656444177255 0.00001643450484654017 0.00001746151673212499
1520530331.950489 0.00000000000000000000 0.00000000000000000000 0.00000000000000000000 0.00000000000000000000 0.00000000000000000000 0.00000000000000000000 -0.03556307481262812459  0.05453911361689749854 -0.05324949533261329193  0.00181799208421876937  0.00172615267352400621 -0.00073686266036053472 0.20857325047020383590 0.34981966391037871977 0.01409461622071929432 0.00001738342782865353 0.00001642963472863943 0.00001749653912630123
1520530332.050387 0.00000000000000000000 0.00000000000000000000 0.00000000000000000000 0.00000000000000000000 0.00000000000000000000 0.00000000000000000000 -0.02641860659108413723  0.06118983206629903526 -0.05139472409602157538  0.00204356685721157833  0.00185149688573059933 -0.00070163320284877143 0.20615851091801698503 0.34550598907471286036 0.01419751766236814969 0.00001744912448604254 0.00001643761989270105 0.00001749627962497560
1520530332.150390 0.00000000000000000000 0.00000000000000000000 0.00000000000000000000 0.00000000000000000000 0.00000000000000000000 0.00000000000000000000 -0.01751216155167324012  0.06514450628931511833 -0.05026355786489968697  0.00224194308821779303  0.00194570303392073646 -0.00077230582959666647 0.20344433956230587035 0.34139995270418965756 0.01428805567371169323 0.00001743645251749858 0.00001648661638237591 0.00001755996989128799
1520530332.250393 0.00000000000000000000 0.00000000000000000000 0.00000000000000000000 0.00000000000000000000 0.00000000000000000000 0.00000000000000000000 -0.00983764985674637910  0.05971845085693470306 -0.04876437861849839545  0.00235517937858330424  0.00161965406090073421 -0.00070847447178624305 0.20047594214587075023 0.33743037384059948458 0.01435271304115587690 0.00001743237302100398 0.00001650352816943366 0.00001753586602877442
1520530332.350396 0.00000000000000000000 0.00000000000000000000 0.00000000000000000000 0.00000000000000000000 0.00000000000000000000 0.00000000000000000000 -0.00569174549869004912  0.06537820394775160915 -0.04793468895889327341  0.00268603467518002724  0.00135359564861169449 -0.00084390998277873404 0.19681188610689706597 0.33203537090780538277 0.01439900319707366691 0.00001738411077462749 0.00001641446395979579 0.00001749423782085023
1520530332.450399 0.00000000000000000000 0.00000000000000000000 0.00000000000000000000 0.00000000000000000000 0.00000000000000000000 0.00000000000000000000 -0.00548591123108274625  0.05430460650352156998 -0.04637265710067451502  0.00270072212500471927  0.00111172621146548027 -0.00098266862419169997 0.19298907609815324493 0.32678609295013938407 0.01443072782995356330 0.00001737668020716448 0.00001637665133407684 0.00001744612880885870
1520530332.550483 0.00000000000000000000 0.00000000000000000000 0.00000000000000000000 0.00000000000000000000 0.00000000000000000000 0.00000000000000000000 -0.00612721621300496132  0.04596698541416287254 -0.04749917306008923784  0.00284767240779515169  0.00099429009965403166 -0.00094613793139744073 0.18911575985658057864 0.32172599217612668498 0.01445172319123824885 0.00001743271074412230 0.00001637624249680857 0.00001736287922824464
1520530332.650488 0.00000000000000000000 0.00000000000000000000 0.00000000000000000000 0.00000000000000000000 0.00000000000000000000 0.00000000000000000000 -0.00662216474959841615  0.04879811038809664381 -0.04944242059884829121  0.00297002974419456915  0.00080142099294873111 -0.00093330000906679134 0.18554421638499293823 0.31717142294019012860 0.01446772093085333007 0.00001738848677458452 0.00001634132873648329 0.00001724983123883793
1520530332.750491 0.00000000000000000000 0.00000000000000000000 0.00000000000000000000 0.00000000000000000000 0.00000000000000000000 0.00000000000000000000 -0.00681247885768800510  0.03901707435519261025 -0.04934534100287563813  0.00319703552446215728  0.00051376596815637875 -0.00091150648468067458 0.18213441053930279345 0.31315116279008547995 0.01449293099552114925 0.00001716648530157463 0.00001620573857153449 0.00001698514252692025
1520530332.850494 0.00000000000000000000 0.00000000000000000000 0.00000000000000000000 0.00000000000000000000 0.00000000000000000000 0.00000000000000000000 -0.00907696489231969196  0.02708129232208129206 -0.04908332333135556613  0.00342330524678024833  0.00034046424488205686 -0.00080110326014349632 0.17899738987223823283 0.31008844343525582277 0.01452693866908980752 0.00001708481890575222 0.00001614684412362517 0.00001696939315383970
1520530332.900164 0.00000000000000000000 0.00000000000000000000 0.00000000000000000000 0.00000000000000000000 0.00000000000000000000 0.00000000000000000000 -0.00569014179823552034  0.02754691889916436459 -0.04894296174777224007  0.00355582998434464739  0.00023791909682380094 -0.00069712951883781462 0.17755170547608883913 0.30892222237952110531 0.01454661836940912036 0.00001708430996990123 0.00001615588377691157 0.00001702512101727892
1520530333.000168 0.00000000000000000000 0.00000000000000000000 0.00000000000000000000 0.00000000000000000000 0.00000000000000000000 0.00000000000000000000 -0.01068498859693174825  0.02355781161487026029 -0.04704004002072382368  0.00365243665747479965  0.00008470190856448228 -0.00052817563224818130 0.17515290997848462218 0.30720964872781519883 0.01458521331312194469 0.00001711316742683301 0.00001621758686802223 0.00001713781785917026
1520530333.100171 0.00000000000000000000 0.00000000000000000000 0.00000000000000000000 0.00000000000000000000 0.00000000000000000000 0.00000000000000000000 -0.00469288456922289064  0.02649441774682803619 -0.04881496353893704371  0.00356892600677701996 -0.00019726330688914659 -0.00054411773462063298 0.17317029183081858457 0.30672971092457329556 0.01459226153105882585 0.00001721777963366242 0.00001636408578048947 0.00001736367105675811
1520530333.200174 0.00000000000000000000 0.00000000000000000000 0.00000000000000000000 0.00000000000000000000 0.00000000000000000000 0.00000000000000000000 -0.00026930847845287845  0.03048198793627942410 -0.05065787928030707210  0.00363775348552868331 -0.00024593608431054432 -0.00044956112348781509 0.17197429483384896187 0.30676446623725123208 0.01458005786455424807 0.00001717560171808633 0.00001636651248646357 0.00001733437934445564
1520530333.300608 0.00000000000000000000 0.00000000000000000000 0.00000000000000000000 0.00000000000000000000 0.00000000000000000000 0.00000000000000000000  0.00084353043646252996  0.02614141232176744878 -0.05064975627466662689  0.00377054856166855138 -0.00029352786792347400 -0.00034768416769959240 0.17071148213081821510 0.30676290491325480803 0.01456412454166908579 0.00001708096249169683 0.00001631603492713903 0.00001731798454205215
1520530333.400612 0.00000000000000000000 0.00000000000000000000 0.00000000000000000000 0.00000000000000000000 0.00000000000000000000 0.00000000000000000000  0.00485931158527152900  0.02227274977976172882 -0.05135060015648439113  0.00377773938311039541 -0.00026289599745393094 -0.00029013674734201176 0.16949026584538434692 0.30635575374337958854 0.01454782289495075605 0.00001735908355067586 0.00001642059649898686 0.00001754857436141568
1520530333.500615 0.00000000000000000000 0.00000000000000000000 0.00000000000000000000 0.00000000000000000000 0.00000000000000000000 0.00000000000000000000  0.00402151329476448972  0.02921501058457446134 -0.05161517725111889471  0.00387841829039279381 -0.00009190311485919504 -0.00032028275375753357 0.16768426394124641421 0.30492361384444038874 0.01453544170770811571 0.00001745456249300017 0.00001645038624066223 0.00001764225740268849
1520530333.650619 0.00000000000000000000 0.00000000000000000000 0.00000000000000000000 0.00000000000000000000 0.00000000000000000000 0.00000000000000000000  0.00697304038529214434  0.05119949543555250837 -0.05463123381904307768  0.00373894693201061445  0.00013862353403964250 -0.00028129743218656872 0.16406158588279878829 0.29918338395427751530 0.01448306486509710542 0.00001766543623170122 0.00001665204390843709 0.00001785850855514459
1520530333.700541 0.00000000000000000000 0.00000000000000000000 0.00000000000000000000 0.00000000000000000000 0.00000000000000000000 0.00000000000000000000  0.00648615721098854368  0.05378628831290402368 -0.05550595239922617719  0.00363345788554874467  0.00043228780313323098 -0.00033818913977401476 0.16247824945983338485 0.29712905682680645914 0.01446415161724888369 0.00001774016364576399 0.00001673139159773311 0.00001795523677302564
1520530333.800544 0.00000000000000000000 0.00000000000000000000 0.00000000000000000000 0.00000000000000000000 0.00000000000000000000 0.00000000000000000000  0.01038062868964380846  0.05274553680289967295 -0.05741777680688098934  0.00371419228546723693  0.00087263966535269181 -0.00032501353793825012 0.15914832809591827889 0.29267137710547547202 0.01441956368194916537 0.00001768013755790359 0.00001669891378762782 0.00001797490158587282
1520530333.850545 0.00000000000000000000 0.00000000000000000000 0.00000000000000000000 0.00000000000000000000 0.00000000000000000000 0.00000000000000000000  0.01343751135108094304  0.05214501123112347258 -0.05795744620051469786  0.00385194455369058291  0.00109072915140733234 -0.00048042409235469878 0.15739247573781042777 0.29045647357706194658 0.01439574753961950747 0.00001763220796310858 0.00001663373320806875 0.00001793741632220665
1520530333.950549 0.00000000000000000000 0.00000000000000000000 0.00000000000000000000 0.00000000000000000000 0.00000000000000000000 0.00000000000000000000  0.02014017595425661097  0.05916083887544167086 -0.05981768490931656246  0.00396600824400575140  0.00117053021629266274 -0.00050609616680690210 0.15417900289734620678 0.28549653786197171090 0.01434337076307508861 0.00001766232056861704 0.00001668245661796756 0.00001794853445918428
1520530334.000561 0.00000000000000000000 0.00000000000000000000 0.00000000000000000000 0.00000000000000000000 0.00000000000000000000 0.00000000000000000000  0.02241674748118889157  0.05996672170520146034 -0.06022616957225031958  0.00391191364682336954  0.00117753075936609906 -0.00053465385738183312 0.15281178285797755723 0.28290595623776776391 0.01431017547552270244 0.00001759228846638995 0.00001668496723013555 0.00001796386260700078
1520530334.100216 0.00000000000000000000 0.00000000000000000000 0.00000000000000000000 0.00000000000000000000 0.00000000000000000000 0.00000000000000000000  0.02597837370026484863  0.04861618058986874602 -0.05954396830070723956  0.00386562577996934706  0.00104524050031786918 -0.00056095189027169433 0.15066738622522621305 0.27824251740887667728 0.01424245690989851126 0.00001753149104204361 0.00001671116172278056 0.00001788168619091589
1520530334.350224 0.00000000000000000000 0.00000000000000000000 0.00000000000000000000 0.00000000000000000000 0.00000000000000000000 0.00000000000000000000  0.02536349189085831957  0.01801428693689936106 -0.05025105140109091539  0.00361374847718552673  0.00059730685758167443 -0.00048955970037624461 0.14813256549369779869 0.26874924221539292502 0.01408868799898450354 0.00001764474182590948 0.00001688007811190794 0.00001790809639997801
1520530334.450227 0.00000000000000000000 0.00000000000000000000 0.00000000000000000000 0.00000000000000000000 0.00000000000000000000 0.00000000000000000000  0.02963033527263900235  0.01422500764323965557 -0.04952498675927270722  0.00368978127767114958  0.00033213917639831171 -0.00065751431776409585 0.14776677576798974423 0.26604916040075504702 0.01401607366199672175 0.00001767411249234034 0.00001673613979407323 0.00001769133983571386
1520530334.550086 0.00000000000000000000 0.00000000000000000000 0.00000000000000000000 0.00000000000000000000 0.00000000000000000000 0.00000000000000000000  0.03011430928896974626  0.01266762184539112386 -0.04947144047405135914  0.00352101466498299168  0.00021106769575261907 -0.00069475427325342489 0.14755826478973571581 0.26411195840295270676 0.01396209635017615740 0.00001772286260083287 0.00001674893056169381 0.00001761331373273225
1520530334.650089 0.00000000000000000000 0.00000000000000000000 0.00000000000000000000 0.00000000000000000000 0.00000000000000000000 0.00000000000000000000  0.03018707527683148900  0.00916896210109875015 -0.04852064507875269994  0.00347481258588634712  0.00017055577424928176 -0.00079367194508027459 0.14755395683311056665 0.26343047466233848741 0.01393433591454335853 0.00001782375345150631 0.00001682644963717895 0.00001768248073412421
1520530334.750092 0.00000000000000000000 0.00000000000000000000 0.00000000000000000000 0.00000000000000000000 0.00000000000000000000 0.00000000000000000000  0.03198369892668931347  0.00398106552079219907 -0.04679344830994146970  0.00349070101572127988  0.00005866607638504535 -0.00075003846038441035 0.14755601669819318200 0.26293630431073822251 0.01392826777185960339 0.00001788567944295687 0.00001680813025269060 0.00001774164738413316
1520530334.850095 0.00000000000000000000 0.00000000000000000000 0.00000000000000000000 0.00000000000000000000 0.00000000000000000000 0.00000000000000000000  0.03337385723008545746 -0.00158020144215524259 -0.04526988007454107316  0.00354098952050720985 -0.00008474253253858251 -0.00068409256939194535 0.14753702906217258661 0.26234834393753803106 0.01394555763297146769 0.00001791219465552445 0.00001675287416086644 0.00001772389233020738
1520530334.950928 0.00000000000000000000 0.00000000000000000000 0.00000000000000000000 0.00000000000000000000 0.00000000000000000000 0.00000000000000000000  0.03730330901149393058 -0.00650276619668547790 -0.04750429750454462224  0.00357446101016236067 -0.00013428152191465639 -0.00077685859164678989 0.14751757639594831328 0.26198634723465757945 0.01397184317922387127 0.00001789897297135047 0.00001680552702929339 0.00001757817574103058
1520530335.050931 0.00000000000000000000 0.00000000000000000000 0.00000000000000000000 0.00000000000000000000 0.00000000000000000000 0.00000000000000000000  0.03961435991346124591 -0.00744754377718788788 -0.05152287939617804235  0.00367956612107674151  0.00009119338681918112 -0.00075592800219603904 0.14739966117403863199 0.26144101713173006907 0.01398899872817568543 0.00001742796224836856 0.00001660812561517865 0.00001735626981083409
1520530335.150934 0.00000000000000000000 0.00000000000000000000 0.00000000000000000000 0.00000000000000000000 0.00000000000000000000 0.00000000000000000000  0.03812973673263152230 -0.00007654280807594023 -0.05309605471198591137  0.00381885778863333631  0.00018193270480073337 -0.00058195114755151835 0.14732156180042918492 0.26073139563444341915 0.01404021586249739467 0.00001750607378888268 0.00001663094458736788 0.00001765814538068258
1520530335.250937 0.00000000000000000000 0.00000000000000000000 0.00000000000000000000 0.00000000000000000000 0.00000000000000000000 0.00000000000000000000  0.03800685944409987888  0.00163799194662085298 -0.05277219864247415654  0.00399022827185359797  0.00000294756243743478 -0.00071293956202237167 0.14722261601073582948 0.25958708134915836618 0.01411277714165363149 0.00001781143321647301 0.00001677526069710183 0.00001789697710730716
1520530335.351457 0.00000000000000000000 0.00000000000000000000 0.00000000000000000000 0.00000000000000000000 0.00000000000000000000 0.00000000000000000000  0.03953594893925588272  0.00472036698462917868 -0.05218050144407222757  0.00393737608470647992 -0.00009037219169348716 -0.00066508826502874698 0.14703058463255133659 0.25812604941968825267 0.01418695867447826268 0.00001783226547413016 0.00001677226340614202 0.00001790460903427928
1520530335.451459 0.00000000000000000000 0.00000000000000000000 0.00000000000000000000 0.00000000000000000000 0.00000000000000000000 0.00000000000000000000  0.04345754208630075999  0.00913254149444451754 -0.05147356410318312120  0.00402242949250716537 -0.00031602247609268568 -0.00057749448772564580 0.14675709694273800232 0.25659786907742176965 0.01425952485170843727 0.00001762095423788731 0.00001667452699796965 0.00001763843363587258
1520530335.551462 0.00000000000000000000 0.00000000000000000000 0.00000000000000000000 0.00000000000000000000 0.00000000000000000000 0.00000000000000000000  0.04519889021162142723  0.01506931123309338330 -0.04987938159913635205  0.00406996910659336748 -0.00040971221715079654 -0.00056015735544643393 0.14642109873435563139 0.25529601830692538744 0.01433064914598284126 0.00001739903470730445 0.00001656010094677082 0.00001748193561316928
1520530335.651465 0.00000000000000000000 0.00000000000000000000 0.00000000000000000000 0.00000000000000000000 0.00000000000000000000 0.00000000000000000000  0.04574609219766705148  0.01590075482162041365 -0.04922537235956636614  0.00398630458844563551 -0.00052218118074099143 -0.00042935504421184152 0.14605612023294090029 0.25479170956399954662 0.01438374296292625233 0.00001727940266715929 0.00001649169148680062 0.00001734842761789550
1520530335.750223 0.00000000000000000000 0.00000000000000000000 0.00000000000000000000 0.00000000000000000000 0.00000000000000000000 0.00000000000000000000  0.04523736047866683957  0.01930568921200692331 -0.04751415685376566417  0.00387418276801741821 -0.00066857195828194692 -0.00030665008820059310 0.14567412662458917305 0.25455327500205693347 0.01442948932108564265 0.00001727541209465175 0.00001647502326362397 0.00001739932815858793
1520530335.850226 0.00000000000000000000 0.00000000000000000000 0.00000000000000000000 0.00000000000000000000 0.00000000000000000000 0.00000000000000000000  0.04536460505336845084  0.02343567806847623655 -0.04520250916164026550  0.00371149774606539503 -0.00097860417569011339 -0.00016063217406146581 0.14523112939327817439 0.25418359347258756564 0.01447287349470433374 0.00001728712966252317 0.00001643934229087322 0.00001740083563666375
1520530335.950229 0.00000000000000000000 0.00000000000000000000 0.00000000000000000000 0.00000000000000000000 0.00000000000000000000 0.00000000000000000000  0.04597002269073291458  0.02821970169883020185 -0.04396013750960633265  0.00358388544555404958 -0.00113505509594538623 -0.00009998767061159452 0.14480631501515434101 0.25411722858138641179 0.01450807525438719756 0.00001739133368306754 0.00001652904382444117 0.00001763103333136895
1520530336.050232 0.00000000000000000000 0.00000000000000000000 0.00000000000000000000 0.00000000000000000000 0.00000000000000000000 0.00000000000000000000  0.04446475025336185660  0.02787465662882089232 -0.04409788360108259780  0.00367370012701742502 -0.00107560715591892026 -0.00018818471818679076 0.14429722747941589600 0.25422348858687882078 0.01453052906682959257 0.00001752747971804852 0.00001665980927545686 0.00001778241489257908
1520530336.150177 0.00000000000000000000 0.00000000000000000000 0.00000000000000000000 0.00000000000000000000 0.00000000000000000000 0.00000000000000000000  0.04805968232026406467  0.02417291550680482001 -0.04650328668768892448  0.00379832276151128309 -0.00106835927352498051 -0.00029860167600096610 0.14380260730443819583 0.25431131650369681596 0.01452602036060824178 0.00001754930408506453 0.00001661168038348025 0.00001782111902064689
1520530336.250180 0.00000000000000000000 0.00000000000000000000 0.00000000000000000000 0.00000000000000000000 0.00000000000000000000 0.00000000000000000000  0.05287249344786447425  0.02560964130394713725 -0.04928501221764033935  0.00384297825713306000 -0.00109169308616582136 -0.00026929305609880679 0.14331204957346571627 0.25401108766644853176 0.01450820102243512329 0.00001747050053798184 0.00001655499581913144 0.00001781041374324894
1520530336.350183 0.00000000000000000000 0.00000000000000000000 0.00000000000000000000 0.00000000000000000000 0.00000000000000000000 0.00000000000000000000  0.05954113943173895696  0.01965457482466109046 -0.04953072658531638278  0.00406518385484128022 -0.00108826827338997872 -0.00025701051036769565 0.14292546963246993696 0.25348642920499209197 0.01448158269258655907 0.00001744850989488503 0.00001652124308420798 0.00001782987714457341
1520530336.450186 0.00000000000000000000 0.00000000000000000000 0.00000000000000000000 0.00000000000000000000 0.00000000000000000000 0.00000000000000000000  0.06406072908855443837  0.01784291411107452596 -0.04922184716451917519  0.00425143101535173980 -0.00102423084111418665 -0.00032153715560479218 0.14256696120541412220 0.25232940604172049426 0.01443030741444151048 0.00001716138857167309 0.00001645701345387560 0.00001773068545922854
1520530336.550582 0.00000000000000000000 0.00000000000000000000 0.00000000000000000000 0.00000000000000000000 0.00000000000000000000 0.00000000000000000000  0.06747405752245806687  0.01933929391140710996 -0.04696357691414163732  0.00454250666892738828 -0.00087041344303397626 -0.00020446948622298503 0.14214537253639092373 0.25083397839690629860 0.01436911286017533533 0.00001688752936096965 0.00001640063909883379 0.00001773415796010999
1520530336.650586 0.00000000000000000000 0.00000000000000000000 0.00000000000000000000 0.00000000000000000000 0.00000000000000000000 0.00000000000000000000  0.06909787091822444660  0.01864990428613156823 -0.04463004612134232468  0.00488937139596873089 -0.00074067280546887156  0.00011789060480836360 0.14154934299733987202 0.24891289297374846745 0.01430673895357798334 0.00001665419291286259 0.00001626707251689636 0.00001741834072843525
1520530336.750588 0.00000000000000000000 0.00000000000000000000 0.00000000000000000000 0.00000000000000000000 0.00000000000000000000 0.00000000000000000000  0.07265030927533318306  0.00784913503534726865 -0.04316007747567675301  0.00503924849923913839 -0.00058112322583975988  0.00022786409987984651 0.14081379935333809827 0.24724754630982953563 0.01424642789735909403 0.00001667030180011007 0.00001623459921273962 0.00001711405139554312
1520530336.850591 0.00000000000000000000 0.00000000000000000000 0.00000000000000000000 0.00000000000000000000 0.00000000000000000000 0.00000000000000000000  0.07520940691306973735  0.00526174867472751183 -0.04343578705342576035  0.00490283910777816918 -0.00037892835050915978  0.00013587960630435551 0.14004735645300106506 0.24595793881107999579 0.01419095981513952831 0.00001673317890876823 0.00001623649235297466 0.00001713889993153760
1520530336.950594 0.00000000000000000000 0.00000000000000000000 0.00000000000000000000 0.00000000000000000000 0.00000000000000000000 0.00000000000000000000  0.08297045600070532267  0.02398694424776570688 -0.04485640572139389104  0.00475186375594255188 -0.00022760313153601951 -0.00005792448957651706 0.13932500851153994947 0.24543397000444736045 0.01414939999295364119 0.00001675823534241341 0.00001618093090840919 0.00001715698662920225
1520530337.050259 0.00000000000000000000 0.00000000000000000000 0.00000000000000000000 0.00000000000000000000 0.00000000000000000000 0.00000000000000000000  0.08715502771215574707  0.03359210152916365655 -0.04473995217262170809  0.00466456526593946909 -0.00007747974378428508 -0.00004538384679138660 0.13860453079609466598 0.24513340732902705321 0.01413440279404242980 0.00001670326388350455 0.00001615170569800515 0.00001713064502922469
1520530337.150262 0.00000000000000000000 0.00000000000000000000 0.00000000000000000000 0.00000000000000000000 0.00000000000000000000 0.00000000000000000000  0.09128680609373365784  0.03434905442755847860 -0.04504538545249105880 0.00457145423930314238 0.00002946512448738416 0.00001172145211408817 0.13782710203784717673 0.24512715796831410775 0.01414026847566926363 0.00001666185912336898 0.00001612108244919943 0.00001702060382670510
1520530337.250265 0.00000000000000000000 0.00000000000000000000 0.00000000000000000000 0.00000000000000000000 0.00000000000000000000 0.00000000000000000000  0.09555575985817732487  0.03491467687734962216 -0.04624328572756584987  0.00455823313576823441  0.00013310103973156821 -0.00002638396599399856 0.13708699283670774949 0.24530630645727355410 0.01414734470407584543 0.00001679317229735530 0.00001616704394211235 0.00001695929355719968
1520530337.350269 0.00000000000000000000 0.00000000000000000000 0.00000000000000000000 0.00000000000000000000 0.00000000000000000000 0.00000000000000000000  0.10019021475881807748  0.03922395000375168694 -0.04813853240644387632  0.00467206209560624367  0.00036792654004980341 -0.00020378708364654412 0.13636970075860502249 0.24539217158018802878 0.01414230203832396796 0.00001690486885179592 0.00001624240874536441 0.00001718398562403496
1520530337.450303 0.00000000000000000000 0.00000000000000000000 0.00000000000000000000 0.00000000000000000000 0.00000000000000000000 0.00000000000000000000  0.10339318707776370965  0.04264007123161642904 -0.04889488556321924112  0.00465768335517135340  0.00054213362846401291 -0.00032741771931510318 0.13575913574534811956 0.24536142499233043468 0.01412130236499011156 0.00001693550994978764 0.00001624800387329887 0.00001715074844745074
1520530337.550306 0.00000000000000000000 0.00000000000000000000 0.00000000000000000000 0.00000000000000000000 0.00000000000000000000 0.00000000000000000000  0.10614546932866367190  0.04389375682072101797 -0.05044520971823054228  0.00466571087211906706  0.00036769119198574069 -0.00042088476206737839 0.13521106718352765563 0.24492185655176101911 0.01406677550366663976 0.00001698681622449451 0.00001632296113042095 0.00001718528500514019
1520530337.650309 0.00000000000000000000 0.00000000000000000000 0.00000000000000000000 0.00000000000000000000 0.00000000000000000000 0.00000000000000000000  0.10368365983226640603  0.04868621296161648043 -0.05195420280958009535  0.00472784099383212215  0.00031828702766331331 -0.00042250363026306517 0.13474494828983193950 0.24347264261433340660 0.01396987972350017225 0.00001708967915915201 0.00001638727706491095 0.00001728313363958389
1520530337.750312 0.00000000000000000000 0.00000000000000000000 0.00000000000000000000 0.00000000000000000000 0.00000000000000000000 0.00000000000000000000  0.10542328298845850265  0.04772364870190635294 -0.05191928587856549371  0.00468612534533685739  0.00004920477215096183 -0.00043680491687135212 0.13430175764486571022 0.24136141114165929333 0.01386582500896374470 0.00001723135418380299 0.00001648655135234607 0.00001748901558793123
1520530337.800854 0.00000000000000000000 0.00000000000000000000 0.00000000000000000000 0.00000000000000000000 0.00000000000000000000 0.00000000000000000000  0.10805911527455151766  0.04898674517334260237 -0.05166474579473429724  0.00477771567038428897 -0.00025168422790922460 -0.00044540284351192292 0.13391974839390591301 0.23999708050232351764 0.01381841643094381365 0.00001712485553596170 0.00001631131827486677 0.00001733179101109746
1520530337.950858 0.00000000000000000000 0.00000000000000000000 0.00000000000000000000 0.00000000000000000000 0.00000000000000000000 0.00000000000000000000  0.10542021085594227570  0.04703055810109620788 -0.05050728289061950926  0.00471103101493440708 -0.00033958044390368293 -0.00036475025909931053 0.13290113801003863858 0.23606823053776729293 0.01370875889780788504 0.00001717696386525658 0.00001623673572632096 0.00001726274760774416
1520530338.050862 0.00000000000000000000 0.00000000000000000000 0.00000000000000000000 0.00000000000000000000 0.00000000000000000000 0.00000000000000000000  0.10469671319023954315  0.05084372615572083087 -0.05059826312539564969  0.00474251588117251266 -0.00063232270101066634 -0.00023916745245943410 0.13206192787306234027 0.23326189846726580468 0.01365154662789764065 0.00001728003966438844 0.00001626381961576816 0.00001730179147209215
1520530338.150864 0.00000000000000000000 0.00000000000000000000 0.00000000000000000000 0.00000000000000000000 0.00000000000000000000 0.00000000000000000000  0.10520126118819764227  0.06371173481372689740 -0.05029811371894512412  0.00478215213859155622 -0.00082788582081161030 -0.00016499618897546984 0.13098469948643037819 0.23066301028927724270 0.01360297923956616667 0.00001735751763106952 0.00001628080202985237 0.00001737809850892930
1520530338.250473 0.00000000000000000000 0.00000000000000000000 0.00000000000000000000 0.00000000000000000000 0.00000000000000000000 0.00000000000000000000  0.09841589962246910517  0.07202829932620624653 -0.04854564309620245516  0.00479503133827440843 -0.00087030358162720387 -0.00012458603299980646 0.12984862029871760414 0.22883366090048889996 0.01356205772955956269 0.00001728525108759814 0.00001627139235194472 0.00001738201092494052
1520530338.400477 0.00000000000000000000 0.00000000000000000000 0.00000000000000000000 0.00000000000000000000 0.00000000000000000000 0.00000000000000000000  0.09256527058770373795  0.08460344170291821120 -0.05071124687818304166  0.00476243196306387877 -0.00105456406960790974 -0.00003757836643416336 0.12796258161163706624 0.22596985479700376631 0.01349367661650830406 0.00001714592948508618 0.00001618575043300617 0.00001705436331356943
1520530338.500480 0.00000000000000000000 0.00000000000000000000 0.00000000000000000000 0.00000000000000000000 0.00000000000000000000 0.00000000000000000000  0.08597112195706899107  0.09138761888082384821 -0.05034087869344935906  0.00474430108918113668 -0.00123012615639531684 -0.00004295169493540848 0.12675354572541669418 0.22458886119940885129 0.01346531041359446887 0.00001699309171730112 0.00001602604717500992 0.00001688381676130412
1520530338.600260 0.00000000000000000000 0.00000000000000000000 0.00000000000000000000 0.00000000000000000000 0.00000000000000000000 0.00000000000000000000  0.07949494845712659630  0.09384209478369651136 -0.04909165389860671580  0.00465442134578018286 -0.00126767346916130657 -0.00006546868910921724 0.12565017009564327655 0.22343259552934102707 0.01345823675529513909 0.00001702281513218624 0.00001602304750791379 0.00001695211467734426
1520530338.700263 0.00000000000000000000 0.00000000000000000000 0.00000000000000000000 0.00000000000000000000 0.00000000000000000000 0.00000000000000000000  0.07237438447869093405  0.09716000153307394194 -0.04937556814463099630  0.00457673633587070677 -0.00130510183705666630 -0.00003016399130303549 0.12462749007942180990 0.22236294442443771402 0.01346372832156592265 0.00001698500389940750 0.00001599716030824968 0.00001687897572939127
1520530338.800266 0.00000000000000000000 0.00000000000000000000 0.00000000000000000000 0.00000000000000000000 0.00000000000000000000 0.00000000000000000000  0.06734434599161766288  0.09595629558281446037 -0.05085293086854660027  0.00453491490845410548 -0.00129494478025871953  0.00005133669834129627 0.12367902608801525921 0.22146715951178314041 0.01347775222896109570 0.00001668395261303434 0.00001595943940823172 0.00001667757904096476
1520530338.900269 0.00000000000000000000 0.00000000000000000000 0.00000000000000000000 0.00000000000000000000 0.00000000000000000000 0.00000000000000000000  0.06217989017863091716  0.09602604895893947223 -0.05105965948006405131  0.00449684162810288102 -0.00136335262446298606  0.00015872618795287195 0.12283780526892157381 0.22064030527756434141 0.01349761672946593952 0.00001640939503076822 0.00001592797758207606 0.00001647859874949230
1520530339.000272 0.00000000000000000000 0.00000000000000000000 0.00000000000000000000 0.00000000000000000000 0.00000000000000000000 0.00000000000000000000  0.05795366347766479909  0.09760202507207546563 -0.05054620218406738474  0.00448936351044947144 -0.00133865211218087924  0.00017668122257104982 0.12220968487789758694 0.21979526735255908165 0.01352802391359479543 0.00001640669339616755 0.00001594762390054001 0.00001643387753506163
1520530339.050959 0.00000000000000000000 0.00000000000000000000 0.00000000000000000000 0.00000000000000000000 0.00000000000000000000 0.00000000000000000000  0.05866698368255080648  0.09626249680037864132 -0.05218303356664935611  0.00447974409474654299 -0.00145268257490962127  0.00029316127932456717 0.12202834770741297077 0.21960155292127461757 0.01353621715865965802 0.00001661378552008518 0.00001595949649284967 0.00001633826069563044
1520530339.150962 0.00000000000000000000 0.00000000000000000000 0.00000000000000000000 0.00000000000000000000 0.00000000000000000000 0.00000000000000000000  0.06028606009065919785  0.09026107419211920613 -0.05471477495752070930  0.00433225515302278555 -0.00147732162725611378  0.00037606061815870489 0.12165673624276913956 0.21927692253952912882 0.01355626966142391664 0.00001663333171791936 0.00001602517650529038 0.00001640076780097002
1520530339.250965 0.00000000000000000000 0.00000000000000000000 0.00000000000000000000 0.00000000000000000000 0.00000000000000000000 0.00000000000000000000  0.06271914498029353136  0.08884612273444779385 -0.05543732238997135797  0.00434272535148457709 -0.00153404186493004261  0.00043612224809781421 0.12139970563502260059 0.21888124484927071189 0.01357944704980426111 0.00001650133443331675 0.00001603368442223093 0.00001643572918189761
1520530339.350968 0.00000000000000000000 0.00000000000000000000 0.00000000000000000000 0.00000000000000000000 0.00000000000000000000 0.00000000000000000000  0.06462555919621018607  0.08796142830102528232 -0.05490500442258625796  0.00458616508205010251 -0.00145011435957848002  0.00041883454060921189 0.12128038623197127943 0.21842290661604740754 0.01360875186338803347 0.00001620739150837621 0.00001594852203537547 0.00001637881171670592
1520530339.451687 0.00000000000000000000 0.00000000000000000000 0.00000000000000000000 0.00000000000000000000 0.00000000000000000000 0.00000000000000000000  0.07130885076122507604  0.08685119579976016690 -0.05425415910410669867  0.00457239231609344546 -0.00112521740512479826  0.00051984812467594952 0.12130142052015793763 0.21803952935748555086 0.01363586919729602685 0.00001604864528123075 0.00001595694724437536 0.00001630293014628271
1520530339.551690 0.00000000000000000000 0.00000000000000000000 0.00000000000000000000 0.00000000000000000000 0.00000000000000000000 0.00000000000000000000  0.07343925894219860417  0.08116427935971691487 -0.05414098038930844486  0.00455720339462005464 -0.00091242307612762784  0.00042343410411076990 0.12131745595969357920 0.21781644277947515009 0.01364916887369939380 0.00001603785088925545 0.00001603974266735108 0.00001631781431615123
1520530339.651693 0.00000000000000000000 0.00000000000000000000 0.00000000000000000000 0.00000000000000000000 0.00000000000000000000 0.00000000000000000000  0.07478568654507440627  0.08707133277606000921 -0.05344024027418736722  0.00444854931296793672 -0.00072964812309095730  0.00033694943247535508 0.12114375575590950740 0.21684107854547982064 0.01368442940663527722 0.00001602626438539285 0.00001612952075174350 0.00001621293285922354
1520530339.751697 0.00000000000000000000 0.00000000000000000000 0.00000000000000000000 0.00000000000000000000 0.00000000000000000000 0.00000000000000000000  0.07508331911857601959  0.08613051558413907516 -0.05304948429491004869  0.00459054153208337742 -0.00060872909373199484  0.00018205741914854981 0.12062730917752884086 0.21551832925032238242 0.01372259968542581532 0.00001602505826288764 0.00001615731254863533 0.00001621777507880169
1520530339.851056 0.00000000000000000000 0.00000000000000000000 0.00000000000000000000 0.00000000000000000000 0.00000000000000000000 0.00000000000000000000  0.07521700377795048631  0.08303619944500353900 -0.05287468625613783724  0.00472252887095882604 -0.00060396794283646739 -0.00000084479462546311 0.11985577298456429052 0.21409002351006564679 0.01375919797939509359 0.00001616087231708084 0.00001623411103342052 0.00001646075228189960
1520530339.951059 0.00000000000000000000 0.00000000000000000000 0.00000000000000000000 0.00000000000000000000 0.00000000000000000000 0.00000000000000000000  0.07610337331412218853  0.07661475938293915711 -0.05319337154141648427  0.00468453193221840102 -0.00053700637042775490 -0.00031740510977391515 0.11873313084484028723 0.21253101093599527371 0.01379724427563640797 0.00001634930284937559 0.00001627091823628775 0.00001660863980664262
1520530340.051062 0.00000000000000000000 0.00000000000000000000 0.00000000000000000000 0.00000000000000000000 0.00000000000000000000 0.00000000000000000000  0.07151685111986515186  0.06973568461903630056 -0.05486727533555044861  0.00481414313365871940 -0.00029716669740046991 -0.00040790944180006585 0.11739381690729409902 0.21134830521471123510 0.01383492780724968410 0.00001637012101093454 0.00001631169549178774 0.00001663278164983108
1520530340.151065 0.00000000000000000000 0.00000000000000000000 0.00000000000000000000 0.00000000000000000000 0.00000000000000000000 0.00000000000000000000  0.07327260892962303429  0.07156386130978210913 -0.05553588611022175492  0.00489228868389138261 -0.00011213575930723784 -0.00059288820946519201 0.11581032774156176102 0.20984854415550155404 0.01388315474043342809 0.00001616968789714173 0.00001620700114052611 0.00001650588786314734
1520530340.250395 0.00000000000000000000 0.00000000000000000000 0.00000000000000000000 0.00000000000000000000 0.00000000000000000000 0.00000000000000000000  0.07705342160147614361  0.06957550167024176280 -0.05486497730567251041  0.00474232101660974990 -0.00012584304013700314 -0.00058822050161324484 0.11426834437134816835 0.20806651798541442311 0.01394331567710675387 0.00001609455239624279 0.00001619595690878041 0.00001651618554736804
1520530340.350399 0.00000000000000000000 0.00000000000000000000 0.00000000000000000000 0.00000000000000000000 0.00000000000000000000 0.00000000000000000000  0.07794657826426636127  0.06554577495361228745 -0.05496055004030828833  0.00459205842684260509 -0.00014137070481857802 -0.00059303391853134308 0.11273054218789313463 0.20648564542392106036 0.01401166015541899235 0.00001613797289414392 0.00001620342628928836 0.00001659846694979719
1520530340.450401 0.00000000000000000000 0.00000000000000000000 0.00000000000000000000 0.00000000000000000000 0.00000000000000000000 0.00000000000000000000  0.07671562487650961104  0.05850677696490383384 -0.05597264492123528445  0.00450218354550071045 -0.00005806958750044708 -0.00049247916838765927 0.11129604833324634183 0.20526603955267191948 0.01408027083688656415 0.00001620625007867869 0.00001613958503041800 0.00001656549478262635
1520530340.550404 0.00000000000000000000 0.00000000000000000000 0.00000000000000000000 0.00000000000000000000 0.00000000000000000000 0.00000000000000000000  0.08105822249634517251  0.05984685223061896042 -0.05610051047787462108  0.00453695010165976274  0.00010179000508782536 -0.00052343304821941209 0.11002294270633512785 0.20456870488681230813 0.01415219864876261779 0.00001624215663664408 0.00001615871974161621 0.00001658983170204975
1520530340.650347 0.00000000000000000000 0.00000000000000000000 0.00000000000000000000 0.00000000000000000000 0.00000000000000000000 0.00000000000000000000  0.08232669970392453296  0.05600166769080962281 -0.05722434868914057227  0.00464820206727651654  0.00019094019582301491 -0.00052222300417119805 0.10892154994950239977 0.20392967852071569590 0.01421701491273315299 0.00001637538285320568 0.00001614061193033186 0.00001658052187764247
1520530340.750350 0.00000000000000000000 0.00000000000000000000 0.00000000000000000000 0.00000000000000000000 0.00000000000000000000 0.00000000000000000000  0.08484408103692579750  0.05515388798302409828 -0.05821722309039600168  0.00475968632489075141  0.00029536370253683056 -0.00057577822462561410 0.10799805036082253673 0.20363338471039330035 0.01427251932650905157 0.00001637471631407136 0.00001605219087352668 0.00001645700232399906
1520530340.900354 0.00000000000000000000 0.00000000000000000000 0.00000000000000000000 0.00000000000000000000 0.00000000000000000000 0.00000000000000000000  0.08646142634249624759  0.05227582241399462287 -0.05807040722337092342  0.00470225940040173811  0.00016614669245857935 -0.00042894655635896935 0.10714546013014446257 0.20358415925092998577 0.01432208193707881078 0.00001662405267427483 0.00001630800481392179 0.00001677895722364025
1520530341.050774 0.00000000000000000000 0.00000000000000000000 0.00000000000000000000 0.00000000000000000000 0.00000000000000000000 0.00000000000000000000  0.08859644131914254372  0.05198570471239465085 -0.05883908824375044810  0.00481407440312020801 -0.00010974169039202651 -0.00033928557555980608 0.10657805937651249062 0.20354600099953812364 0.01432732827239527849 0.00001664258618917448 0.00001622181272367192 0.00001668590098364957
1520530341.250780 0.00000000000000000000 0.00000000000000000000 0.00000000000000000000 0.00000000000000000000 0.00000000000000000000 0.00000000000000000000  0.09244345623759812891  0.05160280834166870723 -0.06079045848533474322  0.00502362470263784458 -0.00072826028226562396 -0.00023450761920436786 0.10611633616409843484 0.20303019918581474701 0.01429878513474550257 0.00001671990436981191 0.00001618387469679751 0.00001678558421726018
1520530341.400785 0.00000000000000000000 0.00000000000000000000 0.00000000000000000000 0.00000000000000000000 0.00000000000000000000 0.00000000000000000000  0.09454118979017714364  0.04516885174206817372 -0.05954273753007142955  0.00497063883202430046 -0.00099576263700429488  0.00003451324184454523 0.10589541183563618010 0.20261033308818771070 0.01429323588403516414 0.00001667279027605804 0.00001611742850651886 0.00001674402103825423
1520530341.600716 0.00000000000000000000 0.00000000000000000000 0.00000000000000000000 0.00000000000000000000 0.00000000000000000000 0.00000000000000000000  0.09013310723436759875  0.04395957446721975720 -0.06030264517779785477  0.00492136602162782967 -0.00090999621352496707  0.00017412997002281207 0.10545181006124222656 0.20206849673763496722 0.01428333668725450221 0.00001636019500467036 0.00001593802191085424 0.00001646103435925559
1520530341.850723 0.00000000000000000000 0.00000000000000000000 0.00000000000000000000 0.00000000000000000000 0.00000000000000000000 0.00000000000000000000  0.08932183527804082868  0.05871970184408487059 -0.05898179185552410858  0.00470407525499606446 -0.00061725426729954071  0.00010601039501984063 0.10488224925160598289 0.20119996364453310300 0.01428998664765855110 0.00001619632995171178 0.00001584288321499805 0.00001629590191219850
1520530341.950578 0.00000000000000000000 0.00000000000000000000 0.00000000000000000000 0.00000000000000000000 0.00000000000000000000 0.00000000000000000000  0.09064318307624176507  0.06007525948097506424 -0.05853577504519218849  0.00453985641098876656 -0.00060050206904436532  0.00002180921128887466 0.10463276787743883145 0.20062285255737052903 0.01428687651224702128 0.00001606679034388136 0.00001582469820855055 0.00001613230343718580
1520530342.150549 0.00000000000000000000 0.00000000000000000000 0.00000000000000000000 0.00000000000000000000 0.00000000000000000000 0.00000000000000000000  0.08970328474839751876  0.06867603109350170487 -0.06153835824835252044 0.00441720645254582798 0.00006099361826550627 0.00002570181050180528 0.10426168847478685386 0.19892207292261543383 0.01425898640191990488 0.00001606317028607790 0.00001580773592409522 0.00001619825116012124
1520530342.300673 0.00000000000000000000 0.00000000000000000000 0.00000000000000000000 0.00000000000000000000 0.00000000000000000000 0.00000000000000000000  0.08778698951983796017  0.07256028281343909758 -0.06227214165433987009  0.00444063229950529634  0.00031460352583811556 -0.00010109495362999687 0.10401064136932908211 0.19722392420525503010 0.01422411694899637299 0.00001602727897991923 0.00001573570622873823 0.00001620694682307408
1520530342.450678 0.00000000000000000000 0.00000000000000000000 0.00000000000000000000 0.00000000000000000000 0.00000000000000000000 0.00000000000000000000  0.08765175093033024389  0.07781059528914746615 -0.06043768466732798994  0.00452953478755172955  0.00035711517251393491 -0.00023633686057370807 0.10370253719729900788 0.19538752204105211407 0.01418739121780655463 0.00001598053755687028 0.00001569437437191992 0.00001606104068782916
1520530342.600683 0.00000000000000000000 0.00000000000000000000 0.00000000000000000000 0.00000000000000000000 0.00000000000000000000 0.00000000000000000000  0.08892516322738402978  0.08303006147279794191 -0.05966181355374792356  0.00459807093583612051  0.00014465889275784761 -0.00010418835193906764 0.10328666497312299910 0.19337084460872455693 0.01414977744684285839 0.00001605828805942787 0.00001570560981451360 0.00001620206127037899
1520530342.750644 0.00000000000000000000 0.00000000000000000000 0.00000000000000000000 0.00000000000000000000 0.00000000000000000000 0.00000000000000000000  0.08641600463600110360  0.09031927978112833100 -0.05943928136238017801  0.00454823660486413078  0.00009864003289046838 -0.00006400279164756188 0.10271348552466287585 0.19050304106933962922 0.01411088013321292606 0.00001609373394753808 0.00001570933165488767 0.00001635771143395888
1520530342.900649 0.00000000000000000000 0.00000000000000000000 0.00000000000000000000 0.00000000000000000000 0.00000000000000000000 0.00000000000000000000  0.08277353186905701821  0.09447697018446830908 -0.06103618139082312571 0.00453577134200736608 0.00004327513423065792 0.00002528026382260152 0.10188208205815828256 0.18618873815534789373 0.01405936616584258295 0.00001617775008548698 0.00001568614289162708 0.00001640785014151541
