1520530315.499642 0.00000000000000000000 0.00000000000000000000 0.00000000000000000000 0.00000000000000000000 0.00000000000000000000 0.00000000000000000000 -0.93045320296572942009  0.43685900064199195691  0.00370390280767543415 -0.00017236315296347658  0.00023278577981142710  0.00001796386328713977 4.90124438266276474252 6.67151741912912932264 0.06917275171078447749 0.00002801017551141611 0.00002814133499431600 0.00002792685120967844
1520530315.649646 0.00000000000000000000 0.00000000000000000000 0.00000000000000000000 0.00000000000000000000 0.00000000000000000000 0.00000000000000000000 -1.77287035239673951281 -0.11813770817162552729  0.09887485198672260611 -0.00061588134860236679 -0.00011992307253756361  0.00001055413636380127 3.94057419349109938622 5.76657723916304476575 0.06891104329028079067 0.00002770520035513715 0.00002715524127002504 0.00002712025964721984
1520530315.799640 0.00000000000000000000 0.00000000000000000000 0.00000000000000000000 0.00000000000000000000 0.00000000000000000000 0.00000000000000000000 -1.47388508599997081205 -0.25388846394566733089  0.06739327719030679953 -0.00053895557774347755 -0.00026132029579168265 -0.00010022399413702805 3.60130994357040590259 5.02623400851830748337 0.06112561066697613787 0.00002764195645328593 0.00002661235941591311 0.00002682842449146202
1520530315.899643 0.00000000000000000000 0.00000000000000000000 0.00000000000000000000 0.00000000000000000000 0.00000000000000000000 0.00000000000000000000 -1.35067150833882543282 -0.31619352511873211053  0.09113273373967069324 -0.00080236995884859573 -0.00035207890748087443 -0.00033352535124566270 3.24693680675675544478 5.19395427757938232816 0.12656642963388539669 0.00002773744160468259 0.00002632937659888340 0.00002669416392078198
1520530316.100221 0.00000000000000000000 0.00000000000000000000 0.00000000000000000000 0.00000000000000000000 0.00000000000000000000 0.00000000000000000000 -0.97194977715806263330 -0.34470367580209837488  0.04344487784231641780 -0.00125454687972283044 -0.00024026762233644072 -0.00082221504284450588 3.40367268033698211482 4.80620558868738978475 0.12488450750121388166 0.00002740871545545643 0.00002561983305881280 0.00002644260299274209
1520530316.250226 0.00000000000000000000 0.00000000000000000000 0.00000000000000000000 0.00000000000000000000 0.00000000000000000000 0.00000000000000000000 -0.55584227829683463540  0.08305240227504601114 -0.05071974575011383574 -0.00105436889654333043 -0.00023509931933073084 -0.00089590816836232707 3.15433092703429673875 4.71351942695400705219 0.12261598902857433202 0.00002639740787903423 0.00002511575563893098 0.00002580962036762285
1520530316.400230 0.00000000000000000000 0.00000000000000000000 0.00000000000000000000 0.00000000000000000000 0.00000000000000000000 0.00000000000000000000 -0.49247856595538896940  0.06227091178879877453 -0.01308439105204195138 -0.00067623644499148646 -0.00033828949092947863 -0.00090898685542007578 2.82592641818899448225 4.38869929724926421954 0.03706007795655396481 0.00002563963082236398 0.00002468060140221767 0.00002510058928430843
1520530316.550276 0.00000000000000000000 0.00000000000000000000 0.00000000000000000000 0.00000000000000000000 0.00000000000000000000 0.00000000000000000000 -0.45864526904063013246  0.04763274936443419316 -0.01519364308468745817 -0.00038804068408493191 -0.00034534834871493029 -0.00065476881748962321 2.55303700802487254506 4.03580111136288355311 0.03475614559852512053 0.00002507195563555060 0.00002428059730242299 0.00002434790708655599
1520530316.750283 0.00000000000000000000 0.00000000000000000000 0.00000000000000000000 0.00000000000000000000 0.00000000000000000000 0.00000000000000000000 -0.44173843769975201790  0.02381658987617058659 -0.01769616052565977163 -0.00056525531715490333 -0.00011468021392415711 -0.00060957218208756905 2.34688196699068196693 3.67977177130966648377 0.03306397824432365240 0.00002487768084279393 0.00002389462028190779 0.00002382841086698696
1520530316.949773 0.00000000000000000000 0.00000000000000000000 0.00000000000000000000 0.00000000000000000000 0.00000000000000000000 0.00000000000000000000 -0.46363948977221619563 -0.02212959112580389215 -0.01693871478880409551 -0.00050840886265961097 -0.00023551272945831426 -0.00072590003802476208 2.20638819203331459917 3.31076908808392600392 0.03204744055367270139 0.00002490877875712956 0.00002371256469655217 0.00002351557631098490
1520530317.049776 0.00000000000000000000 0.00000000000000000000 0.00000000000000000000 0.00000000000000000000 0.00000000000000000000 0.00000000000000000000 -0.46089759134086444314 -0.10081153464595249414 -0.01734513267987837504 -0.00057628118988835449 -0.00035446283341056354 -0.00074760808969042054 2.15254573384793435054 3.13438351938205084224 0.03170832721629370660 0.00002417207137989502 0.00002357292394857609 0.00002341928328006684
1520530317.199781 0.00000000000000000000 0.00000000000000000000 0.00000000000000000000 0.00000000000000000000 0.00000000000000000000 0.00000000000000000000 -0.50065962321823753722 -0.13060657909518655351 -0.01253739586708140646 -0.00064708400436608760 -0.00035469727444574636 -0.00038823337537103426 2.46618414547967690353 3.60778249192520705790 0.03973110009069504012 0.00002501559661677280 0.00002360483321326116 0.00002410435791383751
1520530317.349743 0.00000000000000000000 0.00000000000000000000 0.00000000000000000000 0.00000000000000000000 0.00000000000000000000 0.00000000000000000000 -0.53322163781932030435 -0.07266029357941215794 -0.01516574962128069796 -0.00088809979128307351 -0.00079041807842388835 -0.00052706299105493421 2.42919979870993607562 3.41178329582320039037 0.03908741773110027684 0.00002533843627109653 0.00002336917394173028 0.00002411600017215910
1520530317.549752 0.00000000000000000000 0.00000000000000000000 0.00000000000000000000 0.00000000000000000000 0.00000000000000000000 0.00000000000000000000 -0.55313275654881355337 -0.05548976019958246075 -0.01341770150599192607 -0.00115884164174335515 -0.00068971199015236339 -0.00053132456174048335 2.40383554180433689496 3.02255045405548639081 0.03835544232277664223 0.00002598519776536929 0.00002318916092589898 0.00002392264827762606
1520530317.699755 0.00000000000000000000 0.00000000000000000000 0.00000000000000000000 0.00000000000000000000 0.00000000000000000000 0.00000000000000000000 -0.50142432803351355552 -0.24095902922941622726 -0.00212016298475988527 -0.00114465043153849600 -0.00047563672588371575 -0.00057503331278675827 2.37445559771273595473 2.61620642640666289935 0.03699894348145531947 0.00002606671546622540 0.00002319841819260078 0.00002372411325889055
1520530317.800239 0.00000000000000000000 0.00000000000000000000 0.00000000000000000000 0.00000000000000000000 0.00000000000000000000 0.00000000000000000000 -0.54524485446192860749 -0.79420623690137437389  0.04391289228823683222 -0.00094895424867027177 -0.00036716368803221171 -0.00047083984304276610 1.71507071140408218213 1.35790891474926156413 0.02957900809982861798 0.00002539521095932278 0.00002287673973830129 0.00002306351004059025
1520530317.950243 0.00000000000000000000 0.00000000000000000000 0.00000000000000000000 0.00000000000000000000 0.00000000000000000000 0.00000000000000000000 -0.59633383321516264530 -0.79630642718882638231  0.06771762098271923158 -0.00098779272770798711 -0.00030724020104001994 -0.00055804658856735802 1.08555500340804900183 0.53347254118658737898 0.02475838669137336856 0.00002453372128567295 0.00002234216509080628 0.00002288372940608903
1520530318.100248 0.00000000000000000000 0.00000000000000000000 0.00000000000000000000 0.00000000000000000000 0.00000000000000000000 0.00000000000000000000 -0.89296397381947634209 -0.49835702330277864558  0.04828738742662872646 -0.00099177972937437072 -0.00024717714688440970 -0.00072095200099608458 1.05797848918802683826 0.56811051393494393924 0.02525515263510806283 0.00002471852458610073 0.00002232238595455167 0.00002299162644696309
1520530318.200769 0.00000000000000000000 0.00000000000000000000 0.00000000000000000000 0.00000000000000000000 0.00000000000000000000 0.00000000000000000000 -0.66886994182217718308  0.05359576835878785556 -0.02133714375341210640 -0.00090292485879559957 -0.00023447727266860696 -0.00052580079547122165 1.22517921116735517550 0.76689040741833414128 0.03923686448866100379 0.00002476042698595523 0.00002252173364677688 0.00002306725832096125
1520530318.350774 0.00000000000000000000 0.00000000000000000000 0.00000000000000000000 0.00000000000000000000 0.00000000000000000000 0.00000000000000000000 -0.44567655290695312731  0.05439822427713369990 -0.02133188260888074783 -0.00093123096790901380 -0.00015168797180902785 -0.00021639982550759090 1.95332389354731184028 2.15703143241071693126 0.03636841302541365950 0.00002426088598248172 0.00002200416585819672 0.00002262155226778462
1520530318.500778 0.00000000000000000000 0.00000000000000000000 0.00000000000000000000 0.00000000000000000000 0.00000000000000000000 0.00000000000000000000 -0.41172136334509162880  0.07520276280144948255 -0.02504103900405348082 -0.00074813196349048658 -0.00008995712598024831 -0.00002704465498025859 1.85757359673528776867 2.11368078704374751098 0.03570176849999096014 0.00002427274512375170 0.00002178994618546190 0.00002244473083599526
1520530318.650568 0.00000000000000000000 0.00000000000000000000 0.00000000000000000000 0.00000000000000000000 0.00000000000000000000 0.00000000000000000000 -0.35502569232816916234  0.10024742082558869838 -0.03222192719219306445 -0.00073130764781670257 -0.00016976233086726575 -0.00022452685555136292 1.72389132468473649240 2.07375238331492939281 0.03452200353006647932 0.00002439987438918409 0.00002170974761712971 0.00002245074595645985
1520530318.800573 0.00000000000000000000 0.00000000000000000000 0.00000000000000000000 0.00000000000000000000 0.00000000000000000000 0.00000000000000000000 -0.30052033865573779536  0.14894612089509604025 -0.04104116298871517826 -0.00081509154448756375 -0.00024376482586175167 -0.00014651281136386602 1.56939612929041749645 2.03326041896704801104 0.03300969405673406104 0.00002347732942401383 0.00002142348988504870 0.00002219908415882000
1520530318.950577 0.00000000000000000000 0.00000000000000000000 0.00000000000000000000 0.00000000000000000000 0.00000000000000000000 0.00000000000000000000 -0.26700083662592855038  0.15970397451822337942 -0.04717462876321083798 -0.00060347606305218157 -0.00039526793497072902 -0.00001277856460760882 1.41632146924787272191 1.97047301264419827405 0.03181200935424224191 0.00002321102723367644 0.00002123095083356818 0.00002191191296096225
1520530319.049958 0.00000000000000000000 0.00000000000000000000 0.00000000000000000000 0.00000000000000000000 0.00000000000000000000 0.00000000000000000000 -0.22290359935555004167  0.09695070372693515015 -0.05236081577644682156 -0.00068592739649268972 -0.00037051487929048689  0.00011544708411134686 1.33242050946017465130 1.92996477627495788276 0.03147180118670762916 0.00002315507142160195 0.00002112641096998546 0.00002191108616898051
1520530319.149961 0.00000000000000000000 0.00000000000000000000 0.00000000000000000000 0.00000000000000000000 0.00000000000000000000 0.00000000000000000000 -0.19457271361410108379  0.09309280046272765119 -0.04412596942129681094 -0.00070211458113904562 -0.00038014194083093829  0.00010811251602746574 1.25340634571121056773 1.86822458406875990811 0.02313597290259129108 0.00002224199926948272 0.00002099778822199879 0.00002177894887514176
1520530319.249964 0.00000000000000000000 0.00000000000000000000 0.00000000000000000000 0.00000000000000000000 0.00000000000000000000 0.00000000000000000000 -0.15766860432413681847  0.08278357948239684072 -0.04549184991859085009 -0.00082419321311556705 -0.00038638981963964809  0.00018980615637529262 1.18294947664712779556 1.80343065048142836559 0.02303090880628433715 0.00002240438573712325 0.00002081010567320152 0.00002166268877756841
1520530319.399832 0.00000000000000000000 0.00000000000000000000 0.00000000000000000000 0.00000000000000000000 0.00000000000000000000 0.00000000000000000000 -0.12887047572631932235  0.07822200824323970181 -0.04691457461850988969 -0.00070690522157473975 -0.00035311911376590863  0.00015046831139285205 1.11162887021451806113 1.71115762673867233268 0.02293364003602233955 0.00002340874745188904 0.00002065975038132003 0.00002151270444142258
1520530319.549837 0.00000000000000000000 0.00000000000000000000 0.00000000000000000000 0.00000000000000000000 0.00000000000000000000 0.00000000000000000000 -0.10188327232022749425  0.08881437771915963453 -0.04819358783575736216 -0.00070060098289215851 -0.00018343022849202654  0.00026063008534467602 1.05261670893197156751 1.62733306930112808786 0.02285082600735576647 0.00002345024358149302 0.00002053005863683895 0.00002148086384035499
1520530319.699841 0.00000000000000000000 0.00000000000000000000 0.00000000000000000000 0.00000000000000000000 0.00000000000000000000 0.00000000000000000000 -0.11631536012669807523  0.09079101043399784299 -0.04657531810023635838 -0.00052645040007315237  0.00003491303854252995  0.00044527559157967275 1.00830923389246196464 1.57057402075743901548 0.02284168134243996437 0.00002291597129850577 0.00002027720981393695 0.00002102419968441611
1520530319.800341 0.00000000000000000000 0.00000000000000000000 0.00000000000000000000 0.00000000000000000000 0.00000000000000000000 0.00000000000000000000 -0.10853301924324922079  0.08953842635670773709 -0.04574227562351243503 -0.00051710704405714188  0.00006008901548233688  0.00038175118434494523 0.99167024513177914891 1.55100658714103722957 0.02288888230409863098 0.00002284209688801227 0.00002024461443711823 0.00002097028630876424
1520530319.900344 0.00000000000000000000 0.00000000000000000000 0.00000000000000000000 0.00000000000000000000 0.00000000000000000000 0.00000000000000000000 -0.10647612548945045718  0.09140475103360382048 -0.04402546223230603684 -0.00056402429966001728 -0.00001160538122810210  0.00020991182363523585 0.98593283388179941973 1.54337841513910922764 0.02287427097436886547 0.00002302040076674618 0.00002037759697753428 0.00002122924458691805
1520530320.000347 0.00000000000000000000 0.00000000000000000000 0.00000000000000000000 0.00000000000000000000 0.00000000000000000000 0.00000000000000000000 -0.10658817349014762521  0.08835483069648961130 -0.04267335468712901703 -0.00069677426192435313 -0.00006919105316280210  0.00018793238326317077 0.97609499827448742426 1.53786908178707437678 0.02273166510788006758 0.00002255228171322835 0.00002045078853289981 0.00002108018961706411
1520530320.100350 0.00000000000000000000 0.00000000000000000000 0.00000000000000000000 0.00000000000000000000 0.00000000000000000000 0.00000000000000000000 -0.10405389496499704849  0.08736270134128648612 -0.04181488514158988173 -0.00065880043810092454 -0.00016158587291004165  0.00020768139510430174 0.96856694286178934838 1.53826038882836613197 0.02250947547441495972 0.00002214527355238191 0.00002029020645810199 0.00002058390469716611
1520530320.200401 0.00000000000000000000 0.00000000000000000000 0.00000000000000000000 0.00000000000000000000 0.00000000000000000000 0.00000000000000000000 -0.10873399866303114225  0.09513822947755150305 -0.04146902963345611148 -0.00042045782924373483 -0.00012511609315014028  0.00022894497278827129 0.95789963240338182882 1.53382967145616322391 0.02226480447483810202 0.00002163708179639572 0.00002002094935030944 0.00002024903291343913
1520530320.300404 0.00000000000000000000 0.00000000000000000000 0.00000000000000000000 0.00000000000000000000 0.00000000000000000000 0.00000000000000000000 -0.11290590476857370605  0.09773577603197207420 -0.04124955015574330308 -0.00036428654136989527 -0.00010415256661986540  0.00007948005398919193 0.94827975180218992968 1.52509761305127811148 0.02202262092174493355 0.00002112970550541258 0.00001977401826952585 0.00002004358283278089
1520530320.450408 0.00000000000000000000 0.00000000000000000000 0.00000000000000000000 0.00000000000000000000 0.00000000000000000000 0.00000000000000000000 -0.12263037156546126305  0.10471940959331210719 -0.04054548053804079427 -0.00021134175097418083 -0.00010406041778817297 -0.00002406495114666746 0.92718347087102859216 1.49815427359260522344 0.02167139696681541147 0.00002069397245576134 0.00001952400868836969 0.00001988014573676177
1520530320.599869 0.00000000000000000000 0.00000000000000000000 0.00000000000000000000 0.00000000000000000000 0.00000000000000000000 0.00000000000000000000 -0.12940554476354357294  0.10185590780952656631 -0.04006164290431443731 -0.00029872339432330234 -0.00029755328373002037 -0.00020702875289339080 0.89511970052645062346 1.43266863865275850820 0.02120609931819308208 0.00002057070661775379 0.00001939943954056018 0.00001980400892402395
1520530320.649871 0.00000000000000000000 0.00000000000000000000 0.00000000000000000000 0.00000000000000000000 0.00000000000000000000 0.00000000000000000000 -0.11049112383871860510  0.07489023973557930314 -0.03998265260915901537 -0.00038905951508129888 -0.00027771992058894384 -0.00027261977522114903 0.87954233063472897491 1.40503182444258900574 0.02101841990606680491 0.00002056587290636428 0.00001940928220859776 0.00001979835990988678
1520530320.749874 0.00000000000000000000 0.00000000000000000000 0.00000000000000000000 0.00000000000000000000 0.00000000000000000000 0.00000000000000000000 -0.09911286858179434167  0.06670301567373924934 -0.04244420480934813639 -0.00035284415571511506 -0.00036728216569124195 -0.00035828902794055994 0.85041326437548803163 1.33996990487301914641 0.02064535386720524335 0.00002052986526402504 0.00001934703809363921 0.00001980511547589643
1520530320.899879 0.00000000000000000000 0.00000000000000000000 0.00000000000000000000 0.00000000000000000000 0.00000000000000000000 0.00000000000000000000 -0.07998667593144025145  0.04630617099887767568 -0.04347951170902066703 -0.00029483203421262863 -0.00037430082280475287 -0.00027927675439859536 0.80436446070078237991 1.24000491483137431636 0.02013908624180689444 0.00002097808233225872 0.00001953538963934198 0.00002003774879650714
1520530321.049740 0.00000000000000000000 0.00000000000000000000 0.00000000000000000000 0.00000000000000000000 0.00000000000000000000 0.00000000000000000000 -0.06289666445605870959  0.07650111121628538902 -0.04806665464162168666 -0.00026390240127986431 -0.00015460590642838714 -0.00022927537001423684 0.75728650380984940949 1.15196097290939847291 0.01965398800422288664 0.00002055686120546712 0.00001914646352764760 0.00001986138892455376
1520530321.149743 0.00000000000000000000 0.00000000000000000000 0.00000000000000000000 0.00000000000000000000 0.00000000000000000000 0.00000000000000000000 -0.04659557979327481891  0.04416612407704334498 -0.04719621733732499991 -0.00027432967616475144  0.00007085472113473817 -0.00018999707667590967 0.72580378924975752497 1.11291526525690320781 0.01943154645610695175 0.00002025216256503435 0.00001897106463111968 0.00001960546108254603
1520530321.249747 0.00000000000000000000 0.00000000000000000000 0.00000000000000000000 0.00000000000000000000 0.00000000000000000000 0.00000000000000000000 -0.05612427754468538033  0.05521659944247873930 -0.04908965880489295219 -0.00025283734067023942  0.00045426890780222350 -0.00021301527111090317 0.69859134176550308215 1.07665263239750497171 0.01921909739290803693 0.00002084988422395509 0.00001927351362592721 0.00001986078628001237
1520530321.399751 0.00000000000000000000 0.00000000000000000000 0.00000000000000000000 0.00000000000000000000 0.00000000000000000000 0.00000000000000000000 -0.04988650066954163076  0.08087348873000652083 -0.05025054525642746323 -0.00013408922307616200  0.00032853670646945232 -0.00002205480821996480 0.66263865655110565367 1.01618870633036650908 0.01885577999716368802 0.00002081276008588361 0.00001946565669889051 0.00001994182194350420
1520530321.549859 0.00000000000000000000 0.00000000000000000000 0.00000000000000000000 0.00000000000000000000 0.00000000000000000000 0.00000000000000000000 -0.04470884212719437173  0.09449796605844480724 -0.05144504942936158065 -0.00006172264668814144  0.00035929345006167175 -0.00008357572170540064 0.63152474119156187804 0.96455607442058310941 0.01847722877772719693 0.00002076560054132550 0.00001935428622867178 0.00001983760594244479
1520530321.649862 0.00000000000000000000 0.00000000000000000000 0.00000000000000000000 0.00000000000000000000 0.00000000000000000000 0.00000000000000000000 -0.04339887912710562595  0.08543769738455174456 -0.05044399924119438022 -0.00003162714050473847  0.00033811007206541670 -0.00009653151060184627 0.61471807669769684690 0.93626430278813366215 0.01824546882157281405 0.00002088761352954612 0.00001936464052294023 0.00001982851137291579
1520530321.799867 0.00000000000000000000 0.00000000000000000000 0.00000000000000000000 0.00000000000000000000 0.00000000000000000000 0.00000000000000000000 -0.03406858859284183499  0.07826474426165239140 -0.04782295074315361105  0.00001440510250870105  0.00013978572836032284 -0.00002593237473008180 0.58981220001404865982 0.89120614603496173256 0.01780939679714360624 0.00002083924300772962 0.00001928284840461415 0.00001972426803875974
1520530321.950155 0.00000000000000000000 0.00000000000000000000 0.00000000000000000000 0.00000000000000000000 0.00000000000000000000 0.00000000000000000000 -0.04936820237498404373  0.05129865795064009887 -0.03611913499136639588 -0.00032896667172179920  0.00017043697629537941 -0.00007694233191332660 0.56699954817453346312 0.85735095666252469915 0.01748172281946046291 0.00002099025141961004 0.00001921401185975754 0.00001976421120142975
1520530322.050158 0.00000000000000000000 0.00000000000000000000 0.00000000000000000000 0.00000000000000000000 0.00000000000000000000 0.00000000000000000000 -0.04778298125929175688  0.06893608136993319147 -0.03635515942432056280 -0.00043908370358269850  0.00009482950156452694 -0.00014377564772696807 0.55170268834942270963 0.83115363499435179762 0.01716623558593388318 0.00002055033827368366 0.00001881416870623413 0.00001946750889170584
1520530322.150162 0.00000000000000000000 0.00000000000000000000 0.00000000000000000000 0.00000000000000000000 0.00000000000000000000 0.00000000000000000000 -0.05422136398571399118  0.08737062878500247154 -0.03749382601960891265 -0.00047081205305030067  0.00031217444945372161 -0.00009951122413261973 0.53854401892880243707 0.80959715649714547592 0.01692157894221288372 0.00002060457892103120 0.00001868983194259769 0.00001960932419658638
1520530322.300208 0.00000000000000000000 0.00000000000000000000 0.00000000000000000000 0.00000000000000000000 0.00000000000000000000 0.00000000000000000000 -0.05699892659813121654  0.10830822423077740568 -0.03993899254989886211 -0.00037909630369218928  0.00057647652569698380 -0.00000475342319742995 0.52100874911224703823 0.78571416840363450529 0.01669289122651751792 0.00002065865917160905 0.00001864592638977336 0.00001967245011114184
1520530322.550216 0.00000000000000000000 0.00000000000000000000 0.00000000000000000000 0.00000000000000000000 0.00000000000000000000 0.00000000000000000000 -0.05379138217201475530  0.09116211359848599982 -0.04142992403218711400 -0.00004702515431900689  0.00032914171170084108 -0.00010065941465725199 0.49738447229175697384 0.76078124042838946028 0.01660688917775383910 0.00002080218753546855 0.00001861873930885707 0.00001989392628562083
1520530322.700026 0.00000000000000000000 0.00000000000000000000 0.00000000000000000000 0.00000000000000000000 0.00000000000000000000 0.00000000000000000000 -0.05931889563307753133  0.08786871865196405063 -0.04568333880798527286  0.00003507399935358267  0.00045848428382117863 -0.00012843010865615898 0.48530497179087095372 0.74776176157033813485 0.01661332178741886309 0.00002042250488663077 0.00001848820054956865 0.00001969338440606293
1520530322.850030 0.00000000000000000000 0.00000000000000000000 0.00000000000000000000 0.00000000000000000000 0.00000000000000000000 0.00000000000000000000 -0.05302935122616202201  0.10203461849459134758 -0.04832748118477541571  0.00011705971837753100  0.00045971245442975753 -0.00018698123735643181 0.47528505608125304338 0.73411238365574316145 0.01665256496999965169 0.00002008865509348150 0.00001822564408691160 0.00001924599740956772
1520530323.050036 0.00000000000000000000 0.00000000000000000000 0.00000000000000000000 0.00000000000000000000 0.00000000000000000000 0.00000000000000000000 -0.05606652650625019302  0.10504349328198397950 -0.05061078355196852591 -0.00001807404387418668  0.00064355799153993111 -0.00005337709872255219 0.46780156554713003825 0.72093443170705318046 0.01669177870605631844 0.00001990088682413156 0.00001818544800890089 0.00001915191284999306
1520530323.200077 0.00000000000000000000 0.00000000000000000000 0.00000000000000000000 0.00000000000000000000 0.00000000000000000000 0.00000000000000000000 -0.06720217230833586131  0.10875307014395917127 -0.05168583315057200672 -0.00014743917501828157  0.00055211338539397608  0.00015582969523675037 0.46422220565015570592 0.71256171656414202253 0.01672352345332190834 0.00001960870593175268 0.00001795827680984700 0.00001882788902453962
1520530323.350082 0.00000000000000000000 0.00000000000000000000 0.00000000000000000000 0.00000000000000000000 0.00000000000000000000 0.00000000000000000000 -0.06758934540574591809  0.09982304571044356423 -0.04923396523341431325 -0.00013199615929263876  0.00044539088935376331  0.00012884469016581214 0.46212222751500786622 0.70413441258327102990 0.01665392815159816298 0.00001960698396358548 0.00001790170805640142 0.00001879368970864420
1520530323.450085 0.00000000000000000000 0.00000000000000000000 0.00000000000000000000 0.00000000000000000000 0.00000000000000000000 0.00000000000000000000 -0.04300261598677432295  0.10631501961796996358 -0.04833502653564548945 0.00010367653506526227 0.00032588451136292420 0.00014955653868134808 0.45754627651856666359 0.69278495265908179856 0.01650347523634383001 0.00001900316987378198 0.00001762994446606218 0.00001808172919162904
1520530323.550346 0.00000000000000000000 0.00000000000000000000 0.00000000000000000000 0.00000000000000000000 0.00000000000000000000 0.00000000000000000000 -0.04757859283570362030  0.09537251568402613233 -0.04688857017910573466 -0.00004313650352330714  0.00040918985373591347  0.00007031870647753029 0.45582749004869366205 0.68282934349407886643 0.01636551947624904566 0.00001889580683212451 0.00001751408633819758 0.00001790367366765643
1520530323.650349 0.00000000000000000000 0.00000000000000000000 0.00000000000000000000 0.00000000000000000000 0.00000000000000000000 0.00000000000000000000 -0.05195209618888907421  0.09401078339028465236 -0.04411737272986886865 -0.00007886421794639563  0.00050773664722169481 -0.00010248506523471420 0.45358993320363449886 0.67582703446050240714 0.01616214078674727689 0.00001876126244586316 0.00001742395804418252 0.00001787839074900441
1520530323.800354 0.00000000000000000000 0.00000000000000000000 0.00000000000000000000 0.00000000000000000000 0.00000000000000000000 0.00000000000000000000 -0.06360306040806626426  0.08420578481158730311 -0.04262412247389094078 -0.00010851423350494747  0.00051416532434715799 -0.00014979834493202853 0.45280878878065711213 0.67023680256852391501 0.01607158174520419147 0.00001860189281403312 0.00001730856309645222 0.00001768298030868834
1520530323.950154 0.00000000000000000000 0.00000000000000000000 0.00000000000000000000 0.00000000000000000000 0.00000000000000000000 0.00000000000000000000 -0.05582373924136466853  0.07250956251461912472 -0.04191268233407775129  0.00004511856180227952  0.00053886907202086744 -0.00018960316650951635 0.45312474886907483373 0.66741649848782913512 0.01603989555030362057 0.00001858933723544393 0.00001726925925197055 0.00001765021486920206
1520530324.100159 0.00000000000000000000 0.00000000000000000000 0.00000000000000000000 0.00000000000000000000 0.00000000000000000000 0.00000000000000000000 -0.05374005068902618087  0.06222140162810688852 -0.04179569554506224610  0.00013710069796463769  0.00048750276635402772 -0.00017096325679487957 0.45349026328597563662 0.66525985480583349485 0.01607008389527627909 0.00001836087106841337 0.00001719906538793016 0.00001750307724449603
1520530324.250163 0.00000000000000000000 0.00000000000000000000 0.00000000000000000000 0.00000000000000000000 0.00000000000000000000 0.00000000000000000000 -0.04746856607364146469  0.05413719303926581988 -0.04146851280352299024  0.00014976235991192904  0.00055239685037922594 -0.00024174062246033311 0.45195462276535847135 0.65973363988129485325 0.01612952576460930168 0.00001815155068595516 0.00001709041308269096 0.00001732603348472160
1520530324.349910 0.00000000000000000000 0.00000000000000000000 0.00000000000000000000 0.00000000000000000000 0.00000000000000000000 0.00000000000000000000 -0.05313508721360129389  0.05303304898355298835 -0.04402385789605740146  0.00009313954543128021  0.00054613883486584198 -0.00005876722062676892 0.44862661000149811619 0.65652730722083041393 0.01616277121833620961 0.00001791585947390368 0.00001707159390498914 0.00001719747246910646
1520530324.449913 0.00000000000000000000 0.00000000000000000000 0.00000000000000000000 0.00000000000000000000 0.00000000000000000000 0.00000000000000000000 -0.06461072466174609674  0.05955217285185965270 -0.04552423214134140167  0.00001959518540111095  0.00051588325408301902 -0.00002260697766687674 0.44832329688381783450 0.65418446607010138916 0.01622521587167138901 0.00001798808266477953 0.00001704945526451317 0.00001726648494221495
1520530324.549915 0.00000000000000000000 0.00000000000000000000 0.00000000000000000000 0.00000000000000000000 0.00000000000000000000 0.00000000000000000000 -0.06537373100805905779  0.06076372434905060599 -0.04588184459577608620 -0.00005371037150944013  0.00035817306596639531 -0.00008753040821988408 0.44765001180369640155 0.65090938563171851783 0.01628199869031148397 0.00001800798319978722 0.00001700404407790052 0.00001727094260086772
1520530324.649919 0.00000000000000000000 0.00000000000000000000 0.00000000000000000000 0.00000000000000000000 0.00000000000000000000 0.00000000000000000000 -0.06124037641624678618  0.06105137236063828271 -0.04599756446964148315 0.00000132923538501869 0.00020066311699158868 0.00000331342453355207 0.44863652985676211182 0.64694133498813455319 0.01633301285995208615 0.00001814401053945806 0.00001691738708572808 0.00001737629389850758
1520530324.750020 0.00000000000000000000 0.00000000000000000000 0.00000000000000000000 0.00000000000000000000 0.00000000000000000000 0.00000000000000000000 -0.06466005090609983075  0.03925742259347547031 -0.04417071354532606936 -0.00010900636010646951  0.00023549864696287184  0.00007879104693105686 0.44686330052255573975 0.64358772423292964771 0.01637447827406034173 0.00001800322153846467 0.00001682724258057908 0.00001722728281037688
1520530324.900024 0.00000000000000000000 0.00000000000000000000 0.00000000000000000000 0.00000000000000000000 0.00000000000000000000 0.00000000000000000000 -0.06580732188650133263  0.02793375852824805591 -0.04219031074203519888 -0.00014063637417818754  0.00011859480604385935 -0.00003113858764489545 0.44429705342992803496 0.64062437391239690498 0.01640800600039737586 0.00001804894170382153 0.00001684831605827340 0.00001732049318677295
1520530325.050029 0.00000000000000000000 0.00000000000000000000 0.00000000000000000000 0.00000000000000000000 0.00000000000000000000 0.00000000000000000000 -0.07222516731199722650  0.03439729409637218988 -0.04281069413193594464 -0.00003390129870427344 -0.00002602060973880036 -0.00010181836915733971 0.43979407862104996640 0.63632535286473479452 0.01636431409509454121 0.00001796809901532724 0.00001681823928448957 0.00001730361508625211
1520530325.150817 0.00000000000000000000 0.00000000000000000000 0.00000000000000000000 0.00000000000000000000 0.00000000000000000000 0.00000000000000000000 -0.06320129621562567412  0.03029765629928930434 -0.04329756752044122692  0.00009132388506088730  0.00008287163527913012 -0.00001526559676768174 0.43602564279604272279 0.63203131651944088887 0.01631076130118508383 0.00001789657514607750 0.00001675524736541225 0.00001720921137521722
1520530325.300822 0.00000000000000000000 0.00000000000000000000 0.00000000000000000000 0.00000000000000000000 0.00000000000000000000 0.00000000000000000000 -0.05692718224212343914  0.03454977418086868646 -0.04394847302602717526  0.00009733820291905567 -0.00008946849637663656  0.00027326556429437215 0.43052608760397653720 0.62499144406313766886 0.01621102227642437152 0.00001790728175890397 0.00001676993635360304 0.00001722971235159113
1520530325.450827 0.00000000000000000000 0.00000000000000000000 0.00000000000000000000 0.00000000000000000000 0.00000000000000000000 0.00000000000000000000 -0.06741838806733670142  0.02553255873263137951 -0.03923439182687628313 0.00008674078686278324 0.00015878622792129884 0.00060590522243413546 0.42551378177959897631 0.61862364650802892374 0.01605895969883670144 0.00001792199155223763 0.00001673152848983788 0.00001733331443846312
1520530325.650917 0.00000000000000000000 0.00000000000000000000 0.00000000000000000000 0.00000000000000000000 0.00000000000000000000 0.00000000000000000000 -0.07602074835808693420  0.01716884914922092373 -0.03788963848054922867 -0.00010295888817408580 -0.00000668490833504940  0.00044980790839180837 0.41888119379012750398 0.60680866993842308421 0.01574480510731164976 0.00001795224251589547 0.00001668325377631940 0.00001738069136365696
1520530325.850922 0.00000000000000000000 0.00000000000000000000 0.00000000000000000000 0.00000000000000000000 0.00000000000000000000 0.00000000000000000000 -0.08075520351751215575  0.02553642371307091735 -0.04034501448880115082 -0.00013425417641382213 -0.00029493124190562754  0.00033006694610872284 0.41390916145456280173 0.60049043974912241772 0.01554407052346893151 0.00001791904879066870 0.00001652185567693262 0.00001725848375536387
1520530326.000543 0.00000000000000000000 0.00000000000000000000 0.00000000000000000000 0.00000000000000000000 0.00000000000000000000 0.00000000000000000000 -0.07887960901971462213  0.03339692430646627741 -0.04370642687496498896  0.00004278651556777796 -0.00025819864468751790  0.00006976109220728192 0.40977933676302985555 0.59579980770128926348 0.01548020524356457858 0.00001799975258137902 0.00001653964501549844 0.00001728368283223780
1520530326.150548 0.00000000000000000000 0.00000000000000000000 0.00000000000000000000 0.00000000000000000000 0.00000000000000000000 0.00000000000000000000 -0.06838028992799394246  0.04734284216661959616 -0.04620303040778776793  0.00019552263402299342 -0.00018907543667144236  0.00003613205937208089 0.40563855384157360140 0.59147546660256278273 0.01548893542864429942 0.00001787219644790126 0.00001647147504100290 0.00001720712293754783
1520530326.300552 0.00000000000000000000 0.00000000000000000000 0.00000000000000000000 0.00000000000000000000 0.00000000000000000000 0.00000000000000000000 -0.06003094261296782613  0.04280581470255197946 -0.04627706939255914198  0.00021046102732393809 -0.00010241604598982350  0.00011112428268160172 0.40203806132478875357 0.58829607021737362338 0.01551175258851725941 0.00001781697693713334 0.00001637426785774006 0.00001711797725351322
1520530326.400206 0.00000000000000000000 0.00000000000000000000 0.00000000000000000000 0.00000000000000000000 0.00000000000000000000 0.00000000000000000000 -0.06529220142165048646  0.04612625959904176343 -0.04627412577490277318 0.00028405455325743395 0.00009775346677524092 0.00010707846890533389 0.39979847123056527769 0.58591408043632953184 0.01552768951994392896 0.00001793363148371535 0.00001634206660310299 0.00001714454908527509
1520530326.600213 0.00000000000000000000 0.00000000000000000000 0.00000000000000000000 0.00000000000000000000 0.00000000000000000000 0.00000000000000000000 -0.06917641558050567629  0.03183984884074003707 -0.04587355374723096901  0.00021663658107107611 -0.00006443020051600262  0.00001164250570595877 0.39460405534217035672 0.58144635782504860977 0.01555667255697707266 0.00001803556309251266 0.00001631712125302621 0.00001717671947190924
1520530326.800428 0.00000000000000000000 0.00000000000000000000 0.00000000000000000000 0.00000000000000000000 0.00000000000000000000 0.00000000000000000000 -0.07368794432591270482  0.03173243296600959662 -0.04056150221063436340 -0.00006554404354778889  0.00005574463200854444 -0.00001974780919625019 0.38899376521797252027 0.57385715418696303658 0.01556830635718131975 0.00001807430262790415 0.00001625958138750399 0.00001725133222651406
1520530327.000434 0.00000000000000000000 0.00000000000000000000 0.00000000000000000000 0.00000000000000000000 0.00000000000000000000 0.00000000000000000000 -0.07237291340046991817  0.04268961422626701974 -0.03913518918131723978 -0.00006469171132372886  0.00005480488600623827  0.00026372590707597420 0.38167230020546072389 0.56211769387604826331 0.01541077450064210798 0.00001811079323536694 0.00001623466000887343 0.00001725838608855722
1520530327.150431 0.00000000000000000000 0.00000000000000000000 0.00000000000000000000 0.00000000000000000000 0.00000000000000000000 0.00000000000000000000 -0.06449877852304267134  0.04279934483522449679 -0.03921374865267459459 -0.00024672399462318916 -0.00003252758090180192  0.00028608860797319912 0.37467456614294541994 0.55502185607788390165 0.01529610515279166034 0.00001755599204655452 0.00001607585617841748 0.00001678752847537578
1520530327.300436 0.00000000000000000000 0.00000000000000000000 0.00000000000000000000 0.00000000000000000000 0.00000000000000000000 0.00000000000000000000 -0.06097925113176712320  0.04558062894760007283 -0.04022009488423468337 -0.00024485519101215817 -0.00016898443218119438  0.00048962445748449660 0.36878282723943928145 0.55145733973526833704 0.01523448376154381417 0.00001757269744291734 0.00001604426850521533 0.00001677669523256190
1520530327.450441 0.00000000000000000000 0.00000000000000000000 0.00000000000000000000 0.00000000000000000000 0.00000000000000000000 0.00000000000000000000 -0.06386552217762249406  0.05499291108870309197 -0.04510794190405282428 -0.00000849138009229291 -0.00043562091882636315  0.00041109954835350524 0.36436223774345005699 0.54950033650668861362 0.01523824857510193247 0.00001776752844173488 0.00001608565558567508 0.00001688126686005389
1520530327.550090 0.00000000000000000000 0.00000000000000000000 0.00000000000000000000 0.00000000000000000000 0.00000000000000000000 0.00000000000000000000 -0.06134719732314782709  0.05605562022824679691 -0.04572431591336178353 -0.00004481060506220436 -0.00043495160056180758  0.00039580250887036875 0.36055101555550678194 0.54770145346357179683 0.01529653441653174017 0.00001759178304158817 0.00001610212567476454 0.00001690363324404076
1520530327.650103 0.00000000000000000000 0.00000000000000000000 0.00000000000000000000 0.00000000000000000000 0.00000000000000000000 0.00000000000000000000 -0.06176302488601621843  0.04700485519256120126 -0.04593497611951059129 -0.00003604946256849491 -0.00036797035821817557  0.00047600870104462170 0.35856012380219531854 0.54708434734810229561 0.01536585273167696657 0.00001753201157107605 0.00001609360065690091 0.00001698166599709517
1520530327.750096 0.00000000000000000000 0.00000000000000000000 0.00000000000000000000 0.00000000000000000000 0.00000000000000000000 0.00000000000000000000 -0.05540984089495622211  0.04576319697090446698 -0.04584855892807102734 -0.00014487482051330524 -0.00042643689996880064  0.00056582256119754417 0.35778186343536216851 0.54643950080092718036 0.01542448468853207036 0.00001758804515917228 0.00001612588407426893 0.00001708148117524612
1520530327.800097 0.00000000000000000000 0.00000000000000000000 0.00000000000000000000 0.00000000000000000000 0.00000000000000000000 0.00000000000000000000 -0.05833176821053108474  0.05270779620629126305 -0.04628713815730035874 -0.00015122015038160176 -0.00050426777819273906  0.00052347482325647960 0.35700889602893598473 0.54643057129907657288 0.01543885513707472443 0.00001750901047758414 0.00001612099397341183 0.00001705396407832895
1520530327.900100 0.00000000000000000000 0.00000000000000000000 0.00000000000000000000 0.00000000000000000000 0.00000000000000000000 0.00000000000000000000 -0.06472679238585900274  0.04776929218980477398 -0.04478614484177328992 -0.00015153454659850329 -0.00029626941132767113  0.00047263504071828248 0.36003265245637877667 0.54643556570778162307 0.01544269912668380651 0.00001818634671715999 0.00001642502024574035 0.00001770242435663532
1520530328.000280 0.00000000000000000000 0.00000000000000000000 0.00000000000000000000 0.00000000000000000000 0.00000000000000000000 0.00000000000000000000 -0.06833129830619270872  0.04917635785167504686 -0.04332219677924700058 -0.00016134363464185994 -0.00021838227265319376  0.00039962490737138279 0.35855893433217550514 0.54378923209954188600 0.01539306047546011059 0.00001818796668380211 0.00001647859910767885 0.00001783153226799225
1520530328.100283 0.00000000000000000000 0.00000000000000000000 0.00000000000000000000 0.00000000000000000000 0.00000000000000000000 0.00000000000000000000 -0.06970099370155920238  0.04978321080936798371 -0.04258624915592962995 -0.00008394179863497723 -0.00013729982165451210  0.00042404375936795933 0.35518296853667341573 0.53820631345591052330 0.01531221986298081199 0.00001813758515457822 0.00001645779954055458 0.00001787048277338568
1520530328.250288 0.00000000000000000000 0.00000000000000000000 0.00000000000000000000 0.00000000000000000000 0.00000000000000000000 0.00000000000000000000 -0.07425685380899721411  0.05151329710050396582 -0.04309805538444306389 0.00004981447481212329 0.00008424955997599095 0.00025514212636552138 0.34518662053668008882 0.52525594797011743164 0.01516047504241385679 0.00001813003748989628 0.00001639846215993474 0.00001792320788867677
1520530328.350291 0.00000000000000000000 0.00000000000000000000 0.00000000000000000000 0.00000000000000000000 0.00000000000000000000 0.00000000000000000000 -0.07038192628817262209  0.05273668588095553611 -0.04401023789904300737  0.00009017670182987324 -0.00001707563636312808  0.00026622610374423022 0.33448597835123961008 0.51271047090241106403 0.01504678762834332946 0.00001802061595437248 0.00001636281682113788 0.00001790373162173188
1520530328.400337 0.00000000000000000000 0.00000000000000000000 0.00000000000000000000 0.00000000000000000000 0.00000000000000000000 0.00000000000000000000 -0.06876066443911123260  0.05482698264678617650 -0.04440271920196854627 0.00011716117932229948 0.00001299724500163262 0.00016897512131288769 0.32826580457366788535 0.50620704499319912895 0.01499983062774575514 0.00001769344610348453 0.00001625237906325612 0.00001753085268761139
1520530328.500340 0.00000000000000000000 0.00000000000000000000 0.00000000000000000000 0.00000000000000000000 0.00000000000000000000 0.00000000000000000000 -0.06783621502870687547  0.05864838365975400675 -0.04426157400560559729 0.00005956172610999649 0.00008539725005695047 0.00032951410538609345 0.31552849287280293478 0.49252067755734890708 0.01489855851665744003 0.00001755665619132670 0.00001622690432211386 0.00001739465489165194
1520530328.600344 0.00000000000000000000 0.00000000000000000000 0.00000000000000000000 0.00000000000000000000 0.00000000000000000000 0.00000000000000000000 -0.06277844143526505050  0.05341553004663854992 -0.04351823456633563403 0.00008137265506408562 0.00008335232099191039 0.00028596769816759154 0.30371914086173235070 0.48020198694493326785 0.01479588792907024324 0.00001745162122966183 0.00001624627535882385 0.00001742730595983128
1520530328.700347 0.00000000000000000000 0.00000000000000000000 0.00000000000000000000 0.00000000000000000000 0.00000000000000000000 0.00000000000000000000 -0.06060175879950278899  0.05260790504865728301 -0.04420281040630349295 0.00009238917714278236 0.00011012809290739678 0.00030473074639951518 0.29416601920745766297 0.46970701000163422867 0.01469286817029574407 0.00001746977666362288 0.00001625944085022498 0.00001739830712371371
1520530328.800086 0.00000000000000000000 0.00000000000000000000 0.00000000000000000000 0.00000000000000000000 0.00000000000000000000 0.00000000000000000000 -0.06283928051611936683  0.05069628750189071609 -0.04432542541938659653 0.00010766396251057670 0.00009116251265115638 0.00025346848467756628 0.28706776364526104262 0.46086539291137229579 0.01459080426290209308 0.00001722251147449380 0.00001622749793207059 0.00001716456162392369
1520530328.900089 0.00000000000000000000 0.00000000000000000000 0.00000000000000000000 0.00000000000000000000 0.00000000000000000000 0.00000000000000000000 -0.06619269884071063426  0.04929544559202854448 -0.04425137173868107926 0.00012436535495122033 0.00010016503710069112 0.00036769572997812371 0.28263354594954614996 0.45300295921180194769 0.01447312012637159452 0.00001705225211944426 0.00001628468102067551 0.00001727492714879836
1520530329.050093 0.00000000000000000000 0.00000000000000000000 0.00000000000000000000 0.00000000000000000000 0.00000000000000000000 0.00000000000000000000 -0.06490825444534951971  0.04692267337698578789 -0.04370601559983251783 0.00009384684223875561 0.00007079844402396313 0.00050425421459737772 0.27924039630771407827 0.44220612345487519956 0.01429183505018290397 0.00001692505473000695 0.00001626486340578000 0.00001720483983836999
1520530329.150097 0.00000000000000000000 0.00000000000000000000 0.00000000000000000000 0.00000000000000000000 0.00000000000000000000 0.00000000000000000000 -0.05966635124343340479  0.04519100295507739312 -0.04368693073003839661 0.00019189664056485598 0.00005575880083208480 0.00058556181607105639 0.27838837408703442922 0.43660910186314527692 0.01418021047797894327 0.00001699588794188936 0.00001629458500362992 0.00001718470183843098
1520530329.250095 0.00000000000000000000 0.00000000000000000000 0.00000000000000000000 0.00000000000000000000 0.00000000000000000000 0.00000000000000000000 -0.05870678109073419054  0.04328349260453089042 -0.04363591103808895505 0.00011424095103517253 0.00001441789969511912 0.00063210981188684297 0.27793903956906201858 0.43111772209669230183 0.01407823128970261961 0.00001715914743603022 0.00001632554100075346 0.00001721670771932707
1520530329.350049 0.00000000000000000000 0.00000000000000000000 0.00000000000000000000 0.00000000000000000000 0.00000000000000000000 0.00000000000000000000 -0.05647553327262182232  0.03584662706617455785 -0.04254295896587430292 0.00017564440698616813 0.00001887097661082918 0.00054626841696053037 0.27702262717713560525 0.42525513346883203614 0.01397670432158553029 0.00001723133711967244 0.00001629387654432067 0.00001734514097521958
1520530329.500053 0.00000000000000000000 0.00000000000000000000 0.00000000000000000000 0.00000000000000000000 0.00000000000000000000 0.00000000000000000000 -0.05445486584455239837  0.04033840394269625623 -0.04331239143888406667  0.00021949039462732713 -0.00004430216433439293  0.00052455619225962242 0.27470585296111016405 0.41434292712227560607 0.01379919510510639429 0.00001708898173713593 0.00001636554927537834 0.00001732042229501689
1520530329.600097 0.00000000000000000000 0.00000000000000000000 0.00000000000000000000 0.00000000000000000000 0.00000000000000000000 0.00000000000000000000 -0.05441677895408252724  0.04075948666921129504 -0.04315696759446632086  0.00022617001446360014 -0.00009232022499766363  0.00051581364235419376 0.27225868358801008640 0.40727430546898524266 0.01368302341970157113 0.00001701134972966333 0.00001632518149314359 0.00001726438748158383
1520530329.700100 0.00000000000000000000 0.00000000000000000000 0.00000000000000000000 0.00000000000000000000 0.00000000000000000000 0.00000000000000000000 -0.05262015911848984956  0.04196009110421762556 -0.04301652056209226416  0.00017188917163576937 -0.00004902049790996861  0.00059918955123348559 0.26914610475040773307 0.40066810143304348868 0.01356942246979053225 0.00001688403032980692 0.00001625819081263414 0.00001712434125247201
1520530329.800104 0.00000000000000000000 0.00000000000000000000 0.00000000000000000000 0.00000000000000000000 0.00000000000000000000 0.00000000000000000000 -0.04960137468790306453  0.03832114641306970382 -0.04243037757706437374  0.00013345666717832068 -0.00001357966412417709  0.00061332922073988006 0.26580505688213934556 0.39559402530638321238 0.01346958159501617305 0.00001690496344423256 0.00001623881646525474 0.00001702868821396457
1520530329.900107 0.00000000000000000000 0.00000000000000000000 0.00000000000000000000 0.00000000000000000000 0.00000000000000000000 0.00000000000000000000 -0.04968247176090607314  0.04259091243218061235 -0.04346638754670853477 0.00018392651899767803 0.00000018649770776516 0.00058901306970134018 0.26252821824044852983 0.39261390519791927733 0.01339432632898646114 0.00001714058465994108 0.00001626250967962397 0.00001713153885895497
1520530330.000110 0.00000000000000000000 0.00000000000000000000 0.00000000000000000000 0.00000000000000000000 0.00000000000000000000 0.00000000000000000000 -0.04939979583999775520  0.04157361127791073946 -0.04365218303742478961  0.00013520390836766757 -0.00004031250193006142  0.00053162795464121136 0.25884628701339396084 0.39087545636448595143 0.01334081720764106541 0.00001701425354353174 0.00001618818049355605 0.00001722736249131135
1520530330.050161 0.00000000000000000000 0.00000000000000000000 0.00000000000000000000 0.00000000000000000000 0.00000000000000000000 0.00000000000000000000 -0.05103456755693482755  0.04066607485224333490 -0.04376447847395303209  0.00004923467815028968 -0.00000364943296983586  0.00045092670327185957 0.25655908510434477510 0.39010069448719753016 0.01331828698540842362 0.00001689729093179182 0.00001610718994844955 0.00001702660200310671
1520530330.150164 0.00000000000000000000 0.00000000000000000000 0.00000000000000000000 0.00000000000000000000 0.00000000000000000000 0.00000000000000000000 -0.05044269635210717195  0.04177227259791757574 -0.04367000195133934753 -0.00001468195129161729  0.00005590742861472071  0.00049040039369789969 0.25236047223370228210 0.38960768321615946164 0.01328892596934252469 0.00001685561119789741 0.00001616201710753153 0.00001714444359479977
1520530330.250167 0.00000000000000000000 0.00000000000000000000 0.00000000000000000000 0.00000000000000000000 0.00000000000000000000 0.00000000000000000000 -0.05113840893581938357  0.04096454198781090267 -0.04308427003815992751 -0.00009901842545500607  0.00011968432935759864  0.00061175519820314645 0.24802862286132393299 0.38798851878974099927 0.01325858289500164711 0.00001677052877484475 0.00001618025586172817 0.00001694864048048103
1520530330.300169 0.00000000000000000000 0.00000000000000000000 0.00000000000000000000 0.00000000000000000000 0.00000000000000000000 0.00000000000000000000 -0.04903140544817459479  0.03632028079149312444 -0.04252155581137900126 -0.00007480373281273528  0.00014469955393430156  0.00065307547786861841 0.24569912123509335400 0.38687672253261728983 0.01324033803833159044 0.00001670627939295054 0.00001614400895231987 0.00001684765647743580
1520530330.400172 0.00000000000000000000 0.00000000000000000000 0.00000000000000000000 0.00000000000000000000 0.00000000000000000000 0.00000000000000000000 -0.04724119704437691747  0.03444735107316398981 -0.04211580243859573691 -0.00010756571820662281  0.00015742629047423013  0.00078826399237261441 0.24192674719976070552 0.38336284076358057016 0.01320418073151500768 0.00001667820379178886 0.00001610991554804509 0.00001678867153216069
1520530330.450787 0.00000000000000000000 0.00000000000000000000 0.00000000000000000000 0.00000000000000000000 0.00000000000000000000 0.00000000000000000000 -0.04652653177368362702  0.03554356964947513742 -0.04221527743123319049 -0.00013835755788154831  0.00019783914717282975  0.00078342382940987541 0.23966112628073471535 0.38114762615747443952 0.01318471053494543917 0.00001654263009644477 0.00001607556107802847 0.00001679234462710708
1520530330.550790 0.00000000000000000000 0.00000000000000000000 0.00000000000000000000 0.00000000000000000000 0.00000000000000000000 0.00000000000000000000 -0.04274689977239114203  0.03974440326342956048 -0.04255456331260758923 -0.00004469537961259617  0.00023459046545627936  0.00073725004105350137 0.23519999983308251257 0.37699752642330514041 0.01315736776061692329 0.00001641545743166322 0.00001601912566466802 0.00001665508420251262
1520530330.650793 0.00000000000000000000 0.00000000000000000000 0.00000000000000000000 0.00000000000000000000 0.00000000000000000000 0.00000000000000000000 -0.04345884586444555275  0.04065502462396986677 -0.04241104619191046060 0.00004463702980892794 0.00015230035975360856 0.00066615361888903643 0.23173967477655615932 0.37361215192894481341 0.01314519618031683747 0.00001635028563432749 0.00001595727724008746 0.00001657721527328374
1520530330.700795 0.00000000000000000000 0.00000000000000000000 0.00000000000000000000 0.00000000000000000000 0.00000000000000000000 0.00000000000000000000 -0.04304292204572926495  0.03774630844546495584 -0.04229043112029674811 0.00001581973106500838 0.00009483583946939467 0.00067419191966800970 0.23052281172247876539 0.37239852117524646635 0.01314572701684305241 0.00001639290308099931 0.00001592993871201229 0.00001645559011373904
1520530330.800798 0.00000000000000000000 0.00000000000000000000 0.00000000000000000000 0.00000000000000000000 0.00000000000000000000 0.00000000000000000000 -0.04534032518150510338  0.03408412854704428313 -0.04257066648595920350 -0.00010180190082062145 -0.00009269259445955406  0.00070678691976532634 0.22816393110026145230 0.37130588002135789250 0.01316076224669191809 0.00001646101715247813 0.00001593843055648927 0.00001661307981789775
1520530330.850367 0.00000000000000000000 0.00000000000000000000 0.00000000000000000000 0.00000000000000000000 0.00000000000000000000 0.00000000000000000000 -0.04671769693331016132  0.03110291883423222867 -0.04275268251615451515 -0.00020057498164850149 -0.00025577995224120752  0.00072597084882952223 0.22706947075760594568 0.37084964800396075235 0.01317308031884245438 0.00001651642996039183 0.00001605119273981119 0.00001693630420041835
1520530330.950279 0.00000000000000000000 0.00000000000000000000 0.00000000000000000000 0.00000000000000000000 0.00000000000000000000 0.00000000000000000000 -0.04669998197586467531  0.03124420023345230238 -0.04299263463939086843 -0.00016925219229229046 -0.00032635189719391899  0.00067566231135526898 0.22502328011093458704 0.37022418201533152660 0.01321140363702812126 0.00001658025111868822 0.00001605328281503165 0.00001693035245423564
1520530331.050282 0.00000000000000000000 0.00000000000000000000 0.00000000000000000000 0.00000000000000000000 0.00000000000000000000 0.00000000000000000000 -0.04745507269157191177  0.03522648777384751462 -0.04279108129751583306 -0.00004541169041290256 -0.00033434807744764529  0.00058552992307843161 0.22312289746131167001 0.36938224748420639409 0.01325650457066134338 0.00001659093805092750 0.00001599035704991645 0.00001685885908367837
1520530331.150285 0.00000000000000000000 0.00000000000000000000 0.00000000000000000000 0.00000000000000000000 0.00000000000000000000 0.00000000000000000000 -0.05111411981784595021  0.03477408102168778881 -0.04240417408906167057  0.00009415231330777823 -0.00043981734999411069  0.00051211978694405908 0.22130148036645394538 0.36882549154927379842 0.01329971194635088880 0.00001661791827606954 0.00001598419682364346 0.00001682136111999723
1520530331.250735 0.00000000000000000000 0.00000000000000000000 0.00000000000000000000 0.00000000000000000000 0.00000000000000000000 0.00000000000000000000 -0.05599541589435765021  0.03285795807028110693 -0.04164354274319663485  0.00017021844992794524 -0.00046280518277686471  0.00048420737903888189 0.21956242514818408162 0.36833781174603186237 0.01333944138097960946 0.00001659179552139519 0.00001596695237749589 0.00001679232057181173
1520530331.350738 0.00000000000000000000 0.00000000000000000000 0.00000000000000000000 0.00000000000000000000 0.00000000000000000000 0.00000000000000000000 -0.05341142560367487246 -0.03343010948630322637 -0.03645319349081610483  0.00062727697181210666 -0.00050936076410849950  0.00045658562667245711 0.29748077450778720454 0.51607338189627527392 0.01441414060433005191 0.00002230481614885617 0.00002023354240358557 0.00002196541049144746
1520530331.450741 0.00000000000000000000 0.00000000000000000000 0.00000000000000000000 0.00000000000000000000 0.00000000000000000000 0.00000000000000000000 -0.05349100373519075080 -0.04650888430667602519 -0.03708786191737675764  0.00058679310531212887 -0.00046655424557228320  0.00038938889464502837 0.29515368578404255206 0.51741960514608209554 0.01470475828272113476 0.00002256987368754236 0.00002037615442056004 0.00002216814495390745
1520530331.500743 0.00000000000000000000 0.00000000000000000000 0.00000000000000000000 0.00000000000000000000 0.00000000000000000000 0.00000000000000000000 -0.05252430914974511728 -0.04761708837244359172 -0.03709746304559666252  0.00055175704668836145 -0.00049125995360844467  0.00030380983093226721 0.29369467124916653900 0.51731357676358780129 0.01472322346842346724 0.00002243569468874049 0.00002028497030558605 0.00002196693554919196
1520530331.600746 0.00000000000000000000 0.00000000000000000000 0.00000000000000000000 0.00000000000000000000 0.00000000000000000000 0.00000000000000000000 -0.05082393101676221242 -0.04094334798801587544 -0.03758388952377510195  0.00061715489330381576 -0.00051385017281893564  0.00015162037897860267 0.29075746545178043911 0.51645315368638766707 0.01478002851831090349 0.00002240423898831309 0.00002022985807634867 0.00002184936525268255
1520530331.650479 0.00000000000000000000 0.00000000000000000000 0.00000000000000000000 0.00000000000000000000 0.00000000000000000000 0.00000000000000000000 -0.04951233332074604643 -0.04019779451099515788 -0.03784544188323869796  0.00062419495148598365 -0.00044134394075052671  0.00019923587039201505 0.28940515585650428143 0.51533932726467612806 0.01481646547739705853 0.00002230556399197975 0.00002009285538001733 0.00002158870683540848
1520530331.750483 0.00000000000000000000 0.00000000000000000000 0.00000000000000000000 0.00000000000000000000 0.00000000000000000000 0.00000000000000000000 -0.05149464513917647451 -0.04163849534154385329 -0.03757086718156219668  0.00063445231565157907 -0.00038140097719787172  0.00024696041236852426 0.28673932434794546786 0.51153848008106239664 0.01490971800988119544 0.00002219051683362195 0.00002002486849464430 0.00002154619415845443
1520530331.800484 0.00000000000000000000 0.00000000000000000000 0.00000000000000000000 0.00000000000000000000 0.00000000000000000000 0.00000000000000000000 -0.05136576846832547477 -0.04425326472344523476 -0.03761090126345469770  0.00062123931076766962 -0.00027426522307492837  0.00032883640784129410 0.28536061709290938548 0.50877794644192519957 0.01496118368492754119 0.00002202179899481548 0.00001993123778483231 0.00002137456825666443
1520530331.900488 0.00000000000000000000 0.00000000000000000000 0.00000000000000000000 0.00000000000000000000 0.00000000000000000000 0.00000000000000000000 -0.05202567625729899448 -0.04591985320091290096 -0.03771439984729774847  0.00068169625377999742 -0.00017021397976122935  0.00032518459079639819 0.28237153906415390914 0.50176614736945046591 0.01507050176982529036 0.00002196481907866062 0.00001992260068716523 0.00002138861993426834
1520530332.000491 0.00000000000000000000 0.00000000000000000000 0.00000000000000000000 0.00000000000000000000 0.00000000000000000000 0.00000000000000000000 -0.05463648807076827013 -0.04669272117554518903 -0.03801268785281133183  0.00078093277946595892 -0.00014341835762432320  0.00031153828289964228 0.27885446341815706139 0.49398889872457346639 0.01516612261071519259 0.00002183502610865220 0.00001996234870577352 0.00002143230749068492
1520530332.100388 0.00000000000000000000 0.00000000000000000000 0.00000000000000000000 0.00000000000000000000 0.00000000000000000000 0.00000000000000000000 -0.05420011117159347774 -0.04392517173981094758 -0.03802579921574915367  0.00075912708725235666 -0.00013490134099063437  0.00025333628791853743 0.27455527533682544394 0.48541393385180847675 0.01523703423720875784 0.00002173273738447919 0.00001990349743558712 0.00002138998609632702
1520530332.200392 0.00000000000000000000 0.00000000000000000000 0.00000000000000000000 0.00000000000000000000 0.00000000000000000000 0.00000000000000000000 -0.04936429651229865684 -0.04150911053068911949 -0.03706070285575049222  0.00077003022517624625 -0.00013438303953030429  0.00031819791016252764 0.26941419263756799518 0.47594330500372966641 0.01527954557692610266 0.00002170024283568210 0.00001983270854509375 0.00002138107795972818
1520530332.300399 0.00000000000000000000 0.00000000000000000000 0.00000000000000000000 0.00000000000000000000 0.00000000000000000000 0.00000000000000000000 -0.04728632685874221975 -0.03647367853147125139 -0.03686837195697353214  0.00072643767242061195 -0.00010696348126101147  0.00036654273941522325 0.26345514610704912073 0.46577431042487199564 0.01528141644558876980 0.00002158465268119544 0.00001974416811612331 0.00002128488773854419
1520530332.400401 0.00000000000000000000 0.00000000000000000000 0.00000000000000000000 0.00000000000000000000 0.00000000000000000000 0.00000000000000000000 -0.04479375643170071392 -0.03608503573567321127 -0.03670082811096959940  0.00065528101969176207 -0.00009825504787587874  0.00040864795011098998 0.25679585265622800749 0.45600678604271777106 0.01526483193000378186 0.00002142928013716765 0.00001966445494656616 0.00002118831227786482
1520530332.450399 0.00000000000000000000 0.00000000000000000000 0.00000000000000000000 0.00000000000000000000 0.00000000000000000000 0.00000000000000000000 -0.04394294201934294264 -0.03288703018569362480 -0.03724843751258797436  0.00065073794544502509 -0.00012695608144258405  0.00053495814037674667 0.25331484859097008755 0.45124986028934860327 0.01525066174300226604 0.00002133530773751553 0.00001955858812652975 0.00002097880693604077
1520530332.550483 0.00000000000000000000 0.00000000000000000000 0.00000000000000000000 0.00000000000000000000 0.00000000000000000000 0.00000000000000000000 -0.04581077628695526954 -0.02727213039520998139 -0.03759557618279989882  0.00061695893456852134 -0.00008937504193827301  0.00060854295730087432 0.24621769440107710292 0.44165999247353715518 0.01522988227247580421 0.00002148079942333797 0.00001956080124121886 0.00002100341985384014
1520530332.600486 0.00000000000000000000 0.00000000000000000000 0.00000000000000000000 0.00000000000000000000 0.00000000000000000000 0.00000000000000000000 -0.04704978563770360195 -0.02678696091481512498 -0.03803037463233185228  0.00066053243216197387 -0.00010311398347344222  0.00079298022540704989 0.24262390226698901663 0.43714810649101093487 0.01521834284681005192 0.00002125450624783372 0.00001943837531056339 0.00002067269358639007
1520530332.700489 0.00000000000000000000 0.00000000000000000000 0.00000000000000000000 0.00000000000000000000 0.00000000000000000000 0.00000000000000000000 -0.04552870454154544361 -0.02787218504371499414 -0.03819826369669707816  0.00065635725102917671 -0.00013926872987829231  0.00077540279027033660 0.23574851244605365963 0.42824426690497185977 0.01521850450202658078 0.00002114393670945919 0.00001937023410578474 0.00002053956593712817
1520530332.800492 0.00000000000000000000 0.00000000000000000000 0.00000000000000000000 0.00000000000000000000 0.00000000000000000000 0.00000000000000000000 -0.04707259996374937167 -0.03153665172594531663 -0.03831765591921365566  0.00070827074658125189 -0.00029760056397149361  0.00075323614065003698 0.22931723552424873591 0.42024749119085069715 0.01523511142968080566 0.00002093988273686293 0.00001926083745060077 0.00002037249356984233
1520530332.900164 0.00000000000000000000 0.00000000000000000000 0.00000000000000000000 0.00000000000000000000 0.00000000000000000000 0.00000000000000000000 -0.05030688068515001832 -0.03586245089598745495 -0.03843970677358608812  0.00075345654948911806 -0.00039932862836232388  0.00079609604170476935 0.22361346353198000014 0.41435785450394185814 0.01526400408277890815 0.00002083248250423316 0.00001920778115206657 0.00002030568428675550
1520530333.000168 0.00000000000000000000 0.00000000000000000000 0.00000000000000000000 0.00000000000000000000 0.00000000000000000000 0.00000000000000000000 -0.05341618556859688977 -0.03431439864319509730 -0.03869344045015093297  0.00091985602600840098 -0.00045931830913703385  0.00077241776484161199 0.21867956954408274139 0.41014843327841604692 0.01529421800398647266 0.00002081354216279543 0.00001921313983630495 0.00002035840835012326
1520530333.100171 0.00000000000000000000 0.00000000000000000000 0.00000000000000000000 0.00000000000000000000 0.00000000000000000000 0.00000000000000000000 -0.06029084218811256446 -0.03064724645416803950 -0.03805462784511039198  0.00099818152683990276 -0.00041877264276548546  0.00075313450803556601 0.21453012014647976358 0.40713436720466600338 0.01531673031327862762 0.00002084895970322594 0.00001919425576713452 0.00002032599324242266
1520530333.200174 0.00000000000000000000 0.00000000000000000000 0.00000000000000000000 0.00000000000000000000 0.00000000000000000000 0.00000000000000000000 -0.06042553697228520565 -0.03406990246590524407 -0.03733120883717624960  0.00089135693971338300 -0.00030440275009014522  0.00080965790577795685 0.21161172305000527927 0.40613631284644402530 0.01532291670398725804 0.00002100980343385335 0.00001934094768245307 0.00002069732032378220
1520530333.250175 0.00000000000000000000 0.00000000000000000000 0.00000000000000000000 0.00000000000000000000 0.00000000000000000000 0.00000000000000000000 -0.06077831544561951987 -0.03642733744046251776 -0.03694760680955901794  0.00088561347573731125 -0.00027563123514928945  0.00075156422917694937 0.21019303225298527349 0.40559401722939647517 0.01531429644933345914 0.00002083306577132987 0.00001933663390770130 0.00002070379241436763
1520530333.350610 0.00000000000000000000 0.00000000000000000000 0.00000000000000000000 0.00000000000000000000 0.00000000000000000000 0.00000000000000000000 -0.06195526394967207362 -0.03686196999448491246 -0.03645616930447138221  0.00080612335449363741 -0.00028766429959815182  0.00067644030610804456 0.20773326497388933110 0.40464721318313301435 0.01530366131243964326 0.00002093155866640878 0.00001928875237298070 0.00002073344095911834
1520530333.400612 0.00000000000000000000 0.00000000000000000000 0.00000000000000000000 0.00000000000000000000 0.00000000000000000000 0.00000000000000000000 -0.06173021730450159450 -0.03576824851230089169 -0.03633673816552656505  0.00068197300670329850 -0.00034685896694154177  0.00065838158546737422 0.20655268053186642829 0.40420150887507588777 0.01529727244616467356 0.00002089367702273977 0.00001926762625755387 0.00002073916983978403
1520530333.500615 0.00000000000000000000 0.00000000000000000000 0.00000000000000000000 0.00000000000000000000 0.00000000000000000000 0.00000000000000000000 -0.06164176681143164471 -0.03519272794450199748 -0.03615121710241488845  0.00068690426428873338 -0.00022512001079671022  0.00076166304624296203 0.20400599075679534677 0.40242487861832909601 0.01528878492689617757 0.00002122582664160849 0.00001945586696181523 0.00002099413975528279
1520530333.650619 0.00000000000000000000 0.00000000000000000000 0.00000000000000000000 0.00000000000000000000 0.00000000000000000000 0.00000000000000000000 -0.06408606573184527644 -0.03148228835426525318 -0.03675036094036521206  0.00072762564047244881 -0.00025653900426966016  0.00077908551567659442 0.19850891977425558221 0.39609129987408092655 0.01526184081501055084 0.00002134236797995527 0.00001957463095943254 0.00002110197901026974
1520530333.750542 0.00000000000000000000 0.00000000000000000000 0.00000000000000000000 0.00000000000000000000 0.00000000000000000000 0.00000000000000000000 -0.06285373559522165754 -0.02736183721086635559 -0.03628615213716773757  0.00070548429386195336 -0.00016490055765030709  0.00071825318637194454 0.19377755405381830167 0.38838809304664645428 0.01523062778567365466 0.00002137806519432308 0.00001952885598564422 0.00002115022392807411
1520530333.850545 0.00000000000000000000 0.00000000000000000000 0.00000000000000000000 0.00000000000000000000 0.00000000000000000000 0.00000000000000000000 -0.06097325501681211124 -0.02510612720414643825 -0.03604530612114308780  0.00077157976930793430 -0.00014145952562818895  0.00067254215565286032 0.18878041571487835792 0.38042724006965661365 0.01518519988566635788 0.00002135968505497094 0.00001944791392805561 0.00002089342535474968
1520530333.900547 0.00000000000000000000 0.00000000000000000000 0.00000000000000000000 0.00000000000000000000 0.00000000000000000000 0.00000000000000000000 -0.05954371421340275139 -0.02279854209238088916 -0.03624034874002871054  0.00076254143135692082 -0.00007267565821238263  0.00068480546579791036 0.18636357403807210509 0.37627560459152498140 0.01515479763695192807 0.00002120076652378181 0.00001924512626881841 0.00002087212831111630
1520530334.000561 0.00000000000000000000 0.00000000000000000000 0.00000000000000000000 0.00000000000000000000 0.00000000000000000000 0.00000000000000000000 -0.05698195741322764629 -0.02363726024219644020 -0.03638326151492313892  0.00076288341136798450 -0.00006150841219689635  0.00065664274456891979 0.18221080373200448932 0.36864945646617691688 0.01508111345131001729 0.00002116089493401210 0.00001919898234297037 0.00002065297575280036
1520530334.100216 0.00000000000000000000 0.00000000000000000000 0.00000000000000000000 0.00000000000000000000 0.00000000000000000000 0.00000000000000000000 -0.05738867263576171579 -0.03136627509689905724 -0.03612081879131689988  0.00083168930438702420 -0.00017048994425622233  0.00060006398418683226 0.17913716722133327108 0.36017198202885325475 0.01497630644606181768 0.00002089804988985279 0.00001912491141839495 0.00002037132216934235
1520530334.150218 0.00000000000000000000 0.00000000000000000000 0.00000000000000000000 0.00000000000000000000 0.00000000000000000000 0.00000000000000000000 -0.05675382037570939758 -0.03175419271996037657 -0.03600838874051885685  0.00080074000412673073 -0.00018409068098229454  0.00065722946065504856 0.17803062006696518393 0.35526823847878380436 0.01491205805553177423 0.00002072022328994012 0.00001917666482145999 0.00001988962815634005
1520530334.300222 0.00000000000000000000 0.00000000000000000000 0.00000000000000000000 0.00000000000000000000 0.00000000000000000000 0.00000000000000000000 -0.05623709280058917376 -0.02755705490272459049 -0.03829712687709013047  0.00083445743316657058 -0.00024774982783210746  0.00080323776052514465 0.17595157883970991008 0.34337666635481872701 0.01473056152110947467 0.00002056833243605723 0.00001911006585445019 0.00001969371351446579
1520530334.400225 0.00000000000000000000 0.00000000000000000000 0.00000000000000000000 0.00000000000000000000 0.00000000000000000000 0.00000000000000000000 -0.05481238306789062292 -0.02653854410101372588 -0.03905399999243377301  0.00084896771592762594 -0.00027249698483103037  0.00078901819577248064 0.17519534266264571998 0.33810769757932018775 0.01463394202254521097 0.00002015727813444931 0.00001878374204309494 0.00001944687040458910
1520530334.500228 0.00000000000000000000 0.00000000000000000000 0.00000000000000000000 0.00000000000000000000 0.00000000000000000000 0.00000000000000000000 -0.05419006132228545297 -0.02638142439450870402 -0.03935884005570475935  0.00080794567915932125 -0.00035089815135972666  0.00070189929953848058 0.17479281478869659883 0.33432445868764398833 0.01454559721461344025 0.00002001147132803966 0.00001866867177136864 0.00001939673974348740
1520530334.600088 0.00000000000000000000 0.00000000000000000000 0.00000000000000000000 0.00000000000000000000 0.00000000000000000000 0.00000000000000000000 -0.05317334993359973394 -0.02886012115482193899 -0.03995887447399359971  0.00082817668752561415 -0.00037922951617392904  0.00071206698691261058 0.17460459977911083063 0.33178817464774590373 0.01447801598885365207 0.00002003006993778585 0.00001867797348616751 0.00001943533231098617
1520530334.700091 0.00000000000000000000 0.00000000000000000000 0.00000000000000000000 0.00000000000000000000 0.00000000000000000000 0.00000000000000000000 -0.05200454260494379033 -0.03468163519136983203 -0.04013417388842565464  0.00075638095566247880 -0.00055865306307499563  0.00071233697885840453 0.17453541967752358999 0.33033118060178029429 0.01443973051143701385 0.00001999604544845341 0.00001854792341604628 0.00001939229981575235
1520530334.800094 0.00000000000000000000 0.00000000000000000000 0.00000000000000000000 0.00000000000000000000 0.00000000000000000000 0.00000000000000000000 -0.04984516425846578780 -0.03519230552770361703 -0.04050188931935482656  0.00078933782331933728 -0.00061135520046314560  0.00071688948459164368 0.17455488519028350414 0.32931476236579632078 0.01443285115018643622 0.00002006586881193762 0.00001853596810976792 0.00001945801585800611
1520530334.900097 0.00000000000000000000 0.00000000000000000000 0.00000000000000000000 0.00000000000000000000 0.00000000000000000000 0.00000000000000000000 -0.04936567445774032309 -0.03622341881822738197 -0.04036312721507982065  0.00084289985613890232 -0.00056637875411247687  0.00075205440999804652 0.17459618654825934114 0.32831080755663227810 0.01446379172952644288 0.00002034681250042725 0.00001875504522289274 0.00001967631787790896
1520530334.950928 0.00000000000000000000 0.00000000000000000000 0.00000000000000000000 0.00000000000000000000 0.00000000000000000000 0.00000000000000000000 -0.04905170847951789703 -0.03560554994279361424 -0.03940299327871749080  0.00088350153774599256 -0.00051327373144405687  0.00063038540295719063 0.17461699558245355468 0.32758066279419800759 0.01448859509266536144 0.00002025817130298987 0.00001874170274263349 0.00001951382318370868
1520530335.050931 0.00000000000000000000 0.00000000000000000000 0.00000000000000000000 0.00000000000000000000 0.00000000000000000000 0.00000000000000000000 -0.04778069922302225631 -0.02856150620707016002 -0.03823747148136590751  0.00094075704897194506 -0.00047465198830408758  0.00071482868678518236 0.17462179526275772856 0.32582821013376905839 0.01454782018753806271 0.00001994312145718691 0.00001871939776715399 0.00001935291476022225
1520530335.150934 0.00000000000000000000 0.00000000000000000000 0.00000000000000000000 0.00000000000000000000 0.00000000000000000000 0.00000000000000000000 -0.04716941155543648290 -0.02359778751380618364 -0.03792783294991371873  0.00087863232986548374 -0.00041380495163453852  0.00091552450802785765 0.17457549201644287362 0.32374900419404861740 0.01462372103981000870 0.00001973910473179274 0.00001860636196997371 0.00001917197522796623
1520530335.250937 0.00000000000000000000 0.00000000000000000000 0.00000000000000000000 0.00000000000000000000 0.00000000000000000000 0.00000000000000000000 -0.04590488532682523992 -0.01896619172688808475 -0.03741730279772520484  0.00085437088072180302 -0.00028859722828712881  0.00098881658161714312 0.17443571168092011914 0.32106224598462690389 0.01471150114748919456 0.00001941340116451176 0.00001830239374890513 0.00001894382495567444
1520530335.351457 0.00000000000000000000 0.00000000000000000000 0.00000000000000000000 0.00000000000000000000 0.00000000000000000000 0.00000000000000000000 -0.04489985932569268839 -0.01552596435453582578 -0.03710887506264654717  0.00089142467293107451 -0.00016905884674301412  0.00097955400109940149 0.17423566327070841298 0.31823956569629668900 0.01480389424647908514 0.00001923054160778739 0.00001803872668725673 0.00001876208570079053
1520530335.451459 0.00000000000000000000 0.00000000000000000000 0.00000000000000000000 0.00000000000000000000 0.00000000000000000000 0.00000000000000000000 -0.04445367664714910960 -0.01294953047030127959 -0.03730762112110234258  0.00078031972672948434 -0.00007808739300394724  0.00088407408476996133 0.17397504426370177799 0.31604845792209418365 0.01488941325649446520 0.00001899823423328132 0.00001796542719269347 0.00001871487050947350
1520530335.551462 0.00000000000000000000 0.00000000000000000000 0.00000000000000000000 0.00000000000000000000 0.00000000000000000000 0.00000000000000000000 -0.04364973151841824994 -0.01305079751605638799 -0.03764814879413622140  0.00073967770418509131 -0.00000406634297287772  0.00089670368575812834 0.17362486923230244229 0.31446676701440251511 0.01496804733439542623 0.00001904682485831150 0.00001801738575716842 0.00001870045052168248
1520530335.651465 0.00000000000000000000 0.00000000000000000000 0.00000000000000000000 0.00000000000000000000 0.00000000000000000000 0.00000000000000000000 -0.04304721296392012564 -0.01406279322598795803 -0.03754672445036980749  0.00083413753258025517 -0.00006386266657232381  0.00092613197612761338 0.17321099179358198650 0.31347349599345319948 0.01503306417701179634 0.00001899067934026363 0.00001803351302706778 0.00001866185073697756
1520530335.750223 0.00000000000000000000 0.00000000000000000000 0.00000000000000000000 0.00000000000000000000 0.00000000000000000000 0.00000000000000000000 -0.04250625980940010706 -0.01651539029819309307 -0.03889615296402944983  0.00087132017119471994 -0.00016066872852510514  0.00086341386701675434 0.17271478498550074665 0.31335959000906982164 0.01507121581029490127 0.00001908446397742243 0.00001813871644653971 0.00001870683441348871
1520530335.850226 0.00000000000000000000 0.00000000000000000000 0.00000000000000000000 0.00000000000000000000 0.00000000000000000000 0.00000000000000000000 -0.04233158090824550024 -0.01730011227545194541 -0.04029683378643932751  0.00097129058371881979 -0.00012792117077465971  0.00077868443456169162 0.17212196523493256128 0.31306438498866040465 0.01510207400864162219 0.00001893543042553697 0.00001800915993863974 0.00001859287224294159
1520530335.900227 0.00000000000000000000 0.00000000000000000000 0.00000000000000000000 0.00000000000000000000 0.00000000000000000000 0.00000000000000000000 -0.04138316341018056371 -0.01897644723583010243 -0.04049054355817344880  0.00091228841327784438 -0.00008665178467635651  0.00085222352647192046 0.17183822812683571812 0.31312575821267873977 0.01511456631596333304 0.00001880004216857227 0.00001798925208294031 0.00001856729337961422
1520530336.000230 0.00000000000000000000 0.00000000000000000000 0.00000000000000000000 0.00000000000000000000 0.00000000000000000000 0.00000000000000000000 -0.04040155524964337413 -0.01642000377574137984 -0.04084245022481020754  0.00083177233534674239 -0.00002626742611278599  0.00079670728120157062 0.17121196101051386340 0.31308683222518624012 0.01513863256352505036 0.00001866934166631883 0.00001799882688204012 0.00001854078567279106
1520530336.100233 0.00000000000000000000 0.00000000000000000000 0.00000000000000000000 0.00000000000000000000 0.00000000000000000000 0.00000000000000000000 -0.03971336865950201439 -0.01419478838206550755 -0.04067088898139404468  0.00075536993826969435 -0.00011246303943984997  0.00086443564156139102 0.17058665480813373083 0.31308037733007132442 0.01515801777296467943 0.00001872573184629776 0.00001795567509580491 0.00001858735702547128
1520530336.200179 0.00000000000000000000 0.00000000000000000000 0.00000000000000000000 0.00000000000000000000 0.00000000000000000000 0.00000000000000000000 -0.03864136540029226852 -0.01498757456915407807 -0.03958464183133870301  0.00083964521322200871 -0.00019192193413047995  0.00091854228423955589 0.16998402357884331848 0.31287882664719174342 0.01516699138010284796 0.00001856045339122946 0.00001788248028103693 0.00001853235659165354
1520530336.300182 0.00000000000000000000 0.00000000000000000000 0.00000000000000000000 0.00000000000000000000 0.00000000000000000000 0.00000000000000000000 -0.03750593488411531340 -0.01712084210162395648 -0.03852955870092646118  0.00081870621908711281 -0.00020865966224185883  0.00091272788318778322 0.16944517389562677168 0.31224133637904161187 0.01516200672808032390 0.00001868754823349190 0.00001794687318230379 0.00001861390292060906
1520530336.400185 0.00000000000000000000 0.00000000000000000000 0.00000000000000000000 0.00000000000000000000 0.00000000000000000000 0.00000000000000000000 -0.03752122608349640898 -0.01682134447438548425 -0.03813735312840018515  0.00068524828869607622 -0.00012503827455937727  0.00094223346968128356 0.16891645830571558329 0.31071894734351956924 0.01511672821978822696 0.00001878716441636631 0.00001797352690057676 0.00001868722999766392
1520530336.500188 0.00000000000000000000 0.00000000000000000000 0.00000000000000000000 0.00000000000000000000 0.00000000000000000000 0.00000000000000000000 -0.03865691154266202162 -0.01682895169432283011 -0.03771781287366442192  0.00070646978898652134 -0.00002824028455279111  0.00092989301284512296 0.16838552142549717550 0.30869140123843924473 0.01503331640426516964 0.00001885403443901565 0.00001796380302447085 0.00001874480660529711
1520530336.550582 0.00000000000000000000 0.00000000000000000000 0.00000000000000000000 0.00000000000000000000 0.00000000000000000000 0.00000000000000000000 -0.03882290142587429410 -0.01750176890162092116 -0.03769401825007572676  0.00063492388666505173 -0.00006297123366315705  0.00092319699935185717 0.16808545501215718665 0.30756309782474894332 0.01498299386555977143 0.00001887391690441154 0.00001792027569709976 0.00001882461043478628
1520530336.650586 0.00000000000000000000 0.00000000000000000000 0.00000000000000000000 0.00000000000000000000 0.00000000000000000000 0.00000000000000000000 -0.03953307507552376865 -0.01811171442054423236 -0.03727186972205293047  0.00062592193074917986 -0.00010034843973375066  0.00083780131914669702 0.16736361902066204665 0.30557682535383851041 0.01489594072562133373 0.00001887687152410105 0.00001791658808398615 0.00001879634781379912
1520530336.750588 0.00000000000000000000 0.00000000000000000000 0.00000000000000000000 0.00000000000000000000 0.00000000000000000000 0.00000000000000000000 -0.04055295543338516273 -0.01610890074611236872 -0.03749533759314326725 0.00070359729154880618 0.00000114310352724755 0.00084050583914859151 0.16644662872768750672 0.30365846846578414819 0.01481436456061572052 0.00001891631389519119 0.00001784084043494439 0.00001874317365805400
1520530336.850591 0.00000000000000000000 0.00000000000000000000 0.00000000000000000000 0.00000000000000000000 0.00000000000000000000 0.00000000000000000000 -0.04145112326289991656 -0.01632234974579635164 -0.03778881526368040727 0.00082919236019494882 0.00010164591865797812 0.00071791174269050697 0.16533491309795320112 0.30220313206592541722 0.01474387513477922948 0.00001879152182044260 0.00001763207461439655 0.00001844790090634613
1520530336.950594 0.00000000000000000000 0.00000000000000000000 0.00000000000000000000 0.00000000000000000000 0.00000000000000000000 0.00000000000000000000 -0.04266684883603904382 -0.01389926594012576115 -0.03952204864859734657 0.00084880613881160535 0.00015488035581208347 0.00067658030611860288 0.16404986732899487500 0.30123362295934419386 0.01469023506900317411 0.00001868977854489419 0.00001751178675699835 0.00001827567869234237
1520530337.050259 0.00000000000000000000 0.00000000000000000000 0.00000000000000000000 0.00000000000000000000 0.00000000000000000000 0.00000000000000000000 -0.04200557260434790996 -0.01329820419182623989 -0.04016047499074552191 0.00086837726670594730 0.00012336029584274956 0.00051348859831676981 0.16273127630511485808 0.30067943682565878571 0.01467084002312294896 0.00001858323139745554 0.00001744178409283422 0.00001789511791987262
1520530337.150262 0.00000000000000000000 0.00000000000000000000 0.00000000000000000000 0.00000000000000000000 0.00000000000000000000 0.00000000000000000000 -0.04021969353575195749 -0.01375054496796164136 -0.04022885938926923366  0.00094549552429556006 -0.00000454877768520364  0.00029024477166247886 0.16137907764937625688 0.30008944482038030221 0.01467344214565368711 0.00001830203347448292 0.00001725777950586657 0.00001766936047905775
1520530337.250265 0.00000000000000000000 0.00000000000000000000 0.00000000000000000000 0.00000000000000000000 0.00000000000000000000 0.00000000000000000000 -0.03861468560391221466 -0.01580770702805302588 -0.04010928191980256408  0.00098257519705480657 -0.00008374757640657096  0.00020178479072889983 0.16008235949599952663 0.29992466224744596115 0.01468525344056528098 0.00001818355655034829 0.00001718670816929703 0.00001760209947463803
1520530337.350269 0.00000000000000000000 0.00000000000000000000 0.00000000000000000000 0.00000000000000000000 0.00000000000000000000 0.00000000000000000000 -0.03653466570202774932 -0.01530436071770728199 -0.03990317952318428452  0.00096450412311670697 -0.00011360505697837377  0.00009393789753450964 0.15889662622732286801 0.30002745500835559245 0.01468739984506371547 0.00001827644624193516 0.00001721211976943925 0.00001769373246888054
1520530337.450303 0.00000000000000000000 0.00000000000000000000 0.00000000000000000000 0.00000000000000000000 0.00000000000000000000 0.00000000000000000000 -0.03730517568398540595 -0.01446658482654384140 -0.03977940546791901288  0.00093131236619528926 -0.00013135047253587051 -0.00002917761172532317 0.15788955796783779584 0.30036317739736917432 0.01466605059812083750 0.00001839641615459442 0.00001724622737669633 0.00001775526023136517
1520530337.550306 0.00000000000000000000 0.00000000000000000000 0.00000000000000000000 0.00000000000000000000 0.00000000000000000000 0.00000000000000000000 -0.03643406546465064594 -0.01488790710842063415 -0.03856845897876835794  0.00087206321304043617 -0.00012410948890172115  0.00001775302840024742 0.15703030452134994488 0.30021743451311699857 0.01461373263675846967 0.00001846495110235115 0.00001729543685113373 0.00001766942176425218
1520530337.650309 0.00000000000000000000 0.00000000000000000000 0.00000000000000000000 0.00000000000000000000 0.00000000000000000000 0.00000000000000000000 -0.03328360404902804687 -0.01848199485976206521 -0.03659967074342565518  0.00092118508015099590 -0.00008359933777796656  0.00013255895075156825 0.15650436468316938909 0.29931483288385635211 0.01451816356334912489 0.00001888985271514556 0.00001752394128600802 0.00001813982277706291
1520530337.750312 0.00000000000000000000 0.00000000000000000000 0.00000000000000000000 0.00000000000000000000 0.00000000000000000000 0.00000000000000000000 -0.03162988637430072525 -0.01979936806237677857 -0.03579524100385218094  0.00092853307214470823 -0.00008489635888133510  0.00026766776288257165 0.15579880306293963921 0.29689978779466191794 0.01438335901617198397 0.00001904252748684601 0.00001754745069251423 0.00001827082914527949
1520530337.850855 0.00000000000000000000 0.00000000000000000000 0.00000000000000000000 0.00000000000000000000 0.00000000000000000000 0.00000000000000000000 -0.03056198929071366616 -0.02283836477692877814 -0.03501164322042303600  0.00089846582039479104 -0.00006255856885812092  0.00036259551865261831 0.15498569613753937491 0.29382468613418671888 0.01425616716448185710 0.00001903225241022400 0.00001754201991591694 0.00001830210868076753
1520530337.950858 0.00000000000000000000 0.00000000000000000000 0.00000000000000000000 0.00000000000000000000 0.00000000000000000000 0.00000000000000000000 -0.02962048984473557994 -0.02452642917780273324 -0.03464954646830986640 0.00082714436409951674 0.00010019139644792575 0.00045989328942664618 0.15407048721321381368 0.29016042344570658340 0.01414576304410736750 0.00001891015609350740 0.00001751336898714357 0.00001821087060476746
1520530338.050862 0.00000000000000000000 0.00000000000000000000 0.00000000000000000000 0.00000000000000000000 0.00000000000000000000 0.00000000000000000000 -0.02742515687295093985 -0.02254606038834233370 -0.03475686202285780541 0.00085010560035579631 0.00009142530604549289 0.00049263707841093744 0.15293409043958067217 0.28648434516229764890 0.01405597984282640385 0.00001884332638868601 0.00001752694791278188 0.00001825505140509705
1520530338.150864 0.00000000000000000000 0.00000000000000000000 0.00000000000000000000 0.00000000000000000000 0.00000000000000000000 0.00000000000000000000 -0.02775850501685333052 -0.02060562462574649575 -0.03589741945141042279  0.00082383282146778435 -0.00002727233896057367  0.00056586575029456793 0.15160732073891095006 0.28322652707912121528 0.01397896097189301086 0.00001896984360222681 0.00001759284000483065 0.00001825421989356916
1520530338.250473 0.00000000000000000000 0.00000000000000000000 0.00000000000000000000 0.00000000000000000000 0.00000000000000000000 0.00000000000000000000 -0.03262201901737277199 -0.01406562666412002581 -0.03838343075665309745  0.00080790045817020031 -0.00012740377845065116  0.00052253547090005611 0.15012440555758366223 0.28029324666608307348 0.01390990906009273616 0.00001867499922179660 0.00001758961833629587 0.00001817059654429494
1520530338.350476 0.00000000000000000000 0.00000000000000000000 0.00000000000000000000 0.00000000000000000000 0.00000000000000000000 0.00000000000000000000 -0.03396539713163066604 -0.01312150945343637520 -0.03934466159854818623  0.00080623729421589569 -0.00026577414593141434  0.00053814992349568241 0.14849642033405174857 0.27795917392366170651 0.01385348282698413598 0.00001849236852045399 0.00001742509201950929 0.00001795327556423637
1520530338.450479 0.00000000000000000000 0.00000000000000000000 0.00000000000000000000 0.00000000000000000000 0.00000000000000000000 0.00000000000000000000 -0.03337657425058827843 -0.01145407014551850719 -0.03991181762533756172  0.00081428031718568388 -0.00040670508156638574  0.00060616978630485515 0.14685497189306742638 0.27598186810953201364 0.01381568288123973497 0.00001843926730227249 0.00001729445336526380 0.00001787045272005001
1520530338.550482 0.00000000000000000000 0.00000000000000000000 0.00000000000000000000 0.00000000000000000000 0.00000000000000000000 0.00000000000000000000 -0.03308393905822730463 -0.00785189342990534264 -0.04097586691431444328  0.00080228068881217412 -0.00046965512261795239  0.00053800917988467605 0.14527461424265053491 0.27425802823518907747 0.01379624285338682844 0.00001832732286402498 0.00001717870439701323 0.00001772904003343065
1520530338.650261 0.00000000000000000000 0.00000000000000000000 0.00000000000000000000 0.00000000000000000000 0.00000000000000000000 0.00000000000000000000 -0.03365020854024096397 -0.00919869259849996797 -0.04118887369817134103  0.00077666509552567987 -0.00039907138770994426  0.00045995801352072832 0.14385590620315505395 0.27270704077613761029 0.01380174413130104069 0.00001842802743337102 0.00001716507946914179 0.00001773982243241284
1520530338.750266 0.00000000000000000000 0.00000000000000000000 0.00000000000000000000 0.00000000000000000000 0.00000000000000000000 0.00000000000000000000 -0.03484443397939302606 -0.00966888703471435566 -0.04112662386670622866  0.00084753445093417536 -0.00032419593219717004  0.00042935011833192521 0.14254071293321127212 0.27100540131921224685 0.01382337077058078643 0.00001835770420077842 0.00001713985739390181 0.00001769902936556953
1520530338.850267 0.00000000000000000000 0.00000000000000000000 0.00000000000000000000 0.00000000000000000000 0.00000000000000000000 0.00000000000000000000 -0.03531462798579506485 -0.00668945072404857066 -0.04136156197447831556  0.00088892346256596124 -0.00032389353968207855  0.00040683632004424641 0.14146246875574744473 0.26924220086414307751 0.01385711556281856403 0.00001825486663602540 0.00001704520666348720 0.00001753037658654670
1520530338.950270 0.00000000000000000000 0.00000000000000000000 0.00000000000000000000 0.00000000000000000000 0.00000000000000000000 0.00000000000000000000 -0.03666235983844155777 -0.00730513441435956794 -0.04187144990946971290  0.00089950787747777590 -0.00030389350031874782  0.00043004883414967602 0.14053492978287290827 0.26777310671321968849 0.01389782331639263964 0.00001812003634994068 0.00001703058518627643 0.00001746672627730211
1520530339.050959 0.00000000000000000000 0.00000000000000000000 0.00000000000000000000 0.00000000000000000000 0.00000000000000000000 0.00000000000000000000 -0.03689402320706632737 -0.00623948947787654994 -0.04139019449005389845  0.00085418795818394523 -0.00021428356730241808  0.00038604312975600008 0.13978785121554304638 0.26622225455358461410 0.01394580556105195525 0.00001804655934203133 0.00001702555729729094 0.00001745211010773701
1520530339.100960 0.00000000000000000000 0.00000000000000000000 0.00000000000000000000 0.00000000000000000000 0.00000000000000000000 0.00000000000000000000 -0.03846881683066441515 -0.00580533787205932041 -0.04119196777842602103  0.00094794679596791958 -0.00019369416617019816  0.00042772294628887745 0.13952154805080801969 0.26558537615864746817 0.01396991003759495524 0.00001807689079332036 0.00001709218034777097 0.00001744701003584754
1520530339.200963 0.00000000000000000000 0.00000000000000000000 0.00000000000000000000 0.00000000000000000000 0.00000000000000000000 0.00000000000000000000 -0.03898441207888855148 -0.00672794116812498559 -0.04073980722273978089  0.00095093506350105031 -0.00012472282858476877  0.00053621461575832521 0.13915442729538088362 0.26446352673936224242 0.01402073581060436780 0.00001807147521826197 0.00001721164238534582 0.00001758393214685330
1520530339.300966 0.00000000000000000000 0.00000000000000000000 0.00000000000000000000 0.00000000000000000000 0.00000000000000000000 0.00000000000000000000 -0.03851353889988087115 -0.00586441292629080128 -0.04033554422485643998  0.00084333181715735492 -0.00011083131349613782  0.00050257208133686483 0.13897923084006905126 0.26353628102349402340 0.01407001414251986098 0.00001796931678947201 0.00001723434327178975 0.00001764024643497829
1520530339.400970 0.00000000000000000000 0.00000000000000000000 0.00000000000000000000 0.00000000000000000000 0.00000000000000000000 0.00000000000000000000 -0.03662514800434076012 -0.00374727621991301826 -0.03963675426723976825  0.00077771332330027639 -0.00008535623196599669  0.00046087410963395009 0.13894672031634666687 0.26280616965833042409 0.01411536432009226523 0.00001786023972290339 0.00001717509029074293 0.00001768587207953861
1520530339.501689 0.00000000000000000000 0.00000000000000000000 0.00000000000000000000 0.00000000000000000000 0.00000000000000000000 0.00000000000000000000 -0.03298762202254131026 -0.00284858656261825684 -0.03924364289042080872  0.00053726177211274942 -0.00006184626120792284  0.00037514643842235628 0.13886209209429825617 0.26207728978092953431 0.01415248802726693303 0.00001775031039928242 0.00001711548558705765 0.00001759913813069353
1520530339.601692 0.00000000000000000000 0.00000000000000000000 0.00000000000000000000 0.00000000000000000000 0.00000000000000000000 0.00000000000000000000 -0.03263874472690787842 -0.00271682808097212496 -0.03933752805500040362  0.00053885905627756511 -0.00002370709223643770  0.00029643037312126672 0.13862052461450541374 0.26094385931179309157 0.01419319293830265810 0.00001767505190800819 0.00001711521157167551 0.00001752222549448408
1520530339.701695 0.00000000000000000000 0.00000000000000000000 0.00000000000000000000 0.00000000000000000000 0.00000000000000000000 0.00000000000000000000 -0.03501376684351040908 -0.00225733871180715468 -0.03936007390336252604  0.00073430310046609330 -0.00000389962329147659  0.00030197019818975913 0.13816838687868740476 0.25926208602487010868 0.01424161510605832792 0.00001846236644057647 0.00001741039406987089 0.00001787411927326115
1520530339.801698 0.00000000000000000000 0.00000000000000000000 0.00000000000000000000 0.00000000000000000000 0.00000000000000000000 0.00000000000000000000 -0.03599028332649249762 -0.00355791849343681287 -0.03935094940573215933 0.00073505608823788964 0.00002816709783138354 0.00021115912259555479 0.13709562040380030012 0.25692568021541262180 0.01429728388381772998 0.00001860198793171420 0.00001746970156232421 0.00001795327004199997
1520530339.851056 0.00000000000000000000 0.00000000000000000000 0.00000000000000000000 0.00000000000000000000 0.00000000000000000000 0.00000000000000000000 -0.03604392334393275582 -0.00520643123391584250 -0.03946724094535522531 0.00071907709755375147 0.00001825481984680523 0.00018423915889487439 0.13638986830604213352 0.25567028956020432240 0.01432207773856867573 0.00001866848137213190 0.00001750416447230280 0.00001800453892830769
1520530339.951059 0.00000000000000000000 0.00000000000000000000 0.00000000000000000000 0.00000000000000000000 0.00000000000000000000 0.00000000000000000000 -0.03781240762448746101 -0.00674594046886027674 -0.03984633576957639228  0.00072528966494149591 -0.00002307322019517841  0.00017081798208928064 0.13472294161501013887 0.25288943923237783284 0.01437158075042393665 0.00001870358984637140 0.00001748725620594744 0.00001804155545798738
1520530340.051062 0.00000000000000000000 0.00000000000000000000 0.00000000000000000000 0.00000000000000000000 0.00000000000000000000 0.00000000000000000000 -0.03933521998680064580 -0.00676708933110453659 -0.03989148216036068201 0.00073004853245180038 0.00008230701643768674 0.00020487651043970179 0.13275457862793488273 0.25017690309469642340 0.01442642687745634110 0.00001872072563759354 0.00001750625943419561 0.00001809987484111278
1520530340.151065 0.00000000000000000000 0.00000000000000000000 0.00000000000000000000 0.00000000000000000000 0.00000000000000000000 0.00000000000000000000 -0.04088388504412068108 -0.00910089662548661457 -0.04046731956297711791 0.00071992088648305187 0.00007993977726912947 0.00022054767701299818 0.13059927348563829530 0.24769954322485621123 0.01448283710210752570 0.00001864825964476858 0.00001742829909903025 0.00001813355726005144
1520530340.250395 0.00000000000000000000 0.00000000000000000000 0.00000000000000000000 0.00000000000000000000 0.00000000000000000000 0.00000000000000000000 -0.04181551793857757326 -0.01224895266232453768 -0.04117407035114219876 0.00073299360670350160 0.00005423549830737641 0.00017537276527023848 0.12845069689950774916 0.24523567391049275188 0.01455418166104132174 0.00001863567186903295 0.00001745357665009082 0.00001820092291269361
1520530340.300397 0.00000000000000000000 0.00000000000000000000 0.00000000000000000000 0.00000000000000000000 0.00000000000000000000 0.00000000000000000000 -0.04242852567517688828 -0.01187954025015128603 -0.04108998679627500622  0.00082238771188354858 -0.00000256863450738101  0.00020328676076778135 0.12738840388594313557 0.24384224796193038065 0.01459432223457191209 0.00001850845079386451 0.00001738826948796480 0.00001818520849621173
1520530340.400400 0.00000000000000000000 0.00000000000000000000 0.00000000000000000000 0.00000000000000000000 0.00000000000000000000 0.00000000000000000000 -0.04243431753121876260 -0.01271355092791268820 -0.04146715152101760476  0.00083351099533666582 -0.00005609063270991030  0.00012164530313283790 0.12538989076392978439 0.24148731841218679106 0.01467818669084838823 0.00001845978845880467 0.00001737319539723059 0.00001816867348929593
1520530340.500403 0.00000000000000000000 0.00000000000000000000 0.00000000000000000000 0.00000000000000000000 0.00000000000000000000 0.00000000000000000000 -0.04184831001437993442 -0.01300663238795307132 -0.04165232297061464972  0.00086157319407016405 -0.00007351944209423963  0.00007001608126760419 0.12360242122633068040 0.23951389650058657610 0.01476661551448683711 0.00001847868212853705 0.00001736032752864448 0.00001819062789021610
1520530340.600406 0.00000000000000000000 0.00000000000000000000 0.00000000000000000000 0.00000000000000000000 0.00000000000000000000 0.00000000000000000000 -0.03959128971002680297 -0.01351529358328279647 -0.04179316057106360199  0.00098034092142865246 -0.00014667880255704195  0.00012075232662723866 0.12210335202771877006 0.23796406363015309982 0.01485136901265507806 0.00001855327355029082 0.00001740635981664933 0.00001825564523362761
1520530340.700348 0.00000000000000000000 0.00000000000000000000 0.00000000000000000000 0.00000000000000000000 0.00000000000000000000 0.00000000000000000000 -0.03872647576753356080 -0.01457582161165518753 -0.04114818843410884136  0.00085848938273247650 -0.00003886547988815171  0.00014832736801006428 0.12089847235156865601 0.23710196589284115998 0.01492631309004038495 0.00001867304476957212 0.00001747868125166364 0.00001835696713965938
