1520530315.549643 0.00000000000000000000 0.00000000000000000000 0.00000000000000000000 0.00000000000000000000 0.00000000000000000000 0.00000000000000000000 -0.80862264242383552482 -0.02871154494104813035  0.00270177696367885451  0.00195499312135979583 -0.00073428873895416938  0.00040572609657847408 3.99689889341224890984 6.07667856172075104837 0.04780802814441736243 0.00002826848077695183 0.00002801450452506512 0.00002780838202029572
1520530315.649646 0.00000000000000000000 0.00000000000000000000 0.00000000000000000000 0.00000000000000000000 0.00000000000000000000 0.00000000000000000000 -2.75141954873510741209 -0.59475121923838003557  0.24847727881582348797 -0.00011117686338722106 -0.00062288992010917880  0.00036325397079091723 2.97537603254086135962 5.58343831706325310904 0.06716518722434304534 0.00002801570090588997 0.00002745971778781798 0.00002765527735461930
1520530315.749639 0.00000000000000000000 0.00000000000000000000 0.00000000000000000000 0.00000000000000000000 0.00000000000000000000 0.00000000000000000000 -1.22182241395042723298 -0.24466112833791620051 -0.06371727171689400837 -0.00069320223858783858 -0.00069134176838053481  0.00035738321768061346 3.92969954700380164070 5.67549057039174265071 0.39829811839964118780 0.00002807610647486753 0.00002719694878181212 0.00002769993783513613
1520530315.899643 0.00000000000000000000 0.00000000000000000000 0.00000000000000000000 0.00000000000000000000 0.00000000000000000000 0.00000000000000000000 -0.60886599847481082115 -0.18227428487981608973 -0.24952027922624442358 -0.00101669137264044879 -0.00059997671561480201  0.00015061113441368571 4.45941870871650092312 5.44656362613471767276 0.46972617328743737630 0.00002808588886631892 0.00002664849947554718 0.00002695537770161122
1520530316.100221 0.00000000000000000000 0.00000000000000000000 0.00000000000000000000 0.00000000000000000000 0.00000000000000000000 0.00000000000000000000 -0.45357730106201910036 -0.03055670329002174376 -0.01579858265895079175 -0.00092257037798868001 -0.00010143215771804538  0.00000773016380401731 3.70927554871339903997 5.30161880216149938860 0.05904136686520063820 0.00002779031342559789 0.00002587774965448565 0.00002636825255478941
1520530316.250226 0.00000000000000000000 0.00000000000000000000 0.00000000000000000000 0.00000000000000000000 0.00000000000000000000 0.00000000000000000000 -0.42979538885139467741 -0.00438891607305455511 -0.01546750120847408157 -0.00083631731647275680 -0.00024187188670650653 -0.00026558012396099643 3.25508422801858454676 4.93119623565483600203 0.05428135749395245763 0.00002655199937296452 0.00002527531115612542 0.00002577286817286857
1520530316.400230 0.00000000000000000000 0.00000000000000000000 0.00000000000000000000 0.00000000000000000000 0.00000000000000000000 0.00000000000000000000 -0.40754163160378098496  0.00499274736680070056 -0.01619624455867148954 -0.00068544634015806321 -0.00033472789360602245 -0.00046440858830027625 2.88223509255866794376 4.58662162813441209863 0.04977151513960330342 0.00002578855596870029 0.00002480710959869273 0.00002525751708038875
1520530316.600278 0.00000000000000000000 0.00000000000000000000 0.00000000000000000000 0.00000000000000000000 0.00000000000000000000 0.00000000000000000000 -0.46443515558909936880 -0.04952202172597003349 -0.00842018472790996564 -0.00071683079805428792 -0.00031855440957428971 -0.00048249884442059935 2.55695836081186467226 4.20458678200524005319 0.04616992194464505234 0.00002515137676848968 0.00002436449583964929 0.00002446657784069532
1520530316.800284 0.00000000000000000000 0.00000000000000000000 0.00000000000000000000 0.00000000000000000000 0.00000000000000000000 0.00000000000000000000 -0.51309862895639435365 -0.03199390711291192485 -0.00827582545683950427 -0.00109170754484621277 -0.00012585575012386487 -0.00049056065575996620 2.34970926967173765476 3.78138973316380466727 0.04332642038784435823 0.00002551166252117094 0.00002426507424621183 0.00002445078938493838
1520530316.949773 0.00000000000000000000 0.00000000000000000000 0.00000000000000000000 0.00000000000000000000 0.00000000000000000000 0.00000000000000000000 -0.55656815189564090574 -0.05406625285754166482 -0.00537767593608118842 -0.00115281621205221962 -0.00034055001208423884  0.00000624049478831995 2.27020902036825678039 3.39260454521980436837 0.04179931567787833341 0.00002704532346164907 0.00002434976559427064 0.00002524769324678304
1520530317.049776 0.00000000000000000000 0.00000000000000000000 0.00000000000000000000 0.00000000000000000000 0.00000000000000000000 0.00000000000000000000 -0.54855563538181284500 -0.08460751520741818799 -0.00790978437792850923 -0.00119776370544125849 -0.00053514742120457201  0.00003086037383884295 2.24022486840117629470 3.25996286542019131360 0.04151483725679400855 0.00002636834358874444 0.00002436993497680159 0.00002520437313128999
1520530317.199781 0.00000000000000000000 0.00000000000000000000 0.00000000000000000000 0.00000000000000000000 0.00000000000000000000 0.00000000000000000000 -0.55844238593071493515 -0.14423159306493274490 -0.00599837439101019720 -0.00108765732790182517 -0.00059447481155025040 -0.00003056901433671128 2.19830706732582203955 2.99012423213257472199 0.04109915527548596570 0.00002710923918169773 0.00002411348130596031 0.00002524231539206090
1520530317.349743 0.00000000000000000000 0.00000000000000000000 0.00000000000000000000 0.00000000000000000000 0.00000000000000000000 0.00000000000000000000 -0.56863949234488753159 -0.15763860075715060982 -0.00564063343649348192 -0.00113684056666141773 -0.00095988808486557355 -0.00007777325789033774 2.17567923594180534508 2.77296153057441685519 0.04014246528166703909 0.00002641294272650571 0.00002393968059384126 0.00002487432739427982
1520530317.549752 0.00000000000000000000 0.00000000000000000000 0.00000000000000000000 0.00000000000000000000 0.00000000000000000000 0.00000000000000000000 -0.58105509235723473704 -0.17710246045855873587 -0.00150472415317805101 -0.00130356744761506182 -0.00098681937822658883 -0.00013243577948387345 2.17381269397595788817 2.59306894292925349532 0.04055183463738891436 0.00002713152348772831 0.00002334301529795013 0.00002464517453475088
1520530317.699755 0.00000000000000000000 0.00000000000000000000 0.00000000000000000000 0.00000000000000000000 0.00000000000000000000 0.00000000000000000000 -0.57936032970861706115 -0.16364891809755319207 -0.00266985102941074770 -0.00115004293547494533 -0.00073291754088281101 -0.00024244323731026073 2.16976503266944753534 2.50479266023264690588 0.04073639098588934665 0.00002710598868204395 0.00002312995016745060 0.00002440990004293022
1520530317.800239 0.00000000000000000000 0.00000000000000000000 0.00000000000000000000 0.00000000000000000000 0.00000000000000000000 0.00000000000000000000 -0.56309973235598065333 -0.13704093829212340983 -0.00515883128135059821 -0.00088518054723773696 -0.00049028518014825951 -0.00035844892022777379 2.15106778150698563223 2.43849957896624314202 0.04058658048680465619 0.00002556968647300769 0.00002260395173107494 0.00002346591055811307
1520530317.950243 0.00000000000000000000 0.00000000000000000000 0.00000000000000000000 0.00000000000000000000 0.00000000000000000000 0.00000000000000000000 -0.56236181242017502235 -0.12826842146016187440 -0.00472666680152822750 -0.00092961334444551706 -0.00055516877314509177 -0.00044683098737533590 2.14065658061432362302 2.36669539237340931237 0.04063113508892048781 0.00002527258096293541 0.00002239618617173522 0.00002322052697391965
1520530318.100248 0.00000000000000000000 0.00000000000000000000 0.00000000000000000000 0.00000000000000000000 0.00000000000000000000 0.00000000000000000000 -0.54520941538285516703 -0.09871994214084549302 -0.00363924610495660727 -0.00080110636470185476 -0.00058691596784502551 -0.00067634392887862391 2.13321989291063562888 2.30670563179524723552 0.04008156660465907878 0.00002551121129070668 0.00002241300995888492 0.00002335153434411980
1520530318.200769 0.00000000000000000000 0.00000000000000000000 0.00000000000000000000 0.00000000000000000000 0.00000000000000000000 0.00000000000000000000 -0.52593825968400675919 -0.06098809614395271639 -0.00537174486284321389 -0.00066506027271462506 -0.00049102777097948869 -0.00031537961499663740 2.12074551860655979851 2.27075446470221997686 0.04020642121697756005 0.00002546584182872553 0.00002236623014014110 0.00002333634472432041
1520530318.350774 0.00000000000000000000 0.00000000000000000000 0.00000000000000000000 0.00000000000000000000 0.00000000000000000000 0.00000000000000000000 -0.46741276139074844354 -0.02277164667607918178 -0.01177128870863539643 -0.00055361671115727884 -0.00032643874377137383 -0.00003941341526315391 2.06070641633702367201 2.22620541475555810962 0.03996191151757278598 0.00002511604450032583 0.00002204514139585275 0.00002297015375847819
1520530318.500778 0.00000000000000000000 0.00000000000000000000 0.00000000000000000000 0.00000000000000000000 0.00000000000000000000 0.00000000000000000000 -0.40492792774964136981  0.02145177312290578661 -0.01961149346909112773 -0.00039343893901242871 -0.00037448202169583500  0.00024946778280459248 1.95519707624502170340 2.19578510484887834409 0.03931767744704801198 0.00002511685977282260 0.00002191625866362932 0.00002293051413069746
1520530318.650568 0.00000000000000000000 0.00000000000000000000 0.00000000000000000000 0.00000000000000000000 0.00000000000000000000 0.00000000000000000000 -0.35894521111872085273  0.04590614542604931625 -0.02505573653029850856 -0.00035206734296089191 -0.00026385579104090163  0.00029934683853379565 1.81198680592737826345 2.16504157641518268917 0.03830002973835731211 0.00002475731228717290 0.00002169678810813979 0.00002264702396582341
1520530318.800573 0.00000000000000000000 0.00000000000000000000 0.00000000000000000000 0.00000000000000000000 0.00000000000000000000 0.00000000000000000000 -0.31868635753562024604  0.06650345254377436344 -0.03084105257638173128 -0.00043259822901619909 -0.00040431693337922124  0.00035728322373125934 1.64808098313024209425 2.11683591025393802454 0.03728006356526023662 0.00002406307181096985 0.00002150884312972476 0.00002248544115463318
1520530318.950577 0.00000000000000000000 0.00000000000000000000 0.00000000000000000000 0.00000000000000000000 0.00000000000000000000 0.00000000000000000000 -0.27154715151929947892  0.05147326663567630689 -0.02968852682978702709 -0.00033320769219561731 -0.00047672827843823367  0.00032740448197304269 1.48979937160914466254 2.06615425934348451165 0.02592678223375232197 0.00002397107214450718 0.00002144455997444588 0.00002231773737123563
1520530319.049958 0.00000000000000000000 0.00000000000000000000 0.00000000000000000000 0.00000000000000000000 0.00000000000000000000 0.00000000000000000000 -0.24602737930063839356  0.01677854745517197432 -0.03360759089942153000 -0.00037776396455381235 -0.00042325836310630639  0.00038271917128395762 1.39516004322834863416 2.01677918454785398694 0.02569334156413816475 0.00002368601533471289 0.00002126574106371984 0.00002224012866751216
1520530319.199962 0.00000000000000000000 0.00000000000000000000 0.00000000000000000000 0.00000000000000000000 0.00000000000000000000 0.00000000000000000000 -0.18536044958219066725  0.02586128816056004753 -0.03842846771532384964 -0.00043012058308378648 -0.00048793798088298890  0.00037524316463234252 1.26070248405623819288 1.92251610421461283096 0.02593039151171882759 0.00002316158713019818 0.00002105565895664482 0.00002208426030612833
1520530319.349967 0.00000000000000000000 0.00000000000000000000 0.00000000000000000000 0.00000000000000000000 0.00000000000000000000 0.00000000000000000000 -0.17444199383860053976  0.00612162454189737072 -0.03804993311557672980 -0.00023099079231096240 -0.00045145919868694708  0.00034679543354671069 1.15783211762973836656 1.81616881850386513442 0.02575649717023317797 0.00002285567836496717 0.00002074690455744422 0.00002169305651263543
1520530319.449833 0.00000000000000000000 0.00000000000000000000 0.00000000000000000000 0.00000000000000000000 0.00000000000000000000 0.00000000000000000000 -0.18423759058438668457 -0.01047665539018968750 -0.03638449723359270943  0.00009897300916785948 -0.00030821529677797766  0.00056085067655110951 1.10822034170159011701 1.75173598144613573702 0.02567765402129160851 0.00002340735825665546 0.00002049794040414144 0.00002146106222456912
1520530319.599838 0.00000000000000000000 0.00000000000000000000 0.00000000000000000000 0.00000000000000000000 0.00000000000000000000 0.00000000000000000000 -0.19744555360779952879 -0.03733209857620953254 -0.03453025491586379087  0.00029443400314474607 -0.00021539346580436383  0.00054142734178360536 1.05360739260300584341 1.67302799193944795597 0.02557937917071948300 0.00002331239663816815 0.00002040331745579286 0.00002148436686399574
1520530319.749942 0.00000000000000000000 0.00000000000000000000 0.00000000000000000000 0.00000000000000000000 0.00000000000000000000 0.00000000000000000000 -0.17527646880566613574 -0.01305334589910360325 -0.03556578085191120647  0.00007284955805560172 -0.00019787267905152807  0.00059805384435135834 1.01719669375678312129 1.62887171954367437898 0.02559262113593860008 0.00002296406182322167 0.00002028433739579278 0.00002137063303713667
1520530319.850343 0.00000000000000000000 0.00000000000000000000 0.00000000000000000000 0.00000000000000000000 0.00000000000000000000 0.00000000000000000000 -0.16854430731525735232  0.00977136793808059539 -0.03620052900010287122  0.00004377882584630127 -0.00036788644051131497  0.00056704260986103854 1.00463786058898540965 1.62239551003035797905 0.02564917529341928862 0.00002257763862705909 0.00002018174833723868 0.00002133408862619380
1520530319.950346 0.00000000000000000000 0.00000000000000000000 0.00000000000000000000 0.00000000000000000000 0.00000000000000000000 0.00000000000000000000 -0.16157326376390546141  0.01481553186101743948 -0.03616808742275957195 -0.00005125253573802950 -0.00044472130005454244  0.00059911107643417707 0.98662076242792984271 1.62005768358614754554 0.02551392141747547970 0.00002165870084457609 0.00001984520502524809 0.00002102304480248576
1520530320.050349 0.00000000000000000000 0.00000000000000000000 0.00000000000000000000 0.00000000000000000000 0.00000000000000000000 0.00000000000000000000 -0.13279711392940465875  0.01984334023598593316 -0.03677189807812200617 -0.00028943207044378216 -0.00043137536913143165  0.00065989217804313994 0.96838969873360059015 1.61264862991069146680 0.02516781234000892153 0.00002059726664621566 0.00001955358026968328 0.00002042366388723179
1520530320.150352 0.00000000000000000000 0.00000000000000000000 0.00000000000000000000 0.00000000000000000000 0.00000000000000000000 0.00000000000000000000 -0.12331073874967624082  0.01650151476126627062 -0.03653868061815588458 -0.00032847288987045988 -0.00031281163762671496  0.00080247953276325109 0.95792510976286415758 1.60132575451160485969 0.02478117807901696057 0.00002033070390437963 0.00001942030904190096 0.00002000219841657723
1520530320.250402 0.00000000000000000000 0.00000000000000000000 0.00000000000000000000 0.00000000000000000000 0.00000000000000000000 0.00000000000000000000 -0.10606591551511224125  0.00501139650408542661 -0.03650213743668866834 -0.00053594682934561555 -0.00025457830952511890  0.00071646088292584445 0.95382566771141397144 1.59117364928409221747 0.02440620894074063338 0.00002034455548882241 0.00001934787563567234 0.00001980379067996050
1520530320.400407 0.00000000000000000000 0.00000000000000000000 0.00000000000000000000 0.00000000000000000000 0.00000000000000000000 0.00000000000000000000 -0.10465311855955006237  0.00921554909386536336 -0.03725589860555647559 -0.00061271854199912283 -0.00019428275166643989  0.00052143483581630070 0.94355762288521205505 1.56947822310178541905 0.02396301186391218765 0.00002040304223801015 0.00001931614494331908 0.00001969069807865828
1520530320.550412 0.00000000000000000000 0.00000000000000000000 0.00000000000000000000 0.00000000000000000000 0.00000000000000000000 0.00000000000000000000 -0.10445124014249962396  0.02563282065646495939 -0.03906835050900887146 -0.00081438614992057059 -0.00029435939696547363  0.00044337909376577844 0.91930084786416155218 1.51664269482593327965 0.02343825929459458432 0.00002039246663677856 0.00001931981107749218 0.00001969835781668074
1520530320.649871 0.00000000000000000000 0.00000000000000000000 0.00000000000000000000 0.00000000000000000000 0.00000000000000000000 0.00000000000000000000 -0.10751450762816776308  0.01546524121798896825 -0.03852537566742098712 -0.00066650911339405220 -0.00030903416181822209  0.00041421182745880498 0.89833340279395834660 1.46025744478822905315 0.02214628345382631952 0.00002052239394707416 0.00001938851705342853 0.00001982636249407963
1520530320.799876 0.00000000000000000000 0.00000000000000000000 0.00000000000000000000 0.00000000000000000000 0.00000000000000000000 0.00000000000000000000 -0.09713769958508264302 -0.00501252094369168504 -0.03988416352860506275 -0.00048563573600025488 -0.00064509461751152263  0.00031393780811576113 0.85584249282188407104 1.35163654152497159089 0.02155593427611502202 0.00002048204534556539 0.00001936796790353341 0.00001987660944595369
1520530320.949880 0.00000000000000000000 0.00000000000000000000 0.00000000000000000000 0.00000000000000000000 0.00000000000000000000 0.00000000000000000000 -0.08490234490612412477 -0.03238012634302451370 -0.03896091188059324500 -0.00033012324303100709 -0.00097528257265690308  0.00027335479732655587 0.80882088226797588248 1.24990004880550342747 0.02106677708942719662 0.00002033308357277737 0.00001915791280197547 0.00001985746816319491
1520530321.099742 0.00000000000000000000 0.00000000000000000000 0.00000000000000000000 0.00000000000000000000 0.00000000000000000000 0.00000000000000000000 -0.07853376109965032326 -0.02176840186575574806 -0.03989209899058945852 -0.00034462229323805796 -0.00070185682174286781  0.00033696274274917835 0.76270947418036394438 1.17183406071240736601 0.02064956184590509281 0.00002009115479860318 0.00001900862862079000 0.00001985522689448657
1520530321.199745 0.00000000000000000000 0.00000000000000000000 0.00000000000000000000 0.00000000000000000000 0.00000000000000000000 0.00000000000000000000 -0.08047804067271038808 -0.03605792224287707876 -0.03956445808576287276 -0.00036519129748521252 -0.00054795508858447996  0.00043742541668579326 0.73381700837239749458 1.13252130683782081810 0.02040067426033855685 0.00001995633509989403 0.00001889599037780693 0.00001967266933205564
1520530321.299749 0.00000000000000000000 0.00000000000000000000 0.00000000000000000000 0.00000000000000000000 0.00000000000000000000 0.00000000000000000000 -0.08884818390537006783 -0.03903647737566948855 -0.03949579663403030017 -0.00022413623920159863 -0.00047740134969855209  0.00048980602678713086 0.70741006336503842178 1.09677982790511352462 0.02016578652117208617 0.00002004752274122634 0.00001887837422121626 0.00001965245029740721
1520530321.449856 0.00000000000000000000 0.00000000000000000000 0.00000000000000000000 0.00000000000000000000 0.00000000000000000000 0.00000000000000000000 -0.09465878480188674726 -0.03069572850170995681 -0.04004461320694249760 -0.00035421315586083751 -0.00037116402137343861  0.00052594678546435416 0.67379527301678376894 1.04379854610242994717 0.01974607248664995637 0.00002095300812815386 0.00001933985095105722 0.00002002554272213504
1520530321.599860 0.00000000000000000000 0.00000000000000000000 0.00000000000000000000 0.00000000000000000000 0.00000000000000000000 0.00000000000000000000 -0.09236485656499728025 -0.03531797356377905373 -0.03987668638954647987 -0.00027830994524765876 -0.00034978671200158528  0.00048608293989679905 0.64386835747403858843 0.99378849022204129859 0.01931852684035392786 0.00002081382901232393 0.00001923011569085987 0.00001986768053435891
1520530321.699863 0.00000000000000000000 0.00000000000000000000 0.00000000000000000000 0.00000000000000000000 0.00000000000000000000 0.00000000000000000000 -0.08889985855175382146 -0.04025737882604391721 -0.03857233133536941416 -0.00017260637685828661 -0.00041408799029391035  0.00050989597853757335 0.62607835777238218800 0.96037761018430878313 0.01898969420563880600 0.00002065696104751365 0.00001915666439267616 0.00001978224448006928
1520530321.850152 0.00000000000000000000 0.00000000000000000000 0.00000000000000000000 0.00000000000000000000 0.00000000000000000000 0.00000000000000000000 -0.08604451940119603459 -0.05363713644176144185 -0.03261180744982521834 -0.00013197516887749955 -0.00078095741478305142  0.00059610752846276163 0.60098665241824034133 0.91565060806516018754 0.01852216976341030524 0.00002052222196908129 0.00001898697294884640 0.00001975503775975486
1520530322.000157 0.00000000000000000000 0.00000000000000000000 0.00000000000000000000 0.00000000000000000000 0.00000000000000000000 0.00000000000000000000 -0.08808802079655261852 -0.04855805380071660793 -0.03042497412540533935 -0.00020530983770956213 -0.00072266373489551512  0.00069426040579016854 0.57625115030984119802 0.87536454214073744495 0.01801677893916691503 0.00002035551178857836 0.00001886986623691080 0.00001967446304044416
1520530322.150162 0.00000000000000000000 0.00000000000000000000 0.00000000000000000000 0.00000000000000000000 0.00000000000000000000 0.00000000000000000000 -0.09387395357810471297 -0.05975589946029086913 -0.02784940247944418801 -0.00010555824241962903 -0.00091544620474098045  0.00056619480417550430 0.55486712410487515346 0.84328611503581318853 0.01761966285089404047 0.00002033230379786736 0.00001858210508469915 0.00001959428495225308
1520530322.350210 0.00000000000000000000 0.00000000000000000000 0.00000000000000000000 0.00000000000000000000 0.00000000000000000000 0.00000000000000000000 -0.09832975072953020756 -0.03260908135013258075 -0.03130695676732835747 -0.00005499166993776792 -0.00063853026938552669  0.00074205682094711264 0.52845458066002071185 0.81005185181881977918 0.01843124637645883468 0.00002014806430371828 0.00001837444048501995 0.00001949361249500406
1520530322.550216 0.00000000000000000000 0.00000000000000000000 0.00000000000000000000 0.00000000000000000000 0.00000000000000000000 0.00000000000000000000 -0.11063639808000703957 -0.04168634132331867914 -0.03187349490271925573 -0.00002510208582501031 -0.00077018619576457779  0.00054768874428534359 0.50934954311011970685 0.78806847119168554894 0.01837825957248815159 0.00002026239761800312 0.00001830279212051574 0.00001961050439561392
1520530322.700026 0.00000000000000000000 0.00000000000000000000 0.00000000000000000000 0.00000000000000000000 0.00000000000000000000 0.00000000000000000000 -0.12019166132246321410 -0.06983683165239347457 -0.03387842584439317017  0.00000342518324905585 -0.00088093701893080466  0.00051997639963722794 0.49835725557961246812 0.77510429432466243505 0.01839708960515541031 0.00002040103575010777 0.00001829629606933725 0.00001967851875290208
1520530322.900065 0.00000000000000000000 0.00000000000000000000 0.00000000000000000000 0.00000000000000000000 0.00000000000000000000 0.00000000000000000000 -0.12872439521007023044 -0.06759779532171615590 -0.03592744733662700529 -0.00025610756895823653 -0.00063650525685246344  0.00031514899357967959 0.48656877268695220007 0.75858456446927879924 0.01849511709824925090 0.00002029735121980331 0.00001822649975456762 0.00001958196785040884
1520530323.050036 0.00000000000000000000 0.00000000000000000000 0.00000000000000000000 0.00000000000000000000 0.00000000000000000000 0.00000000000000000000 -0.13794790067718717963 -0.07654495063540721345 -0.03611973971779366271 -0.00053452305198666212 -0.00074849833350121536 -0.00002114650190815529 0.47890385376195049316 0.74875828819307266304 0.01853156903876488834 0.00001991114992491712 0.00001816876416256673 0.00001937782270499374
1520530323.200077 0.00000000000000000000 0.00000000000000000000 0.00000000000000000000 0.00000000000000000000 0.00000000000000000000 0.00000000000000000000 -0.14390739387763751278 -0.07419998138047256830 -0.03620311233024234299 -0.00052277982082841947 -0.00079101616605110024 -0.00004079060919632286 0.47266195498207469461 0.73908465827050884300 0.01857595397760511066 0.00001951444660989726 0.00001811378964315698 0.00001901781851613443
1520530323.350082 0.00000000000000000000 0.00000000000000000000 0.00000000000000000000 0.00000000000000000000 0.00000000000000000000 0.00000000000000000000 -0.12816613364327178459 -0.06572913899357189782 -0.03391186358288359598 -0.00019526109134501631 -0.00066948959067399192  0.00007434343732526800 0.46842995780803192707 0.72918821417189771950 0.01850908291575683803 0.00001931772225460270 0.00001804816124743142 0.00001890845767497927
1520530323.450085 0.00000000000000000000 0.00000000000000000000 0.00000000000000000000