1520530315.649646 0.00000000000000000000 0.00000000000000000000 0.00000000000000000000 0.00000000000000000000 0.00000000000000000000 0.00000000000000000000 -2.40644111493446910544 -0.47099223564648862173  0.14284521782634787557  0.00103455654998905458 -0.00074540984645308519  0.00037732860475537053
1520530315.749639 0.00000000000000000000 0.00000000000000000000 0.00000000000000000000 0.00000000000000000000 0.00000000000000000000 0.00000000000000000000 -2.93407465417209190051 -0.56767762321766102040  0.26934335876382065056 -0.00011922830191393627 -0.00062400898300512403  0.00036082521060478676
1520530315.899643 0.00000000000000000000 0.00000000000000000000 0.00000000000000000000 0.00000000000000000000 0.00000000000000000000 0.00000000000000000000 -0.93931024231560744653 -0.16821642995589392022 -0.15354078762711939610 -0.00069987857068154165 -0.00068911533212963002  0.00042333755579212785
1520530316.100221 0.00000000000000000000 0.00000000000000000000 0.00000000000000000000 0.00000000000000000000 0.00000000000000000000 0.00000000000000000000 -0.59637112525626212456 -0.22721612122243939336 -0.24302039912402498278 -0.00103961413543903684 -0.00058790833439585838  0.00014808603501807922
1520530316.250226 0.00000000000000000000 0.00000000000000000000 0.00000000000000000000 0.00000000000000000000 0.00000000000000000000 0.00000000000000000000 -0.42367284660657372752  0.03932943748183455324 -0.02057107400792938454 -0.00093200735197193532 -0.00010233171850205265 -0.00002250407806339223
1520530316.400230 0.00000000000000000000 0.00000000000000000000 0.00000000000000000000 0.00000000000000000000 0.00000000000000000000 0.00000000000000000000 -0.41385168527826693419  0.00635847340439082195 -0.01666751160396310813 -0.00080985806454004594 -0.00027008498057651091 -0.00028650400967812043
1520530316.600278 0.00000000000000000000 0.00000000000000000000 0.00000000000000000000 0.00000000000000000000 0.00000000000000000000 0.00000000000000000000 -0.39710887409742601228 -0.02975491574117642563 -0.01478167552665912710 -0.00069503641352494996 -0.00033255846822458535 -0.00048225844389983155
1520530316.800284 0.00000000000000000000 0.00000000000000000000 0.00000000000000000000 0.00000000000000000000 0.00000000000000000000 0.00000000000000000000 -0.48051998521304895018 -0.03407800557980966011 -0.00925593728186253385 -0.00075557758897534485 -0.00029514256951216781 -0.00049330516973064445
1520530316.949773 0.00000000000000000000 0.00000000000000000000 0.00000000000000000000 0.00000000000000000000 0.00000000000000000000 0.00000000000000000000 -0.51862651000229420539 -0.03947372438878516548 -0.00860224960564130552 -0.00112088014293280870 -0.00012693945479519094 -0.00049086120960485245
1520530317.049776 0.00000000000000000000 0.00000000000000000000 0.00000000000000000000 0.00000000000000000000 0.00000000000000000000 0.00000000000000000000 -0.54933092586968601534 -0.04037873291183622509 -0.00867527691380950636 -0.00114813591762363376 -0.00033971266507068959  0.00000887732446042329
1520530317.199781 0.00000000000000000000 0.00000000000000000000 0.00000000000000000000 0.00000000000000000000 0.00000000000000000000 0.00000000000000000000 -0.54243860355570405751 -0.09895707816380888699 -0.00822783147945287466 -0.00120728787250391940 -0.00053752953208747111  0.00004158263136001105
1520530317.349743 0.00000000000000000000 0.00000000000000000000 0.00000000000000000000 0.00000000000000000000 0.00000000000000000000 0.00000000000000000000 -0.55822909590780545042 -0.15234544405951394586 -0.00598433010113680591 -0.00108328933229490587 -0.00060315937893832433 -0.00003287151068829480
1520530317.549752 0.00000000000000000000 0.00000000000000000000 0.00000000000000000000 0.00000000000000000000 0.00000000000000000000 0.00000000000000000000 -0.57332672952716245973 -0.16156765674932951904 -0.00394572691993290252 -0.00114039547299447800 -0.00096402152342746263 -0.00007176417197782110
1520530317.699755 0.00000000000000000000 0.00000000000000000000 0.00000000000000000000 0.00000000000000000000 0.00000000000000000000 0.00000000000000000000 -0.58435849455744670600 -0.18206140430717565604 -0.00107005465073511897 -0.00129827772571705765 -0.00098639398140441554 -0.00014814886032869977
1520530317.800239 0.00000000000000000000 0.00000000000000000000 0.00000000000000000000 0.00000000000000000000 0.00000000000000000000 0.00000000000000000000 -0.57433558606846601968 -0.15744933204124542114 -0.00357247672538076348 -0.00114016832090277288 -0.00071710574404343298 -0.00024174441671782527
1520530317.950243 0.00000000000000000000 0.00000000000000000000 0.00000000000000000000 0.00000000000000000000 0.00000000000000000000 0.00000000000000000000 -0.56317524665897245040 -0.13333736827714473550 -0.00460500471190445921 -0.00087831991455994049 -0.00049439153307201150 -0.00035959700263707661
1520530318.100248 0.00000000000000000000 0.00000000000000000000 0.00000000000000000000 0.00000000000000000000 0.00000000000000000000 0.00000000000000000000 -0.57364550911372813591 -0.12679988662215749273 -0.00214487088713469958 -0.00092543187514255955 -0.00055020058344845712 -0.00043875346110119749
1520530318.200769 0.00000000000000000000 0.00000000000000000000 0.00000000000000000000 0.00000000000000000000 0.00000000000000000000 0.00000000000000000000 -0.56053810731391762179 -0.08998086786650273672 -0.00243679721518704883 -0.00079771141366035152 -0.00058482231639415310 -0.00067387423662026806
1520530318.350774 0.00000000000000000000 0.00000000000000000000 0.00000000000000000000 0.00000000000000000000 0.00000000000000000000 0.00000000000000000000 -0.50796607049940756262 -0.03989409095578946157 -0.00787652878957253305 -0.00064399269923232257 -0.00048349061713172175 -0.00031124060325867653
1520530318.500778 0.00000000000000000000 0.00000000000000000000 0.00000000000000000000 0.00000000000000000000 0.00000000000000000000 0.00000000000000000000 -0.44527075559803069860 -0.00207146930697145243 -0.01480196774754674767 -0.00052122764284681677 -0.00032090347834241823 -0.00003285605532027155
1520530318.650568 0.00000000000000000000 0.00000000000000000000 0.00000000000000000000 0.00000000000000000000 0.00000000000000000000 0.00000000000000000000 -0.36621444857760987457  0.03709237681735398640 -0.02380587905169529589 -0.00035734771091450754 -0.00036696010619705034  0.00024797061479722558
1520530318.800573 0.00000000000000000000 0.00000000000000000000 0.00000000000000000000 0.00000000000000000000 0.00000000000000000000 0.00000000000000000000 -0.33724023436142108734  0.05814723958636634077 -0.02836528685735103736 -0.00032191064374141078 -0.00026001651641034066  0.00030185478510923587
1520530318.950577 0.00000000000000000000 0.00000000000000000000 0.00000000000000000000 0.00000000000000000000 0.00000000000000000000 0.00000000000000000000 -0.29901691799281970852  0.07933081848466121133 -0.03472901316387895509 -0.00041301977385594751 -0.00040160794355575019  0.00035890872849166832
1520530319.049958 0.00000000000000000000 0.00000000000000000000 0.00000000000000000000 0.00000000000000000000 0.00000000000000000000 0.00000000000000000000 -0.26664755564531911203  0.04701322104785740641 -0.03068609144907280539 -0.00033130994612752730 -0.00047437516481508110  0.00032582823791503848
1520530319.199962 0.00000000000000000000 0.00000000000000000000 0.00000000000000000000 0.00000000000000000000 0.00000000000000000000 0.00000000000000000000 -0.24116155330397359702  0.03604480355709340639 -0.03610795132989107897 -0.00036738972569405138 -0.00042224270666938542  0.00038349856633893920
1520530319.349967 0.00000000000000000000 0.00000000000000000000 0.00000000000000000000 0.00000000000000000000 0.00000000000000000000 0.00000000000000000000 -0.17932624190786344842  0.02448624623895671523 -0.03884162738270530157 -0.00040760210693070389 -0.00049044761842219299  0.00037297425213024234
1520530319.449833 0.00000000000000000000 0.00000000000000000000 0.00000000000000000000 0.00000000000000000000 0.00000000000000000000 0.00000000000000000000 -0.17209061204570846870  0.00598338089103184027 -0.03804653243431854737 -0.00022781522654571879 -0.00045069724599186079  0.00034678332878978384
1520530319.599838 0.00000000000000000000 0.00000000000000000000 0.00000000000000000000 0.00000000000000000000 0.00000000000000000000 0.00000000000000000000 -0.17750448218284034518 -0.00924054561043317554 -0.03712984671134116760  0.00010888763744112365 -0.00031034236250094291  0.00057007890273690683
1520530319.749942 0.00000000000000000000 0.00000000000000000000 0.00000000000000000000 0.00000000000000000000 0.00000000000000000000 0.00000000000000000000 -0.19327610452204971314 -0.03722723036166471905 -0.03409572066530470319  0.00029514622005785636 -0.00021429069743401184  0.00054103470844903568
1520530319.850343 0.00000000000000000000 0.00000000000000000000 0.00000000000000000000 0.00000000000000000000 0.00000000000000000000 0.00000000000000000000 -0.17479840816432834494 -0.01310794094123324954 -0.03481205067859306779  0.00007423294276464495 -0.00019787231502964214  0.00059755117205452664
1520530319.950346 0.00000000000000000000 0.00000000000000000000 0.00000000000000000000 0.00000000000000000000 0.00000000000000000000 0.00000000000000000000 -0.16779684839103836680  0.00704275325322363532 -0.03553017452517964053  0.00004432773146360636 -0.00037051513792429815  0.00056657635444434752
1520530320.050349 0.00000000000000000000 0.00000000000000000000 0.00000000000000000000 0.00000000000000000000 0.00000000000000000000 0.00000000000000000000 -0.15965152820398167965  0.01255627905517289929 -0.03579511752053451262 -0.00005023864562917715 -0.00044885635797656953  0.00059745743919771468
1520530320.150352 0.00000000000000000000 0.00000000000000000000 0.00000000000000000000 0.00000000000000000000 0.00000000000000000000 0.00000000000000000000 -0.13477206298506752558  0.02275402978446041183 -0.03690940756849988430 -0.00029122212094752765 -0.00042962569373104136  0.00066771850467400970
1520530320.250402 0.00000000000000000000 0.00000000000000000000 0.00000000000000000000 0.00000000000000000000 0.00000000000000000000 0.00000000000000000000 -0.12397794332505548964  0.00904978663858228491 -0.03606723777629190775 -0.00032567089394577674 -0.00031467193805487210  0.00081137632346946740
1520530320.400407 0.00000000000000000000 0.00000000000000000000 0.00000000000000000000 0.00000000000000000000 0.00000000000000000000 0.00000000000000000000 -0.10355105618235696530  0.00490315252474619791 -0.03689393945597120583 -0.00053063307703532904 -0.00024910326719644453  0.00071168879928205995
1520530320.550412 0.00000000000000000000 0.00000000000000000000 0.00000000000000000000 0.00000000000000000000 0.00000000000000000000 0.00000000000000000000 -0.10859342741722111114  0.01533209728088869364 -0.03794494470729299629 -0.00061159449552894765 -0.00020232184030245567  0.00052081884791196030
1520530320.649871 0.00000000000000000000 0.00000000000000000000 0.00000000000000000000 0.00000000000000000000 0.00000000000000000000 0.00000000000000000000 -0.10553620163094558360  0.02184264290447717263 -0.03954535629098015342 -0.00081116514775163480 -0.00029586246353032516  0.00044424143409623753
1520530320.799876 0.00000000000000000000 0.00000000000000000000 0.00000000000000000000 0.00000000000000000000 0.00000000000000000000 0.00000000000000000000 -0.10988280885553092237  0.00963883385456854730 -0.03958952867333582343 -0.00066015674034964949 -0.00031112661050264144  0.00041315462135454051
1520530320.949880 0.00000000000000000000 0.00000000000000000000 0.00000000000000000000 0.00000000000000000000 0.00000000000000000000 0.00000000000000000000 -0.09634689436551528707 -0.00692113273858753573 -0.04036187172555258384 -0.00048442222398022860 -0.00064516014359150033  0.00031563352175475171
1520530321.099742 0.00000000000000000000 0.00000000000000000000 0.00000000000000000000 0.00000000000000000000 0.00000000000000000000 0.00000000000000000000 -0.08553579203752952054 -0.02517156420241941153 -0.03937201782779537612 -0.00033751304693569243 -0.00096966408120296565  0.00027296191229425674
1520530321.199745 0.00000000000000000000 0.00000000000000000000 0.00000000000000000000 0.00000000000000000000 0.00000000000000000000 0.00000000000000000000 -0.07515370353268141512 -0.02920743414982370639 -0.03998229685946035755 -0.00033817377868292450 -0.00069483039157658476  0.00034106639468498999
1520530321.299749 0.00000000000000000000 0.00000000000000000000 0.00000000000000000000 0.00000000000000000000 0.00000000000000000000 0.00000000000000000000 -0.08523548498649838323 -0.02967408196444999702 -0.04030037008302719131 -0.00036665753736103105 -0.00054604643113098997  0.00043842788221545539
1520530321.449856 0.00000000000000000000 0.00000000000000000000 0.00000000000000000000 0.00000000000000000000 0.00000000000000000000 0.00000000000000000000 -0.08592660716196715009 -0.03755190269226617999 -0.03950783305622100616 -0.00022562964744112781 -0.00048018859378385161  0.00049028098227423629
1520530321.599860 0.00000000000000000000 0.00000000000000000000 0.00000000000000000000 0.00000000000000000000 0.00000000000000000000 0.00000000000000000000 -0.09183867342472215589 -0.02802751550050373852 -0.04063888225095489692 -0.00035602423261665714 -0.00036853227364752172  0.00052345063358688940
1520530321.699863 0.00000000000000000000 0.00000000000000000000 0.00000000000000000000 0.00000000000000000000 0.00000000000000000000 0.00000000000000000000 -0.09243822876270026134 -0.03543606167031372600 -0.03959589942301396798 -0.00028618923671235524 -0.00035216894348098836  0.00048749523341924265
1520530321.850152 0.00000000000000000000 0.00000000000000000000 0.00000000000000000000 0.00000000000000000000 0.00000000000000000000 0.00000000000000000000 -0.08964838361938547162 -0.03451383500795766890 -0.03695199060688985487 -0.00017173253905551023 -0.00041906210146378653  0.00050962532509161572
1520530322.000157 0.00000000000000000000 0.00000000000000000000 0.00000000000000000000 0.00000000000000000000 0.00000000000000000000 0.00000000000000000000 -0.08241693127015317644 -0.04714779376969312902 -0.03150751390882668840 -0.00013761225093450883 -0.00077744530527213698  0.00059658088889689520
1520530322.150162 0.00000000000000000000 0.00000000000000000000 0.00000000000000000000 0.00000000000000000000 0.00000000000000000000 0.00000000000000000000 -0.08945609850156509280 -0.04450535279109279346 -0.02995811223501375353 -0.00020006223506202991 -0.00072892068111125819  0.00069228567383802070
1520530322.350210 0.00000000000000000000 0.00000000000000000000 0.00000000000000000000 0.00000000000000000000 0.00000000000000000000 0.00000000000000000000 -0.09368741337932653956 -0.04913184688329051697 -0.02994923697796181283 -0.00010967037757128893 -0.00091348489115853748  0.00057167769885838851
1520530322.550216 0.00000000000000000000 0.00000000000000000000 0.00000000000000000000 0.00000000000000000000 0.00000000000000000000 0.00000000000000000000 -0.09832814005321950657 -0.03284983667703344351 -0.03181977989646924548 -0.00004140971900519629 -0.00065298226929284787  0.00074400266536067553
1520530322.700026 0.00000000000000000000 0.00000000000000000000 0.00000000000000000000 0.00000000000000000000 0.00000000000000000000 0.00000000000000000000 -0.10785615272447508783 -0.04939069073917932290 -0.03326559180085760653 -0.00002101520467642117 -0.00076879942735733878  0.00054747068224345508
1520530322.900065 0.00000000000000000000 0.00000000000000000000 0.00000000000000000000 0.00000000000000000000 0.00000000000000000000 0.00000000000000000000 -0.11804797158617971742 -0.06559297008055577083 -0.03503409218944558701 -0.00000491984371852185 -0.00087153553015812053  0.00051592262393956683
1520530323.050036 0.00000000000000000000 0.00000000000000000000 0.00000000000000000000 0.00000000000000000000 0.00000000000000000000 0.00000000000000000000 -0.12801320632165316682 -0.06795871938082982677 -0.03644248501440284366 -0.00025615674476437241 -0.00063179574399660466  0.00031558186360393180
1520530323.200077 0.00000000000000000000 0.00000000000000000000 0.00000000000000000000 0.00000000000000000000 0.00000000000000000000 0.00000000000000000000 -0.14173757709398646099 -0.07626087026407371572 -0.03633531725652297539 -0.00053609740693850473 -0.00075291692318606943 -0.00002020993961254420
1520530323.350082 0.00000000000000000000 0.00000000000000000000 0.00000000000000000000 0.00000000000000000000 0.00000000000000000000 0.00000000000000000000 -0.14473613355605755015 -0.07514254188753388686