1520530315.499642 0.00000000000000000000 0.00000000000000000000 0.00000000000000000000 0.00000000000000000000 0.00000000000000000000 0.00000000000000000000 -0.84901815931206880972  0.04536259555409846017 -0.00114965935240152759  0.00059721491929861238 -0.00029416650008632885 -0.00110281956456382960 4.10120218238992251258 5.49832641823660051017 0.04724094377940225159 0.00002869551193653245 0.00002781676977686510 0.00002779187119238395
1520530315.599645 0.00000000000000000000 0.00000000000000000000 0.00000000000000000000 0.00000000000000000000 0.00000000000000000000 0.00000000000000000000 -2.81847313722228642874 -1.36698256309260601782  0.28400757773276574802 -0.00079055201217316626 -0.00023831598001872826 -0.00068143019334426314 3.67348471709814905495 4.86831439404981836105 0.06565087872693541049 0.00002865371903400981 0.00002743588991478793 0.00002784480004158021
1520530315.699637 0.00000000000000000000 0.00000000000000000000 0.00000000000000000000 0.00000000000000000000 0.00000000000000000000 0.00000000000000000000 -1.15912832767975326753 -0.22577639754815398421  0.04750119911835511133 -0.00109649781695931431 -0.00048574014425802232 -0.00044653007056126641 4.56214630861371261972 5.07231043365918932153 0.07672824644693340690 0.00002845025779501571 0.00002709465037604086 0.00002761106345962287
1520530315.849642 0.00000000000000000000 0.00000000000000000000 0.00000000000000000000 0.00000000000000000000 0.00000000000000000000 0.00000000000000000000 -0.49233289758359638499  0.06892451108950790883 -0.04989380681542011226 -0.00093189514004839440 -0.00036624878000557918 -0.00057978218145891131 4.06815033997311026326 4.80070348516183376120 0.10400227522896655918 0.00002807629804885633 0.00002650306706767823 0.00002700927439403864
1520530315.999647 0.00000000000000000000 0.00000000000000000000 0.00000000000000000000 0.00000000000000000000 0.00000000000000000000 0.00000000000000000000 -0.50522280038318034823  0.07407278782153173258 -0.02075634045284950255 -0.00108738490563741992 -0.00037105727192479377 -0.00087393426684273425 3.97130430541004653122 5.09100334990951530756 0.04193891946444436303 0.00002810212165293569 0.00002606369546591323 0.00002649655014338880
1520530316.150223 0.00000000000000000000 0.00000000000000000000 0.00000000000000000000 0.00000000000000000000 0.00000000000000000000 0.00000000000000000000 -0.48269242603198642128  0.09430522136887246887 -0.01556622108769920194 -0.00148769836761522643 -0.00057688324099898491 -0.00104059728410808784 3.40895295187997815489 4.67379088906510986590 0.03923070751442047505 0.00002720481935513971 0.00002542470202564865 0.00002604271311726738
1520530316.300227 0.00000000000000000000 0.00000000000000000000 0.00000000000000000000 0.00000000000000000000 0.00000000000000000000 0.00000000000000000000 -0.53405868241815079855  0.02718317190611462333 -0.01020819397126037330 -0.00160197752242443236 -0.00039535681283113104 -0.00091663607194426096 2.98725097900444458432 4.28479963267869834453 0.03605529422761602487 0.00002608255084563866 0.00002487669496428070 0.00002548142901958752
1520530316.450231 0.00000000000000000000 0.00000000000000000000 0.00000000000000000000 0.00000000000000000000 0.00000000000000000000 0.00000000000000000000 -0.50632495347979245004 -0.01239570214317425867 -0.00983794512517389107 -0.00135348546382366131 -0.00055408416384827614 -0.00073407814625425067 2.66815165670448539714 3.99418669426964179081 0.03374342526114032514 0.00002553180604960945 0.00002450452000903067 0.00002497494724897215
1520530316.650280 0.00000000000000000000 0.00000000000000000000 0.00000000000000000000 0.00000000000000000000 0.00000000000000000000 0.00000000000000000000 -0.48083928835268502366  0.01065686232525598666 -0.01222423298329141858 -0.00122005488973271495 -0.00056269868291151644 -0.00023585215791644209 2.38847999201163263550 3.61488426226199921487 0.03522969315925023742 0.00002525538199503834 0.00002411614407190380 0.00002438192780911578
1520530316.850286 0.00000000000000000000 0.00000000000000000000 0.00000000000000000000 0.00000000000000000000 0.00000000000000000000 0.00000000000000000000 -0.45636585426163467361  0.05846136421610393513 -0.01914056503826724528 -0.00119636470544585917 -0.00028230998598483583 -0.00012372365320994873 2.20190231987052476015 3.27940857423311626917 0.03368035638086070566 0.00002519796978707747 0.00002381391399660200 0.00002402744300935099
1520530316.999775 0.00000000000000000000 0.00000000000000000000 0.00000000000000000000 0.00000000000000000000 0.00000000000000000000 0.00000000000000000000 -0.44790210090276322275 -0.03437442495552146815 -0.01769834093217413293 -0.00104259800992998679 -0.00038327212264124827 -0.00023973213451723328 2.11310330213483466011 3.03207431225336199176 0.03307587171360887313 0.00002429355779085004 0.00002352689212290425 0.00002364368318901550
1520530317.149779 0.00000000000000000000 0.00000000000000000000 0.00000000000000000000 0.00000000000000000000 0.00000000000000000000 0.00000000000000000000 -0.44833908513396103501 -0.12944370263759416573 -0.01631601021323447406 -0.00100185705108380763 -0.00062029784032828982 -0.00024007451757355227 2.05961975113589534914 2.78111140508093912516 0.03274086943253729648 0.00002439133282248931 0.00002344083618715939 0.00002367560411235228
1520530317.299784 0.00000000000000000000 0.00000000000000000000 0.00000000000000000000 0.00000000000000000000 0.00000000000000000000 0.00000000000000000000 -0.53861883954550937581 -0.18152418571581316331 -0.00770063323127775316 -0.00139132883324849565 -0.00111230143924212683 -0.00028094750513585630 2.49494049374572268718 3.73617862941158529466 0.04326163083306296814 0.00002576951127843639 0.00002397813796366304 0.00002424862335468832
1520530317.449747 0.00000000000000000000 0.00000000000000000000 0.00000000000000000000 0.00000000000000000000 0.00000000000000000000 0.00000000000000000000 -0.61418043142396072653 -0.23439191440168882785  0.00209824157320215744 -0.00150467976717984903 -0.00137773938580068481 -0.00037292431098306890 2.35521002816333346885 2.93967830301368016066 0.03910297116061312722 0.00002565771604116896 0.00002313191788214567 0.00002400654078331699
1520530317.649755 0.00000000000000000000 0.00000000000000000000 0.00000000000000000000 0.00000000000000000000 0.00000000000000000000 0.00000000000000000000 -0.60199201004136193571 -0.17137744290577888728 -0.00342667412768367504 -0.00156523222753931785 -0.00100195359178184779 -0.00049678161978700184 2.31815246125242691022 2.51156300181571578989 0.03788906539596595402 0.00002614284237249411 0.00002315043455161969 0.00002399104986075157
1520530317.800239 0.00000000000000000000 0.00000000000000000000 0.00000000000000000000 0.00000000000000000000 0.00000000000000000000 0.00000000000000000000 -0.63501846239711523534 -0.64663430919915321216  0.03684022602763491194 -0.00154367905860407760 -0.00090125191560303268 -0.00073492507029727114 2.19752221580748452467 1.62491112976769191967 0.03319274239841214780 0.00002597270231339386 0.00002313272582155298 0.00002373995750251287
1520530317.950243 0.00000000000000000000 0.00000000000000000000 0.00000000000000000000 0.00000000000000000000 0.00000000000000000000 0.00000000000000000000 -0.61357942769688822438 -0.66988732247827409427  0.04471249293524545004 -0.00139675675977941633 -0.00069800425492297922 -0.00057391105359420511 1.20568480204865013938 0.56151782638294089889 0.02336604533129140598 0.00002506929505097187 0.00002254870290044205 0.00002333947389231137
1520530318.100248 0.00000000000000000000 0.00000000000000000000 0.00000000000000000000 0.00000000000000000000 0.00000000000000000000 0.00000000000000000000 -0.74343240087503714708 -0.65730376741760709880  0.05268292997401044508 -0.00135086645780927795 -0.00058190639234747296 -0.00071257781544311943 1.10986271257987700878 0.57170953540918811875 0.02320419574254691322 0.00002497479391563667 0.00002237936127620113 0.00002331706788884014
1520530318.200769 0.00000000000000000000 0.00000000000000000000 0.00000000000000000000 0.00000000000000000000 0.00000000000000000000 0.00000000000000000000 -0.78055022302445131732 -0.06359531644734442435 -0.00876423065922967738 -0.00103960023570428780 -0.00037212546469752569 -0.00064434803699978203 1.06263463365038801633