1403636635.913555 -0.02582800000000000026  0.13754800000000000360  0.07614999999999999547 -0.00318899999999999999  0.02128700000000000037  0.07845399999999999596 -0.05798999306113716834  0.04474040839477146786  0.02062946443752800701 -0.00287811284182713399  0.02102417451387572633  0.07863098586666968093 0.17941114915438921562 1.28904045333360217640 1.23482837065952821831 0.00116253771191492778 0.00116263886951033994 0.00116260257497030660
1403636636.063555 -0.02583099999999999979  0.13754900000000000460  0.07615199999999999747 -0.00318899999999999999  0.02128700000000000037  0.07845399999999999596 -0.05712943110924263018  0.04698925697027587361  0.02274639597142221956 -0.00293945982973928439  0.02105268483249907174  0.07849595811042116289 0.17428031509741748195 1.25127430904848835347 1.20334034386097998848 0.00114291303801897074 0.00114300907309717735 0.00114297320664224762
1403636636.213556 -0.02583500000000000033  0.13754900000000000460  0.07615399999999999947 -0.00318899999999999999  0.02128700000000000037  0.07845399999999999596 -0.05584191150940813475  0.05929421556599447085  0.02543433698424539535 -0.00293888041077638561  0.02114769373912536027  0.07851709853140813322 0.17014274480097460462 1.21690343439693804406 1.17702065417366408262 0.00112395561755750562 0.00112404929930494260 0.00112401391198855660
1403636636.363556 -0.02583900000000000086  0.13754900000000000460  0.07615600000000000147 -0.00318899999999999999  0.02128700000000000037  0.07845299999999999496 -0.05576030630229852209  0.06005581019710640178  0.02544024460186777858 -0.00293556440122042525  0.02118051170120603330  0.07855197376086102412 0.16503483122832929286 1.18274722909698981610 1.14753256921761304099 0.00110562550350521631 0.00110571959787036651 0.00110568000254143077
1403636636.513556 -0.02584200000000000039  0.13754900000000000460  0.07615800000000000347 -0.00319000000000000013  0.02128700000000000037  0.07845299999999999496 -0.05548033053583628638  0.06601026271065618678  0.02569828362171816885 -0.00294460840745277294  0.02112783135137889096  0.07853347106320980597 0.16027843352358950302 1.14888315105935356897 1.11751166830406378772 0.00108789182668761410 0.00108798543890408503 0.00108794058681800252
1403636636.763556 -0.02584799999999999945  0.13755000000000000560  0.07616199999999999359 -0.00319000000000000013  0.02128700000000000037  0.07845299999999999496 -0.05582417299620492240  0.07308492900003961401  0.02566977185448143101 -0.00298648378845490321  0.02102272397538839516  0.07850427171570341367 0.15297519475292065128 1.08932784802978788186 1.06407018339707115651 0.00105959539619046670 0.00105968836294520518 0.00105963437310826309
1403636637.113555 -0.02585499999999999951  0.13755100000000000660  0.07616699999999999859 -0.00319000000000000013  0.02128800000000000137  0.07845199999999999396 -0.05680018766632425470  0.06876768661735964405  0.02794467230011725770 -0.00297001829579623174  0.02101315968875129905  0.07855358227188101450 0.14018922786927681678 1.01856350796663663871 0.96220164131806595886 0.00102242437350447851 0.00102250664998749380 0.00102244614157249504
1403636637.563555 -0.02586499999999999910  0.13755200000000000760  0.07617300000000000459 -0.00319000000000000013  0.02128800000000000137  0.07845100000000000684 -0.05417418290381505186  0.08008438239581290585  0.03568369676196619933 -0.00298425643534567337  0.02104385787612246539  0.07851744770087500103 0.12741138610716723489 0.95957749493268562624 0.86704112663433852148 0.00097836450756234004 0.00097842905888084232 0.00097838627016165708
1403636637.863556 -0.02587300000000000016  0.13755300000000000860  0.07617500000000000659 -0.00319000000000000013  0.02128800000000000137  0.07845100000000000684 -0.05404706809012469609  0.08238248652554885920  0.03532448015829626337 -0.00297862880256746700  0.02102669420944287132  0.07852979587073238843 0.11977769082843500725 0.92181004242528585824 0.82000059169847272500 0.00095106912371333062 0.00095112979368445875 0.00095109033769840280
1403636638.163556 -0.02588000000000000023  0.13755300000000000860  0.07617699999999999472 -0.00319000000000000013  0.02128899999999999890  0.07845000000000000584 -0.05190908558134511158  0.10165611597795773391  0.03873473693150748104 -0.00295899614242843860  0.02102931492251584530  0.07851533586603194614 0.11395861997964297496 0.88779855518049255458 0.78150385436459157695 0.00092528822356143241 0.00092534261733350377 0.00092530753424635321
1403636638.413555 -0.02588700000000000029  0.13755300000000000860  0.07617899999999999672 -0.00319099999999999983  0.02128899999999999890  0.07845000000000000584 -0.05086948415502341031  0.11609305405420022872  0.04135100585357483205 -0.00295221032478801011  0.02095404282075463351  0.07857253892654349203 0.10996348661546348491 0.86328111034842192062 0.75313530057915489824 0.00090487808652367507 0.00090492749951184023 0.00090489603809282672
1403636638.713556 -0.02589400000000000035  0.13755400000000000960  0.07618199999999999972 -0.00319099999999999983  0.02128899999999999890  0.07844900000000000484 -0.04994840354340006339  0.12377049496757866476  0.04236121351231129928 -0.00297231369337552396  0.02107330009696553597  0.07849259569725230978 0.10587700311446911206 0.83220369031806462612 0.72353581347302209359 0.00088157539865507217 0.00088160881564909544 0.00088158874427154337
1403636638.913555 -0.02589999999999999941  0.13755400000000000960  0.07618400000000000172 -0.00319099999999999983  0.02128899999999999890  0.07844900000000000484 -0.04887326977104246989  0.12796542113320605316  0.04281014658926236144 -0.00294231875854582010  0.02107064908401762304  0.07854776376976005392 0.10335357864873660760 0.80750009250598830945 0.70573900359174623897 0.00086670913873706850 0.00086673987407251982 0.00086672142704356911
1403636639.113555 -0.02590500000000000094  0.13755400000000000960  0.07618700000000000472 -0.00319099999999999983  0.02128899999999999890  0.07844800000000000384 -0.04831399573319999224  0.12946175565514991823  0.04312442444958673043 -0.00294259655044170265  0.02106954274051805673  0.07857049952430909812 0.10092972897001845078 0.78423688893951848389 0.68906949131916428453 0.00085234321423734692 0.00085237612551380471 0.00085235336376137381
1403636639.363556 -0.02590999999999999900  0.13755400000000000960  0.07618999999999999384 -0.00319099999999999983  0.02128999999999999990  0.07844800000000000384 -0.04829543700344433865  0.13101667711953518536  0.04371873158559439615 -0.00296460127602062896  0.02105660202610340134  0.07843902504594577052 0.09854871303263901261 0.75742838635943232628 0.67067421676021765631 0.00083506213027489506 0.00083509342807207038 0.00083507091396027024
1403636639.563555 -0.02591399999999999954  0.13755500000000001060  0.07619199999999999584 -0.00319099999999999983  0.02128999999999999990  0.07844800000000000384 -0.04814997711903355737  0.13250631301613266522  0.04423925854487363585 -0.00297343287581767904  0.02103308928486070928  0.07842361325043756271 0.09697696100160110855 0.73694973108573169629 0.65723993325894547457 0.00082175177208627730 0.00082177829503895031 0.00082175211260550817
1403636639.813555 -0.02592099999999999960  0.13755500000000001060  0.07619599999999999984 -0.00319099999999999983  0.02128999999999999990  0.07844700000000000284 -0.04819276577180271054  0.13326530986442292059  0.04518303249502540059 -0.00296029481045472290  0.02103833380335013922  0.07849696293476222941 0.09494193697416627997 0.71502360380179008637 0.64077210661945638304 0.00080571828289359784 0.00080573923589106566 0.00080571452554211874
1403636640.063555 -0.02592699999999999866  0.13755600000000001160  0.07619900000000000284 -0.00319099999999999983  0.02128999999999999990  0.07844700000000000284 -0.04772594799950721778  0.13261606569094999686  0.04597113070624131437 -0.00292002679210688273  0.02103356231163152831  0.07848870536405960774 0.09267512741104028118 0.69652496982771905376 0.62496184726207937299 0.00079031734142640528 0.00079033296863775836 0.00079030875842857871
1403636640.313555 -0.02593300000000000119  0.13755600000000001160  0.07620300000000000684 -0.00319099999999999983  0.02128999999999999990  0.07844600000000000184 -0.04563193525632106701  0.13223000558351688527  0.04744062560604139778 -0.00291732188196252651  0.02102826649745712789  0.07850496082423065458 0.09009473904716565340 0.68027328974192646793 0.60906997784297955967 0.00077551658653478674 0.00077553036072356828 0.00077550472022305328
1403636640.763556 -0.02594700000000000131  0.13755800000000001360  0.07620999999999999996 -0.00319199999999999996  0.02129100000000000090  0.07844600000000000184 -0.04143429522811031829  0.13142616348057428732  0.05260907271533078744 -0.00290008570417704236  0.02102667109818711147  0.07851672817125596171 0.08514937303334577101 0.65042100355228682496 0.57636373830237097593 0.00075027996857855662 0.00075028481956343962 0.00075025951930268091
1403636641.563555 -0.02597000000000000003  0.13756099999999998884  0.07622199999999999809 -0.00319199999999999996  0.02129100000000000090  0.07844399999999999984 -0.03555879882182586688  0.13104408192725247595  0.06138089845509409753 -0.00294185027402604077  0.02102100635221864147  0.07847033207973470870 0.07573816783770673244 0.59711916570182410613 0.51287607548526914503 0.00070940903495564193 0.00070940661259216438 0.00070937828699035247
1403636642.213556 -0.02598900000000000168  0.13756399999999999184  0.07623299999999999521 -0.00319199999999999996  0.02129199999999999843  0.07844299999999999884 -0.03374481070678307659  0.12806229484833572818  0.06704978760508444047 -0.00295140764339975326  0.02105679440184044307  0.07852701888454440005 0.06937357827308855696 0.56113455125520128597 0.47175519183840530779 0.00067943841482628019 0.00067945148308705698 0.00067942827069310881
1403636642.813555 -0.02600299999999999834  0.13756599999999999384  0.07623900000000000121 -0.00319300000000000009  0.02129199999999999843  0.07844199999999999784 -0.03325945664193675350  0.13240118694154368040  0.07117473956639409904 -0.00296947378801629656  0.02107765856658552761  0.07852745883368547619 0.06578438129045896532 0.54531473695046950301 0.44948735809969031507 0.00065403677045321326 0.00065404931529650947 0.00065403752817308827
1403636643.713556 -0.02602700000000000152  0.13756899999999999684  0.07624899999999999733 -0.00319300000000000009  0.02129299999999999943  0.07843999999999999584 -0.03260523457979611767  0.13828620274535938228  0.07357929454025001481 -0.00295881079019452709  0.02107206142844177468  0.07854033076921708434 0.06367515727473564702 0.53381470481068504785 0.43822476026430429163 0.00061948671943877259 0.00061947232930624333 0.00061948250333546486
1403636644.163556 -0.02604000000000000065  0.13756999999999999784  0.07625200000000000033 -0.00319300000000000009  0.02129400000000000043  0.07843999999999999584 -0.03250992408338037459  0.14551559989554349595  0.07463700671284378974 -0.00294258220340126025  0.02106718298112908450  0.07852568463755460471 0.06306222345295003917 0.52553590117946924476 0.43542229429508033656 0.00060358733887117921 0.00060356033775981551 0.00060358544920614409
1403636644.413555 -0.02604599999999999971  0.13756999999999999784  0.07625300000000000133 -0.00319399999999999979  0.02129400000000000043  0.07843899999999999484 -0.03217042755127345194  0.14981847542745962976  0.07558934717561287264 -0.00291867477020386337  0.02109583341204175969  0.07854640648728569707 0.06281336433366638272 0.51957696636247585609 0.43325991896259147262 0.00059512865934999257 0.00059509156533036245 0.00059512282355667751
1403636644.713556 -0.02605400000000000077  0.13757099999999999884  0.07625500000000000334 -0.00319399999999999979  0.02129400000000000043  0.07843899999999999484 -0.03198219308225342533  0.15406155962381665181  0.07630049119534140778 -0.00293832582796346676  0.02111331676147838038  0.07850592473133027882 0.06268293330411273123 0.51326699939009468032 0.43131307709382882276 0.00058529576499034928 0.00058525505465421672 0.00058528626169134347
1403636644.963556 -0.02606100000000000083  0.13757099999999999884  0.07625700000000000534 -0.00319399999999999979  0.02129400000000000043  0.07843799999999999384 -0.03167829020844876303  0.15781104867785361590  0.07713135796033201985 -0.00295098716683782000  0.02108861310734147856  0.07856105439874963570 0.06254896576006188647 0.50821858696269073263 0.43046341523589265465 0.00057736123584140389 0.00057732221745698689 0.00057734759587490484
1403636645.113555 -0.02606599999999999889  0.13757099999999999884  0.07625800000000000634 -0.00319399999999999979  0.02129500000000000143  0.07843799999999999384 -0.03074572416124092891  0.15856320557483202793  0.07693700747449042088 -0.00296230613381007245  0.02107540001112517825  0.07851458507490406691 0.06378983314812573802 0.50730772467653384439 0.42870092896104311508 0.00057271072872361111 0.00057267193338400536 0.00057269499469845761
1403636645.363556 -0.02607299999999999895  0.13757099999999999884  0.07626099999999999546 -0.00319399999999999979  0.02129500000000000143  0.07843700000000000672 -0.03027472641040789003  0.15826738985298546836  0.07622770896880787239 -0.00296858260335062379  0.02116550373914071956  0.07849961081255495132 0.06365989569973354301 0.50536671682910638825 0.42789514763041552881 0.00056512905468205656 0.00056508839749278299 0.00056511344503110258
1403636645.613555 -0.02608100000000000002  0.13757199999999999984  0.07626399999999999846 -0.00319399999999999979  0.02129500000000000143  0.07843700000000000672 -0.03027461943363122729  0.15828009172434126528  0.07571089926330017150 -0.00296936765072785321  0.02112501305226400020  0.07850758941587278328 0.06349750307607406052 0.50226448496386133513 0.42662246634650036192 0.00055775825892394153 0.00055771773193235598 0.00055774220579653613
1403636645.863556 -0.02608800000000000008  0.13757199999999999984  0.07626700000000000146 -0.00319399999999999979  0.02129500000000000143  0.07843700000000000672 -0.03006538815370427345  0.15937978736671570834  0.07537791429671805710 -0.00297479182416206722  0.02111805321664710078  0.07853046825262605113 0.06333750355553305345 0.49907533182958135898 0.42515080570758978507 0.00055059075241814905 0.00055055256881830165 0.00055057265488855174
1403636646.063555 -0.02609399999999999914  0.13757300000000000084  0.07627000000000000446 -0.00319399999999999979  0.02129500000000000143  0.07843600000000000572 -0.02975410823117654105  0.16070674622084829553  0.07413707930135697566 -0.00300450612844039818  0.02115141125277516382  0.07856615170716399477 0.06321501299352978720 0.49652264723738726016 0.42428056748125775322 0.00054499702333673410 0.00054495720923266136 0.00054497760285034461
1403636646.263556 -0.02609900000000000067  0.13757199999999999984  0.07627100000000000546 -0.00319399999999999979  0.02129599999999999896  0.07843600000000000572 -0.02971749147483232489  0.16117399651941152761  0.07332860666578042141 -0.00306347829487471678  0.02111529323141191419  0.07855343217253488164 0.06311963437812953548 0.49456720483062410754 0.42372775953431762730 0.00053952960800697936 0.00053948633883897721 0.00053950887210032084
1403636646.413555 -0.02610499999999999973  0.13757099999999999884  0.07627299999999999358 -0.00319499999999999992  0.02129599999999999896  0.07843600000000000572 -0.02962337714098659328  0.16140518793831534761  0.07316188888064961704 -0.00309019536287631624  0.02112958472484798358  0.07853929020660770088 0.06308783556468769427 0.49399067037518473722 0.42348130512351200849 0.00053550837936696283 0.00053546156104627431 0.00053548522499590693
1403636646.563555 -0.02610900000000000026  0.13757099999999999884  0.07627399999999999458 -0.00319499999999999992  0.02129599999999999896  0.07843500000000000472 -0.02984840737846052722  0.16240391857252894914  0.07303462635385489510 -0.00310165296146275261  0.02112238827004682754  0.07854419309215213141 0.06305079953188397202 0.49382289526818173853 0.42327720704493304593 0.00053154392539910011 0.00053150100349693948 0.00053152550417441622
1403636646.763556 -0.02611399999999999832  0.13757099999999999884  0.07627699999999999758 -0.00319499999999999992  0.02129599999999999896  0.07843500000000000472 -0.03018803950168207767  0.16333751214266131746  0.07331996415131532274 -0.00307250992032605946  0.02110105179677952345  0.07854378316141427674 0.06283198083488990282 0.49255107450035423566 0.42226485491563592323 0.00052635414221648981 0.00052631408597574416