1403636636.063555 -0.02583099999999999979  0.13754900000000000460  0.07615199999999999747 -0.00318899999999999999  0.02128700000000000037  0.07845399999999999596 -0.05600596478904016490  0.07492706827503060885  0.02470983409618974017 -0.00291846353009744125  0.02103014843260618896  0.07852709388654349754
1403636636.213556 -0.02583500000000000033  0.13754900000000000460  0.07615399999999999947 -0.00318899999999999999  0.02128700000000000037  0.07845399999999999596 -0.05541898675646848155  0.08044509760146939525  0.02572012959547316860 -0.00294901527804911643  0.02112502228086943559  0.07850591871348210071
1403636636.363556 -0.02583900000000000086  0.13754900000000000460  0.07615600000000000147 -0.00318899999999999999  0.02128700000000000037  0.07845299999999999496 -0.05549475564451591958  0.08324422325004081358  0.02500122564508758943 -0.00293189144546907856  0.02112927377182895888  0.07856404116736008525
1403636636.513556 -0.02584200000000000039  0.13754900000000000460  0.07615800000000000347 -0.00319000000000000013  0.02128700000000000037  0.07845299999999999496 -0.05559191378636164915  0.08713837538047555786  0.02434656550023610311 -0.00293388696655951095  0.02114921675233883899  0.07858398742880423615
1403636636.763556 -0.02584799999999999945  0.13755000000000000560  0.07616199999999999359 -0.00319000000000000013  0.02128700000000000037  0.07845299999999999496 -0.05572149321563833746  0.08992505070328256356  0.02412807333311112537 -0.00298528786250268395  0.02107920908847765035  0.07852682567989553719
1403636637.113555 -0.02585499999999999951  0.13755100000000000660  0.07616699999999999859 -0.00319000000000000013  0.02128800000000000137  0.07845199999999999396 -0.05679041784672033549  0.08861434536465173650  0.02471874454736872409 -0.00296680439531773815  0.02100554049232807724  0.07857199482075633012
1403636637.563555 -0.02586499999999999910  0.13755200000000000760  0.07617300000000000459 -0.00319000000000000013  0.02128800000000000137  0.07845100000000000684 -0.05236651505111770966  0.07678014471998442780  0.04137910364370626232 -0.00299836391534822472  0.02106615686293622849  0.07850871004397889930
1403636637.863556 -0.02587300000000000016  0.13755300000000000860  0.07617500000000000659 -0.00319000000000000013  0.02128800000000000137  0.07845100000000000684 -0.05206019536288004207  0.09294315185005051771  0.04147361809713795422 -0.00298376205401585347  0.02103388207146489330  0.07852153384815002690
1403636638.163556 -0.02588000000000000023  0.13755300000000000860  0.07617699999999999472 -0.00319000000000000013  0.02128899999999999890  0.07845000000000000584 -0.05100582623820539702  0.11058543228245994172  0.04225270948785148778 -0.00297682741305432558  0.02101173368147773307  0.07855011250874843753
1403636638.413555 -0.02588700000000000029  0.13755300000000000860  0.07617899999999999672 -0.00319099999999999983  0.02128899999999999890  0.07845000000000000584 -0.04957603278485845505  0.12889818147895482081  0.04474180212258446754 -0.00295677659939619667  0.02094944436301444252  0.07858306936440111190
1403636638.713556 -0.02589400000000000035  0.13755400000000000960  0.07618199999999999972 -0.00319099999999999983  0.02128899999999999890  0.07844900000000000484 -0.04883744755558459133  0.13788784947280233184  0.04526322410420826475 -0.00295427678482968305  0.02108526956308858294  0.07850270698380683310
1403636638.913555 -0.02589999999999999941  0.13755400000000000960  0.07618400000000000172 -0.00319099999999999983  0.02128899999999999890  0.07844900000000000484 -0.04803071262836097755  0.13618246562566366231  0.04547534321168782145 -0.00297014056441903497  0.02106966621247926760  0.07855034315387669774
1403636639.113555 -0.02590500000000000094  0.13755400000000000960  0.07618700000000000472 -0.00319099999999999983  0.02128899999999999890  0.07844800000000000384 -0.04766599473877929094  0.13521791665129104243  0.04506702769026234290 -0.00294163753656685083  0.02107931712734194621  0.07857922187553220694
1403636639.363556 -0.02590999999999999900  0.13755400000000000960  0.07618999999999999384 -0.00319099999999999983  0.02128999999999999990  0.07844800000000000384 -0.04767716581911347895  0.13586604468562590853  0.04513871517249374438 -0.00296117482940217109  0.02105235320316897057  0.07847021578816755494
1403636639.563555 -0.02591399999999999954  0.13755500000000001060  0.07619199999999999584 -0.00319099999999999983  0.02128999999999999990  0.07844800000000000384 -0.04754197902504863488  0.13735660062561427797  0.04573735388434405774 -0.00297001563465686732  0.02103410648044883036  0.07842200881672017898
1403636639.813555 -0.02592099999999999960  0.13755500000000001060  0.07619599999999999984 -0.00319099999999999983  0.02128999999999999990  0.07844700000000000284 -0.04770522941069088585  0.13762705905539632245  0.04564658321264758456 -0.00293784675225862218  0.02104248683708719730  0.07848643946742552002
1403636640.063555 -0.02592699999999999866  0.13755600000000001160  0.07619900000000000284 -0.00319099999999999983  0.02128999999999999990  0.07844700000000000284 -0.04693720569868189280  0.13320679894461051607  0.04783883268235813307 -0.00294674017740711308  0.02103339980808402454  0.07848388531972366744
1403636640.313555 -0.02593300000000000119  0.13755600000000001160  0.07620300000000000684 -0.00319099999999999983  0.02128999999999999990  0.07844600000000000184 -0.04411152453426095410  0.12971673907842132256  0.05325898789972734887 -0.00291424100977719048  0.02105042685385970225  0.07851638644960251545
1403636640.763556 -0.02594700000000000131  0.13755800000000001360  0.07620999999999999996 -0.00319199999999999996  0.02129100000000000090  0.07844600000000000184 -0.04026044713907084988  0.12982448196347934344  0.05671098228206276903 -0.00286852280278826737  0.02103265759830668172  0.07852607577540134109
1403636641.563555 -0.02597000000000000003  0.13756099999999998884  0.07622199999999999809 -0.00319199999999999996  0.02129100000000000090  0.07844399999999999984 -0.03500231658584357364  0.13238792656934891823  0.06314313641924101939 -0.00293666483097526285  0.02102468685181919233  0.07847998093889488325
1403636642.213556 -0.02598900000000000168  0.13756399999999999184  0.07623299999999999521 -0.00319199999999999996  0.02129199999999999843  0.07844299999999999884 -0.03259335657387376489  0.12749882751958674376  0.06985355228193149135 -0.00295618688120782716  0.02105261468396240135  0.07852886938287505225
1403636642.813555 -0.02600299999999999834  0.13756599999999999384  0.07623900000000000121 -0.00319300000000000009  0.02129199999999999843  0.07844199999999999784 -0.03400377865991081189  0.12738599248000972985  0.06920478126644019623 -0.00296029890602708332  0.02105938908157454353  0.07851316191453147630
1403636643.713556 -0.02602700000000000152  0.13756899999999999684  0.07624899999999999733 -0.00319300000000000009  0.02129299999999999943  0.07843999999999999584 -0.03257186466945826558  0.13335027887413039571  0.07392756207807377189 -0.00295002428758664101  0.02108037148630248839  0.07853842557870802099
1403636644.163556 -0.02604000000000000065  0.13756999999999999784  0.07625200000000000033 -0.00319300000000000009  0.02129400000000000043  0.07843999999999999584 -0.03252323425600688739  0.14051847925788585325  0.07494572723479045462 -0.00295744725824002158  0.02103747506027919129  0.07852304981214845714
1403636644.413555 -0.02604599999999999971  0.13756999999999999784  0.07625300000000000133 -0.00319399999999999979  0.02129400000000000043  0.07843899999999999484 -0.03223283421510056423  0.14779819750698952596  0.07583998816845011204 -0.00293086720921801377  0.02110603306884848221  0.07854936554879056454
1403636644.713556 -0.02605400000000000077  0.13757099999999999884  0.07625500000000000334 -0.00319399999999999979  0.02129400000000000043  0.07843899999999999484 -0.03197669347246683696  0.15263586459627445646  0.07684790929074283850 -0.00292866379768015172  0.02109398407481918522  0.07850795393120854615
1403636644.963556 -0.02606100000000000083  0.13757099999999999884  0.07625700000000000534 -0.00319399999999999979  0.02129400000000000043  0.07843799999999999384 -0.03167542975682054174  0.15909627885902716260  0.07765390005864866718 -0.00292606947166917236