1520530315.599645 0.00000000000000000000 0.00000000000000000000 0.00000000000000000000 0.00000000000000000000 0.00000000000000000000 0.00000000000000000000 -0.54623092889818369855 -0.08567923335917679295 -0.01373311892268668649  0.00062120755131668092  0.00047789625341645683 -0.00041945328527560947 2.95497262595304377442 6.07811728776696025278 0.04464979260161004021 0.00002851661857017856 0.00002767789609116936 0.00002742322294009701
1520530315.699637 0.00000000000000000000 0.00000000000000000000 0.00000000000000000000 0.00000000000000000000 0.00000000000000000000 0.00000000000000000000 -1.62562372514125996759 -0.23745234807862417026  0.09469073256425239449 -0.00011337392636680498  0.00022596374158034000 -0.00024785322312661552 2.53853870557993621659 5.87972291302602645402 0.06195683186796670933 0.00002815046201889160 0.00002718631843466246 0.00002719574340654654
1520530315.849642 0.00000000000000000000 0.00000000000000000000 0.00000000000000000000 0.00000000000000000000 0.00000000000000000000 0.00000000000000000000 -2.16896698630241946404 -0.26858168894395417770  0.15417280704833044580 -0.00063622488997583371  0.00000249579063201446 -0.00014913871211581694 2.47467144294568131002 5.54281483985107392698 0.06080116510625121345 0.00002816512439555921 0.00002670623898294597 0.00002715821729102148
1520530315.999647 0.00000000000000000000 0.00000000000000000000 0.00000000000000000000 0.00000000000000000000 0.00000000000000000000 0.00000000000000000000 -1.46097126833891532982 -0.20774332846185003532  0.07859613314727625921 -0.00065302282218669975 -0.00004880631242720327 -0.00022153353376294630 4.08293214402803172902 5.52194415636242030843 0.28873323341515583218 0.00002802351145024027 0.00002630100137686568 0.00002650746129695657
1520530316.150223 0.00000000000000000000 0.00000000000000000000 0.00000000000000000000 0.00000000000000000000 0.00000000000000000000 0.00000000000000000000 -0.62092241520455104808 -0.07548234024826609712 -0.12168209829912703113 -0.00106267254856555883 -0.00029226273191952792 -0.00054571921118111585 3.46915009465309109871 5.24550660248918454442 0.24972421902395758320 0.00002736552269648277 0.00002570752770187858 0.00002615351944606028
1520530316.300227 0.00000000000000000000 0.00000000000000000000 0.00000000000000000000 0.00000000000000000000 0.00000000000000000000 0.00000000000000000000 -0.43239669594578644674 -0.01795575686868324319 -0.01539925473797856999 -0.00137119735495842094 -0.00027450614915273735 -0.00055349543520383465 3.10738941466079632292 4.76221015772611799832 0.04834829895982811071 0.00002630283370946408 0.00002509344676659931 0.00002559728006756755
1520530316.450231 0.00000000000000000000 0.00000000000000000000 0.00000000000000000000 0.00000000000000000000 0.00000000000000000000 0.00000000000000000000 -0.45972791637956988975 -0.08849590752732260091 -0.00961864756413826141 -0.00110816789321591678 -0.00043466695938398838 -0.00056664955416885850 2.77700548667302005157 4.40605875951986902805 0.04482860470328140640 0.00002558880871404456 0.00002468848879997081 0.00002504435309918142
1520530316.650280 0.00000000000000000000 0.00000000000000000000 0.00000000000000000000 0.00000000000000000000 0.00000000000000000000 0.00000000000000000000 -0.46002582551540099898 -0.06884535062634117297 -0.01065433845806263921 -0.00109891094084227782 -0.00029079465059747513 -0.00058891773570209993 2.49726457851095773322 4.04460798727570836064 0.04182619778825751727 0.00002505999233950019 0.00002427665812323477 0.00002414956366807836
1520530316.850286 0.00000000000000000000 0.00000000000000000000 0.00000000000000000000 0.00000000000000000000 0.00000000000000000000 0.00000000000000000000 -0.49444297114485513678 -0.05613642245196046043 -0.01140203584420540657 -0.00133774990342817130 -0.00000658782189839514 -0.00069080434855365159 2.31305634253157199609 3.67821883724703280194 0.03980478098875645659 0.00002541897044251083 0.00002412758185977416 0.00002412188785628926
1520530316.999775 0.00000000000000000000 0.00000000000000000000 0.00000000000000000000 0.00000000000000000000 0.00000000000000000000 0.00000000000000000000 -0.48549048086182533535 -0.12615541047778860984 -0.01097194692971808702 -0.00132336117851689257 -0.00034156069937113991 -0.00044755464708858022 2.23928905462018246197 3.36540651567054505122 0.03896286119222866495 0.00002562608847934034 0.00002416774251657149 0.00002453463845331265
1520530317.149779 0.00000000000000000000 0.00000000000000000000 0.00000000000000000000 0.00000000000000000000 0.00000000000000000000 0.00000000000000000000 -0.47659203511895747996 -0.19443893304638423802 -0.01089019822477215078 -0.00117903833603313782 -0.00039751321714432048 -0.00042395336147970020 2.18940874023204257171 3.06983038523028328726 0.03854852684676238900 0.00002567017816540563 0.00002400923881745570 0.00002469657588379464
1520530317.299784 0.00000000000000000000 0.00000000000000000000 0.00000000000000000000 0.00000000000000000000 0.00000000000000000000 0.00000000000000000000 -0.51234742059467608399 -0.17487036191618743342 -0.00965254472571565672 -0.00127424832379348808 -0.00071245018672810346 -0.00038146185412111648 2.15649190134554569198 2.79134025375535044233 0.03831128995799956000 0.00002544697054530538 0.00002374209330625815 0.00002443411196172014
1520530317.449747 0.00000000000000000000 0.00000000000000000000 0.00000000000000000000 0.00000000000000000000 0.00000000000000000000 0.00000000000000000000 -0.54277664719527507486 -0.11860299390739266479 -0.00886559098127002662 -0.00129702643812158801 -0.00107359128920973845 -0.00055007770266057854 2.13740843650306144852 2.63564418460408056433 0.03835561291092823982 0.00002516796158024467 0.00002346887055833839 0.00002418523546760769
1520530317.649755 0.00000000000000000000 0.00000000000000000000 0.00000000000000000000 0.00000000000000000000 0.00000000000000000000 0.00000000000000000000 -0.53921065148732205685 -0.13322483167910070812 -0.00803542694316519528 -0.00116006869048422014 -0.00046199189771372901 -0.00058452193156180790 2.13680368761450756310 2.49315016000079436864 0.03869788119312007890 0.00002619518855584500 0.00002317577717720599 0.00002407969914550373
1520530317.800239 0.00000000000000000000 0.00000000000000000000 0.00000000000000000000 0.00000000000000000000 0.00000000000000000000 0.00000000000000000000 -0.54041574077719822800 -0.15473885737826956199 -0.00656698956684243201 -0.00105120334392278447 -0.00033670487134428585 -0.00084445375722328982 2.13120958485966793816 2.40804477002715300316 0.03886386999648222540 0.00002574628159191141 0.00002276895721293524 0.00002360081972369702
1520530317.950243 0.00000000000000000000 0.00000000000000000000 0.00000000000000000000 0.00000000000000000000 0.00000000000000000000 0.00000000000000000000 -0.53849288633737868448 -0.12087033771886210309 -0.00710771747458536531 -0.00103213755631489349 -0.00008584773888722925 -0.00072535869697822530 2.12136852895663574614 2.33425948141427719307 0.03890667052443296664 0.00002492322196943900 0.00002246049841409663 0.00002315954341628228
1520530318.100248 0.00000000000000000000 0.00000000000000000000 0.00000000000000000000 0.00000000000000000000 0.00000000000000000000 0.00000000000000000000 -0.51644168045868943384 -0.07745376505224114971 -0.00700742200901587758 -0.00102497445514153850 -0.00008063550139841537 -0.00091244133588087222 2.11209223563050851880 2.27052230798757559427 0.03901304372579007113 0.00002487564797066043 0.00002236894865912500 0.00002309786306951422
1520530318.200769 0.00000000000000000000 0.00000000000000000000 0.00000000000000000000 0.00000000000000000000 0.00000000000000000000 0.00000000000000000000 -0.50635963679482176580 -0.05138543828965978083 -0.00737837736428839392 -0.00078697028915490977  0.00010019191831116878 -0.00069844723462345894 2.09524573720731233095 2.23407989649358640349 0.03906374674775005273 0.00002487347992300448 0.00002220787588160490 0.00002296873441179637
1520530318.350774 0.00000000000000000000 0.00000000000000000000 0.00000000000000000000 0.00000000000000000000 0.00000000000000000000 0.00000000000000000000 -0.44005807992173207044 -0.00941257234816290922 -0.01448920335199944606 -0.00050120724307000590  0.00017248124227558779 -0.00030534578915176043 2.03237955754932020369 2.18477073495763862709 0.03880359799356546124 0.00002439063110011455 0.00002189280033831248 0.00002254748614168453
1520530318.500778 0.00000000000000000000 0.00000000000000000000 0.00000000000000000000 0.00000000000000000000 0.00000000000000000000 0.00000000000000000000 -0.36987204448878679974  0.01361451430334262303 -0.02154666517520506183 -0.00047911528726656737  0.00012125399270175404 -0.00014848975174389255 1.93317579375142933884 2.15130127376716151488 0.03818012313090201476 0.00002418286629643112 0.00002170986158035694 0.00002242070013177415
1520530318.650568 0.00000000000000000000 0.00000000000000000000 0.00000000000000000000 0.00000000000000000000 0.00000000000000000000 0.00000000000000000000 -0.35086912433641787024  0.01453334708012510128 -0.02325434507349132679 -0.00036949696911380573  0.00018341716584287918 -0.00011637353336093778 1.80494049373784881674 2.11514222934828399758 0.03753261478939889928 0.00002396916927350103 0.00002152424083621958 0.00002224601405837938
1520530318.800573 0.00000000000000000000 0.00000000000000000000 0.00000000000000000000 0.00000000000000000000 0.00000000000000000000 0.00000000000000000000 -0.32285368293330218847  0.02496892147198072689 -0.02720891643786621517 -0.00040655567257696923  0.00004745438071998646 -0.00009813322530299518 1.65179099150132668861 2.08388581810768469538 0.03651164012916134627 0.00002331101251061891 0.00002133183595076964 0.00002209914733537541
1520530318.950577 0.00000000000000000000 0.00000000000000000000 0.00000000000000000000 0.00000000000000000000 0.00000000000000000000 0.00000000000000000000 -0.26192972182538687420  0.03115281827888118429 -0.03432010769333181804 -0.00035613154683881992 -0.00008335478228441908 -0.00002575612889408729 1.48330734520545903798 2.03523678820288500546 0.03533199367021110787 0.00002289696094037675 0.00002117701135704757 0.00002187886495524026
1520530319.049958 0.00000000000000000000 0.00000000000000000000 0.00000000000000000000 0.00000000000000000000 0.00000000000000000000 0.00000000000000000000 -0.22687184667844814689  0.00241247309707356928 -0.03855536017181851460 -0.00026051412931895484 -0.00009498170148717610  0.00001065426448987051 1.38663792407063590773 1.99003207443478946637 0.03474928502942952607 0.00002296594192695020 0.00002104370917500775 0.00002190312018734763
1520530319.199962 0.00000000000000000000 0.00000000000000000000 0.00000000000000000000 0.00000000000000000000 0.00000000000000000000 0.00000000000000000000 -0.17012819297522033257 -0.00211746489112750718 -0.04436998922511567467 -0.00046140954193659827 -0.00025999815982153442  0.00001895064729756343 1.25349029102248121781 1.89575626868214719423 0.03380952200858595297 0.00002194755135711715 0.00002087025667295499 0.00002176850875204382
1520530319.349967 0.00000000000000000000 0.00000000000000000000 0.00000000000000000000 0.00000000000000000000 0.00000000000000000000 0.00000000000000000000 -0.15060734457007968201 -0.03794841541983602629 -0.04378727174781828907 -0.00051493480203569230 -0.00006904692056976145  0.00010833734879554989 1.15501195519369526110 1.79743081247195712891 0.03313676003838791212 0.00002203901947727623 0.00002053263477600989 0.00002130354944830129
1520530319.449833 0.00000000000000000000 0.00000000000000000000 0.00000000000000000000 0.00000000000000000000 0.00000000000000000000 0.00000000000000000000 -0.16581012843982095850 -0.05576142306435574736 -0.04125242078189681610 -0.00027386602427470323  0.00010329525268929572  0.00012735595005153847 1.10707547215229284987 1.73630230854245715122 0.03278226992683130891 0.00002255576991922135 0.00002030259438907376 0.00002105636267458478
1520530319.549837 0.00000000000000000000 0.00000000000000000000 0.00000000000000000000 0.00000000000000000000 0.00000000000000000000 0.00000000000000000000 -0.15116809412302581461 -0.06097825072747489750 -0.04258415612764292896 -0.00025521689762039973  0.00022904261152547907  0.00022864267857157822 1.06737400166356510844 1.68455297951102545007 0.03245431010300856012 0.00002229652226528936 0.00002016760678718145 0.00002096653980590479
1520530319.699841 0.00000000000000000000 0.00000000000000000000 0.00000000000000000000 0.00000000000000000000 0.00000000000000000000 0.00000000000000000000 -0.14402301466389233475 -0.06265261327043458728 -0.04199865594495883619 -0.00020736991832014291  0.00037325961686127563  0.00022594009549731955 1.02340380290207533243 1.62566761958906091934 0.03218053537590547658 0.00002206087784580409 0.00002003529401432116 0.00002082149588360745
1520530319.800341 0.00000000000000000000 0.00000000000000000000 0.00000000000000000000 0.00000000000000000000 0.00000000000000000000 0.00000000000000000000 -0.13678617063541007037 -0.06058364501695084892 -0.04133752559972284080 -0.00018373938477434282  0.00040096353556095475  0.00008077177708664752 1.00552818341624905507 1.61129031973799863309 0.03217368284239077725 0.00002177333357950455 0.00002002734538334919 0.00002080863093023082
1520530319.900344 0.00000000000000000000 0.00000000000000000000 0.00000000000000000000 0.00000000000000000000 0.00000000000000000000 0.00000000000000000000 -0.12457379453573559636 -0.05342688103903690117 -0.04193363047261341320 -0.00031537694826600638  0.00019170075841977934  0.00001534905508146290 0.99330283236064953467 1.60979477106673329878 0.03207499528885909834 0.00002138579280382596 0.00001992166867338000 0.00002074443444183525
1520530320.000347 0.00000000000000000000 0.00000000000000000000 0.00000000000000000000 0.00000000000000000000 0.00000000000000000000 0.00000000000000000000 -0.11998769517427951281 -0.05694052368020589838 -0.04134816364281002077 -0.00047813727645359727  0.00019868943780077742 -0.00007112000005395655 0.97903503725373719480 1.60901330433925271457 0.03169637795889532900 0.00002037274151827898 0.00001967980730323818 0.00001995779760232023
1520530320.100350 0.00000000000000000000 0.00000000000000000000 0.00000000000000000000 0.00000000000000000000 0.00000000000000000000 0.00000000000000000000 -0.08256556074514427579 -0.05482037338999607573 -0.04291376718958690023 -0.00072127434633979554  0.00023991315098342261 -0.00005627925219083619 0.96859288807844579061 1.60206741171756594788 0.03119834405188811124 0.00001995090794716263 0.00001949925712837183 0.00001950939367542325
1520530320.200401 0.00000000000000000000 0.00000000000000000000 0.00000000000000000000 0.00000000000000000000 0.00000000000000000000 0.00000000000000000000 -0.04911774183970168961 -0.03227279041750377719 -0.04685917008544322748 -0.00101139352285002063  0.00022480097360135084 -0.00014731927662769000 0.96048001036438768185 1.59557146933019278201 0.03065377855152274719 0.00001983402020460676 0.00001941253060404168 0.00001938544256866931
1520530320.350405 0.00000000000000000000 0.00000000000000000000 0.00000000000000000000 0.00000000000000000000 0.00000000000000000000 0.00000000000000000000 -0.05229526758989328644 -0.01185064175820713106 -0.04873595307731738713 -0.00117963923549515453  0.00022935599378416858 -0.00017686039878784252 0.95180924676813782881 1.57542356699052010782 0.02989349285765722716 0.00001983201809229056 0.00001930767665878979 0.00001925715782683492
1520530320.500410 0.00000000000000000000 0.00000000000000000000 0.00000000000000000000 0.00000000000000000000 0.00000000000000000000 0.00000000000000000000 -0.05227329835069962488 -0.00090932259393239530 -0.04958034841589944314 -0.00129412177353634508  0.00021969137409110843 -0.00023359752768860887 0.92990310543624421502 1.53022653644124040362 0.02910178418979423101 0.00001962708576070206 0.00001920591983967658 0.00001914217515639109
1520530320.599869 0.00000000000000000000 0.00000000000000000000 0.00000000000000000000 0.00000000000000000000 0.00000000000000000000 0.00000000000000000000 -0.06770584494466137804  0.00441462716451887765 -0.04911410027784767623 -0.00128101858139404996  0.00009486049282670330 -0.00024284735213736663 0.91216244751026454018 1.47349897318144762437 0.02847573504511603446 0.00001961062917292937 0.00001915582785366514 0.00001917540679334149
1520530320.699873 0.00000000000000000000 0.00000000000000000000 0.00000000000000000000 0.00000000000000000000 0.00000000000000000000 0.00000000000000000000 -0.06375965686300749669 -0.00023888840814649152 -0.05127389058182942050 -0.00126494721656269572  0.00003353965606553579 -0.00027976890097463502 0.88821885146133894295 1.40644776561241591217 0.02776945570656196363 0.00001966208806162956 0.00001911291625361144 0.00001920317797269599
1520530320.849877 0.00000000000000000000 0.00000000000000000000 0.00000000000000000000 0.00000000000000000000 0.00000000000000000000 0.00000000000000000000 -0.06499157730436133651  0.00691673921640844225 -0.05416890041812138373 -0.00123804423487976407  0.00003234253226851202 -0.00032112894414395980 0.84433634510303534615 1.29326463408951286560 0.02666178552224305123 0.00001976269407077095 0.00001906258593524076 0.00001912520768275285
1520530320.999882 0.00000000000000000000 0.00000000000000000000 0.00000000000000000000 0.00000000000000000000 0.00000000000000000000 0.00000000000000000000 -0.07313413369573892875  0.03999730950098669829 -0.05747134901844046240 -0.00113115889324529864  0.00005244326279366669 -0.00033645324731586696 0.79418762454124269823 1.18711163244190198718 0.02563258346967074025 0.00001959338259119612 0.00001881446518091553 0.00001893916729606923
1520530321.099742 0.00000000000000000000 0.00000000000000000000 0.00000000000000000000 0.00000000000000000000 0.00000000000000000000 0.00000000000000000000 -0.07586756090889752724  0.03186086154249324898 -0.05690014591357395873 -0.00113303753961503293  0.00011589615210506027 -0.00014675654992064665 0.76494572222278922613 1.13746308246738636605 0.02521499072526970850 0.00001952163051481840 0.00001872878454040014 0.00001888504873206549
1520530321.199745 0.00000000000000000000 0.00000000000000000000 0.00000000000000000000 0.00000000000000000000 0.00000000000000000000 0.00000000000000000000 -0.08816880728055540017  0.01333529123732240043 -0.05515885320856506180 -0.00104252580052462693  0.00011658034724192079 -0.00032735586777307810 0.73695771618280747628 1.10143354182529451535 0.02490141025542721293 0.00001948699564866120 0.00001866001606623923 0.00001884588764532462
1520530321.299749 0.00000000000000000000 0.00000000000000000000 0.00000000000000000000 0.00000000000000000000 0.00000000000000000000 0.00000000000000000000 -0.09008820183618873600  0.01530536777037476252 -0.05527655481066198750 -0.00114405525920803887  0.00016785993147406470 -0.00028594525845388087 0.70982948835084302974 1.06717950876371570068 0.02457090740518203323 0.00001968195482248513 0.00001871799482370437 0.00001895343742216240
1520530321.449856 0.00000000000000000000 0.00000000000000000000 0.00000000000000000000 0.00000000000000000000 0.00000000000000000000 0.00000000000000000000 -0.09101647825421982363  0.03295716565157739281 -0.05620290335977028845 -0.00102680362195001337  0.00012673018347505766 -0.00020721524155350299 0.67283672640976643908 1.00753223720671636343 0.02392809981304926115 0.00001960901669535805 0.00001867735865920930 0.00001881310549015189
1520530321.599860 0.00000000000000000000 0.00000000000000000000 0.00000000000000000000 0.00000000000000000000 0.00000000000000000000 0.00000000000000000000 -0.10009730098628019657  0.05761686265462990370 -0.05884752927224561753 -0.00099691199088612495  0.00007715261843342908 -0.00022030893500574292 0.64320363313474182565 0.95380743088665953522 0.02337839615036850505 0.00001959263500969145 0.00001862447787440498 0.00001870604404779745
1520530321.699863 0.00000000000000000000 0.00000000000000000000 0.00000000000000000000 0.00000000000000000000 0.00000000000000000000 0.00000000000000000000 -0.11196860492188825953  0.06280043647099636805 -0.04461993833171416096 -0.00082886555847489646  0.00002235520740448476 -0.00027178248961515618 0.61960552752132824761 0.92257953374392209778 0.01814940660624590404 0.00001940256238191022 0.00001856859281932990 0.00001855118337356571
1520530321.850152 0.00000000000000000000 0.00000000000000000000 0.00000000000000000000 0.00000000000000000000 0.00000000000000000000 0.00000000000000000000 -0.11571252299173725997  0.04805413101995559266 -0.03911291710019439843 -0.00077334488444617204 -0.00048605149494358735 -0.00023108235891952832 0.59241364731365864227 0.87827110098372973557 0.01772648371497274888 0.00001926714760932474 0.00001838220702204115 0.00001843641386057747
1520530322.000157 0.00000000000000000000 0.00000000000000000000 0.00000000000000000000 0.00000000000000000000 0.00000000000000000000 0.00000000000000000000 -0.12737164960428204452  0.05687842273978476609 -0.03802486685353798773 -0.00100680463646569528 -0.00024906607730017125  0.00000781367666737578 0.56690066416293860563 0.84086206487950021504 0.01728228469483826177 0.00001961424858658543 0.00001849631006887091 0.00001880187610685061
1520530322.150162 0.00000000000000000000 0.00000000000000000000 0.00000000000000000000 0.00000000000000000000 0.00000000000000000000 0.00000000000000000000 -0.13619493839875279617  0.05520962644787469342 -0.03592837262005476456 -0.00090200813521760094 -0.00055368175311546104 -0.00008303560033808016 0.54467209792063076002 0.80985176904674871512 0.01695242974597751737 0.00001980645717692131 0.00001840539407927430 0.00001890955658446714
1520530322.350210 0.00000000000000000000 0.00000000000000000000 0.00000000000000000000 0.00000000000000000000 0.00000000000000000000 0.00000000000000000000 -0.13778153586504013339  0.07405391120079736489 -0.03882983322104782697 -0.00070119849564970150 -0.00050261158675482228 -0.00008657280916866803 0.51727603251381581995 0.78073552507787269406 0.01673039865626012659 0.00001984035268957869 0.00001825033935233402 0.00001895622803828302
1520530322.550216 0.00000000000000000000 0.00000000000000000000 0.00000000000000000000 0.00000000000000000000 0.00000000000000000000 0.00000000000000000000 -0.14358135060573798403  0.07402428370941763203 -0.04070431980087110130 -0.00047875445844709774 -0.00076472877053705680 -0.00014416108802724637 0.49614793895085895770 0.75568101220518080208 0.01668335798127488362 0.00001977884588567263 0.00001812362816126941 0.00001893642514094918
1520530322.700026 0.00000000000000000000 0.00000000000000000000 0.00000000000000000000 0.00000000000000000000 0.00000000000000000000 0.00000000000000000000 -0.17074631971840295575  0.04917537897265224223 -0.04318103582321153322 -0.00055714784692428257 -0.00071962497132469058 -0.00019127864242863879 0.48374203906028923061 0.74228457892171351151 0.01671615057663315349 0.00001992912358325619 0.00001810872893996186 0.00001903258012469942
1520530322.900065 0.00000000000000000000 0.00000000000000000000 0.00000000000000000000 0.00000000000000000000 0.00000000000000000000 0.00000000000000000000 -0.18304033460690521951  0.05028999630826842121 -0.04447780585040934237 -0.00074221961278366324 -0.00042050578984377784 -0.00035163736502244659 0.47091778702705516801 0.72405387300987222865 0.01683049498307591027 0.00001982043160544288 0.00001802153580127866 0.00001901549301514982
1520530323.100074 0.00000000000000000000 0.00000000000000000000 0.00000000000000000000 0.00000000000000000000 0.00000000000000000000 0.00000000000000000000 -0.18828871829214186007  0.03522948554913427066 -0.04387214170586837408 -0.00082781763394483305 -0.00042105740799922107 -0.00060373574772266264 0.46164062392263383039 0.71219110072296021308 0.01692272404897169139 0.00001961971736151053 0.00001798124394536653 0.00001885078067941482
1520530323.250079 0.00000000000000000000 0.00000000000000000000 0.00000000000000000000 0.00000000000000000000 0.00000000000000000000 0.00000000000000000000 -0.19472054649052880637  0.03415728812786081314 -0.04279363167655384631 -0.00069978013543907152 -0.00035892960495875585 -0.00047399898284639319 0.45613821001511756226 0.70304193882167487217 0.01695126959952531279 0.00001923224359612701 0.00001783605290440265 0.00001841758360712044
1520530323.400084 0.00000000000000000000 0.00000000000000000000 0.00000000000000000000 0.00000000000000000000 0.00000000000000000000 0.00000000000000000000 -0.19086839037499006566  0.04081186569533636760 -0.03832977592044388426 -0.00063980755556290140 -0.00019931530910885980 -0.00040836161064592542 0.45431140078788939674 0.69252881706918767435 0.01688667015246510597 0.00001946695959780785 0.00001788771913845789 0.00001856901671129975
1520530323.500345 0.00000000000000000000 0.00000000000000000000 0.00000000000000000000 0.00000000000000000000 0.00000000000000000000 0.00000000000000000000 -0.19646883695120664903  0.04065139668218760438 -0.03707084973067753531 -0.00071185505593367811 -0.00016409153089564797 -0.00025753717082413377 0.45405607836124267651 0.68453105199234109968 0.01675235550674904206 0.00001959670538454408 0.00001789769513871783 0.00001844674474273042
1520530323.600348 0.00000000000000000000 0.00000000000000000000 0.00000000000000000000 0.00000000000000000000 0.00000000000000000000 0.00000000000000000000 -0.19581213380106421429  0.03680036895401978675 -0.03671608547626484947 -0.00071683201407099668 -0.00010299441161338972 -0.00027931265409881026 0.45130839769685970886 0.67648318883865599105 0.01661676421726893810 0.00001911713482493752 0.00001753153017906617 0.00001779173463680617
1520530323.750353 0.00000000000000000000 0.00000000000000000000 0.00000000000000000000 0.00000000000000000000 0.00000000000000000000 0.00000000000000000000 -0.20176624714942115180  0.02910807207457994164 -0.03627882650233325845 -0.00080201344771988468 -0.00009062442135387060 -0.00031991702483131606 0.44763394403207762418 0.66716819345593014745 0.01647297326037515039 0.00001852364350156831 0.00001725997815270840 0.00001736663740706017
1520530323.900153 0.00000000000000000000 0.00000000000000000000 0.00000000000000000000 0.00000000000000000000 0.00000000000000000000 0.00000000000000000000 -0.19897107847239997591  0.02515569364088198270 -0.03626912005116870313 -0.00086994187406831875 -0.00019184451895878528 -0.00014673250010746217 0.44628173095410700322 0.66222775411267997825 0.01641492286595709615 0.00001829520488930808 0.00001715541652691831 0.00001719407513899438
1520530324.050157 0.00000000000000000000 0.00000000000000000000 0.00000000000000000000 0.00000000000000000000 0.00000000000000000000 0.00000000000000000000 -0.20498415787517876296  0.01604820461864671713 -0.03663181346087605872 -0.00096386837968423923 -0.00016006796303286497 -0.00028017938976237063 0.45307485392113128198 0.66542831457451212529 0.01648012222879305030 0.00001855396840590271 0.00001727207811808215 0.00001771333433194992
1520530324.200162 0.00000000000000000000 0.00000000000000000000 0.00000000000000000000 0.00000000000000000000 0.00000000000000000000 0.00000000000000000000 -0.21138162233444318661  0.00424953323767427761 -0.03526829413733156143 -0.00104587894113093629 -0.00007392385611027558 -0.00022801721256608841 0.45129549201690594140 0.65966404340702378128 0.01691885237486129637 0.00001852489989348255 0.00001724720402834559 0.00001782165233327075
1520530324.299908 0.00000000000000000000 0.00000000000000000000 0.00000000000000000000 0.00000000000000000000 0.00000000000000000000 0.00000000000000000000 -0.21832581421261273991 -0.01330420068887654649 -0.03573488032887702642 -0.00120373235609548220 -0.00007109711966625619 -0.00014358698548563298 0.45043036911755601759 0.65631975223788863172 0.01695905071981734097 0.00001821926279775008 0.00001719539002957603 0.00001799189828723439
1520530324.349910 0.00000000000000000000 0.00000000000000000000 0.00000000000000000000 0.00000000000000000000 0.00000000000000000000 0.00000000000000000000 -0.21581821390271357930 -0.01785984901798489885 -0.03752858504582103072 -0.00105488292871239739  0.00000790069342120423 -0.00005303596697173980 0.44996172106142851010 0.65487311628724975687 0.01697703426127850426 0.00001828443908885641 0.00001723139438637896 0.00001805973130560064
1520530324.449913 0.00000000000000000000 0.00000000000000000000 0.00000000000000000000 0.00000000000000000000 0.00000000000000000000 0.00000000000000000000 -0.20860878692674078572 -0.01497311104955860450 -0.03903338717269058677 -0.00090136110201158759 -0.00014441401429934496 -0.00031397557063705722 0.44953210611033883604 0.65174633142182092360 0.01704242687086613209 0.00001824767843867867 0.00001720882264784477 0.00001788826421406343
1520530324.549915 0.00000000000000000000 0.00000000000000000000 0.00000000000000000000 0.00000000000000000000 0.00000000000000000000 0.00000000000000000000 -0.20440596356913767750 -0.02535836480315811076 -0.03827135481349239199 -0.00090153388967570815 -0.00029438360047830326 -0.00041860304085767350 0.44837596398743856385 0.64728004745218159499 0.01711583153906291385 0.00001813459752165201 0.00001716349195961754 0.00001787792559871660
1520530324.649919 0.00000000000000000000 0.00000000000000000000 0.00000000000000000000 0.00000000000000000000 0.00000000000000000000 0.00000000000000000000 -0.20466877628356738850 -0.03286589991367647179 -0.03772368483215535195 -0.00101139340178000138 -0.00023527814901847392 -0.00041065137901329573 0.44732132616313852180 0.64484385490622875281 0.01719362804805469810 0.00001820442900336741 0.00001710509053600292 0.00001792330786684145
1520530324.750020 0.00000000000000000000 0.00000000000000000000 0.00000000000000000000 0.00000000000000000000 0.00000000000000000000 0.00000000000000000000 -0.19891967589334208499 -0.01484242608398379445 -0.03923811919233976403 -0.00102595439418138733 -0.00009374812495819999 -0.00028662536932750769 0.44647942401766560483 0.64381053061877147048 0.01725121338592069606 0.00001835576185865220 0.00001700743817603759 0.00001791616181075904
1520530324.900024 0.00000000000000000000 0.00000000000000000000 0.00000000000000000000 0.00000000000000000000 0.00000000000000000000 0.00000000000000000000 -0.19153185616503881628 -0.01516314801922160824 -0.03776569393181304635 -0.00090106482212956520 -0.00018098015889606616 -0.00031970822026629862 0.44376281787157573211 0.64152980749052568310 0.01730428881214803385 0.00001842464605037948 0.00001697827901716865 0.00001790665608363265
1520530325.050029 0.00000000000000000000 0.00000000000000000000 0.00000000000000000000 0.00000000000000000000 0.00000000000000000000 0.00000000000000000000 -0.18844319505493725697 -0.00926455091781797427 -0.03821044393401973327 -0.00075650349257864232 -0.00028519074938032580 -0.00034001452871440985 0.43978755932916852034 0.63697921761142117791 0.01727437430542129795 0.00001823685933764190 0.00001691857868113206 0.00001775862312393126
1520530325.150817 0.00000000000000000000 0.00000000000000000000 0.00000000000000000000 0.00000000000000000000 0.00000000000000000000 0.00000000000000000000 -0.18333643998651000251 -0.00462259002443177625 -0.03933702115239607472 -0.00059065972807691917 -0.00010097413260631731 -0.00013237451100386324 0.43644667367871592401 0.63358735625283046922 0.01723622415139594577 0.00001809667338650741 0.00001683013875123990 0.00001760651055621454
1520530325.300822 0.00000000000000000000 0.00000000000000000000 0.00000000000000000000 0.00000000000000000000 0.00000000000000000000 0.00000000000000000000 -0.17199956611500266668 -0.00147154345942330502 -0.04034552904069872714 -0.00060775691006129053 -0.00022652475751733554  0.00016636454518455877 0.43064963624840157941 0.62531360121801338181 0.01708838089965299123 0.00001803949212866452 0.00001685290990984187 0.00001759484619168008
1520530325.500828 0.00000000000000000000 0.00000000000000000000 0.00000000000000000000 0.00000000000000000000 0.00000000000000000000 0.00000000000000000000 -0.18111251562481969768 -0.00870885611957815040 -0.03552076113991758932 -0.00056687749843742211 -0.00008931342860370051  0.00043523826637740240 0.42329329106889518330 0.61593366415538264302 0.01679740494445677856 0.00001808135460789447 0.00001681137718665553 0.00001756588873174068
1520530325.700918 0.00000000000000000000 0.00000000000000000000 0.00000000000000000000 0.00000000000000000000 0.00000000000000000000 0.00000000000000000000 -0.17627802652266516548  0.00136011242568821050 -0.03567517311720366791 -0.00070640590715522150 -0.00029448364188826710  0.00031046791870904312 0.41743391734231460877 0.60486590322979794099 0.01643432652566939947 0.00001803878797168670 0.00001673043301290730 0.00001754996636064593
1520530325.850922 0.00000000000000000000 0.00000000000000000000 0.00000000000000000000 0.00000000000000000000 0.00000000000000000000 0.00000000000000000000 -0.17159251047808019019  0.00984440366832429851 -0.03894447569328363806 -0.00071456980214163466 -0.00038794263485060845  0.00027471126796849962 0.41354351522351534554 0.59946763602106289959 0.01627013239586208929 0.00001797303903584487 0.00001654767617479616 0.00001736044171022567
1520530326.000543 0.00000000000000000000 0.00000000000000000000 0.00000000000000000000 0.00000000000000000000 0.00000000000000000000 0.00000000000000000000 -0.17171968388718572562  0.01334929908783587423 -0.04212990061395394809 -0.00044533762288040955 -0.00030920742730299137 -0.00000163318528751784 0.40920685817081620117 0.59554386935481828935 0.01620711562920050530 0.00001793747214579479 0.00001647761540774684 0.00001727974278726486
1520530326.150548 0.00000000000000000000 0.00000000000000000000 0.00000000000000000000 0.00000000000000000000 0.00000000000000000000 0.00000000000000000000 -0.16280369145220457971  0.01616604252246207213 -0.04509250808462784976 -0.00018536156802847426  0.00000450371557361910  0.00005094915710636178 0.40591659011700825799 0.59285525806628247558 0.01621725711500736009 0.00001796383860851063 0.00001644337275079122 0.00001721157550236996
1520530326.300552 0.00000000000000000000 0.00000000000000000000 0.00000000000000000000 0.00000000000000000000 0.00000000000000000000 0.00000000000000000000 -0.16104284523203260537  0.02055963093276578363 -0.04574524018400559500 -0.00001663025605968545 -0.00003839395693541801  0.00017297456993023766 0.40238445616217338729 0.58986665635854329537 0.01625683170133939565 0.00001771142213148354 0.00001637733445076025 0.00001701819327126231
1520530326.400206 0.00000000000000000000 0.00000000000000000000 0.00000000000000000000 0.00000000000000000000 0.00000000000000000000 0.00000000000000000000 -0.15471324841740513589  0.02039984541835598159 -0.04553341871549965170 -0.00009262791422989339  0.00001691378233681803  0.00001966130521518905 0.40024432443583957131 0.58789212713661731513 0.01628877513888006209 0.00001760691853847366 0.00001633943263228889 0.00001693287961487210
1520530326.600213 0.00000000000000000000 0.00000000000000000000 0.00000000000000000000 0.00000000000000000000 0.00000000000000000000 0.00000000000000000000 -0.15151564895079766560  0.01573592593543500506 -0.04581920253227971668 -0.00009636440817766954 -0.00017923351447879878 -0.00014549713498310059 0.39547547110342856636 0.58229522481969697711 0.01632370409095256283 0.00001770851695128623 0.00001631260984113613 0.00001691788486682232
1520530326.800428 0.00000000000000000000 0.00000000000000000000 0.00000000000000000000 0.00000000000000000000 0.00000000000000000000 0.00000000000000000000 -0.15553382866242182470  0.01872529160571864346 -0.04065077536173249823 -0.00024941472874081871 -0.00004560803664099572 -0.00018354085469246019 0.38970580449680480850 0.57442197041025144788 0.01633628943274776507 0.00001766959109931647 0.00001628365612322675 0.00001692099694016184
1520530327.000434 0.00000000000000000000 0.00000000000000000000 0.00000000000000000000 0.00000000000000000000 0.00000000000000000000 0.00000000000000000000 -0.14203730767814570779  0.02166223206722715788 -0.03762260558302555485 -0.00039537229247128337 -0.00005074768971454687 -0.00006134640695055747 0.38306615682405953383 0.56371608986075349979 0.01618803850520410259 0.00001783103340420844 0.00001628873655692784 0.00001702448689062817
1520530327.150431 0.00000000000000000000 0.00000000000000000000 0.00000000000000000000 0.00000000000000000000 0.00000000000000000000 0.00000000000000000000 -0.13005984503435710775  0.01750038321982512121 -0.03765401749699261169 -0.00065001309700689716 -0.00009330986330337655 -0.00000023756966694478 0.37625371782576283453 0.55695539867621113306 0.01605646589221488424 0.00001737988505817239 0.00001607872229935041 0.00001658758407248577
1520530327.250435 0.00000000000000000000 0.00000000000000000000 0.00000000000000000000 0.00000000000000000000 0.00000000000000000000 0.00000000000000000000 -0.11934192398879786556  0.01775234033418226706 -0.03809236326654416582 -0.00076427784193969705 -0.00013583038040582642  0.00016049277112319506 0.37211795478942372162 0.55463235247973530218 0.01601059587314543689 0.00001732746975726589 0.00001601878429073027 0.00001653310015984099
1520530327.400439 0.00000000000000000000 0.00000000000000000000 0.00000000000000000000 0.00000000000000000000 0.00000000000000000000 0.00000000000000000000 -0.11335945985233843170  0.03021871568091152524 -0.04374831649236789882 -0.00063031008305793588 -0.00015132246176676262  0.00036783886112683574 0.36731718400163670957 0.55211746186222443455 0.01596650101626818918 0.00001757674328426103 0.00001609026016166505 0.00001668658153540385
1520530327.550090 0.00000000000000000000 0.00000000000000000000 0.00000000000000000000 0.00000000000000000000 0.00000000000000000000 0.00000000000000000000 -0.11177043123190882890  0.02760759167957755125 -0.04586073668617998006 -0.00057081906092901332  0.00001693850935773934  0.00044645491372654797 0.36417709180410573477 0.55062285214625850127 0.01603961160859303237 0.00001781060056917582 0.00001617851171542098 0.00001685474293326545
1520530327.600091 0.00000000000000000000 0.00000000000000000000 0.00000000000000000000 0.00000000000000000000 0.00000000000000000000 0.00000000000000000000 -0.11579008664169450349  0.02814010062328562226 -0.04574257595471411392 -0.00040083120636646909  0.00013974250260970431  0.00047072410335088211 0.36168431573602671802 0.55035035082470562529 0.01608419214178976805 0.00001737823572800181 0.00001608477662062489 0.00001669368501121266
1520530327.700094 0.00000000000000000000 0.00000000000000000000 0.00000000000000000000 0.00000000000000000000 0.00000000000000000000 0.00000000000000000000 -0.10822892890322426129  0.03538954585534893893 -0.04706364233491913684 -0.00038959493622838681  0.00008118840780021421  0.00047069091032667451 0.35990697551166078716 0.54932360177801076162 0.01614472149456152097 0.00001725205851682503 0.00001606528939979244 0.00001668086605100237
1520530327.800097 0.00000000000000000000 0.00000000000000000000 0.00000000000000000000 0.00000000000000000000 0.00000000000000000000 0.00000000000000000000 -0.11014504959821963537  0.03765006329332804685 -0.04708859367218166947 -0.00034492761835816765  0.00000485480395933778  0.00052756261218545345 0.35875266394394539349 0.54866592060308838619 0.01619592377756933280 0.00001721726539574492 0.00001606424032412782 0.00001666449850377682
1520530327.900100 0.00000000000000000000 0.00000000000000000000 0.00000000000000000000 0.00000000000000000000 0.00000000000000000000 0.00000000000000000000 -0.11857886782503418432  0.02732282721865573680 -0.04490349966457969633 -0.00037864064786245235  0.00010454039052050607  0.00037492152900354936 0.35569983192976528663 0.54808527013962315966 0.01618703110596653519 0.00001687491436127445 0.00001606808649275701 0.00001664083381691861
1520530328.000280 0.00000000000000000000 0.00000000000000000000 0.00000000000000000000 0.00000000000000000000 0.00000000000000000000 0.00000000000000000000 -0.12332029221196226521  0.03469121199873567707 -0.04452567702292947044 -0.00031970243724737394  0.00003519855795844207  0.00028675581811935159 0.35388928816342263284 0.54471531615768475909 0.01611355544937542739 0.00001679057082862128 0.00001611628532685567 0.00001671141014161617
1520530328.100283 0.00000000000000000000 0.00000000000000000000 0.00000000000000000000 0.00000000000000000000 0.00000000000000000000 0.00000000000000000000 -0.12607382620791673933  0.03990632141464841437 -0.04434978892857561333 -0.00024062000713529871  0.00008819880790664981  0.00031721648130767605 0.35180591442621927945 0.53863573330478153878 0.01599829758067921812 0.00001677396020715044 0.00001612451182226134 0.00001676587388429111
1520530328.250288 0.00000000000000000000 0.00000000000000000000 0.00000000000000000000 0.00000000000000000000 0.00000000000000000000 0.00000000000000000000 -0.13296794635867001388  0.04336575323244305780 -0.04414908680063616558 -0.00012139495554071381  0.00018928547489269806  0.00011608317987000762 0.34298594782222241450 0.52494019995729246375 0.01580587433974944833 0.00001671241462210672 0.00001607715970150365 0.00001681761342793439
1520530328.350291 0.00000000000000000000 0.00000000000000000000 0.00000000000000000000 0.00000000000000000000 0.00000000000000000000 0.00000000000000000000 -0.13326097855531832126  0.04637211272315010235 -0.04532084659451856429 -0.00028681204436574833  0.00016912776193287609 -0.00002636353655249662 0.33351993772286325779 0.51188691889599202689 0.01565262955468815081 0.00001654786113040890 0.00001604543013542792 0.00001666699850578469
1520530328.400337 0.00000000000000000000 0.00000000000000000000 0.00000000000000000000 0.00000000000000000000 0.00000000000000000000 0.00000000000000000000 -0.13727637841904366534  0.05225045530482864270 -0.04625666075269036642 -0.00040040974373270401  0.00011113185781137363 -0.00009165432717593485 0.32693639688501102691 0.50408467395608036465 0.01557124921866617426 0.00001623800365286415 0.00001599659165503537 0.00001637114761952680
1520530328.500340 0.00000000000000000000 0.00000000000000000000 0.00000000000000000000 0.00000000000000000000 0.00000000000000000000 0.00000000000000000000 -0.14107998546548869423  0.06261926841981045599 -0.04672270915944675557 -0.00056560495586634369  0.00023867533479344854 -0.00016929300409600136 0.31533249634238913472 0.48976209728811881394 0.01543571230857708476 0.00001630240919453891 0.00001603506580644209 0.00001633826003959538
1520530328.600344 0.00000000000000000000 0.00000000000000000000 0.00000000000000000000 0.00000000000000000000 0.00000000000000000000 0.00000000000000000000 -0.14292187956961249773  0.07008509630115283828 -0.04708549321616274652 -0.00061300058989336196  0.00041966123072547295 -0.00025545162749444336 0.30429706119681154686 0.47744052787893659362 0.01530908234021150643 0.00001638114401558500 0.00001607677520687866 0.00001633405472262242
1520530328.700347 0.00000000000000000000 0.00000000000000000000 0.00000000000000000000 0.00000000000000000000 0.00000000000000000000 0.00000000000000000000 -0.14232545109129721150  0.07355631608307271196 -0.04808321284343137353 -0.00065296437247495498  0.00047662131978383325 -0.00023210604925791385 0.29491158265315964293 0.46683567827686739404 0.01518483162532005548 0.00001638822311170503 0.00001604382184702289 0.00001625455043140735
1520530328.800086 0.00000000000000000000 0.00000000000000000000 0.00000000000000000000 0.00000000000000000000 0.00000000000000000000 0.00000000000000000000 -0.14027754071962433846  0.07305309768620048272 -0.04821388921781944586 -0.00064553231246073858  0.00044106962277799030 -0.00021581848428688539 0.28791614031862788892 0.45774069987956295114 0.01506702228919721588 0.00001637966272654375 0.00001600530749486377 0.00001620096135798864
1520530328.900089 0.00000000000000000000 0.00000000000000000000 0.00000000000000000000 0.00000000000000000000 0.00000000000000000000 0.00000000000000000000 -0.13624619066773413500  0.06666274823719399445 -0.04762302052757488163 -0.00056769452632359732  0.00043028223781351138 -0.00009451763386242974 0.28355953282456203279 0.45000581300459907563 0.01494176503225549436 0.00001645062783532106 0.00001605100871365746 0.00001636549097541658
1520530329.050093 0.00000000000000000000 0.00000000000000000000 0.00000000000000000000 0.00000000000000000000 0.00000000000000000000 0.00000000000000000000 -0.13529811395650695460  0.06357683902104727114 -0.04672275507776847692 -0.00057697181133492949  0.00042265469740661375 -0.00000934593310717432 0.28016579735260926931 0.43890803317382709459 0.01473318300088773299 0.00001639237635751737 0.00001605018272602759 0.00001641144426491544
1520530329.150097 0.00000000000000000000 0.00000000000000000000 0.00000000000000000000 0.00000000000000000000 0.00000000000000000000 0.00000000000000000000 -0.13223097941130984578  0.06496142126921729265 -0.04683289485376777167 -0.00043322665761998900  0.00037063848548490175 -0.00007592591284923194 0.27877546335832426028 0.43275016779617947460 0.01460330211197885877 0.00001631174036661896 0.00001602866875016925 0.00001625480745354722
1520530329.250095 0.00000000000000000000 0.00000000000000000000 0.00000000000000000000 0.00000000000000000000 0.00000000000000000000 0.00000000000000000000 -0.12937406205898052680  0.06176609585399881613 -0.04636644681046010047 -0.00046076282432934353  0.00037304700057432812 -0.00002589483801396080 0.27793653307390009388 0.42667776313452682180 0.01448017742315683976 0.00001643384751863974 0.00001609201393665106 0.00001623531562018691
1520530329.350049 0.00000000000000000000 0.00000000000000000000 0.00000000000000000000 0.00000000000000000000 0.00000000000000000000 0.00000000000000000000 -0.12712232314855514970  0.05742733575202058766 -0.04506407616317165132 -0.00039562942294449295  0.00035573540956723661 -0.00006464261617634248 0.27687374714513757201 0.42021898259647944007 0.01436381236899957579 0.00001652194198482157 0.00001611462765530626 0.00001628502551828234
1520530329.450052 0.00000000000000000000 0.00000000000000000000 0.00000000000000000000 0.00000000000000000000 0.00000000000000000000 0.00000000000000000000 -0.12718843297155532635  0.06339763520085796300 -0.04597143558170860983 -0.00039739861549467626  0.00032190366374952107 -0.00011183922493306206 0.27530638203056251312 0.41277735576847573995 0.01422997694246687893 0.00001650555290573247 0.00001613311083946242 0.00001634291779133594
1520530329.600097 0.00000000000000000000 0.00000000000000000000 0.00000000000000000000 0.00000000000000000000 0.00000000000000000000 0.00000000000000000000 -0.12709841221889686680  0.06525812397033629864 -0.04600974088162078368 -0.00039891023487569381  0.00023886419450009009 -0.00010948704246529780 0.27108421438960655925 0.40114502172390470447 0.01402550602409895208 0.00001634807796272263 0.00001616900815377772 0.00001634323882953760
1520530329.700100 0.00000000000000000000 0.00000000000000000000 0.00000000000000000000 0.00000000000000000000 0.00000000000000000000 0.00000000000000000000 -0.12441982595739456419  0.06744349886560188634 -0.04552009309986312924 -0.00033240552454971478  0.00027626549189510878 -0.00004302432268321766 0.26747404810414515675 0.39390507441547606415 0.01390266314343162682 0.00001625240977828661 0.00001601028551545355 0.00001630365143968957
1520530329.800104 0.00000000000000000000 0.00000000000000000000 0.00000000000000000000 0.00000000000000000000 0.00000000000000000000 0.00000000000000000000 -0.12435835377751720821  0.07111588817978663213 -0.04542682849201610390 -0.00043518885023326799  0.00036979896591300210 -0.00002487383918971586 0.26438267623817329754 0.38885620097212503232 0.01380145991258602094 0.00001646475383587804 0.00001604491797579187 0.00001644207250472455
1520530329.900107 0.00000000000000000000 0.00000000000000000000 0.00000000000000000000 0.00000000000000000000 0.00000000000000000000 0.00000000000000000000 -0.12497413101212485886  0.07637753735384072984 -0.04635769399775214322 -0.00048529281584772495  0.00042273672798147735 -0.00006467604562156634 0.26045170913343973496 0.38553248614140611661 0.01372692409461233158 0.00001646934218638331 0.00001604496738052517 0.00001650219768543186
1520530330.000110 0.00000000000000000000 0.00000000000000000000 0.00000000000000000000 0.00000000000000000000 0.00000000000000000000 0.00000000000000000000 -0.12330089465858355691  0.07613747322139835516 -0.04644476803927707204 -0.00048043300007033865  0.00038018341441760508 -0.00017596216192544830 0.25676066270869857266 0.38399608218302000440 0.01369409436146510131 0.00001654489697271271 0.00001595185613692297 0.00001642009229536041
1520530330.050161 0.00000000000000000000 0.00000000000000000000 0.00000000000000000000 0.00000000000000000000 0.00000000000000000000 0.00000000000000000000 -0.12004490925888829100  0.07746020158942594491 -0.04632203569540220556 -0.00047151828542629770  0.00042079250582878572 -0.00017881393352639594 0.25450322352824877870 0.38355667426182893376 0.01368776077442254019 0.00001648274146245312 0.00001588708111217633 0.00001631788530333522
1520530330.150164 0.00000000000000000000 0.00000000000000000000 0.00000000000000000000 0.00000000000000000000 0.00000000000000000000 0.00000000000000000000 -0.11394530886548169535  0.07745245817400157884 -0.04579043287258540568 -0.00046014603217898369  0.00053576013406445315 -0.00001665045883099887 0.25024337931365281396 0.38284192290339386089 0.01368383561948242379 0.00001649743612231621 0.00001595108344539115 0.00001637452428969995
1520530330.250167 0.00000000000000000000 0.00000000000000000000 0.00000000000000000000 0.00000000000000000000 0.00000000000000000000 0.00000000000000000000 -0.10710740125370048215  0.07091998447363102864 -0.04417662757460885659 -0.00046470318656470776  0.00060948787448540220  0.00002400596450423261 0.24555384337980276643 0.38178717262587685832 0.01368241640151882273 0.00001636815823700798 0.00001602505733630162 0.00001640725141917543
1520530330.300169 0.00000000000000000000 0.00000000000000000000 0.00000000000000000000 0.00000000000000000000 0.00000000000000000000 0.00000000000000000000 -0.10524414688862704370  0.06802267455005214791 -0.04365903921339449323 -0.00042486919630679691  0.00063156828568756182  0.00001696707781123427 0.24350263333908850338 0.38074755298657719793 0.01367664006249378825 0.00001633814649982879 0.00001598024698481473 0.00001634286378552999
1520530330.400172 0.00000000000000000000 0.00000000000000000000 0.00000000000000000000 0.00000000000000000000 0.00000000000000000000 0.00000000000000000000 -0.10222950714735085098  0.06578192438050835256 -0.04293909900264309548 -0.00045337386525003728  0.00064994187237497414  0.00008648811149998130 0.23961067366725832817 0.37767049539495622934 0.01366198269477609389 0.00001635430863189619 0.00001595912521960029 0.00001631138013582834
1520530330.450787 0.00000000000000000000 0.00000000000000000000 0.00000000000000000000 0.00000000000000000000 0.00000000000000000000 0.00000000000000000000 -0.10225495433626007047  0.06525550891568969447 -0.04292039870341961966 -0.00046578577822743993  0.00067448365494151966  0.00012053349158206282 0.23786722592278539135 0.37607895155222131889 0.01365455718780736807 0.00001640077275831559 0.00001596653897712973 0.00001630531359779540
1520530330.550790 0.00000000000000000000 0.00000000000000000000 0.00000000000000000000 0.00000000000000000000 0.00000000000000000000 0.00000000000000000000 -0.09797791391283608431  0.06288001290400194176 -0.04246428859323872484 -0.00034911877518667715  0.00058967716585285514  0.00021256472717027012 0.23470898950180463238 0.37291455618138796835 0.01364062856567238927 0.00001644981478761870 0.00001598666199301379 0.00001654869143564319
1520530330.650793 0.00000000000000000000 0.00000000000000000000 0.00000000000000000000 0.00000000000000000000 0.00000000000000000000 0.00000000000000000000 -0.09687930830963349671  0.06364917164450308029 -0.04251043582436089124 -0.00035291894997631357  0.00044088282359887565  0.00019587026578962323 0.23151855049826661204 0.37024596340410320661 0.01363660327547281011 0.00001628897542185953 0.00001600039365334760 0.00001645748047258911
1520530330.700795 0.00000000000000000000 0.00000000000000000000 0.00000000000000000000 0.00000000000000000000 0.00000000000000000000 0.00000000000000000000 -0.09597175413818274936  0.06161418034173885006 -0.04240576961000028927 -0.00043069935658649768  0.00034850239351311613  0.00022988745547000022 0.22997599689849793081 0.36914635732036599203 0.01363938587535432068 0.00001623693944009200 0.00001590766777391061 0.00001637994727446435
1520530330.800798 0.00000000000000000000 0.00000000000000000000 0.00000000000000000000 0.00000000000000000000 0.00000000000000000000 0.00000000000000000000 -0.09598691590241738292  0.06185300561918961881 -0.04306584129884544199 -0.00055764206245733413  0.00028658558663159818  0.00018680258578294344 0.22742176091324137199 0.36761900114707846132 0.01365197490382651091 0.00001625988921630023 0.00001590201125004399 0.00001638826579341348
1520530330.850367 0.00000000000000000000 0.00000000000000000000 0.00000000000000000000 0.00000000000000000000 0.00000000000000000000 0.00000000000000000000 -0.09617688070550016455  0.06071836775019798932 -0.04315278214143286606 -0.00053449816774647329  0.00026359582360460952  0.00024371610591366884 0.22623236759096476689 0.36705364016252406412 0.01366468924339523001 0.00001625734231654439 0.00001588756295395430 0.00001640104090840418
1520530330.950279 0.00000000000000000000 0.00000000000000000000 0.00000000000000000000 0.00000000000000000000 0.00000000000000000000 0.00000000000000000000 -0.09448833561308137008  0.05824358723300985391 -0.04386167150351539396 -0.00052742735769087965  0.00034124846903070045  0.00019540422845394379 0.22419317963241816583 0.36638714867346044990 0.01369640108547730793 0.00001634581755613315 0.00001596998928734448 0.00001641236753573452
1520530331.050282 0.00000000000000000000 0.00000000000000000000 0.00000000000000000000 0.00000000000000000000 0.00000000000000000000 0.00000000000000000000 -0.09549781220120823200  0.05857970563050615004 -0.04403092014364138468 -0.00050523711651549003  0.00039920153028935910  0.00012158335197819054 0.22233688178946606206 0.36570231502459071837 0.01373371535449061792 0.00001639068878760861 0.00001592264048917651 0.00001633663059212401
1520530331.150285 0.00000000000000000000 0.00000000000000000000 0.00000000000000000000 0.00000000000000000000 0.00000000000000000000 0.00000000000000000000 -0.09706384898163587793  0.05868018453029524156 -0.04362910377612189139 -0.00044357504062939821  0.00035533098169067022  0.00020964948462106744 0.22063355125085840069 0.36520372587484151161 0.01376862677565592746 0.00001643945120158433 0.00001587903129797721 0.00001634793796992306
1520530331.250735 0.00000000000000000000 0.00000000000000000000 0.00000000000000000000 0.00000000000000000000 0.00000000000000000000 0.00000000000000000000 -0.09997742695333231011  0.05893127225677131931 -0.04253148501737070986 -0.00032147893841939052  0.00035447434413663664  0.00016332605410542681 0.21885961172621462567 0.36450836961358495936 0.01379523697233111211 0.00001637137377360150 0.00001580898060401027 0.00001633459191877734
1520530331.350738 0.00000000000000000000 0.00000000000000000000 0.00000000000000000000 0.00000000000000000000 0.00000000000000000000 0.00000000000000000000 -0.10028897206155541755  0.06325424983989723360 -0.04220452652489747186 -0.00035229887027637637  0.00035723736950890426  0.00015765456299536156 0.21717980377357387622 0.36378963244709638936 0.01381625625876290245 0.00001635754201029777 0.00001580299848842941 0.00001635453811079652
1520530331.450741 0.00000000000000000000 0.00000000000000000000 0.00000000000000000000 0.00000000000000000000 0.00000000000000000000 0.00000000000000000000 -0.10052703661126391466  0.06931229680190531539 -0.04225380763435769571 -0.00061638324336980973  0.00033564388061574612  0.00018087254889408047 0.21553679759448510223 0.36306617341810581978 0.01383327282119327026 0.00001636942082707911 0.00001580968370954296 0.00001631026735860085
1520530331.500743 0.00000000000000000000 0.00000000000000000000 0.00000000000000000000 0.00000000000000000000 0.00000000000000000000 0.00000000000000000000 -0.10094711574749500038  0.06886661240611331725 -0.04225536571784883899 -0.00068430261566017564  0.00025713284059342714  0.00016081102729327082 0.21478752292265637647 0.36267608671965673173 0.01384451158316394974 0.00001633961190224575 0.00001577658911171603 0.00001624776428777960
1520530331.600746 0.00000000000000000000 0.00000000000000000000 0.00000000000000000000 0.00000000000000000000 0.00000000000000000000 0.00000000000000000000 -0.10232177778029036275  0.06753339983303087435 -0.04252402425035217703 -0.00064191132902529518  0.00021610944014278252  0.00017062436088129539 0.21335440363766355887 0.36209519513030646864 0.01388961321953494782 0.00001644630326064442 0.00001580627333180899 0.00001625937529700390
1520530331.650479 0.00000000000000000000 0.00000000000000000000 0.00000000000000000000 0.00000000000000000000 0.00000000000000000000 0.00000000000000000000 -0.09967208749877107254  0.06871901536585944825 -0.04312540663741940700 -0.00068888372725456175  0.00025523375389366722  0.00016534400540673793 0.21274566361524116509 0.36176232059170643218 0.01392494515665381946 0.00001642362698527613 0.00001577286539936148 0.00001613620607690092
1520530331.750483 0.00000000000000000000 0.00000000000000000000 0.00000000000000000000 0.00000000000000000000 0.00000000000000000000 0.00000000000000000000 -0.09797619906485299790  0.07206997983630558657 -0.04342173772735562903 -0.00066215342601289398  0.00036163740881510069  0.00028780490266751177 0.21144800828327467435 0.36008739513318305248 0.01401161824595742629 0.00001640301941961438 0.00001577773828297689 0.00001613043481889577
1520530331.800484 0.00000000000000000000 0.00000000000000000000 0.00000000000000000000 0.00000000000000000000 0.00000000000000000000 0.00000000000000000000 -0.09485137979096155969  0.07267936245811203178 -0.04385499358916942342 -0.00055901721316459815  0.00043005936450175316  0.00035354119259783251 0.21065758783674184973 0.35882049040703012377 0.01406267358829406400 0.00001625568036920262 0.00001571103432927927 0.00001600557152740553
1520530331.900488 0.00000000000000000000 0.00000000000000000000 0.00000000000000000000 0.00000000000000000000 0.00000000000000000000 0.00000000000000000000 -0.09225903649133393447  0.06938766793053745274 -0.04428477122055256981 -0.00052801116839273768  0.00051672681175405461  0.00033926774910598691 0.20913285890576244208 0.35572435377593225603 0.01417098076117656417 0.00001632593799943667 0.00001572529890982883 0.00001605855156139744
1520530332.000491 0.00000000000000000000 0.00000000000000000000 0.00000000000000000000 0.00000000000000000000 0.00000000000000000000 0.00000000000000000000 -0.09358471027833591138  0.06670556028666063675 -0.04461090988367699683 -0.00048758679416485099  0.00052585247044877710  0.00036735533760611508 0.20729941743471760884 0.35208401280106560449 0.01427633821831546940 0.00001633041821181019 0.00001574006577181231 0.00001609694780430060
1520530332.100388 0.00000000000000000000 0.00000000000000000000 0.00000000000000000000 0.00000000000000000000 0.00000000000000000000 0.00000000000000000000 -0.09291729543645027567  0.06594746497672533680 -0.04432729324501520629 -0.00051997049323605391  0.00047449450442947410  0.00035403497677660462 0.20506646548130227914 0.34790556603143724113 0.01436633458045914920 0.00001635684729310495 0.00001575994398350813 0.00001613862992824325
1520530332.200392 0.00000000000000000000 0.00000000000000000000 0.00000000000000000000 0.00000000000000000000 0.00000000000000000000 0.00000000000000000000 -0.08552818094914949043  0.06518035566080417065 -0.04298245298096850520 -0.00050956739641094806  0.00042462650172859541  0.00040980985694813579 0.20222309250967862582 0.34324099281786280002 0.01443676719452815019 0.00001635825240484004 0.00001576323450660049 0.00001615122858046273
1520530332.300399 0.00000000000000000000 0.00000000000000000000 0.00000000000000000000 0.00000000000000000000 0.00000000000000000000 0.00000000000000000000 -0.08062844844207370243  0.06420025076484359161 -0.04203408151945836613 -0.00038274535434085612  0.00044393286435978510  0.00044541299483046894 0.19885324183799391040 0.33849431199319041097 0.01448010694805948288 0.00001635400958874948 0.00001577040763970351 0.00001619147654753154
1520530332.400401 0.00000000000000000000 0.00000000000000000000 0.00000000000000000000 0.00000000000000000000 0.00000000000000000000 0.00000000000000000000 -0.07266752866198246397  0.06201831459766529026 -0.04148714843776355604 -0.00043459788739280339  0.00046748874447846966  0.00051688779568936981 0.19505037603751948505 0.33389110530715415681 0.01450795805857890176 0.00001635331903519530 0.00001576716828392337 0.00001616760300291174
1520530332.500483 0.00000000000000000000 0.00000000000000000000 0.00000000000000000000 0.00000000000000000000 0.00000000000000000000 0.00000000000000000000 -0.06797725001486289165  0.06239208016059601819 -0.04185822061736478583 -0.00043540951664669135  0.00056815549290279528  0.00052378382808316356 0.19101795980501570793 0.32914957843954217864 0.01452369517182953811 0.00001640486079306503 0.00001578760807740879 0.00001616047141910088
1520530332.600486 0.00000000000000000000 0.00000000000000000000 0.00000000000000000000 0.00000000000000000000 0.00000000000000000000 0.00000000000000000000 -0.06560812765632018095  0.06513310542649541901 -0.04265229392235876660 -0.00042480092255376165  0.00058397236761330480  0.00050543546834934774 0.18685706595678272524 0.32446841015673261177 0.01453797282456210753 0.00001638380907991561 0.00001575372561626774 0.00001602935545821614
1520530332.650488 0.00000000000000000000 0.00000000000000000000 0.00000000000000000000 0.00000000000000000000 0.00000000000000000000 0.00000000000000000000 -0.06407077167436825427  0.06393911914331382174 -0.04302330006318660222 -0.00045650066757807966  0.00046297314597936942  0.00047230276270616886 0.18472243378387348534 0.32208911833518699686 0.01454806346648568859 0.00001629194712216801 0.00001571757051683194 0.00001597895383715928
1520530332.750491 0.00000000000000000000 0.00000000000000000000 0.00000000000000000000 0.00000000000000000000 0.00000000000000000000 0.00000000000000000000 -0.06013827772461969451  0.06090507251198736677 -0.04370967205188593108 -0.00043024762992670322  0.00034060806974516874  0.00045410802430491338 0.18072030535798905282 0.31771181440784429517 0.01457823240718221502 0.00001628097790635414 0.00001569430217923146 0.00001596805712787054
1520530332.850494 0.00000000000000000000 0.00000000000000000000 0.00000000000000000000 0.00000000000000000000 0.00000000000000000000 0.00000000000000000000 -0.05556087676698000938  0.05808610364770123990 -0.04476903985930519303 -0.00055435209599269787  0.00015325881279646132  0.00049428857218525974 0.17706063977375133267 0.31407246541870437184 0.01461294521867138874 0.00001625990366975326 0.00001570243595814055 0.00001598694933866062
1520530332.950166 0.00000000000000000000 0.00000000000000000000 0.00000000000000000000 0.00000000000000000000 0.00000000000000000000 0.00000000000000000000 -0.05040038860847846636  0.05915632355630774664 -0.04594489539771051678 -0.00052346330982355857  0.00010564123627597611  0.00046633628215409200 0.17378100928172987572 0.31138953504437777431 0.01464597775830790011 0.00001629459184399504 0.00001574968388602449 0.00001603644213944392
1520530333.050169 0.00000000000000000000 0.00000000000000000000 0.00000000000000000000 0.00000000000000000000 0.00000000000000000000 0.00000000000000000000 -0.05216236453311268867  0.06118263440153795529 -0.04624401945812745690 -0.00042994015617699876  0.00016243778139223258  0.00038748406336484690 0.17097649877879556035 0.30942980644403317303 0.01467189773748015305 0.00001635946297675756 0.00001580083448459537 0.00001610160332566208
1520530333.150173 0.00000000000000000000 0.00000000000000000000 0.00000000000000000000 0.00000000000000000000 0.00000000000000000000 0.00000000000000000000 -0.05520166005300766732  0.05865061886119324330 -0.04526251083920137391 -0.00037974271979585012  0.00019050357113612823  0.00033146671115679522 0.16870859431160248332 0.30827678339449959832 0.01468482338067353572 0.00001643938328060697 0.00001590161042140857 0.00001619236488668615
1520530333.250175 0.00000000000000000000 0.00000000000000000000 0.00000000000000000000 0.00000000000000000000 0.00000000000000000000 0.00000000000000000000 -0.05766758335933456353  0.05765521015993211457 -0.04451156833795565787 -0.00036654069956203867  0.00015534277423297170  0.00026191923007388957 0.16690799474631717869 0.30771107584958440340 0.01467922591168339431 0.00001642585419562276 0.00001591238461391845 0.00001632896268110612
1520530333.300608 0.00000000000000000000 0.00000000000000000000 0.00000000000000000000 0.00000000000000000000 0.00000000000000000000 0.00000000000000000000 -0.05796766618863546244  0.05871429822159942441 -0.04418721779990299886 -0.00042214260683552332  0.00018424195339295410  0.00025597272754548976 0.16615745472712864506 0.30753929873640156734 0.01467214231299065336 0.00001639118488493983 0.00001591323778379644 0.00001632368418823438
1520530333.400612 0.00000000000000000000 0.00000000000000000000 0.00000000000000000000 0.00000000000000000000 0.00000000000000000000 0.00000000000000000000 -0.05961176136986415935  0.05894849274305021675 -0.04312597329308459626 -0.00044119209689014481  0.00008938017787855345  0.00031089848702693369 0.16471044722550304273 0.30714272944362142059 0.01466189745471771326 0.00001642741781604154 0.00001596153255402528 0.00001630557940558948
1520530333.500615 0.00000000000000000000 0.00000000000000000000 0.00000000000000000000 0.00000000000000000000 0.00000000000000000000 0.00000000000000000000 -0.06038040853356473059  0.06552540125045244745 -0.04305913703171418416 -0.00041813871808105905  0.00009284009794983046  0.00028651663661082450 0.16308852922665686980 0.30609518636156002325 0.01465115661752422645 0.00001647704446820906 0.00001601444926553247 0.00001622736241714843
1520530333.650619 0.00000000000000000000 0.00000000000000000000 0.00000000000000000000 0.00000000000000000000 0.00000000000000000000 0.00000000000000000000 -0.06161188783441434030  0.07187199465286865652 -0.04384455440167540213 -0.00036722495569024285  0.00019879830029524467  0.00024599754849379045 0.15969574085124596530 0.30213805414980798858 0.01462878530084232506 0.00001685348445795204 0.00001622077744746174 0.00001668050987499342
1520530333.750542 0.00000000000000000000 0.00000000000000000000 0.00000000000000000000 0.00000000000000000000 0.00000000000000000000 0.00000000000000000000 -0.06004878271484062613  0.07814890145767404428 -0.04462656541295912521 -0.00045456630411675061  0.00027190799157505812  0.00020695263879631177 0.15689415647028295830 0.29777794597123596887 0.01460303437110748934 0.00001702298972369088 0.00001629843338385468 0.00001689190710117287
1520530333.800544 0.00000000000000000000 0.00000000000000000000 0.00000000000000000000 0.00000000000000000000 0.00000000000000000000 0.00000000000000000000 -0.06020718130963219339  0.08186664128543517938 -0.04488502767909906960 -0.00047127479528405019  0.00031163018372832771  0.00022495477947451179 0.15531095390612942309 0.29531759684516217801 0.01458429302826388940 0.00001704019826068740 0.00001629233982319975 0.00001693116006472163
1520530333.900547 0.00000000000000000000 0.00000000000000000000 0.00000000000000000000 0.00000000000000000000 0.00000000000000000000 0.00000000000000000000 -0.05929016454025198141  0.08896632745304594581 -0.04543756212999462696 -0.00040841942724360631  0.00032545469090804538  0.00022734927699885065 0.15242056141768647870 0.29062239773630693662 0.01454550083091489011 0.00001712975560682462 0.00001635950295392775 0.00001695675086277481
1520530333.950549 0.00000000000000000000 0.00000000000000000000 0.00000000000000000000 0.00000000000000000000 0.00000000000000000000 0.00000000000000000000 -0.05868328899243207414  0.08910535592519586157 -0.04564975143166432464 -0.00036072674790714964  0.00028505791700510154  0.00020820642404009108 0.15107223263383609546 0.28868178245465592191 0.01451851509895074090 0.00001715591691436671 0.00001645134218706740 0.00001707048178358230
1520530334.050551 0.00000000000000000000 0.00000000000000000000 0.00000000000000000000 0.00000000000000000000 0.00000000000000000000 0.00000000000000000000 -0.05867640869346027466  0.08935562409298758446 -0.04551384719569324944 -0.00027889746427769421  0.00021173176694535718  0.00021260036570786296 0.14875037481078751123 0.28398941975597186138 0.01445988760687509471 0.00001717474191403271 0.00001651362362293460 0.00001707765055594843
1520530334.150218 0.00000000000000000000 0.00000000000000000000 0.00000000000000000000 0.00000000000000000000 0.00000000000000000000 0.00000000000000000000 -0.05905095534358033305  0.08800319527241916295 -0.04542424971282901097 -0.00026682220699733025  0.00011967874466755150  0.00027384279288957827 0.14719639918076835028 0.27811566806562765253 0.01437423764304479601 0.00001721597506126325 0.00001648119612166664 0.00001708371640614449
1520530334.250221 0.00000000000000000000 0.00000000000000000000 0.00000000000000000000 0.00000000000000000000 0.00000000000000000000 0.00000000000000000000 -0.05975843998154981018  0.08772248742376285990 -0.04638715326901195896 -0.00021588387097788708  0.00002982297545387844  0.00037367430208113149 0.14626463107288012466 0.27283905826245080650 0.01427945736624032340 0.00001723370524910680 0.00001654272354534434 0.00001714122248976011
1520530334.300222 0.00000000000000000000 0.00000000000000000000 0.00000000000000000000 0.00000000000000000000 0.00000000000000000000 0.00000000000000000000 -0.06128403011930116939  0.08877933164493309603 -0.04673177869627851561 -0.00009630765965058026 -0.00003387111899145103  0.00034734300462909844 0.14597741210841438941 0.27074287347470954446 0.01424328954123878221 0.00001722123387935430 0.00001653408101001083 0.00001710473981474773
1520530334.400225 0.00000000000000000000 0.00000000000000000000 0.00000000000000000000 0.00000000000000000000 0.00000000000000000000 0.00000000000000000000 -0.06238190577022141581  0.08911931582724470779 -0.04731099522291252329 -0.00008250496967903339 -0.00010639785382855405  0.00027923531566115793 0.14563554071046502791 0.26763283781703289810 0.01417469944675849199 0.00001716723823349454 0.00001647813636951882 0.00001707580992588554
1520530334.500228 0.00000000000000000000 0.00000000000000000000 0.00000000000000000000 0.00000000000000000000 0.00000000000000000000 0.00000000000000000000 -0.06492497762194168742  0.09020489119020837221 -0.04802848842940617147 -0.00024285775092267533 -0.00015685665216117140  0.00026059570132462139 0.14547468962222392941 0.26541227286758012349 0.01411088768378183401 0.00001720399276183913 0.00001654721983190008 0.00001713294343548205
1520530334.600088 0.00000000000000000000 0.00000000000000000000 0.00000000000000000000 0.00000000000000000000 0.00000000000000000000 0.00000000000000000000 -0.06453335868613226112  0.09460071903219437195 -0.04950708549501693645 -0.00036537799090737781 -0.00009710050447305177  0.00021480202808385324 0.14545395517665904439 0.26376629577324856024 0.01406195467409174400 0.00001725274676186070 0.00001658130039241438 0.00001718433518894105
1520530334.700091 0.00000000000000000000 0.00000000000000000000 0.00000000000000000000 0.00000000000000000000 0.00000000000000000000 0.00000000000000000000 -0.06616073794729326885  0.09433855469234782298 -0.05031468888144791790 -0.00053819157995196572 -0.00008913940730028730  0.00018194131143062892 0.14550866543175122736 0.26318973543808488191 0.01404306383815422110 0.00001726873797175065 0.00001653692477175711 0.00001720703078962418
1520530334.800094 0.00000000000000000000 0.00000000000000000000 0.00000000000000000000 0.00000000000000000000 0.00000000000000000000 0.00000000000000000000 -0.06647837455179747557  0.09364890203978537553 -0.05119138140491932137 -0.00059824990686052322 -0.00019855225010609101  0.00021578500949993350 0.14558702218307451037 0.26261521781573116119 0.01404702744201864403 0.00001741675326339804 0.00001663969645220987 0.00001725036898993434
1520530334.900097 0.00000000000000000000 0.00000000000000000000 0.00000000000000000000 0.00000000000000000000 0.00000000000000000000 0.00000000000000000000 -0.06663890259657342940  0.09692721922181440908 -0.05092427272297087026 -0.00060127365996092688 -0.00015943075361090253  0.00031417363988724888 0.14567761007075369362 0.26181440893608415310 0.01408341789684927278 0.00001761027122075059 0.00001674724126665175 0.00001728250092632197
1520530334.950928 0.00000000000000000000 0.00000000000000000000 0.00000000000000000000 0.00000000000000000000 0.00000000000000000000 0.00000000000000000000 -0.06623456290393624213  0.09822941191768687352 -0.05062788812928293442 -0.00058559465071845681 -0.00007464608136395829  0.00037026746369608719 0.14571734797806043527 0.26131187693421870089 0.01410939405872083281 0.00001760049921123672 0.00001672709135920686 0.00001723642245842138
1520530335.050931 0.00000000000000000000 0.00000000000000000000 0.00000000000000000000 0.00000000000000000000 0.00000000000000000000 0.00000000000000000000 -0.06670395518111936484  0.10259707754496120991 -0.04923425301005075749 -0.00056652944006305877 -0.00010743133243509202  0.00034927977955882128 0.14577405380219302100 0.26024726902101280590 0.01416751645328035922 0.00001742404279535706 0.00001668734987903000 0.00001705123686068375
1520530335.150934 0.00000000000000000000 0.00000000000000000000 0.00000000000000000000 0.00000000000000000000 0.00000000000000000000 0.00000000000000000000 -0.06589625183308603362  0.10432160058712315609 -0.04864029682556206269 -0.00058808886895393589 -0.00008383547059872337  0.00042573440599480167 0.14575734254541541923 0.25906558378263844222 0.01423417086084991304 0.00001729412483332279 0.00001663879571270443 0.00001704525671135729
1520530335.250937 0.00000000000000000000 0.00000000000000000000 0.00000000000000000000 0.00000000000000000000 0.00000000000000000000 0.00000000000000000000 -0.06533302651601448352  0.10645234263475071568 -0.04771028131319587223 -0.00050350827716442504  0.00007907267081043846  0.00043106027111628083 0.14569772025643767943 0.25757515445903084172 0.01430994745498220290 0.00001709533196439688 0.00001644059623513585 0.00001696506754278948
1520530335.351457 0.00000000000000000000 0.00000000000000000000 0.00000000000000000000 0.00000000000000000000 0.00000000000000000000 0.00000000000000000000 -0.06300775683433970653  0.10796333380494495258 -0.04732284781517880068 -0.00041350062096836442  0.00014308168013995353  0.00048815511627457703 0.14558240087478394043 0.25616232808371780516 0.01438753000787496190 0.00001688529169152081 0.00001625451352868987 0.00001687753687214548
1520530335.451459 0.00000000000000000000 0.00000000000000000000 0.00000000000000000000 0.00000000000000000000 0.00000000000000000000 0.00000000000000000000 -0.06304553561316919574  0.10962719046193625250 -0.04741782735062000098 -0.00039397962902614598  0.00026217324276732527  0.00041092916433491778 0.14540369097686167699 0.25473478857014136834 0.01446839863542015263 0.00001672947181266424 0.00001620804697381672 0.00001683577327026878
1520530335.551462 0.00000000000000000000 0.00000000000000000000 0.00000000000000000000 0.00000000000000000000 0.00000000000000000000 0.00000000000000000000 -0.06216637081593279213  0.10928614766104322031 -0.04774263821008623704 -0.00031552876978743354  0.00025745960860623521  0.00053605634830638897 0.14518243074524178615 0.25392723857279902999 0.01453694843583154886 0.00001673635857357469 0.00001623343967750930 0.00001680557919674523
1520530335.651465 0.00000000000000000000 0.00000000000000000000 0.00000000000000000000 0.00000000000000000000 0.00000000000000000000 0.00000000000000000000 -0.06063135903439318547  0.10800634553591999254 -0.04778709710789486032 -0.00022280088898830205  0.00016485921962809444  0.00068035931847477114 0.14490724198787524601 0.25333811018999052855 0.01459870396436975873 0.00001679297463408252 0.00001624493002170035 0.00001678235326561470
1520530335.750223 0.00000000000000000000 0.00000000000000000000 0.00000000000000000000 0.00000000000000000000 0.00000000000000000000 0.00000000000000000000 -0.05937468555794424979  0.10655596364430927614 -0.04914438370484738167 -0.00022461932058646784  0.00005455610314373807  0.00069477212600689466 0.14458678914492417711 0.25320342041672755373 0.01463859755696055552 0.00001669947507834934 0.00001628284656645950 0.00001680114161753688
1520530335.850226 0.00000000000000000000 0.00000000000000000000 0.00000000000000000000 0.00000000000000000000 0.00000000000000000000 0.00000000000000000000 -0.06002610756360425570  0.10335424654642490216 -0.05065773235502717825 -0.00022375441902796169  0.00003875495370930170  0.00067312494644413063 0.14421186016725873191 0.25309294925517261676 0.01467513069630983075 0.00001683086724988701 0.00001632826407882670 0.00001686330398325641
1520530335.950229 0.00000000000000000000 0.00000000000000000000 0.00000000000000000000 0.00000000000000000000 0.00000000000000000000 0.00000000000000000000 -0.05910893461039332109  0.10271671439206268850 -0.05137546511078976835 -0.00018451433848359702  0.00013994634392486795  0.00059471837902279085 0.14378932717369893868 0.25303739575239803106 0.01470255860167085302 0.00001671539270197738 0.00001627498134535088 0.00001688857202548628
1520530336.050232 0.00000000000000000000 0.00000000000000000000 0.00000000000000000000 0.00000000000000000000 0.00000000000000000000 0.00000000000000000000 -0.05883987140933948784  0.10202125354193809781 -0.05194784129998468447 -0.00034549546323894641  0.00008371302999090291  0.00051920402429441056 0.14338824208653849768 0.25300946568569587791 0.01473372767562441087 0.00001673300129673387 0.00001633302563832116 0.00001689802074360075
1520530336.150177 0.00000000000000000000 0.00000000000000000000 0.00000000000000000000 0.00000000000000000000 0.00000000000000000000 0.00000000000000000000 -0.05806434873723928525  0.10174145263168238307 -0.05171991335759891506 -0.00048190168326796919  0.00001784046612412335  0.00056890024363351950 0.14299585537702796945 0.25300843980338821870 0.01475496010675255744 0.00001661306669790329 0.00001635056303919161 0.00001687247649192765
1520530336.250180 0.00000000000000000000 0.00000000000000000000 0.00000000000000000000 0.00000000000000000000 0.00000000000000000000 0.00000000000000000000 -0.05775665144293705422  0.10067370819310221541 -0.05039244743711641938 -0.00047535965609087603  0.00002023068549273731  0.00069579995630045743 0.14269058655601710162 0.25268498220344742800 0.01476715787492045850 0.00001648614039241530 0.00001632055022310357 0.00001685731049220023
1520530336.350183 0.00000000000000000000 0.00000000000000000000 0.00000000000000000000 0.00000000000000000000 0.00000000000000000000 0.00000000000000000000 -0.05776855146432574584  0.10115733738403347164 -0.04924396353596509346 -0.00046365263997636704  0.00018453490472724823  0.00071341147985250252 0.14245752613397569264 0.25188304554164897553 0.01476194681649967665 0.00001629335646771168 0.00001629766871306519 0.00001682626145442343
1520530336.400185 0.00000000000000000000 0.00000000000000000000 0.00000000000000000000 0.00000000000000000000 0.00000000000000000000 0.00000000000000000000 -0.05765759576720019819  0.10106028131205073428 -0.04864975160154264705 -0.00044835679442414340  0.00019663467274456527  0.00072292111158341423 0.14236060464784264235 0.25119442539496950051 0.01474066934313590475 0.00001623094263507070 0.00001610149009253997 0.00001670739932069587
1520530336.500188 0.00000000000000000000 0.00000000000000000000 0.00000000000000000000 0.00000000000000000000 0.00000000000000000000 0.00000000000000000000 -0.05812314514068351451  0.09938984987413097827 -0.04768297858079900697 -0.00029836573251309243  0.00014444593852437870  0.00068097223941693036 0.14211892400722017649 0.24981179403341330358 0.01467093849862295858 0.00001623297145095408 0.00001604478869359725 0.00001663548556991555
1520530336.600584 0.00000000000000000000 0.00000000000000000000 0.00000000000000000000 0.00000000000000000000 0.00000000000000000000 0.00000000000000000000 -0.05955890747979675215  0.09730047909377076421 -0.04699008548682909181 -0.00021660268815160900  0.00008052678711918977  0.00077608751432772446 0.14171945464752702670 0.24833610601692840403 0.01459740736923246032 0.00001617641009036462 0.00001597981846006462 0.00001648458631733773
1520530336.700586 0.00000000000000000000 0.00000000000000000000 0.00000000000000000000 0.00000000000000000000 0.00000000000000000000 0.00000000000000000000 -0.06063627044395641930  0.09539340850123478877 -0.04686959599543978616 -0.00014639171717570763  0.00006944587396321390  0.00072589184939370185 0.14116824041580156024 0.24714472913228924256 0.01453466049065035327 0.00001619229107090021 0.00001595626315595748 0.00001641917901178097
1520530336.800590 0.00000000000000000000 0.00000000000000000000 0.00000000000000000000 0.00000000000000000000 0.00000000000000000000 0.00000000000000000000 -0.06278401136142576500  0.09672233932966427250 -0.04779006872661262922 -0.00008727923943816087  0.00012134998201539774  0.00061210616358187467 0.14044563492708025954 0.24595582575961805194 0.01447754707753668921 0.00001616463583784205 0.00001594731154967435 0.00001637564308793280
1520530336.900594 0.00000000000000000000 0.00000000000000000000 0.00000000000000000000 0.00000000000000000000 0.00000000000000000000 0.00000000000000000000 -0.06450540767295875888  0.09736912083153806408 -0.04886839102931265361 -0.00006897037150883814  0.00019561938161950532  0.00058811795472301970 0.13960389604040449041 0.24522433303005750083 0.01442830637994659514 0.00001611904681430196 0.00001591401787107824 0.00001631139963694467
1520530337.000258 0.00000000000000000000 0.00000000000000000000 0.00000000000000000000 0.00000000000000000000 0.00000000000000000000 0.00000000000000000000 -0.06604482123237345736  0.09743817334206544833 -0.05052549901713091624 -0.00008239788317707474  0.00018862357962826982  0.00060039769084175275 0.13872497559032725967 0.24493815723713138754 0.01439600003276250879 0.00001617994205088155 0.00001593430650851678 0.00001637441940245796
1520530337.050259 0.00000000000000000000 0.00000000000000000000 0.00000000000000000000 0.00000000000000000000 0.00000000000000000000 0.00000000000000000000 -0.06622568916919066573  0.09751961817228596563 -0.05030795543640598916 -0.00006101980263605123  0.00023560065575508235  0.00062480734852841783 0.13829687197435666657 0.24485346164583760009 0.01439478321058021773 0.00001620128555424045 0.00001593395508847066 0.00001641524903843712
1520530337.150262 0.00000000000000000000 0.00000000000000000000 0.00000000000000000000 0.00000000000000000000 0.00000000000000000000 0.00000000000000000000 -0.06693278131574348366  0.09593362890921186548 -0.04989502464330788922 -0.00000868679442915984  0.00023226324382757718  0.00059226878121439251 0.13748047208358465943 0.24479385553505816908 0.01441571763915350420 0.00001623502057060939 0.00001592033082694428 0.00001645337435959683
1520530337.250265 0.00000000000000000000 0.00000000000000000000 0.00000000000000000000 0.00000000000000000000 0.00000000000000000000 0.00000000000000000000 -0.06733364851646449212  0.09618346781697588443 -0.05001898412715234665 -0.00000728445849235059  0.00029220617599867732  0.00060238648047815900 0.13675423097242150883 0.24494549400609536005 0.01444367868963042541 0.00001643696259242365 0.00001598457144069334 0.00001648310439819927
1520530337.350269 0.00000000000000000000 0.00000000000000000000 0.00000000000000000000 0.00000000000000000000 0.00000000000000000000 0.00000000000000000000 -0.06753202162175839240  0.09631791628244358583 -0.04992092693303143425 -0.00004688493400702037  0.00028887503653767562  0.00060886601935210814 0.13604299293991981012 0.24512281630815016542 0.01446562010360340211 0.00001654875072488818 0.00001601800199435480 0.00001650586502189031
1520530337.450303 0.00000000000000000000 0.00000000000000000000 0.00000000000000000000 0.00000000000000000000 0.00000000000000000000 0.00000000000000000000 -0.06768005034422888699  0.09645142118430626021 -0.04976088349780286024 -0.00008640290768587501  0.00025982961034769160  0.00051614728050536221 0.13540645670334144901 0.24516513671370804284 0.01446140583371565910 0.00001659472476893592 0.00001607772565738694 0.00001653331277072072
1520530337.550306 0.00000000000000000000 0.00000000000000000000 0.00000000000000000000 0.00000000000000000000 0.00000000000000000000 0.00000000000000000000 -0.06631020735856579806  0.09545747602380529051 -0.04824117941121036646 -0.00009794058920687836  0.00016658261522689669  0.00042874548825762716 0.13489088371886467921 0.24503714869437739909 0.01442170735439071358 0.00001676999628760019 0.00001617310041542105 0.00001680258763809450
1520530337.650309 0.00000000000000000000 0.00000000000000000000 0.00000000000000000000 0.00000000000000000000 0.00000000000000000000 0.00000000000000000000 -0.06409045986825889774  0.09187865176529497191 -0.04627825786011020154 -0.00006817009589113341  0.00018130857066950043  0.00043468408497731551 0.13442333910536144459 0.24427869114824624086 0.01433242995422791613 0.00001682960181370736 0.00001623521108411292 0.00001689794721490685
1520530337.750312 0.00000000000000000000 0.00000000000000000000 0.00000000000000000000 0.00000000000000000000 0.00000000000000000000 0.00000000000000000000 -0.06184967426712812549  0.08914404663110692129 -0.04511822923688073306 -0.00007638572960448403  0.00016519548128983734  0.00052379998068284497 0.13385434734870743645 0.24249316186009967078 0.01422020752189096654 0.00001693427098542672 0.00001627272940133095 0.00001704294200857561
1520530337.850855 0.00000000000000000000 0.00000000000000000000 0.00000000000000000000 0.00000000000000000000 0.00000000000000000000 0.00000000000000000000 -0.06060819817549193550  0.08502361187660846531 -0.04395600690779995906 -0.00011179706755853922  0.00018592040443410644  0.00071481280416564813 0.13329890995298354639 0.23997301946345755974 0.01410889343027896606 0.00001705177687229357 0.00001627606246706706 0.00001709067868444847
1520530337.950858 0.00000000000000000000 0.00000000000000000000 0.00000000000000000000 0.00000000000000000000 0.00000000000000000000 0.00000000000000000000 -0.05725948255162112421  0.08012541979708284745 -0.04310756977015853947 -0.00018564882768844928  0.00024847642105873028  0.00081471573452089824 0.13255492366766744028 0.23758860635637094050 0.01403396312224092918 0.00001700404578242345 0.00001624911323016216 0.00001694763538676021
1520530338.050862 0.00000000000000000000 0.00000000000000000000 0.00000000000000000000 0.00000000000000000000 0.00000000000000000000 0.00000000000000000000 -0.05432523069045509800  0.07986245368955721680 -0.04304293515122196295 -0.00018290952450792234  0.00015202503857031263  0.00088911140688582575 0.13174855806323279572 0.23493174181527706756 0.01397304475462089746 0.00001687062185401735 0.00001625698913716414 0.00001695884012318851
1520530338.150864 0.00000000000000000000 0.00000000000000000000 0.00000000000000000000 0.00000000000000000000 0.00000000000000000000 0.00000000000000000000 -0.05304120207096138517  0.07827099476643703535 -0.04360152772458173592 -0.00015598134190453203  0.00010960990833926984  0.00087949521309870729 0.13078486223429530710 0.23259788608341180893 0.01392182685490446319 0.00001689725456724052 0.00001628508612231353 0.00001695400930496433
1520530338.250473 0.00000000000000000000 0.00000000000000000000 0.00000000000000000000 0.00000000000000000000 0.00000000000000000000 0.00000000000000000000 -0.05410944372532930369  0.08144911128031864789 -0.04557246895209339510 -0.00007662211273156518  0.00007735873740985192  0.00088876969505564073 0.12973834245115503649 0.23035792890001427491 0.01386869115166272648 0.00001679731579445702 0.00001634556698923231 0.00001697653183198511
1520530338.350476 0.00000000000000000000 0.00000000000000000000 0.00000000000000000000 0.00000000000000000000 0.00000000000000000000 0.00000000000000000000 -0.05294103906310748675  0.08133576848910221979 -0.04643264327933718100 -0.00009937328094601371  0.00006139094598151306  0.00092937001686080366 0.12856899234590860037 0.22864452270420451696 0.01382306259611096495 0.00001679969200639926 0.00001626876894975626 0.00001681835353736068
1520530338.450479 0.00000000000000000000 0.00000000000000000000 0.00000000000000000000 0.00000000000000000000 0.00000000000000000000 0.00000000000000000000 -0.05099303362673016787  0.08072490182036651252 -0.04693340191375097031 -0.00012215114239724596 -0.00008878991823490542  0.00101859674725374660 0.12739108071095067709 0.22707167306071557311 0.01378549010284193209 0.00001662736162040934 0.00001610178274534037 0.00001656632343449420
1520530338.550482 0.00000000000000000000 0.00000000000000000000 0.00000000000000000000 0.00000000000000000000 0.00000000000000000000 0.00000000000000000000 -0.04887957290767912938  0.08192117732419434972 -0.04785558515530687757 -0.00012557299345355055 -0.00017177646457678400  0.00096260818409157705 0.12625485509138612006 0.22566980621742427360 0.01376737450967352103 0.00001665240144001461 0.00001601064486645763 0.00001650095856246630
1520530338.650261 0.00000000000000000000 0.00000000000000000000 0.00000000000000000000 0.00000000000000000000 0.00000000000000000000 0.00000000000000000000 -0.04716977447697565107  0.08160462211607467931 -0.04827013627938889218 -0.00004191774612600966 -0.00020204200864086682  0.00083614492613591593 0.12519590797097551738 0.22439907741326220458 0.01377412789126627839 0.00001664563131840573 0.00001597872004949514 0.00001652632522594102
1520530338.750266 0.00000000000000000000 0.00000000000000000000 0.00000000000000000000 0.00000000000000000000 0.00000000000000000000 0.00000000000000000000 -0.04679661846506454753  0.08058581778334335255 -0.04831348401314451702  0.00000530974003402851 -0.00017665958375076584  0.00074364220992147536 0.12421593958789181600 0.22310109317679524543 0.01379852577532601418 0.00001660370742448107 0.00001594341489963141 0.00001654733985530315
1520530338.850267 0.00000000000000000000 0.00000000000000000000 0.00000000000000000000 0.00000000000000000000 0.00000000000000000000 0.00000000000000000000 -0.04620023855585556755  0.08266388123185541836 -0.04847617291487002489  0.00007299566445344497 -0.00021418070452456552  0.00071323169239234955 0.12338616432040766524 0.22179391423262082017 0.01383389564039439433 0.00001646158994159955 0.00001588306194531890 0.00001645867457837533
1520530338.950270 0.00000000000000000000 0.00000000000000000000 0.00000000000000000000 0.00000000000000000000 0.00000000000000000000 0.00000000000000000000 -0.04530198809915915448  0.08101237785099321687 -0.04919275888060110902  0.00002022631157213201 -0.00020611604072381592  0.00070517791270507816 0.12271742347872816037 0.22078563065243311803 0.01387794475033115454 0.00001634508223364613 0.00001589427082287619 0.00001638750648370506
1520530339.050959 0.00000000000000000000 0.00000000000000000000 0.00000000000000000000 0.00000000000000000000 0.00000000000000000000 0.00000000000000000000 -0.04417901278750845095  0.08176794325929366558 -0.04867355471308754816 -0.00004259377241046288 -0.00008732555449444242  0.00068803931869810663 0.12220984848092447672 0.21972547392228755636 0.01392661847232509222 0.00001638132122721636 0.00001593148778155669 0.00001640090816537268
1520530339.100960 0.00000000000000000000 0.00000000000000000000 0.00000000000000000000 0.00000000000000000000 0.00000000000000000000 0.00000000000000000000 -0.04584761820208940047  0.08328895437021989478 -0.04834944030029721812  0.00002617514662205818 -0.00006188119129962246  0.00066422348965962028 0.12205221676409795661 0.21918765438617632269 0.01395257896471407445 0.00001654108967111739 0.00001601511935591599 0.00001646869174575450
1520530339.200963 0.00000000000000000000 0.00000000000000000000 0.00000000000000000000 0.00000000000000000000 0.00000000000000000000 0.00000000000000000000 -0.04676971764533664755  0.08406279940351439606 -0.04796476275647690996  0.00009097087159654589 -0.00002606344103877128  0.00070253755704348766 0.12182950340375768572 0.21843288417136766388 0.01400063803948706567 0.00001645209483079015 0.00001611950547766069 0.00001657682163472516
1520530339.300966 0.00000000000000000000 0.00000000000000000000 0.00000000000000000000 0.00000000000000000000 0.00000000000000000000 0.00000000000000000000 -0.04725942071324488319  0.08493438222812459137 -0.04758231419280409269  0.00013332757872780042 -0.00006139284370611968  0.00070408719972923407 0.12179709150902298664 0.21784301678284925807 0.01404343708163222938 0.00001641491680810271 0.00001619342702943425 0.00001670006497760488
1520530339.400970 0.00000000000000000000 0.00000000000000000000 0.00000000000000000000 0.00000000000000000000 0.00000000000000000000 0.00000000000000000000 -0.04753871170867355472  0.08721428335983537339 -0.04693544319819539790  0.00013824838425185882 -0.00006958689840455563  0.00064583917965869834 0.12184810631865213015 0.21739951965133949563 0.01407903606507682204 0.00001635079917372300 0.00001618492682061329 0.00001668638721000514
1520530339.501689 0.00000000000000000000 0.00000000000000000000 0.00000000000000000000 0.00000000000000000000 0.00000000000000000000 0.00000000000000000000 -0.04631370383629729304  0.08645510167051648209 -0.04637421602302044255  0.00010990703816350249 -0.00004100979973588349  0.00065360535281519939 0.12189064537147560607 0.21695276727666795713 0.01410575979638339569 0.00001629425979584896 0.00001612500695917315 0.00001666000906155306
1520530339.601692 0.00000000000000000000 0.00000000000000000000 0.00000000000000000000 0.00000000000000000000 0.00000000000000000000 0.00000000000000000000 -0.04603408169149028617  0.08604320799207865189 -0.04660230390817592799 0.00007704986313253311 0.00001598461446464785 0.00060601865581907954 0.12178264860275228587 0.21631872417636943684 0.01413727796373578927 0.00001633963248162186 0.00001615829351019148 0.00001661578958449881
1520530339.701695 0.00000000000000000000 0.00000000000000000000 0.00000000000000000000 0.00000000000000000000 0.00000000000000000000 0.00000000000000000000 -0.04462097625112865923  0.08434436363969571859 -0.04651330776523505961 -0.00003121964371285736 -0.00004405923691685647  0.00060700350428633952 0.12144390458132536814 0.21538330463532354142 0.01417696483817823191 0.00001676207032909672 0.00001635303451826899 0.00001690965844689394
1520530339.801698 0.00000000000000000000 0.00000000000000000000 0.00000000000000000000 0.00000000000000000000 0.00000000000000000000 0.00000000000000000000 -0.04558512385822695301  0.08325645072515454326 -0.04642084312645450295  0.00000076483444960226 -0.00002436305925675303  0.00056772432174557281 0.12068040275109469250 0.21398311804491212951 0.01422788684513460154 0.00001698483062096204 0.00001644391572751616 0.00001699594196335785
1520530339.851056 0.00000000000000000000 0.00000000000000000000 0.00000000000000000000 0.00000000000000000000 0.00000000000000000000 0.00000000000000000000 -0.04649856237707868795  0.08194857897872546981 -0.04648605547841568042  0.00000603698262261838 -0.00002359512417659182  0.00053335023618288437 0.12016007186307529897 0.21328650808025170771 0.01425164804619210267 0.00001703925409044050 0.00001647813005331890 0.00001702904515065119
1520530339.951059 0.00000000000000000000 0.00000000000000000000 0.00000000000000000000 0.00000000000000000000 0.00000000000000000000 0.00000000000000000000 -0.04879328618075587376  0.07982509700837357725 -0.04665380855589125464  0.00002837438562386496 -0.00002194842430806270  0.00052841830349181101 0.11889972043819362069 0.21176247173203213703 0.01429982207968330012 0.00001709985912250560 0.00001648277303894565 0.00001709953065916010
1520530340.051062 0.00000000000000000000 0.00000000000000000000 0.00000000000000000000 0.00000000000000000000 0.00000000000000000000 0.00000000000000000000 -0.05025338339524925563  0.07837047573534422495 -0.04670144089687125466 0.00000878064171770315 0.00012061677494982496 0.00057594958227121104 0.11742789622008577288 0.21017350246804036851 0.01435216401304066462 0.00001715202989347903 0.00001645317897799432 0.00001720041842736281
1520530340.151065 0.00000000000000000000 0.00000000000000000000 0.00000000000000000000 0.00000000000000000000 0.00000000000000000000 0.00000000000000000000 -0.05269563548934973890  0.07502509938130214051 -0.04720227977635466088 -0.00001132799949144138  0.00017312216725517412  0.00054127034514024424 0.11578891681479681897 0.20877997402444056774 0.01440816763216187443 0.00001710188021654701 0.00001638232305109773 0.00001725354148488396
1520530340.250395 0.00000000000000000000 0.00000000000000000000 0.00000000000000000000 0.00000000000000000000 0.00000000000000000000 0.00000000000000000000 -0.05627749446576563175  0.07146309411066911754 -0.04807073626694035456 0.00000432312057156497 0.00020673650413680447 0.00047292128089513875 0.11414616427204292426 0.20733918157296651885 0.01447336782257628400 0.00001706556286781128 0.00001644427096605369 0.00001726687858824872
1520530340.300397 0.00000000000000000000 0.00000000000000000000 0.00000000000000000000 0.00000000000000000000 0.00000000000000000000 0.00000000000000000000 -0.05773345356311820886  0.07086479090886337040 -0.04821296891486810676 0.00002885212980897717 0.00015652754460522621 0.00045287391285536293 0.11333245027441146702 0.20653673245359294164 0.01451238078906555949 0.00001697910934580461 0.00001638931938746198 0.00001726689016422880
1520530340.400400 0.00000000000000000000 0.00000000000000000000 0.00000000000000000000 0.00000000000000000000 0.00000000000000000000 0.00000000000000000000 -0.05798963369609940605  0.07002029484976571294 -0.04842583868372227207 0.00007593336876099022 0.00012905268713472463 0.00036933630358507771 0.11180740109870379584 0.20508754716922192318 0.01459244398946034707 0.00001692743564820920 0.00001634973714212183 0.00001719294970123972
1520530340.500403 0.00000000000000000000 0.00000000000000000000 0.00000000000000000000 0.00000000000000000000 0.00000000000000000000 0.00000000000000000000 -0.05866625392529372512  0.07025135213008923407 -0.04860654583810217894 0.00010489037879444727 0.00010694607343036489 0.00030097572927974395 0.11040900458979098497 0.20387144196927473039 0.01468117921540403048 0.00001690936854757148 0.00001630609729712750 0.00001712920820043367
1520530340.600406 0.00000000000000000000 0.00000000000000000000 0.00000000000000000000 0.00000000000000000000 0.00000000000000000000 0.00000000000000000000 -0.05903297947959199737  0.06989583549260638962 -0.04875182436467008495 0.00013514340139584278 0.00010216802071342978 0.00036207218030902760 0.10925889427810688004 0.20291284667294001709 0.01476689151203727964 0.00001700438021272908 0.00001635585126055639 0.00001728798075236559
1520530340.700348 0.00000000000000000000 0.00000000000000000000 0.00000000000000000000 0.00000000000000000000 0.00000000000000000000 0.00000000000000000000 -0.05879898603326480511  0.06937264405093525321 -0.04826138923103671236 0.00016916492461736707 0.00004587938006861097 0.00035117628354690804 0.10838866658574659863 0.20242189889354758603 0.01484065077046257258 0.00001716473487312014 0.00001643894164752199 0.00001729864525491144
1520530340.850353 0.00000000000000000000 0.00000000000000000000 0.00000000000000000000 0.00000000000000000000 0.00000000000000000000 0.00000000000000000000 -0.05710985710755783068  0.06964528612749468217 -0.04763152074514648282 0.00016043289614778438 0.00002974473788336182 0.00024474507999772176 0.10734884671964482761 0.20212427823185280529 0.01492288563165708112 0.00001712121469112386 0.00001631594024867526 0.00001709683241377104
1520530341.050774 0.00000000000000000000 0.00000000000000000000 0.00000000000000000000 0.00000000000000000000 0.00000000000000000000 0.00000000000000000000 -0.05360132119567796727  0.06758449866431705255 -0.04604637938456580121 0.00015453699214926797 0.00014029278490729766 0.00044101393254193297 0.10665690043526422637 0.20230377517815475996 0.01495099927346642266 0.00001742628233181514 0.00001656763666349940 0.00001776622968441143
