1520530315.649646 0.00000000000000000000 0.00000000000000000000 0.00000000000000000000 0.00000000000000000000 0.00000000000000000000 0.00000000000000000000 -0.77302820859726151248  0.13934254219551431286 -0.03472811778999337212 -0.00915406926414170583 -0.00288024556495863069  0.00171611014974351606 5.17485657400464660327 5.20372030286026188151 0.05694335919387995271 0.00002774858848475980 0.00003028908921548946 0.00002864658282834862
1520530315.749639 0.00000000000000000000 0.00000000000000000000 0.00000000000000000000 0.00000000000000000000 0.00000000000000000000 0.00000000000000000000 -0.93756211823368607039  0.02797607824240004246 -0.01450107343583013561 -0.00528276374196144389 -0.00198765751634191789  0.00229337920772437927 3.59119423567016005094 4.41777991300743000380 0.04620024825549697706 0.00002856997047060290 0.00002937446933900104 0.00002812648760811868
1520530315.849642 0.00000000000000000000 0.00000000000000000000 0.00000000000000000000 0.00000000000000000000 0.00000000000000000000 0.00000000000000000000 -0.54314423828214841716  0.13188871895679407653 -0.05832629233000417163 -0.00489888240667084827 -0.00196014740544879756  0.00234128279220580712 3.49502850838634637753 4.32444104594286748977 0.05962234741839702451 0.00002794826264804399 0.00002844802635478856 0.00002815508260970020
1520530315.949645 0.00000000000000000000 0.00000000000000000000 0.00000000000000000000 0.00000000000000000000 0.00000000000000000000 0.00000000000000000000 -0.46849175528415054615  0.21921351187419663153 -0.06997353560143571016 -0.00498248997231180105 -0.00207022728763065628  0.00227720678714983049 3.20644162545454713964 4.05213686102213888063 0.05643636785244891818 0.00002788735590303593 0.00002825514393382523 0.00002807693363506079
1520530316.100221 0.00000000000000000000 0.00000000000000000000 0.00000000000000000000 0.00000000000000000000 0.00000000000000000000 0.00000000000000000000 -0.87683769439133485424  0.14403271953568458352 -0.02079467055542055104 -0.00454573313112876902 -0.00210633937081274383  0.00241862067565757960 3.92701724710160871012 4.91553644632186337304 0.07334250647673520862 0.00002846757892208710 0.00002839633836012112 0.00002815943433311666
1520530316.250226 0.00000000000000000000 0.00000000000000000000 0.00000000000000000000 0.00000000000000000000 0.00000000000000000000 0.00000000000000000000 -0.94017134438356120274  0.16083723804554597714 -0.01094531903764967527 -0.00482043489181087879 -0.00195502066448088353  0.00248698810548338926 3.42598955119018500071 4.46193470751828957788 0.05667578501450909467 0.00002838394784806272 0.00002757499784851089 0.00002804426421742808
1520530316.400230 0.00000000000000000000 0.00000000000000000000 0.00000000000000000000 0.00000000000000000000 0.00000000000000000000 0.00000000000000000000 -0.97591462402524764563  0.13790801764428403664 -0.00312733550141418293 -0.00494286994743945319 -0.00186921627631388707  0.00259442674368006105 3.06009466130552976182 4.13973408529572584058 0.05550633775151450622 0.00002751479465302812 0.00002699403774709901 0.00002760350416575491
1520530316.600278 0.00000000000000000000 0.00000000000000000000 0.00000000000000000000 0.00000000000000000000 0.00000000000000000000 0.00000000000000000000 -1.00062149785616982811  0.09575809857017489324  0.00333704855597304582 -0.00494548382057555507 -0.00164083808058562491  0.00260383222252156665 2.73369145463391749473 3.75174285078519620384 0.05132146572129190482 0.00002789289804939694 0.00002797991461610886 0.00002752355154309820
1520530316.800284 0.00000000000000000000 0.00000000000000000000 0.00000000000000000000 0.00000000000000000000 0.00000000000000000000 0.00000000000000000000 -1.08243275924503312702  0.02884825655606922806  0.01767634134946906646 -0.00494025594613415643 -0.00153534450764634197  0.00237860703309035384 2.52986451382116150910 3.41089269318497034789 0.05389247452208113798 0.00002777062971656504 0.00002810012107210885 0.00002732320148571500
1520530316.949773 0.00000000000000000000 0.00000000000000000000 0.00000000000000000000 0.00000000000000000000 0.00000000000000000000 0.00000000000000000000 -1.11774813932979033559 -0.03375286074072805786  0.02608472774475413189 -0.00494180090465172993 -0.00139168395313668709  0.00208161879545896598 2.43423717796277649938 3.12311653011764844834 0.05242632948035545748 0.00002704515742789216 0.00002802593434962644 0.00002542939194177905
1520530317.049776 0.00000000000000000000 0.00000000000000000000 0.00000000000000000000 0.00000000000000000000 0.00000000000000000000 0.00000000000000000000 -1.16046895164589369820 -0.12751622775862289649  0.03549072050607436635 -0.00493481020083943404 -0.00143756908998864900  0.00227004194773311376 2.36510983718280787258 2.97291057546765413733 0.06253494599496699224 0.00002635641040542558 0.00002778065398307982 0.00002517508322868650
1520530317.199781 0.00000000000000000000 0.00000000000000000000 0.00000000000000000000 0.00000000000000000000 0.00000000000000000000 0.00000000000000000000 -1.20315023653121389025 -0.09267025489350087797  0.03980434438576085920 -0.00507755295268406959 -0.00129029237634297779  0.00224344833746267357 2.29622009326058096335 2.79037413004178969089 0.06790176041584496114 0.00002560295873167497 0.00002768584084507683 0.00002630971086788626
1520530317.299784 0.00000000000000000000 0.00000000000000000000 0.00000000000000000000 0.00000000000000000000 0.00000000000000000000 0.00000000000000000000 -1.22994911430315068124 -0.09635178944210298635  0.04385463963189894371 -0.00530249419739848866 -0.00145052776320603685  0.00224592467260256159 2.27714740474756505151 2.63206078157489287150 0.06766711449251687494 0.00002537328017278997 0.00002722505766791086 0.00002622665879273935
1520530317.399745 0.00000000000000000000 0.00000000000000000000 0.00000000000000000000 0.00000000000000000000 0.00000000000000000000 0.00000000000000000000 -1.28536845277162181667 -0.08869691167198821835  0.05304272051296555351 -0.00558584323914186436 -0.00155346924258831969  0.00209911729420240696 2.26948878325586989035 2.53432066173722336799 0.06767119521577842634 0.00002556514838690248 0.00002649449797476889 0.00002599799978175206
1520530317.599752 0.00000000000000000000 0.00000000000000000000 0.00000000000000000000 0.00000000000000000000 0.00000000000000000000 0.00000000000000000000 -1.34573641633525675765 -0.07504807974604330023  0.06206447563311737886 -0.00551078709032668240 -0.00149233135062807796  0.00225978595349236432 2.26589216811136662244 2.40131120076661508378 0.06796921305534284197 0.00002588888062489608 0.00002618870545774209 0.00002602647616807371
1520530317.800239 0.00000000000000000000 0.00000000000000000000 0.00000000000000000000 0.00000000000000000000 0.00000000000000000000 0.00000000000000000000 -1.35054557224683113859 -0.01286611409645578748  0.06303891611201066503 -0.00543837998100419120 -0.00133357222950449082  0.00251585523405180615 2.23749088564748088714 2.30507743955798849456 0.07720869727918235059 0.00002634530597664097 0.00002618478471294739 0.00002584801924328338
1520530318.000245 0.00000000000000000000 0.00000000000000000000 0.00000000000000000000 0.00000000000000000000 0.00000000000000000000 0.00000000000000000000 -1.29542476788543936550  0.00570295294737126549  0.05333045047571906977 -0.00515087186275908250 -0.00131705443900482881  0.00246254251918525150 2.23573611906484348566 2.20868914700179352906 0.07746825230466983236 0.00002614109532966250 0.00002613310566706692 0.00002616860771893785
1520530318.150816 0.00000000000000000000 0.00000000000000000000 0.00000000000000000000 0.00000000000000000000 0.00000000000000000000 0.00000000000000000000 -1.26713696543026665964  0.01638148344480088586  0.05020494350426127350 -0.00495044221325773894 -0.00135071084389174205  0.00207191778917537647 2.21392701831230054310 2.11571128812087483340 0.07717334638747104514 0.00002581782197615516 0.00002654906243895789 0.00002682675743840385
1520530318.250771 0.00000000000000000000 0.00000000000000000000 0.00000000000000000000 0.00000000000000000000 0.00000000000000000000 0.00000000000000000000 -1.25249136478798228644  0.05115604768605538227  0.04884975501393534758 -0.00499898168819801030 -0.00138725262339213116  0.00209805503549136694 2.19937936563777336474 2.02257508700511090538 0.06882035751720816386 0.00002565058165297762 0.00002619521068457549 0.00002680258838093157
1520530318.350774 0.00000000000000000000 0.00000000000000000000 0.00000000000000000000 0.00000000000000000000 0.00000000000000000000 0.00000000000000000000 -1.22559340019405027533  0.07794135870674563649  0.04476045017359780304 -0.00479060991720141761 -0.00115744464202414098  0.00224102547669802286 2.15519071900466796521 1.94940753923998877362 0.06815851428854058369 0.00002661294279426085 0.00002672714790606940 0.00002703620419049331
1520530318.500778 0.00000000000000000000 0.00000000000000000000 0.00000000000000000000 0.00000000000000000000 0.00000000000000000000 0.00000000000000000000 -1.21731596178252132745  0.09767893710625190351  0.04340581637374208573 -0.00470558582295523171 -0.00104743064860954326  0.00219490207811538513 2.04862642560145857829 1.86217878025470673364 0.06659774508317582720 0.00002656928796992193 0.00002645657885747205 0.00002700487503836152
1520530318.600567 0.00000000000000000000 0.00000000000000000000 0.00000000000000000000 0.00000000000000000000 0.00000000000000000000 0.00000000000000000000 -1.18365690415398394641  0.11717978590188790622  0.03813313486183169537 -0.00460755269390510872 -0.00099879759185280358  0.00227882444807444911 1.94546972135760443123 1.82320597900183312134 0.06470697484274942624 0.00002604069565221664 0.00002596884081048799 0.00002655066923340524
1520530318.700570 0.00000000000000000000 0.00000000000000000000 0.00000000000000000000 0.00000000000000000000 0.00000000000000000000 0.00000000000000000000 -1.06653430044378305652  0.15169434649721622033  0.02035772669702614820 -0.00448842514837046336 -0.00097422433078316257  0.00225359261082630057 1.83349563667962889291 1.78504461384114287981 0.06235439548632847051 0.00002585758832651123 0.00002595649590029203 0.00002647735319771151
1520530318.800573 0.00000000000000000000 0.00000000000000000000 0.00000000000000000000 0.00000000000000000000 0.00000000000000000000 0.00000000000000000000 -0.93377507271074300377  0.20628947386157087118  0.00491784436166222902 -0.00457891954042519058 -0.00091458842180546017  0.00213392639748243972 1.71852042084817124845 1.73174184466444081032 0.04672532743582694797 0.00002562913338604840 0.00002577644334632225 0.00002640223005400509
1520530318.950577 0.00000000000000000000 0.00000000000000000000 0.00000000000000000000 0.00000000000000000000 0.00000000000000000000 0.00000000000000000000 -0.78121816032190305457  0.26127907996336746654 -0.01651720806922897175 -0.00440694527486413471 -0.00087796564867984820  0.00212785240177690250 1.52698688226476586571 1.66841750598410287765 0.04367344044828384841 0.00002571830618846794 0.00002570236371983699 0.00002655876223497384
1520530319.049958 0.00000000000000000000 0.00000000000000000000 0.00000000000000000000 0.00000000000000000000 0.00000000000000000000 0.00000000000000000000 -0.68580798330325476453  0.29421102614304878164 -0.03079606315134533062 -0.00439614572333016547 -0.00087339505071448362  0.00215195222248208001 1.41774384179856394184 1.59459308892016227155 0.04224097462438301115 0.00002546600438263925 0.00002549316203968305 0.00002649407387251697
1520530319.149961 0.00000000000000000000 0.00000000000000000000 0.00000000000000000000 0.00000000000000000000 0.00000000000000000000 0.00000000000000000000 -0.60745644303646395556  0.33500785870473248629 -0.04197617594192269708 -0.00432523495954119461 -0.00092094268868815935  0.00212343311249298464 1.32551111106087549096 1.52313920950075321059 0.04093597421271595593 0.00002544620279631922 0.00002534750968331355 0.00002661100788663570
1520530319.249964 0.00000000000000000000 0.00000000000000000000 0.00000000000000000000 0.00000000000000000000 0.00000000000000000000 0.00000000000000000000 -0.55222737842398339492  0.34938300874951166985 -0.05109064481282923897 -0.00431918825716741134 -0.00093347376654297340  0.00202948394879569555 1.24114571505326121148 1.47250226464436373419 0.03962359100863673683 0.00002517601474388028 0.00002455406228992781 0.00002629428280851973
1520530319.349967 0.00000000000000000000 0.00000000000000000000 0.00000000000000000000 0.00000000000000000000 0.00000000000000000000 0.00000000000000000000 -0.52464820773343101568  0.35053616031553763710 -0.05525379626456622395 -0.00420609456060715321 -0.00080298286221390047  0.00196315032180066802 1.18912741914546393751 1.40478208798295312043 0.03892390124812501045 0.00002539011587180883 0.00002456703009470619 0.00002652685504305691
1520530319.499835 0.00000000000000000000 0.00000000000000000000 0.00000000000000000000 0.00000000000000000000 0.00000000000000000000 0.00000000000000000000 -0.50341445779185822751  0.35525924059198438210 -0.05851024130129571510 -0.00423621053075455903 -0.00078256018632547834  0.00202773923003115707 1.12537815890844639100 1.33750520370887215904 0.03812572515474598606 0.00002555605359106677 0.00002481614749249142 0.00002684381506625721
1520530319.599838 0.00000000000000000000 0.00000000000000000000 0.00000000000000000000 0.00000000000000000000 0.00000000000000000000 0.00000000000000000000 -0.46131309358312116986  0.36121444202841579418 -0.06464938591415655966 -0.00422562423436191343 -0.00080167088139696560  0.00202737455499564598 1.09476010349334096361 1.30758865555514769419 0.03768578007218075648 0.00002581063906081194 0.00002487531660261777 0.00002684471544219775
1520530319.699841 0.00000000000000000000 0.00000000000000000000 0.00000000000000000000 0.00000000000000000000 0.00000000000000000000 0.00000000000000000000 -0.43227633415599636679  0.37700243238543756918 -0.06828648885995686202 -0.00413918503022538478 -0.00077151538074881904  0.00207783041379835595 1.06910081222931663270 1.28587961335437506172 0.03732600465109737337 0.00002583586063751912 0.00002465015281023257 0.00002678507197169116
1520530319.800341 0.00000000000000000000 0.00000000000000000000 0.00000000000000000000 0.00000000000000000000 0.00000000000000000000 0.00000000000000000000 -0.42644903016207630353  0.38048160451953505490 -0.06838455007648493178 -0.00405607472085104444 -0.00073506092028700518  0.00207004342766270097 1.05354454350618920166 1.28146069682979346638 0.03714297013850412221 0.00002633323615851595 0.00002592041427600987 0.00002757571193845939
1520530319.900344 0.00000000000000000000 0.00000000000000000000 0.00000000000000000000 0.00000000000000000000 0.00000000000000000000 0.00000000000000000000 -0.40227100399385695706  0.38734073050075135125 -0.07104327119863713957 -0.00401540805980594301 -0.00070851714419193452  0.00205795596355411343 1.04562578065074607281 1.26292651202566585944 0.03688466618932471908 0.00002616837553704477 0.00002589717927821243 0.00002752724392636687
1520530320.000347 0.00000000000000000000 0.00000000000000000000 0.00000000000000000000 0.00000000000000000000 0.00000000000000000000 0.00000000000000000000 -0.39676709084381317494  0.39329066051532574066 -0.07154495160136321863 -0.00400734210684777509 -0.00071852831071581762  0.00207476080276902371 1.04280545613366726343 1.26341531235079562734 0.03656377732620982868 0.00002607954200451078 0.00002576765563468122 0.00002772526626783502
1520530320.050349 0.00000000000000000000 0.00000000000000000000 0.00000000000000000000 0.00000000000000000000 0.00000000000000000000 0.00000000000000000000 -0.39991063772646501251  0.39501072946835880106 -0.07102354639881540421 -0.00394737414209034906 -0.00079253978219883184  0.00204002464702767372 1.04043265611718549479 1.26198923158830411673 0.03636033071933922334 0.00002596870606595483 0.00002554743081571356 0.00002775697217015145
1520530320.150352 0.00000000000000000000 0.00000000000000000000 0.00000000000000000000 0.00000000000000000000 0.00000000000000000000 0.00000000000000000000 -0.39898763187133173824  0.39526408095954185251 -0.07110768797634121896 -0.00385479663950799882 -0.00079583170434604903  0.00204235490013943621 1.03701318150556964781 1.25979132107640423577 0.03593821611691531970 0.00002585187109842981 0.00002541507420833094 0.00002776276359887105
1520530320.200401 0.00000000000000000000 0.00000000000000000000 0.00000000000000000000 0.00000000000000000000 0.00000000000000000000 0.00000000000000000000 -0.41141661040639787572  0.39093832336643463687 -0.06907570342117123896 -0.00376509071734968401 -0.00078322067389553426  0.00206891142644738922 1.02965297631233143605 1.25866563392929076137 0.03562142855177029971 0.00002568105500859557 0.00002524086800179936 0.00002782555070931677
1520530320.300404 0.00000000000000000000 0.00000000000000000000 0.00000000000000000000 0.00000000000000000000 0.00000000000000000000 0.00000000000000000000 -0.42966167525388732074  0.38184126347601676787 -0.06607211718811301093 -0.00368690878037756901 -0.00080860438774588118  0.00203695094878970917 1.01532730619569999675 1.25247611559047511420 0.03509740129805147962 0.00002564204383901656 0.00002519878257196482 0.00002797258941167494
1520530320.400407 0.00000000000000000000 0.00000000000000000000 0.00000000000000000000 0.00000000000000000000 0.00000000000000000000 0.00000000000000000000 -0.46057643971173883868  0.35785792867560028974 -0.06038983373810395683 -0.00357672910520496828 -0.00063221839474972611  0.00204226048747962498 0.99494156148850310117 1.24341022276214241415 0.03444844732805178722 0.00002552982231146703 0.00002506440866076961 0.00002796259054907473
1520530320.450408 0.00000000000000000000 0.00000000000000000000 0.00000000000000000000 0.00000000000000000000 0.00000000000000000000 0.00000000000000000000 -0.48460127873847169688  0.35222470234154296120 -0.05725925956687782925 -0.00349116368985394505 -0.00062822187764869589  0.00196999327945284819 0.98774934095252231447 1.23686345920462903436 0.03426016187723614215 0.00002558789897489370 0.00002510815475030669 0.00002809313754502530
1520530320.550412 0.00000000000000000000 0.00000000000000000000 0.00000000000000000000 0.00000000000000000000 0.00000000000000000000 0.00000000000000000000 -0.53257748119084036276  0.34430579774804248583 -0.05135073205756721798 -0.00336267928087271651 -0.00051654489992195550  0.00191879010654894639 0.96261879174315112540 1.21268099233893766886 0.03357048035188327229 0.00002548154027594477 0.00002504261941377538 0.00002820933602208458
1520530320.599869 0.00000000000000000000 0.00000000000000000000 0.00000000000000000000 0.00000000000000000000 0.00000000000000000000 0.00000000000000000000 -0.54393326522828999714  0.35039003023711640106 -0.04984071239125752173 -0.00336941856511124762 -0.00053629986263786789  0.00192354395415301506 0.95144175185083812440 1.19696186835916096314 0.03337899580354104084 0.00002538348131681309 0.00002484694648076933 0.00002819859344926534
1520530320.699873 0.00000000000000000000 0.00000000000000000000 0.00000000000000000000 0.00000000000000000000 0.00000000000000000000 0.00000000000000000000 -0.56099004419401621302  0.31660207710850196694 -0.04733536400957906454 -0.00333517295788876740 -0.00043036910165640004  0.00196413033119329514 0.92082345655916408855 1.15887629106079348418 0.03257140706752886111 0.00002529158794418216 0.00002487824068262410 0.00002834492465276808
1520530320.799876 0.00000000000000000000 0.00000000000000000000 0.00000000000000000000 0.00000000000000000000 0.00000000000000000000 0.00000000000000000000 -0.57129560485017616411  0.31004886477643522902 -0.04746819059584088396 -0.00329850342584830794 -0.00043960199040127837  0.00192086158041954668 0.88861184455202713028 1.11297941361675900573 0.03173426030047610258 0.00002525602655266766 0.00002488847542763961 0.00002850635638934891
1520530320.899879 0.00000000000000000000 0.00000000000000000000 0.00000000000000000000 0.00000000000000000000 0.00000000000000000000 0.00000000000000000000 -0.61245073205602551525  0.29587608094908124379 -0.04285926584616721324 -0.00318532366844398061 -0.00044013208373850493  0.00191049018126589524 0.85880852402764751297 1.07131459349906532630 0.03108322261206927783 0.00002511336575889811 0.00002466721130638295 0.00002855380223609843
1520530321.049740 0.00000000000000000000 0.00000000000000000000 0.00000000000000000000 0.00000000000000000000 0.00000000000000000000 0.00000000000000000000 -0.64886381248955038448  0.28501876649555446530 -0.03969577421292806718 -0.00307014219281250868 -0.00034852954469383722  0.00186522550288372455 0.81646861463100373069 1.01878166968163585970 0.03025347718517567425 0.00002480300459809977 0.00002452076547875913 0.00002855491284110369
1520530321.199745 0.00000000000000000000 0.00000000000000000000 0.00000000000000000000 0.00000000000000000000 0.00000000000000000000 0.00000000000000000000 -0.70773825568254744578  0.26542181386751784178 -0.03313624234858943834 -0.00293325047144145194 -0.00018674639349158920  0.00187666903633045001 0.78455899596702749488 0.98817254808171128833 0.02991554692098335327 0.00002460570737756000 0.00002429121026884374 0.00002866828707339449
1520530321.299749 0.00000000000000000000 0.00000000000000000000 0.00000000000000000000 0.00000000000000000000 0.00000000000000000000 0.00000000000000000000 -0.72946360125684572839  0.28768707459786702074 -0.03455809667176647920 -0.00286958630528112973  0.00009115325500413642  0.00204599078383925969 0.76375438077359747435 0.96682886072262652633 0.02965206864640575202 0.00002438619252565323 0.00002401207058019713 0.00002845238445410350
1520530321.499857 0.00000000000000000000 0.00000000000000000000 0.00000000000000000000 0.00000000000000000000 0.00000000000000000000 0.00000000000000000000 -0.78221917294720710867  0.31477589228828622980 -0.03394073973149255852 -0.00273045004325093901  0.00013535588913293981  0.00221296594387947621 0.73684403665467124167 0.92362360691945910585 0.02906217586746593848 0.00002425883186573855 0.00002380905941946652 0.00002834812592447696
1520530321.699863 0.00000000000000000000 0.00000000000000000000 0.00000000000000000000 0.00000000000000000000 0.00000000000000000000 0.00000000000000000000 -0.80244453844520557961  0.32616422692779101222 -0.03580191139931904881 -0.00254437086820923043  0.00025371421310579418  0.00209623729070014357 0.71618419839485214506 0.88342983322537471658 0.02826574952106823690 0.00002402503549167550 0.00002336310036998658 0.00002778851033369420
1520530321.850152 0.00000000000000000000 0.00000000000000000000 0.00000000000000000000 0.00000000000000000000 0.00000000000000000000 0.00000000000000000000 -0.82896027113002246356  0.31952374492667862116 -0.03112625606054304425 -0.00233667367694307369 -0.00005922752181179631  0.00229972576600801556 0.69742928926116110055 0.85164851148415010584 0.02766955942534978646 0.00002376634052554308 0.00002292715752549172 0.00002750953963905957
1520530322.000157 0.00000000000000000000 0.00000000000000000000 0.00000000000000000000 0.00000000000000000000 0.00000000000000000000 0.00000000000000000000 -0.86961486394825815438  0.29278805241564626050 -0.02255133342760301529 -0.00235029047806204795 -0.00019761054365210844  0.00215781912187287773 0.67755114325306342593 0.83176988860111766844 0.02698451265857244527 0.00002355741696406707 0.00002265517610906419 0.00002716920401157743
1520530322.150162 0.00000000000000000000 0.00000000000000000000 0.00000000000000000000 0.00000000000000000000 0.00000000000000000000 0.00000000000000000000 -0.89907331802875600779  0.26143728001508359515 -0.01510656822266849206 -0.00238691793300197571 -0.00038022809473433863  0.00197042015972967053 0.65963313461461259291 0.81935567345917104110 0.02646263839976255305 0.00002350034853509710 0.00002251252093952361 0.00002716947621788285
1520530322.300208 0.00000000000000000000 0.00000000000000000000 0.00000000000000000000 0.00000000000000000000 0.00000000000000000000 0.00000000000000000000 -0.88886585379682092611  0.26536394036656441031 -0.01701735560537182695 -0.00233903508528735937 -0.00030035649151392336  0.00187019465429656456 0.63930208841102487138 0.80511145985976917405 0.02618232902847249591 0.00002296847272529409 0.00002157136819062857 0.00002649215860426037
1520530322.500215 0.00000000000000000000 0.00000000000000000000 0.00000000000000000000 0.00000000000000000000 0.00000000000000000000 0.00000000000000000000 -0.92445950929996545398  0.25830646521455957743 -0.01504930819546648063 -0.00238392740036532432  0.00001189055025871086  0.00184833128806855310 0.61909503021125189548 0.79481230624719645395 0.02598172756677883527 0.00002261756157487920 0.00002121577493429326 0.00002652017021090777
1520530322.650023 0.00000000000000000000 0.00000000000000000000 0.00000000000000000000 0.00000000000000000000 0.00000000000000000000 0.00000000000000000000 -0.96026540678091365510  0.23632471667194679399 -0.01293476061012224093 -0.00236216151603021746 -0.00004397067530320317  0.00188205312873998792 0.60238458530325023066 0.78589515623648475984 0.02592532543780339677 0.00002199707183999093 0.00002086916115202792 0.00002551266614337477
1520530322.750027 0.00000000000000000000 0.00000000000000000000 0.00000000000000000000 0.00000000000000000000 0.00000000000000000000 0.00000000000000000000 -0.97383973163658399397  0.21833474637633920601 -0.01333901725578295547 -0.00228071727528065702 -0.00006220453790450936  0.00222484848010762529 0.59574715655465459996 0.78384045133135837879 0.02593645665238297413 0.00002193928146874732 0.00002102836102452100 0.00002547272576105924
1520530322.900065 0.00000000000000000000 0.00000000000000000000 0.00000000000000000000 0.00000000000000000000 0.00000000000000000000 0.00000000000000000000 -0.98983159875698145669  0.19419383232181719467 -0.01166247352497330747 -0.00218285525863838982 -0.00017458833541896733  0.00231607259046879860 0.58619360784789031893 0.77294965136363991132 0.02597424826159374853 0.00002187413715327934 0.00002075709873555364 0.00002516999024697933
1520530323.050036 0.00000000000000000000 0.00000000000000000000 0.00000000000000000000 0.00000000000000000000 0.00000000000000000000 0.00000000000000000000 -0.99878766393354911912  0.18755279778779618272 -0.01249998083792417530 -0.00180360921779163419 -0.00009975120811534389  0.00227922146071372726 0.58271589947711877056 0.76917855172990146073 0.02609164143733087859 0.00002206077382034721 0.00002078786868570010 0.00002554783471983876
1520530323.200077 0.00000000000000000000 0.00000000000000000000 0.00000000000000000000 0.00000000000000000000 0.00000000000000000000 0.00000000000000000000 -1.00391383761012376041  0.17692234203177634178 -0.01215182295747289226 -0.00161399326702982185 -0.00008290019566948028  0.00235618779736435600 0.57960998564431498448 0.76782347975757558878 0.02618056389952697766 0.00002209589963249289 0.00002088707163417678 0.00002571103248542642
1520530323.300080 0.00000000000000000000 0.00000000000000000000 0.00000000000000000000 0.00000000000000000000 0.00000000000000000000 0.00000000000000000000 -1.00174455155937502937  0.18028372411914123097 -0.01234422562704808220 -0.00164728796940504592 -0.00010267070606421807  0.00229541878810331614 0.57627323964876064899 0.76209507285843658408 0.02607372158518710473 0.00002200482855746454 0.00002076774985270165 0.00002498446798260531
1520530323.450085 0.00000000000000000000 0.00000000000000000000 0.00000000000000000000 0.00000000000000000000 0.00000000000000000000 0.00000000000000000000 -1.00569979807561793450  0.17096644347882561377 -0.00888219262330303128 -0.00161580882082492695 -0.00006766272562426603  0.00231120306050090502 0.57242762860281981574 0.75092445080707082017 0.02567398214278826876 0.00002179762898384272 0.00002076353392699735 0.00002432492183569773
1520530323.550346 0.00000000000000000000 0.00000000000000000000 0.00000000000000000000 0.00000000000000000000 0.00000000000000000000 0.00000000000000000000 -1.00895367344683961619  0.16160149630190873138 -0.00664559275060804585 -0.00156345792140699658 -0.00010607230442062941  0.00222432330745641780 0.57100352837317402965 0.74241607503916762223 0.02545307811349757990 0.00002172774004393100 0.00002074541869836314 0.00002446994497513699
1520530323.650349 0.00000000000000000000 0.00000000000000000000 0.00000000000000000000 0.00000000000000000000 0.00000000000000000000 0.00000000000000000000 -1.01360806088514632251  0.14627607889574276157 -0.00417351958791159321 -0.00158222630622164998 -0.00009802825868725466  0.00225734468179488324 0.56976266205180681190 0.73643439552034628548 0.02379396306355468713 0.00002160492311589918 0.00002051947083744120 0.00002438483616107414
1520530323.800354 0.00000000000000000000 0.00000000000000000000 0.00000000000000000000 0.00000000000000000000 0.00000000000000000000 0.00000000000000000000 -1.01410062389290245299  0.13856856169561515557 -0.00442919176912724005 -0.00150205222605487580 -0.00006534141084306004  0.00235090149582720337 0.56748013396385377227 0.72962418092805036984 0.02356743264212967509 0.00002145368750947271 0.00002023123246815135 0.00002383787823587054
1520530323.950154 0.00000000000000000000 0.00000000000000000000 0.00000000000000000000 0.00000000000000000000 0.00000000000000000000 0.00000000000000000000 -1.00891525775359403028  0.13434184179057015451 -0.00491171629650186993 -0.00148791109740910874 -0.00000724545108613599  0.00230329178820015603 0.56767408479019809686 0.72802207327373191781 0.02352750378389582148 0.00002131112185686450 0.00002016650753328955 0.00002443876398471947
1520530324.100159 0.00000000000000000000 0.00000000000000000000 0.00000000000000000000 0.00000000000000000000 0.00000000000000000000 0.00000000000000000000 -1.00852982730020657165  0.13058357543038665027 -0.00494588813542072743 -0.00137028505975550106 -0.00015746735976181897  0.00243666853596193750 0.56637575445397769780 0.72157419595786120858 0.02353272433452501672 0.00002134645378391701 0.00001982846644025320 0.00002436531592452257
1520530324.200162 0.00000000000000000000 0.00000000000000000000 0.00000000000000000000 0.00000000000000000000 0.00000000000000000000 0.00000000000000000000 -1.00060843142024968877  0.12854965049532676713 -0.00542734955911957414 -0.00129532057264415256 -0.00005120902595040767  0.00253163539055693831 0.56245060744179331547 0.71475873732762584822 0.02351553492576059431 0.00002090366202787802 0.00001961285810073573 0.00002397001855252507
1520530324.299908 0.00000000000000000000 0.00000000000000000000 0.00000000000000000000 0.00000000000000000000 0.00000000000000000000 0.00000000000000000000 -1.00290781043613463908  0.11803106119845258037 -0.00610717744477780409 -0.00146086945485172882 -0.00001257373406471622  0.00253021045124915281 0.55967056994472208498 0.70950097002489753706 0.02352692956223802895 0.00002085913200755915 0.00001962414792114826 0.00002443939482295953
1520530324.399911 0.00000000000000000000 0.00000000000000000000 0.00000000000000000000 0.00000000000000000000 0.00000000000000000000 0.00000000000000000000 -1.00133371413347505019  0.11595709800533744727 -0.00796293982105931997 -0.00135778376867096802 -0.00006531160867828873  0.00247710230503784450 0.55714788904375101009 0.70555201284439228449 0.02356485475264844670 0.00002080019975589917 0.00001979245601230058 0.00002482942960097289
1520530324.499994 0.00000000000000000000 0.00000000000000000000 0.00000000000000000000 0.00000000000000000000 0.00000000000000000000 0.00000000000000000000 -0.99100649461834633414  0.11457069768581454317 -0.00876632414418266649 -0.00136800608551976635 -0.00013500722839734577  0.00245622372495406726 0.55852501562523682033 0.70421220288994190728 0.02370145431275071102 0.00002106329298370539 0.00002004815540151187 0.00002562177647912482
1520530324.599917 0.00000000000000000000 0.00000000000000000000 0.00000000000000000000 0.00000000000000000000 0.00000000000000000000 0.00000000000000000000 -0.97414182112674696512  0.12794527061789648381 -0.01061955133315303258 -0.00129956618775942025 -0.00021908951524539223  0.00243537027856086542 0.55442584355935853324 0.69766789015525276785 0.02370486181169856321 0.00002129862292508687 0.00002001225000739618 0.00002571072360125473
1520530324.700018 0.00000000000000000000 0.00000000000000000000 0.00000000000000000000 0.00000000000000000000 0.00000000000000000000 0.00000000000000000000 -0.95732098029047951737  0.13799977101787708200 -0.01132373578537230335 -0.00111643111689084290 -0.00031401542421605720  0.00236469762980917510 0.54870755552071559524 0.68996302285659805165 0.02368736892041650027 0.00002107112499971647 0.00001957404468198439 0.00002541138929545569
1520530324.800021 0.00000000000000000000 0.00000000000000000000 0.00000000000000000000 0.00000000000000000000 0.00000000000000000000 0.00000000000000000000 -0.95048798343523610566  0.15281070459771967096 -0.01257637367051899976 -0.00107850401527044082 -0.00017144671706084035  0.00225731502239479107 0.54272742692318021174 0.68194653680631345249 0.02358397931196642636 0.00002080750025363993 0.00001936068461429679 0.00002518255695893412
1520530324.950026 0.00000000000000000000 0.00000000000000000000 0.00000000000000000000 0.00000000000000000000 0.00000000000000000000 0.00000000000000000000 -0.94179686144270502446  0.15952245295329109398 -0.01302320826815786189 -0.00099731978107560674 -0.00014231459562110874  0.00243900234586249230 0.53226486415826690379 0.67241902762316607678 0.02332518431249562540 0.00002060320698205061 0.00001917166990407614 0.00002474646670530656
1520530325.100816 0.00000000000000000000 0.00000000000000000000 0.00000000000000000000 0.00000000000000000000 0.00000000000000000000 0.00000000000000000000 -0.91782382624446567920  0.16474601698840174446 -0.01513047359668705412 -0.00081789327362700678 -0.00001749044119561171  0.00260094858016045186 0.51928839904224999291 0.65818447914351974060 0.02288840329233562607 0.00002039051083106712 0.00001904968906961794 0.00002459045518683139
1520530325.300822 0.00000000000000000000 0.00000000000000000000 0.00000000000000000000 0.00000000000000000000 0.00000000000000000000 0.00000000000000000000 -0.85511363861543232545  0.20389480158053174819 -0.02593230684734683725 -0.00070067024787029506  0.00001314764990684685  0.00286193828884747595 0.49712093487277358994 0.63686801341294407841 0.02198260626257580314 0.00002016250170397198 0.00001894953198121699 0.00002467853419643056
1520530325.500828 0.00000000000000000000 0.00000000000000000000 0.00000000000000000000 0.00000000000000000000 0.00000000000000000000 0.00000000000000000000 -0.85933507578217460665  0.20095205841098442989 -0.02232815114828452102 -0.00049755170891524773 -0.00004271916378682099  0.00297047315616142749 0.48055895594906739010 0.61998821274214632737 0.02115221261024525720 0.00002029988119472614 0.00001895394455342031 0.00002524905738461616
1520530325.750919 0.00000000000000000000 0.00000000000000000000 0.00000000000000000000 0.00000000000000000000 0.00000000000000000000 0.00000000000000000000 -0.85027385084203754850  0.19792702526966765575 -0.02373954573325652920 -0.00051763951376371665 -0.00001676759918042888  0.00304603844035591757 0.46426441004571322724 0.60027586553249678847 0.02019232862704784665 0.00002018011927535791 0.00001879356179956766 0.00002505339726081830
1520530326.000543 0.00000000000000000000 0.00000000000000000000 0.00000000000000000000 0.00000000000000000000 0.00000000000000000000 0.00000000000000000000 -0.84021739629378389136  0.19834494401186292256 -0.02918822731991663894 -0.00038981547249920752 -0.00015882068614458527  0.00290936499381916954 0.45331200661044951383 0.59424170497569839267 0.01981055256647127477 0.00002024527447853341 0.00001866050709669139 0.00002476862598110809
1520530326.150548 0.00000000000000000000 0.00000000000000000000 0.00000000000000000000 0.00000000000000000000 0.00000000000000000000 0.00000000000000000000 -0.80650982657139558274  0.22225699041880009332 -0.03808880282200637762 -0.00031521175419637622 -0.00007455303199580953  0.00288413447886071454 0.44598921639373989567 0.58837900422422662050 0.01955620066591478093 0.00001980886462231026 0.00001839911228348100 0.00002419505219215466
1520530326.300552 0.00000000000000000000 0.00000000000000000000 0.00000000000000000000 0.00000000000000000000 0.00000000000000000000 0.00000000000000000000 -0.81489799931266537758  0.22247429021818504458 -0.03936513864817041408 -0.00031632524092303245  0.00003911321311069888  0.00285628807315927314 0.44129951811034784370 0.58414538799163107097 0.01951797889232277303 0.00001962739623598539 0.00001808355792974920 0.00002379773321117387
1520530326.450207 0.00000000000000000000 0.00000000000000000000 0.00000000000000000000 0.00000000000000000000 0.00000000000000000000 0.00000000000000000000 -0.80975958389053925846  0.22189837644882981493 -0.03975915697118832803 -0.00035573254392820113  0.00012877106585929663  0.00284717586034852329 0.43595235232486395649 0.57972057936605814188 0.01942660571285868831 0.00001949739331242182 0.00001793512090901884 0.00002340770357370541
1520530326.600213 0.00000000000000000000 0.00000000000000000000 0.00000000000000000000 0.00000000000000000000 0.00000000000000000000 0.00000000000000000000 -0.77778564116058146460  0.21160855560791425045 -0.04381955337930771438 -0.00024908088342353636  0.00007737989297941306  0.00299191800069395801 0.43078165346643942923 0.57499601958765778065 0.01935512112721280917 0.00001948572766798668 0.00001782823492918559 0.00002330140016638288
1520530326.750427 0.00000000000000000000 0.00000000000000000000 0.00000000000000000000 0.00000000000000000000 0.00000000000000000000 0.00000000000000000000 -0.79240680766627347165  0.21219204920884748855 -0.04131176848069535723 -0.00025010765197892339  0.00021698727133741836  0.00292381301510707048 0.42526724190748282917 0.56939821886822716834 0.01925879083575087955 0.00001920205161414976 0.00001783717929770100 0.00002336469092467897
1520530326.950432 0.00000000000000000000 0.00000000000000000000 0.00000000000000000000 0.00000000000000000000 0.00000000000000000000 0.00000000000000000000 -0.78830982517072967219  0.21122621844537881053 -0.03666270045207187245 -0.00020161691458009498  0.00049146821016552171  0.00305546945943669301 0.41673441421466878021 0.55740359612738799022 0.01908894069716112959 0.00001891530490861785 0.00001783866341725736 0.00002361289862008614
1520530327.100437 0.00000000000000000000 0.00000000000000000000 0.00000000000000000000 0.00000000000000000000 0.00000000000000000000 0.00000000000000000000 -0.77961453633886534931  0.20680259096119754658 -0.03557247721992751882 -0.00014354651074292125  0.00058421494425823237  0.00324596196797523415 0.41163443771722657560 0.54928822546264588489 0.01895062991001717975 0.00001883364974779862 0.00001757222053264944 0.00002271848645250921
1520530327.250435 0.00000000000000000000 0.00000000000000000000 0.00000000000000000000 0.00000000000000000000 0.00000000000000000000 0.00000000000000000000 -0.77740120037091609007  0.20563461797957141575 -0.03434502587495155690 0.00000576245839520421 0.00052228528690940231 0.00317513211773031313 0.40696811719089331927 0.54425038817021953452 0.01884808312649013939 0.00001892843512266401 0.00001740484176699209 0.00002251478514412940
1520530327.400439 0.00000000000000000000 0.00000000000000000000 0.00000000000000000000 0.00000000000000000000 0.00000000000000000000 0.00000000000000000000 -0.76553100264433804334  0.21106932163174479955 -0.03656547545155074824 -0.00005355955963799012  0.00048049168528265570  0.00328204739076901368 0.40224829015970181567 0.54208876784777515478 0.01875523456241359049 0.00001867829840044448 0.00001744771247152609 0.00002255512356129710
1520530327.500442 0.00000000000000000000 0.00000000000000000000 0.00000000000000000000 0.00000000000000000000 0.00000000000000000000 0.00000000000000000000 -0.76118983179505894654  0.20596244020599413505 -0.03793179400877548513 0.00005865398847545550 0.00067480356433927190 0.00348346585749078307 0.39890964313351812143 0.54036336647710969672 0.01868932060192586911 0.00001852866567581972 0.00001739512948879840 0.00002259781399608069
1520530327.600091 0.00000000000000000000 0.00000000000000000000 0.00000000000000000000 0.00000000000000000000 0.00000000000000000000 0.00000000000000000000 -0.76490870541245559178  0.20172147458593830960 -0.03829754301360061008 0.00019042071337353324 0.00074465800576439128 0.00371539734852875669 0.39541286402256670129 0.53837998326044589348 0.01863947927794874088 0.00001834523031821385 0.00001723450504485002 0.00002240928243470471
1520530327.700094 0.00000000000000000000 0.00000000000000000000 0.00000000000000000000 0.00000000000000000000 0.00000000000000000000 0.00000000000000000000 -0.76184398332848435320  0.19697865887930601780 -0.03945927094200476354 0.00019932421926545355 0.00079565734150821436 0.00369822481358340763 0.39643922034178852298 0.54036337490111463477 0.01861089096263584403 0.00001862565922238712 0.00001739666949716947 0.00002281028565086023
1520530327.750096 0.00000000000000000000 0.00000000000000000000 0.00000000000000000000 0.00000000000000000000 0.00000000000000000000 0.00000000000000000000 -0.76053876291535738030  0.20015862925247168702 -0.04043921886768879481 0.00021891938942968618 0.00057651847710444757 0.00328585692966763300 0.39563080865518807094 0.53899715828614103152 0.01856275723235357999 0.00001877463482379852 0.00001784660448285069 0.00002337539671420392
1520530327.850099 0.00000000000000000000 0.00000000000000000000 0.00000000000000000000 0.00000000000000000000 0.00000000000000000000 0.00000000000000000000 -0.75482687577331886164  0.19488835033418933085 -0.04109174161207145015 0.00020637080393798402 0.00056742810083142700 0.00329116089220322493 0.39446966707430619614 0.53785817203464192371 0.01844064800976975838 0.00001884414839655309 0.00001790878457672516 0.00002338217925411754
1520530327.950102 0.00000000000000000000 0.00000000000000000000 0.00000000000000000000 0.00000000000000000000 0.00000000000000000000 0.00000000000000000000 -0.74812549171251685465  0.19765837287514975706 -0.04195256840431674239 -0.00000316016345614408  0.00059188584040195853  0.00332776176799622417 0.39389417207582427816 0.53680947566903614021 0.01830274886969496251 0.00001882783419960543 0.00001810977699390420 0.00002371779819595073
1520530328.050282 0.00000000000000000000 0.00000000000000000000 0.00000000000000000000 0.00000000000000000000 0.00000000000000000000 0.00000000000000000000 -0.74912974180990576922  0.20060195959838192370 -0.04186041140842637620 -0.00004243755444990306  0.00069483120962001137  0.00332922116411810826 0.39213864738835024770 0.53298885484069136176 0.01810034025304762054 0.00001885741079772686 0.00001817187154967307 0.00002389088172202060
1520530328.150285 0.00000000000000000000 0.00000000000000000000 0.00000000000000000000 0.00000000000000000000 0.00000000000000000000 0.00000000000000000000 -0.74913770166031867781  0.20363722988262278335 -0.04191987460183254494 -0.00002368244102843976  0.00070085972317705184  0.00330026758584131769 0.38722810882292102441 0.52883449104837643162 0.01788405717670886810 0.00001879934745036921 0.00001817603569182074 0.00002398468907486553
1520530328.250288 0.00000000000000000000 0.00000000000000000000 0.00000000000000000000 0.00000000000000000000 0.00000000000000000000 0.00000000000000000000 -0.74655735554979141266  0.20941173289043521488 -0.04253504264497138393 -0.00012429226559578489  0.00066548619674049278  0.00345394794604624196 0.37897778104423307521 0.51838484264388373646 0.01761919917004892144 0.00001911937889304219 0.00001827121982455972 0.00002473328670462750
1520530328.350291 0.00000000000000000000 0.00000000000000000000 0.00000000000000000000 0.00000000000000000000 0.00000000000000000000 0.00000000000000000000 -0.74208199824368203945  0.21566712238632518295 -0.04328331125224253728 -0.00007889435526853342  0.00063050261586053966  0.00342608802556578418 0.36602277601849225741 0.50531429551253126409 0.01732692156696013022 0.00001887508487749490 0.00001822455712226290 0.00002464578558339335
1520530328.400337 0.00000000000000000000 0.00000000000000000000 0.00000000000000000000 0.00000000000000000000 0.00000000000000000000 0.00000000000000000000 -0.74191551735957805835  0.21994689579415047098 -0.04407832551461936949 -0.00007102430131961568  0.00052132231230942599  0.00347655710621946846 0.35854414745012580523 0.49743669398911910529 0.01717666755987534710 0.00001869042417603264 0.00001819478197087985 0.00002447548502148876
1520530328.500340 0.00000000000000000000 0.00000000000000000000 0.00000000000000000000 0.00000000000000000000 0.00000000000000000000 0.00000000000000000000 -0.74448234271274882357  0.23076259302581611510 -0.04458355791233174770 -0.00011234158012890202  0.00051801292390664779  0.00352247860762866169 0.34370999361731435773 0.48259574842789293436 0.01690235111076159730 0.00001861128445864734 0.00001821861629862315 0.00002444212366693909
1520530328.550342 0.00000000000000000000 0.00000000000000000000 0.00000000000000000000 0.00000000000000000000 0.00000000000000000000 0.00000000000000000000 -0.74245305175208908821  0.23094922403519702048 -0.04420249619913985822 -0.00014188945990617870  0.00050092616968732957  0.00348870253631733233 0.33679524145526257284 0.47679774593687657136 0.01679991384745345775 0.00001849474831519066 0.00001808815001803040 0.00002411411436224572
1520530328.650346 0.00000000000000000000 0.00000000000000000000 0.00000000000000000000 0.00000000000000000000 0.00000000000000000000 0.00000000000000000000 -0.73517433379678143179  0.23120313823516361329 -0.04462315661731593858 -0.00017315696278773576  0.00047176265771848252  0.00342441653260081589 0.32510214394390857251 0.46740603166492988851 0.01660951472739691584 0.00001862467253472112 0.00001822021464590701 0.00002415636377204003
1520530328.700347 0.00000000000000000000 0.00000000000000000000 0.00000000000000000000 0.00000000000000000000 0.00000000000000000000 0.00000000000000000000 -0.72935976278428715780  0.22823046831204599205 -0.04463538541119438374 -0.00018212041308640926  0.00046717915127594118  0.00341043617506313432 0.32043382198651776394 0.46352020155551276748 0.01654200846076230719 0.00001851198547957445 0.00001814333068332965 0.00002383174351860787
1520530328.800086 0.00000000000000000000 0.00000000000000000000 0.00000000000000000000 0.00000000000000000000 0.00000000000000000000 0.00000000000000000000 -0.72590831145856637985  0.22482781379031543945 -0.04545517270495162687 -0.00017167395510086253  0.00049789487087141527  0.00337490955872524895 0.31413135681469617211 0.45711682491162558550 0.01641307127824265938 0.00001883887694065017 0.00001847275944126611 0.00002450691736089434
1520530329.000092 0.00000000000000000000 0.00000000000000000000 0.00000000000000000000 0.00000000000000000000 0.00000000000000000000 0.00000000000000000000 -0.71964571536682819808  0.22060030887869352956 -0.04554841010537875878 -0.00027767435637893439  0.00050376133540978960  0.00333218371180929625 0.30848435591877132467 0.44303947951976085928 0.01611663764697883472 0.00001872892481874245 0.00001858778411606174 0.00002458639865646603
1520530329.100095 0.00000000000000000000 0.00000000000000000000 0.00000000000000000000 0.00000000000000000000 0.00000000000000000000 0.00000000000000000000 -0.71659130716024710406  0.21824677321408256225 -0.04571060966008589493 -0.00031552098229890949  0.00051114310896451377  0.00339958722381160849 0.30736146620795812279 0.43688750714977930834 0.01596633710069968182 0.00001873194045250574 0.00001853738185943399 0.00002446452938907703
1520530329.200044 0.00000000000000000000 0.00000000000000000000 0.00000000000000000000 0.00000000000000000000 0.00000000000000000000 0.00000000000000000000 -0.71502872547167417583  0.21779878400084187740 -0.04590725517427109853 -0.00033774285105868450  0.00049395896395510158  0.00340400718906587116 0.30684219369765991514 0.43113126325134948358 0.01583040148337388694 0.00001867511029570876 0.00001842316865273718 0.00002407808638102741
1520530329.300047 0.00000000000000000000 0.00000000000000000000 0.00000000000000000000 0.00000000000000000000 0.00000000000000000000 0.00000000000000000000 -0.71113430815679412600  0.21190282727758691372 -0.04497943026702261315 -0.00034467487752578912  0.00045902309711114419  0.00344571234221773557 0.30645584917924384438 0.42663309199430876628 0.01572417926985340483 0.00001870552082756917 0.00001866322758290374 0.00002427343014787141
1520530329.400050 0.00000000000000000000 0.00000000000000000000 0.00000000000000000000 0.00000000000000000000 0.00000000000000000000 0.00000000000000000000 -0.71181763416627408247  0.21238209527021376100 -0.04475876798680414326 -0.00041854334744552153  0.00045360065303860851  0.00341944719373154377 0.30610199417176087167 0.42125856583828569235 0.01560468809703955718 0.00001881046338864835 0.00001874864560567973 0.00002457464944444869
1520530329.550055 0.00000000000000000000 0.00000000000000000000 0.00000000000000000000 0.00000000000000000000 0.00000000000000000000 0.00000000000000000000 -0.70770668685704352097  0.21093646906792481999 -0.04424944435873168908 -0.00041488137877285957  0.00049452009642963926  0.00337160979552955219 0.30453735497401390742 0.41288747995596197793 0.01542159945470106437 0.00001890729469212258 0.00001888551511495861 0.00002502292252810567
1520530329.650099 0.00000000000000000000 0.00000000000000000000 0.00000000000000000000 0.00000000000000000000 0.00000000000000000000 0.00000000000000000000 -0.70456878540312573023  0.21055764509415206276 -0.04382831940273218541 -0.00044633421081010760  0.00049529029727546586  0.00334020711918268194 0.30277781619284022119 0.40676980497155584837 0.01532665470451831900 0.00001904228080314984 0.00001894588734161162 0.00002515048323431187
1520530329.750102 0.00000000000000000000 0.00000000000000000000 0.00000000000000000000 0.00000000000000000000 0.00000000000000000000 0.00000000000000000000 -0.70351722792921733696  0.20824060808211392049 -0.04324232191228250671 -0.00043530914289974400  0.00048101130189907209  0.00329386933255470605 0.30078654471950999616 0.40137009512045129789 0.01524790677795477556 0.00001897611028837824 0.00001890512805138016 0.00002476853573190140
1520530329.850105 0.00000000000000000000 0.00000000000000000000 0.00000000000000000000 0.00000000000000000000 0.00000000000000000000 0.00000000000000000000 -0.69821235728155583988  0.20428746038728184953 -0.04294219363964376507 -0.00046737223704930333  0.00049006382952371198  0.00334659239461008139 0.29892667414574203288 0.39815748252254745676 0.01523982176568405671 0.00001895075686790877 0.00001887711415069990 0.00002476693731860943
1520530329.950109 0.00000000000000000000 0.00000000000000000000 0.00000000000000000000 0.00000000000000000000 0.00000000000000000000 0.00000000000000000000 -0.69612974895808177322  0.20562120798680180722 -0.04317346840987690976 -0.00048713999203623727  0.00044265250364788753  0.00339346985437632151 0.29591419713740352293 0.39595085018273523669 0.01526535226579349598 0.00001891391419642027 0.00001881186329946545 0.00002460841195410145
1520530330.000110 0.00000000000000000000 0.00000000000000000000 0.00000000000000000000 0.00000000000000000000 0.00000000000000000000 0.00000000000000000000 -0.69535694425897243143  0.20740267809712031877 -0.04329167997502223614 -0.00054361807188807183  0.00047889653792606001  0.00340431981919634471 0.29368178228092289839 0.39518269158356733595 0.01530213312717252673 0.00001868019596200897 0.00001872002567344800 0.00002406836306202121
1520530330.100162 0.00000000000000000000 0.00000000000000000000 0.00000000000000000000 0.00000000000000000000 0.00000000000000000000 0.00000000000000000000 -0.69530696064926145183  0.20685991517050786315 -0.04336399683621693091 -0.00056660117379919164  0.00049074231500343302  0.00344854567553287477 0.29002236958156785152 0.39464103066604822034 0.01540595950533874166 0.00001870514162996664 0.00001874571744152239 0.00002413276168757352
1520530330.150164 0.00000000000000000000 0.00000000000000000000 0.00000000000000000000 0.00000000000000000000 0.00000000000000000000 0.00000000000000000000 -0.69400567533321211311  0.20310892882260964121 -0.04315637905331639462 -0.00057198111576089701  0.00047378926095736890  0.00342223749666358771 0.28751945921197719080 0.39403383961587246098 0.01546194253995777403 0.00001853382701759602 0.00001870649286076498 0.00002356536798489960
1520530330.250167 0.00000000000000000000 0.00000000000000000000 0.00000000000000000000 0.00000000000000000000 0.00000000000000000000 0.00000000000000000000 -0.68862303234704003163  0.19559855427236286229 -0.04193631693538117655 -0.00059378033956868212  0.00045617935159065234  0.00344718825040393100 0.28312204157438697338 0.39270221078739231402 0.01558673704829487833 0.00001870824822795740 0.00001879522038564369 0.00002406631073750571
1520530330.350170 0.00000000000000000000 0.00000000000000000000 0.00000000000000000000 0.00000000000000000000 0.00000000000000000000 0.00000000000000000000 -0.68569675819215647472  0.19388051513552312377 -0.04097413324281086455 -0.00067861260211936076  0.00050559328429301354  0.00345942907627038452 0.27834601049475560242 0.38964637572910176821 0.01570315470429808902 0.00001887544532429296 0.00001893303018414678 0.00002452885286043747
1520530330.450787 0.00000000000000000000 0.00000000000000000000 0.00000000000000000000 0.00000000000000000000 0.00000000000000000000 0.00000000000000000000 -0.69146457652261683613  0.20070692651761226633 -0.04188097960238031797 -0.00072349123391576744  0.00051723810427924610  0.00337766258197528049 0.27354603478356520618 0.38541848717574533900 0.01579805198734209049 0.00001901488163042890 0.00001906188040602402 0.00002521697551834664
1520530330.550790 0.00000000000000000000 0.00000000000000000000 0.00000000000000000000 0.00000000000000000000 0.00000000000000000000 0.00000000000000000000 -0.69822866137011541099  0.19975364044543125752 -0.04146338063052656953 -0.00069208764106119141  0.00050854343296469608  0.00335530873969121018 0.26844529620299600881 0.38099968552842933267 0.01588079857746055659 0.00001889069810487864 0.00001898742776501850 0.00002492510400013858
1520530330.650793 0.00000000000000000000 0.00000000000000000000 0.00000000000000000000 0.00000000000000000000 0.00000000000000000000 0.00000000000000000000 -0.70586752347148407072  0.19811919097769289944 -0.04093934296552564217 -0.00065390314768174786  0.00048032205535169853  0.00332385603479053767 0.26342882937036299351 0.37496645897915825696 0.01589993325642816493 0.00001862495314652975 0.00001890608629704039 0.00002450578485900353
1520530330.700795 0.00000000000000000000 0.00000000000000000000 0.00000000000000000000 0.00000000000000000000 0.00000000000000000000 0.00000000000000000000 -0.70769289699416781936  0.19497168326927438731 -0.04019163604751933155 -0.00059465277785527497  0.00040617918445566385  0.00324724195210530009 0.26061691698077549262 0.37160971177354396033 0.01589573140406565568 0.00001848340732115096 0.00001880877815546771 0.00002387013807680075
1520530330.800798 0.00000000000000000000 0.00000000000000000000 0.00000000000000000000 0.00000000000000000000 0.00000000000000000000 0.00000000000000000000 -0.71577553849043062950  0.19692147951305738474 -0.03958568912407259971 -0.00061437264863208833  0.00035922867186155848  0.00329699067764348220 0.25706550967290453524 0.36964118861197448052 0.01589989924896817453 0.00001857289093920504 0.00001880587326400426 0.00002423803751904478
1520530330.850367 0.00000000000000000000 0.00000000000000000000 0.00000000000000000000 0.00000000000000000000 0.00000000000000000000 0.00000000000000000000 -0.71126183680623833450  0.19902792812875358397 -0.03974889446411564858 -0.00059108925347282513  0.00039966255175498622  0.00339123286854923871 0.25526277224216159523 0.36814517583849332150 0.01588732742744567231 0.00001840067349383823 0.00001874638302248928 0.00002334666431061759
1520530330.950279 0.00000000000000000000 0.00000000000000000000 0.00000000000000000000 0.00000000000000000000 0.00000000000000000000 0.00000000000000000000 -0.71084282747330318486  0.20017755201164910694 -0.03977211440509223483 -0.00062613303946958371  0.00031981311138800099  0.00327062650940731191 0.25228359142841855212 0.36691621102067989435 0.01585191888106318378 0.00001848169848137754 0.00001868341554820473 0.00002448141561537095
1520530331.050282 0.00000000000000000000 0.00000000000000000000 0.00000000000000000000 0.00000000000000000000 0.00000000000000000000 0.00000000000000000000 -0.70785245124014839480  0.19922072975547291951 -0.03968961951632395124 -0.00061222295429526265  0.00037999612360266512  0.00327205445337043748 0.24979915836547605945 0.36599525939828347898 0.01580324348981321236 0.00001845938067343522 0.00001863899050274039 0.00002450311083190607
1520530331.150285 0.00000000000000000000 0.00000000000000000000 0.00000000000000000000 0.00000000000000000000 0.00000000000000000000 0.00000000000000000000 -0.70391138805207842388  0.19943420303904763058 -0.03992835881575067941 -0.00066484193461960675  0.00037416480958916152  0.00327571746863312106 0.24771201845470425251 0.36620332374329056524 0.01573164904231299718 0.00001848051773159652 0.00001857092145904120 0.00002467674476545697
1520530331.250735 0.00000000000000000000 0.00000000000000000000 0.00000000000000000000 0.00000000000000000000 0.00000000000000000000 0.00000000000000000000 -0.70539169193065687224  0.19912628614518751435 -0.03970702816052954637 -0.00069037701123688593  0.00029881923282667713  0.00330128236622719527 0.24585897567570602629 0.36621167050769493079 0.01564828479889288082 0.00001856874441696936 0.00001867181537629742 0.00002478213256373058
1520530331.350738 0.00000000000000000000 0.00000000000000000000 0.00000000000000000000 0.00000000000000000000 0.00000000000000000000 0.00000000000000000000 -0.70787732348746945643  0.19907719145429683683 -0.03897558537914375121 -0.00070483758347078681  0.00028857137648866761  0.00329231005709190033 0.24425708434619208820 0.36635807001489933965 0.01557774193700861218 0.00001874961269160531 0.00001869402512932741 0.00002500996358842382
1520530331.450741 0.00000000000000000000 0.00000000000000000000 0.00000000000000000000 0.00000000000000000000 0.00000000000000000000 0.00000000000000000000 -0.70738075611635997664  0.19972248160011149554 -0.03862814362267676105 -0.00075924634110831194  0.00028274179704203283  0.00335002218745770975 0.24305825482238113677 0.36631628679547395544 0.01552329730455732568 0.00001887145967307774 0.00001878369976523711 0.00002496910029541092
1520530331.500743 0.00000000000000000000 0.00000000000000000000 0.00000000000000000000 0.00000000000000000000 0.00000000000000000000 0.00000000000000000000 -0.70797609341382183867  0.19843094955947243596 -0.03871912956748032458 -0.00071987431777859544  0.00031852468345965930  0.00334373105740908179 0.24200492678931107005 0.36615116904411149079 0.01549412529644045994 0.00001878765726260630 0.00001847066290875580 0.00002472670124031558
1520530331.600746 0.00000000000000000000 0.00000000000000000000 0.00000000000000000000 0.00000000000000000000 0.00000000000000000000 0.00000000000000000000 -0.70200860339495185780  0.19950819893119281501 -0.04036982383619330816 -0.00070152553021147069  0.00032096006523988789  0.00331146145953545041 0.24070444073828264897 0.36584686809248800898 0.01547762354697986356 0.00001888091343445602 0.00001839751359898196 0.00002462530045881229
1520530331.650479 0.00000000000000000000 0.00000000000000000000 0.00000000000000000000 0.00000000000000000000 0.00000000000000000000 0.00000000000000000000 -0.69902889579326266123  0.19927471502351540300 -0.04118001293922307626 -0.00071004377188646842  0.00032495438043841224  0.00328629943722397958 0.24032753257199843122 0.36561674236634483792 0.01549445036985498333 0.00001891445240429615 0.00001840476786290265 0.00002482914158401637
1520530331.750483 0.00000000000000000000 0.00000000000000000000 0.00000000000000000000 0.00000000000000000000 0.00000000000000000000 0.00000000000000000000 -0.69966743921680230045  0.19934307515122767773 -0.04089207058580991011 -0.00071245474205592903  0.00031706889443307599  0.00336293203542386817 0.23939398376640419475 0.36403462850869894307 0.01556597597683779567 0.00001900433109895818 0.00001855544351357270 0.00002500217394010708
1520530331.800484 0.00000000000000000000 0.00000000000000000000 0.00000000000000000000 0.00000000000000000000 0.00000000000000000000 0.00000000000000000000 -0.69996795705517633746  0.20031993291107411115 -0.04086960028656439620 -0.00072615848806853271  0.00031598121054551696  0.00334932320125507074 0.23908300156968001482 0.36280724865767455256 0.01560809974346316978 0.00001894811444027625 0.00001860536886549530 0.00002505810819428911
1520530331.900488 0.00000000000000000000 0.00000000000000000000 0.00000000000000000000 0.00000000000000000000 0.00000000000000000000 0.00000000000000000000 -0.69571851985323596157  0.20526608754812961100 -0.04053011261993173797 -0.00069343107527070709  0.00031203550743048094  0.00332709909539595679 0.23758958077861588865 0.35979487078774419206 0.01575098042247711008 0.00001900955335976138 0.00001861479932154770 0.00002516331111380243
1520530331.950489 0.00000000000000000000 0.00000000000000000000 0.00000000000000000000 0.00000000000000000000 0.00000000000000000000 0.00000000000000000000 -0.69341623876332647569  0.20747615846083206081 -0.04039272503413694065 -0.00074001883423971567  0.00033529816385115664  0.00328757476103823214 0.23667708982690957575 0.35786256366427304787 0.01581823008848284515 0.00001893784231421775 0.00001858938272474544 0.00002540154567913801
1520530332.050387 0.00000000000000000000 0.00000000000000000000 0.00000000000000000000 0.00000000000000000000 0.00000000000000000000 0.00000000000000000000 -0.68814527151138038530  0.21344413935155448492 -0.03968009756546814204 -0.00079735801709774593  0.00038440297254796029  0.00329991584230297612 0.23430147998099407070 0.35417392794751212381 0.01597557330702317757 0.00001891957899935023 0.00001861750040280500 0.00002549544617979234
1520530332.150390 0.00000000000000000000 0.00000000000000000000 0.00000000000000000000 0.00000000000000000000 0.00000000000000000000 0.00000000000000000000 -0.67917837989798013343  0.21592775273317724172 -0.03858712485680224763 -0.00081656562956283079  0.00035305940120543234  0.00327080674101066886 0.23157267743798626292 0.35049876664478291088 0.01612400939831157287 0.00001889133902255540 0.00001863422158170580 0.00002544498438904190
1520530332.250393 0.00000000000000000000 0.00000000000000000000 0.00000000000000000000 0.00000000000000000000 0.00000000000000000000 0.00000000000000000000 -0.67493195847949793986  0.21670999383358655055 -0.03750101266832597813 -0.00087610271878837780  0.00035955682175673424  0.00324074438504307668 0.22770079531033124431 0.34626416939088106028 0.01625524402470691215 0.00001889771794296892 0.00001857453679424361 0.00002546378142363336
1520530332.350396 0.00000000000000000000 0.00000000000000000000 0.00000000000000000000 0.00000000000000000000 0.00000000000000000000 0.00000000000000000000 -0.67081792828406860973  0.21663108333132446992 -0.03716516021176580198 -0.00097696716574898683  0.00032806012420912370  0.00331424433121453371 0.22397519420441330817 0.34220490676393555685 0.01634746345117579422 0.00001884058473691871 0.00001880291616568595 0.00002562517630862503
1520530332.400401 0.00000000000000000000 0.00000000000000000000 0.00000000000000000000 0.00000000000000000000 0.00000000000000000000 0.00000000000000000000 -0.67135771944935052069  0.21867235958003941598 -0.03757318905139019755 -0.00093149524087661473  0.00036577714622976725  0.00341187694314354622 0.22196385422583789215 0.34031726639490328390 0.01637474170110428048 0.00001877687233152503 0.00001884402671393968 0.00002546357589436254
1520530332.500483 0.00000000000000000000 0.00000000000000000000 0.00000000000000000000 0.00000000000000000000 0.00000000000000000000 0.00000000000000000000 -0.67261308806437369867  0.21272651745265241940 -0.03711263703473825087 -0.00087776102084764773  0.00033189818948180054  0.00337955237530374172 0.21738736795670918212 0.33521567728198037317 0.01644170518864936439 0.00001889564220335900 0.00001883175382821246 0.00002548144783578897
1520530332.600486 0.00000000000000000000 0.00000000000000000000 0.00000000000000000000 0.00000000000000000000 0.00000000000000000000 0.00000000000000000000 -0.67444515968958784757  0.20796602155353852148 -0.03704807890190295327 -0.00082842595538909210  0.00035283691330477727  0.00329759960140060511 0.21316836712528947073 0.33040982178890282439 0.01645615265140712782 0.00001897747917304748 0.00001881075278072702 0.00002557585157272787
1520530332.700489 0.00000000000000000000 0.00000000000000000000 0.00000000000000000000 0.00000000000000000000 0.00000000000000000000 0.00000000000000000000 -0.67496166036825766543  0.20510935014704623214 -0.03704842903801017218 -0.00084380399350855164  0.00031888139000428838  0.00324072497195169486 0.20885535229476104302 0.32528950857241190064 0.01645363642457073686 0.00001904419352520829 0.00001885575386671369 0.00002563449765767593
1520530332.800492 0.00000000000000000000 0.00000000000000000000 0.00000000000000000000 0.00000000000000000000 0.00000000000000000000 0.00000000000000000000 -0.67682943283164676007  0.20449449336556729806 -0.03667590224282652606 -0.00087385184057776791  0.00029066935967865504  0.00332279507794496680 0.20489011697851988725 0.32148620000530370167 0.01644052652442844903 0.00001886600171297673 0.00001887590027592775 0.00002584386142553692
1520530332.900164 0.00000000000000000000 0.00000000000000000000 0.00000000000000000000 0.00000000000000000000 0.00000000000000000000 0.00000000000000000000 -0.68251152894643007940  0.19961331497548018277 -0.03622981996239260649 -0.00088906534135812696  0.00023187148351467923  0.00333791919046233770 0.20162104718353171529 0.31895360827422858385 0.01641219764692703267 0.00001866502411003034 0.00001889773008843069 0.00002576489661925626
1520530333.000168 0.00000000000000000000 0.00000000000000000000 0.00000000000000000000 0.00000000000000000000 0.00000000000000000000 0.00000000000000000000 -0.68247881622922590417  0.20082383567435152516 -0.03614453842052372384 -0.00086294927005349542  0.00024640937286455797  0.00328903095774855459 0.19856585907982055028 0.31728964370980866638 0.01636414190949440212 0.00001855123831468927 0.00001883797096762654 0.00002568176918319674
1520530333.100171 0.00000000000000000000 0.00000000000000000000 0.00000000000000000000 0.00000000000000000000 0.00000000000000000000 0.00000000000000000000 -0.68303941095055953348  0.20032868422170124756 -0.03595098664702792851 -0.00079120560861823861  0.00025818301868403738  0.00326747810734571856 0.19612502281012608729 0.31638183761334398580 0.01628442751989723006 0.00001853355781811455 0.00001884321138299246 0.00002573204866996466
1520530333.150173 0.00000000000000000000 0.00000000000000000000 0.00000000000000000000 0.00000000000000000000 0.00000000000000000000 0.00000000000000000000 -0.68488412191215575220  0.19759284346270442057 -0.03551550324891863258 -0.00083459776620802028  0.00021941278094501427  0.00316925719510049867 0.19489278655690772668 0.31626349760128058541 0.01622848058549669278 0.00001856804439826696 0.00001882105606718324 0.00002573129495821309
1520530333.250175 0.00000000000000000000 0.00000000000000000000 0.00000000000000000000 0.00000000000000000000 0.00000000000000000000 0.00000000000000000000 -0.68703880957036700394  0.19651482889100305163 -0.03477305715999870483 -0.00091392788546048502  0.00014970675132799227  0.00318540874452696160 0.19318054620611205263 0.31649605089483923148 0.01611636445057821818 0.00001877143140674569 0.00001892547416265144 0.00002602428365399299
1520530333.300608 0.00000000000000000000 0.00000000000000000000 0.00000000000000000000 0.00000000000000000000 0.00000000000000000000 0.00000000000000000000 -0.68843499065485702637  0.19734424414843290685 -0.03425227096846136104 -0.00091996067136548300  0.00012842845618480468  0.00319276824875286327 0.19248976896535044401 0.31679208793943169908 0.01605638116655318248 0.00001892228909381767 0.00001908439827058644 0.00002621771811420850
1520530333.400612 0.00000000000000000000 0.00000000000000000000 0.00000000000000000000 0.00000000000000000000 0.00000000000000000000 0.00000000000000000000 -0.68938475088482842335  0.19942124817567202788 -0.03381308144859905551 -0.00093407694423964984  0.00010060268558541178  0.00318067508926227552 0.19079240933735164276 0.31656626198919407544 0.01593715992075771595 0.00001890491691742765 0.00001911222086424622 0.00002611290988190764
1520530333.500615 0.00000000000000000000 0.00000000000000000000 0.00000000000000000000 0.00000000000000000000 0.00000000000000000000 0.00000000000000000000 -0.68823842861776840518  0.19886141856707939546 -0.03417388106490159422 -0.00092041641858672579  0.00013173832306975485  0.00319592888910680403 0.18909802907380615644 0.31564618027765811714 0.01582895166706103918 0.00001900800893653251 0.00001916882151129755 0.00002617596025268678
1520530333.600618 0.00000000000000000000 0.00000000000000000000 0.00000000000000000000 0.00000000000000000000 0.00000000000000000000 0.00000000000000000000 -0.68616243036853397097  0.19844731070832080655 -0.03592803531953956547 -0.00090475517171890313  0.00014463105816186602  0.00325878907720029455 0.18662956992874299433 0.31322285790533116456 0.01570372889061362465 0.00001904138956277622 0.00001921915661079862 0.00002625926164432156
1520530333.700541 0.00000000000000000000 0.00000000000000000000 0.00000000000000000000 0.00000000000000000000 0.00000000000000000000 0.00000000000000000000 -0.68811666485335520882  0.19641487669366219926 -0.03583675633070485672 -0.00087850911114333670  0.00016372183698304345  0.00328154188540460880 0.18363434616662857590 0.30931924341553429514 0.01561332143771050618 0.00001918885418613779 0.00001928214536962097 0.00002644973696708793
1520530333.750542 0.00000000000000000000 0.00000000000000000000 0.00000000000000000000 0.00000000000000000000 0.00000000000000000000 0.00000000000000000000 -0.68420943828908686868  0.19714343386732902097 -0.03611155609701049984 -0.00090544132886758073  0.00016220151190784421  0.00331352659642876945 0.18151473080526617232 0.30685383640102331659 0.01553784960573487313 0.00001911037421967228 0.00001919638522850308 0.00002627416532151947
1520530333.850545 0.00000000000000000000 0.00000000000000000000 0.00000000000000000000 0.00000000000000000000 0.00000000000000000000 0.00000000000000000000 -0.68623263355284136455  0.19817571742378661814 -0.03504768423741359828 -0.00087851816888446035  0.00018008087329071090  0.00335255739708897708 0.17841047473732118966 0.30341771172134146539 0.01547923279181009394 0.00001921772832262023 0.00001926254972446874 0.00002627938071188554
1520530333.900547 0.00000000000000000000 0.00000000000000000000 0.00000000000000000000 0.00000000000000000000 0.00000000000000000000 0.00000000000000000000 -0.68249624417919929620  0.19655700742048276553 -0.03579201794468619274 -0.00092768463099844850  0.00018578352165061671  0.00336577397628904209 0.17683741468232053173 0.30173831721463817424 0.01543617326237798834 0.00001915195832233983 0.00001917902555548556 0.00002651043688100560
1520530334.000561 0.00000000000000000000 0.00000000000000000000 0.00000000000000000000 0.00000000000000000000 0.00000000000000000000 0.00000000000000000000 -0.67469877976441816614  0.17864299647279455185 -0.03586724633250546607 -0.00093650004856994195  0.00024668667157544340  0.00330028597663835832 0.17538958289893380460 0.30017576503455489778 0.01542171279214252927 0.00001916482801905884 0.00001921280713813651 0.00002672062705134086
1520530334.050551 0.00000000000000000000 0.00000000000000000000 0.00000000000000000000 0.00000000000000000000 0.00000000000000000000 0.00000000000000000000 -0.67126216327423215979  0.18294146975242422948 -0.03656757308482028179 -0.00098835030757394183  0.00022475363948396273  0.00334208328580165972 0.17291888236630884035 0.29603287737318118023 0.01528509299069475205 0.00001896278687377934 0.00001910235447784556 0.00002641728755936342
1520530334.150218 0.00000000000000000000 0.00000000000000000000 0.00000000000000000000 0.00000000000000000000 0.00000000000000000000 0.00000000000000000000 -0.66741415720329977379  0.19004108430046276479 -0.03760019830539177571 -0.00095372921628261405  0.00017062034975729289  0.00329537918451067559 0.17136388846333885927 0.28942863044007027806 0.01515926105258828122 0.00001902298201334962 0.00001896529993566425 0.00002568864494025038
1520530334.250221 0.00000000000000000000 0.00000000000000000000 0.00000000000000000000 0.00000000000000000000 0.00000000000000000000 0.00000000000000000000 -0.66691344255316276080  0.19675802560821264997 -0.03799655242528272858 -0.00096939351733224685  0.00009839472781653320  0.00323869279999284719 0.17068363466383001947 0.28412453782426888571 0.01506404247426431850 0.00001917027611136162 0.00001906928105079654 0.00002623505524850376
1520530334.300222 0.00000000000000000000 0.00000000000000000000 0.00000000000000000000 0.00000000000000000000 0.00000000000000000000 0.00000000000000000000 -0.66922811551175520606  0.19480443194832458564 -0.03767550038451612099 -0.00091071194310050300  0.00006873484178722046  0.00321315014997836015 0.17146468569285069905 0.28418864188614001431 0.01506034098482638382 0.00001924956515291359 0.00001941947712367357 0.00002697685803980817
1520530334.400225 0.00000000000000000000 0.00000000000000000000 0.00000000000000000000 0.00000000000000000000 0.00000000000000000000 0.00000000000000000000 -0.66686843464086120736  0.20699180019254120877 -0.03971756943148967850 -0.00097525827075905722  0.00007919428719678106  0.00321789494654331574 0.17173134067346473852 0.28396406276241853428 0.01503078577073357555 0.00001943341326549149 0.00001953322861801587 0.00002725671133875934
1520530334.450227 0.00000000000000000000 0.00000000000000000000 0.00000000000000000000 0.00000000000000000000 0.00000000000000000000 0.00000000000000000000 -0.66414981380489257479  0.21193480231477607179 -0.04025837553300404964 -0.00101259386291274820  0.00011212795223367466  0.00319454546719665595 0.17193818855646120225 0.28319790330864419436 0.01504802617701986832 0.00001942800458675092 0.00001957421974156798 0.00002728855507630936
1520530334.550086 0.00000000000000000000 0.00000000000000000000 0.00000000000000000000 0.00000000000000000000 0.00000000000000000000 0.00000000000000000000 -0.66491898603467836093  0.21609490752781462808 -0.04101925957094779140 -0.00105364303248217900  0.00008130853414597047  0.00320445863038165257 0.17212672259616482173 0.28246620677143235989 0.01506860064390649553 0.00001949032136935592 0.00001959903489819697 0.00002739236401505050
1520530334.600088 0.00000000000000000000 0.00000000000000000000 0.00000000000000000000 0.00000000000000000000 0.00000000000000000000 0.00000000000000000000 -0.66577846611853397363  0.21776228889607660011 -0.04037413200681919112 -0.00107947975736064940  0.00002759440935329548  0.00320625653480917632 0.17232040734705569851 0.28266664058179263863 0.01510223945992358874 0.00001954801070994272 0.00001961542202026527 0.00002744271528406130
1520530334.700091 0.00000000000000000000 0.00000000000000000000 0.00000000000000000000 0.00000000000000000000 0.00000000000000000000 0.00000000000000000000 -0.66667058810666546265  0.22086957571656815058 -0.04028283011253520202 -0.00111915048240202172 -0.00003343893421896042  0.00316542221039794233 0.17236736939711272409 0.28195516275031889952 0.01518614470967762781 0.00001959064997399034 0.00001958157837968279 0.00002750099365955479
1520530334.800094 0.00000000000000000000 0.00000000000000000000 0.00000000000000000000 0.00000000000000000000 0.00000000000000000000 0.00000000000000000000 -0.66724716822653828974  0.23832350186813389126 -0.04161288027875857665 -0.00127731251424427462 -0.00023146036327321607  0.00302625155329803519 0.17229804575599061423 0.28057174263625023203 0.01523122540668634013 0.00001948952344443853 0.00001949468989473949 0.00002745633562297229
1520530334.850095 0.00000000000000000000 0.00000000000000000000 0.00000000000000000000 0.00000000000000000000 0.00000000000000000000 0.00000000000000000000 -0.66490752567199962186  0.24884843207593990155 -0.04386217728681492817 -0.00133267527392717019 -0.00022000558589793811  0.00300608433518863467 0.17221112406965094488 0.27821403751686762940 0.01520371948024312747 0.00001935189749275214 0.00001929569517031288 0.00002736774648780555
1520530334.950928 0.00000000000000000000 0.00000000000000000000 0.00000000000000000000 0.00000000000000000000 0.00000000000000000000 0.00000000000000000000 -0.66577620569557482977  0.25569848906180320247 -0.04575574847986654120 -0.00138918719336279329 -0.00028009638847841927  0.00309004119170725247 0.17198359945840172025 0.27570477924460484731 0.01518523291443984666 0.00001908999194279912 0.00001909677945683084 0.00002729192040510124
1520530335.050931 0.00000000000000000000 0.00000000000000000000 0.00000000000000000000 0.00000000000000000000 0.00000000000000000000 0.00000000000000000000 -0.66410993097506521021  0.26508461036604918926 -0.04699798886947316456 -0.00144858403066001028 -0.00041954151445179003  0.00313134220426974875 0.17175508025808816637 0.27451543616177981333 0.01516613350210796116 0.00001926731443204934 0.00001925444257151870 0.00002718650095514206
1520530335.100933 0.00000000000000000000 0.00000000000000000000 0.00000000000000000000 0.00000000000000000000 0.00000000000000000000 0.00000000000000000000 -0.66503593266097582593  0.26633391057865968277 -0.04750097014216457525 -0.00143627455868067613 -0.00046728636395895599  0.00311494610457803151 0.17158669444589028097 0.27380827691557035886 0.01513933030726546079 0.00001937596366696459 0.00001919402711351093 0.00002729758025331324
1520530335.200936 0.00000000000000000000 0.00000000000000000000 0.00000000000000000000 0.00000000000000000000 0.00000000000000000000 0.00000000000000000000 -0.66780826520221558962  0.26793458276814186014 -0.04810555646169759059 -0.00139744221713470371 -0.00048379527241889492  0.00293878803650989657 0.17124065494587320524 0.27231834644718588834 0.01514212642614633057 0.00001921670500787648 0.00001900194464397744 0.00002726606879819883
1520530335.250937 0.00000000000000000000 0.00000000000000000000 0.00000000000000000000 0.00000000000000000000 0.00000000000000000000 0.00000000000000000000 -0.66803502952761295575  0.27175581117143915444 -0.04858952607781098776 -0.00131865546569951276 -0.00054883693344184251  0.00260398070943677245 0.17083249357431248838 0.27072873441430556074 0.01513609606549873830 0.00001876197132378905 0.00001870024963761903 0.00002684791092868438
1520530335.351457 0.00000000000000000000 0.00000000000000000000 0.00000000000000000000 0.00000000000000000000 0.00000000000000000000 0.00000000000000000000 -0.66734441894361029579  0.27300607991581304912 -0.05014032748904054260 -0.00136854294293411744 -0.00064217886546693648  0.00254928970530626017 0.17041190891742938329 0.26958104108821312472 0.01518050570001397773 0.00001872598989677755 0.00001864368867599943 0.00002675063633895620
1520530335.451459 0.00000000000000000000 0.00000000000000000000 0.00000000000000000000 0.00000000000000000000 0.00000000000000000000 0.00000000000000000000 -0.66877646281632530112  0.26919433798709729855 -0.05211700598870169787 -0.00139237145351146872 -0.00060321682813510298  0.00259803416642611978 0.17014886040266949396 0.26845132947381078470 0.01522581789587225745 0.00001869735305276493 0.00001869923496452315 0.00002653243431785429
1520530335.551462 0.00000000000000000000 0.00000000000000000000 0.00000000000000000000 0.00000000000000000000 0.00000000000000000000 0.00000000000000000000 -0.67234583051894203365  0.26664791714109958853 -0.05350926229339096618 -0.00134671206834462783 -0.00070215055614596133  0.00264096989301280602 0.17017060594765914816 0.26816184240104834480 0.01527423138876758853 0.00001914968750299022 0.00001905488127844390 0.00002716745008239259
1520530335.651465 0.00000000000000000000 0.00000000000000000000 0.00000000000000000000 0.00000000000000000000 0.00000000000000000000 0.00000000000000000000 -0.67411151533083968346  0.27078857831371361264 -0.05472012380298436202 -0.00132066139354680917 -0.00075410847602763503  0.00262730308964486672 0.17010018961785930425 0.26727143297199007499 0.01531238583570955665 0.00001918241111799980 0.00001904271162717594 0.00002695977137428882
1520530335.750223 0.00000000000000000000 0.00000000000000000000 0.00000000000000000000 0.00000000000000000000 0.00000000000000000000 0.00000000000000000000 -0.67292004865929111457  0.27389337143502401339 -0.05675315902901423293 -0.00137867562754728844 -0.00074361637812962928  0.00274529509913317609 0.17027455609531153002 0.26698285283406214541 0.01537896477358501740 0.00001931901998083221 0.00001913083487868711 0.00002706944204874599
1520530336.650586 0.00000000000000000000 0.00000000000000000000 0.00000000000000000000 0.00000000000000000000 0.00000000000000000000 0.00000000000000000000 -0.69273509246112208171  0.32546577947664606656 -0.05528070165826264731 -0.00152335736888641830 -0.00135195490003457816  0.00284899898331864151 0.17161879795832662987 0.25968319633136233149 0.01543909490048386672 0.00001932351297563196 0.00001940809006690553 0.00002694772187505309
1520530336.800590 0.00000000000000000000 0.00000000000000000000 0.00000000000000000000 0.00000000000000000000 0.00000000000000000000 0.00000000000000000000 -0.68987860485291152557  0.33004783921838370953 -0.05530086986565305174 -0.00151137945959070488 -0.00135825779135050062  0.00288283456784775571 0.16851145519632076963 0.25713733780105857418 0.01533105062538752186 0.00001895963744211412 0.00001889743335882901 0.00002636990340795541
1520530336.900594 0.00000000000000000000 0.00000000000000000000 0.00000000000000000000 0.00000000000000000000 0.00000000000000000000 0.00000000000000000000 -0.69017211545090750846  0.32882954120807678100 -0.05466916646451162876 -0.00145975283361908037 -0.00138434991964202334  0.00290840415986629627 0.16621210085938564749 0.25592443463328751196 0.01528194494374800205 0.00001861641422303370 0.00001829758329069814 0.00002568095756115343
1520530337.000258 0.00000000000000000000 0.00000000000000000000 0.00000000000000000000 0.00000000000000000000 0.00000000000000000000 0.00000000000000000000 -0.69084993848422882046  0.32900363513039304619 -0.05529448297866195600 -0.00141662313025392775 -0.00138608405017802481  0.00295500479385387045 0.16400912935703024220 0.25574628388896603060 0.01530959387114656615 0.00001862651991713347 0.00001818650824133623 0.00002573679049740141
1520530337.100266 0.00000000000000000000 0.00000000000000000000 0.00000000000000000000 0.00000000000000000000 0.00000000000000000000 0.00000000000000000000 -0.69477816500918421205  0.32644356016630093897 -0.05604672659861151957 -0.00141303426217215060 -0.00138001564023344466  0.00301759143335693630 0.16169145220875061342 0.25579397817087096145 0.01541110307607364803 0.00001870042818812321 0.00001826881528044962 0.00002584713804218259
1520530337.200351 0.00000000000000000000 0.00000000000000000000 0.00000000000000000000 0.00000000000000000000 0.00000000000000000000 0.00000000000000000000 -0.69364246307737209563  0.32542527790759656625 -0.05599714661793465942 -0.00142628952116923848 -0.00138158020339525407  0.00297351777055406344 0.15974875666498766780 0.25583897914668768392 0.01547142536699596185 0.00001882167279654491 0.00001833798182772575 0.00002631626346891087
1520530337.300267 0.00000000000000000000 0.00000000000000000000 0.00000000000000000000 0.00000000000000000000 0.00000000000000000000 0.00000000000000000000 -0.69308022446587980170  0.32628376209292919707 -0.05589608402935278275 -0.00152241612908047240 -0.00131753834404977352  0.00284255140282769743 0.15857800389512882733 0.25600201279991380288 0.01555313501454619156 0.00001892191930234511 0.00001853854784958248 0.00002656267756784947
1520530337.400301 0.00000000000000000000 0.00000000000000000000 0.00000000000000000000 0.00000000000000000000 0.00000000000000000000 0.00000000000000000000 -0.69000024389056990870  0.32661828515360180614 -0.05546659568472701168 -0.00155672046349936274 -0.00127373870510900521  0.00276651781724905534 0.15753424955341774338 0.25606975733507902904 0.01559959081472764471 0.00001887124643208306 0.00001840471554455421 0.00002575848072844719
1520530337.500304 0.00000000000000000000 0.00000000000000000000 0.00000000000000000000 0.00000000000000000000 0.00000000000000000000 0.00000000000000000000 -0.68956629686913006871  0.32575724541435369108 -0.05479755029834434271 -0.00171220255738571995 -0.00121344753997026846  0.00285922938247538646 0.15663459205283269959 0.25578499665155424170 0.01561933696259677588 0.00001874730904951412 0.00001833969678495583 0.00002530813035349951
1520530337.600307 0.00000000000000000000 0.00000000000000000000 0.00000000000000000000 0.00000000000000000000 0.00000000000000000000 0.00000000000000000000 -0.68276344810817946041  0.32027834110289760128 -0.05181710489058542757 -0.00175310436851415724 -0.00114702876981542042  0.00287815977283142899 0.15636105404573399924 0.25531966246054904612 0.01558253786537551304 0.00001858278229434469 0.00001833407555766281 0.00002518254865982075
1520530337.650309 0.00000000000000000000 0.00000000000000000000 0.00000000000000000000 0.00000000000000000000 0.00000000000000000000 0.00000000000000000000 -0.67940900853921515345  0.31876347699845619665 -0.05001262165708998675 -0.00167941781312722538 -0.00112308474366263353  0.00289928390918394504 0.15627551846254936208 0.25498074823783223319 0.01555879911083549519 0.00001853561649523696 0.00001835049631065604 0.00002503927630470109
1520530337.750312 0.00000000000000000000 0.00000000000000000000 0.00000000000000000000 0.00000000000000000000 0.00000000000000000000 0.00000000000000000000 -0.67590159755592316149  0.31659800282535582872 -0.04807301699599571959 -0.00163094915813545246 -0.00107554447488445045  0.00297316244283070885 0.15592904936919776970 0.25292099938758677569 0.01547165842983424730 0.00001857013672489125 0.00001840168032984482 0.00002503333755842053
1520530337.900857 0.00000000000000000000 0.00000000000000000000 0.00000000000000000000 0.00000000000000000000 0.00000000000000000000 0.00000000000000000000 -0.66720606002415161484  0.32039493752406156268 -0.04596957668069302783 -0.00154371073859194954 -0.00104014596916822367  0.00293395989741611655 0.15583754043830144731 0.24935109835023527847 0.01539333710379090815 0.00001922379907846331 0.00001872585430321459 0.00002610582143758265
1520530338.000860 0.00000000000000000000 0.00000000000000000000 0.00000000000000000000 0.00000000000000000000 0.00000000000000000000 0.00000000000000000000 -0.66312822201790622145  0.31945133497910532805 -0.04594619081862329896 -0.00160917825836665702 -0.00102694594380432725  0.00290711784433897186 0.15504580507604553974 0.24534977977798211324 0.01530208014953234226 0.00001853349393915250 0.00001862620520797289 0.00002580061877699597
1520530338.100863 0.00000000000000000000 0.00000000000000000000 0.00000000000000000000 0.00000000000000000000 0.00000000000000000000 0.00000000000000000000 -0.65468467637619809363  0.31464770894894078523 -0.04590486559011688894 -0.00163595391502049242 -0.00096694771323798702  0.00275936082262728897 0.15461320998652072767 0.24260768726806922202 0.01525903095034839181 0.00001881014354795800 0.00001859167860037624 0.00002572976744177302
1520530338.200470 0.00000000000000000000 0.00000000000000000000 0.00000000000000000000 0.00000000000000000000 0.00000000000000000000 0.00000000000000000000 -0.65152498887390120075  0.31673636752841743958 -0.04573328330642166539 -0.00150480239688113057 -0.00097448831901390061  0.00276699888061667908 0.15373583084045916447 0.24028946802615849809 0.01522998096981167081 0.00001895495872850437 0.00001868748852330069 0.00002598306848634807
1520530338.300474 0.00000000000000000000 0.00000000000000000000 0.00000000000000000000 0.00000000000000000000 0.00000000000000000000 0.00000000000000000000 -0.64938430990653472907  0.31630121298659791274 -0.04635808510449025005 -0.00146771780646618908 -0.00097711591746438807  0.00282174228295919115 0.15279115960751482595 0.23785409404931392996 0.01519815320531437558 0.00001880528861661477 0.00001849856404359028 0.00002547189004053205
1520530338.400477 0.00000000000000000000 0.00000000000000000000 0.00000000000000000000 0.00000000000000000000 0.00000000000000000000 0.00000000000000000000 -0.64623393783741112095  0.31566693115386013080 -0.04608421744998261738 -0.00139503785100944478 -0.00108014494757736716  0.00279515258735690960 0.15160456870597396883 0.23613080293725163816 0.01516685200515078928 0.00001872125627488251 0.00001830480911702538 0.00002517874009379122
1520530338.500480 0.00000000000000000000 0.00000000000000000000 0.00000000000000000000 0.00000000000000000000 0.00000000000000000000 0.00000000000000000000 -0.64176401016579598391  0.31586612101280248099 -0.04681949621398590750 -0.00135280009887864825 -0.00111166820524375549  0.00269340823288460700 0.15032233161432276281 0.23461367663019686014 0.01514245736886948857 0.00001872270014378652 0.00001830781299757659 0.00002561639009777105
1520530338.600260 0.00000000000000000000 0.00000000000000000000 0.00000000000000000000 0.00000000000000000000 0.00000000000000000000 0.00000000000000000000 -0.63813370078407516406  0.31586958094821881993 -0.04765311371957810238 -0.00134561039358792127 -0.00108894651883635119  0.00272986283422827283 0.14900660809127813655 0.23290240640099299507 0.01514808606319773161 0.00001854357123761609 0.00001812527151429830 0.00002554757686713746
1520530338.650261 0.00000000000000000000 0.00000000000000000000 0.00000000000000000000 0.00000000000000000000 0.00000000000000000000 0.00000000000000000000 -0.63495759655098027441  0.31429874495680026891 -0.04831760874127141725 -0.00133179445538645605 -0.00111788234074098962  0.00277098233457973410 0.14824084589735100903 0.23218062712073125886 0.01515267622375615977 0.00001845986899736540 0.00001778429084148598 0.00002527010422616084
1520530338.750266 0.00000000000000000000 0.00000000000000000000 0.00000000000000000000 0.00000000000000000000 0.00000000000000000000 0.00000000000000000000 -0.63275199196584708261  0.31446619846103446294 -0.04877242430449910127 -0.00131542586223740697 -0.00107072755827991757  0.00273669644262092542 0.14690232461448821111 0.23075721455321071551 0.01517813453807781085 0.00001858019371736965 0.00001771650417680002 0.00002491613070539320
1520530338.850267 0.00000000000000000000 0.00000000000000000000 0.00000000000000000000 0.00000000000000000000 0.00000000000000000000 0.00000000000000000000 -0.62864833068653580561  0.31501559736988565819 -0.04937882792089438866 -0.00133317023838803788 -0.00104154346840987103  0.00268790548613375650 0.14571644091328031512 0.22950029507869243450 0.01521353613635963685 0.00001864950430694309 0.00001771203055286929 0.00002492187897059361
1520530338.950270 0.00000000000000000000 0.00000000000000000000 0.00000000000000000000 0.00000000000000000000 0.00000000000000000000 0.00000000000000000000 -0.62286762929439953851  0.31674328362390530289 -0.05102669832648006054 -0.00125607165496394385 -0.00104909486059537468  0.00267203315306601807 0.14481636550267773522 0.22825835587956813666 0.01525217334288529215 0.00001879719236929260 0.00001787428961328123 0.00002510608724376091
1520530339.050959 0.00000000000000000000 0.00000000000000000000 0.00000000000000000000 0.00000000000000000000 0.00000000000000000000 0.00000000000000000000 -0.61715850684820061645  0.32302246343446461285 -0.05147643123753709721 -0.00117538092624692894 -0.00106239797839942775  0.00271679780516803811 0.14403498317338975232 0.22696444469617535478 0.01529116745086684694 0.00001886698912557144 0.00001793392391326243 0.00002509841772133823
1520530339.150962 0.00000000000000000000 0.00000000000000000000 0.00000000000000000000 0.00000000000000000000 0.00000000000000000000 0.00000000000000000000 -0.61761096136363846654  0.32069750896473775414 -0.05305508318285028641 -0.00117951439121423657 -0.00103522480027766419  0.00274179628588246734 0.14262141683389245594 0.22679383839097996822 0.01550121261924952872 0.00001908916999931160 0.00001829175922328049 0.00002571579446681288
1520530339.250965 0.00000000000000000000 0.00000000000000000000 0.00000000000000000000 0.00000000000000000000 0.00000000000000000000 0.00000000000000000000 -0.61612729340465943739  0.32286773892034070776 -0.05323475849894875045 -0.00120123679282300349 -0.00103682695316162365  0.00275092116332875539 0.14260450488299530880 0.22615895871754509994 0.01554760579133045509 0.00001913716743772244 0.00001848430680210327 0.00002585058492083662
1520530339.350968 0.00000000000000000000 0.00000000000000000000 0.00000000000000000000 0.00000000000000000000 0.00000000000000000000 0.00000000000000000000 -0.61427935063986005559  0.32496235365138159690 -0.05301947447079495557 -0.00125190120523124989 -0.00099733170911826623  0.00275687316350765009 0.14280365073655268415 0.22542867290545259840 0.01557810279659266502 0.00001913932378467485 0.00001863073234289532 0.00002668961106806051
1520530339.451687 0.00000000000000000000 0.00000000000000000000 0.00000000000000000000 0.00000000000000000000 0.00000000000000000000 0.00000000000000000000 -0.61298214084473923169  0.32630651103283636605 -0.05271549874408933134 -0.00123818874139449689 -0.00103076027236927679  0.00284549232202749519 0.14294581062226632828 0.22487579714743458070 0.01559801458239129350 0.00001924446198420662 0.00001870119757173649 0.00002679872110012339
1520530339.551690 0.00000000000000000000 0.00000000000000000000 0.00000000000000000000 0.00000000000000000000 0.00000000000000000000 0.00000000000000000000 -0.61520199292838140259  0.32492593417455928329 -0.05127170022763510165 -0.00121744884768853405 -0.00102080713148586591  0.00280414842350133753 0.14285811761274413989 0.22396158138156566086 0.01561800978294324363 0.00001924074709203675 0.00001874803719204169 0.00002681628307538058
1520530339.651693 0.00000000000000000000 0.00000000000000000000 0.00000000000000000000 0.00000000000000000000 0.00000000000000000000 0.00000000000000000000 -0.61654250003762267607  0.32639341466987381590 -0.04976170796430329918 -0.00118079425479622100 -0.00100028592405682873  0.00275811553608525453 0.14250533563043524254 0.22267081599438420803 0.01571694043004426972 0.00001926046016992744 0.00001881491246230842 0.00002676701390975083
1520530339.701695 0.00000000000000000000 0.00000000000000000000 0.00000000000000000000 0.00000000000000000000 0.00000000000000000000 0.00000000000000000000 -0.61837320010696639194  0.32717284964248077861 -0.04864490594125397971 -0.00115594669789954559 -0.00100617112756954622  0.00273527057327309191 0.14212292757440231350 0.22187195476162890895 0.01574867216000451139 0.00001921679946473570 0.00001876566262583184 0.00002659508651505637
1520530339.801698 0.00000000000000000000 0.00000000000000000000 0.00000000000000000000 0.00000000000000000000 0.00000000000000000000 0.00000000000000000000 -0.62493792728214914156  0.32828742523467918657 -0.04630231500950153511 -0.00108544338928934074 -0.00099043127318965921  0.00267039531927896296 0.14096893523438253082 0.22005619354796174258 0.01582829801923597846 0.00001928559554143159 0.00001878642320641771 0.00002665254311498575
1520530339.851056 0.00000000000000000000 0.00000000000000000000 0.00000000000000000000 0.00000000000000000000 0.00000000000000000000 0.00000000000000000000 -0.62751073961279346669  0.32905252731449252668 -0.04509709169055995531 -0.00109284959387886656 -0.00096779531672550457  0.00263493555819953621 0.14023661382939045517 0.21904593349079290454 0.01587229587984359189 0.00001930223410648071 0.00001878936937269078 0.00002666043427881993
1520530339.951059 0.00000000000000000000 0.00000000000000000000 0.00000000000000000000 0.00000000000000000000 0.00000000000000000000 0.00000000000000000000 -0.63285420072058728991  0.32983860634686568147 -0.04345527440644916112 -0.00098381084852253620 -0.00101460134099165284  0.00263434955559660282 0.13838976887503931512 0.21710240383848020129 0.01594158973690711772 0.00001934330714863735 0.00001879925592233547 0.00002675384330991916
1520530340.001061 0.00000000000000000000 0.00000000000000000000 0.00000000000000000000 0.00000000000000000000 0.00000000000000000000 0.00000000000000000000 -0.63680231830570999119  0.33218798871271920659 -0.04241746228270752012 -0.00094673453079968054 -0.00094319522037170512  0.00267141752187010891 0.13737011277632699136 0.21623891642080966813 0.01597791389100714637 0.00001933951413676213 0.00001874311761279759 0.00002663616860615577
1520530340.101063 0.00000000000000000000 0.00000000000000000000 0.00000000000000000000 0.00000000000000000000 0.00000000000000000000 0.00000000000000000000 -0.64156638579769031949  0.33754227268480618829 -0.04092120601754713205 -0.00090319022393907324 -0.00085493221650459017  0.00271378022245698496 0.13518509841044909492 0.21422313077194521380 0.01603296445676394635 0.00001932599930825801 0.00001866246544595884 0.00002647505688374395
1520530340.201067 0.00000000000000000000 0.00000000000000000000 0.00000000000000000000 0.00000000000000000000 0.00000000000000000000 0.00000000000000000000 -0.64847626044494732778  0.33969836901644034910 -0.04014185648565481851 -0.00086085524187903275 -0.00073171942139285857  0.00275440064737540562 0.13309262495543056071 0.21242146409788348338 0.01607515859909353084 0.00001930832608554648 0.00001857401511606069 0.00002635569332309404
1520530340.300397 0.00000000000000000000 0.00000000000000000000 0.00000000000000000000 0.00000000000000000000 0.00000000000000000000 0.00000000000000000000 -0.65470948374579140960  0.33869909614911553053 -0.04024167623838158930 -0.00085397290334609025 -0.00071039319588427985  0.00282977044344144297 0.13093763042042372291 0.21040379999440975145 0.01613809840142920241 0.00001929961416142157 0.00001859594459832663 0.00002621587204873393
1520530340.400400 0.00000000000000000000 0.00000000000000000000 0.00000000000000000000 0.00000000000000000000 0.00000000000000000000 0.00000000000000000000 -0.65841698849421848028  0.33782959323641847948 -0.03969087220666946830 -0.00084587355822263752 -0.00069270516525795473  0.00283255987351540292 0.12909936782026693036 0.20857644857368096147 0.01621757609243652115 0.00001929046696389155 0.00001857532987642125 0.00002616851869771033
1520530340.500403 0.00000000000000000000 0.00000000000000000000 0.00000000000000000000 0.00000000000000000000 0.00000000000000000000 0.00000000000000000000 -0.65934800267510640381  0.33568739557347143654 -0.03987167015579271001 -0.00081837965664777949 -0.00062721222750701110  0.00285293737494099822 0.12756721260909806293 0.20727708718492671158 0.01630790563300575299 0.00001919573821657530 0.00001855706602255169 0.00002598471613981900
1520530340.600406 0.00000000000000000000 0.00000000000000000000 0.00000000000000000000 0.00000000000000000000 0.00000000000000000000 0.00000000000000000000 -0.66004902563508260904  0.32977983909791697137 -0.04034232746646961021 -0.00077954332605780754 -0.00075735220086993156  0.00291900649181233308 0.12617803426359130992 0.20624044132323421374 0.01642465509352782765 0.00001920865870831576 0.00001862717210512052 0.00002608703877384351
1520530340.700348 0.00000000000000000000 0.00000000000000000000 0.00000000000000000000 0.00000000000000000000 0.00000000000000000000 0.00000000000000000000 -0.66177140393273681251  0.32093645270964277216 -0.04069935889235337667 -0.00079920796546757624 -0.00077063058872441840  0.00272778292124320216 0.12529672152185131195 0.20589090891301856101 0.01653127860764499676 0.00001932932382626492 0.00001886750454196470 0.00002676064786575765
1520530340.800351 0.00000000000000000000 0.00000000000000000000 0.00000000000000000000 0.00000000000000000000 0.00000000000000000000 0.00000000000000000000 -0.65587107151981971498  0.32203203330263291404 -0.04023016820723996495 -0.00072050823739110766 -0.00065970836175235708  0.00282356053183569931 0.12448776974877909240 0.20577741955886177938 0.01661961537417602774 0.00001921710135009656 0.00001887879776987678 0.00002669668652452492
