1520530315.649646 0.00000000000000000000 0.00000000000000000000 0.00000000000000000000 0.00000000000000000000 0.00000000000000000000 0.00000000000000000000 -1.92059430588067869827 -0.42721169197983732690  0.10152173399495222073 -0.00008990773489604086  0.00008104032555709839 -0.00019108060939253835
1520530315.799640 0.00000000000000000000 0.00000000000000000000 0.00000000000000000000 0.00000000000000000000 0.00000000000000000000 0.00000000000000000000 -2.35286146456268818739 -0.44910147659850069290  0.19405621866404612619 -0.00056742973132106582  0.00004039747179519146 -0.00030178680005362482
1520530315.899643 0.00000000000000000000 0.00000000000000000000 0.00000000000000000000 0.00000000000000000000 0.00000000000000000000 0.00000000000000000000 -1.09323455415635284460 -0.15016060955677762445 -0.02705137206105042921 -0.00086503349226398031 -0.00010528024790367760  0.00004373364861775241
1520530316.100221 0.00000000000000000000 0.00000000000000000000 0.00000000000000000000 0.00000000000000000000 0.00000000000000000000 0.00000000000000000000 -0.89198106512413111169 -0.12432692415040365319 -0.02969906906178103323 -0.00114828398598374576 -0.00013404936965322927 -0.00005477501306529857
1520530316.250226 0.00000000000000000000 0.00000000000000000000 0.00000000000000000000 0.00000000000000000000 0.00000000000000000000 0.00000000000000000000 -0.72337153886872829212  0.04945100746909819600 -0.07236275795640760566 -0.00117768802342896393  0.00003241446312806454 -0.00042046731172847902
1520530316.400230 0.00000000000000000000 0.00000000000000000000 0.00000000000000000000 0.00000000000000000000 0.00000000000000000000 0.00000000000000000000 -0.61129189658908944516 -0.00146149911902388493 -0.00154502023172823017 -0.00094088576139906709 -0.00006834921804212348 -0.00062400701972481541
1520530316.600278 0.00000000000000000000 0.00000000000000000000 0.00000000000000000000 0.00000000000000000000 0.00000000000000000000 0.00000000000000000000 -0.45770634098522788857  0.06393053993390425405 -0.01668011800315783930 -0.00069392076930915154 -0.00018050132412114077 -0.00063732918579242827
1520530316.800284 0.00000000000000000000 0.00000000000000000000 0.00000000000000000000 0.00000000000000000000 0.00000000000000000000 0.00000000000000000000 -0.48694604182691975103  0.03463742990576820086 -0.01423080471747897695 -0.00079618047356726815 -0.00023892819015142310 -0.00049049678389734091
1520530316.949773 0.00000000000000000000 0.00000000000000000000 0.00000000000000000000 0.00000000000000000000 0.00000000000000000000 0.00000000000000000000 -0.50321942822604781576 -0.01531521357374821327 -0.01290279689468531825 -0.00101576726609279569 -0.00004945486407667328 -0.00041157315839212704
1520530317.049776 0.00000000000000000000 0.00000000000000000000 0.00000000000000000000 0.00000000000000000000 0.00000000000000000000 0.00000000000000000000 -0.53284401135183101506 -0.04068684471990237361 -0.01231865784903030982 -0.00144633799573041415 -0.00013108531659858109 -0.00027856943657379729
1520530317.249782 0.00000000000000000000 0.00000000000000000000 0.00000000000000000000 0.00000000000000000000 0.00000000000000000000 0.00000000000000000000 -0.53831211568297965275 -0.11858133371274684476 -0.01045362541910562978 -0.00143414507695047004 -0.00022887217304631081 -0.00029266781954374952
1520530317.399745 0.00000000000000000000 0.00000000000000000000 0.00000000000000000000 0.00000000000000000000 0.00000000000000000000 0.00000000000000000000 -0.56062711871047510304 -0.14182778702048975950 -0.00583428917495816546 -0.00128572519396056499 -0.00041719158972967598 -0.00042058892066404354
1520530317.599752 0.00000000000000000000 0.00000000000000000000 0.00000000000000000000 0.00000000000000000000 0.00000000000000000000 0.00000000000000000000 -0.57383065364479868276 -0.11165239089972495146 -0.00646981701609958357 -0.00136512122395102587 -0.00073965462018413415 -0.00046083210083727098
1520530317.750237 0.00000000000000000000 0.00000000000000000000 0.00000000000000000000 0.00000000000000000000 0.00000000000000000000 0.00000000000000000000 -0.60903338852382660207 -0.10971173294334771176 -0.00388737991056034658 -0.00148940301707847279 -0.00041414455554140229 -0.00052745797886723548
1520530317.900242 0.00000000000000000000 0.00000000000000000000 0.00000000000000000000 0.00000000000000000000 0.00000000000000000000 0.00000000000000000000 -0.61316863434623880558 -0.07076624655751764803 -0.00575123529751855010 -0.00148556437775445812 -0.00024965160305490081 -0.00027448847399838349
1520530318.050246 0.00000000000000000000 0.00000000000000000000 0.00000000000000000000 0.00000000000000000000 0.00000000000000000000 0.00000000000000000000 -0.61432761316648265559 -0.05928847650555227333 -0.00504366047252749038 -0.00133985295501660084 -0.00033040349185192345 -0.00041853087741884268
1520530318.200769 0.00000000000000000000 0.00000000000000000000 0.00000000000000000000 0.00000000000000000000 0.00000000000000000000 0.00000000000000000000 -0.61409623439458260741 -0.02025663681130913246 -0.00522193940365185943 -0.00138873203720006285 -0.00030286402693407993 -0.00057398382119901138
1520530318.350774 0.00000000000000000000 0.00000000000000000000 0.00000000000000000000 0.00000000000000000000 0.00000000000000000000 0.00000000000000000000 -0.56321566408700995954  0.01139342559466103091 -0.00831011465701680767 -0.00111603419352901303 -0.00012812923231412870 -0.00053370620159856315
1520530318.500778 0.00000000000000000000 0.00000000000000000000 0.00000000000000000000 0.00000000000000000000 0.00000000000000000000 0.00000000000000000000 -0.50995760513788945811  0.02287165432365793200 -0.01184001070933928847 -0.00107104925852020950 -0.00012195818781683718 -0.00029638268875150319
1520530318.650568 0.00000000000000000000 0.00000000000000000000 0.00000000000000000000 0.00000000000000000000 0.00000000000000000000 0.00000000000000000000 -0.45015589958414470306  0.03986035150710874608 -0.01735684878460550321 -0.00094554072188873036 -0.00007257123861694193 -0.00009713491478686562
1520530318.850574 0.00000000000000000000 0.00000000000000000000 0.00000000000000000000 0.00000000000000000000 0.00000000000000000000 0.00000000000000000000 -0.33487278325639102672  0.06560219115243461074 -0.02911611353398322471 -0.00080886680625210229  0.00015473522978973810 -0.00012955009749573136
1520530318.999955 0.00000000000000000000 0.00000000000000000000 0.00000000000000000000 0.00000000000000000000 0.00000000000000000000 0.00000000000000000000 -0.28682094099391430841  0.11473718227017555560 -0.03882551397188437753 -0.00087857274391340168 -0.00003048478589017010 -0.00006542821796795499
1520530319.049958 0.00000000000000000000 0.00000000000000000000 0.00000000000000000000 0.00000000000000000000 0.00000000000000000000 0.00000000000000000000 -0.28940873288982754685  0.07616710467251637529 -0.03876907469573031423 -0.00085126675752208352 -0.00015152732903591366  0.00002659736430762337
1520530319.199962 0.00000000000000000000 0.00000000000000000000 0.00000000000000000000 0.00000000000000000000 0.00000000000000000000 0.00000000000000000000 -0.25034884335013846135  0.05479148424429682029 -0.03611094563044663086 -0.00076044247363506233 -0.00018997374652888045  0.00001698951251035076
1520530319.349967 0.00000000000000000000 0.00000000000000000000 0.00000000000000000000 0.00000000000000000000 0.00000000000000000000 0.00000000000000000000 -0.20246530394127995600  0.03041981369699135046 -0.03934157588384528531 -0.00075307697834247711 -0.00016589148540037250  0.00000588604450137577
1520530319.449833 0.00000000000000000000 0.00000000000000000000 0.00000000000000000000 0.00000000000000000000 0.00000000000000000000 0.00000000000000000000 -0.17374030898787687360 -0.01153245771002355674 -0.03865505615349303786 -0.00075736980517045053 -0.00010872848502531133  0.00009180206563066704
1520530319.599838 0.00000000000000000000 0.00000000000000000000 0.00000000000000000000 0.00000000000000000000 0.00000000000000000000 0.00000000000000000000 -0.17679570807405525779 -0.01003901828751573716 -0.03865301325140440419 -0.00050864071726803260 -0.00000482201576499927  0.00004552186520265313
1520530319.749942 0.00000000000000000000 0.00000000000000000000 0.00000000000000000000 0.00000000000000000000 0.00000000000000000000 0.00000000000000000000 -0.16198075757904289995 -0.01258173304399300314 -0.03816022036781650112 -0.00036885337561705253  0.00011807205187314956  0.00000997302751610610
1520530319.850343 0.00000000000000000000 0.00000000000000000000 0.00000000000000000000 0.00000000000000000000 0.00000000000000000000 0.00000000000000000000 -0.15835125233540575662  0.00642976456254764749 -0.03800647001222086374 -0.00032883802897827434  0.00005598103149786819  0.00007411575032489566
1520530319.950346 0.00000000000000000000 0.00000000000000000000 0.00000000000000000000 0.00000000000000000000 0.00000000000000000000 0.00000000000000000000 -0.15134558687307339553  0.01098126388077957927 -0.03715412035056832318 -0.00034576701738852283  0.00017077524992980544  0.00005060650631107429
1520530320.050349 0.00000000000000000000 0.00000000000000000000 0.00000000000000000000 0.00000000000000000000 0.00000000000000000000 0.00000000000000000000 -0.15039756390198985581  0.00486047692557006576 -0.03569124512306325742 -0.00029893068246375043  0.00021916429683788269  0.00015414614946897818
1520530320.150352 0.00000000000000000000 0.00000000000000000000 0.00000000000000000000 0.00000000000000000000 0.00000000000000000000 0.00000000000000000000 -0.14751790076647944283 -0.00166589149267669704 -0.03482039559581639326 -0.00034376337938479433  0.00029719860402919112  0.00020683357865163178
1520530320.250402 0.00000000000000000000 0.00000000000000000000 0.00000000000000000000 0.00000000000000000000 0.00000000000000000000 0.00000000000000000000 -0.11428261919010293535 -0.00648270018557157036 -0.03508932084947735675 -0.00064652070278948409  0.00049219907228120437  0.00030545803525592805
1520530320.400407 0.00000000000000000000 0.00000000000000000000 0.00000000000000000000 0.00000000000000000000 0.00000000000000000000 0.00000000000000000000 -0.09694583027907482942 -0.00324348213285260067 -0.03564584474916075718 -0.00080268106032612536  0.00039669232098079162  0.00026074115906089666
1520530320.550412 0.00000000000000000000 0.00000000000000000000 0.00000000000000000000 0.00000000000000000000 0.00000000000000000000 0.00000000000000000000 -0.09550224959202213704  0.01297703023552552321 -0.03689252604503446414 -0.00093778419961582050  0.00048187096516638244  0.00024821037618968521
1520530320.649871 0.00000000000000000000 0.00000000000000000000 0.00000000000000000000 0.00000000000000000000 0.00000000000000000000 0.00000000000000000000 -0.09839651407339834732  0.02903047057324667848 -0.03852000565083504163 -0.00102815411265074364  0.00041261649041414526  0.00016944668292529565
1520530320.799876 0.00000000000000000000 0.00000000000000000000 0.00000000000000000000 0.00000000000000000000 0.00000000000000000000 0.00000000000000000000 -0.11756996700519015131  0.00984709896669912037 -0.03843802245691254477 -0.00079006365843364618  0.00029781411022572241  0.00001573283106869867
1520530320.949880 0.00000000000000000000 0.00000000000000000000 0.00000000000000000000 0.00000000000000000000 0.00000000000000000000 0.00000000000000000000 -0.10356487976520591110 -0.00664662366297954100 -0.04084939901441814181 -0.00069549353295936711 -0.00007051632895659988 -0.00012659598598733558
1520530321.099742 0.00000000000000000000 0.00000000000000000000 0.00000000000000000000 0.00000000000000000000 0.00000000000000000000 0.00000000000000000000 -0.10200646193510500004 -0.00729934401491649874 -0.04206637981256390602 -0.00058620062153897647 -0.00042925755546412570 -0.00013938125599321680
1520530321.199745 0.00000000000000000000 0.00000000000000000000 0.00000000000000000000 0.00000000000000000000 0.00000000000000000000 0.00000000000000000000 -0.09979478017834746140  0.02266676089691581353 -0.04593314878458387013 -0.00064459303432940569 -0.00014003593161574236 -0.00012697688730096488
1520530321.299749 0.00000000000000000000 0.00000000000000000000 0.00000000000000000000 0.00000000000000000000 0.00000000000000000000 0.00000000000000000000 -0.10146342664831607683  0.03559261108086485270 -0.04757739519427975350 -0.00053530586891668874  0.00001334860876179368 -0.00010297074164938275
1520530321.449856 0.00000000000000000000 0.00000000000000000000 0.00000000000000000000 0.00000000000000000000 0.00000000000000000000 0.00000000000000000000 -0.09903238222219631903  0.05465086476300355656 -0.04956229290194459625 -0.00040096553432305047  0.00028609199883017339 -0.00012101230862837534
1520530321.599860 0.00000000000000000000 0.00000000000000000000 0.00000000000000000000 0.00000000000000000000 0.00000000000000000000 0.00000000000000000000 -0.09787598254744639403  0.07918950508564766289 -0.05150815294311296422 -0.00051490103748082303  0.00024758347530955810  0.00005536807428676802
1520530321.699863 0.00000000000000000000 0.00000000000000000000 0.00000000000000000000 0.00000000000000000000 0.00000000000000000000 0.00000000000000000000 -0.09353603730228933488  0.08546447588995367828 -0.05152027872080012366 -0.00044178971731902150  0.00018045408802223851  0.00005873280121531469
1520530321.850152 0.00000000000000000000 0.00000000000000000000 0.00000000000000000000 0.00000000000000000000 0.00000000000000000000 0.00000000000000000000 -0.09621892696001929646  0.08675911127564174541 -0.04909702170295105611 -0.00039605386561714903  0.00014728924275580514  0.00013200965080943986
1520530322.000157 0.00000000000000000000 0.00000000000000000000 0.00000000000000000000 0.00000000000000000000 0.00000000000000000000 0.00000000000000000000 -0.09225655723512488082  0.08470272788951398180 -0.04423159364441234254 -0.00046267367255225849 -0.00016559449718058883  0.00025001649876080397
1520530322.150162 0.00000000000000000000 0.00000000000000000000 0.00000000000000000000 0.00000000000000000000 0.00000000000000000000 0.00000000000000000000 -0.09242995864572682574  0.09728613132647581652 -0.04330007657525831999 -0.00042822913775412329 -0.00001867624423342365  0.00033463289283973272
1520530322.350210 0.00000000000000000000 0.00000000000000000000 0.00000000000000000000 0.00000000000000000000 0.00000000000000000000 0.00000000000000000000 -0.09178712317043137559  0.10344149069805312624 -0.04468310575172246280 -0.00039124233890358226  0.00009968199001532475  0.00015631183986095047
1520530322.550216 0.00000000000000000000 0.00000000000000000000 0.00000000000000000000 0.00000000000000000000 0.00000000000000000000 0.00000000000000000000 -0.08798929426632948192  0.12221204687283797330 -0.04677552953402307201 -0.00026265704414387867  0.00039240408094674486  0.00026064827413271901
1520530322.700026 0.00000000000000000000 0.00000000000000000000 0.00000000000000000000 0.00000000000000000000 0.00000000000000000000 0.00000000000000000000 -0.09670275112754096736  0.09743650859493789562 -0.04727646488851643125 -0.00014658598076592124 -0.00002041771612263094 -0.00001246430788903339
1520530322.850030 0.00000000000000000000 0.00000000000000000000 0.00000000000000000000 0.00000000000000000000 0.00000000000000000000 0.00000000000000000000 -0.10744148562997339613  0.08529741677633154162 -0.04935637130168930853 -0.00013424501489105243 -0.00019477035800580036 -0.00002179419756315679
1520530323.000035 0.00000000000000000000 0.00000000000000000000 0.00000000000000000000 0.00000000000000000000 0.00000000000000000000 0.00000000000000000000 -0.11095394699614706535  0.09658200262236943390 -0.05245432244748000211 -0.00029172545237039007 -0.00005108624973904621 -0.00026451428340273377
1520530323.150076 0.00000000000000000000 0.00000000000000000000 0.00000000000000000000 0.00000000000000000000 0.00000000000000000000 0.00000000000000000000 -0.11757378231916292000  0.10096272923832724788 -0.05353728343912043247 -0.00035266463651410101 -0.00002802898846400907 -0.00048823320154558293
1520530323.300080 0.00000000000000000000 0.00000000000000000000 0.00000000000000000000 0.00000000000000000000 0.00000000000000000000 0.00000000000000000000 -0.12670117007385298113  0.10802887603816983819 -0.05279602825726119331 -0.00032301589563978744  0.00000795662729731316 -0.00043349806074746938
1520530323.450085 0.00000000000000000000 0.00000000000000000000 0.00000000000000000000 0.00000000000000000000 0.00000000000000000000 0.00000000000000000000 -0.12960870873658947300  0.10971660692494270006 -0.05020387903301678362 -0.00036736885558748023 -0.00000245899114588331 -0.00025995306455528516
1520530323.550346 0.00000000000000000000 0.00000000000000000000 0.00000000000000000000 0.00000000000000000000 0.00000000000000000000 0.00000000000000000000 -0.11427102273396522181  0.11978630673703526133 -0.04523287735897906642 -0.00020868421273127684  0.00009263930426246398  0.00002963590845091339
1520530323.650349 0.00000000000000000000 0.00000000000000000000 0.00000000000000000000 0.00000000000000000000 0.00000000000000000000 0.00000000000000000000 -0.11026523069031388125  0.12026234887966477660 -0.04444357102177524943 -0.00020659569635370241  0.00015185723782945747  0.00001159549197414743
1520530323.800354 0.00000000000000000000 0.00000000000000000000 0.00000000000000000000 0.00000000000000000000 0.00000000000000000000 0.00000000000000000000 -0.10685460108206291940  0.13869535149116879458 -0.04586449000217283911 -0.00024889225869347990  0.00032033311901821186  0.00016346649939545481
1520530323.950154 0.00000000000000000000 0.00000000000000000000 0.00000000000000000000 0.00000000000000000000 0.00000000000000000000 0.00000000000000000000 -0.11416775587791264113  0.14384909586325203557 -0.04641369827977293028 -0.00028361471381769811  0.00038938876646547860  0.00023734209939294131
1520530324.150160 0.00000000000000000000 0.00000000000000000000 0.00000000000000000000 0.00000000000000000000 0.00000000000000000000 0.00000000000000000000 -0.12007544594383479097  0.13936023781877385219 -0.04688440826920386995 -0.00022289943686856350  0.00032629742619373517  0.00025549574571539358
1520530324.299908 0.00000000000000000000 0.00000000000000000000 0.00000000000000000000 0.00000000000000000000 0.00000000000000000000 0.00000000000000000000 -0.11739085108097585541  0.12390856297512954642 -0.04709728331615008895 -0.00023094163745470333  0.00026610351844050164  0.00021746577078902629
1520530324.399911 0.00000000000000000000 0.00000000000000000000 0.00000000000000000000 0.00000000000000000000 0.00000000000000000000 0.00000000000000000000 -0.11996958287033002155  0.10583692502315215911 -0.04760290991964987589 -0.00038135830244395279  0.00022311157666516743  0.00028910164433809665
1520530324.499994 0.00000000000000000000 0.00000000000000000000 0.00000000000000000000 0.00000000000000000000 0.00000000000000000000 0.00000000000000000000 -0.12683974077943294123  0.08670764822312289344 -0.04699208347123574880 -0.00039862186202933338  0.00015831189056430712  0.00033313841691643716
1520530324.649919 0.00000000000000000000 0.00000000000000000000 0.00000000000000000000 0.00000000000000000000 0.00000000000000000000 0.00000000000000000000 -0.12865542735687626741  0.07247945118078469307 -0.04586661809345007890 -0.00048433330548456238  0.00011712759931927489  0.00015843619857105446
1520530324.750020 0.00000000000000000000 0.00000000000000000000 0.00000000000000000000 0.00000000000000000000 0.00000000000000000000 0.00000000000000000000 -0.13004803718992635764  0.07172184797381200849 -0.04551467919924070960 -0.00055608855887819919  0.00018928057749187233  0.00009741727122789002
1520530324.900024 0.00000000000000000000 0.00000000000000000000 0.00000000000000000000 0.00000000000000000000 0.00000000000000000000 0.00000000000000000000 -0.13678993388874971515  0.08655404403169253413 -0.04651671511205501819 -0.00071074860631232931  0.00041649289292024861  0.00007967988154182795
1520530325.050029 0.00000000000000000000 0.00000000000000000000 0.00000000000000000000 0.00000000000000000000 0.00000000000000000000 0.00000000000000000000 -0.13656160055617155846  0.09127845505260664960 -0.04592586469803083826 -0.00060482159358993303  0.00038827474553856722  0.00000133270524200160
1520530325.150817 0.00000000000000000000 0.00000000000000000000 0.00000000000000000000 0.00000000000000000000 0.00000000000000000000 0.00000000000000000000 -0.14243834035618219147  0.08671000931647859788 -0.04621208584430328004 -0.00052716433510762838  0.00025408301182294632 -0.00004891230916074981
1520530325.300822 0.00000000000000000000 0.00000000000000000000 0.00000000000000000000 0.00000000000000000000 0.00000000000000000000 0.00000000000000000000 -0.13714497581979309682  0.07654535437506108930 -0.04531677320627988670 -0.00044878036406667245  0.00041451454496953933  0.00013999148532890828
1520530325.450827 0.00000000000000000000 0.00000000000000000000 0.00000000000000000000 0.00000000000000000000 0.00000000000000000000 0.00000000000000000000 -0.13872236014249980651  0.09051218700964584751 -0.04451365338608062605 -0.00046352472810844310  0.00036420406607872379  0.00041938585579091923
1520530325.650917 0.00000000000000000000 0.00000000000000000000 0.00000000000000000000 0.00000000000000000000 0.00000000000000000000 0.00000000000000000000 -0.12775419156885248206  0.06953074826289432075 -0.04140428508370910810 -0.00036697110238187723  0.00026830330037170170  0.00063718065177811205
1520530325.850922 0.00000000000000000000 0.00000000000000000000 0.00000000000000000000 0.00000000000000000000 0.00000000000000000000 0.00000000000000000000 -0.12833308242809732258  0.06859521847600126565 -0.04151266476610528111 -0.00035097266307840790  0.00001127347423104777  0.00046109579411826053
1520530326.000543 0.00000000000000000000 0.00000000000000000000 0.00000000000000000000 0.00000000000000000000 0.00000000000000000000 0.00000000000000000000 -0.12857222555528902141  0.07795479889634379655 -0.04514201478608412255 -0.00018735190577889917 -0.00036911894992857237  0.00030849967550407764
1520530326.150548 0.00000000000000000000 0.00000000000000000000 0.00000000000000000000 0.00000000000000000000 0.00000000000000000000 0.00000000000000000000 -0.12039836003839468614  0.10684389480231148983 -0.04945181785822420212 -0.00008155579791291872 -0.00038573406197430643  0.00015283849537519014
1520530326.300552 0.00000000000000000000 0.00000000000000000000 0.00000000000000000000 0.00000000000000000000 0.00000000000000000000 0.00000000000000000000 -0.11098778172333408076  0.11612702603082653008 -0.05090052408973708142  0.00006480470408752845 -0.00029054361971991182  0.00017488577821828265
1520530326.400206 0.00000000000000000000 0.00000000000000000000 0.00000000000000000000 0.00000000000000000000 0.00000000000000000000 0.00000000000000000000 -0.09795562038319814702  0.11264344360590532179 -0.05108643421732519257  0.00013426455747040262 -0.00022561472123640815  0.00022957541008447762
1520530326.600213 0.00000000000000000000 0.00000000000000000000 0.00000000000000000000 0.00000000000000000000 0.00000000000000000000 0.00000000000000000000 -0.09945135920776281002  0.09247390205706169930 -0.04940996982762337758  0.00018839582575935282 -0.00003870400519620452  0.00021162446566478830
1520530326.750427 0.00000000000000000000 0.00000000000000000000 0.00000000000000000000 0.00000000000000000000 0.00000000000000000000 0.00000000000000000000 -0.09630671933943560359  0.08584603751762903689 -0.04861501376687261261  0.00007834641522272998 -0.00016376603961675172  0.00009467773247868276
1520530327.000434 0.00000000000000000000 0.00000000000000000000 0.00000000000000000000 0.00000000000000000000 0.00000000000000000000 0.00000000000000000000 -0.09290863328619611283  0.10063063280269478328 -0.04484606582073041164 -0.00007322069696399180 -0.00005061550869685854  0.00011310167019531277
1520530327.150431 0.00000000000000000000 0.00000000000000000000 0.00000000000000000000 0.00000000000000000000 0.00000000000000000000 0.00000000000000000000 -0.09054552959063880135  0.10302860856123569055 -0.04274296827609994076 -0.00014385144191947423 -0.00006890981386812162  0.00036035154816353455
1520530327.300436 0.00000000000000000000 0.00000000000000000000 0.00000000000000000000 0.00000000000000000000 0.00000000000000000000 0.00000000000000000000 -0.07832294255804356231  0.09704859794941064766 -0.04208709998520784173 -0.00029805398478557817 -0.00011204873203676196  0.00030600031537138820
1520530327.450441 0.00000000000000000000 0.00000000000000000000 0.00000000000000000000 0.00000000000000000000 0.00000000000000000000 0.00000000000000000000 -0.08322885679596656039  0.10781266888510061819 -0.04495739106970834259 -0.00014720094009963944 -0.00029237015683957542  0.00047720034174344582
1520530327.550090 0.00000000000000000000 0.00000000000000000000 0.00000000000000000000 0.00000000000000000000 0.00000000000000000000 0.00000000000000000000 -0.08168082820261156340  0.11117872188898567098 -0.04799419057364516517  0.00003791469000014322 -0.00043323043719434024  0.00067794890584267349
1520530327.650103 0.00000000000000000000 0.00000000000000000000 0.00000000000000000000 0.00000000000000000000 0.00000000000000000000 0.00000000000000000000 -0.07876982029839849075  0.11052796875808564014 -0.04921582652668336083  0.00002987516668585895 -0.00045877234242581956  0.00075512588043234275
1520530327.750096 0.00000000000000000000 0.00000000000000000000 0.00000000000000000000 0.00000000000000000000 0.00000000000000000000 0.00000000000000000000 -0.07922238063323014390  0.11169740238973090152 -0.05009375042220980817  0.00006499307214520410 -0.00040794494181921884  0.00078914616551468172
1520530327.800097 0.00000000000000000000 0.00000000000000000000 0.00000000000000000000 0.00000000000000000000 0.00000000000000000000 0.00000000000000000000 -0.08439671804948571665  0.11022495009017067857 -0.04993112619199798624  0.00008603925955342820 -0.00043787574241998915  0.00080754452739266621
1520530327.900100 0.00000000000000000000 0.00000000000000000000 0.00000000000000000000 0.00000000000000000000 0.00000000000000000000 0.00000000000000000000 -0.08113964840185503014  0.10360948545622242212 -0.04902439096492738901 -0.00002663859914910339 -0.00046662809054629954  0.00077336125905200454
1520530328.000280 0.00000000000000000000 0.00000000000000000000 0.00000000000000000000 0.00000000000000000000 0.00000000000000000000 0.00000000000000000000 -0.08413109632779736113  0.10197355378230990586 -0.04774201570641287140 -0.00017468318375726304 -0.00023569388366895610  0.00067542729306541702
1520530328.100283 0.00000000000000000000 0.00000000000000000000 0.00000000000000000000 0.00000000000000000000 0.00000000000000000000 0.00000000000000000000 -0.08357437318502579371  0.09723047003938783961 -0.04635069485518101412 -0.00026662741556646391 -0.00017530767729270253  0.00061127719424965404
1520530328.250288 0.00000000000000000000 0.00000000000000000000 0.00000000000000000000 0.00000000000000000000 0.00000000000000000000 0.00000000000000000000 -0.08295335006376121367  0.09840144654527109569 -0.04619121269408993369 -0.00025430070617458750 -0.00010570593701868822  0.00068216390861190702
1520530328.350291 0.00000000000000000000 0.00000000000000000000 0.00000000000000000000 0.00000000000000000000 0.00000000000000000000 0.00000000000000000000 -0.09700342910703151078  0.09461821094896645523 -0.04605184448020224752 -0.00004805075652959345 -0.00005876032001506782  0.00051052602981186801
1520530328.400337 0.00000000000000000000 0.00000000000000000000 0.00000000000000000000 0.00000000000000000000 0.00000000000000000000 0.00000000000000000000 -0.08488854722603446368  0.08721340762512921896 -0.04550687540805537640  0.00007580683724428661 -0.00012869068423604376  0.00046937029879785260
1520530328.500340 0.00000000000000000000 0.00000000000000000000 0.00000000000000000000 0.00000000000000000000 0.00000000000000000000 0.00000000000000000000 -0.08335732148745060577  0.09246167578309066881 -0.04564804726251851796  0.00004972313930010320 -0.00010366701436350878  0.00058379378666502868
1520530328.600344 0.00000000000000000000 0.00000000000000000000 0.00000000000000000000 0.00000000000000000000 0.00000000000000000000 0.00000000000000000000 -0.08010119437167294298  0.08688226288687521393 -0.04498027533179881771  0.00003438987211317923 -0.00002510113984537906  0.00074476000939265562
1520530328.700347 0.00000000000000000000 0.00000000000000000000 0.00000000000000000000 0.00000000000000000000 0.00000000000000000000 0.00000000000000000000 -0.07745831076074981281  0.08057889302552644073 -0.04488935812113931806 0.00011892426755150588 0.00000027913929742489 0.00072994330564998800
1520530328.800086 0.00000000000000000000 0.00000000000000000000 0.00000000000000000000 0.00000000000000000000 0.00000000000000000000 0.00000000000000000000 -0.07671762877397596270  0.07832730603828375049 -0.04523912913168946781 0.00010039933835414479 0.00000302013676888659 0.00072136410825142535
1520530328.950091 0.00000000000000000000 0.00000000000000000000 0.00000000000000000000 0.00000000000000000000 0.00000000000000000000 0.00000000000000000000 -0.08314967501773136427  0.07309055052677691788 -0.04421768951564944428 0.00011346083867308426 0.00000208670863651489 0.00068929500184491770
1520530329.100095 0.00000000000000000000 0.00000000000000000000 0.00000000000000000000 0.00000000000000000000 0.00000000000000000000 0.00000000000000000000 -0.09390016130572974296  0.07518969861307167601 -0.04370359033146446054  0.00010627285833313704 -0.00005089419511535868  0.00074673361319790117
1520530329.200044 0.00000000000000000000 0.00000000000000000000 0.00000000000000000000 0.00000000000000000000 0.00000000000000000000 0.00000000000000000000 -0.09184413093464810496  0.07516785756079598368 -0.04377168408638334313  0.00011072931214982094 -0.00003263602800047929  0.00074822861944334133
1520530329.300047 0.00000000000000000000 0.00000000000000000000 0.00000000000000000000 0.00000000000000000000 0.00000000000000000000 0.00000000000000000000 -0.08658179598925110076  0.07331775341870275242 -0.04338341592230732235  0.00016522814713627274 -0.00003736740885364157  0.00086447087711850846
1520530329.400050 0.00000000000000000000 0.00000000000000000000 0.00000000000000000000 0.00000000000000000000 0.00000000000000000000 0.00000000000000000000 -0.08212439546065283813  0.07110560654542619208 -0.04350516305167957676  0.00008232618879469613 -0.00008622471641305859  0.00090321042743735135
1520530329.600097 0.00000000000000000000 0.00000000000000000000 0.00000000000000000000 0.00000000000000000000 0.00000000000000000000 0.00000000000000000000 -0.08114519983568746486  0.07155774959451598194 -0.04387769744539048167  0.00005967577890453029 -0.00013691764927028014  0.00083240669677271618
1520530329.700100 0.00000000000000000000 0.00000000000000000000 0.00000000000000000000 0.00000000000000000000 0.00000000000000000000 0.00000000000000000000 -0.08264358695401874400  0.06592472303397678424 -0.04309611388222558959  0.00010701155572417442 -0.00018589934210080702  0.00091871418141632462
1520530329.800104 0.00000000000000000000 0.00000000000000000000 0.00000000000000000000 0.00000000000000000000 0.00000000000000000000 0.00000000000000000000 -0.08077643994185995657  0.06591722408514526232 -0.04341617041689966455  0.00009214934992911220 -0.00022566803579612054  0.00114478985359149610
1520530329.850105 0.00000000000000000000 0.00000000000000000000 0.00000000000000000000 0.00000000000000000000 0.00000000000000000000 0.00000000000000000000 -0.08049630252255286778  0.06909209010335363998 -0.04387970338470808390  0.00005687176158719716 -0.00015989000454423371  0.00104220466534740903
1520530329.950109 0.00000000000000000000 0.00000000000000000000 0.00000000000000000000 0.00000000000000000000 0.00000000000000000000 0.00000000000000000000 -0.08611893511262051770  0.07400245489032496182 -0.04469532831062945216  0.00003824859456048803 -0.00016903687407246478  0.00092920250400520201
1520530330.050161 0.00000000000000000000 0.00000000000000000000 0.00000000000000000000 0.00000000000000000000 0.00000000000000000000 0.00000000000000000000 -0.08629771043650627527  0.07464543148218573398 -0.04507613750208028930  0.00004716742775586949 -0.00017372408546594795  0.00090541707742809480
1520530330.150164 0.00000000000000000000 0.00000000000000000000 0.00000000000000000000 0.00000000000000000000 0.00000000000000000000 0.00000000000000000000 -0.07960323070446159721  0.07462366049374428989 -0.04450089087021502632  0.00004276192530285571 -0.00008467481003463290  0.00084824125036769783
1520530330.250167 0.00000000000000000000 0.00000000000000000000 0.00000000000000000000 0.00000000000000000000 0.00000000000000000000 0.00000000000000000000 -0.07543926567877003164  0.06819333982833838959 -0.04372448929336766876  0.00003210594808688724 -0.00002105385915281709  0.00085551615262835664
1520530330.350170 0.00000000000000000000 0.00000000000000000000 0.00000000000000000000 0.00000000000000000000 0.00000000000000000000 0.00000000000000000000 -0.07381584240613123238  0.06477109998534935631 -0.04311868881480852150 -0.00004458762821176495 -0.00004080427523587771  0.00083041593863571303
1520530330.450787 0.00000000000000000000 0.00000000000000000000 0.00000000000000000000 0.00000000000000000000 0.00000000000000000000 0.00000000000000000000 -0.07208246792892579469  0.06430498606496927450 -0.04320835437012571917 -0.00002649497750210990 -0.00002706520590600535  0.00086841713222811563
1520530330.500788 0.00000000000000000000 0.00000000000000000000 0.00000000000000000000 0.00000000000000000000 0.00000000000000000000 0.00000000000000000000 -0.07357165691299624721  0.06909999595940849448 -0.04348510708336712771 -0.00006829371136343145  0.00008873120277180266  0.00098970285460365094
1520530330.600792 0.00000000000000000000 0.00000000000000000000 0.00000000000000000000 0.00000000000000000000 0.00000000000000000000 0.00000000000000000000 -0.07437908084358284266  0.06896280622930499316 -0.04346910807903205803 -0.00006854414726129867  0.00009176876889921126  0.00102014418692693092
1520530330.700795 0.00000000000000000000 0.00000000000000000000 0.00000000000000000000 0.00000000000000000000 0.00000000000000000000 0.00000000000000000000 -0.07722237164137757404  0.07315963836473118875 -0.04349640001338964113 -0.00008698321938851291 -0.00001765974148933774  0.00111832462982190640
1520530330.750797 0.00000000000000000000 0.00000000000000000000 0.00000000000000000000 0.00000000000000000000 0.00000000000000000000 0.00000000000000000000 -0.07683651630851880132  0.07175473174572664925 -0.04342879141942838916 -0.00004619568109771770 -0.00003114769640579297  0.00110561070020271800
1520530330.850367 0.00000000000000000000 0.00000000000000000000 0.00000000000000000000 0.00000000000000000000 0.00000000000000000000 0.00000000000000000000 -0.07910881571154182446  0.07185058112973757849 -0.04408362480574718606 -0.00002466504615416772 -0.00011215781438406369  0.00108721276023170045
1520530330.900277 0.00000000000000000000 0.00000000000000000000 0.00000000000000000000 0.00000000000000000000 0.00000000000000000000 0.00000000000000000000 -0.07788330285823195920  0.06663046053470293717 -0.04409833505232942097 -0.00015178518342097793 -0.00017233714010770254  0.00115770759082764398
1520530331.000280 0.00000000000000000000 0.00000000000000000000 0.00000000000000000000 0.00000000000000000000 0.00000000000000000000 0.00000000000000000000 -0.07778568612390483750  0.06532767494379097817 -0.04399819378159736810 -0.00012253889679331330 -0.00020558462079534921  0.00116901077984691930
1520530331.100283 0.00000000000000000000 0.00000000000000000000 0.00000000000000000000 0.00000000000000000000 0.00000000000000000000 0.00000000000000000000 -0.07638520003954150928  0.06533788225723279053 -0.04374581618926177279 -0.00014589465939988594 -0.00017020755342908876  0.00109945374564219211
1520530331.200286 0.00000000000000000000 0.00000000000000000000 0.00000000000000000000 0.00000000000000000000 0.00000000000000000000 0.00000000000000000000 -0.07918908792818178666  0.06207579671266714311 -0.04363556422556809367 -0.00017172054595250615 -0.00019919120788876511  0.00105497154173629063
1520530331.300736 0.00000000000000000000 0.00000000000000000000 0.00000000000000000000 0.00000000000000000000 0.00000000000000000000 0.00000000000000000000 -0.08053838937623261640  0.06202480855768018053 -0.04317301451526524975 -0.00020586692112421011 -0.00027817111506544758  0.00105483295272666981
1520530331.400740 0.00000000000000000000 0.00000000000000000000 0.00000000000000000000 0.00000000000000000000 0.00000000000000000000 0.00000000000000000000 -0.08015310400467781649  0.06352410939666866541 -0.04295626515861077077 -0.00019684601185684562 -0.00023168230518631473  0.00097305841854409896
1520530331.450741 0.00000000000000000000 0.00000000000000000000 0.00000000000000000000 0.00000000000000000000 0.00000000000000000000 0.00000000000000000000 -0.07981101322030831335  0.06394482810705542919 -0.04304582241345945859 -0.00027276095746338552 -0.00031626665524676933  0.00091403412358317157
1520530331.550744 0.00000000000000000000 0.00000000000000000000 0.00000000000000000000 0.00000000000000000000 0.00000000000000000000 0.00000000000000000000 -0.08174956817174351686  0.06277961186124901560 -0.04349714908119759610 -0.00031320290310273512 -0.00035475647205133716  0.00091769947147682634
1520530331.600746 0.00000000000000000000 0.00000000000000000000 0.00000000000000000000 0.00000000000000000000 0.00000000000000000000 0.00000000000000000000 -0.08236807802556697644  0.06342234320710063433 -0.04363494175561349192 -0.00024066167194221303 -0.00042680019428764784  0.00089279047008813668
1520530331.700481 0.00000000000000000000 0.00000000000000000000 0.00000000000000000000 0.00000000000000000000 0.00000000000000000000 0.00000000000000000000 -0.08109519699875478160  0.06272100292655841125 -0.04386758634132796597 -0.00015634325449953983 -0.00037060242638940711  0.00087165363345942609
1520530331.750483 0.00000000000000000000 0.00000000000000000000 0.00000000000000000000 0.00000000000000000000 0.00000000000000000000 0.00000000000000000000 -0.08194918861632563556  0.06498277440594471543 -0.04424335222815983099 -0.00016128924241014058 -0.00026069511614364914  0.00076577561721671373
1520530331.850486 0.00000000000000000000 0.00000000000000000000 0.00000000000000000000 0.00000000000000000000 0.00000000000000000000 0.00000000000000000000 -0.08331397304796819836  0.06495691114316387571 -0.04423802999938919456 -0.00020597519459410527 -0.00015286570893463007  0.00076406150415182252
1520530331.900488 0.00000000000000000000 0.00000000000000000000 0.00000000000000000000 0.00000000000000000000 0.00000000000000000000 0.00000000000000000000 -0.08307749573082204297  0.06646084072795598041 -0.04438553753721763417 -0.00022508746751681008 -0.00003166190547347463  0.00072789921240150660
1520530332.000491 0.00000000000000000000 0.00000000000000000000 0.00000000000000000000 0.00000000000000000000 0.00000000000000000000 0.00000000000000000000 -0.08402331708184891668  0.06747591739898500807 -0.04463391215107618409 -0.00022831648606092358 -0.00001446688572954562  0.00065825414959447585
1520530332.100388 0.00000000000000000000 0.00000000000000000000 0.00000000000000000000 0.00000000000000000000 0.00000000000000000000 0.00000000000000000000 -0.08404119978950455594  0.06446364790415011481 -0.04416097015344325194 -0.00018438537579445346 -0.00001770924760765074  0.00073357957358674748
1520530332.200392 0.00000000000000000000 0.00000000000000000000 0.00000000000000000000 0.00000000000000000000 0.00000000000000000000 0.00000000000000000000 -0.08165678093055042663  0.06616801581266464061 -0.04339732369784664312 -0.00012278617287385092 -0.00004970586141294048  0.00072929102131113577
1520530332.300399 0.00000000000000000000 0.00000000000000000000 0.00000000000000000000 0.00000000000000000000 0.00000000000000000000 0.00000000000000000000 -0.07771278804699523202  0.06634752101865420970 -0.04247728373945650060 -0.00010049638748104552 -0.00006295303790798719  0.00069988853573193361
1520530332.400401 0.00000000000000000000 0.00000000000000000000 0.00000000000000000000 0.00000000000000000000 0.00000000000000000000 0.00000000000000000000 -0.07403323712938036927  0.06868223300375767004 -0.04215313620043113080 -0.00008716164427611548 -0.00004157069719352974  0.00072314110306883456
1520530332.500483 0.00000000000000000000 0.00000000000000000000 0.00000000000000000000 0.00000000000000000000 0.00000000000000000000 0.00000000000000000000 -0.07207137961515461266  0.06884538585276142597 -0.04236596251743639241 -0.00009885493157935549 -0.00002744523864280748  0.00074126306009875066
1520530332.600486 0.00000000000000000000 0.00000000000000000000 0.00000000000000000000 0.00000000000000000000 0.00000000000000000000 0.00000000000000000000 -0.07275357126964490662  0.06901239476360139513 -0.04279081997003244403 -0.00006549213518213560 -0.00005103152400757444  0.00077241678443185709
1520530332.650488 0.00000000000000000000 0.00000000000000000000 0.00000000000000000000 0.00000000000000000000 0.00000000000000000000 0.00000000000000000000 -0.07302723345413199285  0.06683455210063937724 -0.04306755419637380705 -0.00010214325343889102 -0.00000378540946388535  0.00086851495325290470
1520530332.750491 0.00000000000000000000 0.00000000000000000000 0.00000000000000000000 0.00000000000000000000 0.00000000000000000000 0.00000000000000000000 -0.07307370595596952845  0.06471243910766780183 -0.04344151790644663197 -0.00006795135038454007 -0.00008599217401682944  0.00089543780649417300
1520530332.850494 0.00000000000000000000 0.00000000000000000000 0.00000000000000000000 0.00000000000000000000 0.00000000000000000000 0.00000000000000000000 -0.07162160674142172001  0.06347957721280876597 -0.04372489643598801573 -0.00010499958570388455 -0.00016811383113239311  0.00083850676784891828
1520530332.950166 0.00000000000000000000 0.00000000000000000000 0.00000000000000000000 0.00000000000000000000 0.00000000000000000000 0.00000000000000000000 -0.06924193671697391472  0.05921431146331397610 -0.04404148146906392003 -0.00015224588892879371 -0.00020731478070285791  0.00083840446361010089
1520530333.050169 0.00000000000000000000 0.00000000000000000000 0.00000000000000000000 0.00000000000000000000 0.00000000000000000000 0.00000000000000000000 -0.06742897647204500189  0.05481248822110412755 -0.04392950498868675863 -0.00012828706441342516 -0.00022504242605826016  0.00095606705072005544
1520530333.150173 0.00000000000000000000 0.00000000000000000000 0.00000000000000000000 0.00000000000000000000 0.00000000000000000000 0.00000000000000000000 -0.07010277172710112359  0.05424005771282862376 -0.04325199044494134476 -0.00007824432063170563 -0.00016440674943050260  0.00097987694497657330
1520530333.250175 0.00000000000000000000 0.00000000000000000000 0.00000000000000000000 0.00000000000000000000 0.00000000000000000000 0.00000000000000000000 -0.07151664320075039327  0.05451158682334477507 -0.04249528486854895620 -0.00004325115621309755 -0.00015812155526748409  0.00097251061686684244
1520530333.350610 0.00000000000000000000 0.00000000000000000000 0.00000000000000000000 0.00000000000000000000 0.00000000000000000000 0.00000000000000000000 -0.07188968339870739632  0.05383387577992854861 -0.04205414284341144754 -0.00004852028293179349 -0.00016908854602967578  0.00092177611931177760
1520530333.400612 0.00000000000000000000 0.00000000000000000000 0.00000000000000000000 0.00000000000000000000 0.00000000000000000000 0.00000000000000000000 -0.07182295055185250465  0.05377544044731572687 -0.04204716467915853989 -0.00004635898785612994 -0.00019061145110249318  0.00090604424244533264
1520530333.500615 0.00000000000000000000 0.00000000000000000000 0.00000000000000000000 0.00000000000000000000 0.00000000000000000000 0.00000000000000000000 -0.07069226417080531899  0.05323017103734184463 -0.04233170190782117176 -0.00006212111354838526 -0.00019420256063716398  0.00095224769972109425
1520530333.650619 0.00000000000000000000 0.00000000000000000000 0.00000000000000000000 0.00000000000000000000 0.00000000000000000000 0.00000000000000000000 -0.07155844130019015092  0.05290007146482782197 -0.04260229985665825447 -0.00000184199111685137 -0.00013339323904293767  0.00102358956436472952
1520530333.750542 0.00000000000000000000 0.00000000000000000000 0.00000000000000000000 0.00000000000000000000 0.00000000000000000000 0.00000000000000000000 -0.07168761346989979688  0.05452996848701198440 -0.04283154866023359403 -0.00005385694793408916 -0.00006958747383545608  0.00097514629860447836
1520530333.800544 0.00000000000000000000 0.00000000000000000000 0.00000000000000000000 0.00000000000000000000 0.00000000000000000000 0.00000000000000000000 -0.07231031400458917680  0.05664977802895784093 -0.04288850032595069306 -0.00010097601631969366 -0.00001897653213383944  0.00077823993409424045
1520530333.900547 0.00000000000000000000 0.00000000000000000000 0.00000000000000000000 0.00000000000000000000 0.00000000000000000000 0.00000000000000000000 -0.07220698730017295619  0.05716599345214361250 -0.04293190779071149460 -0.00008605818368442143  0.00000568141096239591  0.00081735044408223333
1520530333.950549 0.00000000000000000000 0.00000000000000000000 0.00000000000000000000 0.00000000000000000000 0.00000000000000000000 0.00000000000000000000 -0.06960319134776558891  0.05889918544921336069 -0.04298120592527477496 -0.00004767752291095197  0.00003613778259468153  0.00073281129996402995
1520530334.050551 0.00000000000000000000 0.00000000000000000000 0.00000000000000000000 0.00000000000000000000 0.00000000000000000000 0.00000000000000000000 -0.06841881671148664079  0.05821105720626305879 -0.04282309051909945208 0.00001802293768016341 0.00003721464732342173 0.00073979293874091971
1520530334.150218 0.00000000000000000000 0.00000000000000000000 0.00000000000000000000 0.00000000000000000000 0.00000000000000000000 0.00000000000000000000 -0.06877376545705880806  0.05452579613578857620 -0.04232426616814056325  0.00007261560348550726 -0.00004602020141479653  0.00077935255692700438
1520530334.250221 0.00000000000000000000 0.00000000000000000000 0.00000000000000000000 0.00000000000000000000 0.00000000000000000000 0.00000000000000000000 -0.07123121680607952255  0.05176526051086880603 -0.04302042693875168106  0.00004987080853198849 -0.00013669975233156285  0.00088070777942920043
1520530334.300222 0.00000000000000000000 0.00000000000000000000 0.00000000000000000000 0.00000000000000000000 0.00000000000000000000 0.00000000000000000000 -0.07178159453356260100  0.05066032118383180516 -0.04404623068217298348  0.00008924456536743389 -0.00023537941800803657  0.00096143820363124588
1520530334.400225 0.00000000000000000000 0.00000000000000000000 0.00000000000000000000 0.00000000000000000000 0.00000000000000000000 0.00000000000000000000 -0.07129420954909021502  0.05041968129476322169 -0.04419460500671608394  0.00009244139156240336 -0.00025496557105983577  0.00093570051597054898
1520530334.500228 0.00000000000000000000 0.00000000000000000000 0.00000000000000000000 0.00000000000000000000 0.00000000000000000000 0.00000000000000000000 -0.07173695917100224306  0.05047612680629010029 -0.04468126511829105529 -0.00005693668012755749 -0.00030785521926493818  0.00079726208510261557
1520530334.600088 0.00000000000000000000 0.00000000000000000000 0.00000000000000000000 0.00000000000000000000 0.00000000000000000000 0.00000000000000000000 -0.07341427256610366658  0.04944708986904362835 -0.04513848927672534789 -0.00012848193898218148 -0.00034241758932645425  0.00069639434976919508
1520530334.700091 0.00000000000000000000 0.00000000000000000000 0.00000000000000000000 0.00000000000000000000 0.00000000000000000000 0.00000000000000000000 -0.07424166204226587129  0.05052125468594689806 -0.04589485014421221254 -0.00026871628329233377 -0.00031497648555930247  0.00066371584433389506
1520530334.800094 0.00000000000000000000 0.00000000000000000000 0.00000000000000000000 0.00000000000000000000 0.00000000000000000000 0.00000000000000000000 -0.07351326447181674717  0.05155601348966878938 -0.04656193798689072655 -0.00038520970689938540 -0.00039921410557150239  0.00065551817530285698
1520530334.900097 0.00000000000000000000 0.00000000000000000000 0.00000000000000000000 0.00000000000000000000 0.00000000000000000000 0.00000000000000000000 -0.07344071973010728172  0.05356252475895794535 -0.04694980240823082296 -0.00039496411931105125 -0.00048143820642627266  0.00075480224070202152
1520530335.000929 0.00000000000000000000 0.00000000000000000000 0.00000000000000000000 0.00000000000000000000 0.00000000000000000000 0.00000000000000000000 -0.07451741154241019183  0.05619083261596403978 -0.04563434709256778549 -0.00044982288114571060 -0.00041588586175280541  0.00078283923834537893
1520530335.100933 0.00000000000000000000 0.00000000000000000000 0.00000000000000000000 0.00000000000000000000 0.00000000000000000000 0.00000000000000000000 -0.07265939670372027759  0.05774509806301089676 -0.04461356324708878884 -0.00036023018188020606 -0.00040776827790599631  0.00067742014137133193
1520530335.200936 0.00000000000000000000 0.00000000000000000000 0.00000000000000000000 0.00000000000000000000 0.00000000000000000000 0.00000000000000000000 -0.07254112022506384316  0.05790102571592725678 -0.04381317152979900820 -0.00018549501777556218 -0.00036185796316367099  0.00078485372455107134
1520530335.300938 0.00000000000000000000 0.00000000000000000000 0.00000000000000000000 0.00000000000000000000 0.00000000000000000000 0.00000000000000000000 -0.07103652545505870219  0.05728738888563469217 -0.04332617540225230934 -0.00012342633040720956 -0.00029363511667291188  0.00084070366823048184
1520530335.401458 0.00000000000000000000 0.00000000000000000000 0.00000000000000000000 0.00000000000000000000 0.00000000000000000000 0.00000000000000000000 -0.06909434758879796912  0.05847605030246453423 -0.04322939622400247955 -0.00009628185865602578 -0.00018117578630769690  0.00098188843089892092
1520530335.501461 0.00000000000000000000 0.00000000000000000000 0.00000000000000000000 0.00000000000000000000 0.00000000000000000000 0.00000000000000000000 -0.06764892601166681840  0.05683125905583744780 -0.04317366951437673350 -0.00001474776389310499 -0.00006889167254361116  0.00095051320500914654
1520530335.601512 0.00000000000000000000 0.00000000000000000000 0.00000000000000000000 0.00000000000000000000 0.00000000000000000000 0.00000000000000000000 -0.06677032442253799660  0.05688105820800230805 -0.04346881867830982432 -0.00012281098604754583 -0.00001652093809426137  0.00093911961087271925
1520530335.750223 0.00000000000000000000 0.00000000000000000000 0.00000000000000000000 0.00000000000000000000 0.00000000000000000000 0.00000000000000000000 -0.06354401918047969389  0.05530373843298753284 -0.04432483958838762117 -0.00019296785924956099  0.00004780520736700637  0.00100371691822420130
1520530335.800224 0.00000000000000000000 0.00000000000000000000 0.00000000000000000000 0.00000000000000000000 0.00000000000000000000 0.00000000000000000000 -0.06488037308408851900  0.05784988585273024425 -0.04459342245779388675 -0.00017068488231895493 -0.00011896667563423026  0.00098067412311607155
1520530335.900227 0.00000000000000000000 0.00000000000000000000 0.00000000000000000000 0.00000000000000000000 0.00000000000000000000 0.00000000000000000000 -0.06538893344370624860  0.05617518268137753484 -0.04601845891607662942 -0.00014907264060540500 -0.00018550673592238642  0.00100536097966659704
1520530336.000230 0.00000000000000000000 0.00000000000000000000 0.00000000000000000000 0.00000000000000000000 0.00000000000000000000 0.00000000000000000000 -0.06514186056397684721  0.05731672624750098338 -0.04646574470483252201 -0.00014356817294670175 -0.00012800773851242577  0.00096587839900791502
1520530336.050232 0.00000000000000000000 0.00000000000000000000 0.00000000000000000000 0.00000000000000000000 0.00000000000000000000 0.00000000000000000000 -0.06381889437307633473  0.05674830561875052887 -0.04641177266623890130 -0.00009921173056048321 -0.00009944173705644300  0.00101473641089290132
1520530336.150177 0.00000000000000000000 0.00000000000000000000 0.00000000000000000000 0.00000000000000000000 0.00000000000000000000 0.00000000000000000000 -0.06235649748551527760  0.05694359771904854844 -0.04602700894425475892 -0.00016013050048365747 -0.00007589513439624818  0.00106088432566653671
1520530336.250180 0.00000000000000000000 0.00000000000000000000 0.00000000000000000000 0.00000000000000000000 0.00000000000000000000 0.00000000000000000000 -0.06085917761464700038  0.05816409643514278138 -0.04553566265645986322 -0.00023484558160708039 -0.00015485756575426234  0.00119425656976080829
1520530336.350183 0.00000000000000000000 0.00000000000000000000 0.00000000000000000000 0.00000000000000000000 0.00000000000000000000 0.00000000000000000000 -0.06026512183072200296  0.05739059497940745408 -0.04419377758248485555 -0.00025698307363019500 -0.00018478580592950101  0.00130847024871665290
1520530336.450186 0.00000000000000000000 0.00000000000000000000 0.00000000000000000000 0.00000000000000000000 0.00000000000000000000 0.00000000000000000000 -0.06109023090271305939  0.05651128968154051080 -0.04286561911409231956 -0.00029650190238713307 -0.00018081132305702296  0.00126859856475952464
1520530336.550582 0.00000000000000000000 0.00000000000000000000 0.00000000000000000000 0.00000000000000000000 0.00000000000000000000 0.00000000000000000000 -0.06180251400451362842  0.05591038421141316522 -0.04312916188645689319 -0.00022927065536247469 -0.00016524338938853159  0.00116178660327000659
1520530336.650586 0.00000000000000000000 0.00000000000000000000 0.00000000000000000000 0.00000000000000000000 0.00000000000000000000 0.00000000000000000000 -0.06376228142193347825  0.05730766396506326715 -0.04393789901048825858 -0.00012158480259581275 -0.00018870194246825288  0.00113978618271169435
1520530336.750588 0.00000000000000000000 0.00000000000000000000 0.00000000000000000000 0.00000000000000000000 0.00000000000000000000 0.00000000000000000000 -0.06666030707027786884  0.05818397389241364986 -0.04469506976427034539 -0.00010499665854278620 -0.00005887948577380524  0.00115598982156943603
1520530336.850591 0.00000000000000000000 0.00000000000000000000 0.00000000000000000000 0.00000000000000000000 0.00000000000000000000 0.00000000000000000000 -0.06642888621923911940  0.05551735811060167641 -0.04422008743460444091 -0.00001477162787321032 -0.00001487526644131381  0.00114499125068770772
1520530336.950594 0.00000000000000000000 0.00000000000000000000 0.00000000000000000000 0.00000000000000000000 0.00000000000000000000 0.00000000000000000000 -0.06674621898541986675  0.05378004651505337991 -0.04435301108153563016  0.00007123639917926392 -0.00004453656231163771  0.00103086126252049655
1520530337.000258 0.00000000000000000000 0.00000000000000000000 0.00000000000000000000 0.00000000000000000000 0.00000000000000000000 0.00000000000000000000 -0.06674935503394875680  0.05327518375945888146 -0.04534119696266573213  0.00007551754091323173 -0.00009068099135161474  0.00104984541890876227
1520530337.100266 0.00000000000000000000 0.00000000000000000000 0.00000000000000000000 0.00000000000000000000 0.00000000000000000000 0.00000000000000000000 -0.06587538887557775613  0.05468646031396372231 -0.04535153616513494523  0.00010339385825993285 -0.00009296167062507258  0.00101818903776863682
1520530337.200351 0.00000000000000000000 0.00000000000000000000 0.00000000000000000000 0.00000000000000000000 0.00000000000000000000 0.00000000000000000000 -0.06459510446828695129  0.05351762953238881071 -0.04544745636569255676  0.00014173742910559656 -0.00012964982504947551  0.00085004080319392840
1520530337.300267 0.00000000000000000000 0.00000000000000000000 0.00000000000000000000 0.00000000000000000000 0.00000000000000000000 0.00000000000000000000 -0.06352121093731695478  0.05331745725608246639 -0.04485401184859217488  0.00024226220048894246 -0.00011357353552903017  0.00072966929899392083
1520530337.400301 0.00000000000000000000 0.00000000000000000000 0.00000000000000000000 0.00000000000000000000 0.00000000000000000000 0.00000000000000000000 -0.06228127630655701241  0.05307346412326104101 -0.04445975857545191035  0.00026147760449049431 -0.00016324394736177888  0.00068898843896032238
1520530337.500304 0.00000000000000000000 0.00000000000000000000 0.00000000000000000000 0.00000000000000000000 0.00000000000000000000 0.00000000000000000000 -0.06350094232071193390  0.05234735273955575668 -0.04451305806813014854  0.00021402370646764448 -0.00018684940181278834  0.00066264147904782046
1520530337.600307 0.00000000000000000000 0.00000000000000000000 0.00000000000000000000 0.00000000000000000000 0.00000000000000000000 0.00000000000000000000 -0.06251420562799958613  0.05212073430185850537 -0.04332724689369173848  0.00016660844043304732 -0.00023162752843474102  0.00067725959896904997
1520530337.700310 0.00000000000000000000 0.00000000000000000000 0.00000000000000000000 0.00000000000000000000 0.00000000000000000000 0.00000000000000000000 -0.05977737218380396733  0.05058416166433113426 -0.04169782079966325578  0.00019195614503952265 -0.00018967698181072238  0.00072314059930445160
1520530337.800854 0.00000000000000000000 0.00000000000000000000 0.00000000000000000000 0.00000000000000000000 0.00000000000000000000 0.00000000000000000000 -0.05851138280151234328  0.04787473938605810858 -0.04111499775116659455  0.00015691140302515524 -0.00015267189868179362  0.00076263334101119647
1520530337.900857 0.00000000000000000000 0.00000000000000000000 0.00000000000000000000 0.00000000000000000000 0.00000000000000000000 0.00000000000000000000 -0.05652181293586364813  0.04714066319850469117 -0.04044472459347752541  0.00016438856504960716 -0.00018727220534474229  0.00084865979441909505
1520530338.000860 0.00000000000000000000 0.00000000000000000000 0.00000000000000000000 0.00000000000000000000 0.00000000000000000000 0.00000000000000000000 -0.05507690307531461216  0.04380855782654041741 -0.04002245111818442808  0.00012409903003733616 -0.00014786746637279735  0.00090572666438576519
1520530338.100863 0.00000000000000000000 0.00000000000000000000 0.00000000000000000000 0.00000000000000000000 0.00000000000000000000 0.00000000000000000000 -0.05424888891121239926  0.04356438138757878081 -0.04038388492093641230  0.00006905725433614272 -0.00009258395312667151  0.00102318636718610827
1520530338.200470 0.00000000000000000000 0.00000000000000000000 0.00000000000000000000 0.00000000000000000000 0.00000000000000000000 0.00000000000000000000 -0.05267438120246369093  0.04364771266004417033 -0.04114095014574991466  0.00010092702061505093 -0.00011661012173384319  0.00102976209249018851
1520530338.250473 0.00000000000000000000 0.00000000000000000000 0.00000000000000000000 0.00000000000000000000 0.00000000000000000000 0.00000000000000000000 -0.05028371954151043127  0.04654642661063115167 -0.04258993761464440614  0.00011647559429979961 -0.00013638438384789946  0.00096360639492813543
1520530338.350476 0.00000000000000000000 0.00000000000000000000 0.00000000000000000000 0.00000000000000000000 0.00000000000000000000 0.00000000000000000000 -0.04992767441614128637  0.04698823168871381351 -0.04290511020586478680  0.00020635546780793093 -0.00016203842239044219  0.00088693755082412684
1520530338.450479 0.00000000000000000000 0.00000000000000000000 0.00000000000000000000 0.00000000000000000000 0.00000000000000000000 0.00000000000000000000 -0.05058128278882540602  0.04627324074562796929 -0.04313069133298234881  0.00020908476313545059 -0.00028621121584491190  0.00085221919153390666
1520530338.550482 0.00000000000000000000 0.00000000000000000000 0.00000000000000000000 0.00000000000000000000 0.00000000000000000000 0.00000000000000000000 -0.04988285296398428659  0.04802250699101213993 -0.04402173567195814124  0.00018315591319825988 -0.00039731014356470039  0.00098076865395775158
1520530338.650261 0.00000000000000000000 0.00000000000000000000 0.00000000000000000000 0.00000000000000000000 0.00000000000000000000 0.00000000000000000000 -0.04917110788911251834  0.04800985681941636468 -0.04485906697441041646  0.00010227900057885047 -0.00043740231678371947  0.00094523518231748424
1520530338.750266 0.00000000000000000000 0.00000000000000000000 0.00000000000000000000 0.00000000000000000000 0.00000000000000000000 0.00000000000000000000 -0.04847882261703855000  0.04795152104070060650 -0.04485270507640963522  0.00012239079556800535 -0.00047134468720988606  0.00093561336125152215
1520530338.850267 0.00000000000000000000 0.00000000000000000000 0.00000000000000000000 0.00000000000000000000 0.00000000000000000000 0.00000000000000000000 -0.04900120821061183102  0.04590239342780268877 -0.04477463909116741886  0.00009903518781836143 -0.00047571682878167659  0.00098152843646746413
1520530338.950270 0.00000000000000000000 0.00000000000000000000 0.00000000000000000000 0.00000000000000000000 0.00000000000000000000 0.00000000000000000000 -0.04672163315837405545  0.04996070492448426159 -0.04511794848128223429  0.00015316541126650919 -0.00055425628794209447  0.00109175547273160606
1520530339.050959 0.00000000000000000000 0.00000000000000000000 0.00000000000000000000 0.00000000000000000000 0.00000000000000000000 0.00000000000000000000 -0.04576453335327481525  0.04920504078776662821 -0.04482847049359865721  0.00013136544282628401 -0.00049371174147429882  0.00111751983544988742
1520530339.150962 0.00000000000000000000 0.00000000000000000000 0.00000000000000000000 0.00000000000000000000 0.00000000000000000000 0.00000000000000000000 -0.04495607278642776289  0.05144503444905654949 -0.04437996959388539053  0.00010756088867778946 -0.00039973970751376961  0.00112664454341098569
1520530339.250965 0.00000000000000000000 0.00000000000000000000 0.00000000000000000000 0.00000000000000000000 0.00000000000000000000 0.00000000000000000000 -0.04575132477732946068  0.04979660958155818218 -0.04330227245634459682  0.00013515213165701527 -0.00032032376070452462  0.00116333586619960959
1520530339.350968 0.00000000000000000000 0.00000000000000000000 0.00000000000000000000 0.00000000000000000000 0.00000000000000000000 0.00000000000000000000 -0.04537828227143465148  0.05076908929400582998 -0.04265046921570401356  0.00011362185558702786 -0.00037120908816192275  0.00120064524099655601
1520530339.451687 0.00000000000000000000 0.00000000000000000000 0.00000000000000000000 0.00000000000000000000 0.00000000000000000000 0.00000000000000000000 -0.04567871883475737443  0.05321272250722769437 -0.04192816993851267160  0.00018078254263936385 -0.00036787638251957277  0.00113672678069808605
1520530339.551690 0.00000000000000000000 0.00000000000000000000 0.00000000000000000000 0.00000000000000000000 0.00000000000000000000 0.00000000000000000000 -0.04539827815756118656  0.05565398905009174418 -0.04096971717495784260  0.00028460031251226870 -0.00039058745142529728  0.00114428672170125627
1520530339.651693 0.00000000000000000000 0.00000000000000000000 0.00000000000000000000 0.00000000000000000000 0.00000000000000000000 0.00000000000000000000 -0.04474819906302755779  0.05898536116952157737 -0.04004411372906395428  0.00025416704708621711 -0.00042569442673237861  0.00119457963717583648
1520530339.751697 0.00000000000000000000 0.00000000000000000000 0.00000000000000000000 0.00000000000000000000 0.00000000000000000000 0.00000000000000000000 -0.04299736790311913665  0.05825632056315551560 -0.04078998464342718788  0.00020381585701703651 -0.00025915903246548924  0.00112145618944540734
1520530339.801698 0.00000000000000000000 0.00000000000000000000 0.00000000000000000000 0.00000000000000000000 0.00000000000000000000 0.00000000000000000000 -0.04433285614562778448  0.05495051251783773794 -0.04152440875014222488  0.00015090553642145050 -0.00021710311931616232  0.00111568220116076426
1520530339.901057 0.00000000000000000000 0.00000000000000000000 0.00000000000000000000 0.00000000000000000000 0.00000000000000000000 0.00000000000000000000 -0.04566125979500066517  0.05215116752500686959 -0.04173581969669744318  0.00018583140402334919 -0.00013684478446692637  0.00104461011753301941
1520530340.001061 0.00000000000000000000 0.00000000000000000000 0.00000000000000000000 0.00000000000000000000 0.00000000000000000000 0.00000000000000000000 -0.04611397264521132494  0.04902008218988570393 -0.04152684928047443991  0.00021909103625188372 -0.00018672850188518466  0.00100503771270797084
1520530340.101063 0.00000000000000000000 0.00000000000000000000 0.00000000000000000000 0.00000000000000000000 0.00000000000000000000 0.00000000000000000000 -0.04668684436028418261  0.04676888820319698853 -0.04206767966128655695  0.00019013300288729957 -0.00011436466313175897  0.00102931810740955541
1520530340.201067 0.00000000000000000000 0.00000000000000000000 0.00000000000000000000 0.00000000000000000000 0.00000000000000000000 0.00000000000000000000 -0.04872117047682039681  0.04325828652360558246 -0.04282754167093662245  0.00015143696865868499 -0.00000137863021975279  0.00104715382171870360
1520530340.250395 0.00000000000000000000 0.00000000000000000000 0.00000000000000000000 0.00000000000000000000 0.00000000000000000000 0.00000000000000000000 -0.05165623675044957869  0.03948272251417422885 -0.04382246450216190081 0.00009940728781515731 0.00000516860334866003 0.00104973341083095949
1520530340.350399 0.00000000000000000000 0.00000000000000000000 0.00000000000000000000 0.00000000000000000000 0.00000000000000000000 0.00000000000000000000 -0.05265532922350592976  0.03801560656491565632 -0.04412619766986431574 0.00012856530297919249 0.00004320408182396205 0.00102603624999202743
1520530340.450401 0.00000000000000000000 0.00000000000000000000 0.00000000000000000000 0.00000000000000000000 0.00000000000000000000 0.00000000000000000000 -0.05466757309787426133  0.03633955874044813433 -0.04447334506255728320 0.00014095233894710279 0.00001560166509078858 0.00101580960591487763
1520530340.550404 0.00000000000000000000 0.00000000000000000000 0.00000000000000000000 0.00000000000000000000 0.00000000000000000000 0.00000000000000000000 -0.05591532000954867188  0.03499701099344904726 -0.04483860488441936132  0.00013589401887202659 -0.00001611125109592929  0.00094028874088155766
1520530340.650347 0.00000000000000000000 0.00000000000000000000 0.00000000000000000000 0.00000000000000000000 0.00000000000000000000 0.00000000000000000000 -0.05538142843101296481  0.03336640814515807324 -0.04469841039887235967  0.00016005967148851724 -0.00005093848023773903  0.00089223271092049757
1520530340.750350 0.00000000000000000000 0.00000000000000000000 0.00000000000000000000 0.00000000000000000000 0.00000000000000000000 0.00000000000000000000 -0.05373998427896218427  0.03222665851228796730 -0.04449982455075534443  0.00017927213411180845 -0.00015701215604272431  0.00097519677623603748
1520530340.900354 0.00000000000000000000 0.00000000000000000000 0.00000000000000000000 0.00000000000000000000 0.00000000000000000000 0.00000000000000000000 -0.05304860420959632561  0.03231555982866711474 -0.04378770027530409781  0.00019468440202804731 -0.00011574835180921908  0.00092491263877597250
1520530341.050774 0.00000000000000000000 0.00000000000000000000 0.00000000000000000000 0.00000000000000000000 0.00000000000000000000 0.00000000000000000000 -0.05157397146278045602  0.03141638205274862455 -0.04257680189084207811  0.00019194332412999653 -0.00014504424225360004  0.00095381017099711570
1520530341.300782 0.00000000000000000000 0.00000000000000000000 0.00000000000000000000 0.00000000000000000000 0.00000000000000000000 0.00000000000000000000 -0.04643644637363983363  0.02978489481759464402 -0.04020189860237655816 0.00016826689257604655 0.00004864129686940194 0.00098880039012162638
1520530341.450787 0.00000000000000000000 0.00000000000000000000 0.00000000000000000000 0.00000000000000000000 0.00000000000000000000 0.00000000000000000000 -0.04769644335648094702  0.02933480213882570450 -0.04142911590921528192 0.00014536515346945289 0.00015605569683165056 0.00100139645322064037
1520530341.650717 0.00000000000000000000 0.00000000000000000000 0.00000000000000000000 0.00000000000000000000 0.00000000000000000000 0.00000000000000000000 -0.04666254665499935950  0.02855160371434531386 -0.04043668620039200107 0.00008292395334167668 0.00013030933010855947 0.00116070180244373005
1520530341.800722 0.00000000000000000000 0.00000000000000000000 0.00000000000000000000 0.00000000000000000000 0.00000000000000000000 0.00000000000000000000 -0.04490145156358096856  0.02926608117471778125 -0.04070587267880848570 0.00027789939482265039 0.00010568797439852368 0.00102027019836170097
1520530341.950578 0.00000000000000000000 0.00000000000000000000 0.00000000000000000000 0.00000000000000000000 0.00000000000000000000 0.00000000000000000000 -0.04759902234571868063  0.02879933638871256391 -0.04320207994270285762 0.00050038961478655766 0.00000255308984674543 0.00102362844720319738
1520530342.100548 0.00000000000000000000 0.00000000000000000000 0.00000000000000000000 0.00000000000000000000 0.00000000000000000000 0.00000000000000000000 -0.04750200028711599326  0.02666195884048403256 -0.04209328815591519696  0.00037160413937708278 -0.00006566669478785440  0.00111114364073722997
1520530342.200551 0.00000000000000000000 0.00000000000000000000 0.00000000000000000000 0.00000000000000000000 0.00000000000000000000 0.00000000000000000000 -0.04631264763149840757  0.02675528690435934054 -0.04115031428943750902 0.00020070233119161499 0.00004715356365675645 0.00093119014475979175
1520530342.300673 0.00000000000000000000 0.00000000000000000000 0.00000000000000000000 0.00000000000000000000 0.00000000000000000000 0.00000000000000000000 -0.04532559621181048853  0.02503527427144873821 -0.04042072944144232960 0.00010810200058560771 0.00000586136661913530 0.00093869998685567246
1520530342.450678 0.00000000000000000000 0.00000000000000000000 0.00000000000000000000 0.00000000000000000000 0.00000000000000000000 0.00000000000000000000 -0.04603713866497987500  0.02180672853621563184 -0.04129878381423934819 -0.00003736038616539072 -0.00004541088746429059  0.00094778974311638645
1520530342.600683 0.00000000000000000000 0.00000000000000000000 0.00000000000000000000 0.00000000000000000000 0.00000000000000000000 0.00000000000000000000 -0.04428924939055670085  0.01793209205489594907 -0.04266613987532570651 -0.00014416345853384893 -0.00006823272378757551  0.00081045904049388160
1520530342.700643 0.00000000000000000000 0.00000000000000000000 0.00000000000000000000 0.00000000000000000000 0.00000000000000000000 0.00000000000000000000 -0.04329331074126931134  0.01648090011154461354 -0.04354409461752098420 -0.00017784117403450380 -0.00015643433718717464  0.00079276279513695023
1520530342.800646 0.00000000000000000000 0.00000000000000000000 0.00000000000000000000 0.00000000000000000000 0.00000000000000000000 0.00000000000000000000 -0.04277997853560742275  0.01540552562494828040 -0.04272061163757388119 -0.00017595521427872217 -0.00016769484766158889  0.00085472174269448492
1520530342.900649 0.00000000000000000000 0.00000000000000000000 0.00000000000000000000 0.00000000000000000000 0.00000000000000000000 0.00000000000000000000 -0.04113733813172490428  0.01463186142145198043 -0.04191634769463040838 -0.00009829042769902021 -0.00024340901086238856  0.00086739951324658806
1520530343.000653 0.00000000000000000000 0.00000000000000000000 0.00000000000000000000 0.00000000000000000000 0.00000000000000000000 0.00000000000000000000 -0.03841249340679214058  0.01304381788500888137 -0.04129627683439061198 -0.00010137149530258539 -0.00028499507402608969  0.00091977928034088887
1520530343.101131 0.00000000000000000000 0.00000000000000000000 0.00000000000000000000 0.00000000000000000000 0.00000000000000000000 0.00000000000000000000 -0.03738739517243436228  0.01439623317552345648 -0.04103250017162186902 -0.00012446147452292871 -0.00025580820896899098  0.00086192238029326475
1520530343.201134 0.00000000000000000000 0.00000000000000000000 0.00000000000000000000 0.00000000000000000000 0.00000000000000000000 0.00000000000000000000 -0.03690879840746280616  0.01188994492742680674 -0.03920055084527142297 -0.00011606250343757219 -0.00021001735335854298  0.00093439442483889048
1520530343.301138 0.00000000000000000000 0.00000000000000000000 0.00000000000000000000 0.00000000000000000000 0.00000000000000000000 0.00000000000000000000 -0.03511175267828373775  0.01119464161152644577 -0.03968989791583489579 -0.00006712535159600474 -0.00020472109597490689  0.00097762915773189573
1520530343.401141 0.00000000000000000000 0.00000000000000000000 0.00000000000000000000 0.00000000000000000000 0.00000000000000000000 0.00000000000000000000 -0.03209558149526873377  0.01041983175030518176 -0.04033542638481332071 -0.00009582985078651534 -0.00021767785461699419  0.00081737251181620142
1520530343.451144 0.00000000000000000000 0.00000000000000000000 0.00000000000000000000 0.00000000000000000000 0.00000000000000000000 0.00000000000000000000 -0.03237407314110744144  0.00994299296808397008 -0.04024786716021316185 -0.00001669059050038814 -0.00008558177326863220  0.00080772757802617678
1520530343.551476 0.00000000000000000000 0.00000000000000000000 0.00000000000000000000 0.00000000000000000000 0.00000000000000000000 0.00000000000000000000 -0.02927025641176979331  0.01033481700276516792 -0.04041727304989858188 -0.00001674698930457572 -0.00000371681341173194  0.00080868167918637793
1520530343.651407 0.00000000000000000000 0.00000000000000000000 0.00000000000000000000 0.00000000000000000000 0.00000000000000000000 0.00000000000000000000 -0.02625602569724821284  0.01086897775688242841 -0.04060087666011241714  0.00000073713352039342 -0.00007541183267529007  0.00087613204404375785
1520530343.751410 0.00000000000000000000 0.00000000000000000000 0.00000000000000000000 0.00000000000000000000 0.00000000000000000000 0.00000000000000000000 -0.02573690223294836446  0.00857516958552788713 -0.04040978005617180263  0.00004942749740424840 -0.00008794359554771957  0.00087303223572335028
1520530343.851414 0.00000000000000000000 0.00000000000000000000 0.00000000000000000000 0.00000000000000000000 0.00000000000000000000 0.00000000000000000000 -0.02378718905933482897  0.00745267356214148174 -0.03982340033051442324  0.00010926190050181992 -0.00008102167075747987  0.00086974585640837781
1520530343.951402 0.00000000000000000000 0.00000000000000000000 0.00000000000000000000 0.00000000000000000000 0.00000000000000000000 0.00000000000000000000 -0.02100786883371903377  0.01024445693663252749 -0.04017836260756218331  0.00021364315169456911 -0.00010928696433770931  0.00085646136474623266
1520530344.051405 0.00000000000000000000 0.00000000000000000000 0.00000000000000000000 0.00000000000000000000 0.00000000000000000000 0.00000000000000000000 -0.01851071683256617223  0.01123241420148786765 -0.04041499106298385158  0.00028052066344892007 -0.00006463768504879502  0.00090514088968813645
1520530344.151408 0.00000000000000000000 0.00000000000000000000 0.00000000000000000000 0.00000000000000000000 0.00000000000000000000 0.00000000000000000000 -0.01674808651039367755  0.01145111124573500866 -0.04061845680010439663  0.00034070479160041602 -0.00003325437299995446  0.00090919643309977851
1520530344.251411 0.00000000000000000000 0.00000000000000000000 0.00000000000000000000 0.00000000000000000000 0.00000000000000000000 0.00000000000000000000 -0.01737965229262168274  0.01033888440605253492 -0.03997762582341735788 0.00034698259713110180 0.00005590861965179261 0.00091415009566163234
1520530344.351408 0.00000000000000000000 0.00000000000000000000 0.00000000000000000000 0.00000000000000000000 0.00000000000000000000 0.00000000000000000000 -0.01711181009158855085  0.00930968337322879945 -0.03871937988238821626 0.00036684965046580880 0.00009898501403707387 0.00084205829263002950
1520530344.451412 0.00000000000000000000 0.00000000000000000000 0.00000000000000000000 0.00000000000000000000 0.00000000000000000000 0.00000000000000000000 -0.01594319188762408079  0.01095051080069242046 -0.03881128286832120911 0.00032165586909801058 0.00012957724838363435 0.00084033725341058844
1520530344.551415 0.00000000000000000000 0.00000000000000000000 0.00000000000000000000 0.00000000000000000000 0.00000000000000000000 0.00000000000000000000 -0.01545473927795793651  0.00892443808582505521 -0.03967349167082624695 0.00026410072503246958 0.00017271856349041528 0.00080959552593216260
1520530344.651418 0.00000000000000000000 0.00000000000000000000 0.00000000000000000000 0.00000000000000000000 0.00000000000000000000 0.00000000000000000000 -0.01432107733749389891  0.00753630091543933123 -0.04023012643326099452 0.00026744902700802451 0.00010044055804087113 0.00089118224104076257
1520530344.751636 0.00000000000000000000 0.00000000000000000000 0.00000000000000000000 0.00000000000000000000 0.00000000000000000000 0.00000000000000000000 -0.00895218622544304010  0.00754729923362821350 -0.04065541409384888782  0.00025352701261464384 -0.00002196316712758999  0.00093190656682163643
1520530344.851639 0.00000000000000000000 0.00000000000000000000 0.00000000000000000000 0.00000000000000000000 0.00000000000000000000 0.00000000000000000000 -0.00889152614398469078  0.00952609273947388653 -0.04063311892313901941 0.00025437126278516682 0.00000006399133225473 0.00090982659103394799
1520530344.951642 0.00000000000000000000 0.00000000000000000000 0.00000000000000000000 0.00000000000000000000 0.00000000000000000000 0.00000000000000000000 -0.01035366278101747424  0.00863058161045116880 -0.03997805164768174213 0.00027474160631532727 0.00004025318035227331 0.00098012126991702127
1520530345.051645 0.00000000000000000000 0.00000000000000000000 0.00000000000000000000 0.00000000000000000000 0.00000000000000000000 0.00000000000000000000 -0.00962944552748522427  0.00703500626631390225 -0.03938294292051142814  0.00032789003586019747 -0.00000493689717239765  0.00092557226981038188
1520530345.151845 0.00000000000000000000 0.00000000000000000000 0.00000000000000000000 0.00000000000000000000 0.00000000000000000000 0.00000000000000000000 -0.00748114474357474465  0.00581257696340135681 -0.03966499698009604002  0.00031093675797122132 -0.00003158042327088687  0.00088580864708342382
1520530345.251745 0.00000000000000000000 0.00000000000000000000 0.00000000000000000000 0.00000000000000000000 0.00000000000000000000 0.00000000000000000000 -0.00734682760131912752  0.00515626986994891824 -0.04024024701716258368  0.00022539876570763586 -0.00004208592064710275  0.00090026538891091001
1520530345.351748 0.00000000000000000000 0.00000000000000000000 0.00000000000000000000 0.00000000000000000000 0.00000000000000000000 0.00000000000000000000 -0.00681550338568593424  0.00514751975196757385 -0.04001386240268019895  0.00021190379402437679 -0.00003366593657960624  0.00084613551436328420
1520530345.451751 0.00000000000000000000 0.00000000000000000000 0.00000000000000000000 0.00000000000000000000 0.00000000000000000000 0.00000000000000000000 -0.00877877913202298327  0.00513538959923655770 -0.03901382843994063987  0.00022487696656591698 -0.00010182863397691983  0.00081310194234978186
1520530345.551195 0.00000000000000000000 0.00000000000000000000 0.00000000000000000000 0.00000000000000000000 0.00000000000000000000 0.00000000000000000000 -0.01125034172019732069  0.00423542420602168474 -0.03910842910227331493 0.00022461823832782614 0.00003448076223372901 0.00081850156026009300
1520530345.651198 0.00000000000000000000 0.00000000000000000000 0.00000000000000000000 0.00000000000000000000 0.00000000000000000000 0.00000000000000000000 -0.01196459944530022662  0.00545352331646668364 -0.03963040946568233830 0.00023941127240482187 0.00003698784609951404 0.00084017329635225615
1520530345.751201 0.00000000000000000000 0.00000000000000000000 0.00000000000000000000 0.00000000000000000000 0.00000000000000000000 0.00000000000000000000 -0.01183410969239262478  0.00513284005588705329 -0.03862105100798286089 0.00018233737934136716 0.00006866454021430160 0.00080506793859902567
1520530345.851204 0.00000000000000000000 0.00000000000000000000 0.00000000000000000000 0.00000000000000000000 0.00000000000000000000 0.00000000000000000000 -0.01188065816522070745  0.00766601365035234506 -0.03770055138066596978 0.00015830068798761788 0.00008675547395449019 0.00079100040116879256
1520530345.901206 0.00000000000000000000 0.00000000000000000000 0.00000000000000000000 0.00000000000000000000 0.00000000000000000000 0.00000000000000000000 -0.01330339160329709752  0.00799543548240465134 -0.03731271064940300947 0.00020285035448221083 0.00011653482841343829 0.00077718531494939632
1520530346.001475 0.00000000000000000000 0.00000000000000000000 0.00000000000000000000 0.00000000000000000000 0.00000000000000000000 0.00000000000000000000 -0.01375938280769061287  0.00752460372663702696 -0.03612084453620563462 0.00023891331651919841 0.00012957669496049522 0.00072280881988496051
1520530346.101479 0.00000000000000000000 0.00000000000000000000 0.00000000000000000000 0.00000000000000000000 0.00000000000000000000 0.00000000000000000000 -0.01599468675377081067  0.00649054422419410859 -0.03601369952541541575 0.00029898289074295183 0.00005825531735003270 0.00085267679017830128
1520530346.201481 0.00000000000000000000 0.00000000000000000000 0.00000000000000000000 0.00000000000000000000 0.00000000000000000000 0.00000000000000000000 -0.01788195200595304665  0.00580533040559094628 -0.03689621139252886872 0.00035356658312277428 0.00002646414588139853 0.00088712764161448369
1520530346.251483 0.00000000000000000000 0.00000000000000000000 0.00000000000000000000 0.00000000000000000000 0.00000000000000000000 0.00000000000000000000 -0.01664756494996445096  0.00526961738660996788 -0.03731871802100750202 0.00034138177978960905 0.00006436211652750868 0.00095962984141242979
1520530346.351486 0.00000000000000000000 0.00000000000000000000 0.00000000000000000000 0.00000000000000000000 0.00000000000000000000 0.00000000000000000000 -0.01778468752296991431  0.00304493254386068455 -0.03656476898723229341 0.00029560224197046440 0.00016385343433755617 0.00095839646488996455
1520530346.451378 0.00000000000000000000 0.00000000000000000000 0.00000000000000000000 0.00000000000000000000 0.00000000000000000000 0.00000000000000000000 -0.01950983959383291791  0.00163282210874118004 -0.03605630603687128011 0.00020587230465697080 0.00025775422135860382 0.00088771083625673974
1520530346.551380 0.00000000000000000000 0.00000000000000000000 0.00000000000000000000 0.00000000000000000000 0.00000000000000000000 0.00000000000000000000 -0.02083093138915508014  0.00264528502154875913 -0.03584947220581716221 0.00024444783837190322 0.00023293131966418086 0.00089468132119393542
1520530346.651383 0.00000000000000000000 0.00000000000000000000 0.00000000000000000000 0.00000000000000000000 0.00000000000000000000 0.00000000000000000000 -0.02230084223810294489  0.00201952778566502405 -0.03487983933438327383 0.00026231910816921887 0.00028249503594943387 0.00078218654428355956
1520530346.751386 0.00000000000000000000 0.00000000000000000000 0.00000000000000000000 0.00000000000000000000 0.00000000000000000000 0.00000000000000000000 -0.02165019081993012698  0.00344809000503368268 -0.03480835794773427111 0.00025981134319842908 0.00019346049845039650 0.00076047649457243146
1520530346.851546 0.00000000000000000000 0.00000000000000000000 0.00000000000000000000 0.00000000000000000000 0.00000000000000000000 0.00000000000000000000 -0.02298916965360837603  0.00250094428649021844 -0.03580497576947612448 0.00024565996686216928 0.00020565694928685951 0.00079906217763602971
1520530346.901548 0.00000000000000000000 0.00000000000000000000 0.00000000000000000000 0.00000000000000000000 0.00000000000000000000 0.00000000000000000000 -0.02529581180905287122 -0.00069964024759159443 -0.03660454955333919402 0.00023138217358774843 0.00028347520161092120 0.00074134354811666490
1520530347.001551 0.00000000000000000000 0.00000000000000000000 0.00000000000000000000 0.00000000000000000000 0.00000000000000000000 0.00000000000000000000 -0.02783942378201621423 -0.00134985194278637089 -0.03671803451384642036 0.00027489851275797295 0.00037373397727576629 0.00067365802739380830
1520530347.101554 0.00000000000000000000 0.00000000000000000000 0.00000000000000000000 0.00000000000000000000 0.00000000000000000000 0.00000000000000000000 -0.02833871038646218823  0.00011178099991434145 -0.03638787500861110497 0.00027114676264113362 0.00033790432880886049 0.00066824908155507659
1520530347.201400 0.00000000000000000000 0.00000000000000000000 0.00000000000000000000 0.00000000000000000000 0.00000000000000000000 0.00000000000000000000 -0.02929903769350215501 -0.00048339284305447505 -0.03604181086094529474 0.00027739658600490287 0.00024822273355208755 0.00080403552924091925
1520530347.301403 0.00000000000000000000 0.00000000000000000000 0.00000000000000000000 0.00000000000000000000 0.00000000000000000000 0.00000000000000000000 -0.02953740356348748958 -0.00107678634069231435 -0.03558114674711529424 0.00030585020645136559 0.00030079642163465681 0.00079308316360004170
1520530347.351405 0.00000000000000000000 0.00000000000000000000 0.00000000000000000000 0.00000000000000000000 0.00000000000000000000 0.00000000000000000000 -0.02953045366303006999 -0.00194458456750605828 -0.03499600577589128542 0.00028992116429382210 0.00028801766222818245 0.00084735836434276070
1520530347.451408 0.00000000000000000000 0.00000000000000000000 0.00000000000000000000 0.00000000000000000000 0.00000000000000000000 0.00000000000000000000 -0.02973927893812681675 -0.00152188911902525754 -0.03504635680110197021 0.00022993025803805069 0.00039694117422892441 0.00079615707083057722
1520530347.551411 0.00000000000000000000 0.00000000000000000000 0.00000000000000000000 0.00000000000000000000 0.00000000000000000000 0.00000000000000000000 -0.03101577635932945345 -0.00105126850689388619 -0.03458319011151674005 0.00028768253432917139 0.00030412170577356142 0.00083683472421744139
1520530347.651220 0.00000000000000000000 0.00000000000000000000 0.00000000000000000000 0.00000000000000000000 0.00000000000000000000 0.00000000000000000000 -0.03134115471350986531  0.00181548045287455704 -0.03473748352583811566 0.00033492298023791512 0.00009039035006659143 0.00088581458061398111
1520530347.751223 0.00000000000000000000 0.00000000000000000000 0.00000000000000000000 0.00000000000000000000 0.00000000000000000000 0.00000000000000000000 -0.03178927463455457486  0.00423714663743360656 -0.03448967274044724418 0.00037062050982308354 0.00008399299461448385 0.00089299902521353580
1520530347.851226 0.00000000000000000000 0.00000000000000000000 0.00000000000000000000 0.00000000000000000000 0.00000000000000000000 0.00000000000000000000 -0.03379180117503269992  0.00331953735397443354 -0.03444149485403996680 0.00031568225085824815 0.00016671210769345318 0.00087930444875184701
1520530347.951229 0.00000000000000000000 0.00000000000000000000 0.00000000000000000000 0.00000000000000000000 0.00000000000000000000 0.00000000000000000000 -0.03337168738870589096  0.00218917802863636971 -0.03632898846521380454 0.00029823647182442698 0.00017543459165012969 0.00092662054426625030
1520530348.051164 0.00000000000000000000 0.00000000000000000000 0.00000000000000000000 0.00000000000000000000 0.00000000000000000000 0.00000000000000000000 -0.03345338159210303752  0.00244880397470786286 -0.03526347363689667780 0.00030849924025969024 0.00013636971930602857 0.00089132862895099875
1520530348.151168 0.00000000000000000000 0.00000000000000000000 0.00000000000000000000 0.00000000000000000000 0.00000000000000000000 0.00000000000000000000 -0.03361987251581743247  0.00246889338927872839 -0.03387776238004667345 0.00026443253691138985 0.00009749687360827288 0.00091066389503454109
1520530348.251170 0.00000000000000000000 0.00000000000000000000 0.00000000000000000000 0.00000000000000000000 0.00000000000000000000 0.00000000000000000000 -0.03474742568729070891  0.00240876510430972990 -0.03392646910887670009  0.00027105403411122612 -0.00002848629202193970  0.00094008079560053276
1520530348.351173 0.00000000000000000000 0.00000000000000000000 0.00000000000000000000 0.00000000000000000000 0.00000000000000000000 0.00000000000000000000 -0.03526926023091980777  0.00215089513459541847 -0.03349485663761313237  0.00029595928129088158 -0.00010268159804525072  0.00092937605001555256
1520530348.451416 0.00000000000000000000 0.00000000000000000000 0.00000000000000000000 0.00000000000000000000 0.00000000000000000000 0.00000000000000000000 -0.03553481354472185633  0.00219886608754514198 -0.03327990075745061033  0.00027518608687514051 -0.00008361323241405598  0.00094771285741718063
1520530348.551419 0.00000000000000000000 0.00000000000000000000 0.00000000000000000000 0.00000000000000000000 0.00000000000000000000 0.00000000000000000000 -0.03616240044927631486  0.00159919345676900527 -0.03310347587839788941 0.00018440636381791383 0.00021507889475205332 0.00091313436374960185
1520530348.651423 0.00000000000000000000 0.00000000000000000000 0.00000000000000000000 0.00000000000000000000 0.00000000000000000000 0.00000000000000000000 -0.03567561312634942583  0.00194266203402574549 -0.03348760462502692326 0.00022434263133075502 0.00013160100935268119 0.00087474359400570366
1520530348.701425 0.00000000000000000000 0.00000000000000000000 0.00000000000000000000 0.00000000000000000000 0.00000000000000000000 0.00000000000000000000 -0.03577994701450785270  0.00163195513102837439 -0.03332033344178564338 0.00022324540162963600 0.00012975704977704421 0.00084462788631534504
1520530348.801428 0.00000000000000000000 0.00000000000000000000 0.00000000000000000000 0.00000000000000000000 0.00000000000000000000 0.00000000000000000000 -0.03636661407832241649  0.00112196734022074586 -0.03286269163995450548 0.00015695121711265897 0.00009256852426147836 0.00082594842675538880
1520530348.851315 0.00000000000000000000 0.00000000000000000000 0.00000000000000000000 0.00000000000000000000 0.00000000000000000000 0.00000000000000000000 -0.03633141445019359705  0.00200362916158156740 -0.03313412242607638447  0.00019531006952772589 -0.00001739673380066310  0.00088116280044502841
1520530349.251106 0.00000000000000000000 0.00000000000000000000 0.00000000000000000000 0.00000000000000000000 0.00000000000000000000 0.00000000000000000000 -0.03720727673671796881  0.00223983781613115327 -0.03275466277788725150 0.00024364473943212800 0.00006011504096153201 0.00094877063668723184
1520530349.351109 0.00000000000000000000 0.00000000000000000000 0.00000000000000000000 0.00000000000000000000 0.00000000000000000000 0.00000000000000000000 -0.03699862968272586705  0.00248657802697440766 -0.03292664938480135278 0.00024958037525875620 0.00010446814955282271 0.00099440531095865278
1520530349.401110 0.00000000000000000000 0.00000000000000000000 0.00000000000000000000 0.00000000000000000000 0.00000000000000000000 0.00000000000000000000 -0.03702539054703192500  0.00330313217945694265 -0.03278931724508800383 0.00035371568222161823 0.00012567305914445184 0.00103974055390269491
1520530349.501114 0.00000000000000000000 0.00000000000000000000 0.00000000000000000000 0.00000000000000000000 0.00000000000000000000 0.00000000000000000000 -0.03737236146200661330  0.00312316087882414089 -0.03247935010535973194 0.00035469810300425874 0.00010540930728586218 0.00104707630244771604
1520530349.601117 0.00000000000000000000 0.00000000000000000000 0.00000000000000000000 0.00000000000000000000 0.00000000000000000000 0.00000000000000000000 -0.03701766626392872378  0.00298813372505956449 -0.03259328823763236321 0.00028106335264793414 0.00022022078554918226 0.00100340536582489855
1520530349.700937 0.00000000000000000000 0.00000000000000000000 0.00000000000000000000 0.00000000000000000000 0.00000000000000000000 0.00000000000000000000 -0.03731935883946137927  0.00270480909385686658 -0.03301400391685360008 0.00022787249565866613 0.00024431931306284551 0.00098713833430966289
1520530349.800940 0.00000000000000000000 0.00000000000000000000 0.00000000000000000000 0.00000000000000000000 0.00000000000000000000 0.00000000000000000000 -0.03795148296834464918  0.00306109994497578844 -0.03299906224711965375 0.00032939059268846497 0.00022754585212107274 0.00095571131857779895
1520530349.900986 0.00000000000000000000 0.00000000000000000000 0.00000000000000000000 0.00000000000000000000 0.00000000000000000000 0.00000000000000000000 -0.03847952083184744132  0.00341171882187592777 -0.03285464117155240810 0.00038618227522613441 0.00025755028284388340 0.00096829747872425600
1520530349.950944 0.00000000000000000000 0.00000000000000000000 0.00000000000000000000 0.00000000000000000000 0.00000000000000000000 0.00000000000000000000 -0.03871018541738165814  0.00320740907658627859 -0.03268570642272954768 0.00038711757076988906 0.00014528341933391293 0.00099734882627583736
1520530350.051376 0.00000000000000000000 0.00000000000000000000 0.00000000000000000000 0.00000000000000000000 0.00000000000000000000 0.00000000000000000000 -0.03894686782737515757  0.00300867965845287577 -0.03295752417792850025 0.00033362228460532748 0.00015785453826892498 0.00096231258753886294
1520530350.101378 0.00000000000000000000 0.00000000000000000000 0.00000000000000000000 0.00000000000000000000 0.00000000000000000000 0.00000000000000000000 -0.03861602336790026513  0.00272358756613341269 -0.03253939408366202796 0.00029667634219581108 0.00025115254205694359 0.00097198805851608794
1520530350.201381 0.00000000000000000000 0.00000000000000000000 0.00000000000000000000 0.00000000000000000000 0.00000000000000000000 0.00000000000000000000 -0.03868521148040253432  0.00268346163107302700 -0.03173297811384060557 0.00024279383981514800 0.00025932049521166167 0.00091321600136356617
1520530350.301384 0.00000000000000000000 0.00000000000000000000 0.00000000000000000000 0.00000000000000000000 0.00000000000000000000 0.00000000000000000000 -0.03843690366148237031  0.00260492447870958174 -0.03123265822655122911 0.00020066607111739055 0.00019365244596601129 0.00090644045760478837
1520530350.401387 0.00000000000000000000 0.00000000000000000000 0.00000000000000000000 0.00000000000000000000 0.00000000000000000000 0.00000000000000000000 -0.03888429802340902935  0.00241907658165229234 -0.03134770945298202133 0.00020979276854107883 0.00013882459827511745 0.00093494519210103719
1520530350.501516 0.00000000000000000000 0.00000000000000000000 0.00000000000000000000 0.00000000000000000000 0.00000000000000000000 0.00000000000000000000 -0.03902966444450325922  0.00199983600507813849 -0.03112658728518366905 0.00021310073534314968 0.00014347654503979665 0.00091838281957282565
1520530350.551518 0.00000000000000000000 0.00000000000000000000 0.00000000000000000000 0.00000000000000000000 0.00000000000000000000 0.00000000000000000000 -0.03913984707204542363  0.00160732147256454228 -0.03091125407017284929 0.00025535511205632957 0.00029482871831383080 0.00093689699088023637
1520530350.651521 0.00000000000000000000 0.00000000000000000000 0.00000000000000000000 0.00000000000000000000 0.00000000000000000000 0.00000000000000000000 -0.03935699262765603168  0.00126567622703179969 -0.03078572211412535301 0.00024338671188082301 0.00036166283778938301 0.00092347737561070218
1520530350.751524 0.00000000000000000000 0.00000000000000000000 0.00000000000000000000 0.00000000000000000000 0.00000000000000000000 0.00000000000000000000 -0.04058869435599856551  0.00142032438480290627 -0.03035816631272239899 0.00041461506315302389 0.00022308713563699893 0.00085354252313740286
1520530350.851527 0.00000000000000000000 0.00000000000000000000 0.00000000000000000000 0.00000000000000000000 0.00000000000000000000 0.00000000000000000000 -0.04109079277164355559  0.00159190690512731872 -0.02974482309958626988 0.00046721400534908785 0.00024971044262462997 0.00079799125140004473
1520530350.951573 0.00000000000000000000 0.00000000000000000000 0.00000000000000000000 0.00000000000000000000 0.00000000000000000000 0.00000000000000000000 -0.04088498773271388026  0.00119367955356706481 -0.02937310568534464567 0.00039422449301958944 0.00031222088501517902 0.00082343315377405386
1520530351.051576 0.00000000000000000000 0.00000000000000000000 0.00000000000000000000 0.00000000000000000000 0.00000000000000000000 0.00000000000000000000 -0.04131113572025522235  0.00068900003886112466 -0.02950596132398652233 0.00027910670165839246 0.00032687293844900267 0.00082813234175443950
1520530351.101578 0.00000000000000000000 0.00000000000000000000 0.00000000000000000000 0.00000000000000000000 0.00000000000000000000 0.00000000000000000000 -0.04190249765860536851  0.00073005283888768991 -0.02972253099767858259 0.00029855855481951334 0.00034723113900564292 0.00084115876353031639
1520530351.201581 0.00000000000000000000 0.00000000000000000000 0.00000000000000000000 0.00000000000000000000 0.00000000000000000000 0.00000000000000000000 -0.04298483366793165450  0.00088039263556932517 -0.02902107828767482023 0.00036347447225680655 0.00038689371759469436 0.00085025377142036707
1520530351.301683 0.00000000000000000000 0.00000000000000000000 0.00000000000000000000 0.00000000000000000000 0.00000000000000000000 0.00000000000000000000 -0.04328922181253304358  0.00065876368595997950 -0.02885970104308558520 0.00039470417456752868 0.00038428851403919423 0.00078269804442678372
1520530351.401685 0.00000000000000000000 0.00000000000000000000 0.00000000000000000000 0.00000000000000000000 0.00000000000000000000 0.00000000000000000000 -0.04384596479626699794  0.00071211283831047235 -0.02931226398956347443 0.00045570334186020341 0.00032248028708611876 0.00073565964150116789
1520530351.501759 0.00000000000000000000 0.00000000000000000000 0.00000000000000000000 0.00000000000000000000 0.00000000000000000000 0.00000000000000000000 -0.04417238491475968670  0.00071642430933280732 -0.02936309401251766676 0.00046300812259084112 0.00025662433808369846 0.00072821720529582816
1520530351.601688 0.00000000000000000000 0.00000000000000000000 0.00000000000000000000 0.00000000000000000000 0.00000000000000000000 0.00000000000000000000 -0.04451321528026463969  0.00005796534072689900 -0.02899332908835607070 0.00036858585486403367 0.00031693376501443606 0.00078787736973581638
1520530351.701695 0.00000000000000000000 0.00000000000000000000 0.00000000000000000000 0.00000000000000000000 0.00000000000000000000 0.00000000000000000000 -0.04521799583287468283 -0.00017132991780852011 -0.02915486637190854713 0.00035526927977147591 0.00039483318681964198 0.00090578647973781480
1520530351.801698 0.00000000000000000000 0.00000000000000000000 0.00000000000000000000 0.00000000000000000000 0.00000000000000000000 0.00000000000000000000 -0.04604362620010604007 -0.00006802684521693090 -0.02936902564041391980 0.00048570676827243376 0.00023629544684875250 0.00085536414723363485
1520530351.901701 0.00000000000000000000 0.00000000000000000000 0.00000000000000000000 0.00000000000000000000 0.00000000000000000000 0.00000000000000000000 -0.04615751014140577480  0.00082013686224718723 -0.02839761336835309319 0.00058817800910439038 0.00020598610101812785 0.00077352297156409232
1520530352.001704 0.00000000000000000000 0.00000000000000000000 0.00000000000000000000 0.00000000000000000000 0.00000000000000000000 0.00000000000000000000 -0.04646729568369466906  0.00060159857039904848 -0.02728496242704411476 0.00043451449381102272 0.00030117313314813749 0.00067893123466982353
1520530352.101805 0.00000000000000000000 0.00000000000000000000 0.00000000000000000000 0.00000000000000000000 0.00000000000000000000 0.00000000000000000000 -0.04740527492217393168  0.00031066903066774684 -0.02758831295586973778 0.00038013614203299067 0.00039043987676933565 0.00063031352096155490
1520530352.201808 0.00000000000000000000 0.00000000000000000000 0.00000000000000000000 0.00000000000000000000 0.00000000000000000000 0.00000000000000000000 -0.04886354056399659640  0.00024324777853866332 -0.02761815558769008250 0.00036659760416226213 0.00044598519431946078 0.00055187871470002790
1520530352.301811 0.00000000000000000000 0.00000000000000000000 0.00000000000000000000 0.00000000000000000000 0.00000000000000000000 0.00000000000000000000 -0.05001245439488551103  0.00040210855528743716 -0.02687112646799682744 0.00043494070972168906 0.00038241183050874130 0.00049687909792061333
