1403636635.913555 -0.02582800000000000026  0.13754800000000000360  0.07614999999999999547 -0.00318899999999999999  0.02128700000000000037  0.07845399999999999596 -0.05962059624683818670  0.04574001391109058789  0.01596809461932589477 -0.00286799973176277492  0.02101410658565867895  0.07863938615421527112 0.17948873628131362112 1.29039593095154736524 1.23925849663422260605 0.00116256282900698655 0.00116264836381292907 0.00116259290609429210
1403636636.063555 -0.02583099999999999979  0.13754900000000000460  0.07615199999999999747 -0.00318899999999999999  0.02128700000000000037  0.07845399999999999596 -0.05832515818788369666  0.05089686307287277778  0.01932761520343039344 -0.00293093739678399433  0.02106213941291256928  0.07850674969409614234 0.17421559185401108705 1.25168496287477681861 1.20683693365322897151 0.00114293598220751203 0.00114301944671702004 0.00114296139267984118
1403636636.263556 -0.02583600000000000133  0.13754900000000000460  0.07615500000000000047 -0.00318899999999999999  0.02128700000000000037  0.07845299999999999496 -0.05721070819383008987  0.06209221266482244789  0.02200507418184369582 -0.00293685380905766690  0.02119309496586604252  0.07856693882735933665 0.16849395360756153073 1.20541753294718945178 1.17173488277546522518 0.00111780145636557085 0.00111788329888549954 0.00111782364597322586
1403636636.413555 -0.02583999999999999839  0.13754900000000000460  0.07615700000000000247 -0.00318899999999999999  0.02128700000000000037  0.07845299999999999496 -0.05678259814994586485  0.06484817193059320972  0.02265659575398813741 -0.00292123741183545173  0.02121799340123851907  0.07861093822896071670 0.16335710479455248234 1.17188906197223330352 1.14095080898695067084 0.00109967546595987273 0.00109975725990701413 0.00109969674383165409
1403636636.563555 -0.02584200000000000039  0.13754900000000000460  0.07615800000000000347 -0.00319000000000000013  0.02128700000000000037  0.07845299999999999496 -0.05643519821822028104  0.07257321703735536422  0.02321680479277928033 -0.00295288290646286006  0.02116367823142588020  0.07854480696613129476 0.15890189362872367274 1.13761820422473114434 1.11107366397474893738 0.00108212867071120935 0.00108221099193886146 0.00108214318257226745
1403636636.763556 -0.02584799999999999945  0.13755000000000000560  0.07616199999999999359 -0.00319000000000000013  0.02128700000000000037  0.07845299999999999496 -0.05708061798933417724  0.06915582339789984323  0.02261777410736521762 -0.00297513924639763571  0.02104391031535136902  0.07850476462238800690 0.15283845788294375678 1.08911815999790362319 1.06565150278682052587 0.00105961164097670532 0.00105969228434576687 0.00105962028529911099
1403636637.163556 -0.02585499999999999951  0.13755100000000000660  0.07616699999999999859 -0.00319000000000000013  0.02128800000000000137  0.07845199999999999396 -0.05798600004922246226  0.07394091672948532867  0.02468414980330737099 -0.00298559713309711969  0.02100232139782306356  0.07854465716260811137 0.13840031806718147700 1.01082133553558506378 0.95061724331094366036 0.00101735766395654511 0.00101742661225856924 0.00101734792657637643
1403636637.663556 -0.02586799999999999863  0.13755200000000000760  0.07617400000000000559 -0.00319000000000000013  0.02128800000000000137  0.07845100000000000684 -0.05538505650736263997  0.08189209995068821857  0.03218142463668288017 -0.00297698917787806187  0.02104926199319242033  0.07850981339976118023 0.12468231953531500045 0.94751355281526783436 0.85129556941828243843 0.00096912430285668670 0.00096917651579407681 0.00096911682503754112
1403636637.963556 -0.02587499999999999870  0.13755300000000000860  0.07617599999999999372 -0.00319000000000000013  0.02128800000000000137  0.07845000000000000584 -0.05367003541195225491  0.09493814547029152950  0.03463905217507998874 -0.00295781825972840553  0.02106058059122542167  0.07852701900916686517 0.11769174995937076167 0.90988638750841632774 0.80712676934002081097 0.00094234737237021513 0.00094239411972260362 0.00094234176535392690
1403636638.413555 -0.02588700000000000029  0.13755300000000000860  0.07617899999999999672 -0.00319099999999999983  0.02128899999999999890  0.07845000000000000584 -0.05213687605958728516  0.11094285847898882613  0.03818259464584436436 -0.00293413481635841069  0.02097813611248979318  0.07858077701745026789 0.11008552159942087967 0.86444535531095390013 0.75455250017427366593 0.00090492006407587159 0.00090495880284842812 0.00090491308072103015
1403636638.713556 -0.02589400000000000035  0.13755400000000000960  0.07618199999999999972 -0.00319099999999999983  0.02128899999999999890  0.07844900000000000484 -0.05066250722669735085  0.12101596151200232077  0.04008809123033977434 -0.00294880921067697819  0.02108979104721453099  0.07849706248992169288 0.10617765873478003658 0.83332459630519184479 0.72542459146697924055 0.00088161994488125802 0.00088164336682432448 0.00088160282668494293
1403636638.913555 -0.02589999999999999941  0.13755400000000000960  0.07618400000000000172 -0.00319099999999999983  0.02128899999999999890  0.07844900000000000484 -0.04950990534679538396  0.12626801086385797124  0.04060022140560397286 -0.00292025452191403256  0.02106914345691774521  0.07854744485210060634 0.10369639298202411315 0.80906604407781457233 0.70801019556050892589 0.00086675032432021902 0.00086677071135411472 0.00086673470338917565
1403636639.113555 -0.02590500000000000094  0.13755400000000000960  0.07618700000000000472 -0.00319099999999999983  0.02128899999999999890  0.07844800000000000384 -0.04879076517127760304  0.12918630552713258886  0.04124839578450294197 -0.00292570751346921207  0.02106012629626644733  0.07856283545047219874 0.10129698470301053137 0.78601340251816509408 0.69162093281338177242 0.00085238497752247733 0.00085240740589571538 0.00085236654227299074
1403636639.363556 -0.02590999999999999900  0.13755400000000000960  0.07618999999999999384 -0.00319099999999999983  0.02128999999999999990  0.07844800000000000384 -0.04868821973394558272  0.13129179954018879717  0.04208377250218988536 -0.00294399831881141279  0.02105499599315628287  0.07843754640269544331 0.09892751933074910020 0.75931152282920155727 0.67331711637891122901 0.00083510087710509284 0.00083512362308584324 0.00083508184917461116
1403636639.613555 -0.02591600000000000154  0.13755500000000001060  0.07619299999999999684 -0.00319099999999999983  0.02128999999999999990  0.07844800000000000384 -0.04837798291402718720  0.13423028869831352128  0.04318216054045049407 -0.00296038879093548507  0.02103481405396658357  0.07842687392656839951 0.09698683079050912648 0.73438764503073528100 0.65674489674979286136 0.00081853744397918007 0.00081855650832025819 0.00081850688371752146
1403636639.813555 -0.02592099999999999960  0.13755500000000001060  0.07619599999999999984 -0.00319099999999999983  0.02128999999999999990  0.07844700000000000284 -0.04848964791629944981  0.13504852681031262462  0.04386300181491739614 -0.00295810826878365298  0.02104932174365073752  0.07848863593927186966 0.09532874733964147307 0.71724200980626384716 0.64362003967651026937 0.00080575926417071912 0.00080577708731607422 0.00080572612695986590
1403636640.063555 -0.02592699999999999866  0.13755600000000001160  0.07619900000000000284 -0.00319099999999999983  0.02128999999999999990  0.07844700000000000284 -0.04785676542857703053  0.13454749003921201433  0.04504969550035570897 -0.00290764145522968195  0.02102808306499756932  0.07845886946884211843 0.09305587716839820722 0.69866217899736016150 0.62785641727200269813 0.00079035302984128389 0.00079036792167415891 0.00079031707823290812
1403636640.313555 -0.02593300000000000119  0.13755600000000001160  0.07620300000000000684 -0.00319099999999999983  0.02128999999999999990  0.07844600000000000184 -0.04569359503140605488  0.13479444697779904838  0.04653684573352129955 -0.00291373905104583275  0.02101975301900825197  0.07846500468198280842 0.09045178918978225013 0.68202746424388993596 0.61174338007279149831 0.00077554593845177873 0.00077556301338247455 0.00077551077629322315
1403636640.663556 -0.02594399999999999831  0.13755800000000001360  0.07620799999999999796 -0.00319199999999999996  0.02129100000000000090  0.07844600000000000184 -0.04286224370647163245  0.13480149304740215999