1403636636.063555 -0.02583099999999999979  0.13754900000000000460  0.07615199999999999747 -0.00318899999999999999  0.02128700000000000037  0.07845399999999999596 -0.05777329409445058905  0.07608319513919042931  0.01968604099239263869 -0.00290774391720252786  0.02102587321425914563  0.07854060596963088892
1403636636.263556 -0.02583600000000000133  0.13754900000000000460  0.07615500000000000047 -0.00318899999999999999  0.02128700000000000037  0.07845299999999999496 -0.05701734976017739515  0.08229586732574467600  0.02140450688249838709 -0.00293611092447500612  0.02117280150694404381  0.07852386945521921957
1403636636.413555 -0.02583999999999999839  0.13754900000000000460  0.07615700000000000247 -0.00318899999999999999  0.02128700000000000037  0.07845299999999999496 -0.05668677799208146628  0.08816278217032409714  0.02177289101430577439 -0.00293311817131810745  0.02121209432321909116  0.07857897991077215927
1403636636.563555 -0.02584200000000000039  0.13754900000000000460  0.07615800000000000347 -0.00319000000000000013  0.02128700000000000037  0.07845299999999999496 -0.05632065474819536455  0.09165733709042034327  0.02244353907546211072 -0.00293925071703884412  0.02118412149294925800  0.07857298414833371880
1403636636.763556 -0.02584799999999999945  0.13755000000000000560  0.07616199999999999359 -0.00319000000000000013  0.02128700000000000037  0.07845299999999999496 -0.05712843065213538130  0.09286979730983023484  0.02051386431873285926 -0.00297981062746409051  0.02111409511631016575  0.07853543220276640313
1403636637.163556 -0.02585499999999999951  0.13755100000000000660  0.07616699999999999859 -0.00319000000000000013  0.02128800000000000137  0.07845199999999999396 -0.05864137622088026053  0.08984038622472455271  0.02035168365802212179 -0.00295380266875924129  0.02099685952161714150  0.07854297821959210779
1403636637.663556 -0.02586799999999999863  0.13755200000000000760  0.07617400000000000559 -0.00319000000000000013  0.02128800000000000137  0.07845100000000000684 -0.05364766359180658806  0.07961229942642980562  0.03729921935885107537 -0.00297763729010355489  0.02100605515654945660  0.07852076888214308548
1403636637.963556 -0.02587499999999999870  0.13755300000000000860  0.07617599999999999372 -0.00319000000000000013  0.02128800000000000137  0.07845000000000000584 -0.05350378563638426288  0.09875038274404618344  0.03647341731112670182 -0.00295296212060873952  0.02105585320986971473  0.07851445725455112601
1403636638.413555 -0.02588700000000000029  0.13755300000000000860  0.07617899999999999672 -0.00319099999999999983  0.02128899999999999890  0.07845000000000000584 -0.05188246155291383749  0.12073851606269585257  0.03957207493514854069 -0.00294451568677695603  0.02095364961954319580  0.07857828413982001492
1403636638.713556 -0.02589400000000000035  0.13755400000000000960  0.07618199999999999972 -0.00319099999999999983  0.02128899999999999890  0.07844900000000000484 -0.04887341627287072887  0.13984391084611083600  0.04511912405599147191 -0.00293780310007356544  0.02110467631976591096  0.07850330245730031964
1403636638.913555 -0.02589999999999999941  0.13755400000000000960  0.07618400000000000172 -0.00319099999999999983  0.02128899999999999890  0.07844900000000000484 -0.04779762578653252297  0.13941845386743573210  0.04528082897686381419 -0.00294045960764685154  0.02108390080900887989  0.07855520154396906929
1403636639.113555 -0.02590500000000000094  0.13755400000000000960  0.07618700000000000472 -0.00319099999999999983  0.02128899999999999890  0.07844800000000000384 -0.04806569499046597915  0.13661857582565856140  0.04324740734093732164 -0.00291730254153802805  0.02107539804466456584  0.07857377671200031777
1403636639.363556 -0.02590999999999999900  0.13755400000000000960  0.07618999999999999384 -0.00319099999999999983  0.02128999999999999990  0.07844800000000000384 -0.04797785261226104186  0.13765384843313460683  0.04362785363617058265 -0.00294133620444639050  0.02104526168131097899  0.07846212853608533488
1403636639.613555 -0.02591600000000000154  0.13755500000000001060  0.07619299999999999684 -0.00319099999999999983  0.02128999999999999990  0.07844800000000000384 -0.04764249879826196882  0.13962925295202807674  0.04480902777837070944 -0.00294716895277851365  0.02103130936991638028  0.07841620866883770857
1403636639.813555 -0.02592099999999999960  0.13755500000000001060  0.07619599999999999984 -0.00319099999999999983  0.02128999999999999990  0.07844700000000000284 -0.04755413288029931157  0.14086037448016727747  0.04543348066741649538 -0.00293265786417019848  0.02104042613915127827  0.07847257288288916888
1403636640.063555 -0.02592699999999999866  0.13755600000000001160  0.07619900000000000284 -0.00319099999999999983  0.02128999999999999990  0.07844700000000000284 -0.04680514187259923048  0.13751961298150858215  0.04759960736769888040 -0.00294748227126667315  0.02104324517712372056  0.07847005060693190703
1403636640.313555 -0.02593300000000000119  0.13755600000000001160  0.07620300000000000684 -0.00319099999999999983  0.02128999999999999990  0.07844600000000000184 -0.04450285977176086233  0.13280989827487588162  0.05151263138901698846 -0.00290382197913743477  0.02104800852011830259  0.07848440591994075566
1403636640.663556 -0.02594399999999999831  0.13755800000000001360  0.07620799999999999796 -0.00319199999999999996  0.02129100000000000090  0.07844600000000000184 -0.04104809831279827848  0.13437189963043247309  0.05516940064900213020 -0.00286315165983696152  0.02102024434893182137  0.07846217300902548486
1403636641.463556 -0.02596800000000000150  0.13756099999999998884  0.07622099999999999709 -0.00319199999999999996  0.02129100000000000090  0.07844399999999999984 -0.03634328436836259391  0.13691170533321175840  0.05900973960035137134 -0.00289498667075849389  0.02101044544775081471  0.07845965290362408306
1403636642.113555 -0.02598599999999999868  0.13756299999999999084  0.07623099999999999321 -0.00319199999999999996  0.02129199999999999843  0.07844299999999999884 -0.03481099144791261618  0.13072336722704697154  0.06290466205480604867 -0.00296706276140283609  0.02102372457780719156  0.07848149879042169708
1403636642.713556 -0.02600200000000000081  0.13756599999999999384  0.07623800000000000021 -0.00319300000000000009  0.02129199999999999843  0.07844199999999999784 -0.03718687080592716909  0.12670959849184718071  0.05970181965859285705 -0.00297454474017259376  0.02100568823842333468  0.07846730600569361280
1403636643.613555 -0.02602399999999999852  0.13756899999999999684  0.07624799999999999633 -0.00319300000000000009  0.02129299999999999943  0.07844099999999999684 -0.03623409312081788541  0.13321661116755820209  0.06298075171823425134 -0.00294271687522153517  0.02106395521016913783  0.07849288676434432177
1403636644.063555 -0.02603700000000000112  0.13756999999999999784  0.07625099999999999933 -0.00319300000000000009  0.02129400000000000043  0.07843999999999999584 -0.03596928678641562321  0.13847637236466936450  0.06464503863697253216 -0.00293812581603146439  0.02101996125381679764  0.07848479397388839762
1403636644.363556 -0.02604499999999999871  0.13756999999999999784  0.07625300000000000133 -0.00319399999999999979  0.02129400000000000043  0.07843899999999999484 -0.03597323746302970304  0.14477737991416980701  0.06479592111854050318 -0.00291736981034397070  0.02105740599368546156  0.07850220703171507941
1403636644.663556 -0.02605299999999999977  0.13756999999999999784  0.07625500000000000334 -0.00319399999999999979  0.02129400000000000043  0.07843899999999999484 -0.03605926073506947327  0.14910998451274065646  0.06492343542832142156 -0.00290285952986374472  0.02107051834143306920  0.07847129685596684889
1403636644.913555 -0.02605999999999999983  0.13757099999999999884  0.07625700000000000534 -0.00319399999999999979  0.02129400000000000043  0.07843799999999999384 -0.03534041091145168068  0.15554857613595080013  0.06653477664427857874 -0.00289602605846136542  0.02107910328284678947  0.07845429188741047388
1403636645.063555 -0.02606299999999999936  0.13757099999999999884  0.07625800000000000634 -0.00319399999999999979  0.02129400000000000043  0.07843799999999999384 -0.03509139023206812869  0.15881401242674825225  0.06620238479142867560 -0.00289841714188344632