1520530315.799640 0.00000000000000000000 0.00000000000000000000 0.00000000000000000000 0.00000000000000000000 0.00000000000000000000 0.00000000000000000000 -0.11377396751649383744 -0.09325082358568299867 -0.03313510515441853155  0.00004081960871953390 -0.00009145088613709958 -0.00060948170059800565
1520530315.949645 0.00000000000000000000 0.00000000000000000000 0.00000000000000000000 0.00000000000000000000 0.00000000000000000000 0.00000000000000000000 -0.12946601910079624798 -0.11404165446400868489 -0.03066895076100921783  0.00031209165794389860 -0.00000461082817947905 -0.00054027643331863663
1520530316.100221 0.00000000000000000000 0.00000000000000000000 0.00000000000000000000 0.00000000000000000000 0.00000000000000000000 0.00000000000000000000 -0.08418573793088474089 -0.09232267861150052213 -0.03369736345666352745  0.00028890188855100045 -0.00000344590028282009 -0.00049745912572383012
1520530316.300227 0.00000000000000000000 0.00000000000000000000 0.00000000000000000000 0.00000000000000000000 0.00000000000000000000 0.00000000000000000000 -0.04620128655005125567 -0.06657741699554992065 -0.03818632562014350612  0.00010887784460392382 -0.00007283811481729353 -0.00045263260597308775
1520530316.450231 0.00000000000000000000 0.00000000000000000000 0.00000000000000000000 0.00000000000000000000 0.00000000000000000000 0.00000000000000000000 -0.01672041179665336927 -0.06905996820202049691 -0.04100004177380007359  0.00001457592810347341 -0.00000807480518220319 -0.00042187717340035671
1520530316.650280 0.00000000000000000000 0.00000000000000000000 0.00000000000000000000 0.00000000000000000000 0.00000000000000000000 0.00000000000000000000 -0.02254091397195768717 -0.05940981519547343381 -0.04212217603077972328 -0.00000037195724989426 -0.00005248468549638833 -0.00035371246998865163
1520530316.850286 0.00000000000000000000 0.00000000000000000000 0.00000000000000000000 0.00000000000000000000 0.00000000000000000000 0.00000000000000000000 -0.02944735700035994511 -0.03523073530297250039 -0.04421866555929770959 -0.00011829701200515728 -0.00006368160397989343 -0.00036842937729298665
1520530316.949773 0.00000000000000000000 0.00000000000000000000 0.00000000000000000000 0.00000000000000000000 0.00000000000000000000 0.00000000000000000000 -0.02418608525844637147 -0.04875541902127458055 -0.04397980533358255423 -0.00007400947741335415 -0.00003838167215845498 -0.00043555355504761554
1520530317.149779 0.00000000000000000000 0.00000000000000000000 0.00000000000000000000 0.00000000000000000000 0.00000000000000000000 0.00000000000000000000 -0.02491262177570642208 -0.04306470159571403056 -0.04514588059261449848 -0.00002509095242046366 -0.00009817124943850211 -0.00039075966913640510
1520530317.299784 0.00000000000000000000 0.00000000000000000000 0.00000000000000000000 0.00000000000000000000 0.00000000000000000000 0.00000000000000000000 -0.03408081419843734389 -0.04621636432806290606 -0.04442496443829190012  0.00000213727736766144 -0.00010531296709005227 -0.00032876191814321625
1520530317.449747 0.00000000000000000000 0.00000000000000000000 0.00000000000000000000 0.00000000000000000000 0.00000000000000000000 0.00000000000000000000 -0.04754070952719755688 -0.04129808881306719359 -0.04334456503790051068  0.00000596022894358527 -0.00017703010512447057 -0.00036567874927858338
1520530317.649755 0.00000000000000000000 0.00000000000000000000 0.00000000000000000000 0.00000000000000000000 0.00000000000000000000 0.00000000000000000000 -0.04607958358408932587 -0.04827256934252308757 -0.04304374680454780416  0.00003975170825265563 -0.00020385188330885836 -0.00039315730135260958
1520530317.750237 0.00000000000000000000 0.00000000000000000000 0.00000000000000000000 0.00000000000000000000 0.00000000000000000000 0.00000000000000000000 -0.03898451644563433877 -0.04651949527910468479 -0.04374089731278197474  0.00009930562111409734 -0.00004935675163874326 -0.00040430740981265534
1520530317.900242 0.00000000000000000000 0.00000000000000000000 0.00000000000000000000 0.00000000000000000000 0.00000000000000000000 0.00000000000000000000 -0.03447339863365858625 -0.04248749687326097702 -0.04417700404426961464  0.00018190312761843337  0.00000719132039744045 -0.00040125124873539620
1520530318.050246 0.00000000000000000000 0.00000000000000000000 0.00000000000000000000 0.00000000000000000000 0.00000000000000000000 0.00000000000000000000 -0.03685693354476959893 -0.03566003540087884366 -0.04424055228540176715  0.00028015628299611389 -0.00002937106360726314 -0.00043681310826901526
1520530318.150816 0.00000000000000000000 0.00000000000000000000 0.00000000000000000000 0.00000000000000000000 0.00000000000000000000 0.00000000000000000000 -0.03542976391861471508 -0.03039329940705183183 -0.04418709219016513090  0.00027134533630702610 -0.00004113194597597347 -0.00052281209751879035
1520530318.300772 0.00000000000000000000 0.00000000000000000000 0.00000000000000000000 0.00000000000000000000 0.00000000000000000000 0.00000000000000000000 -0.03423658298587727716 -0.02386593551798525670 -0.04489573643103947354  0.00022789895981526980  0.00001335370067933819 -0.00055417340058748141
1520530318.450777 0.00000000000000000000 0.00000000000000000000 0.00000000000000000000 0.00000000000000000000 0.00000000000000000000 0.00000000000000000000 -0.03617491397288472021 -0.02678871201520807710 -0.04484251103740131972  0.00016054612173116848 -0.00000553732281833171 -0.00048207307134450779
1520530318.600567 0.00000000000000000000 0.00000000000000000000 0.00000000000000000000 0.00000000000000000000 0.00000000000000000000 0.00000000000000000000 -0.03918494760987474568 -0.03356109008891960260 -0.04428627398100287715  0.00006790743810389648 -0.00006825326562306124 -0.00041213689595127689
1520530318.800573 0.00000000000000000000 0.00000000000000000000 0.00000000000000000000 0.00000000000000000000 0.00000000000000000000 0.00000000000000000000 -0.02910606705666808972 -0.03598393266415134822 -0.04488731328498878070  0.00007866777956950159 -0.00007429566829087252 -0.00038329892946477708
1520530318.950577 0.00000000000000000000 0.00000000000000000000 0.00000000000000000000 0.00000000000000000000 0.00000000000000000000 0.00000000000000000000 -0.01251225399257398750 -0.03644963276319648782 -0.04663595953852579801  0.00004907280452500827 -0.00013983296365744724 -0.00035423448901900773
1520530318.999955 0.00000000000000000000 0.00000000000000000000 0.00000000000000000000 0.00000000000000000000 0.00000000000000000000 0.00000000000000000000 -0.00644713949187945314 -0.04083618597470524414 -0.04692443882987976100  0.00008931672656265009 -0.00021301897668975486 -0.00029778819505279521
1520530319.149961 0.00000000000000000000 0.00000000000000000000 0.00000000000000000000 0.00000000000000000000 0.00000000000000000000 0.00000000000000000000  0.00190444448993609509 -0.04428842909240539305 -0.04753360754092521984  0.00012515774216384200 -0.00019226783396572700 -0.00030176959773793322
1520530319.299965 0.00000000000000000000 0.00000000000000000000 0.00000000000000000000 0.00000000000000000000 0.00000000000000000000 0.00000000000000000000  0.00613428574596032710 -0.04545122858167086749 -0.04786744405773715738  0.00016878615636614240 -0.00015695778762607183 -0.00028428057205462327
1520530319.399832 0.00000000000000000000 0.00000000000000000000 0.00000000000000000000 0.00000000000000000000 0.00000000000000000000 0.00000000000000000000  0.00971224569851996539 -0.04978768763854361790 -0.04762001256140483557  0.00013237973567088059 -0.00013384611217398857 -0.00029918384694651863
1520530319.549837 0.00000000000000000000 0.00000000000000000000 0.00000000000000000000 0.00000000000000000000 0.00000000000000000000 0.00000000000000000000  0.01397059117120461567 -0.04081794224127059667 -0.04877834536828947604  0.00008529697424132151 -0.00009843158252082738 -0.00028531159595998520
1520530319.699841 0.00000000000000000000 0.00000000000000000000 0.00000000000000000000 0.00000000000000000000 0.00000000000000000000 0.00000000000000000000  0.01317632206405274647 -0.03650514523105344300 -0.04879309320443066256  0.00007634696830355224 -0.00005440959360421907 -0.00022458583862976640
1520530319.800341 0.00000000000000000000 0.00000000000000000000 0.00000000000000000000 0.00000000000000000000 0.00000000000000000000 0.00000000000000000000  0.00377353287671899950 -0.03288308457085125508 -0.04798561762659114827  0.00011288513031838571  0.00001950249319772203 -0.00016095235341411260
1520530319.900344 0.00000000000000000000 0.00000000000000000000 0.00000000000000000000 0.00000000000000000000 0.00000000000000000000 0.00000000000000000000  0.00257941204128184741 -0.03355799597719983512 -0.04766176719076129636  0.00007590056062307310  0.00000279146788430084 -0.00003962676496303898
1520530320.000347 0.00000000000000000000 0.00000000000000000000 0.00000000000000000000 0.00000000000000000000 0.00000000000000000000 0.00000000000000000000  0.00176277398765365594 -0.03323882961027334326 -0.04750691565335646294 -0.00000704565563396823 -0.00004656420875317122 -0.00004042399114911495
1520530320.100350 0.00000000000000000000 0.00000000000000000000 0.00000000000000000000 0.00000000000000000000 0.00000000000000000000 0.00000000000000000000  0.01130539549257041608 -0.02852261742058659691 -0.04859609004064952692 -0.00010412068761865254 -0.00010689805286778088 -0.00016268804979474420
1520530320.200401 0.00000000000000000000 0.00000000000000000000 0.00000000000000000000 0.00000000000000000000 0.00000000000000000000 0.00000000000000000000  0.00874784524044958101 -0.03770028577401920988 -0.04798520613770957538 -0.00009181403420903343 -0.00012507473830176538 -0.00015050440256574984
1520530320.300404 0.00000000000000000000 0.00000000000000000000 0.00000000000000000000 0.00000000000000000000 0.00000000000000000000 0.00000000000000000000  0.00912107328537614150 -0.03868712770228492637 -0.04823091969485506642 -0.00003211232053852700 -0.00008559408161356436 -0.00014369596826808138
1520530320.450408 0.00000000000000000000 0.00000000000000000000 0.00000000000000000000 0.00000000000000000000 0.00000000000000000000 0.00000000000000000000  0.00492112353540870035 -0.03550757060047930735 -0.04844857117662723645  0.00009490127405979103 -0.00004872127898395579 -0.00024278694242225565
1520530320.599869 0.00000000000000000000 0.00000000000000000000 0.00000000000000000000 0.00000000000000000000 0.00000000000000000000 0.00000000000000000000  0.01421044750726702631 -0.02955662441254954670 -0.04961354939737609715  0.00011736028883462763 -0.00002994589721471442 -0.00021857356382191549
1520530320.749874 0.00000000000000000000 0.00000000000000000000 0.00000000000000000000 0.00000000000000000000 0.00000000000000000000 0.00000000000000000000  0.01210643937956890938 -0.03202334246422396807 -0.04995153345086263824  0.00010697768621181442 -0.00004912715232116536 -0.00025914570728018501
1520530320.899879 0.00000000000000000000 0.00000000000000000000 0.00000000000000000000 0.00000000000000000000 0.00000000000000000000 0.00000000000000000000  0.01149701402435884465 -0.03873147650158747374 -0.04961299189284450184  0.00014303715416930749 -0.00003907163068588699 -0.00029872391210322062
1520530321.049740 0.00000000000000000000 0.00000000000000000000 0.00000000000000000000 0.00000000000000000000 0.00000000000000000000 0.00000000000000000000  0.00900451089092081311 -0.03895882574279162236 -0.04932864669643873684  0.00021163410804229116 -0.00005083229001820780 -0.00033565857106313381
1520530321.199745 0.00000000000000000000 0.00000000000000000000 0.00000000000000000000 0.00000000000000000000 0.00000000000000000000 0.00000000000000000000  0.00831674987376919070 -0.03577034412883515341 -0.04976112632887609577  0.00018471016722381453  0.00002831045547010131 -0.00032757477916703180
1520530321.349750 0.00000000000000000000 0.00000000000000000000 0.00000000000000000000 0.00000000000000000000 0.00000000000000000000 0.00000000000000000000  0.01137610368206735945 -0.03719970695510804032 -0.04967203664471785823  0.00023229822753014515  0.00003313478600234247 -0.00030042693809026547
1520530321.499857 0.00000000000000000000 0.00000000000000000000 0.00000000000000000000 0.00000000000000000000 0.00000000000000000000 0.00000000000000000000  0.00668487355167995609 -0.03748869246697329044 -0.04929949488070833885  0.00023519944792061847  0.00003227566582518288 -0.00030092400874527934
1520530321.599860 0.00000000000000000000 0.00000000000000000000 0.00000000000000000000 0.00000000000000000000 0.00000000000000000000 0.00000000000000000000  0.00662993587757227873 -0.03447007041687593504 -0.04954457968303866561  0.00026228763159027665 -0.00000961818918407489 -0.00029304888495182440
1520530321.699863 0.00000000000000000000 0.00000000000000000000 0.00000000000000000000 0.00000000000000000000 0.00000000000000000000 0.00000000000000000000  0.00581624356719180700 -0.03456368365086854438 -0.04960592065036738968  0.00027811126940910461 -0.00003183373054404800 -0.00029861061762125816
1520530321.850152 0.00000000000000000000 0.00000000000000000000 0.00000000000000000000 0.00000000000000000000 0.00000000000000000000 0.00000000000000000000  0.00657060279213671303 -0.03461305090179889188 -0.04923037058796941867  0.00026787775168790254 -0.00004212952314409186 -0.00031155796878182685
1520530322.000157 0.00000000000000000000 0.00000000000000000000 0.00000000000000000000 0.00000000000000000000 0.00000000000000000000 0.00000000000000000000  0.01149553305584819114 -0.03714750099085701446 -0.04883479732008155078  0.00014645995492288912 -0.00001775306303625356 -0.00029118168331344202
1520530322.100160 0.00000000000000000000 0.00000000000000000000 0.00000000000000000000 0.00000000000000000000 0.00000000000000000000 0.00000000000000000000  0.00978340310698977943 -0.03888395859974980856 -0.04930794435370060985 -0.00006178725111781106  0.00002825664071236719 -0.00033108395486870009
1520530322.250207 0.00000000000000000000 0.00000000000000000000 0.00000000000000000000 0.00000000000000000000 0.00000000000000000000 0.00000000000000000000  0.01056659150648251583 -0.03589299306557931779 -0.05026366779660192130 -0.00007557723893201126  0.00002333258646151303 -0.00033971378441812318
1520530322.500215 0.00000000000000000000 0.00000000000000000000 0.00000000000000000000 0.00000000000000000000 0.00000000000000000000 0.00000000000000000000  0.01142097514460298745 -0.03166230760088711849 -0.05088246652994009300  0.00001468001566624361  0.00001215985867407305 -0.00035318842682547231
1520530322.650023 0.00000000000000000000 0.00000000000000000000 0.00000000000000000000 0.00000000000000000000 0.00000000000000000000 0.00000000000000000000  0.00935928390229773255 -0.03158318562921986344 -0.05088792869092270688  0.00006465094496987333 -0.00003001826019191286 -0.00035511476155756057
1520530322.850030 0.00000000000000000000 0.00000000000000000000 0.00000000000000000000 0.00000000000000000000 0.00000000000000000000 0.00000000000000000000  0.00958959124903063266 -0.03199933122010096415 -0.05098512578486358998  0.00010970255000450864 -0.00002052447666194668 -0.00035759218478065844
1520530323.000035 0.00000000000000000000 0.00000000000000000000 0.00000000000000000000 0.00000000000000000000 0.00000000000000000000 0.00000000000000000000  0.00977184195203611473 -0.03196570562484692124 -0.05088716420618437375  0.00011152809934207312  0.00001369781859050024 -0.00039488813192156507
1520530323.150076 0.00000000000000000000 0.00000000000000000000 0.00000000000000000000 0.00000000000000000000 0.00000000000000000000 0.00000000000000000000  0.00950393022318505101 -0.03320267543254378645 -0.05071349294491196702  0.00013077687172100859  0.00004157086789443802 -0.00037058154255239833
1520530323.300080 0.00000000000000000000 0.00000000000000000000 0.00000000000000000000 0.00000000000000000000 0.00000000000000000000 0.00000000000000000000  0.00966085528068849966 -0.03234327368049664392 -0.05036486944766713214  0.00015475728142751765 -0.00000385586980810763 -0.00036264177543039700
1520530323.450085 0.00000000000000000000 0.00000000000000000000 0.00000000000000000000 0.00000000000000000000 0.00000000000000000000 0.00000000000000000000  0.00947419750738640563 -0.03307756659927477139 -0.04927931827806208975  0.00019427305986292285 -0.00001599995545631893 -0.00041786987914806329
1520530323.550346 0.00000000000000000000 0.00000000000000000000 0.00000000000000000000 0.00000000000000000000 0.00000000000000000000 0.00000000000000000000  0.00934829325738778527 -0.03440290947767680324 -0.04946545166363978258  0.00008512499311166203 -0.00000992616444357992 -0.00042930733140381208
1520530323.650349 0.00000000000000000000 0.00000000000000000000 0.00000000000000000000 0.00000000000000000000 0.00000000000000000000 0.00000000000000000000  0.00973501186593476488 -0.03383182333328983021 -0.05005794489477273512  0.00001573245168394321  0.00001881144828023255 -0.00043255774987854676
1520530323.750353 0.00000000000000000000 0.00000000000000000000 0.00000000000000000000 0.00000000000000000000 0.00000000000000000000 0.00000000000000000000  0.00946134787115874253 -0.03225691941897968623 -0.05037230700923508303  0.00005377300876410191  0.00001583454309670689 -0.00042812745975967851
1520530323.900153 0.00000000000000000000 0.00000000000000000000 0.00000000000000000000 0.00000000000000000000 0.00000000000000000000 0.00000000000000000000  0.00751094783851774354 -0.03280572094650387183 -0.05032571229590992318  0.00009361536100499825 -0.00001431597665832195 -0.00043210609495218872
1520530324.050157 0.00000000000000000000 0.00000000000000000000 0.00000000000000000000 0.00000000000000000000 0.00000000000000000000 0.00000000000000000000  0.00779249917416447238 -0.03233530645766857781 -0.05069572870649948632  0.00011223488454432540 -0.00005132130685128038 -0.00043647949501354158
1520530324.200162 0.00000000000000000000 0.00000000000000000000 0.00000000000000000000 0.00000000000000000000 0.00000000000000000000 0.00000000000000000000  0.00768695297555520903 -0.03286813163741818949 -0.05101230941060223845  0.00003517963435099241 -0.00005003753829564818 -0.00043920440978616236
1520530324.299908 0.00000000000000000000 0.00000000000000000000 0.00000000000000000000 0.00000000000000000000 0.00000000000000000000 0.00000000000000000000  0.00703768598741514543 -0.03581163033121782802 -0.05107441305022372702 -0.00004228409754898974 -0.00000945515288921105 -0.00043812373941017134
1520530324.399911 0.00000000000000000000 0.00000000000000000000 0.00000000000000000000 0.00000000000000000000 0.00000000000000000000 0.00000000000000000000  0.00846801626027513486 -0.03621060276108556408 -0.05154407859335861236  0.00003431927489280261 -0.00001188970265741472 -0.00041949524928338086
1520530324.499994 0.00000000000000000000 0.00000000000000000000 0.00000000000000000000 0.00000000000000000000 0.00000000000000000000 0.00000000000000000000  0.00927267583633804848 -0.03729113751141271277 -0.05153667556959399404  0.00008923623984186387 -0.00004406042896353740 -0.00045590385436945237
1520530324.599917 0.00000000000000000000 0.00000000000000000000 0.00000000000000000000 0.00000000000000000000 0.00000000000000000000 0.00000000000000000000  0.00842405084304929420 -0.03630535762343764516 -0.05129098323354902567  0.00012021346839998062 -0.00008004137125805279 -0.00046386168317795110
1520530324.750020 0.00000000000000000000 0.00000000000000000000 0.00000000000000000000 0.00000000000000000000 0.00000000000000000000 0.00000000000000000000  0.00789053276743829912 -0.03574391408799086622 -0.05126103722367110482  0.00013294800384359206 -0.00005315265020342300 -0.00046268348495865838
1520530324.900024 0.00000000000000000000 0.00000000000000000000 0.00000000000000000000 0.00000000000000000000 0.00000000000000000000 0.00000000000000000000  0.00796332131801562315 -0.03505682968050603115 -0.05121851490397996004  0.00011799364114103514 -0.00003740530246921992 -0.00047202304455153918
1520530325.100816 0.00000000000000000000 0.00000000000000000000 0.00000000000000000000 0.00000000000000000000 0.00000000000000000000 0.00000000000000000000  0.00743628566247354558 -0.03481045436753498618 -0.05105388836784732071  0.00013304271171632719 -0.00006252820086080432 -0.00048551550467466887
1520530325.300822 0.00000000000000000000 0.00000000000000000000 0.00000000000000000000 0.00000000000000000000 0.00000000000000000000 0.00000000000000000000  0.00747249511746455111 -0.03430093513960755236 -0.05112482148552749406  0.00013620713987128703 -0.00005554086886646549 -0.00044416387399441533
1520530325.500828 0.00000000000000000000 0.00000000000000000000 0.00000000000000000000 0.00000000000000000000 0.00000000000000000000 0.00000000000000000000  0.00598000943595840273 -0.03420868444085714555 -0.05074992310152022512  0.00018863131509831856 -0.00009697066881717841 -0.00032489424520569033
1520530325.700918 0.00000000000000000000 0.00000000000000000000 0.00000000000000000000 0.00000000000000000000 0.00000000000000000000 0.00000000000000000000  0.00724195181452409482 -0.03518850351309429914 -0.05058976479048227920  0.00015443105169416703 -0.00010368249427051647 -0.00034097605674390119
1520530325.900924 0.00000000000000000000 0.00000000000000000000 0.00000000000000000000 0.00000000000000000000 0.00000000000000000000 0.00000000000000000000  0.00836787401542766693 -0.03533714910750952037 -0.05099673830856286255  0.00008647930198755031 -0.00015187909782716117 -0.00037380614963449936
1520530326.000543 0.00000000000000000000 0.00000000000000000000 0.00000000000000000000 0.00000000000000000000 0.00000000000000000000 0.00000000000000000000  0.01076862399908475564 -0.03219567777721733803 -0.05190883622982880863  0.00012420318603546297 -0.00013044979062223227 -0.00043582993692205729
1520530326.150548 0.00000000000000000000 0.00000000000000000000 0.00000000000000000000 0.00000000000000000000 0.00000000000000000000 0.00000000000000000000  0.01263512988433273393 -0.03088039544494573102 -0.05192777197558746949  0.00011232275016757937 -0.00011859878733983990 -0.00043349563189943338
1520530326.300552 0.00000000000000000000 0.00000000000000000000 0.00000000000000000000 0.00000000000000000000 0.00000000000000000000 0.00000000000000000000  0.01306961911536184615 -0.02928346632636634819 -0.05220827671798807662  0.00019229155521609297 -0.00009875606902888066 -0.00039352353833967883
1520530326.400206 0.00000000000000000000 0.00000000000000000000 0.00000000000000000000 0.00000000000000000000 0.00000000000000000000 0.00000000000000000000  0.01145851746562057648 -0.02800440028041288609 -0.05205684752343699845  0.00021562509747601421 -0.00010638094519941137 -0.00037131196302438271
1520530326.600213 0.00000000000000000000 0.00000000000000000000 0.00000000000000000000 0.00000000000000000000 0.00000000000000000000 0.00000000000000000000  0.01088301475731847691 -0.02829617033286317695 -0.05198659608218610118  0.00022177556014222574 -0.00008107938351164769 -0.00038053054281771072
1520530326.750427 0.00000000000000000000 0.00000000000000000000 0.00000000000000000000 0.00000000000000000000 0.00000000000000000000 0.00000000000000000000  0.00953445290925909565 -0.02652111936067279643 -0.05143744666773605867  0.00025924915018782753 -0.00009384556346739172 -0.00038420222776026973
1520530326.950432 0.00000000000000000000 0.00000000000000000000 0.00000000000000000000 0.00000000000000000000 0.00000000000000000000 0.00000000000000000000  0.00864960213616430135 -0.02181886174633572428 -0.05102438882793330216  0.00021272595662854914 -0.00003921356942543574 -0.00039030321758596898
1520530327.050437 0.00000000000000000000 0.00000000000000000000 0.00000000000000000000 0.00000000000000000000 0.00000000000000000000 0.00000000000000000000  0.00718902773599266413 -0.02338113178671134135 -0.05095762786483225282  0.00009660936872544362  0.00002171498853748500 -0.00033274115471149769
1520530327.150431 0.00000000000000000000 0.00000000000000000000 0.00000000000000000000 0.00000000000000000000 0.00000000000000000000 0.00000000000000000000  0.00758215983212303605 -0.02273880473552413253 -0.05125277796635215738  0.00002142200845987826  0.00004756039283692472 -0.00032799001454515621
1520530327.250435 0.00000000000000000000 0.00000000000000000000 0.00000000000000000000 0.00000000000000000000 0.00000000000000000000 0.00000000000000000000  0.00952008877150009071 -0.02188160259272416835 -0.05192217056558882243  0.00002161889413257956  0.00000758618218543370 -0.00027219363351799083
1520530327.400439 0.00000000000000000000 0.00000000000000000000 0.00000000000000000000 0.00000000000000000000 0.00000000000000000000 0.00000000000000000000  0.01076048753328341483 -0.02097578934300594819 -0.05261217914002760954  0.00004318693503954222 -0.00006209512500265029 -0.00026443877945142368
1520530327.500442 0.00000000000000000000 0.00000000000000000000 0.00000000000000000000 0.00000000000000000000 0.00000000000000000000 0.00000000000000000000  0.01159651606066375122 -0.02189533412324171091 -0.05282538940197152588  0.00009489677597046594 -0.00007759848936834961 -0.00021584185679196621
1520530327.600091 0.00000000000000000000 0.00000000000000000000 0.00000000000000000000 0.00000000000000000000 0.00000000000000000000 0.00000000000000000000  0.01120661059962322313 -0.02255032931441841929 -0.05249958092261244880  0.00011046679027314905 -0.00006057182130973037 -0.00012250160764527647
1520530327.700094 0.00000000000000000000 0.00000000000000000000 0.00000000000000000000 0.00000000000000000000 0.00000000000000000000 0.00000000000000000000  0.00995745008830714422 -0.02078491813817933548 -0.05278068228681070256  0.00013412029260259376 -0.00005168814066053518 -0.00009053029676809425
1520530327.750096 0.00000000000000000000 0.00000000000000000000 0.00000000000000000000 0.00000000000000000000 0.00000000000000000000 0.00000000000000000000  0.00815211836062483194 -0.02093449005817737268 -0.05275601274276187774  0.00014597453359847475 -0.00005267298311118318 -0.00002298880305233113
1520530327.850099 0.00000000000000000000 0.00000000000000000000 0.00000000000000000000 0.00000000000000000000 0.00000000000000000000 0.00000000000000000000  0.00547207263932090668 -0.02157669390667278642 -0.05207324660286295065  0.00012822521947580714 -0.00007623286507252605  0.00006173396695104392
1520530327.950102 0.00000000000000000000 0.00000000000000000000 0.00000000000000000000 0.00000000000000000000 0.00000000000000000000 0.00000000000000000000  0.00480619564437843264 -0.01999102176831999214 -0.05176912166430808204  0.00006490939314894833 -0.00009464192933686226  0.00002266335395464728
1520530328.000280 0.00000000000000000000 0.00000000000000000000 0.00000000000000000000 0.00000000000000000000 0.00000000000000000000 0.00000000000000000000  0.00781622244953991512 -0.01862983925093085816 -0.05195892968539514434 -0.00002831453109442789 -0.00013540652016869203 -0.00005155215489969410
1520530328.100283 0.00000000000000000000 0.00000000000000000000 0.00000000000000000000 0.00000000000000000000 0.00000000000000000000 0.00000000000000000000  0.00708630065354791568 -0.02203690280604161944 -0.05174569950268917418 -0.00002537198045551108 -0.00016569152231104325 -0.00007310552389225250
1520530328.200287 0.00000000000000000000 0.00000000000000000000 0.00000000000000000000 0.00000000000000000000 0.00000000000000000000 0.00000000000000000000  0.00733407360658730467 -0.02026482466709775276 -0.05214548417346419329  0.00004544377860201895 -0.00013908252730041262 -0.00011331805368987197
1520530328.300290 0.00000000000000000000 0.00000000000000000000 0.00000000000000000000 0.00000000000000000000 0.00000000000000000000 0.00000000000000000000  0.00644999873256958331 -0.01701496146340605517 -0.05273019679043594587  0.00010989045312826192 -0.00009180872823863724 -0.00021091177276177814
1520530328.400337 0.00000000000000000000 0.00000000000000000000 0.00000000000000000000 0.00000000000000000000 0.00000000000000000000 0.00000000000000000000  0.00733685133664924768 -0.01650835101305563046 -0.05288645185617834449  0.00018715584335729079 -0.00007387531671002411 -0.00041833665717346327
1520530328.500340 0.00000000000000000000 0.00000000000000000000 0.00000000000000000000 0.00000000000000000000 0.00000000000000000000 0.00000000000000000000  0.01015227830572266315 -0.01799314642860823030 -0.05256975287939665009  0.00022042342514424376 -0.00007202809075537633 -0.00054732961298487926
1520530328.600344 0.00000000000000000000 0.00000000000000000000 0.00000000000000000000 0.00000000000000000000 0.00000000000000000000 0.00000000000000000000  0.00995495247477541471 -0.02148363362493335357 -0.05226816399870496538  0.00016215368754296067 -0.00005146833309771268 -0.00063558381797797128
1520530328.650346 0.00000000000000000000 0.00000000000000000000 0.00000000000000000000 0.00000000000000000000 0.00000000000000000000 0.00000000000000000000  0.00927787528545720962 -0.02330839874391378228 -0.05238506402618724189  0.00006639038867278443  0.00003064730757849856 -0.00074126602134682890
1520530328.750348 0.00000000000000000000 0.00000000000000000000 0.00000000000000000000 0.00000000000000000000 0.00000000000000000000 0.00000000000000000000  0.00991590332036317891 -0.02226173936170684417 -0.05285002004549502197  0.00004600071740454382  0.00007909520974367196 -0.00077273513162718222
1520530328.800086 0.00000000000000000000 0.00000000000000000000 0.00000000000000000000 0.00000000000000000000 0.00000000000000000000 0.00000000000000000000  0.00925239701325804818 -0.02369289396554104254 -0.05269643247534923358  0.00008513045538761212  0.00011006901775903545 -0.00071079414897713775
1520530329.000092 0.00000000000000000000 0.00000000000000000000 0.00000000000000000000 0.00000000000000000000 0.00000000000000000000 0.00000000000000000000  0.01002832570916975877 -0.03532034448331276832 -0.05117599107221484922  0.00014715844831411415  0.00011636789558745026 -0.00064753430251639243
1520530329.100095 0.00000000000000000000 0.00000000000000000000 0.00000000000000000000 0.00000000000000000000 0.00000000000000000000 0.00000000000000000000  0.01292636132142037722 -0.03236459860761772139 -0.05162762442641073701  0.00013202296391124103  0.00001975400939924191 -0.00026236435169199574
1520530329.200044 0.00000000000000000000 0.00000000000000000000 0.00000000000000000000 0.00000000000000000000 0.00000000000000000000 0.00000000000000000000  0.01469220661314552326 -0.03172794920126777163 -0.05177489244441663141  0.00012601756974880778 -0.00001235266887781112 -0.00013295295110920922
1520530329.300047 0.00000000000000000000 0.00000000000000000000 0.00000000000000000000 0.00000000000000000000 0.00000000000000000000 0.00000000000000000000  0.01379826472715298992 -0.03255371062924838216 -0.05146621250511997786  0.00013560823811791759 -0.00004880491484340790 -0.00009472240419887472
1520530329.400050 0.00000000000000000000 0.00000000000000000000 0.00000000000000000000 0.00000000000000000000 0.00000000000000000000 0.00000000000000000000  0.01280840737413073416 -0.03342630073643924893 -0.05140899437818153422  0.00012553441790911661 -0.00009584814962727072 -0.00008448136725505211
1520530329.650099 0.00000000000000000000 0.00000000000000000000 0.00000000000000000000 0.00000000000000000000 0.00000000000000000000 0.00000000000000000000  0.01313019896631066434 -0.02856108902025190910 -0.05163652662879224253  0.00013201382580501050 -0.00017016364720245597 -0.00014824271421736096
1520530329.750102 0.00000000000000000000 0.00000000000000000000 0.00000000000000000000 0.00000000000000000000 0.00000000000000000000 0.00000000000000000000  0.01470585357138973898 -0.03114988435791575874 -0.05144621582711723234  0.00013331560446186978 -0.00031809565839784694 -0.00058849847030838665
1520530329.850105 0.00000000000000000000 0.00000000000000000000 0.00000000000000000000 0.00000000000000000000 0.00000000000000000000 0.00000000000000000000  0.01487186931785217797 -0.03179743959918129165 -0.05155806804084362566  0.00011501547522432991 -0.00027809951843304272 -0.00073248867860346736
1520530329.950109 0.00000000000000000000 0.00000000000000000000 0.00000000000000000000 0.00000000000000000000 0.00000000000000000000 0.00000000000000000000  0.01584725753499775097 -0.03258068023881151298 -0.05200613811217853766  0.00014429804113996490 -0.00018437681183586704 -0.00068266826504286460
1520530330.050161 0.00000000000000000000 0.00000000000000000000 0.00000000000000000000 0.00000000000000000000 0.00000000000000000000 0.00000000000000000000  0.01565876102102568140 -0.03490913681534558305 -0.05205957763627488272  0.00017139221583249131 -0.00012844486841258459 -0.00066013554596851666
1520530330.150164 0.00000000000000000000 0.00000000000000000000 0.00000000000000000000 0.00000000000000000000 0.00000000000000000000 0.00000000000000000000  0.01723890011607212211 -0.03593584205717961777 -0.05174396010751478037  0.00020322994241074699  0.00007513532459385379 -0.00062176243733054904
1520530330.250167 0.00000000000000000000 0.00000000000000000000 0.00000000000000000000 0.00000000000000000000 0.00000000000000000000 0.00000000000000000000  0.02080913651908847598 -0.03676119674777423435 -0.05137194545921264927  0.00017135052349643429  0.00022072712015441988 -0.00061358911480402403
1520530330.350170 0.00000000000000000000 0.00000000000000000000 0.00000000000000000000 0.00000000000000000000 0.00000000000000000000 0.00000000000000000000  0.02314485999351008350 -0.03640972685657668795 -0.05135334923140388863  0.00015727335348125071  0.00027920338514579146 -0.00061009532754588533
1520530330.450787 0.00000000000000000000 0.00000000000000000000 0.00000000000000000000 0.00000000000000000000 0.00000000000000000000 0.00000000000000000000  0.02189687140253734204 -0.03448500271131924727 -0.05176162649443073055  0.00012655133437959712  0.00036923136736135518 -0.00056991805361206931
1520530330.550790 0.00000000000000000000 0.00000000000000000000 0.00000000000000000000 0.00000000000000000000 0.00000000000000000000 0.00000000000000000000  0.01878621996388715742 -0.03279990022376680359 -0.05220100714491199972  0.00010643817636208596  0.00038583704644213148 -0.00038464669478708441
1520530330.650793 0.00000000000000000000 0.00000000000000000000 0.00000000000000000000 0.00000000000000000000 0.00000000000000000000 0.00000000000000000000  0.01554803641435734997 -0.03217441682361193989 -0.05200121959523445331  0.00014175918057491834  0.00029631664961199275 -0.00020830505971079568
1520530330.750797 0.00000000000000000000 0.00000000000000000000 0.00000000000000000000 0.00000000000000000000 0.00000000000000000000 0.00000000000000000000  0.01402161508046110769 -0.03564282000529636618 -0.05161021509525438172  0.00013841869394956533  0.00022154681065004875 -0.00009799049149950385
1520530330.850367 0.00000000000000000000 0.00000000000000000000 0.00000000000000000000 0.00000000000000000000 0.00000000000000000000 0.00000000000000000000  0.01482815359668581724 -0.03923621986174669757 -0.05139191931456318918  0.00014746764092824540  0.00012446265169866881 -0.00001868161741877104
1520530330.950279 0.00000000000000000000 0.00000000000000000000 0.00000000000000000000 0.00000000000000000000 0.00000000000000000000 0.00000000000000000000  0.01578013143092418455 -0.04188665310361702754 -0.05124602822104565997  0.00016843106901300996  0.00000245391494260928 -0.00002215875209171665
1520530331.050282 0.00000000000000000000 0.00000000000000000000 0.00000000000000000000 0.00000000000000000000 0.00000000000000000000 0.00000000000000000000  0.01564586619641023316 -0.04161629894323236323 -0.05117185170209177791  0.00018668019978358992 -0.00016982393529830811 -0.00004952357563280460
1520530331.150285 0.00000000000000000000 0.00000000000000000000 0.00000000000000000000 0.00000000000000000000 0.00000000000000000000 0.00000000000000000000  0.01578722093613318597 -0.04247974947448667632 -0.05105093535601524374  0.00016314328307426518 -0.00020718542346079473 -0.00012357619079928918
1520530331.250735 0.00000000000000000000 0.00000000000000000000 0.00000000000000000000 0.00000000000000000000 0.00000000000000000000 0.00000000000000000000  0.01558751433375591376 -0.04419003410582906383 -0.05078975674102876453  0.00013241731243178510 -0.00028722715269222327 -0.00020436100366180709
1520530331.350738 0.00000000000000000000 0.00000000000000000000 0.00000000000000000000 0.00000000000000000000 0.00000000000000000000 0.00000000000000000000  0.01539607283182520964 -0.04379932121001102463 -0.05055698327788718527  0.00008851632973586472 -0.00035093226142162673 -0.00029333410239017259
1520530331.450741 0.00000000000000000000 0.00000000000000000000 0.00000000000000000000 0.00000000000000000000 0.00000000000000000000 0.00000000000000000000  0.01531012105219759119 -0.04377634512143218498 -0.05041981222900008414  0.00001692087862136308 -0.00042361328636846972 -0.00037674557061633137
1520530331.550744 0.00000000000000000000 0.00000000000000000000 0.00000000000000000000 0.00000000000000000000 0.00000000000000000000 0.00000000000000000000  0.01597468757260026712 -0.04419289721021138484 -0.05062518362227125257 -0.00001226615737993616 -0.00047872725247923145 -0.00044209943551292184
1520530331.650479 0.00000000000000000000 0.00000000000000000000 0.00000000000000000000 0.00000000000000000000 0.00000000000000000000 0.00000000000000000000  0.01657564140065528185 -0.04408622343495176288 -0.05083399583730106863  0.00002737774222358945 -0.00045076122540638002 -0.00055442173616805754
1520530331.700481 0.00000000000000000000 0.00000000000000000000 0.00000000000000000000 0.00000000000000000000 0.00000000000000000000 0.00000000000000000000  0.01607959849777963052 -0.04375879436346127166 -0.05081521577712828919  0.00007313178519025663 -0.00036334954483901121 -0.00063387663167232189
1520530331.800484 0.00000000000000000000 0.00000000000000000000 0.00000000000000000000 0.00000000000000000000 0.00000000000000000000 0.00000000000000000000  0.01562156268163412617 -0.04439166788470793462 -0.05074464731400512435  0.00010532692236404689 -0.00028355037590921579 -0.00063922527225800151
1520530331.900488 0.00000000000000000000 0.00000000000000000000 0.00000000000000000000 0.00000000000000000000 0.00000000000000000000 0.00000000000000000000  0.01500327365395728169 -0.04381400221770932052 -0.05085643702901325447  0.00012676478576652432 -0.00015021500760381630 -0.00061498681937561216
1520530332.000491 0.00000000000000000000 0.00000000000000000000 0.00000000000000000000 0.00000000000000000000 0.00000000000000000000 0.00000000000000000000  0.01427441028092337090 -0.04239723148582898171 -0.05076024471301258945  0.00015012902004056080  0.00000133574444216285 -0.00059350166122118585
1520530332.050387 0.00000000000000000000 0.00000000000000000000 0.00000000000000000000 0.00000000000000000000 0.00000000000000000000 0.00000000000000000000  0.01430756080236825732 -0.04082323299430795638 -0.05079551842213746865  0.00017786883305841064  0.00006447845526698874 -0.00055966167897961215
1520530332.150390 0.00000000000000000000 0.00000000000000000000 0.00000000000000000000 0.00000000000000000000 0.00000000000000000000 0.00000000000000000000  0.01440999562464435543 -0.04083627807570300305 -0.05052296943335674029  0.00021148063094473835  0.00009458870157923059 -0.00054917727369521979
1520530332.250393 0.00000000000000000000 0.00000000000000000000 0.00000000000000000000 0.00000000000000000000 0.00000000000000000000 0.00000000000000000000  0.01457527003912605611 -0.04109959770639568660 -0.05025166667188387531  0.00021188589561408342  0.00011408403023801294 -0.00050058488496429877
1520530332.350396 0.00000000000000000000 0.00000000000000000000 0.00000000000000000000 0.00000000000000000000 0.00000000000000000000 0.00000000000000000000  0.01319080921140311675 -0.04030847092759085731 -0.05019710811874601025  0.00013177989991028450  0.00018864084414413167 -0.00040190478921155664
1520530332.450399 0.00000000000000000000 0.00000000000000000000 0.00000000000000000000 0.00000000000000000000 0.00000000000000000000 0.00000000000000000000  0.01148095164460995535 -0.04033875593723590391 -0.05029723801359104601  0.00006344232253734009  0.00016872007945943653 -0.00023601090142423358
1520530332.550483 0.00000000000000000000 0.00000000000000000000 0.00000000000000000000 0.00000000000000000000 0.00000000000000000000 0.00000000000000000000  0.00970441314173076282 -0.04181568522460332726 -0.05022363359290061419  0.00006525151520345453  0.00017101720629354852 -0.00015393811353430734
1520530332.600486 0.00000000000000000000 0.00000000000000000000 0.00000000000000000000 0.00000000000000000000 0.00000000000000000000 0.00000000000000000000  0.00878676034984526150 -0.04326784599114136265 -0.05019100295202612999  0.00005884215931388892  0.00011431979083992403 -0.00008207471653138044
1520530332.700489 0.00000000000000000000 0.00000000000000000000 0.00000000000000000000 0.00000000000000000000 0.00000000000000000000 0.00000000000000000000  0.00877088175958851135 -0.04893152318525565564 -0.05007101753401982380  0.00007317241957742930  0.00006594345222777328 -0.00004213985701229800
1520530332.800492 0.00000000000000000000 0.00000000000000000000 0.00000000000000000000 0.00000000000000000000 0.00000000000000000000 0.00000000000000000000  0.00707292307493177612 -0.05256685063325246265 -0.04957124895070803144  0.00014849042889535576  0.00001690995019390903 -0.00000014285113009484
1520530332.900164 0.00000000000000000000 0.00000000000000000000 0.00000000000000000000 0.00000000000000000000 0.00000000000000000000 0.00000000000000000000  0.00605067787856019591 -0.05395207670804236244 -0.04931513408787076280  0.00020023750634761108 -0.00015109187814414991 -0.00000530438722886690
1520530333.000168 0.00000000000000000000 0.00000000000000000000 0.00000000000000000000 0.00000000000000000000 0.00000000000000000000 0.00000000000000000000  0.00496823537430335273 -0.05615044442813291181 -0.04896068617018061592  0.00023233293616246000 -0.00027218225355612411 -0.00001559594528788524
1520530333.100171 0.00000000000000000000 0.00000000000000000000 0.00000000000000000000 0.00000000000000000000 0.00000000000000000000 0.00000000000000000000  0.00279919084245265713 -0.05779865186373558950 -0.04819598664978969049  0.00026125202588102569 -0.00036610605149141128  0.00000118444729845830
1520530333.200174 0.00000000000000000000 0.00000000000000000000 0.00000000000000000000 0.00000000000000000000 0.00000000000000000000 0.00000000000000000000 -0.00015508014281775473 -0.05749309659606999939 -0.04757170879705972105  0.00026471012850687591 -0.00035777799620225474 -0.00000326641313489236
1520530333.250175 0.00000000000000000000 0.00000000000000000000 0.00000000000000000000 0.00000000000000000000 0.00000000000000000000 0.00000000000000000000 -0.00124867691161190358 -0.05889808824347852328 -0.04736588671375818044  0.00019301193662774423 -0.00033468031539335289 -0.00003109264644374155
1520530333.350610 0.00000000000000000000 0.00000000000000000000 0.00000000000000000000 0.00000000000000000000 0.00000000000000000000 0.00000000000000000000 -0.00173467219330935988 -0.05947425349099457609 -0.04727864198881136237  0.00011844836820433673 -0.00035268351151628708 -0.00004594682346728686
1520530333.400612 0.00000000000000000000 0.00000000000000000000 0.00000000000000000000 0.00000000000000000000 0.00000000000000000000 0.00000000000000000000 -0.00172549018799508119 -0.06018579804199525318 -0.04723448799342517407  0.00009294516375427504 -0.00037982795683099639 -0.00005406260736040574
1520530333.500615 0.00000000000000000000 0.00000000000000000000 0.00000000000000000000 0.00000000000000000000 0.00000000000000000000 0.00000000000000000000 -0.00143676317797435593 -0.06069373949486996794 -0.04731310798894596686  0.00011151635899422150 -0.00037877198632070303 -0.00007118248624297092
1520530333.650619 0.00000000000000000000 0.00000000000000000000 0.00000000000000000000 0.00000000000000000000 0.00000000000000000000 0.00000000000000000000 -0.00089931249583871501 -0.06071361745220982958 -0.04753510413922001909  0.00014937558737301455 -0.00028897129223684709 -0.00007837068721236630
1520530333.750542 0.00000000000000000000 0.00000000000000000000 0.00000000000000000000 0.00000000000000000000 0.00000000000000000000 0.00000000000000000000 -0.00282599532131768902 -0.06281825351112808875 -0.04662017924052579837  0.00017612025881890296 -0.00033713265614044972 -0.00024339407902646473
1520530333.800544 0.00000000000000000000 0.00000000000000000000 0.00000000000000000000 0.00000000000000000000 0.00000000000000000000 0.00000000000000000000 -0.00274809940070207172 -0.06408319697891552702 -0.04631948239704726522  0.00014589197516455202 -0.00029221370161806420 -0.00041818119429644910
1520530333.900547 0.00000000000000000000 0.00000000000000000000 0.00000000000000000000 0.00000000000000000000 0.00000000000000000000 0.00000000000000000000 -0.00242837809314496280 -0.06566415405101387603 -0.04600724031662517532  0.00012870259879020670 -0.00027748789570759927 -0.00048987649075919151
1520530333.950549 0.00000000000000000000 0.00000000000000000000 0.00000000000000000000 0.00000000000000000000 0.00000000000000000000 0.00000000000000000000 -0.00181824545156085145 -0.06351285986896622326 -0.04632606801027994159  0.00011949642688723151 -0.00023032195206805408 -0.00049938580405216077
1520530334.050551 0.00000000000000000000 0.00000000000000000000 0.00000000000000000000 0.00000000000000000000 0.00000000000000000000 0.00000000000000000000 -0.00026748787764164649 -0.06893466933657342588 -0.04607208840363798824  0.00014493440521598638 -0.00019171082406758085 -0.00050674093063294255
1520530334.100216 0.00000000000000000000 0.00000000000000000000 0.00000000000000000000 0.00000000000000000000 0.00000000000000000000 0.00000000000000000000  0.00048602777628966215 -0.06985264887507361409 -0.04609277578618329457  0.00020037635737861636 -0.00023600800697376774 -0.00041149406049059532
1520530334.350224 0.00000000000000000000 0.00000000000000000000 0.00000000000000000000 0.00000000000000000000 0.00000000000000000000 0.00000000000000000000  0.00069215496140327649 -0.07004313165791023477 -0.04788140483422896609  0.00023960789819433789 -0.00027750088379869197 -0.00031204024436971676
1520530334.450227 0.00000000000000000000 0.00000000000000000000 0.00000000000000000000 0.00000000000000000000 0.00000000000000000000 0.00000000000000000000  0.00200303099960763087 -0.06866499569606794584 -0.04761063557039024036  0.00054128108822916053 -0.00035095636892317530 -0.00015197894277332169
1520530334.550086 0.00000000000000000000 0.00000000000000000000 0.00000000000000000000 0.00000000000000000000 0.00000000000000000000 0.00000000000000000000  0.00379562955167368939 -0.06899821578827597390 -0.04696163772308972750  0.00069372356126442311 -0.00037076196285859456 -0.00005256157782302939
1520530334.650089 0.00000000000000000000 0.00000000000000000000 0.00000000000000000000 0.00000000000000000000 0.00000000000000000000 0.00000000000000000000  0.00532825203229294123 -0.07229273949097565766 -0.04683227800336756119  0.00065150998310574632 -0.00033817627159890080 -0.00008019196829294110
1520530334.750092 0.00000000000000000000 0.00000000000000000000 0.00000000000000000000 0.00000000000000000000 0.00000000000000000000 0.00000000000000000000  0.00587614573662844936 -0.07161186630990813706 -0.04704592010722835616  0.00064534073868032611 -0.00031136421560931741 -0.00010796285203551681
1520530334.850095 0.00000000000000000000 0.00000000000000000000 0.00000000000000000000 0.00000000000000000000 0.00000000000000000000 0.00000000000000000000  0.00627457441317212910 -0.07151353975463227430 -0.04697468736808776274  0.00064992691769975462 -0.00028350393657137829 -0.00016757186759778933
1520530334.950928 0.00000000000000000000 0.00000000000000000000 0.00000000000000000000 0.00000000000000000000 0.00000000000000000000 0.00000000000000000000  0.00609823728593617692 -0.07119900851156540922 -0.04627645417357331703  0.00062419041333191931 -0.00026578540327013001 -0.00019483006270681915
1520530335.100933 0.00000000000000000000 0.00000000000000000000 0.00000000000000000000 0.00000000000000000000 0.00000000000000000000 0.00000000000000000000  0.00574868105600675160 -0.06811783014144642823 -0.04532064819128573535  0.00045195205514398897 -0.00023638091348987273 -0.00026031102955233464
1520530335.200936 0.00000000000000000000 0.00000000000000000000 0.00000000000000000000 0.00000000000000000000 0.00000000000000000000 0.00000000000000000000  0.00551758695541655804 -0.06906090649707584406 -0.04584138207704498147  0.00012826227013922447 -0.00022556370269031698 -0.00030532558825342038
1520530335.300938 0.00000000000000000000 0.00000000000000000000 0.00000000000000000000 0.00000000000000000000 0.00000000000000000000 0.00000000000000000000  0.00652772122758077736 -0.07050814414764462745 -0.04622865729499649190 -0.00002861325627465444 -0.00028975731974300060 -0.00027302946683012175
1520530335.401458 0.00000000000000000000 0.00000000000000000000 0.00000000000000000000 0.00000000000000000000 0.00000000000000000000 0.00000000000000000000  0.00682728443804372226 -0.07099794054735260318 -0.04633569504191893673 -0.00004631543664258123 -0.00033534443588503153 -0.00026182548893933952
1520530335.501461 0.00000000000000000000 0.00000000000000000000 0.00000000000000000000 0.00000000000000000000 0.00000000000000000000 0.00000000000000000000  0.00622063627629275504 -0.07148769768838643401 -0.04672626883237617629 -0.00010100469704345037 -0.00034142084988337347 -0.00023349757189281291
1520530335.601512 0.00000000000000000000 0.00000000000000000000 0.00000000000000000000 0.00000000000000000000 0.00000000000000000000 0.00000000000000000000  0.00491573290161115978 -0.07167087341460970373 -0.04694014128889382326 -0.00004328278550301709 -0.00033345452157401446 -0.00027341014302055533
1520530335.750223 0.00000000000000000000 0.00000000000000000000 0.00000000000000000000 0.00000000000000000000 0.00000000000000000000 0.00000000000000000000  0.00649546080586281983 -0.07299204425104530158 -0.04718448234502296140  0.00016889955187123382 -0.00028995470637036881 -0.00011753264294545041
1520530335.900227 0.00000000000000000000 0.00000000000000000000 0.00000000000000000000 0.00000000000000000000 0.00000000000000000000 0.00000000000000000000  0.00660060823794847429 -0.07328497117924738513 -0.04808799758145934633  0.00023563341456806850 -0.00031630275072393866 -0.00009546147645301087
1520530336.000230 0.00000000000000000000 0.00000000000000000000 0.00000000000000000000 0.00000000000000000000 0.00000000000000000000 0.00000000000000000000  0.00699371667305051341 -0.07343936679117397948 -0.04807084288616884221  0.00040066265069946228 -0.00032643841471222162 -0.00002441712361916017
1520530336.100233 0.00000000000000000000 0.00000000000000000000 0.00000000000000000000 0.00000000000000000000 0.00000000000000000000 0.00000000000000000000  0.00696309949585922298 -0.07350118939700170384 -0.04715468940132257897  0.00068328715719937025 -0.00024855264326151727  0.00007578764276476212
1520530336.200179 0.00000000000000000000 0.00000000000000000000 0.00000000000000000000 0.00000000000000000000 0.00000000000000000000 0.00000000000000000000  0.00706036598843007204 -0.07380927859287593484 -0.04627258713455530137  0.00073606820387765162 -0.00021544653365395105  0.00014445315000208441
1520530336.300182 0.00000000000000000000 0.00000000000000000000 0.00000000000000000000 0.00000000000000000000 0.00000000000000000000 0.00000000000000000000  0.00736827714434088940 -0.07339618825393959267 -0.04612748614889463500  0.00067530887760446805 -0.00025028976242649238  0.00018538507702296427
1520530336.400185 0.00000000000000000000 0.00000000000000000000 0.00000000000000000000 0.00000000000000000000 0.00000000000000000000 0.00000000000000000000  0.00702080716584987073 -0.07342240263849512949 -0.04580043140212866626  0.00059448921155932477 -0.00030043439190988061  0.00023590416574875524
1520530336.500188 0.00000000000000000000 0.00000000000000000000 0.00000000000000000000 0.00000000000000000000 0.00000000000000000000 0.00000000000000000000  0.00659446038713946883 -0.07346444617798818244 -0.04565520498548835543  0.00052201115946763643 -0.00035117058749507037  0.00024108975825253847
1520530336.600584 0.00000000000000000000 0.00000000000000000000 0.00000000000000000000 0.00000000000000000000 0.00000000000000000000 0.00000000000000000000  0.00601422745629974238 -0.07115130596475276181 -0.04643448188603870042  0.00042888999671173599 -0.00038933712047169660  0.00019709006185549441
1520530336.700586 0.00000000000000000000 0.00000000000000000000 0.00000000000000000000 0.00000000000000000000 0.00000000000000000000 0.00000000000000000000  0.00566497143247580038 -0.06897634795801646512 -0.04711806167022965924  0.00034742121106953180 -0.00038410530449505670  0.00010768118012715443
1520530336.800590 0.00000000000000000000 0.00000000000000000000 0.00000000000000000000 0.00000000000000000000 0.00000000000000000000 0.00000000000000000000  0.00524171021631767136 -0.06852114899996603059 -0.04743541513711941465  0.00037766145123084474 -0.00032470385751820393  0.00006570381770093491
1520530336.900594 0.00000000000000000000 0.00000000000000000000 0.00000000000000000000 0.00000000000000000000 0.00000000000000000000 0.00000000000000000000  0.00589045485092778640 -0.06862003963104809645 -0.04754472608140390688  0.00043661861741797211 -0.00025585851425618942 -0.00004134614148648738
1520530337.000258 0.00000000000000000000 0.00000000000000000000 0.00000000000000000000 0.00000000000000000000 0.00000000000000000000 0.00000000000000000000  0.00609253240925838532 -0.06846154982701654901 -0.04818148660091014363  0.00047598358993580992 -0.00023296611863364070 -0.00009090045288108597
1520530337.100266 0.00000000000000000000 0.00000000000000000000 0.00000000000000000000 0.00000000000000000000 0.00000000000000000000 0.00000000000000000000  0.00630402562764296320 -0.06797642305766868343 -0.04846063905286741164  0.00060015797269889174 -0.00021522382546851747 -0.00007088628779103964
1520530337.200351 0.00000000000000000000 0.00000000000000000000 0.00000000000000000000 0.00000000000000000000 0.00000000000000000000 0.00000000000000000000  0.00731114793044635239 -0.06789844822376259192 -0.04846599480775851121  0.00068873325768133490 -0.00022906996940424650 -0.00008695381875508672
1520530337.300267 0.00000000000000000000 0.00000000000000000000 0.00000000000000000000 0.00000000000000000000 0.00000000000000000000 0.00000000000000000000  0.00746569279777998824 -0.06792882189370709478 -0.04833070242202438388  0.00067169180008891751 -0.00020667393208596862 -0.00013870498433499203
1520530337.400301 0.00000000000000000000 0.00000000000000000000 0.00000000000000000000 0.00000000000000000000 0.00000000000000000000 0.00000000000000000000  0.00839427112213176826 -0.06828676387889864863 -0.04808964378924022315  0.00064169857564072650 -0.00021776211536554926 -0.00019418325223882532
1520530337.500304 0.00000000000000000000 0.00000000000000000000 0.00000000000000000000 0.00000000000000000000 0.00000000000000000000 0.00000000000000000000  0.00883013484881609891 -0.06880735455520071986 -0.04783067610345373422  0.00062831694898056955 -0.00024156426062446889 -0.00024733634914336897
1520530337.600307 0.00000000000000000000 0.00000000000000000000 0.00000000000000000000 0.00000000000000000000 0.00000000000000000000 0.00000000000000000000  0.01009126906472044942 -0.06923377817233346276 -0.04713244034737266303  0.00066658952617800415 -0.00024737907522211081 -0.00025228825382901025
1520530337.700310 0.00000000000000000000 0.00000000000000000000 0.00000000000000000000 0.00000000000000000000 0.00000000000000000000 0.00000000000000000000  0.01106199139286038156 -0.07057433730915976811 -0.04674658558682099480  0.00065046325798453206 -0.00023442973344897525 -0.00022588755401053748
1520530337.800854 0.00000000000000000000 0.00000000000000000000 0.00000000000000000000 0.00000000000000000000 0.00000000000000000000 0.00000000000000000000  0.01136045073293537322 -0.07127851960166831091 -0.04662795369873307810  0.00062686800699905839 -0.00018571856621061691 -0.00018050638568246674
1520530337.950858 0.00000000000000000000 0.00000000000000000000 0.00000000000000000000 0.00000000000000000000 0.00000000000000000000 0.00000000000000000000  0.01113855212591276234 -0.07040817013277306247 -0.04689968757914082104  0.00061295831753107753 -0.00022748021710160152 -0.00011216956118116419
1520530338.050862 0.00000000000000000000 0.00000000000000000000 0.00000000000000000000 0.00000000000000000000 0.00000000000000000000 0.00000000000000000000  0.01020693492829701302 -0.06919238899835296330 -0.04731446586189598513  0.00056123389856618127 -0.00022533927909614582 -0.00002023565173399006
1520530338.150864 0.00000000000000000000 0.00000000000000000000 0.00000000000000000000 0.00000000000000000000 0.00000000000000000000 0.00000000000000000000  0.00875374158926833790 -0.06736486804595548383 -0.04833310608495747923  0.00051447620538435529 -0.00024031422960567851  0.00008958014481746422
1520530338.200470 0.00000000000000000000 0.00000000000000000000 0.00000000000000000000 0.00000000000000000000 0.00000000000000000000 0.00000000000000000000  0.00802867268753589165 -0.06480985260344088172 -0.04889261688925291421  0.00055640077729903826 -0.00029526399561955076  0.00015019130243273056
1520530338.300474 0.00000000000000000000 0.00000000000000000000 0.00000000000000000000 0.00000000000000000000 0.00000000000000000000 0.00000000000000000000  0.00649145391890512766 -0.06380117033991922204 -0.04917189314371716441  0.00057648680369023889 -0.00027165250449572888  0.00018364449263666514
1520530338.400477 0.00000000000000000000 0.00000000000000000000 0.00000000000000000000 0.00000000000000000000 0.00000000000000000000 0.00000000000000000000  0.00578744818437405221 -0.06260631827125688609 -0.04940543847372202979  0.00061524603845498611 -0.00026134094082452537  0.00021367945893244937
1520530338.500480 0.00000000000000000000 0.00000000000000000000 0.00000000000000000000 0.00000000000000000000 0.00000000000000000000 0.00000000000000000000  0.00498289950527160651 -0.06101980670385788452 -0.04977428880146842621  0.00068987153009349253 -0.00030525380352253943  0.00023654773563893834
1520530338.600260 0.00000000000000000000 0.00000000000000000000 0.00000000000000000000 0.00000000000000000000 0.00000000000000000000 0.00000000000000000000  0.00370240761526998731 -0.06135284605846186984 -0.05007312451099359824  0.00070048691219384439 -0.00032759275366516129  0.00023345144078803983
1520530338.700263 0.00000000000000000000 0.00000000000000000000 0.00000000000000000000 0.00000000000000000000 0.00000000000000000000 0.00000000000000000000  0.00253639254744831601 -0.06049408771698294718 -0.05019984863852451629  0.00070400232419464629 -0.00032846984995456985  0.00018865068301553013
1520530338.800266 0.00000000000000000000 0.00000000000000000000 0.00000000000000000000 0.00000000000000000000 0.00000000000000000000 0.00000000000000000000  0.00142682360838857825 -0.05899159556328151949 -0.05014153299471148933  0.00069854338995371985 -0.00031058335686640461  0.00018177783740881990
1520530338.900269 0.00000000000000000000 0.00000000000000000000 0.00000000000000000000 0.00000000000000000000 0.00000000000000000000 0.00000000000000000000  0.00042878634663231585 -0.05784183875670298458 -0.05041342189217273839  0.00061767744511296489 -0.00028975056729202761  0.00016112127560387999
1520530339.000272 0.00000000000000000000 0.00000000000000000000 0.00000000000000000000 0.00000000000000000000 0.00000000000000000000 0.00000000000000000000 -0.00018720480284129177 -0.05771034378097140288 -0.05040746481279607949  0.00062524432874620740 -0.00029777961526782304  0.00017058598896331026
1520530339.100960 0.00000000000000000000 0.00000000000000000000 0.00000000000000000000 0.00000000000000000000 0.00000000000000000000 0.00000000000000000000 -0.00163326311672817685 -0.05676176569573553737 -0.04994619286781513956  0.00070439653693005373 -0.00019489062592228452  0.00015223085908207539
1520530339.200963 0.00000000000000000000 0.00000000000000000000 0.00000000000000000000 0.00000000000000000000 0.00000000000000000000 0.00000000000000000000 -0.00248164863830194204 -0.05614881084957252383 -0.04968932179625148299  0.00068555906448962466 -0.00017362945518607198  0.00016947232735375822
1520530339.300966 0.00000000000000000000 0.00000000000000000000 0.00000000000000000000 0.00000000000000000000 0.00000000000000000000 0.00000000000000000000 -0.00327076978843933615 -0.05686396402544668938 -0.04938668385566645502  0.00066021493242941732 -0.00013715138490896203  0.00017444883353785027
1520530339.400970 0.00000000000000000000 0.00000000000000000000 0.00000000000000000000 0.00000000000000000000 0.00000000000000000000 0.00000000000000000000 -0.00387821069294768317 -0.05722249820976380019 -0.04923445814340624699  0.00056104001567636749 -0.00011255765449445688  0.00017010575102323903
1520530339.451687 0.00000000000000000000 0.00000000000000000000 0.00000000000000000000 0.00000000000000000000 0.00000000000000000000 0.00000000000000000000 -0.00345330379973513664 -0.05752224646701305927 -0.04925561804345196526  0.00043279816738576722 -0.00016856049108481219  0.00016640788302496945
1520530339.551690 0.00000000000000000000 0.00000000000000000000 0.00000000000000000000 0.00000000000000000000 0.00000000000000000000 0.00000000000000000000 -0.00232781075886840869 -0.05737514233175710493 -0.04950689605641302171  0.00030772908725178346 -0.00017017854160237704  0.00014435758967694081
1520530339.651693 0.00000000000000000000 0.00000000000000000000 0.00000000000000000000 0.00000000000000000000 0.00000000000000000000 0.00000000000000000000 -0.00185083494059284492 -0.05765161503710395513 -0.04978677361126886830  0.00019320503126216742 -0.00014491084568057184  0.00006100347635317955
1520530339.751697 0.00000000000000000000 0.00000000000000000000 0.00000000000000000000 0.00000000000000000000 0.00000000000000000000 0.00000000000000000000 -0.00139923258524514318 -0.05668838083454957183 -0.04977901200946008992  0.00026719170504010747 -0.00020593908526384807 -0.00001696039135079275
1520530339.851056 0.00000000000000000000 0.00000000000000000000 0.00000000000000000000 0.00000000000000000000 0.00000000000000000000 0.00000000000000000000 -0.00137929514668321375 -0.05714450436072016082 -0.04989168192460521206  0.00030138997235529535 -0.00018739254257747908 -0.00004044125137882160
1520530339.951059 0.00000000000000000000 0.00000000000000000000 0.00000000000000000000 0.00000000000000000000 0.00000000000000000000 0.00000000000000000000 -0.00192811900228407815 -0.05875616495787594484 -0.04999002217729591607  0.00031933438482989452 -0.00018454138855223185 -0.00003925636877117886
1520530340.051062 0.00000000000000000000 0.00000000000000000000 0.00000000000000000000 0.00000000000000000000 0.00000000000000000000 0.00000000000000000000 -0.00245929928047846974 -0.05980286541038110082 -0.05013465111847553030  0.00035535519379116683 -0.00009573106273220377 -0.00003899363609133983
1520530340.151065 0.00000000000000000000 0.00000000000000000000 0.00000000000000000000 0.00000000000000000000 0.00000000000000000000 0.00000000000000000000 -0.00301838795747295680 -0.06146340156309287872 -0.05050606197740425962  0.00036499995920633060  0.00000442782105499400 -0.00004135904396513064
1520530340.250395 0.00000000000000000000 0.00000000000000000000 0.00000000000000000000 0.00000000000000000000 0.00000000000000000000 0.00000000000000000000 -0.00320554089454969495 -0.06293443846642308992 -0.05092719825226426494  0.00042704520290517912 -0.00001370284470999758 -0.00010009488917234077
1520530340.350399 0.00000000000000000000 0.00000000000000000000 0.00000000000000000000 0.00000000000000000000 0.00000000000000000000 0.00000000000000000000 -0.00344368989299161750 -0.06365593472114956797 -0.05113486174695181657  0.00049427334252643467 -0.00002271624380318204 -0.00010972621994490486
1520530340.450401 0.00000000000000000000 0.00000000000000000000 0.00000000000000000000 0.00000000000000000000 0.00000000000000000000 0.00000000000000000000 -0.00337328146385669709 -0.06291612098051828361 -0.05121561227931100552  0.00057744034421639868 -0.00003271211409601532 -0.00012819515900655518
1520530340.550404 0.00000000000000000000 0.00000000000000000000 0.00000000000000000000 0.00000000000000000000 0.00000000000000000000 0.00000000000000000000 -0.00313267534019992392 -0.06272134572719612056 -0.05127135211070554116  0.00059722763019829218 -0.00001467707127605064 -0.00016429624892374753
1520530340.650347 0.00000000000000000000 0.00000000000000000000 0.00000000000000000000 0.00000000000000000000 0.00000000000000000000 0.00000000000000000000 -0.00280536915790212567 -0.06318975509193462681 -0.05128751700132027497  0.00058927136049414131 -0.00000940312616560703 -0.00017508463430131380
1520530340.750350 0.00000000000000000000 0.00000000000000000000 0.00000000000000000000 0.00000000000000000000 0.00000000000000000000 0.00000000000000000000 -0.00240186015855532340 -0.06350933749291512442 -0.05113272044553945905  0.00051859449899638961 -0.00000615976878987542 -0.00018785028671637651
1520530340.900354 0.00000000000000000000 0.00000000000000000000 0.00000000000000000000 0.00000000000000000000 0.00000000000000000000 0.00000000000000000000 -0.00194786392908693129 -0.06346526293549584197 -0.05100551517781531236  0.00050191564468763381  0.00000679152321750603 -0.00020065156968280886
1520530341.050774 0.00000000000000000000 0.00000000000000000000 0.00000000000000000000 0.00000000000000000000 0.00000000000000000000 0.00000000000000000000 -0.00097589855294000607 -0.06351549054565652774 -0.05061307103146187730  0.00053443700749703556 -0.00000785898571921478 -0.00012434760693225491
1520530341.300782 0.00000000000000000000 0.00000000000000000000 0.00000000000000000000 0.00000000000000000000 0.00000000000000000000 0.00000000000000000000  0.00063249116452071519 -0.06442610219012180617 -0.04984311632206149534  0.00053149420254340574 -0.00002977943641632081  0.00001514621111727742
1520530341.450787 0.00000000000000000000 0.00000000000000000000 0.00000000000000000000 0.00000000000000000000 0.00000000000000000000 0.00000000000000000000 -0.00084603565022856649 -0.06435409384574608538 -0.05027913015275055353  0.00044240919005427277 -0.00016560014819087473  0.00020628789314259332
1520530341.650717 0.00000000000000000000 0.00000000000000000000 0.00000000000000000000 0.00000000000000000000 0.00000000000000000000 0.00000000000000000000 -0.00132983344716015969 -0.06410814309583211246 -0.05000579330947545198  0.00042476125550165256 -0.00013382783371178368  0.00023101217403869576
1520530341.900542 0.00000000000000000000 0.00000000000000000000 0.00000000000000000000 0.00000000000000000000 0.00000000000000000000 0.00000000000000000000 -0.00200782437986920604 -0.06398024351755431105 -0.05102328822081126508  0.00036791548621311406 -0.00012955439871986771  0.00019433191115703115
1520530342.100548 0.00000000000000000000 0.00000000000000000000 0.00000000000000000000 0.00000000000000000000 0.00000000000000000000 0.00000000000000000000 -0.00186695067691524091 -0.06331548063134784243 -0.05039614533275181552  0.00049072203455365819 -0.00008678754039435643  0.00012718604365149168
1520530342.250553 0.00000000000000000000 0.00000000000000000000 0.00000000000000000000 0.00000000000000000000 0.00000000000000000000 0.00000000000000000000 -0.00155738654122937383 -0.06322159075155742158 -0.05018351915614988057  0.00036626658194449728 -0.00009282669927246903  0.00001979543209030182
1520530342.400676 0.00000000000000000000 0.00000000000000000000 0.00000000000000000000 0.00000000000000000000 0.00000000000000000000 0.00000000000000000000 -0.00206571455058862739 -0.06352832847120548632 -0.05055164211882910014  0.00025202969270583531 -0.00012501385079411584 -0.00005706552941453671
1520530342.500679 0.00000000000000000000 0.00000000000000000000 0.00000000000000000000 0.00000000000000000000 0.00000000000000000000 0.00000000000000000000 -0.00155747928023788093 -0.06224907780612865676 -0.05091154013133325495  0.00028111006761643616 -0.00015309044974838400 -0.00015474712794557517
1520530342.650684 0.00000000000000000000 0.00000000000000000000 0.00000000000000000000 0.00000000000000000000 0.00000000000000000000 0.00000000000000000000 -0.00071827690789204020 -0.06214565901629215405 -0.05125038412922476583  0.00031955354888104796 -0.00019906706801881081 -0.00011458182220511818
1520530342.750644 0.00000000000000000000 0.00000000000000000000 0.00000000000000000000 0.00000000000000000000 0.00000000000000000000 0.00000000000000000000 -0.00065973518280240402 -0.06175715610075829809 -0.05090845322747080542  0.00040534810115118973 -0.00013247044371159900 -0.00006171854700028945
1520530342.850648 0.00000000000000000000 0.00000000000000000000 0.00000000000000000000 0.00000000000000000000 0.00000000000000000000 0.00000000000000000000 -0.00048881751637965746 -0.06112556944082470772 -0.05065637048224324451  0.00043817497430421445 -0.00014123736059927240 -0.00009063029001063083
1520530342.950651 0.00000000000000000000 0.00000000000000000000 0.00000000000000000000 0.00000000000000000000 0.00000000000000000000 0.00000000000000000000 -0.00006943799905993658 -0.05956421162323093099 -0.05069548916289064178  0.00042957987302411890 -0.00016355209683606832 -0.00010642134237253657
1520530343.050654 0.00000000000000000000 0.00000000000000000000 0.00000000000000000000 0.00000000000000000000 0.00000000000000000000 0.00000000000000000000  0.00043703605593999701 -0.05809470833247476484 -0.05095889917282743486  0.00041299988367496956 -0.00014763249905411856 -0.00011202688620544709
1520530343.151133 0.00000000000000000000 0.00000000000000000000 0.00000000000000000000 0.00000000000000000000 0.00000000000000000000 0.00000000000000000000  0.00067203017978302647 -0.05657867828692682288 -0.05057670508763575934  0.00041527890211087254 -0.00009760903076129384 -0.00012625882092632455
1520530343.251136 0.00000000000000000000 0.00000000000000000000 0.00000000000000000000 0.00000000000000000000 0.00000000000000000000 0.00000000000000000000  0.00107882128555741061 -0.05509307461176724680 -0.05072290377502681330  0.00037858458423378896 -0.00009132037697276310 -0.00016394306763840795
1520530343.351140 0.00000000000000000000 0.00000000000000000000 0.00000000000000000000 0.00000000000000000000 0.00000000000000000000 0.00000000000000000000  0.00092740007523950982 -0.05330723233975109832 -0.05080295659480205811  0.00038538670294559636 -0.00005073434285500730 -0.00017276170266275018
1520530343.401141 0.00000000000000000000 0.00000000000000000000 0.00000000000000000000 0.00000000000000000000 0.00000000000000000000 0.00000000000000000000  0.00086748542335113375 -0.05244384541734404409 -0.05074364070339685423  0.00039572964389266384 -0.00002886430617964929 -0.00017010713966784111
1520530343.501404 0.00000000000000000000 0.00000000000000000000 0.00000000000000000000 0.00000000000000000000 0.00000000000000000000 0.00000000000000000000  0.00110034979193687722 -0.05072758347347372521 -0.05084328933940240880  0.00041747484016934131 -0.00001349685867224954 -0.00016089995743613276
1520530343.601407 0.00000000000000000000 0.00000000000000000000 0.00000000000000000000 0.00000000000000000000 0.00000000000000000000 0.00000000000000000000  0.00191188202039273779 -0.04851560874728865630 -0.05086737586373613063  0.00042397770327026648  0.00001903909127652305 -0.00013593651158351372
1520530343.701410 0.00000000000000000000 0.00000000000000000000 0.00000000000000000000 0.00000000000000000000 0.00000000000000000000 0.00000000000000000000  0.00165612688420961628 -0.04698855814590491287 -0.05089850039021033556  0.00042983027771891327 -0.00003216350703861109 -0.00009551703533304428
1520530343.801413 0.00000000000000000000 0.00000000000000000000 0.00000000000000000000 0.00000000000000000000 0.00000000000000000000 0.00000000000000000000  0.00092140384154129878 -0.04472295093496509583 -0.05070408191357816258  0.00045608554830480207 -0.00003441992289401498 -0.00013313527956733003
1520530343.901416 0.00000000000000000000 0.00000000000000000000 0.00000000000000000000 0.00000000000000000000 0.00000000000000000000 0.00000000000000000000  0.00185910018655241786 -0.04278350988062573634 -0.05081550524615259523  0.00045975928014988957 -0.00007519895053561394 -0.00010599763930490030
1520530344.001403 0.00000000000000000000 0.00000000000000000000 0.00000000000000000000 0.00000000000000000000 0.00000000000000000000 0.00000000000000000000  0.00270203560871301769 -0.04048969019716044948 -0.05113676656311631069  0.00046361366548704192 -0.00006966290507473609 -0.00007820440650702964
1520530344.101406 0.00000000000000000000 0.00000000000000000000 0.00000000000000000000 0.00000000000000000000 0.00000000000000000000 0.00000000000000000000  0.00305701196130834423 -0.03769254379488808787 -0.05138663166464753351  0.00049296586326911336 -0.00006152885684250301  0.00000358531913792863
1520530344.201410 0.00000000000000000000 0.00000000000000000000 0.00000000000000000000 0.00000000000000000000 0.00000000000000000000 0.00000000000000000000  0.00203474410196076644 -0.03530155235263017499 -0.05124746907250515154  0.00051209352096472636 -0.00004124722194130781  0.00002709938112267992
1520530344.301413 0.00000000000000000000 0.00000000000000000000 0.00000000000000000000 0.00000000000000000000 0.00000000000000000000 0.00000000000000000000  0.00093565392890875183 -0.03328990473667022693 -0.05102341499858614043 0.00051843648748229666 0.00000342588125876576 0.00001064791976542344
1520530344.401411 0.00000000000000000000 0.00000000000000000000 0.00000000000000000000 0.00000000000000000000 0.00000000000000000000 0.00000000000000000000  0.00137053652700516553 -0.03109562203227862753 -0.05116707203318712760  0.00045863347033452557 -0.00001341882899972021 -0.00002032378601934582
1520530344.451412 0.00000000000000000000 0.00000000000000000000 0.00000000000000000000 0.00000000000000000000 0.00000000000000000000 0.00000000000000000000  0.00038562732196590553 -0.02960128491874675430 -0.05123489386208899404  0.00043979411680533951  0.00002292998492829866 -0.00008904446239400180
1520530344.551415 0.00000000000000000000 0.00000000000000000000 0.00000000000000000000 0.00000000000000000000 0.00000000000000000000 0.00000000000000000000 -0.00013290563851474919 -0.02891524333695105406 -0.05143118044989569704  0.00045062488819215481  0.00004005238909604820 -0.00011300891106525484
1520530344.651418 0.00000000000000000000 0.00000000000000000000 0.00000000000000000000 0.00000000000000000000 0.00000000000000000000 0.00000000000000000000 -0.00128743682428163913 -0.02729906087665227854 -0.05119829186176566571  0.00048001348577411223  0.00002515111675907280 -0.00011808899020191135
1520530344.751636 0.00000000000000000000 0.00000000000000000000 0.00000000000000000000 0.00000000000000000000 0.00000000000000000000 0.00000000000000000000 -0.00212319712574895927 -0.02528778589348372810 -0.05116432767209572879  0.00047788913311845485 -0.00000764473889308015 -0.00011249947167843960
1520530344.851639 0.00000000000000000000 0.00000000000000000000 0.00000000000000000000 0.00000000000000000000 0.00000000000000000000 0.00000000000000000000 -0.00388302413052728310 -0.02379047359090532415 -0.05092726780457578623  0.00045130973605499451  0.00001432128298424093 -0.00014571091700832167
1520530344.951642 0.00000000000000000000 0.00000000000000000000 0.00000000000000000000 0.00000000000000000000 0.00000000000000000000 0.00000000000000000000 -0.00360052956670045294 -0.02210796100928549834 -0.05105922711467061892  0.00042121410446525393  0.00001220709821750439 -0.00019112969360931525
1520530345.051645 0.00000000000000000000 0.00000000000000000000 0.00000000000000000000 0.00000000000000000000 0.00000000000000000000 0.00000000000000000000 -0.00496138910757578343 -0.02199982195983524874 -0.05082695092676210030  0.00043095533706242366  0.00001847949630335117 -0.00012523562062353850
1520530345.151845 0.00000000000000000000 0.00000000000000000000 0.00000000000000000000 0.00000000000000000000 0.00000000000000000000 0.00000000000000000000 -0.00528335271995585085 -0.02154119521293155343 -0.05080406377234494147  0.00044187285846201236  0.00001739069692235875 -0.00007238969814949396
1520530345.251745 0.00000000000000000000 0.00000000000000000000 0.00000000000000000000 0.00000000000000000000 0.00000000000000000000 0.00000000000000000000 -0.00650486005100899857 -0.02094982448349169343 -0.05072842390061957363  0.00043715644204188943  0.00004879883504707129 -0.00000006690734325225
1520530345.351748 0.00000000000000000000 0.00000000000000000000 0.00000000000000000000 0.00000000000000000000 0.00000000000000000000 0.00000000000000000000 -0.00803347311183959419 -0.01996837278455313239 -0.05031355700257676700 0.00047963683809906804 0.00004773705334220756 0.00002115415141098464
1520530345.451751 0.00000000000000000000 0.00000000000000000000 0.00000000000000000000 0.00000000000000000000 0.00000000000000000000 0.00000000000000000000 -0.00934397783132432345 -0.01977553218637035162 -0.04996367493769540702 0.00046031143143975608 0.00004570186870296036 0.00001229629654878241
1520530345.551195 0.00000000000000000000 0.00000000000000000000 0.00000000000000000000 0.00000000000000000000 0.00000000000000000000 0.00000000000000000000 -0.01023128787616128625 -0.02020981646987033906 -0.05005449655849906337  0.00042285660761127845  0.00007999181329685432 -0.00002969964156695907
1520530345.651198 0.00000000000000000000 0.00000000000000000000 0.00000000000000000000 0.00000000000000000000 0.00000000000000000000 0.00000000000000000000 -0.01064764492358867380 -0.01964230346057228502 -0.04993692622379872215  0.00042511382431981620  0.00005859843286024026 -0.00003960206285872711
1520530345.751201 0.00000000000000000000 0.00000000000000000000 0.00000000000000000000 0.00000000000000000000 0.00000000000000000000 0.00000000000000000000 -0.01159976597720240032 -0.01867805734751957353 -0.04956152936216624144  0.00043053895187344715  0.00003248935267783633 -0.00006352838758896662
1520530345.801203 0.00000000000000000000 0.00000000000000000000 0.00000000000000000000 0.00000000000000000000 0.00000000000000000000 0.00000000000000000000 -0.01228539276453549482 -0.01849689327593990323 -0.04944527216352762045  0.00041413234009569574  0.00002468310650794103 -0.00010808952540928483
1520530345.901206 0.00000000000000000000 0.00000000000000000000 0.00000000000000000000 0.00000000000000000000 0.00000000000000000000 0.00000000000000000000 -0.01287249507359458298 -0.01758787310566087281 -0.04921691409036930975  0.00034941648098983343 -0.00000025699588765890 -0.00014211214610721428
1520530345.951161 0.00000000000000000000 0.00000000000000000000 0.00000000000000000000 0.00000000000000000000 0.00000000000000000000 0.00000000000000000000 -0.01376589618518305261 -0.01714785738100216630 -0.04882020927070029187  0.00034210685174519012 -0.00000036771215935991 -0.00019828508813201506
1520530346.051476 0.00000000000000000000 0.00000000000000000000 0.00000000000000000000 0.00000000000000000000 0.00000000000000000000 0.00000000000000000000 -0.01440232993025680405 -0.01684306763324042167 -0.04878568938868495936  0.00037993638187227283 -0.00002073272387048206 -0.00021039200816023274
1520530346.151479 0.00000000000000000000 0.00000000000000000000 0.00000000000000000000 0.00000000000000000000 0.00000000000000000000 0.00000000000000000000 -0.01530015662165722795 -0.01695132294717249452 -0.04895233790215581388  0.00039451805234405569 -0.00005706144546591214 -0.00016018840608185672
1520530346.251483 0.00000000000000000000 0.00000000000000000000 0.00000000000000000000 0.00000000000000000000 0.00000000000000000000 0.00000000000000000000 -0.01585667894578976847 -0.01695944028235295276 -0.04884375622813166146  0.00043206471907607463 -0.00002031806896753740 -0.00006791138246418444
1520530346.301485 0.00000000000000000000 0.00000000000000000000 0.00000000000000000000 0.00000000000000000000 0.00000000000000000000 0.00000000000000000000 -0.01588403262126047641 -0.01692065251424192465 -0.04879883238503488624  0.00043512938350973729  0.00000984358614742465 -0.00002760890627679894
1520530346.401376 0.00000000000000000000 0.00000000000000000000 0.00000000000000000000 0.00000000000000000000 0.00000000000000000000 0.00000000000000000000 -0.01605782792752341592 -0.01658834173614085958 -0.04873892446767669889  0.00041647072037650140  0.00004568855582153176 -0.00002843963405880667
1520530346.501379 0.00000000000000000000 0.00000000000000000000 0.00000000000000000000 0.00000000000000000000 0.00000000000000000000 0.00000000000000000000 -0.01656682294820454454 -0.01635129461766295436 -0.04857801159941752683  0.00039880054278308182  0.00005954914822599696 -0.00004154608622395929
1520530346.551380 0.00000000000000000000 0.00000000000000000000 0.00000000000000000000 0.00000000000000000000 0.00000000000000000000 0.00000000000000000000 -0.01706620653686376568 -0.01642009713225004580 -0.04838612286999086076  0.00040672506467718329  0.00007052152446648134 -0.00007237481587619921
1520530346.651383 0.00000000000000000000 0.00000000000000000000 0.00000000000000000000 0.00000000000000000000 0.00000000000000000000 0.00000000000000000000 -0.01739763524128239841 -0.01642578749170135397 -0.04820086004260032420  0.00040533194476762387  0.00007050860700519917 -0.00007103959083019275
1520530346.701385 0.00000000000000000000 0.00000000000000000000 0.00000000000000000000 0.00000000000000000000 0.00000000000000000000 0.00000000000000000000 -0.01792686974348924739 -0.01634445355375492917 -0.04814912937302518597  0.00036885827848552415  0.00008674660551905358 -0.00004059579700033150
1520530346.801545 0.00000000000000000000 0.00000000000000000000 0.00000000000000000000 0.00000000000000000000 0.00000000000000000000 0.00000000000000000000 -0.01814536081073461413 -0.01605297251613103937 -0.04823672088688809451  0.00035646543344508346  0.00007456152737380868 -0.00000130852714276968
1520530346.851546 0.00000000000000000000 0.00000000000000000000 0.00000000000000000000 0.00000000000000000000 0.00000000000000000000 0.00000000000000000000 -0.01876126893094652581 -0.01646569374412601428 -0.04810446824770635982  0.00035779828477236757  0.00011897702935502835 -0.00000228943315215529
1520530346.951549 0.00000000000000000000 0.00000000000000000000 0.00000000000000000000 0.00000000000000000000 0.00000000000000000000 0.00000000000000000000 -0.01925165932772215927 -0.01637564502670429967 -0.04801416564058948871  0.00039858370925416125  0.00013942178286266852 -0.00000324398118343457
1520530347.001551 0.00000000000000000000 0.00000000000000000000 0.00000000000000000000 0.00000000000000000000 0.00000000000000000000 0.00000000000000000000 -0.01995484579974136571 -0.01621605662208601070 -0.04780510789857280590  0.00044387004738013293  0.00014569420061894277 -0.00002411116068424708
1520530347.101554 0.00000000000000000000 0.00000000000000000000 0.00000000000000000000 0.00000000000000000000 0.00000000000000000000 0.00000000000000000000 -0.02038653166348363202 -0.01571178341677725160 -0.04773903824268201784  0.00047486415447018683  0.00010006705967701327 -0.00003276304446681475
1520530347.151556 0.00000000000000000000 0.00000000000000000000 0.00000000000000000000 0.00000000000000000000 0.00000000000000000000 0.00000000000000000000 -0.02053187540333449926 -0.01525647881519924184 -0.04786341425496239838 0.00047808921952078800 0.00005039399959358635 0.00002713379486266468
1520530347.251402 0.00000000000000000000 0.00000000000000000000 0.00000000000000000000 0.00000000000000000000 0.00000000000000000000 0.00000000000000000000 -0.02007428809746018492 -0.01554699045532310052 -0.04771826856997923166 0.00045403661906901117 0.00005526089575097244 0.00005050433577662676
1520530347.301403 0.00000000000000000000 0.00000000000000000000 0.00000000000000000000 0.00000000000000000000 0.00000000000000000000 0.00000000000000000000 -0.02015264535692899012 -0.01527400163292368107 -0.04765001317050890361 0.00044356687935163226 0.00006669709821270422 0.00013622160962997775
1520530347.401407 0.00000000000000000000 0.00000000000000000000 0.00000000000000000000 0.00000000000000000000 0.00000000000000000000 0.00000000000000000000 -0.02003715191813587246 -0.01490286097322436089 -0.04759505575794844429 0.00043512402643312826 0.00009458929793740555 0.00016618466958112291
1520530347.501410 0.00000000000000000000 0.00000000000000000000 0.00000000000000000000 0.00000000000000000000 0.00000000000000000000 0.00000000000000000000 -0.02024724062930511118 -0.01495704495890608568 -0.04744491405344062468 0.00043152052815701212 0.00011577458292054668 0.00019317607037026453
1520530347.601218 0.00000000000000000000 0.00000000000000000000 0.00000000000000000000 0.00000000000000000000 0.00000000000000000000 0.00000000000000000000 -0.02023969923016115044 -0.01513679122872978004 -0.04723285670488018562 0.00041589254465535273 0.00004833607084694835 0.00021653569457001973
1520530347.701222 0.00000000000000000000 0.00000000000000000000 0.00000000000000000000 0.00000000000000000000 0.00000000000000000000 0.00000000000000000000 -0.02017995055607115992 -0.01502160035923370655 -0.04708295385915619441 0.00043839884864406068 0.00005151025096528476 0.00020605792216569897
1520530347.801224 0.00000000000000000000 0.00000000000000000000 0.00000000000000000000 0.00000000000000000000 0.00000000000000000000 0.00000000000000000000 -0.02037972696908127435 -0.01512945420520623273 -0.04717377111640469467 0.00040629062427590372 0.00008859924155333805 0.00018468303900252516
1520530347.901227 0.00000000000000000000 0.00000000000000000000 0.00000000000000000000 0.00000000000000000000 0.00000000000000000000 0.00000000000000000000 -0.02057806072868850061 -0.01524376123654996168 -0.04710466894715710506 0.00043264034293238380 0.00008635070650107907 0.00013976495343708499
1520530347.951229 0.00000000000000000000 0.00000000000000000000 0.00000000000000000000 0.00000000000000000000 0.00000000000000000000 0.00000000000000000000 -0.02082425244402156747 -0.01494726497516113591 -0.04686448117471013475 0.00046616441138524833 0.00005346994132037400 0.00010965224784059307
1520530348.051164 0.00000000000000000000 0.00000000000000000000 0.00000000000000000000 0.00000000000000000000 0.00000000000000000000 0.00000000000000000000 -0.02102142191712090200 -0.01478959987826056546 -0.04658558561756638572 0.00047758050315786880 0.00004757091616058692 0.00007263128874265025
1520530348.101166 0.00000000000000000000 0.00000000000000000000 0.00000000000000000000 0.00000000000000000000 0.00000000000000000000 0.00000000000000000000 -0.02088227696517321041 -0.01494920997476722503 -0.04650524449889404527 0.00042334959763784796 0.00008249959623418428 0.00003617547904575749
1520530348.201169 0.00000000000000000000 0.00000000000000000000 0.00000000000000000000 0.00000000000000000000 0.00000000000000000000 0.00000000000000000000 -0.02081341579476311821 -0.01486934928580451072 -0.04660818272050597233 0.00041994849485394868 0.00005960189414249167 0.00007250874505278384
1520530348.251170 0.00000000000000000000 0.00000000000000000000 0.00000000000000000000 0.00000000000000000000 0.00000000000000000000 0.00000000000000000000 -0.02083258421152283171 -0.01496978829142658202 -0.04648659194514351972 0.00044979157232570956 0.00001662930854422270 0.00005709478074417604
1520530348.351173 0.00000000000000000000 0.00000000000000000000 0.00000000000000000000 0.00000000000000000000 0.00000000000000000000 0.00000000000000000000 -0.02065150865293713389 -0.01486525752833688443 -0.04631308966759515450 0.00047335493522570194 0.00001104689531422976 0.00007606810004031264
1520530348.451416 0.00000000000000000000 0.00000000000000000000 0.00000000000000000000 0.00000000000000000000 0.00000000000000000000 0.00000000000000000000 -0.02057573403723194500 -0.01454630264456434167 -0.04641820156064868641 0.00045853427712183625 0.00006374179697699355 0.00006014059850915503
1520530348.551419 0.00000000000000000000 0.00000000000000000000 0.00000000000000000000 0.00000000000000000000 0.00000000000000000000 0.00000000000000000000 -0.02077030736793412935 -0.01456618203831474244 -0.04628323259936419076 0.00042931710738410039 0.00011057545569054865 0.00004666412690397718
1520530348.651423 0.00000000000000000000 0.00000000000000000000 0.00000000000000000000 0.00000000000000000000 0.00000000000000000000 0.00000000000000000000 -0.02084859118097206684 -0.01423249669178520277 -0.04617973943989724800 0.00046126707047860100 0.00004649238851476897 0.00005868468610530585
1520530348.701425 0.00000000000000000000 0.00000000000000000000 0.00000000000000000000 0.00000000000000000000 0.00000000000000000000 0.00000000000000000000 -0.02084072952798744424 -0.01401844858573873809 -0.04602665016385949770 0.00047786429006742894 0.00006592686914066019 0.00002223711975313186
1520530348.801428 0.00000000000000000000 0.00000000000000000000 0.00000000000000000000 0.00000000000000000000 0.00000000000000000000 0.00000000000000000000 -0.02105135847286751863 -0.01376915985917523920 -0.04589842390775001474 0.00048987029170007143 0.00005864797748664297 0.00004487440489344180
1520530348.851315 0.00000000000000000000 0.00000000000000000000 0.00000000000000000000 0.00000000000000000000 0.00000000000000000000 0.00000000000000000000 -0.02078158362899869618 -0.01359120698018322949 -0.04608194694356102655 0.00048067773484660814 0.00000686723413715639 0.00006408009456316789
1520530349.251106 0.00000000000000000000 0.00000000000000000000 0.00000000000000000000 0.00000000000000000000 0.00000000000000000000 0.00000000000000000000 -0.02124908673321399682 -0.01242268744061070414 -0.04594978639407818616  0.00054323994391687819 -0.00000072816197266040  0.00000026802823401566
1520530349.351109 0.00000000000000000000 0.00000000000000000000 0.00000000000000000000 0.00000000000000000000 0.00000000000000000000 0.00000000000000000000 -0.02144260743144727963 -0.01236273484934082706 -0.04592994230921107479 0.00057378963001251840 0.00000039332567644380 0.00006754712899556894
1520530349.451112 0.00000000000000000000 0.00000000000000000000 0.00000000000000000000 0.00000000000000000000 0.00000000000000000000 0.00000000000000000000 -0.02148693424342587588 -0.01235338714134594403 -0.04572411405569708209  0.00060519846353821892 -0.00001090782797912628  0.00011578719817468246
1520530349.501114 0.00000000000000000000 0.00000000000000000000 0.00000000000000000000 0.00000000000000000000 0.00000000000000000000 0.00000000000000000000 -0.02152650872667896328 -0.01232635579762113125 -0.04578786244183406101 0.00060984491927045762 0.00005691525436234140 0.00011614430263920024
1520530349.601117 0.00000000000000000000 0.00000000000000000000 0.00000000000000000000 0.00000000000000000000 0.00000000000000000000 0.00000000000000000000 -0.02154990242517307308 -0.01221869124831112714 -0.04581786260808374395 0.00059646568805034512 0.00009383389775780297 0.00013023914357380536
1520530349.700937 0.00000000000000000000 0.00000000000000000000 0.00000000000000000000 0.00000000000000000000 0.00000000000000000000 0.00000000000000000000 -0.02164436058614176150 -0.01217487567896866248 -0.04582194870947124687 0.00058515810252835713 0.00005553185288188008 0.00012473573019336430
1520530349.800940 0.00000000000000000000 0.00000000000000000000 0.00000000000000000000 0.00000000000000000000 0.00000000000000000000 0.00000000000000000000 -0.02181418099303008076 -0.01184732605817358404 -0.04579106705527635074 0.00062648030981144072 0.00002362083399306192 0.00010954124863498647
1520530349.850941 0.00000000000000000000 0.00000000000000000000 0.00000000000000000000 0.00000000000000000000 0.00000000000000000000 0.00000000000000000000 -0.02171081717472115105 -0.01191490088619405301 -0.04579006439961551267 0.00059892650925512652 0.00001520898102979566 0.00009095969849334392
1520530349.950944 0.00000000000000000000 0.00000000000000000000 0.00000000000000000000 0.00000000000000000000 0.00000000000000000000 0.00000000000000000000 -0.02186988929793355629 -0.01197050284534050685 -0.04582374915679185423 0.00058581652561844652 0.00000372887241098010 0.00006665228092731998
1520530350.000946 0.00000000000000000000 0.00000000000000000000 0.00000000000000000000 0.00000000000000000000 0.00000000000000000000 0.00000000000000000000 -0.02191084948209626876 -0.01205104650770913097 -0.04576411812492863634 0.00057944519794602518 0.00002216362691514925 0.00005017211126603283
1520530350.101378 0.00000000000000000000 0.00000000000000000000 0.00000000000000000000 0.00000000000000000000 0.00000000000000000000 0.00000000000000000000 -0.02221234082797503978 -0.01183625244907600751 -0.04544810875218336516 0.00060915356951911890 0.00004079204373361552 0.00004177928260247288
1520530350.151379 0.00000000000000000000 0.00000000000000000000 0.00000000000000000000 0.00000000000000000000 0.00000000000000000000 0.00000000000000000000 -0.02204191617042771875 -0.01172329541933940164 -0.04526849917195144984 0.00056741237606928931 0.00005155637328112252 0.00002052898993005042
1520530350.251384 0.00000000000000000000 0.00000000000000000000 0.00000000000000000000 0.00000000000000000000 0.00000000000000000000 0.00000000000000000000 -0.02187530337594839960 -0.01169475543065788201 -0.04529150276768535710 0.00048801350551098591 0.00003849978917037187 0.00002332483777696230
1520530350.351387 0.00000000000000000000 0.00000000000000000000 0.00000000000000000000 0.00000000000000000000 0.00000000000000000000 0.00000000000000000000 -0.02196944924543187475 -0.01153409312058144807 -0.04541301141720890250 0.00048879977183467966 0.00000043241902138399 0.00006512620643699967
1520530350.451515 0.00000000000000000000 0.00000000000000000000 0.00000000000000000000 0.00000000000000000000 0.00000000000000000000 0.00000000000000000000 -0.02218237388912087937 -0.01144780110847886875 -0.04530054738385613788 0.00053826447592538319 0.00001421765410628058 0.00010073319022036684
1520530350.501516 0.00000000000000000000 0.00000000000000000000 0.00000000000000000000 0.00000000000000000000 0.00000000000000000000 0.00000000000000000000 -0.02227269314480467138 -0.01137482633792774069 -0.04517462961404021538 0.00055033108790685827 0.00008622866452276025 0.00013405194278842789
1520530350.601520 0.00000000000000000000 0.00000000000000000000 0.00000000000000000000 0.00000000000000000000 0.00000000000000000000 0.00000000000000000000 -0.02238356379697400630 -0.01131971194986582281 -0.04507020902739760498 0.00056431893917613125 0.00009588238557048494 0.00014920853572092293
1520530350.701523 0.00000000000000000000 0.00000000000000000000 0.00000000000000000000 0.00000000000000000000 0.00000000000000000000 0.00000000000000000000 -0.02269720620439850609 -0.01123683725768031758 -0.04490473078565842407 0.00060409835754144455 0.00009470654731648231 0.00019089805253200820
1520530350.801526 0.00000000000000000000 0.00000000000000000000 0.00000000000000000000 0.00000000000000000000 0.00000000000000000000 0.00000000000000000000 -0.02294094949207122619 -0.01117705177001710945 -0.04460925047923213621 0.00062238935648607384 0.00011617641274824760 0.00017728467258546553
1520530350.901571 0.00000000000000000000 0.00000000000000000000 0.00000000000000000000 0.00000000000000000000 0.00000000000000000000 0.00000000000000000000 -0.02311555995790884332 -0.01122601517638657440 -0.04455070995375748355 0.00058859493173422678 0.00012391809518028885 0.00014490172598979258
1520530351.001574 0.00000000000000000000 0.00000000000000000000 0.00000000000000000000 0.00000000000000000000 0.00000000000000000000 0.00000000000000000000 -0.02353186312867282942 -0.01122264433181101133 -0.04453447298264179982 0.00056095118546628476 0.00009055096652444248 0.00015586668776666488
1520530351.101578 0.00000000000000000000 0.00000000000000000000 0.00000000000000000000 0.00000000000000000000 0.00000000000000000000 0.00000000000000000000 -0.02392619490012327932 -0.01131671110542017272 -0.04447763826668514608 0.00054539084891051890 0.00012560156124860448 0.00010290783728035399
1520530351.201581 0.00000000000000000000 0.00000000000000000000 0.00000000000000000000 0.00000000000000000000 0.00000000000000000000 0.00000000000000000000 -0.02431842661938406203 -0.01137558267103875795 -0.04410001978455162924 0.00057699679146717173 0.00012572381774144357 0.00005659125228639783
1520530351.301683 0.00000000000000000000 0.00000000000000000000 0.00000000000000000000 0.00000000000000000000 0.00000000000000000000 0.00000000000000000000 -0.02450571408973258730 -0.01151492707275160801 -0.04415231038058352320 0.00056423604190380743 0.00009856292751441961 0.00004788104133290606
1520530351.401685 0.00000000000000000000 0.00000000000000000000 0.00000000000000000000 0.00000000000000000000 0.00000000000000000000 0.00000000000000000000 -0.02481766036409131446 -0.01171913613304009436 -0.04424511971238800218 0.00061052133107690075 0.00008385495869882419 0.00006077908822854365
1520530351.501759 0.00000000000000000000 0.00000000000000000000 0.00000000000000000000 0.00000000000000000000 0.00000000000000000000 0.00000000000000000000 -0.02502152420260729884 -0.01159615031306169587 -0.04401828009151187437 0.00062270166951064855 0.00011415253986521623 0.00013893013126384129
1520530351.601688 0.00000000000000000000 0.00000000000000000000 0.00000000000000000000 0.00000000000000000000 0.00000000000000000000 0.00000000000000000000 -0.02529575415328100610 -0.01161011966361513888 -0.04382409083058629029 0.00061708190901173937 0.00014716717601532257 0.00020415499739011081
1520530351.701695 0.00000000000000000000 0.00000000000000000000 0.00000000000000000000 0.00000000000000000000 0.00000000000000000000 0.00000000000000000000 -0.02594623432735362889 -0.01160807525562072666 -0.04379270227932328952 0.00066714979626146455 0.00017001025579716655 0.00021637199001471033
1520530351.801698 0.00000000000000000000 0.00000000000000000000 0.00000000000000000000 0.00000000000000000000 0.00000000000000000000 0.00000000000000000000 -0.02611528923967594562 -0.01138394461099350927 -0.04342476161379082295 0.00076278311223372519 0.00011226493730601384 0.00021815614512870883
1520530351.901701 0.00000000000000000000 0.00000000000000000000 0.00000000000000000000 0.00000000000000000000 0.00000000000000000000 0.00000000000000000000 -0.02648827617484658670 -0.01121814930807846396 -0.04321631693764632631 0.00075864757593241785 0.00016450450961754499 0.00017376839129761064
1520530352.001704 0.00000000000000000000 0.00000000000000000000 0.00000000000000000000 0.00000000000000000000 0.00000000000000000000 0.00000000000000000000 -0.02672887425549314716 -0.01103571697176703933 -0.04321600944905589631 0.00068541097055319837 0.00016494683454877808 0.00016080598378729436
1520530352.101805 0.00000000000000000000 0.00000000000000000000 0.00000000000000000000 0.00000000000000000000 0.00000000000000000000 0.00000000000000000000 -0.02690820791865437475 -0.01085390041388307331 -0.04330217470209154346 0.00062275072506762967 0.00012855103396684780 0.00020556008534530339
1520530352.201808 0.00000000000000000000 0.00000000000000000000 0.00000000000000000000 0.00000000000000000000 0.00000000000000000000 0.00000000000000000000 -0.02720200659527953826 -0.01086040863444906468 -0.04322212335944915912 0.00061998146962181358 0.00013823980402972438 0.00015564014567913040
1520530352.301811 0.00000000000000000000 0.00000000000000000000 0.00000000000000000000 0.00000000000000000000 0.00000000000000000000 0.00000000000000000000 -0.02752102812768259313 -0.01075052554547228228 -0.04288538974997400943 0.00063825212532482188 0.00007694103767474074 0.00012255387689940115
1520530352.351812 0.00000000000000000000 0.00000000000000000000 0.00000000000000000000 0.00000000000000000000 0.00000000000000000000 0.00000000000000000000 -0.02769268332948485872 -0.01073786776626527682 -0.04263722225783268122 0.00065958674589889038 0.00004191691201637226 0.00008660702041950356
1520530352.451816 0.00000000000000000000 0.00000000000000000000 0.00000000000000000000 0.00000000000000000000 0.00000000000000000000 0.00000000000000000000 -0.02789170303318966662 -0.01085116249898810878 -0.04270779013963565268 0.00064288836468082578 0.00004263843477869038 0.00007168170879215434
