1520530315.599645 0.00000000000000000000 0.00000000000000000000 0.00000000000000000000 0.00000000000000000000 0.00000000000000000000 0.00000000000000000000 -0.31443108370260713924 -0.10722069945216072817 -0.02163281883708982958 -0.00075248716126418574 -0.00018550450529797053 -0.00061581607044509077  8.03854087590143784325 10.85352149799753007642  0.07718757715446822321  0.00002966873171231018  0.00002796283533710164  0.00002782978532790695
1520530315.749639 0.00000000000000000000 0.00000000000000000000 0.00000000000000000000 0.00000000000000000000 0.00000000000000000000 0.00000000000000000000 -0.22973434867473929710 -0.10075801526759263493 -0.02511319101625961517  0.00010032768112844327 -0.00004128849903322231 -0.00056219590424744790 6.74712405870437326172 9.83191596870006101483 0.07315613074719123921 0.00002885500875532798 0.00002729792934791344 0.00002733661639270413
1520530315.899643 0.00000000000000000000 0.00000000000000000000 0.00000000000000000000 0.00000000000000000000 0.00000000000000000000 0.00000000000000000000 -0.12443200012076371941 -0.09719558994251044359 -0.03021823657816615633  0.00028001546431696156  0.00002133940196556725 -0.00053038103534872017 6.00622565430687505028 9.15820027736811859143 0.07078313347043822812 0.00002825464129590079 0.00002676751300397332 0.00002689435521132678
1520530316.049648 0.00000000000000000000 0.00000000000000000000 0.00000000000000000000 0.00000000000000000000 0.00000000000000000000 0.00000000000000000000 -0.09760561188108723973 -0.09488970751477239507 -0.03124051553657669969  0.00021460625571484741 -0.00005164841384605991 -0.00048028537960155738 5.26102209744452764539 8.57958851486238494033 0.06969312956000221770 0.00002779225385414628 0.00002632010709255654 0.00002651179405283337
1520530316.100221 0.00000000000000000000 0.00000000000000000000 0.00000000000000000000 0.00000000000000000000 0.00000000000000000000 0.00000000000000000000 -0.07393528763518071589 -0.09024652292843730883 -0.03316546111910841088  0.00009428001814779160 -0.00009945661129781642 -0.00041774537662920793 5.16678630454339149480 8.47831292366335098620 0.07010381649891864186 0.00002709065175235307 0.00002599950057937889 0.00002622123582284675
1520530316.300227 0.00000000000000000000 0.00000000000000000000 0.00000000000000000000 0.00000000000000000000 0.00000000000000000000 0.00000000000000000000 -0.03832840160467241436 -0.07091474346944884322 -0.03684589722850960258  0.00001936348486426126 -0.00000598704371125286 -0.00043428238899408578 4.60788464515761120310 7.73408774073675697736 0.06374890970311326843 0.00002606578944126915 0.00002532382293486662 0.00002554855368696146
1520530316.450231 0.00000000000000000000 0.00000000000000000000 0.00000000000000000000 0.00000000000000000000 0.00000000000000000000 0.00000000000000000000 -0.02221693400443209079 -0.06188265049709850557 -0.03894314157055411840  0.00001340026353521796 -0.00004282741057378781 -0.00039223089650350981 4.15971153785687430826 7.10781403396756061852 0.05853000572947078539 0.00002549251769683467 0.00002493562576249722 0.00002511082129692832
1520530316.650280 0.00000000000000000000 0.00000000000000000000 0.00000000000000000000 0.00000000000000000000 0.00000000000000000000 0.00000000000000000000 -0.02085442910276064793 -0.05473213286941711747 -0.04033353937625850510 -0.00005960858980436181 -0.00005765649063477419 -0.00035276469422062157 3.75298873155168166704 6.35701246009193798869 0.05432857847606075569 0.00002501246951109686 0.00002449306456022845 0.00002456929680271293
1520530316.850286 0.00000000000000000000 0.00000000000000000000 0.00000000000000000000 0.00000000000000000000 0.00000000000000000000 0.00000000000000000000 -0.02323715192024054452 -0.04889044057299860024 -0.04137950716497577897 -0.00003847712817967746 -0.00003371862708413017 -0.00044168172939228087 3.48858662690446408305 5.72178150753141423479 0.05185008562432479734 0.00002456229486479617 0.00002405936493325240 0.00002410094501046510
1520530316.949773 0.00000000000000000000 0.00000000000000000000 0.00000000000000000000 0.00000000000000000000 0.00000000000000000000 0.00000000000000000000 -0.02314173073664409913 -0.05101708673377815251 -0.04158312971786191914  0.00003781019967112881 -0.00008424393334900740 -0.00042290939168593316 3.39513777876060673933 5.38271621004741174232 0.05098537533586984527 0.00002446140602385824 0.00002389854461103944 0.00002394421072211453
1520530317.149779 0.00000000000000000000 0.00000000000000000000 0.00000000000000000000 0.00000000000000000000 0.00000000000000000000 0.00000000000000000000 -0.02632015100714548556 -0.05075999073424027758 -0.04164763686120440817  0.00009105354369749550 -0.00009690356270207542 -0.00037707614458160521 3.28615206867074904906 4.76207571256739292664 0.04986624403825305057 0.00002418411848927859 0.00002350709048364735 0.00002358398726847888
1520530317.299784 0.00000000000000000000 0.00000000000000000000 0.00000000000000000000 0.00000000000000000000 0.00000000000000000000 0.00000000000000000000 -0.02878700092377264180 -0.04604244428179245924 -0.04178405964445236487  0.00010001418031216168 -0.00017784061432665518 -0.00040308046699133969 3.25072281519363404101 4.41122247897549524254 0.04970572751106720061 0.00002391859739065483 0.00002317213633287878 0.00002333484528934751
1520530317.449747 0.00000000000000000000 0.00000000000000000000 0.00000000000000000000 0.00000000000000000000 0.00000000000000000000 0.00000000000000000000 -0.03352658409438726700 -0.04491978203822186155 -0.04141337837520867732  0.00009973083773871699 -0.00022010662531535619 -0.00041080610269815125 3.23903400448957246027 4.16664522335061970892 0.04976299392051191511 0.00002380131648008881 0.00002288350341156526 0.00002304519310339384
1520530317.649755 0.00000000000000000000 0.00000000000000000000 0.00000000000000000000 0.00000000000000000000 0.00000000000000000000 0.00000000000000000000 -0.03227769303651141508 -0.04409996022884486028 -0.04150255636091575162  0.00015586448356513067 -0.00004947771692296535 -0.00042714874442038549 3.23794142237761972680 3.98369916857495542928 0.05007894864086911979 0.00002367009567467196 0.00002257262773446722 0.00002268783177305783
1520530317.750237 0.00000000000000000000 0.00000000000000000000 0.00000000000000000000 0.00000000000000000000 0.00000000000000000000 0.00000000000000000000 -0.03138966789262335327 -0.04631555311580453499 -0.04144020640615385387  0.00020273887873217678 -0.00000756215506227708 -0.00041695758694975765 3.23893713500967850294 3.87425079674844363709 0.04998738016842124016 0.00002337648920901104 0.00002231756068050158 0.00002243269820721901
1520530317.900242 0.00000000000000000000 0.00000000000000000000 0.00000000000000000000 0.00000000000000000000 0.00000000000000000000 0.00000000000000000000 -0.02857142096458875277 -0.04153131773729824838 -0.04168174201243469296  0.00035035545231241821 -0.00004090342331718604 -0.00043528758255173360 3.22554574635924939940 3.72503869673132870233 0.04971341952339211612 0.00002306895968441249 0.00002206395879092123 0.00002216321974476071
1520530318.050246 0.00000000000000000000 0.00000000000000000000 0.00000000000000000000 0.00000000000000000000 0.00000000000000000000 0.00000000000000000000 -0.02974747922563523647 -0.03589590216385274424 -0.04148608390500357207  0.00035663667271434714 -0.00005151676310489381 -0.00052412854382573543 3.19875870052357802464 3.61239548287864975507 0.04942867125285742291 0.00002307203672789899 0.00002190657504394031 0.00002200281868386357
1520530318.150816 0.00000000000000000000 0.00000000000000000000 0.00000000000000000000 0.00000000000000000000 0.00000000000000000000 0.00000000000000000000 -0.03112738205858368509 -0.02909246534129035153 -0.04189402591537397941  0.00028675110339678497  0.00001479070410063462 -0.00056324460078928981 3.15073240506365870317 3.50766741485376742915 0.04908293520798355514 0.00002284419910175377 0.00002169058380551307 0.00002184542888080592
1520530318.300772 0.00000000000000000000 0.00000000000000000000 0.00000000000000000000 0.00000000000000000000 0.00000000000000000000 0.00000000000000000000 -0.03640768887945856902 -0.02891309927365420113 -0.04174830362380878984  0.00024685832989541256  0.00000775760804882169 -0.00050268591756939460 3.03167379136987102939 3.39540376928525899913 0.04839654674573973248 0.00002256157915912884 0.00002145463733846975 0.00002161618911228328
1520530318.450777 0.00000000000000000000 0.00000000000000000000 0.00000000000000000000 0.00000000000000000000 0.00000000000000000000 0.00000000000000000000 -0.03854829667688103312 -0.03069509907239384439 -0.04173246111877081804  0.00015775104116401962 -0.00005134914404133427 -0.00040330729811364027 2.81865699633771660260 3.28224607758225195298 0.04720621595193822545 0.00002265983518900527 0.00002131978444076553 0.00002151339200569958
1520530318.600567 0.00000000000000000000 0.00000000000000000000 0.00000000000000000000 0.00000000000000000000 0.00000000000000000000 0.00000000000000000000 -0.04338041177364200529 -0.03683863289560795201 -0.04113595999618118587  0.00016350002907989037 -0.00005423277765027553 -0.00037370025537830252 2.52259484789115528969 3.17580351015056994157 0.04546693945054801345 0.00002238826300116931 0.00002110701552149421 0.00002129114052028797
1520530318.800573 0.00000000000000000000 0.00000000000000000000 0.00000000000000000000 0.00000000000000000000 0.00000000000000000000 0.00000000000000000000 -0.02918912170694834898 -0.04385144558738181958 -0.04192275422833760534  0.00015631358697211210 -0.00010146297778272528 -0.00034557863768901133 2.10087435277793410648 3.03351784447605954398 0.04290469840020542241 0.00002210701848283496 0.00002084409603758556 0.00002102068331719807
1520530318.950577 0.00000000000000000000 0.00000000000000000000 0.00000000000000000000 0.00000000000000000000 0.00000000000000000000 0.00000000000000000000 -0.02116231869677410310 -0.04715373991020879729 -0.04267374249150853588  0.00018684426018447005 -0.00017215445133841761 -0.00028336101848127466 1.80947161352045782223 2.90930965585214984515 0.04118113033679047380 0.00002183220400992150 0.00002064513901541639 0.00002081651033192209
1520530319.049958 0.00000000000000000000 0.00000000000000000000 0.00000000000000000000 0.00000000000000000000 0.00000000000000000000 0.00000000000000000000 -0.01299526826192647783 -0.05160026340431453362 -0.04317358801731564083  0.00020741774443746840 -0.00013855540020056388 -0.00028624315679041186 1.65800418692003104226 2.78593751198107364431 0.04043033252680570261 0.00002162328362691073 0.00002054406611444533 0.00002068942297939139
1520530319.199962 0.00000000000000000000 0.00000000000000000000 0.00000000000000000000 0.00000000000000000000 0.00000000000000000000 0.00000000000000000000 -0.00917932418364571234 -0.05449660573907919026 -0.04337471997671243223  0.00028759643635257553 -0.00013093727130128607 -0.00028443150706834361 1.44917200542514956751 2.58278322453899944477 0.03893491194421976748 0.00002117784608518807 0.00002032958338701688 0.00002049158207824160
1520530319.349967 0.00000000000000000000 0.00000000000000000000 0.00000000000000000000 0.00000000000000000000 0.00000000000000000000 0.00000000000000000000 -0.00975510718889392031 -0.05440018947224625062 -0.04321819424978053104  0.00024897445426187562 -0.00010911376515777016 -0.00029215743782004441 1.30605772562345490151 2.38044504872262541184 0.03767693025375869198 0.00002089346096941174 0.00002011091402488827 0.00002024337419479207
1520530319.449833 0.00000000000000000000 0.00000000000000000000 0.00000000000000000000 0.00000000000000000000 0.00000000000000000000 0.00000000000000000000 -0.01177965119260504165 -0.05490262655721771939 -0.04304693984700318915  0.00024354788251616531 -0.00008990611478289531 -0.00026605654662717883 1.24163930045944481684 2.25897362659194822498 0.03690827233537049418 0.00002078859643826615 0.00001998510652041876 0.00002010718663201954
1520530319.599838 0.00000000000000000000 0.00000000000000000000 0.00000000000000000000 0.00000000000000000000 0.00000000000000000000 0.00000000000000000000 -0.00960057310488273037 -0.04967541133941190401 -0.04351390464593982849  0.00019809885913278232 -0.00001844326750511948 -0.00021318537505616436 1.16841918245637899076 2.13215133209701646066 0.03615828162480853869 0.00002092978450597795 0.00001986772314938858 0.00002003462427323196
1520530319.699841 0.00000000000000000000 0.00000000000000000000 0.00000000000000000000 0.00000000000000000000 0.00000000000000000000 0.00000000000000000000 -0.01150460876071099890 -0.04545476576461090351 -0.04346446280477657409  0.00018481935117687281  0.00002863882047323245 -0.00015656660569900323 1.13007937399527613742 2.07845419637770190135 0.03587852952966361086 0.00002097165174140899 0.00001978626572263503 0.00001996045556137152
1520530319.800341 0.00000000000000000000 0.00000000000000000000 0.00000000000000000000 0.00000000000000000000 0.00000000000000000000 0.00000000000000000000 -0.01362786799480832263 -0.04362119273393638003 -0.04327073324358562956  0.00015653147545837223  0.00000822486312022767 -0.00004727370852415964 1.10710472857882624709 2.06019849128414644923 0.03573830264109776472 0.00002080652354018043 0.00001964597119103480 0.00001980505280797283
1520530319.900344 0.00000000000000000000 0.00000000000000000000 0.00000000000000000000 0.00000000000000000000 0.00000000000000000000 0.00000000000000000000 -0.01734539537313822127 -0.04150010022855938480 -0.04299806275608030609  0.00008397265903828579 -0.00003316363232115877 -0.00006079145737598489 1.08541194972242616146 2.05502691022992678427 0.03556508136194595771 0.00002047251138165455 0.00001949832335727301 0.00001957921233810884
1520530320.000347 0.00000000000000000000 0.00000000000000000000 0.00000000000000000000 0.00000000000000000000 0.00000000000000000000 0.00000000000000000000 -0.00798187560857085282 -0.04039708804306833823 -0.04365169155785271482 -0.00002538148167491886 -0.00009489498835711970 -0.00017678582525703642 1.07749676930346249826 2.05561491254248407401 0.03514096973288925035 0.00002021079890338490 0.00001938296283738044 0.00001941566278300901
1520530320.100350 0.00000000000000000000 0.00000000000000000000 0.00000000000000000000 0.00000000000000000000 0.00000000000000000000 0.00000000000000000000 -0.00328094572450195621 -0.04417709506016492815 -0.04362322757878261958 -0.00004353756822195618 -0.00011782253220568936 -0.00016122363297718371 1.07075955851987214551 2.04748870843654540153 0.03454803292908940199 0.00001993598980747179 0.00001927158698778477 0.00001930022949187093
1520530320.200401 0.00000000000000000000 0.00000000000000000000 0.00000000000000000000 0.00000000000000000000 0.00000000000000000000 0.00000000000000000000 -0.00332132996984469591 -0.04515048037229936473 -0.04379905350575799550  0.00002055461865568272 -0.00007331930197034624 -0.00015977548445054909 1.06377672069875761629 2.03715535084783816444 0.03392401441280929603 0.00001964640391428865 0.00001916972027417650 0.00001920767405273119
1520530320.300404 0.00000000000000000000 0.00000000000000000000 0.00000000000000000000 0.00000000000000000000 0.00000000000000000000 0.00000000000000000000 -0.00558698324544377317 -0.04386844213597489855 -0.04399199433829161648  0.00017018857744082358 -0.00001358696394472135 -0.00021429518273159866 1.05223107684016103924 2.02169597571795556235 0.03332126472561804109 0.00001942283719758408 0.00001907955586705616 0.00001909722220383589
1520530320.450408 0.00000000000000000000 0.00000000000000000000 0.00000000000000000000 0.00000000000000000000 0.00000000000000000000 0.00000000000000000000 -0.00068182592965730106 -0.03911174397822601845 -0.04495923472306941060  0.00013198675430443099 -0.00000241576612462447 -0.00020492391418822277 1.03269136534473249256 1.97342660138883396748 0.03233077962207852457 0.00001924363542120208 0.00001894121036014361 0.00001892955033267027
1520530320.599869 0.00000000000000000000 0.00000000000000000000 0.00000000000000000000 0.00000000000000000000 0.00000000000000000000 0.00000000000000000000 -0.00223190831265016694 -0.03994326404551690191 -0.04533685222980926577  0.00012127627249094103 -0.00001428838938668315 -0.00026949155415310628 0.99733043273512467231 1.86536804679479772950 0.03103796314636699319 0.00001922046981413038 0.00001884585473300472 0.00001884760887465331
1520530320.749874 0.00000000000000000000 0.00000000000000000000 0.00000000000000000000 0.00000000000000000000 0.00000000000000000000 0.00000000000000000000  0.00022924791149414714 -0.04286985361427652491 -0.04565562654391957381  0.00017529044350206324 -0.00000519865350592120 -0.00031119668480073453 0.94945285982111038425 1.70329864433969535575 0.02955265753689242589 0.00001908694900507685 0.00001870025776154770 0.00001870412108985384
1520530320.899879 0.00000000000000000000 0.00000000000000000000 0.00000000000000000000 0.00000000000000000000 0.00000000000000000000 0.00000000000000000000  0.00066845315236138377 -0.04455984567896716098 -0.04568470299965114029  0.00021898203408718034 -0.00003366467238790879 -0.00032272865970893379 0.89607487982324252052 1.54205105772719397450 0.02815530113014755309 0.00001887935342004666 0.00001855846778691514 0.00001854875484779760
1520530321.049740 0.00000000000000000000 0.00000000000000000000 0.00000000000000000000 0.00000000000000000000 0.00000000000000000000 0.00000000000000000000  0.00100471612990037031 -0.04249784730505232200 -0.04591792853341804953  0.00014723947231342244  0.00006768780611059459 -0.00033740951688377921 0.84216550624294594929 1.42439583217695764361 0.02710461579640812205 0.00001879028626097041 0.00001845018804333236 0.00001845123686618320
1520530321.199745 0.00000000000000000000 0.00000000000000000000 0.00000000000000000000 0.00000000000000000000 0.00000000000000000000 0.00000000000000000000  0.00351156209939062873 -0.04297633039998258880 -0.04603905742820624952  0.00019128533560175190  0.00007226837847420588 -0.00030791778641870316 0.79139920646867012444 1.33554117339155187238 0.02628475217568128006 0.00001871103080982917 0.00001834069526650749 0.00001835904272498095
1520530321.349750 0.00000000000000000000 0.00000000000000000000 0.00000000000000000000 0.00000000000000000000 0.00000000000000000000 0.00000000000000000000  0.00259528260435103793 -0.04067740311148534266 -0.04608640814659675095  0.00021893834219758736  0.00006544297467377421 -0.00029969767438111006 0.74624179964996817382 1.25049721968284943685 0.02546120553443687734 0.00001874412051460878 0.00001832558759874089 0.00001831157069793809
1520530321.499857 0.00000000000000000000 0.00000000000000000000 0.00000000000000000000 0.00000000000000000000 0.00000000000000000000 0.00000000000000000000  0.00268020278546907522 -0.03766658100297368833 -0.04619187012929861641  0.00028965664049828641  0.00000728504850344057 -0.00029883764968203933 0.70535148787638379808 1.16915148785410494270 0.02456761452830989734 0.00001866775695679241 0.00001822114213555430 0.00001819429379041548
1520530321.649862 0.00000000000000000000 0.00000000000000000000 0.00000000000000000000 0.00000000000000000000 0.00000000000000000000 0.00000000000000000000  0.00310868238403812355 -0.03817327026901539549 -0.04624790352591983539  0.00033345432025177259 -0.00004916661305249173 -0.00033427565184022707 0.67188040617745792282 1.09763003723796992439 0.02376069972303478453 0.00001866523622302119 0.00001813559210221085 0.00001813903589463388
1520530321.749865 0.00000000000000000000 0.00000000000000000000 0.00000000000000000000 0.00000000000000000000 0.00000000000000000000 0.00000000000000000000  0.00530797332228635614 -0.03978409922139063831 -0.04595349106048210452  0.00030527691505207979 -0.00005106242649316407 -0.00033096221376993683 0.65041719875691805797 1.05023925039594057118 0.02313054791997478168 0.00001855525156054961 0.00001802636527841974 0.00001804346881431829
1520530321.850152 0.00000000000000000000 0.00000000000000000000 0.00000000000000000000 0.00000000000000000000 0.00000000000000000000 0.00000000000000000000  0.00638765597067383981 -0.04224505487525344327 -0.04557204029909576321  0.00016776670509479653 -0.00002042885269872154 -0.00029184551381008464 0.62916898900612705514 1.00707338508577959324 0.02243313027325963618 0.00001857181201821697 0.00001793514055954470 0.00001803211079194442
1520530322.000157 0.00000000000000000000 0.00000000000000000000 0.00000000000000000000 0.00000000000000000000 0.00000000000000000000 0.00000000000000000000  0.00949464515055621801 -0.04195332467937136489 -0.04580388692846962956 -0.00000140008306801268  0.00003667629874865713 -0.00031473116477515831 0.59919815517080310396 0.94773294815241604372 0.02149958246948104751 0.00001847403976290264 0.00001780897871900868 0.00001793204578006868
1520530322.100160 0.00000000000000000000 0.00000000000000000000 0.00000000000000000000 0.00000000000000000000 0.00000000000000000000 0.00000000000000000000  0.00999702059215271631 -0.03832342363280162589 -0.04663498488431196132 -0.00004924457852869589  0.00003839041034165150 -0.00032869633332452972 0.58056346835690164632 0.91601865556568562443 0.02100644195734879122 0.00001833936495732420 0.00001772562774472973 0.00001784150575467156
1520530322.250207 0.00000000000000000000 0.00000000000000000000 0.00000000000000000000 0.00000000000000000000 0.00000000000000000000 0.00000000000000000000  0.00910640433797182437 -0.03563162048296448364 -0.04728768390016833967  0.00003619531140859300  0.00002928738167610501 -0.00037105752566780626 0.55422165812206580782 0.88221510121631352419 0.02049574513206195783 0.00001822188681355942 0.00001762442630189314 0.00001774376028289280
1520530322.450214 0.00000000000000000000 0.00000000000000000000 0.00000000000000000000 0.00000000000000000000 0.00000000000000000000 0.00000000000000000000  0.00795831547538211614 -0.03519843909248299152 -0.04746282511131818399  0.00005612427141559526  0.00001163320245703249 -0.00037742667239733127 0.52402035220512899194 0.84915504466452595977 0.02013634439288278233 0.00001811161284506109 0.00001750560711894331 0.00001764662063217872
1520530322.650023 0.00000000000000000000 0.00000000000000000000 0.00000000000000000000 0.00000000000000000000 0.00000000000000000000 0.00000000000000000000  0.00719563555084256398 -0.03511760851133838984 -0.04770626911621742017  0.00012047589177279057 -0.00000421677979085787 -0.00036936905037425574 0.49971716628757495426 0.82046907552138093056 0.02004276571932327167 0.00001798510118318058 0.00001739843314276110 0.00001754497981918813
1520530322.850030 0.00000000000000000000 0.00000000000000000000 0.00000000000000000000 0.00000000000000000000 0.00000000000000000000 0.00000000000000000000  0.00875173474557274997 -0.03352853187972338472 -0.04776194860490075994  0.00011981073289552970  0.00002865022649761816 -0.00039184660574257286 0.48118337969691921119 0.79898709153131608485 0.02005504494787868630 0.00001780057841317310 0.00001729989708626098 0.00001742139910002273
1520530323.000035 0.00000000000000000000 0.00000000000000000000 0.00000000000000000000 0.00000000000000000000 0.00000000000000000000 0.00000000000000000000  0.01003368440058725192 -0.03347582744655221848 -0.04779861502560670689  0.00014415967655122744  0.00006510342537297048 -0.00036355912964073365 0.47074890043208184043 0.78804226650886044503 0.02008165505443758325 0.00001769858129021201 0.00001723343881540811 0.00001735847669549521
1520530323.150076 0.00000000000000000000 0.00000000000000000000 0.00000000000000000000 0.00000000000000000000 0.00000000000000000000 0.00000000000000000000  0.01102129748070741246 -0.03357430154037491232 -0.04773166397837710906  0.00017495865618802846 -0.00000165590373315383 -0.00033248264226995222 0.46289952727173039326 0.77710532488925065930 0.02008696886115965766 0.00001761960463371155 0.00001717072135362683 0.00001726288717721495
1520530323.300080 0.00000000000000000000 0.00000000000000000000 0.00000000000000000000 0.00000000000000000000 0.00000000000000000000 0.00000000000000000000  0.01060691713630250790 -0.03390551242262887510 -0.04691397045456879161  0.00019813121680101596 -0.00001901947456724675 -0.00039010488394317723 0.45739297773617715315 0.76715807920603407144 0.01995374463105165086 0.00001756473595316215 0.00001710274626409660 0.00001717345125221659
1520530323.450085 0.00000000000000000000 0.00000000000000000000 0.00000000000000000000 0.00000000000000000000 0.00000000000000000000 0.00000000000000000000  0.00976457551598831734 -0.03405966469125421003 -0.04639666137379740152  0.00008150772233119441 -0.00001917104085179504 -0.00039951519469813421 0.45258924722156651521 0.74947903724499020939 0.01963525437135784854 0.00001744863069210429 0.00001700859903924338 0.00001706638646458916
1520530323.550346 0.00000000000000000000 0.00000000000000000000 0.00000000000000000000 0.00000000000000000000 0.00000000000000000000 0.00000000000000000000  0.00949742401310877359 -0.03388812752480287876 -0.04676177033709782299  0.00001811913154038071  0.00001591889192432421 -0.00040728278859436615 0.45012367768925654055 0.73642627648112168881 0.01937169351048026456 0.00001732851901555379 0.00001692542061806712 0.00001696632937501095
1520530323.700351 0.00000000000000000000 0.00000000000000000000 0.00000000000000000000 0.00000000000000000000 0.00000000000000000000 0.00000000000000000000  0.01017103234410772321 -0.03192454467604943780 -0.04743232203707935940  0.00005673749597182890  0.00000439872680423792 -0.00040386375967448772 0.44814245367556587718 0.72393455141484763793 0.01910918540272750835 0.00001725044019016097 0.00001684034902225313 0.00001685562710864066
1520530323.850356 0.00000000000000000000 0.00000000000000000000 0.00000000000000000000 0.00000000000000000000 0.00000000000000000000 0.00000000000000000000  0.00800427398470224608 -0.03220511748400448765 -0.04741103363163903101  0.00014212881326202228 -0.00003957662142187431 -0.00042889930763508538 0.44691348618209308929 0.71804853807388635545 0.01897882366750256941 0.00001712120155230973 0.00001676417121206799 0.00001675816137685313
1520530323.950154 0.00000000000000000000 0.00000000000000000000 0.00000000000000000000 0.00000000000000000000 0.00000000000000000000 0.00000000000000000000  0.00758900554237521442 -0.03141828255483260918 -0.04773737407461473015  0.00013468605733619253 -0.00003169990259542909 -0.00044218557042075604 0.44625000277729426346 0.71564068795299851100 0.01894052583742355036 0.00001705135235783409 0.00001671853176141625 0.00001669950928264386
1520530324.100159 0.00000000000000000000 0.00000000000000000000 0.00000000000000000000 0.00000000000000000000 0.00000000000000000000 0.00000000000000000000  0.00658080180080600468 -0.03076217708351110941 -0.04804739052317239661  0.00010889132200880676 -0.00001882192338084204 -0.00041705054070736742 0.44625042851711449465 0.71245338512619016402 0.01892977433448722255 0.00001696306564528467 0.00001665263813919578 0.00001663577948283494
1520530324.250163 0.00000000000000000000 0.00000000000000000000 0.00000000000000000000 0.00000000000000000000 0.00000000000000000000 0.00000000000000000000  0.00609234301778548756 -0.03271779638946741009 -0.04833978652013982968  0.00001775303568032962  0.00000106498891348725 -0.00043229432057720725 0.44603749392156377684 0.70820646300154355135 0.01901327857244732716 0.00001687895481270746 0.00001658450561825730 0.00001656789769971400
1520530324.299908 0.00000000000000000000 0.00000000000000000000 0.00000000000000000000 0.00000000000000000000 0.00000000000000000000 0.00000000000000000000  0.00734038147687287885 -0.03427568835374675271 -0.04852653531138156895  0.00001744569207567662 -0.00000652397936074095 -0.00041627010661487307 0.44590282629129279757 0.70645647788256471511 0.01904649639538572373 0.00001683868395044584 0.00001656293866440643 0.00001654426764241636
1520530324.449913 0.00000000000000000000 0.00000000000000000000 0.00000000000000000000 0.00000000000000000000 0.00000000000000000000 0.00000000000000000000  0.00812752219385616537 -0.03522178889418568076 -0.04871725804066075888  0.00009881083241825947 -0.00005838368361732486 -0.00045243323982480023 0.44537128253022806312 0.70091984340237345474 0.01916071740354945846 0.00001681403737818510 0.00001650889763347276 0.00001651069663225109
1520530324.549915 0.00000000000000000000 0.00000000000000000000 0.00000000000000000000 0.00000000000000000000 0.00000000000000000000 0.00000000000000000000  0.00703038009667796785 -0.03339208338679556382 -0.04856335257185080689  0.00012697479000521394 -0.00005261633013677116 -0.00045049096749325945 0.44502196007787853116 0.69719490372417758373 0.01924104127836928982 0.00001679871375663059 0.00001646219073511297 0.00001649024177826064
1520530324.649919 0.00000000000000000000 0.00000000000000000000 0.00000000000000000000 0.00000000000000000000 0.00000000000000000000 0.00000000000000000000  0.00795199850547242092 -0.03262234370412651213 -0.04865379631839193003  0.00011425613225604780 -0.00005271967425228484 -0.00044084963022501307 0.44454944696422055150 0.69427317709373159715 0.01929595892644663663 0.00001679131313799457 0.00001643694672379127 0.00001647560398714364
1520530324.800021 0.00000000000000000000 0.00000000000000000000 0.00000000000000000000 0.00000000000000000000 0.00000000000000000000 0.00000000000000000000  0.00717030027070076053 -0.03234150752854703104 -0.04853314649448307178  0.00010692834626232670 -0.00001082851009480577 -0.00044568882546158279 0.44368089172155300570 0.69051273965012205380 0.01934938414527802991 0.00001683908222537806 0.00001640795328463472 0.00001649638394085249
1520530324.950026 0.00000000000000000000 0.00000000000000000000 0.00000000000000000000 0.00000000000000000000 0.00000000000000000000 0.00000000000000000000  0.00501634426402140701 -0.03304602398380926398 -0.04824028066419900479  0.00016758795754101986 -0.00003230504537515650 -0.00045116673696222738 0.44150278206952808802 0.68730763978378472956 0.01930288311494714193 0.00001677908606538343 0.00001635561396959737 0.00001645973395203645
1520530325.100816 0.00000000000000000000 0.00000000000000000000 0.00000000000000000000 0.00000000000000000000 0.00000000000000000000 0.00000000000000000000  0.00513235211053623703 -0.03327714671174066691 -0.04834592098688056394  0.00017046012457194799 -0.00001920616831835509 -0.00038919796474863529 0.43828047126723912452 0.68299001283451088451 0.01918102896727499201 0.00001664366218905808 0.00001626099367850273 0.00001633880986295258
1520530325.300822 0.00000000000000000000 0.00000000000000000000 0.00000000000000000000 0.00000000000000000000 0.00000000000000000000 0.00000000000000000000  0.00531811155586302698 -0.03243151870447080753 -0.04837079175898587741  0.00024161532911845123 -0.00006872721092549602 -0.00028533756269605390 0.43302578414170839194 0.67429385066613767297 0.01893145390126452915 0.00001658887347464542 0.00001619587771000568 0.00001625706183543473
1520530325.500828 0.00000000000000000000 0.00000000000000000000 0.00000000000000000000 0.00000000000000000000 0.00000000000000000000 0.00000000000000000000  0.00539376514031310837 -0.03388418344773509727 -0.04789320459190685164  0.00018733040770013015 -0.00006254667462454561 -0.00030646774603059770 0.42751536588932009808 0.66042256964026857524 0.01838016332668503464 0.00001658300905402846 0.00001613209662947568 0.00001623468334599104
1520530325.700918 0.00000000000000000000 0.00000000000000000000 0.00000000000000000000 0.00000000000000000000 0.00000000000000000000 0.00000000000000000000  0.00533832036898786427 -0.03331383507795263044 -0.04803357993139319160  0.00012570394595975428 -0.00012687077532145551 -0.00035258638838816939 0.42185173286958776995 0.64673728097148919236 0.01783627762061284691 0.00001647185570708594 0.00001604912188433075 0.00001615105883527660
1520530325.900924 0.00000000000000000000 0.00000000000000000000 0.00000000000000000000 0.00000000000000000000 0.00000000000000000000 0.00000000000000000000  0.00752465760646506884 -0.03143414458398264416 -0.04892107442748412638  0.00014158564395899532 -0.00011289651581296797 -0.00042644345276804157 0.41827775754942181363 0.64159162331713659455 0.01762569576290129794 0.00001643695898603825 0.00001598643945853528 0.00001607757745669892
1520530326.000543 0.00000000000000000000 0.00000000000000000000 0.00000000000000000000 0.00000000000000000000 0.00000000000000000000 0.00000000000000000000  0.00967871996136022983 -0.02965097577300935400 -0.04915135470656970679  0.00013827079264802107 -0.00010821016093847055 -0.00044279865885353759 0.41589010136472609469 0.63964051999973403628 0.01757503067893529530 0.00001641780750594395 0.00001596363200027149 0.00001604390251605815
1520530326.150548 0.00000000000000000000 0.00000000000000000000 0.00000000000000000000 0.00000000000000000000 0.00000000000000000000 0.00000000000000000000  0.01041644267020822891 -0.02847849221078172649 -0.04948013804759257561  0.00020184773512905529 -0.00008723900661109266 -0.00041148021596575769 0.41371163521091719462 0.63794851624376103238 0.01763336429976191180 0.00001637403095162788 0.00001591867774590148 0.00001598077490513671
1520530326.300552 0.00000000000000000000 0.00000000000000000000 0.00000000000000000000 0.00000000000000000000 0.00000000000000000000 0.00000000000000000000  0.00971763387841367669 -0.02706045513680490830 -0.04938056174084212713  0.00020387343010562479 -0.00009098449921191906 -0.00039388110058773454 0.41058734014696141035 0.63524945120849229951 0.01765125972400922658 0.00001636077637916220 0.00001587998316470326 0.00001593167136271455
1520530326.400206 0.00000000000000000000 0.00000000000000000000 0.00000000000000000000 0.00000000000000000000 0.00000000000000000000 0.00000000000000000000  0.00902050170716261340 -0.02689984635925898870 -0.04925997726100635188  0.00021225739692161272 -0.00006305242791443145 -0.00039774881012784801 0.40884345410647615626 0.63285794988266741434 0.01767507635753561013 0.00001640840449692619 0.00001586973750875643 0.00001593683670361986
1520530326.550210 0.00000000000000000000 0.00000000000000000000 0.00000000000000000000 0.00000000000000000000 0.00000000000000000000 0.00000000000000000000  0.00821353120831632214 -0.02671375557333304993 -0.04906713940494662057  0.00023291169912624779 -0.00005980300239677608 -0.00038512129027037245 0.40513521635301841251 0.62831753897621445137 0.01768023808324465165 0.00001647332001824549 0.00001584464744712582 0.00001593777070352033
1520530326.700216 0.00000000000000000000 0.00000000000000000000 0.00000000000000000000 0.00000000000000000000 0.00000000000000000000 0.00000000000000000000  0.00819946678211804295 -0.02585431281049991106 -0.04876279800796304298  0.00022550630166286682 -0.00003344417800895243 -0.00040402643660598388 0.40101429953477324419 0.62308662926708413554 0.01766161587323677312 0.00001651564752984154 0.00001581372636565800 0.00001592489809122755
1520530326.900431 0.00000000000000000000 0.00000000000000000000 0.00000000000000000000 0.00000000000000000000 0.00000000000000000000 0.00000000000000000000  0.00638060020795571357 -0.02384156386101283012 -0.04800259527476902210  0.00010827763047922165  0.00000928748383755058 -0.00038401011402498851 0.39399389749602148347 0.61265678418949109929 0.01750326221324836895 0.00001652587766289031 0.00001573724340638370 0.00001587511841990654
1520530327.050437 0.00000000000000000000 0.00000000000000000000 0.00000000000000000000 0.00000000000000000000 0.00000000000000000000 0.00000000000000000000  0.00582230311868871687 -0.02220134326317706186 -0.04829097370400981665  0.00004554780534670162  0.00006845125946193716 -0.00032062709752603042 0.38766730692836420813 0.60300963933148699070 0.01734452854819711759 0.00001640513220498822 0.00001570398190294074 0.00001578160580495466
1520530327.150431 0.00000000000000000000 0.00000000000000000000 0.00000000000000000000 0.00000000000000000000 0.00000000000000000000 0.00000000000000000000  0.00688943255191706329 -0.02112357062018533488 -0.04873835166512786865  0.00006800623385569260  0.00003567923557723440 -0.00027497589269765668 0.38326801601633037064 0.59843160770905390322 0.01726813662480985653 0.00001627140268749039 0.00001567457995205311 0.00001575361487483794
1520530327.300436 0.00000000000000000000 0.00000000000000000000 0.00000000000000000000 0.00000000000000000000 0.00000000000000000000 0.00000000000000000000  0.00941464748462047391 -0.02099434057346052582 -0.04932097708408357539  0.00009437932030320601 -0.00007851088092018716 -0.00021496129032354936 0.37663424766340508620 0.59422128236663818157 0.01720533123211584817 0.00001627343513265332 0.00001564708936311481 0.00001574947956744025
1520530327.450441 0.00000000000000000000 0.00000000000000000000 0.00000000000000000000 0.00000000000000000000 0.00000000000000000000 0.00000000000000000000  0.00850609144989350995 -0.02170371550893393162 -0.04979327273772442969  0.00016410259271910823 -0.00003849598038231490 -0.00016840785013601373 0.37050604934853043071 0.59155369903123522501 0.01722243550344847510 0.00001623534818843706 0.00001560912242257947 0.00001573347394391995
1520530327.550090 0.00000000000000000000 0.00000000000000000000 0.00000000000000000000 0.00000000000000000000 0.00000000000000000000 0.00000000000000000000  0.00749691421616296982 -0.02102044758671048341 -0.04956201325927282741  0.00016274351639403671 -0.00001985506351124590 -0.00012391962985261446 0.36730006853891233876 0.58930453841583152474 0.01728021274012586997 0.00001626137968863259 0.00001561272717282587 0.00001574000874407779
1520530327.650103 0.00000000000000000000 0.00000000000000000000 0.00000000000000000000 0.00000000000000000000 0.00000000000000000000 0.00000000000000000000  0.00596286062204769412 -0.02194310038212795785 -0.04949109288646463128  0.00022015384398820276 -0.00002222152485539683 -0.00006370550444550691 0.36468255550218120487 0.58783024663762195594 0.01733612855107321410 0.00001616420126414137 0.00001560053714150298 0.00001568928410700575
1520530327.750096 0.00000000000000000000 0.00000000000000000000 0.00000000000000000000 0.00000000000000000000 0.00000000000000000000 0.00000000000000000000  0.00414446494833561625 -0.02119598706624628917 -0.04918355517833248453  0.00027634862194733336 -0.00005523445919667666  0.00007155515847149760 0.36225094097617482891 0.58694512485694472215 0.01737467515861802064 0.00001591279940125099 0.00001553299062455739 0.00001560520123402671
1520530327.850099 0.00000000000000000000 0.00000000000000000000 0.00000000000000000000 0.00000000000000000000 0.00000000000000000000 0.00000000000000000000  0.00547544960599669235 -0.01849670034918391576 -0.04890759957697718430  0.00019324173346786688 -0.00008989806534754210  0.00003740730312114022 0.36225501336315441003 0.58586517190582498849 0.01736380281020746819 0.00001597210706434714 0.00001554030479601693 0.00001564152053951248
1520530327.950102 0.00000000000000000000 0.00000000000000000000 0.00000000000000000000 0.00000000000000000000 0.00000000000000000000 0.00000000000000000000  0.00693407773542408130 -0.01781403647275079868 -0.04881378258857974745  0.00007948862669570726 -0.00013086839903508963 -0.00004200799989822741 0.36214179180862327012 0.58403282868926542637 0.01726689630573841408 0.00001608504394506175 0.00001556209822183866 0.00001569139236299484
1520530328.000280 0.00000000000000000000 0.00000000000000000000 0.00000000000000000000 0.00000000000000000000 0.00000000000000000000 0.00000000000000000000  0.00595289649016547684 -0.02060969775512564925 -0.04860395750616607058  0.00006234440681637999 -0.00015582241128458764 -0.00005841374653995838 0.36190921907862227958 0.58209334547848512464 0.01718850754679889306 0.00001603878627707234 0.00001554299575355942 0.00001567576196875116
1520530328.100283 0.00000000000000000000 0.00000000000000000000 0.00000000000000000000 0.00000000000000000000 0.00000000000000000000 0.00000000000000000000  0.00683831594420314902 -0.01950274653266266187 -0.04896882189811556374  0.00008548668432791431 -0.00012050977704014139 -0.00009443034220195600 0.35958081159478566535 0.57545101953294930386 0.01701080679032610649 0.00001605695416114988 0.00001555574267760736 0.00001567390691549669
1520530328.200287 0.00000000000000000000 0.00000000000000000000 0.00000000000000000000 0.00000000000000000000 0.00000000000000000000 0.00000000000000000000  0.00706291335454935394 -0.01610225185325167563 -0.04963413566435685015  0.00012615477799741347 -0.00006764054732856036 -0.00018600768307667413 0.35454813986343797216 0.56541207415121652602 0.01681069312834030521 0.00001602475847324608 0.00001554710197087884 0.00001566873535713945
1520530328.300290 0.00000000000000000000 0.00000000000000000000 0.00000000000000000000 0.00000000000000000000 0.00000000000000000000 0.00000000000000000000  0.00788797568646999736 -0.01409363066666895030 -0.05005869700845716475  0.00019754728575869151 -0.00004680639629423715 -0.00034821687016972294 0.34610211689663933354 0.55226387347255501137 0.01660804494823464594 0.00001594869792877386 0.00001552303250954230 0.00001563463251789269
1520530328.400337 0.00000000000000000000 0.00000000000000000000 0.00000000000000000000 0.00000000000000000000 0.00000000000000000000 0.00000000000000000000  0.00900173243358436299 -0.01540209928124201648 -0.04999931848130165224  0.00026911988123958386 -0.00004309324555231039 -0.00047853868947735323 0.33485571074059150565 0.53666374122638715871 0.01639903998509964489 0.00001594648499459241 0.00001552472302464130 0.00001563328644921623
1520530328.500340 0.00000000000000000000 0.00000000000000000000 0.00000000000000000000 0.00000000000000000000 0.00000000000000000000 0.00000000000000000000  0.00970091171774785897 -0.01898921139955325743 -0.04938410532562389349  0.00027463370128898580 -0.00005189987114907056 -0.00052157056785127236 0.32220402056971142457 0.52074943267440565453 0.01620640643396482200 0.00001596071437475909 0.00001552535491035606 0.00001558110042878635
1520530328.600344 0.00000000000000000000 0.00000000000000000000 0.00000000000000000000 0.00000000000000000000 0.00000000000000000000 0.00000000000000000000  0.01123929323310722539 -0.02275244292238648783 -0.04920270072012680046  0.00024969813667052160  0.00002194896296496936 -0.00059855051074965903 0.31010938246231156690 0.50597343814727491207 0.01602291953641932221 0.00001589236886981879 0.00001549492632948855 0.00001545770711947611
1520530328.700347 0.00000000000000000000 0.00000000000000000000 0.00000000000000000000 0.00000000000000000000 0.00000000000000000000 0.00000000000000000000  0.01467965507002116747 -0.02380222124404011985 -0.04940234883278681044  0.00032655999660691529  0.00005031470541456595 -0.00061299896514468771 0.30000176684903251401 0.49310284798164061293 0.01586122514557919763 0.00001573521290780284 0.00001547700133892673 0.00001542132884148087
1520530328.800086 0.00000000000000000000 0.00000000000000000000 0.00000000000000000000 0.00000000000000000000 0.00000000000000000000 0.00000000000000000000  0.01624228152717424253 -0.02940390438830371017 -0.04887590038161190864  0.00037698998917899977  0.00008597833964872941 -0.00053730406189146532 0.29261270055126153977 0.48226107981377552836 0.01571433525684353197 0.00001572712120357144 0.00001549306949632190 0.00001542808989488171
1520530329.000092 0.00000000000000000000 0.00000000000000000000 0.00000000000000000000 0.00000000000000000000 0.00000000000000000000 0.00000000000000000000  0.02055030614052960961 -0.03600252675144867409 -0.04808383128533197381  0.00037430526115467180  0.00003701826609241175 -0.00015654900410257480 0.28512105011194482929 0.46259352670088144110 0.01537591245833213986 0.00001568730762432169 0.00001547948869595415 0.00001542469126411942
1520530329.100095 0.00000000000000000000 0.00000000000000000000 0.00000000000000000000 0.00000000000000000000 0.00000000000000000000 0.00000000000000000000  0.02331791051109123949 -0.03419523992297004988 -0.04840376194739864912  0.00034806723698717834 -0.00002458010590607721 -0.00001913615280203409 0.28338441134381170405 0.45391761865777086049 0.01520407944897878005 0.00001564378748880848 0.00001544505184643329 0.00001538195207283252
1520530329.200044 0.00000000000000000000 0.00000000000000000000 0.00000000000000000000 0.00000000000000000000 0.00000000000000000000 0.00000000000000000000  0.02319538362105602949 -0.03729591217339538189 -0.04816571328928240248  0.00034270469325279251 -0.00006124938046673164  0.00002086710052693856 0.28220769944139956209 0.44678476230737823593 0.01505603846934653808 0.00001570186957661964 0.00001548185436869549 0.00001537770447366518
1520530329.300047 0.00000000000000000000 0.00000000000000000000 0.00000000000000000000 0.00000000000000000000 0.00000000000000000000 0.00000000000000000000  0.02334429484942076444 -0.03977178539302594212 -0.04775451003905826358  0.00034823074421311777 -0.00009583905042178616  0.00004984633467732264 0.28108296101689739244 0.43948382689591647399 0.01491795800592024199 0.00001576605025642040 0.00001549760461234422 0.00001539540113367151
1520530329.400050 0.00000000000000000000 0.00000000000000000000 0.00000000000000000000 0.00000000000000000000 0.00000000000000000000 0.00000000000000000000  0.02505507822373991000 -0.03612378036533429870 -0.04826483680268239818  0.00033258412159330587 -0.00014363704173841276  0.00001234047946605393 0.27953187593199474437 0.43066993255815710917 0.01475940475335643480 0.00001569090275818307 0.00001547492115184946 0.00001537944427218508
1520530329.650099 0.00000000000000000000 0.00000000000000000000 0.00000000000000000000 0.00000000000000000000 0.00000000000000000000 0.00000000000000000000  0.02771799674182910331 -0.03502071521159046824 -0.04837766805988169549  0.00030235515750029159 -0.00030035776666718548 -0.00041428762376871376 0.27264543127981433202 0.40894037709270175673 0.01438451075548665553 0.00001567442510963780 0.00001542929596769405 0.00001537984625513199
1520530329.750102 0.00000000000000000000 0.00000000000000000000 0.00000000000000000000 0.00000000000000000000 0.00000000000000000000 0.00000000000000000000  0.03024638390242639571 -0.03721686049616707015 -0.04817888070791576105  0.00026839509042771230 -0.00027707800236837757 -0.00055484042121483441 0.26879065418494169082 0.40146305377397367709 0.01426094079158768228 0.00001559521354904858 0.00001538861566576589 0.00001531620252089504
1520530329.850105 0.00000000000000000000 0.00000000000000000000 0.00000000000000000000 0.00000000000000000000 0.00000000000000000000 0.00000000000000000000  0.03075989377938181599 -0.03720861432711065203 -0.04853522659198063888  0.00029109959144615303 -0.00017947815522307412 -0.00053463689237018448 0.26489778850545714350 0.39610622341312284878 0.01417563101371337869 0.00001572018815334407 0.00001539340493640651 0.00001532599576968285
1520530329.950109 0.00000000000000000000 0.00000000000000000000 0.00000000000000000000 0.00000000000000000000 0.00000000000000000000 0.00000000000000000000  0.03066163790280012486 -0.04120650310858132992 -0.04876493774872233539  0.00030968886411381226 -0.00012905796976245645 -0.00053347582708885362 0.26048162611864289495 0.39291636942128760346 0.01414282179594705986 0.00001561395351255531 0.00001536058471969506 0.00001530354620418594
1520530330.050161 0.00000000000000000000 0.00000000000000000000 0.00000000000000000000 0.00000000000000000000 0.00000000000000000000 0.00000000000000000000  0.03175956149513685378 -0.04147402478616477040 -0.04866044258561710162  0.00029084078459923188  0.00007550737268723901 -0.00052314407804991778 0.25644616757599436596 0.39167151017899304311 0.01415026907945215150 0.00001559735201011248 0.00001533597742339891 0.00001532130675606171
1520530330.150164 0.00000000000000000000 0.00000000000000000000 0.00000000000000000000 0.00000000000000000000 0.00000000000000000000 0.00000000000000000000  0.03397079617150919328 -0.04203328684956069566 -0.04856172188572898535  0.00022515051244463775  0.00022521569644609349 -0.00052894811967126401 0.25217802827247060016 0.39077408658121959295 0.01418297298238180640 0.00001563072967174784 0.00001534252197377231 0.00001536741659724529
1520530330.250167 0.00000000000000000000 0.00000000000000000000 0.00000000000000000000 0.00000000000000000000 0.00000000000000000000 0.00000000000000000000  0.03583248835822858136 -0.04250370489525058526 -0.04830537521500729431  0.00018320108191772813  0.00027633957461038657 -0.00052315684468090225 0.24792091464430138226 0.38928054477100482167 0.01421944873895647325 0.00001566217954976713 0.00001536432517960814 0.00001539241650699013
1520530330.350170 0.00000000000000000000 0.00000000000000000000 0.00000000000000000000 0.00000000000000000000 0.00000000000000000000 0.00000000000000000000  0.03525393691783475225 -0.04320840099559637715 -0.04839128031246615891  0.00014315584086601411  0.00034686885093312107 -0.00050056194128897218 0.24380683572683750637 0.38653079040375143416 0.01424533195772009590 0.00001568375855055137 0.00001536770419216564 0.00001538258032802223
1520530330.450787 0.00000000000000000000 0.00000000000000000000 0.00000000000000000000 0.00000000000000000000 0.00000000000000000000 0.00000000000000000000  0.03314035392388454959 -0.04403447728994983740 -0.04866538028472806171  0.00013853263123681970  0.00036140184642443983 -0.00032432020733850131 0.24003790327118684766 0.38314700442658461421 0.01426160869766220085 0.00001564493961272358 0.00001533827876376428 0.00001533446068713207
1520530330.550790 0.00000000000000000000 0.00000000000000000000 0.00000000000000000000 0.00000000000000000000 0.00000000000000000000 0.00000000000000000000  0.03013224623478621619 -0.04466234296624574385 -0.04873628536117434462  0.00021093685805737442  0.00027874770379837595 -0.00016934828864141412 0.23664846681397633255 0.38012732064474841209 0.01427553013026327915 0.00001557918315662297 0.00001532467682583788 0.00001530694073609811
1520530330.650793 0.00000000000000000000 0.00000000000000000000 0.00000000000000000000 0.00000000000000000000 0.00000000000000000000 0.00000000000000000000  0.02825306724707836448 -0.04600744516253242600 -0.04857396160981457961  0.00023196662765818981  0.00020067934129201648 -0.00006656321844322142 0.23361231534929854936 0.37785902373296292867 0.01428941734329557643 0.00001556823270575946 0.00001533179660124000 0.00001532426522222053
1520530330.700795 0.00000000000000000000 0.00000000000000000000 0.00000000000000000000 0.00000000000000000000 0.00000000000000000000 0.00000000000000000000  0.02870534494582049553 -0.04924187488415649600 -0.04835871986102534270 0.00025673761842578665 0.00015593168565544306 0.00001639192992382489 0.23210731242646079342 0.37705218913081200993 0.01429938833687835302 0.00001547844066429930 0.00001532689475070191 0.00001522962415497372
1520530330.800798 0.00000000000000000000 0.00000000000000000000 0.00000000000000000000 0.00000000000000000000 0.00000000000000000000 0.00000000000000000000  0.02823357315295190947 -0.05255948789132785376 -0.04818182549401738707 0.00026071886729757047 0.00003997080408600108 0.00005037369358317399 0.22959141686157710782 0.37585238659764119706 0.01431332450266953327 0.00001547402606991241 0.00001532923565016173 0.00001524262049800181
1520530330.850367 0.00000000000000000000 0.00000000000000000000 0.00000000000000000000 0.00000000000000000000 0.00000000000000000000 0.00000000000000000000  0.02717213093777101282 -0.05092102087720998260 -0.04827702390929686227  0.00027769970711881507 -0.00005027360020626477  0.00005843137433715170 0.22847104521658864740 0.37533788422605646184 0.01432073762637936856 0.00001546795699271500 0.00001530784516685157 0.00001526475457669196
1520530330.950279 0.00000000000000000000 0.00000000000000000000 0.00000000000000000000 0.00000000000000000000 0.00000000000000000000 0.00000000000000000000  0.02629755844070911716 -0.05287718445198666406 -0.04818370137884375043  0.00024497433586149082 -0.00020465709142466901  0.00001696429387557536 0.22633793972291105234 0.37441753899495566760 0.01433256526089226116 0.00001548155237090010 0.00001528481158015195 0.00001529725860288472
1520530331.050282 0.00000000000000000000 0.00000000000000000000 0.00000000000000000000 0.00000000000000000000 0.00000000000000000000 0.00000000000000000000  0.02595888611904579105 -0.05536993020098247842 -0.04786489096059646370  0.00022790175871269285 -0.00023203136948862356 -0.00007829388265262671 0.22439827415965252211 0.37357511636907114738 0.01434140083233684249 0.00001547226837414770 0.00001526764608420514 0.00001527763008382304
1520530331.150285 0.00000000000000000000 0.00000000000000000000 0.00000000000000000000 0.00000000000000000000 0.00000000000000000000 0.00000000000000000000  0.02555573346557320560 -0.05696868093020843182 -0.04764799754989723635  0.00020253645235757074 -0.00030130414314048873 -0.00017137924365710433 0.22244552201306280748 0.37293429710448988690 0.01434128056963997894 0.00001547215168414395 0.00001526483377140981 0.00001527337495330866
1520530331.250735 0.00000000000000000000 0.00000000000000000000 0.00000000000000000000 0.00000000000000000000 0.00000000000000000000 0.00000000000000000000  0.02478852820295550721 -0.05714705218360884020 -0.04738868468325586891  0.00015975528905531043 -0.00036134957778415739 -0.00027327513067940216 0.22055818070645660800 0.37222432256146453788 0.01432779986851878684 0.00001545613615504139 0.00001525178347363068 0.00001525651177979215
1520530331.350738 0.00000000000000000000 0.00000000000000000000 0.00000000000000000000 0.00000000000000000000 0.00000000000000000000 0.00000000000000000000  0.02470575947868102612 -0.05730835578891995546 -0.04711593000866514530  0.00004543413417368155 -0.00043591935174821280 -0.00033650288221683146 0.21868891531938150496 0.37148788040934455079 0.01430974997539088966 0.00001543953217738488 0.00001524303868916274 0.00001526358174409597
1520530331.450741 0.00000000000000000000 0.00000000000000000000 0.00000000000000000000 0.00000000000000000000 0.00000000000000000000 0.00000000000000000000  0.02557472304532872401 -0.05620126269046320233 -0.04714346336551800132 -0.00000879605550657522 -0.00049776527251382959 -0.00037939589289457586 0.21688201153870137472 0.37087766003172117912 0.01429713783109944590 0.00001546331848121818 0.00001524395192398773 0.00001529705818250496
1520530331.550744 0.00000000000000000000 0.00000000000000000000 0.00000000000000000000 0.00000000000000000000 0.00000000000000000000 0.00000000000000000000  0.02699264591994428655 -0.05475430660172771885 -0.04742733633626849271  0.00002378767511922025 -0.00047681265175847517 -0.00049366516284547919 0.21514988868029241709 0.37036315135791447739 0.01430503952064236806 0.00001550498771699320 0.00001525056392765167 0.00001532111882227881
1520530331.650479 0.00000000000000000000 0.00000000000000000000 0.00000000000000000000 0.00000000000000000000 0.00000000000000000000 0.00000000000000000000  0.02633126737667291356 -0.05624358935829010947 -0.04748990938458811512  0.00007120772106082400 -0.00039747958096823880 -0.00056760371323530639 0.21352228560831787441 0.36955730648552320705 0.01434906519468273633 0.00001550604974532381 0.00001527078943559106 0.00001529912808233081
1520530331.700481 0.00000000000000000000 0.00000000000000000000 0.00000000000000000000 0.00000000000000000000 0.00000000000000000000 0.00000000000000000000  0.02625202231509832576 -0.05637466218103549115 -0.04745908980225439083  0.00015012480727233753 -0.00029210444192569196 -0.00059422470150825467 0.21270803398826987340 0.36886003331112027226 0.01438471365160275302 0.00001541788344238376 0.00001524384587129001 0.00001524511778374084
1520530331.800484 0.00000000000000000000 0.00000000000000000000 0.00000000000000000000 0.00000000000000000000 0.00000000000000000000 0.00000000000000000000  0.02633172706598208013 -0.05440631717882282725 -0.04760932373032245729  0.00016036366909431932 -0.00015380139355125114 -0.00055850544921912852 0.21110756934033778065 0.36687990071736231723 0.01448203400387074874 0.00001539169412517974 0.00001523716781806865 0.00001525557962655820
1520530331.900488 0.00000000000000000000 0.00000000000000000000 0.00000000000000000000 0.00000000000000000000 0.00000000000000000000 0.00000000000000000000  0.02536739633022038615 -0.05486508673362962274 -0.04746944300174258530  0.00016001489760240255  0.00000158812189860717 -0.00055505711996418254 0.20941670898520958755 0.36386072801873531324 0.01460188579868238780 0.00001541191906732691 0.00001523177595753806 0.00001527185131303068
1520530332.000491 0.00000000000000000000 0.00000000000000000000 0.00000000000000000000 0.00000000000000000000 0.00000000000000000000 0.00000000000000000000  0.02421818952609279540 -0.05410614058444354613 -0.04732773982647349442  0.00016784200182998776  0.00004813897388931639 -0.00052355908018840371 0.20758194296607551665 0.36038623002759812008 0.01472284933585782732 0.00001544321260258582 0.00001524213101076111 0.00001529293809319043
1520530332.100388 0.00000000000000000000 0.00000000000000000000 0.00000000000000000000 0.00000000000000000000 0.00000000000000000000 0.00000000000000000000  0.02403035587845280679 -0.05311952516227815696 -0.04717630300602689702  0.00017687409581729465  0.00007777243152413518 -0.00050031217771587700 0.20528924967030404147 0.35641735329317442149 0.01483412659788234216 0.00001550363749833964 0.00001526315775629647 0.00001530734383093097
1520530332.200392 0.00000000000000000000 0.00000000000000000000 0.00000000000000000000 0.00000000000000000000 0.00000000000000000000 0.00000000000000000000  0.02408103627587449003 -0.05378843459655204690 -0.04687461752628649392  0.00016701670343606924  0.00013206351721748325 -0.00043038643606889095 0.20255200239179743660 0.35204552220934220985 0.01492333682442739326 0.00001552180271056767 0.00001525288581451050 0.00001531408270587033
1520530332.300399 0.00000000000000000000 0.00000000000000000000 0.00000000000000000000 0.00000000000000000000 0.00000000000000000000 0.00000000000000000000  0.02324168887668451658 -0.05413359634327001568 -0.04676560256336070170  0.00008549855882676657  0.00017258386880664037 -0.00030809425964512568 0.19935474017967780291 0.34738169915945388277 0.01498667352807724583 0.00001554454986996717 0.00001526815517460634 0.00001532693106667259
1520530332.400401 0.00000000000000000000 0.00000000000000000000 0.00000000000000000000 0.00000000000000000000 0.00000000000000000000 0.00000000000000000000  0.02106994972342016159 -0.05394837021682855061 -0.04674661591861706267  0.00006731253523188402  0.00016358831111067484 -0.00025528891861343711 0.19575133791833732033 0.34290422294869815634 0.01503063279496759733 0.00001557413040287831 0.00001531175286330476 0.00001534146926752335
1520530332.500483 0.00000000000000000000 0.00000000000000000000 0.00000000000000000000 0.00000000000000000000 0.00000000000000000000 0.00000000000000000000  0.01896126868622362294 -0.05439673071989407221 -0.04672110179494386867  0.00010300286113456735  0.00015628840996048158 -0.00020773405393887491 0.19182254000229453927 0.33832288102800889273 0.01506227972321816377 0.00001561346309426664 0.00001533897571262000 0.00001539363940808555
1520530332.550483 0.00000000000000000000 0.00000000000000000000 0.00000000000000000000 0.00000000000000000000 0.00000000000000000000 0.00000000000000000000  0.01857248237648076797 -0.05647008796688268023 -0.04669905373940944071  0.00009219720578906593  0.00012758453908602002 -0.00011771802334321103 0.18973963125169288069 0.33601190653764789751 0.01507799113027680563 0.00001553717884322978 0.00001529810895419131 0.00001530384855830701
1520530332.650488 0.00000000000000000000 0.00000000000000000000 0.00000000000000000000 0.00000000000000000000 0.00000000000000000000 0.00000000000000000000  0.01672201290813074212 -0.05862838779449056764 -0.04671679750363294525  0.00013999839527102230  0.00005676369790585320 -0.00006887697217398060 0.18568485453153729670 0.33164066034385170090 0.01510179651269952412 0.00001547663599048778 0.00001528713820995755 0.00001530215223607587
1520530332.750491 0.00000000000000000000 0.00000000000000000000 0.00000000000000000000 0.00000000000000000000 0.00000000000000000000 0.00000000000000000000  0.01438800032963163077 -0.06131727746388861838 -0.04619860592476053573  0.00028097351465772806 -0.00006130711700479129 -0.00001815727775014500 0.18171952837732929797 0.32706274843169491628 0.01512499302849137570 0.00001541429368565612 0.00001525654632151737 0.00001527007007752126
1520530332.850494 0.00000000000000000000 0.00000000000000000000 0.00000000000000000000 0.00000000000000000000 0.00000000000000000000 0.00000000000000000000  0.01192828216501367472 -0.06243263040039782191 -0.04577484004487715474  0.00035167504388222530 -0.00021533197213446399 -0.00002718057848473356 0.17797320067575725377 0.32320311462098455513 0.01514417028967126461 0.00001537151933901287 0.00001522982046599793 0.00001527395599517643
1520530332.900164 0.00000000000000000000 0.00000000000000000000 0.00000000000000000000 0.00000000000000000000 0.00000000000000000000 0.00000000000000000000  0.01052008607748284620 -0.06394426702611431812 -0.04560502330631235890  0.00034073167199668241 -0.00027415859016732141 -0.00004504438764237504 0.17628961020507441515 0.32160493063542744396 0.01514912720424973873 0.00001533509411057871 0.00001522257878683304 0.00001525938235980310
1520530333.000168 0.00000000000000000000 0.00000000000000000000 0.00000000000000000000 0.00000000000000000000 0.00000000000000000000 0.00000000000000000000  0.00881338004276347418 -0.06817894831382521892 -0.04509000182327628503  0.00034279789737491910 -0.00032504651824725208 -0.00003402269395756579 0.17320113821806065735 0.31929168073508695791 0.01515302505610362574 0.00001534769607987597 0.00001522796167422235 0.00001529237838692076
1520530333.100171 0.00000000000000000000 0.00000000000000000000 0.00000000000000000000 0.00000000000000000000 0.00000000000000000000 0.00000000000000000000  0.00626292909394060050 -0.06860451202079113908 -0.04447730513863030338  0.00030358865536048445 -0.00031247946028980286 -0.00001964490850243423 0.17061050334825222929 0.31790622657562189746 0.01513766711213062645 0.00001538933919001521 0.00001523356590139848 0.00001530785685026500
1520530333.200174 0.00000000000000000000 0.00000000000000000000 0.00000000000000000000 0.00000000000000000000 0.00000000000000000000 0.00000000000000000000  0.00427400277168757045 -0.07035254476319115213 -0.04386892875436125550  0.00025862593901984719 -0.00028143638542399218 -0.00003876475146621641 0.16845120050447850990 0.31709054937895092552 0.01510354369250767673 0.00001541128949014931 0.00001523580749389574 0.00001531623109583840
1520530333.250175 0.00000000000000000000 0.00000000000000000000 0.00000000000000000000 0.00000000000000000000 0.00000000000000000000 0.00000000000000000000  0.00430149153760632855 -0.07128978929269970399 -0.04382207589955749300  0.00019861867518259160 -0.00030062971702709846 -0.00006059597007489990 0.16764301348761642685 0.31691865473560465460 0.01507523738373658419 0.00001540342955643417 0.00001523602963893739 0.00001530608089325065
1520530333.350610 0.00000000000000000000 0.00000000000000000000 0.00000000000000000000 0.00000000000000000000 0.00000000000000000000 0.00000000000000000000  0.00376650415226096680 -0.07255152729088280850 -0.04351437338793431864  0.00017690643371075896 -0.00032112815823441998 -0.00004871662684197921 0.16606299076895869593 0.31642201965031757638 0.01502345452705901134 0.00001545847504422680 0.00001525104167998669 0.00001535856840538781
1520530333.400612 0.00000000000000000000 0.00000000000000000000 0.00000000000000000000 0.00000000000000000000 0.00000000000000000000 0.00000000000000000000  0.00414638631354394358 -0.07265459998041322309 -0.04352693059046683355  0.00019584708603194781 -0.00033543187038861358 -0.00004793059784286692 0.16533733533905814461 0.31597285112718564992 0.01499379276905864547 0.00001546247705735444 0.00001526181101554866 0.00001537074813967793
1520530333.500615 0.00000000000000000000 0.00000000000000000000 0.00000000000000000000 0.00000000000000000000 0.00000000000000000000 0.00000000000000000000  0.00358477497450495133 -0.07374254665189898528 -0.04335826567313222357  0.00026154334377638603 -0.00029190055444914322 -0.00007524206145514030 0.16348269382536939620 0.31465193921629569518 0.01495286934048969604 0.00001559540576519625 0.00001537587214254817 0.00001549662797871739
1520530333.650619 0.00000000000000000000 0.00000000000000000000 0.00000000000000000000 0.00000000000000000000 0.00000000000000000000 0.00000000000000000000  0.00287390533113027766 -0.07504514699335297634 -0.04327338317116681543  0.00025647983111926314 -0.00024291153381520819 -0.00042403167431334085 0.15971811209548666954 0.31027289054967344128 0.01488795938076290480 0.00001575372144660054 0.00001540408407022357 0.00001553985302156779
1520530333.750542 0.00000000000000000000 0.00000000000000000000 0.00000000000000000000 0.00000000000000000000 0.00000000000000000000 0.00000000000000000000  0.00485548296145019067 -0.07852520139451001080 -0.04275284783947536082  0.00020968009705424356 -0.00016571604568309982 -0.00060217631474722400 0.15647957416285679377 0.30535793831958812916 0.01483455381427141798 0.00001578315306063550 0.00001538059595381747 0.00001556085337664214
1520530333.800544 0.00000000000000000000 0.00000000000000000000 0.00000000000000000000 0.00000000000000000000 0.00000000000000000000 0.00000000000000000000  0.00502088510889114794 -0.07961984731516316693 -0.04258852504892249313  0.00015663164792477339 -0.00011996915304243734 -0.00060146673605126089 0.15477070198628817277 0.30259806260463212313 0.01480584955959994044 0.00001585433098942128 0.00001539731692709628 0.00001562230479497721
1520530333.900547 0.00000000000000000000 0.00000000000000000000 0.00000000000000000000 0.00000000000000000000 0.00000000000000000000 0.00000000000000000000  0.00599840543753578023 -0.08043665554737317036 -0.04245676431194764233  0.00012801025432837766 -0.00005186752358513124 -0.00059109263000484222 0.15153492398497506177 0.29682343084285911505 0.01473080011262896567 0.00001594892605055861 0.00001546206937885860 0.00001575596912104573
1520530333.950549 0.00000000000000000000 0.00000000000000000000 0.00000000000000000000 0.00000000000000000000 0.00000000000000000000 0.00000000000000000000  0.00662068726019094961 -0.08006173370372854370 -0.04262636636447237476  0.00015928567291366595 -0.00005478480041648104 -0.00058609642339608418 0.15008032175413307807 0.29394554510190545882 0.01468871002192306645 0.00001599123981619953 0.00001551567199466828 0.00001580493428375121
1520530334.050551 0.00000000000000000000 0.00000000000000000000 0.00000000000000000000 0.00000000000000000000 0.00000000000000000000 0.00000000000000000000  0.00684992692263862966 -0.08572191100685561116 -0.04225507161935819489  0.00021919629742866642 -0.00010705555340329441 -0.00055094057796212595 0.14754897287406593120 0.28846235158839433899 0.01459654917811977794 0.00001600147969403526 0.00001553142619975747 0.00001582738848592036
1520530334.100216 0.00000000000000000000 0.00000000000000000000 0.00000000000000000000 0.00000000000000000000 0.00000000000000000000 0.00000000000000000000  0.00789772761293045314 -0.08785401594256568580 -0.04208442051127989081  0.00027965313789944554 -0.00013095678421352127 -0.00050060051338653025 0.14655490235963627987 0.28508059888592579556 0.01454021201351545813 0.00001599013796419354 0.00001549106927898339 0.00001578531128472146
1520530334.350224 0.00000000000000000000 0.00000000000000000000 0.00000000000000000000 0.00000000000000000000 0.00000000000000000000 0.00000000000000000000  0.00946398164757883582 -0.08439645023445783989 -0.04391587592833392367  0.00052122916325742646 -0.00023743965935406911 -0.00031910992072988175 0.14400822575765803712 0.27048245074562238255 0.01428446143227079732 0.00001614287850967500 0.00001549974516039420 0.00001589282661570090
1520530334.450227 0.00000000000000000000 0.00000000000000000000 0.00000000000000000000 0.00000000000000000000 0.00000000000000000000 0.00000000000000000000  0.00961084860067003451 -0.08375377559531833882 -0.04347656328294507294  0.00061339411548031321 -0.00025423034794221539 -0.00023242986731922822 0.14362173756619200926 0.26680421464592157799 0.01420745534021353867 0.00001609102498689811 0.00001547563833249049 0.00001586099174824383
1520530334.550086 0.00000000000000000000 0.00000000000000000000 0.00000000000000000000 0.00000000000000000000 0.00000000000000000000 0.00000000000000000000  0.01046323298969132481 -0.08499044533455049621 -0.04328488570725502055  0.00059111538785845718 -0.00021298591823217398 -0.00023246825799971835 0.14346738333776654084 0.26484637287869045030 0.01415356608566974497 0.00001618788738667159 0.00001554892123280462 0.00001598199781493735
1520530334.650089 0.00000000000000000000 0.00000000000000000000 0.00000000000000000000 0.00000000000000000000 0.00000000000000000000 0.00000000000000000000  0.01167983303828745711 -0.08379592942332038386 -0.04361288789711822989  0.00054367340263585646 -0.00020144829577985096 -0.00019155904796261836 0.14344476311958131998 0.26375502063914296746 0.01411829337402633472 0.00001626567151410356 0.00001549490837479994 0.00001598482905345472
1520530334.750092 0.00000000000000000000 0.00000000000000000000 0.00000000000000000000 0.00000000000000000000 0.00000000000000000000 0.00000000000000000000  0.01221589158317625164 -0.08333359304581333671 -0.04363715697512850905  0.00055761245513487833 -0.00016844547730629765 -0.00016269673499571285 0.14345248750594399856 0.26272773857533321396 0.01409627607419866591 0.00001627005307301018 0.00001545845844025689 0.00001594537322604705
1520530334.850095 0.00000000000000000000 0.00000000000000000000 0.00000000000000000000 0.00000000000000000000 0.00000000000000000000 0.00000000000000000000  0.01321499111443926941 -0.08116657562260566616 -0.04360316001291972970  0.00069006903644133885 -0.00012318567260971911 -0.00018552178701345754 0.14350351066409802736 0.26176994424020966212 0.01410629836016510062 0.00001607369032587594 0.00001535599364951551 0.00001567460950084352
1520530334.950928 0.00000000000000000000 0.00000000000000000000 0.00000000000000000000 0.00000000000000000000 0.00000000000000000000 0.00000000000000000000  0.01334218284513331854 -0.08012560713392169465 -0.04303770108021898189  0.00057705647059606196 -0.00007603599574311242 -0.00022851212603387794 0.14355198795403473211 0.26071315909557157831 0.01414234866648611533 0.00001594386751964179 0.00001530269947985573 0.00001553081794717228
1520530335.100933 0.00000000000000000000 0.00000000000000000000 0.00000000000000000000 0.00000000000000000000 0.00000000000000000000 0.00000000000000000000  0.01234374246721785424 -0.08080334066917385649 -0.04237580356101111612  0.00011036205177205246 -0.00002667879500963739 -0.00036936946507389566 0.14360812879912859819 0.25923300550751848803 0.01422913202485945848 0.00001601564199605257 0.00001530289399938437 0.00001555995991588170
1520530335.200936 0.00000000000000000000 0.00000000000000000000 0.00000000000000000000 0.00000000000000000000 0.00000000000000000000 0.00000000000000000000  0.01134616503770302827 -0.08279365402626646941 -0.04264224110136542040 -0.00011915496397587896 -0.00012860337403403500 -0.00029076093696229794 0.14364829598039430270 0.25804034722097157761 0.01430112495307846697 0.00001626355504363151 0.00001538592349783743 0.00001577652413096106
1520530335.300938 0.00000000000000000000 0.00000000000000000000 0.00000000000000000000 0.00000000000000000000 0.00000000000000000000 0.00000000000000000000  0.01231023140034340040 -0.08202228738314785994 -0.04295443811307817633 -0.00023277434900839609 -0.00019129942100897543 -0.00027954790638115719 0.14363701291732647314 0.25643335413079149099 0.01438082936423822240 0.00001617002536395073 0.00001534199414977099 0.00001573467623702824
1520530335.401458 0.00000000000000000000 0.00000000000000000000 0.00000000000000000000 0.00000000000000000000 0.00000000000000000000 0.00000000000000000000  0.01260292936625728548 -0.08205865098177834993 -0.04314424196337457440 -0.00029234318194361087 -0.00022137713088531515 -0.00024487901892501893 0.14355994695028079233 0.25482557791897852972 0.01446118179627595146 0.00001594251665536772 0.00001529727220405254 0.00001564978715100363
1520530335.501461 0.00000000000000000000 0.00000000000000000000 0.00000000000000000000 0.00000000000000000000 0.00000000000000000000 0.00000000000000000000  0.01248890348231971280 -0.08277099769377256611 -0.04329860884959720740 -0.00024137766426008715 -0.00023059719044251774 -0.00022233235334104089 0.14345637181814357985 0.25357396260019060552 0.01453724070158145081 0.00001576589697190228 0.00001528320436845546 0.00001559046242274599
1520530335.601512 0.00000000000000000000 0.00000000000000000000 0.00000000000000000000 0.00000000000000000000 0.00000000000000000000 0.00000000000000000000  0.01210125570090218178 -0.08171171181656101956 -0.04317357326871232304 -0.00007843278850939215 -0.00019997860288322283 -0.00010833317572182330 0.14329563855034910258 0.25269136048737911304 0.01460563381338849699 0.00001601725077824577 0.00001533640928945588 0.00001567948036523387
1520530335.750223 0.00000000000000000000 0.00000000000000000000 0.00000000000000000000 0.00000000000000000000 0.00000000000000000000 0.00000000000000000000  0.01265288192234487012 -0.08387024922784713787 -0.04392111240011200429 -0.00002044944246884873 -0.00022175636993266161 -0.00011136219675299933 0.14295701255742596092 0.25233875011470380256 0.01468000824993172596 0.00001613330391332108 0.00001537710686313012 0.00001573371932583420
1520530335.900227 0.00000000000000000000 0.00000000000000000000 0.00000000000000000000 0.00000000000000000000 0.00000000000000000000 0.00000000000000000000  0.01324957028231061457 -0.08502048666908335051 -0.04455738954294698878  0.00015259203924880381 -0.00023317695827965992 -0.00004810520135466720 0.14248800559656982223 0.25231316660861297096 0.01473687186663090801 0.00001619828547862712 0.00001534257401054653 0.00001574352990749869
1520530336.000230 0.00000000000000000000 0.00000000000000000000 0.00000000000000000000 0.00000000000000000000 0.00000000000000000000 0.00000000000000000000  0.01358880769050375970 -0.08389569998479694257 -0.04407714950070268367  0.00048512119221438778 -0.00015276952544662030  0.00000697497516839777 0.14213316972498218904 0.25234424528748872207 0.01476361690948848303 0.00001591295550048830 0.00001527395886581828 0.00001562963236292165
1520530336.100233 0.00000000000000000000 0.00000000000000000000 0.00000000000000000000 0.00000000000000000000 0.00000000000000000000 0.00000000000000000000  0.01366222280818576128 -0.08436840302752848797 -0.04339744307550574831  0.00053123639033371395 -0.00011835402826869642  0.00006673456776840384 0.14178468867125976205 0.25238340453917840200 0.01478974010402696673 0.00001578326036822390 0.00001528083359250251 0.00001559558364687272
1520530336.200179 0.00000000000000000000 0.00000000000000000000 0.00000000000000000000 0.00000000000000000000 0.00000000000000000000 0.00000000000000000000  0.01420145456338552624 -0.08464731656288995709 -0.04295756519097231746  0.00042176492648801086 -0.00011847845437756782  0.00005400997359923607 0.14144799698347576555 0.25235162309874142883 0.01480470635647663721 0.00001578286521962326 0.00001532949528516970 0.00001560540595558263
1520530336.300182 0.00000000000000000000 0.00000000000000000000 0.00000000000000000000 0.00000000000000000000 0.00000000000000000000 0.00000000000000000000  0.01364519346403065582 -0.08518280003240440157 -0.04273866167085529216  0.00035544647935058265 -0.00015869748704887905  0.00009566788590124837 0.14111028825998694902 0.25188665062547960227 0.01480728781162998255 0.00001571834874821447 0.00001531548598078822 0.00001556371017942272
1520530336.400185 0.00000000000000000000 0.00000000000000000000 0.00000000000000000000 0.00000000000000000000 0.00000000000000000000 0.00000000000000000000  0.01335502931295235764 -0.08466654883554294853 -0.04216646190739085920  0.00030562381081085627 -0.00022529075364556499  0.00014121804875881014 0.14083256560006002234 0.25085462965474913943 0.01478154250539165902 0.00001559736105364657 0.00001527518079435305 0.00001549926526476159
1520530336.500188 0.00000000000000000000 0.00000000000000000000 0.00000000000000000000 0.00000000000000000000 0.00000000000000000000 0.00000000000000000000  0.01171584688081872029 -0.08233268882269990929 -0.04248762994173811008  0.00025509106131508527 -0.00027773229601188296  0.00013307197803247054 0.14046648500755920530 0.24957214665680849119 0.01473095718161084727 0.00001543659080455355 0.00001523726917869137 0.00001541046438461692
1520530336.550582 0.00000000000000000000 0.00000000000000000000 0.00000000000000000000 0.00000000000000000000 0.00000000000000000000 0.00000000000000000000  0.01162480021281890076 -0.08101825983429414291 -0.04294574309457082489  0.00023798562123607668 -0.00032199452286647140  0.00012786584205385141 0.14021866878746325202 0.24877381263791081834 0.01469288381384480265 0.00001533609125380441 0.00001519720114707909 0.00001532464723455013
1520530336.650586 0.00000000000000000000 0.00000000000000000000 0.00000000000000000000 0.00000000000000000000 0.00000000000000000000 0.00000000000000000000  0.01094445205382152744 -0.07965564446228015627 -0.04347716439562880619  0.00026729618624943838 -0.00024469132128405790  0.00010247717304190561 0.13969677196938282138 0.24734692912369987683 0.01462379705385209380 0.00001533875065775353 0.00001520160288633891 0.00001533458644508907
1520530336.750588 0.00000000000000000000 0.00000000000000000000 0.00000000000000000000 0.00000000000000000000 0.00000000000000000000 0.00000000000000000000  0.01050197983790297079 -0.07957835216678635359 -0.04380698475945932896  0.00030736143804877865 -0.00018072572667619878  0.00003881364189865123 0.13901301148336947522 0.24612898346457337539 0.01456278485436089155 0.00001534134347163927 0.00001519975105346813 0.00001532263484906726
1520530336.850591 0.00000000000000000000 0.00000000000000000000 0.00000000000000000000 0.00000000000000000000 0.00000000000000000000 0.00000000000000000000  0.01043139967216270315 -0.08033561980089316823 -0.04418158132282751227  0.00030465073496402910 -0.00009950758391177261 -0.00007959058314273611 0.13817006858408084624 0.24522991921682363303 0.01451144224348277327 0.00001533069629425837 0.00001517566584927440 0.00001529088977461903
1520530336.950594 0.00000000000000000000 0.00000000000000000000 0.00000000000000000000 0.00000000000000000000 0.00000000000000000000 0.00000000000000000000  0.01039297639282495828 -0.07899336474011579845 -0.04479239217391427913  0.00035415208498624720 -0.00007603307459273408 -0.00007847384951393591 0.13723820468175709775 0.24468189261729778039 0.01447947955818822997 0.00001530435413179939 0.00001515353147472845 0.00001525094075817157
1520530337.050259 0.00000000000000000000 0.00000000000000000000 0.00000000000000000000 0.00000000000000000000 0.00000000000000000000 0.00000000000000000000  0.01060606367138889304 -0.07785030671758463860 -0.04539199856015603551  0.00043034652938564693 -0.00004776888583412108 -0.00008084227583402718 0.13627731486780741976 0.24449641012009171170 0.01447214180086529509 0.00001530011639757377 0.00001515105522908767 0.00001526372676945622
1520530337.150262 0.00000000000000000000 0.00000000000000000000 0.00000000000000000000 0.00000000000000000000 0.00000000000000000000 0.00000000000000000000  0.01075469818606463249 -0.07841319508965208240 -0.04539679670600658967  0.00042266815784228212 -0.00006314526989317823 -0.00011159384301346508 0.13531109511672048673 0.24455793306286183197 0.01448870769790109279 0.00001531806585980460 0.00001514908377353298 0.00001526944901151482
1520530337.250265 0.00000000000000000000 0.00000000000000000000 0.00000000000000000000 0.00000000000000000000 0.00000000000000000000 0.00000000000000000000  0.01143464346275039831 -0.07811869763619645746 -0.04512138745910181797  0.00042516718248790836 -0.00007256851039081892 -0.00015420127417726579 0.13439597547039527914 0.24461699523587543403 0.01451349375778581384 0.00001539151959003877 0.00001517923608686418 0.00001531061252657490
1520530337.350269 0.00000000000000000000 0.00000000000000000000 0.00000000000000000000 0.00000000000000000000 0.00000000000000000000 0.00000000000000000000  0.01196965040928476935 -0.07832434433384569128 -0.04466701673368739939  0.00041244017835111770 -0.00009849014037969482 -0.00021257060457402185 0.13351161279902915013 0.24456988553188330204 0.01453462533679417655 0.00001547669114133623 0.00001522075519126146 0.00001535295457781143
1520530337.450303 0.00000000000000000000 0.00000000000000000000 0.00000000000000000000 0.00000000000000000000 0.00000000000000000000 0.00000000000000000000  0.01196991004081496800 -0.07881640965139352639 -0.04445146149161393473  0.00045470644149676388 -0.00011366742524422374 -0.00023214306919469796 0.13280501833504657072 0.24457004896769030111 0.01453080431466279195 0.00001559072997651842 0.00001527580197385839 0.00001543971280385811
1520530337.550306 0.00000000000000000000 0.00000000000000000000 0.00000000000000000000 0.00000000000000000000 0.00000000000000000000 0.00000000000000000000  0.01277896986414575435 -0.07997174178296587166 -0.04367921878349940307  0.00050319483062799097 -0.00015119139228659138 -0.00022972136054982728 0.13224270703522145176 0.24441188099039126702 0.01450170087174368523 0.00001565437259224252 0.00001525903157497314 0.00001546235026599714
1520530337.650309 0.00000000000000000000 0.00000000000000000000 0.00000000000000000000 0.00000000000000000000 0.00000000000000000000 0.00000000000000000000  0.01318788528467896258 -0.08110845885131311161 -0.04325609059406326090  0.00043420430682552689 -0.00009521379544957048 -0.00020050301027870580 0.13179656028853867222 0.24365122904133154624 0.01443301098635375521 0.00001580726089616930 0.00001535136701395799 0.00001560200730334017
1520530337.750312 0.00000000000000000000 0.00000000000000000000 0.00000000000000000000 0.00000000000000000000 0.00000000000000000000 0.00000000000000000000  0.01305263275368675861 -0.08138846500003188433 -0.04328316750057347589  0.00040151841137571736 -0.00006341459418976677 -0.00014374828025901884 0.13130145999103229326 0.24190112807503280634 0.01434514262212129368 0.00001590058000346717 0.00001535665424034446 0.00001568556299084957
1520530337.800854 0.00000000000000000000 0.00000000000000000000 0.00000000000000000000 0.00000000000000000000 0.00000000000000000000 0.00000000000000000000  0.01289056599875171467 -0.08052830576240357918 -0.04353460373685061335  0.00040002926573710727 -0.00008348840710778814 -0.00007298145661743393 0.13094220848427140513 0.24082737830198933104 0.01431015516495490192 0.00001589504061644992 0.00001529767509776224 0.00001564026466814887
1520530337.950858 0.00000000000000000000 0.00000000000000000000 0.00000000000000000000 0.00000000000000000000 0.00000000000000000000 0.00000000000000000000  0.01212301804027095600 -0.07893269357673415865 -0.04404273177518529953  0.00037114570459224259 -0.00008628805945790426  0.00000893197537942738 0.13008557439672219225 0.23756801148035305848 0.01420387710372564456 0.00001584529106551108 0.00001525404065259330 0.00001559049623523164
1520530338.050862 0.00000000000000000000 0.00000000000000000000 0.00000000000000000000 0.00000000000000000000 0.00000000000000000000 0.00000000000000000000  0.01204147595728360075 -0.07851247434571802242 -0.04430776655690755322  0.00030136941817140338 -0.00006905487711557938  0.00007217348967199261 0.12942049284256509911 0.23526181533485038266 0.01414170168525318537 0.00001583733277344950 0.00001527549448259166 0.00001557434872254310
1520530338.150864 0.00000000000000000000 0.00000000000000000000 0.00000000000000000000 0.00000000000000000000 0.00000000000000000000 0.00000000000000000000  0.01121322033558875414 -0.07594321279560528604 -0.04525848755002089691  0.00035356304732242163 -0.00010617913392307894  0.00010617287339344094 0.12850927854379837201 0.23329264628294565931 0.01409438636556875103 0.00001582160631228613 0.00001526718868974913 0.00001552602891889475
1520530338.250473 0.00000000000000000000 0.00000000000000000000 0.00000000000000000000 0.00000000000000000000 0.00000000000000000000 0.00000000000000000000  0.01050790459638089626 -0.07501489778255225616 -0.04593612243797361161  0.00040584662452647195 -0.00010502527484102772  0.00014440896303240174 0.12751501485834279559 0.23163361467263346438 0.01404882344731116922 0.00001582728694245686 0.00001527035647702790 0.00001550891256436260
1520530338.350476 0.00000000000000000000 0.00000000000000000000 0.00000000000000000000 0.00000000000000000000 0.00000000000000000000 0.00000000000000000000  0.01026250320576423646 -0.07491260696652407569 -0.04608999002883049784  0.00045369622424784850 -0.00011770874849751431  0.00017297877547021220 0.12633919452126651795 0.23015584018024262680 0.01401934727343057130 0.00001576920467979167 0.00001524248836174417 0.00001545598763988773
1520530338.450479 0.00000000000000000000 0.00000000000000000000 0.00000000000000000000 0.00000000000000000000 0.00000000000000000000 0.00000000000000000000  0.00961519973809826616 -0.07387330045503395781 -0.04637142800472678766  0.00052530168297520378 -0.00019264002504493886  0.00020319597512002597 0.12520084936788886121 0.22885297212405414369 0.01399065936921685752 0.00001566693653266714 0.00001519654337864024 0.00001540795700762520
1520530338.550482 0.00000000000000000000 0.00000000000000000000 0.00000000000000000000 0.00000000000000000000 0.00000000000000000000 0.00000000000000000000  0.00845987648447004033 -0.07405278735614526098 -0.04667608054929082290  0.00057451478278865002 -0.00019294428223792911  0.00018582672782102585 0.12405185894021153459 0.22750155044249587011 0.01397926361088101636 0.00001553711451456448 0.00001514685196154601 0.00001531614844327680
1520530338.600260 0.00000000000000000000 0.00000000000000000000 0.00000000000000000000 0.00000000000000000000 0.00000000000000000000 0.00000000000000000000  0.00790676398364245463 -0.07335822144351940299 -0.04671419248051062595  0.00059849913466779314 -0.00020189448214778024  0.00016583829166332266 0.12350998311782737660 0.22688611643806486096 0.01397889041557451306 0.00001547370764769708 0.00001513511039843687 0.00001529248364871536
1520530338.700263 0.00000000000000000000 0.00000000000000000000 0.00000000000000000000 0.00000000000000000000 0.00000000000000000000 0.00000000000000000000  0.00728938146265355798 -0.07218408923995599247 -0.04675653429424675434  0.00057138761427380914 -0.00017614415160680603  0.00017256960064248849 0.12252034116279959808 0.22574138550335137721 0.01398881393394711854 0.00001552610906000287 0.00001514774499993367 0.00001534553287727107
1520530338.800266 0.00000000000000000000 0.00000000000000000000 0.00000000000000000000 0.00000000000000000000 0.00000000000000000000 0.00000000000000000000  0.00671978669201003017 -0.07135004459834673463 -0.04688368683153711775  0.00049290995725438712 -0.00016249510630886530  0.00018386512490572198 0.12167892263003030062 0.22457901813706138139 0.01401024605869101262 0.00001551052741793219 0.00001515017891779304 0.00001534257178324715
1520530338.900269 0.00000000000000000000 0.00000000000000000000 0.00000000000000000000 0.00000000000000000000 0.00000000000000000000 0.00000000000000000000  0.00632619864615991279 -0.07121735265389117497 -0.04706012035034778940  0.00050975165802283058 -0.00015989940465706171  0.00019680787133004817 0.12095116386630085092 0.22347926611053450796 0.01403921154849834853 0.00001548682303404368 0.00001515106534072658 0.00001532017078429893
1520530339.000272 0.00000000000000000000 0.00000000000000000000 0.00000000000000000000 0.00000000000000000000 0.00000000000000000000 0.00000000000000000000  0.00603185637773302752 -0.07065568696548969740 -0.04697496501892302334  0.00051641741818339441 -0.00011124657627441695  0.00019738708382166555 0.12035461926258787801 0.22255312556834683235 0.01407490499109368721 0.00001547910620106620 0.00001515135651224996 0.00001526219687228088
1520530339.100960 0.00000000000000000000 0.00000000000000000000 0.00000000000000000000 0.00000000000000000000 0.00000000000000000000 0.00000000000000000000  0.00514896328766148610 -0.07003676079097612139 -0.04659134167277759198  0.00053067043065220174 -0.00008358348270334931  0.00023309730118841539 0.11992823685676332057 0.22190571384999013826 0.01411482731693285489 0.00001547294698283400 0.00001513734804628092 0.00001520475453508596
1520530339.200963 0.00000000000000000000 0.00000000000000000000 0.00000000000000000000 0.00000000000000000000 0.00000000000000000000 0.00000000000000000000  0.00447915700921951761 -0.06986295163036503053 -0.04616910234028666349  0.00052678000714581738 -0.00001694731246044589  0.00025080252794100569 0.11969742493462780242 0.22106783108774355484 0.01416020556570562507 0.00001548606484074431 0.00001517055638895233 0.00001523123439443190
1520530339.300966 0.00000000000000000000 0.00000000000000000000 0.00000000000000000000 0.00000000000000000000 0.00000000000000000000 0.00000000000000000000  0.00447292455612961076 -0.06988185327629778398 -0.04598541742215007250  0.00046914000706326875 -0.00004654719070898401  0.00025541662534874399 0.11959365385615672306 0.22077008256574978673 0.01420231296657301079 0.00001540168084165086 0.00001521330824676030 0.00001523766445924685
1520530339.400970 0.00000000000000000000 0.00000000000000000000 0.00000000000000000000 0.00000000000000000000 0.00000000000000000000 0.00000000000000000000  0.00504127008094769694 -0.06962590361731901822 -0.04601464983694855682  0.00030637933449328270 -0.00008997806078954215  0.00023350401263940256 0.11960385772232727530 0.22043654824490707678 0.01424018278544912121 0.00001536548159823100 0.00001520543380042789 0.00001526973515824001
1520530339.451687 0.00000000000000000000 0.00000000000000000000 0.00000000000000000000 0.00000000000000000000 0.00000000000000000000 0.00000000000000000000  0.00580896850386891390 -0.06968865844006970345 -0.04608375340114089641  0.00019301428745194745 -0.00008325926113240137  0.00021778042239912348 0.11960416992795180890 0.22018870257783859645 0.01425768688415461269 0.00001529479942956944 0.00001517527212917515 0.00001523700365948263
1520530339.551690 0.00000000000000000000 0.00000000000000000000 0.00000000000000000000 0.00000000000000000000 0.00000000000000000000 0.00000000000000000000  0.00595121869724365461 -0.07026281005459211748 -0.04620763225380310202  0.00009473574409169296 -0.00005387009224704296  0.00015077172960403120 0.11953972709224260085 0.21965606088491296255 0.01428822928337713724 0.00001528740999790736 0.00001519039646141049 0.00001525207923104330
1520530339.651693 0.00000000000000000000 0.00000000000000000000 0.00000000000000000000 0.00000000000000000000 0.00000000000000000000 0.00000000000000000000  0.00607057266631475054 -0.06987081161534555718 -0.04619713998268842187  0.00015157758806149660 -0.00007823338192334453  0.00008512820266380752 0.11932436313160270369 0.21856368854780588995 0.01433038270517480312 0.00001565624813836550 0.00001529041318023659 0.00001541863009219862
1520530339.751697 0.00000000000000000000 0.00000000000000000000 0.00000000000000000000 0.00000000000000000000 0.00000000000000000000 0.00000000000000000000  0.00537498069086353534 -0.07012189863926546196 -0.04620231744505187699  0.00019159809742274239 -0.00003975819975487693  0.00002336849024936652 0.11875094876633750240 0.21705234813548268669 0.01437463864634515830 0.00001569990203818705 0.00001531087078021493 0.00001548435480028681
1520530339.851056 0.00000000000000000000 0.00000000000000000000 0.00000000000000000000 0.00000000000000000000 0.00000000000000000000 0.00000000000000000000  0.00498031259241514101 -0.07161419733360588347 -0.04627830067347039195  0.00019728175728439304 -0.00007327458531716204  0.00001904048393348205 0.11786774102310591805 0.21520719620293707330 0.01442063677962780038 0.00001581802508776998 0.00001538094438490882 0.00001558060752243681
1520530339.951059 0.00000000000000000000 0.00000000000000000000 0.00000000000000000000 0.00000000000000000000 0.00000000000000000000 0.00000000000000000000  0.00377025134585387035 -0.07269455025226033429 -0.04633001031548226317 0.00022988105778907347 0.00001584329939547345 0.00001266568793832550 0.11664686713801424023 0.21334744715644990420 0.01445940088498437991 0.00001581597273179558 0.00001535818111246528 0.00001558684157953869
1520530340.051062 0.00000000000000000000 0.00000000000000000000 0.00000000000000000000 0.00000000000000000000 0.00000000000000000000 0.00000000000000000000  0.00271420118089552541 -0.07363070132017275615 -0.04631457127098424775 0.00024026391921449174 0.00012466285922270250 0.00002389798048375448 0.11518814232240524864 0.21151147721316992945 0.01450581818511628013 0.00001579289023665724 0.00001532378993488138 0.00001557591714033319
1520530340.151065 0.00000000000000000000 0.00000000000000000000 0.00000000000000000000 0.00000000000000000000 0.00000000000000000000 0.00000000000000000000  0.00200720600811197516 -0.07545466756188447255 -0.04668974053485688142  0.00029999483720870274  0.00010256049041935035 -0.00002928399226888581 0.11354657254287268964 0.21008817451809577714 0.01456102759674554256 0.00001573027863227733 0.00001529397434365959 0.00001558057836453161
1520530340.250395 0.00000000000000000000 0.00000000000000000000 0.00000000000000000000 0.00000000000000000000 0.00000000000000000000 0.00000000000000000000  0.00100347959253577982 -0.07657574441585141001 -0.04704022597666194377  0.00036442844662880043  0.00007957870852135655 -0.00003349733069947233 0.11189468118292550392 0.20843521135598272465 0.01463123322938959976 0.00001577112908302244 0.00001532995281227596 0.00001565161783985128
1520530340.350399 0.00000000000000000000 0.00000000000000000000 0.00000000000000000000 0.00000000000000000000 0.00000000000000000000 0.00000000000000000000  0.00056339341650237385 -0.07622195234640267991 -0.04710325518019461977  0.00042848256072170393  0.00006267688999919536 -0.00006052637825086576 0.11022065237268938165 0.20692715610334017073 0.01471542672435930364 0.00001576712780471495 0.00001532489360998836 0.00001562934875316169
1520530340.450401 0.00000000000000000000 0.00000000000000000000 0.00000000000000000000 0.00000000000000000000 0.00000000000000000000 0.00000000000000000000  0.00040027873802768341 -0.07596116108845371584 -0.04709514297153773871  0.00045222921146678165  0.00007393903609404382 -0.00008694499212333172 0.10877640688283622683 0.20541604683029743295 0.01480200145317991760 0.00001577994901087888 0.00001530307227909970 0.00001558377266047737
1520530340.550404 0.00000000000000000000 0.00000000000000000000 0.00000000000000000000 0.00000000000000000000 0.00000000000000000000 0.00000000000000000000  0.00022139563017343759 -0.07610001711170281957 -0.04719314057593208128  0.00045111184660587479  0.00008832485570587640 -0.00011129659143541953 0.10740737456332874467 0.20432627701584651914 0.01489375692443519611 0.00001582716071988735 0.00001530867425697968 0.00001557915407083531
1520530340.650347 0.00000000000000000000 0.00000000000000000000 0.00000000000000000000 0.00000000000000000000 0.00000000000000000000 0.00000000000000000000  0.00040623509136072721 -0.07599697940180294431 -0.04707827228440952111  0.00040756466187095856  0.00008851454856819316 -0.00013227154193693646 0.10638040782162724862 0.20354163766530625201 0.01497505243503234607 0.00001598370294858749 0.00001536415196359689 0.00001558399795431899
1520530340.750350 0.00000000000000000000 0.00000000000000000000 0.00000000000000000000 0.00000000000000000000 0.00000000000000000000 0.00000000000000000000  0.00068380180844612054 -0.07578652404207460169 -0.04689951429348229034  0.00039370683484384983  0.00009657636045675992 -0.00014827727270542342 0.10542224548372025605 0.20298370130410992029 0.01504950226100205957 0.00001599564971123133 0.00001534718002392412 0.00001555416410614867
1520530340.900354 0.00000000000000000000 0.00000000000000000000 0.00000000000000000000 0.00000000000000000000 0.00000000000000000000 0.00000000000000000000  0.00115482036179366684 -0.07518474739996031109 -0.04662540804669645239  0.00044338804397453909  0.00007885847932497616 -0.00008709485641531723 0.10456386447766090331 0.20277275618731535611 0.01511716035227961621 0.00001593916943091482 0.00001532161988538866 0.00001559833933406660
1520530341.050774 0.00000000000000000000 0.00000000000000000000 0.00000000000000000000 0.00000000000000000000 0.00000000000000000000 0.00000000000000000000  0.00159716319097784657 -0.07592990201224425473 -0.04630201357301642895 0.00041128199151886782 0.00007089874555805026 0.00005234588298852901 0.10409711171453803202 0.20275441333793103871 0.01514027649701125446 0.00001614418703582802 0.00001542069132170758 0.00001580953325783051
1520530341.300782 0.00000000000000000000 0.00000000000000000000 0.00000000000000000000 0.00000000000000000000 0.00000000000000000000 0.00000000000000000000  0.00146538534079468656 -0.07672514019635044702 -0.04613941914124574523  0.00032720274411992157 -0.00009108781341699582  0.00027464213181356469 0.10376290578477813387 0.20220709190221408669 0.01512829310248606576 0.00001617802992808103 0.00001536045579919051 0.00001580130151785653
1520530341.500713 0.00000000000000000000 0.00000000000000000000 0.00000000000000000000 0.00000000000000000000 0.00000000000000000000 0.00000000000000000000  0.00062748495594524417 -0.07608932643454695277 -0.04640419144930833795  0.00033319705870771851 -0.00003812864701519150  0.00028050163085552087 0.10332579802039629224 0.20178385371791002223 0.01514378348340071796 0.00001607135497054366 0.00001531005591108105 0.00001574738919289220
1520530341.750720 0.00000000000000000000 0.00000000000000000000 0.00000000000000000000 0.00000000000000000000 0.00000000000000000000 0.00000000000000000000  0.00022852136137205517 -0.07620878515122285479 -0.04652878402987670192  0.00035524673200428437 -0.00003907328406781970  0.00027828194382631735 0.10276579486686732157 0.20125931175022349073 0.01516750318024472077 0.00001595783181962224 0.00001525743698304487 0.00001566653270804338
1520530341.900542 0.00000000000000000000 0.00000000000000000000 0.00000000000000000000 0.00000000000000000000 0.00000000000000000000 0.00000000000000000000 -0.00010158593717991334 -0.07617251060846062793 -0.04700151925195787672 0.00040033167404912102 0.00000286482160218301 0.00020971286674873756 0.10227310132478294180 0.20080037677453324574 0.01519979090383174851 0.00001581161143241232 0.00001523705509783844 0.00001559914287171534
1520530342.100548 0.00000000000000000000 0.00000000000000000000 0.00000000000000000000 0.00000000000000000000 0.00000000000000000000 0.00000000000000000000  0.00008018875239480530 -0.07629588727819468230 -0.04641455467618153113 0.00029678215903901161 0.00000583994341452533 0.00006448788752912053 0.10191824334628625526 0.19958837747261656825 0.01520573859215304698 0.00001577578970315041 0.00001520736504048745 0.00001558465515115751
1520530342.250553 0.00000000000000000000 0.00000000000000000000 0.00000000000000000000 0.00000000000000000000 0.00000000000000000000 0.00000000000000000000  0.00010438333509229065 -0.07652106489779067489 -0.04636910486883841914  0.00017556391708286440 -0.00002627235885409410 -0.00003330938281614244 0.10162870990132445714 0.19821409555809035852 0.01519278515347054562 0.00001573101623254612 0.00001518769713226329 0.00001554614029563528
1520530342.400676 0.00000000000000000000 0.00000000000000000000 0.00000000000000000000 0.00000000000000000000 0.00000000000000000000 0.00000000000000000000  0.00019517214429232410 -0.07608670895401156709 -0.04670880265982571555  0.00020239751402992200 -0.00006843609155598716 -0.00011003736654792079 0.10134861816251743150 0.19673774824102796543 0.01515503837430983401 0.00001562627011623830 0.00001515710967351408 0.00001549815489443328
1520530342.550681 0.00000000000000000000 0.00000000000000000000 0.00000000000000000000 0.00000000000000000000 0.00000000000000000000 0.00000000000000000000  0.00128927177450609168 -0.07599854448968845766 -0.04688295758836842630  0.00026085982351933980 -0.00009751893538854751 -0.00005180153780413391 0.10098257438980512424 0.19510119495748382001 0.01511549902380048861 0.00001561099287781633 0.00001515354127387017 0.00001551271908097678
