1403636635.913555 -0.02582800000000000026  0.13754800000000000360  0.07614999999999999547 -0.00318899999999999999  0.02128700000000000037  0.07845399999999999596 -0.05801828156226871563  0.04517294470035054799  0.02034775605693737652 -0.00287931680526254917  0.02100205289574865603  0.07860789436746053183 0.17939108558977681640 1.29020576197961145404 1.23482540064094137300 0.00116253566582993038 0.00116262872520566697 0.00116257971012762029
1403636636.113555 -0.02583299999999999833  0.13754900000000000460  0.07615299999999999847 -0.00318899999999999999  0.02128700000000000037  0.07845399999999999596 -0.05710139912960700281  0.05016056203223014792  0.02249994346220367258 -0.00294562874481114250  0.02107868446360939424  0.07849902172264029698 0.17297856339307543516 1.24128811448815490337 1.19616291362403370790 0.00113652871263096849 0.00113661378435450330 0.00113657155781598943
1403636636.263556 -0.02583600000000000133  0.13754900000000000460  0.07615500000000000047 -0.00318899999999999999  0.02128700000000000037  0.07845299999999999496 -0.05635827452007548949  0.05900739162330007753  0.02418613800794215674 -0.00292931001768579388  0.02116853339224429240  0.07852051530458853401 0.16844015470796561140 1.20716279419287486618 1.16847030536350193763 0.00111778218951757015 0.00111786636322105688 0.00111782214782356381
1403636636.413555 -0.02583999999999999839  0.13754900000000000460  0.07615700000000000247 -0.00318899999999999999  0.02128700000000000037  0.07845299999999999496 -0.05573998320743504126  0.06731109353124098416  0.02492759056856366784 -0.00291730587448167092  0.02118175029732898701  0.07855211808040958588 0.16342428284826110430 1.17332017721712222880 1.13851474158311849472 0.00109965641415780621 0.00109974748666850962 0.00109969853430221410
1403636636.613555 -0.02584399999999999892  0.13755000000000000560  0.07616000000000000547 -0.00319000000000000013  0.02128700000000000037  0.07845299999999999496 -0.05575980714830379437  0.07127270307615557465  0.02470508031382154246 -0.00296761302533299527  0.02108447390348911626  0.07848108314739193903 0.15748873102990046391 1.12720677388788637074 1.09906956948969614096 0.00107639739243874035 0.00107648647590084757 0.00107643269571407098
1403636636.963556 -0.02585199999999999998  0.13755100000000000660  0.07616499999999999659 -0.00319000000000000013  0.02128800000000000137  0.07845199999999999396 -0.05670738943117014513  0.07615536496952009238  0.02538571687300379687 -0.00294816910148774924  0.02101111614465541247  0.07855222674588847875 0.14593595278680401850 1.04766235996296441790 1.00832540893412581084 0.00103802860184940720 0.00103810775974877791 0.00103805068169441662
1403636637.363556 -0.02586099999999999857  0.13755200000000000760  0.07617100000000000259 -0.00319000000000000013  0.02128800000000000137  0.07845199999999999396 -0.05667550005575045652  0.07277494875942032426  0.02998649689014757161 -0.00299231511203109941  0.02102797109726000160  0.07848203811482905301 0.13265139965704550451 0.98601140681828225443 0.90672758288180532737 0.00099747716710008104 0.00099753554623542118 0.00099748336448310620
1403636637.813555 -0.02587100000000000163  0.13755300000000000860  0.07617500000000000659 -0.00319000000000000013  0.02128800000000000137  0.07845100000000000684 -0.05380614086104040794  0.08758287638149793441  0.03576173457796388150 -0.00296484360473548260  0.02102717047492108984  0.07849198065733331564 0.12138637480252970069 0.93062137835584624046 0.82980203102215910338 0.00095552813152345432 0.00095558498991822139 0.00095553617541456069
1403636638.113555 -0.02587899999999999923  0.13755300000000000860  0.07617699999999999472 -0.00319000000000000013  0.02128899999999999890  0.07845000000000000584 -0.05240843844471450297  0.09918495709228770940  0.03745263717422535332 -0.00296910695510567944  0.02100770492378546683  0.07853138371682427676 0.11520887305970713144 0.89524436974306464965 0.78991418434987092922 0.00092950304234085449 0.00092955700593885153 0.00092951164498537668
1403636638.463556 -0.02588800000000000129  0.13755300000000000860  0.07617899999999999672 -0.00319099999999999983  0.02128899999999999890  0.07845000000000000584 -0.05150918679805353839  0.11316378958103259778  0.03967727982831839584 -0.00292951450402120913  0.02098644063464630283  0.07855018931973656304 0.10974646230554767345 0.86110565456298604481 0.75066420339318351562 0.00090094019896009268 0.00090097709462994501 0.00090094309196969854
1403636638.813555 -0.02589699999999999988  0.13755400000000000960  0.07618300000000000072 -0.00319099999999999983  0.02128899999999999890  0.07844900000000000484 -0.04987799248994138901  0.12210642329016582752  0.04087796343707816860 -0.00296912247578759534  0.02109959157112737543  0.07853028772345324593 0.10518547503629216422 0.82317425321244386272 0.71803697246021647160 0.00087411369153457888 0.00087414341973535007 0.00087410730783868808
1403636639.013556 -0.02590100000000000041  0.13755400000000000960  0.07618500000000000272 -0.00319099999999999983  0.02128899999999999890  0.07844900000000000484 -0.04905410097876122810  0.12634106096186700774  0.04130837588468812965 -0.00293893181357587820  0.02106709705653343062  0.07857606856725495026 0.10270724348056262110 0.79877766895369928246 0.70096201505260435916 0.00085949795635279728 0.00085952744189135945 0.00085949137387502880
1403636639.213556 -0.02590699999999999947  0.13755400000000000960  0.07618800000000000572 -0.00319099999999999983  0.02128899999999999890  0.07844800000000000384 -0.04852619697787748099  0.12883922593113183996  0.04204999006399497835 -0.00292758707444659054  0.02104472705618607234  0.07850799150414349004 0.10048143875532759839 0.77673886704966155214 0.68515802114472179607 0.00084537482555376334 0.00084540276074603678 0.00084536511498639502
1403636639.463556 -0.02591299999999999853  0.13755500000000001060  0.07619099999999999484 -0.00319099999999999983  0.02128999999999999990  0.07844800000000000384 -0.04815619543559351845  0.13214863287633496491  0.04345230309774987532 -0.00295766582258765809  0.02100825772483283851  0.07841972345328084015 0.09834370506503473108 0.75054996590568046066 0.66767968879600447796 0.00082838698460280583 0.00082841368895884046 0.00082836960387537540
1403636639.663556 -0.02591699999999999907  0.13755500000000001060  0.07619399999999999784 -0.00319099999999999983  0.02128999999999999990  0.07844700000000000284 -0.04769979618329061449  0.13498671379157389794  0.04515542480468554692 -0.00296219743090604540  0.02105788770222111889  0.07844704824169899948 0.09682242303234599168 0.73142290305362123171 0.65475930150467565038 0.00081529287843166303 0.00081531676735710880 0.00081527148055439555
1403636639.913555 -0.02592300000000000160  0.13755500000000001060  0.07619700000000000084 -0.00319099999999999983  0.02128999999999999990  0.07844700000000000284 -0.04735016305379337320  0.13560253792907669967  0.04694601198729228542 -0.00295063729126021981  0.02105825695609520390  0.07846999776177039643 0.09466895075441138230 0.71105861144159410170 0.63852394520266486655 0.00079951661353791427 0.00079953683341577172 0.00079949047722846067
1403636640.163556 -0.02592900000000000066  0.13755600000000001160  0.07620100000000000484 -0.00319099999999999983  0.02128999999999999990  0.07844700000000000284 -0.04602557035988222300  0.13584225589928602962  0.04845942038799413987 -0.00292319183388849765  0.02106419459760305174  0.07849969252968916344 0.09228801838512158684 0.69351492920607182846 0.62294327669179383467 0.00078435536671546565 0.00078437192960085426 0.00078432604683917502
1403636640.413555 -0.02593600000000000072  0.13755700000000001260  0.07620499999999999496 -0.00319199999999999996  0.02128999999999999990  0.07844600000000000184 -0.04324568697025541614  0.13638414412305202572  0.05157170206327974654 -0.00290796252214985812  0.02105041366628079835  0.07848707240284727438 0.08957517874909808053 0.67693891026679975376 0.60605075868128732708 0.00076977893477254175 0.00076979087041874989 0.00076974617620156004
1403636640.813555 -0.02594700000000000131  0.13755800000000001360  0.07620999999999999996 -0.00319199999999999996  0.02129100000000000090  0.07844600000000000184 -0.04003743875291166515  0.13749567747559920949  0.05488261207457883345 -0.00288508165078575716  0.02107315466752447339  0.07850421517328183552 0.08500124625503238662 0.64961676066851403721 0.57535291134932520229 0.00074759672975140427 0.00074760024566456319 0.00074755835263118472
1403636641.613555 -0.02597299999999999956  0.13756199999999998984  0.07622299999999999909 -0.00319199999999999996  0.02129100000000000090  0.07844399999999999984 -0.03437417983341623656  0.13874922826178234803  0.06370139368657458390 -0.00293423500838820538  0.02109460788143744867  0.07847086500813833798 0.07549411522035595623 0.59572415590422755916 0.51112072026587307416 0.00070702323326861686 0.00070701889880036705 0.00070697541405596561
1403636642.213556 -0.02598900000000000168  0.13756399999999999184  0.07623299999999999521 -0.00319199999999999996  0.02129199999999999843  0.07844299999999999884 -0.03412378949749863416  0.13808601936913142416  0.06497139348815446358 -0.00295495046254394891  0.02109000127087888588  0.07849749036664943613 0.06950955396303308553 0.56190137191098432634 0.47296658569037081099 0.00067945411161619504 0.00067945748702503777 0.00067942246489868633
1403636642.813555 -0.02600299999999999834  0.13756599999999999384  0.07623900000000000121 -0.00319300000000000009  0.02129199999999999843  0.07844199999999999784 -0.03442518505887039865  0.14238721464056144916  0.06696086964563385813 -0.00295980953965096095  0.02111636211937717444  0.07849719790078552029 0.06592687576791972370 0.54632667374378895975 0.45020882955394830871 0.00065405694399920463 0.00065405963185941453 0.00065403532757395816
1403636643.713556 -0.02602700000000000152  0.13756899999999999684  0.07624899999999999733 -0.00319300000000000009  0.02129299999999999943  0.07843999999999999584 -0.03443930991634731181  0.14767416800714316949  0.06756736653764303102 -0.00295374554358906116  0.02110947256519895079  0.07850217661369408850 0.06375367859329697517 0.53437877944168787891 0.43876338021046112914 0.00061950664190326787 0.00061948303521336282 0.00061948112599961435
1403636644.263556 -0.02604199999999999918  0.13756999999999999784  0.07625200000000000033 -0.00319399999999999979  0.02129400000000000043  0.07843899999999999484 -0.03430904419437144637  0.15801729995304614196  0.06850212777141070908 -0.00293465887760049112  0.02111385243099066222  0.07851691582227374178 0.06308817949391311297 0.52440734788672882516 0.43528112758478626487 0.00060019926950199086 0.00060016427467870343 0.00060017661510088397
1403636644.563555 -0.02605000000000000024  0.13756999999999999784  0.07625400000000000234 -0.00319399999999999979  0.02129400000000000043  0.07843899999999999484 -0.03388430446176614319  0.16342055307631905836  0.06961288492782126414 -0.00292698376377734668  0.02112155336551430063  0.07851752687851157320 0.06283391208610020207 0.51756221781885258792 0.43276497248595074963 0.00059019375267599730 0.00059015191580488009 0.00059016890773569376
1403636644.813555 -0.02605499999999999830  0.13757099999999999884  0.07625600000000000434 -0.00319399999999999979  0.02129400000000000043  0.07843799999999999384 -0.03376775896691189965  0.16538814370202836734  0.06957870966273770053 -0.00296315517563954184  0.02113297339898687066  0.07845077143556233867 0.06373850738171454866 0.51196967872955245760 0.43040525080308172923 0.00058212142153357379 0.00058207918754125021 0.00058208777697382069
1403636645.063555 -0.02606299999999999936  0.13757099999999999884  0.07625800000000000634 -0.00319399999999999979  0.02129400000000000043  0.07843799999999999384 -0.03366489612288502825  0.16678056155309478603  0.06898552675145135094 -0.00295178988476658358  0.02106452517860373311  0.07849957390291587012 0.06366235345322898698 0.50851076176136766893 0.42951224870203491557 0.00057427625330308042 0.00057423513893963647 0.00057424607930360854
1403636645.263556 -0.02606999999999999942  0.13757099999999999884  0.07625999999999999446 -0.00319399999999999979  0.02129500000000000143  0.07843799999999999384 -0.03341430155953702130  0.16622078582443097772  0.06752395454735775349 -0.00297446925957438020  0.02109913373945005582  0.07844910183112023538 0.06357662879898838548 0.50712367821827497583 0.42887786369956221177 0.00056815803436851295 0.00056811195780859659 0.00056812805467897239
1403636645.513556 -0.02607800000000000049  0.13757099999999999884  0.07626299999999999746 -0.00319399999999999979  0.02129500000000000143  0.07843700000000000672 -0.03340262699461937074  0.16593501952655489995  0.06667643464368243345 -0.00296931439312240553  0.02112754957419687302  0.07845490060143947564 0.06343531301278160228 0.50435130050691479031 0.42790965694888727366 0.00056070262727481927 0.00056065805230184331 0.00056067374737616186
1403636645.763556 -0.02608500000000000055  0.13757199999999999984  0.07626600000000000046 -0.00319399999999999979  0.02129500000000000143  0.07843700000000000672 -0.03354783155236006065  0.16641448949680018310  0.06586596174446647523 -0.00296620418873561748  0.02108852062199357419  0.07847149323810391486 0.06327764965454035773 0.50115506705868406723 0.42645574893699422780 0.00055345551393927873 0.00055341165332638655 0.00055342488695652521
1403636646.013556 -0.02608999999999999861  0.13757199999999999984  0.07626800000000000246 -0.00319399999999999979  0.02129500000000000143  0.07843600000000000572 -0.03296348746566114818  0.16795589455211831775  0.06518871574677286007 -0.00300528244064609228  0.02113117623105167583  0.07849450190183501763 0.06311285639883446041 0.49800653428209357143 0.42523171016749122808 0.00054640717695954885 0.00054636270755882945 0.00054637489255853096
1403636646.213556 -0.02609900000000000067  0.13757199999999999984  0.07627100000000000546 -0.00319399999999999979  0.02129599999999999896  0.07843600000000000572 -0.03281934055759906654  0.16917380817948859950  0.06446452750897438411 -0.00304833441717766674  0.02110316560023643359  0.07850717297948034412 0.06299000968192289274 0.49567196732866358744 0.42449925849127395638 0.00054090770117503641 0.00054085781532673598 0.00054087265397580186
1403636646.363556 -0.02610300000000000120  0.13757199999999999984  0.07627200000000000646 -0.00319499999999999992  0.02129599999999999896  0.07843600000000000572 -0.03283383273109805739  0.17015671949149424602  0.06387094779578478265 -0.00308795125985698079  0.02111690243561807276  0.07849923314386264561 0.06294858649669163309 0.49490702384138918202 0.42421516555774846369 0.00053686274060026908 0.00053680932054364682 0.00053682504752400372
1403636646.513556 -0.02610799999999999926  0.13757099999999999884  0.07627399999999999458 -0.00319499999999999992  0.02129599999999999896  0.07843500000000000472 -0.03285095770900104545  0.17108535646457737056  0.06382396708562802778 -0.00310746060103823506  0.02111559380781913298  0.07845921005749818822 0.06293171020525901993 0.49475021893851883759 0.42405767902925184387 0.00053287748877437272 0.00053282787708173324 0.00053284528788138128
1403636646.663556 -0.02611099999999999879  0.13757099999999999884  0.07627599999999999658 -0.00319499999999999992  0.02129599999999999896  0.07843500000000000472 -0.03299129851383027223  0.17230213447464085008  0.06452454055516865239 -0.00307516394704272734  0.02110592651491780686  0.07847670843466901525 0.06284062661501541025 0.49437252077728766064 0.42365910931288774943 0.00052895390340105815 0.00052890609147659864 0.00052892234838217253
1403636646.863556 -0.02611600000000000033  0.13756999999999999784  0.07627799999999999858 -0.00319499999999999992  0.02129599999999999896  0.07843500000000000472 -0.03288662695033282152  0.17317025018140091985  0.06553724913959353693 -0.00306438352351423842  0.02109531403567368665  0.07850621129659177133 0.06245969421549714407 0.49155099717994715780 0.42174806014212601335 0.00052381510672691014 0.00052376845500865172 0.00052378575806002201
1403636647.113555 -0.02612199999999999939  0.13756999999999999784  0.07628100000000000158 -0.00319499999999999992  0.02129599999999999896  0.07843400000000000372 -0.03283528611051043933  0.17374266398913359999  0.06628633906591671621 -0.00304858909920315913  0.02107674263632420414  0.07849295104262569989 0.06146797224149664479 0.48258396479922710531 0.41575209037148525004 0.00051754148905657242 0.00051749718867765684 0.00051751467443443490
1403636647.413555 -0.02613000000000000045  0.13756999999999999784  0.07628400000000000458 -0.00319499999999999992  0.02129699999999999996  0.07843400000000000372 -0.03275741796575644404  0.17301927738637368215  0.06719656127773779297 -0.00303532840988654995  0.02109055606504837629  0.07849555969751829954 0.05957202647551329555 0.46473415482593216641 0.40308657296481997800 0.00051022690281622392 0.00051018632453129185 0.00051020024692608769
1403636647.663556 -0.02613499999999999851  0.13756999999999999784  0.07628600000000000658 -0.00319499999999999992  0.02129699999999999996  0.07843300000000000272 -0.03287546689252979909  0.17197884331410190351  0.06764914506502668623 -0.00305660026939618464  0.02107313207041928288  0.07849697921647652565 0.05751461783036094372 0.44589423117462517743 0.38891974441093724035 0.00050430155429889126 0.00050426352966663436 0.00050427638734188221
1403636647.963556 -0.02614299999999999957  0.13756899999999999684  0.07628799999999999470 -0.00319499999999999992  0.02129699999999999996  0.07843300000000000272 -0.03266360230039432738  0.16009409440089417132  0.06966912391539492599 -0.00309503335678517309  0.02110758940654882190  0.07849915292274520229 0.05470463095080206617 0.42139304299126700837 0.36972034630392325294 0.00049739338803419023 0.00049735858372069715 0.00049736442264401368
1403636648.163556 -0.02614700000000000010  0.13756899999999999684  0.07628799999999999470 -0.00319499999999999992  0.02129699999999999996  0.07843300000000000272 -0.03258743226659851361  0.15730311278760408800  0.07084885072926483396 -0.00309602636750700528  0.02110464591058938341  0.07851405290525223513 0.05264918947504813179 0.40437120145468224974 0.35549135013359273172 0.00049290027283034924 0.00049286889064211164 0.00049287428097653384
1403636648.363556 -0.02615400000000000016  0.13756899999999999684  0.07628999999999999670 -0.00319600000000000006  0.02129699999999999996  0.07843200000000000172 -0.03262768180837399834  0.15693474128166862158  0.07119128585103366713 -0.00307490772024662145  0.02111744118284086119  0.07849440824166696584 0.05033798760196516592 0.38572923257616509307 0.33915684793698336330 0.00048849013119149826 0.00048847264942946203 0.00048847352362026912
1403636648.513556 -0.02615699999999999970  0.13756899999999999684  0.07629099999999999770 -0.00319600000000000006  0.02129800000000000096  0.07843200000000000172 -0.03132941280689121449  0.15319783430893177401  0.07536956154513803352 -0.00306881652599673730  0.02110334997829101111  0.07847669750718558324 0.04825853210896857703 0.36966348742687749063 0.32440684218919846327 0.00048524038924929535 0.00048522739216757426 0.00048522910309336474
1403636648.763556 -0.02616299999999999876  0.13756899999999999684  0.07629199999999999871 -0.00319600000000000006  0.02129800000000000096  0.07843100000000000072 -0.03054065760073329874  0.15385100557437986213  0.07747709423504660353 -0.00303136206139246762  0.02107240476937878929  0.07842279166448663796 0.04420707984160213155 0.33873732293759517553 0.29542934378818969110 0.00047992424718507689 0.00047992508072462270 0.00047992501105305043
1403636649.113555 -0.02616999999999999882  0.13756799999999999584  0.07629400000000000071 -0.00319600000000000006  0.02129800000000000096  0.07843100000000000072 -0.03058846962124589161  0.15241512320531694358  0.07826520751321187908 -0.00300641434896083224  0.02107992493458995392  0.07839510400779836630 0.03787341413270585433 0.28941217800934743165 0.24943221991211733668 0.00047271070937059638 0.00047270606989095032 0.00047270194785069004
1403636649.463556 -0.02617900000000000088  0.13756799999999999584  0.07629500000000000171 -0.00319600000000000006  0.02129800000000000096  0.07842999999999999972 -0.03050050622919561402  0.14245769513442463339  0.08010543523227395268 -0.00298422955692623270  0.02099706475833041167  0.07842303016492456480 0.03193328013382264879 0.24034735516514460496 0.20583311866099990306 0.00046572374324352464 0.00046571522612743352 0.00046571089133128459
1403636649.763556 -0.02618499999999999994  0.13756799999999999584  0.07629600000000000271 -0.00319600000000000006  0.02129899999999999849  0.07842999999999999972 -0.03077919397411322741  0.14145947493826033226  0.07946156486917460571 -0.00304549695670892646  0.02095940349786514292  0.07844020344084605412 0.02777215961010322948 0.20581755806352111660 0.17520662463756811467 0.00045992478802464278 0.00045990389081692777 0.00045989927256785159
1403636650.113555 -0.02619200000000000000  0.13756799999999999584  0.07629700000000000371 -0.00319600000000000006  0.02129899999999999849  0.07842899999999999872 -0.03133993839700485035  0.14409309603169095926  0.07884380967310347654 -0.00305349957408303967  0.02095597214357906857  0.07846693928004110086 0.02391797479361091813 0.17489287995878446957 0.14719272736902103138 0.00045335851806042941 0.00045333404270476389 0.00045331987368071603
1403636650.363556 -0.02619600000000000053  0.13756799999999999584  0.07629700000000000371 -0.00319700000000000019  0.02129899999999999849  0.07842899999999999872 -0.03181585718355068454  0.14789309518436316582  0.07884390304712710074 -0.00309846657223139315  0.02096609948691109324  0.07848308623773578296 0.02164857247671644891 0.15749491121646871927 0.13080342947478948434 0.00044880314866675778 0.00044877155151953603 0.00044875093515799774
1403636650.563555 -0.02620000000000000107  0.13756699999999999484  0.07629800000000000471 -0.00319700000000000019  0.02129899999999999849  0.07842799999999999772 -0.03247244744542283207  0.14914794622179286532  0.07769366645622557965 -0.00312339376346809942  0.02098583206975342119  0.07846327538824088288 0.02001930650443062287 0.14504590448965759553 0.11906706061501713678 0.00044521619913256690 0.00044519046545784673 0.00044516681829065327
1403636650.913555 -0.02620799999999999866  0.13756699999999999484  0.07629900000000000571 -0.00319700000000000019  0.02129999999999999949  0.07842799999999999772 -0.03310440737462417432  0.15678603550599906624  0.07624317100200987685 -0.00311187091736197597  0.02103176392371793393  0.07843753940318914930 0.01745852970207490557 0.12419911864806158774 0.10056227957324923028 0.00043909445878289287 0.00043907588656980664 0.00043904548973437707
1403636651.713556 -0.02622400000000000078  0.13756499999999999284  0.07630099999999999383 -0.00319700000000000019  0.02129999999999999949  0.07842599999999999572 -0.03234178947217734856  0.16144181395271528512  0.07833825821750425855 -0.00309529854248410041  0.02107199507139517064  0.07844879938605775482 0.01334625930768700008 0.08870366563860150599 0.07102744419583828517 0.00042581184390217937 0.00042578086970691771 0.00042575137166384514
1403636652.063555 -0.02622899999999999884  0.13756399999999999184  0.07630199999999999483 -0.00319700000000000019  0.02130100000000000049  0.07842599999999999572 -0.03155866696389988263  0.16194282553845362749  0.08094128708835066077 -0.00316670459532253671  0.02107571306067835062  0.07843824689665608585 0.01215723151052899159 0.07849549264153540817 0.06250879848674309458 0.00042027285035464430 0.00042023473524681435 0.00042020777735046310
1403636652.213556 -0.02623299999999999937  0.13756299999999999084  0.07630199999999999483 -0.00319700000000000019  0.02130100000000000049  0.07842499999999999472 -0.03142684609578211274  0.16191401237606681263  0.08172329743677456126 -0.00315559641888496631  0.02109417311717976320  0.07845397514035856723 0.01172847371884757142 0.07511636386762879369 0.05943777534867515644 0.00041795374142432036 0.00041790739102256602 0.00041788253364803967
1403636652.363556 -0.02623500000000000137  0.13756299999999999084  0.07630199999999999483 -0.00319799999999999989  0.02130100000000000049  0.07842499999999999472 -0.03116594979443083890  0.16558450554263676180  0.08342598910861163952 -0.00309488258145149651  0.02109661785502417106  0.07844178053817851826 0.01130867520704786737 0.07172799977085696221 0.05641776301961830276 0.00041566683798150144 0.00041561128230415138 0.00041558774359948389
1403636652.563555 -0.02623800000000000091  0.13756199999999998984  0.07630299999999999583 -0.00319799999999999989  0.02130100000000000049  0.07842499999999999472 -0.03272302231115181703