1403636636.113555 -0.02583299999999999833  0.13754900000000000460  0.07615299999999999847 -0.00318899999999999999  0.02128700000000000037  0.07845399999999999596 -0.05617600292952327351  0.07663681664007482297  0.02405691597170660917 -0.00292552193994084645  0.02102698421886034855  0.07846179937217037659
1403636636.263556 -0.02583600000000000133  0.13754900000000000460  0.07615500000000000047 -0.00318899999999999999  0.02128700000000000037  0.07845299999999999496 -0.05635601855246934189  0.08415695776806159101  0.02285258273499078674 -0.00294847367612430635  0.02114147198139180311  0.07847627963283802799
1403636636.413555 -0.02583999999999999839  0.13754900000000000460  0.07615700000000000247 -0.00318899999999999999  0.02128700000000000037  0.07845299999999999496 -0.05596173145231791990  0.08782211583564129842  0.02354063162515812602 -0.00292232032667700051  0.02118493395927731685  0.07852229028542320743
1403636636.613555 -0.02584399999999999892  0.13755000000000000560  0.07616000000000000547 -0.00319000000000000013  0.02128700000000000037  0.07845299999999999496 -0.05595690943857498795  0.09157089432070784907  0.02304590189442160333 -0.00294479845412731322  0.02114851613342463854  0.07849885647084862972
1403636636.963556 -0.02585199999999999998  0.13755100000000000660  0.07616499999999999659 -0.00319000000000000013  0.02128800000000000137  0.07845199999999999396 -0.05729683468008878872  0.09268312250891261317  0.02079135236703918976 -0.00295461660376018656  0.02094924369921989313  0.07853577795556121455
1403636637.363556 -0.02586099999999999857  0.13755200000000000760  0.07617100000000000259 -0.00319000000000000013  0.02128800000000000137  0.07845199999999999396 -0.05626324497007321318  0.08338069674253562047  0.03008770344578338279 -0.00297203978441403904  0.02099253102923837391  0.07844762968536288239
1403636637.813555 -0.02587100000000000163  0.13755300000000000860  0.07617500000000000659 -0.00319000000000000013  0.02128800000000000137  0.07845100000000000684 -0.05378791605433259210  0.08529363003541071131  0.03699775632888591126 -0.00296862734747601210  0.02103614413014148754  0.07849033887988736413
1403636638.113555 -0.02587899999999999923  0.13755300000000000860  0.07617699999999999472 -0.00319000000000000013  0.02128899999999999890  0.07845000000000000584 -0.05157492845900973899  0.10986855257416605625  0.04060606832121237825 -0.00295378642215245093  0.02101790144732332624  0.07851382506958923257
1403636638.463556 -0.02588800000000000129  0.13755300000000000860  0.07617899999999999672 -0.00319099999999999983  0.02128899999999999890  0.07845000000000000584 -0.05026240772766167597  0.13039967565841470432  0.04299502951111595223 -0.00292701993905525879  0.02096276662932704260  0.07855981740041084738
1403636638.813555 -0.02589699999999999988  0.13755400000000000960  0.07618300000000000072 -0.00319099999999999983  0.02128899999999999890  0.07844900000000000484 -0.04865763318975938057  0.14136919900834982178  0.04422630496492076235 -0.00294125752999813660  0.02110394454204097409  0.07850424932135183220
1403636639.013556 -0.02590100000000000041  0.13755400000000000960  0.07618500000000000272 -0.00319099999999999983  0.02128899999999999890  0.07844900000000000484 -0.04765592417179123630  0.13840922192381074907  0.04486505349260450082 -0.00294358938685564293  0.02111054787842285563  0.07856713320893583818
1403636639.213556 -0.02590699999999999947  0.13755400000000000960  0.07618800000000000572 -0.00319099999999999983  0.02128899999999999890  0.07844800000000000384 -0.04796399438026458656  0.13519471022209775257  0.04352388371570546644 -0.00293107720991021749  0.02105725670293890836  0.07854572897379234753
1403636639.463556 -0.02591299999999999853  0.13755500000000001060  0.07619099999999999484 -0.00319099999999999983  0.02128999999999999990  0.07844800000000000384 -0.04791929691354294973  0.13605279085902965974  0.04390494101397962590 -0.00294921933689965693  0.02102103372543118534  0.07840685917943797378
1403636639.663556 -0.02591699999999999907  0.13755500000000001060  0.07619399999999999784 -0.00319099999999999983  0.02128999999999999990  0.07844700000000000284 -0.04714887388383493666  0.13890558679452780222  0.04600025613391998253 -0.00295409225222269430  0.02102562906160195672  0.07841604601536324159
1403636639.913555 -0.02592300000000000160  0.13755500000000001060  0.07619700000000000084 -0.00319099999999999983  0.02128999999999999990  0.07844700000000000284 -0.04651695860159957979  0.13977723764664462536  0.04833896926827056101 -0.00294941599679322472  0.02103686363265216269  0.07849653296701117333
1403636640.163556 -0.02592900000000000066  0.13755600000000001160  0.07620100000000000484 -0.00319099999999999983  0.02128999999999999990  0.07844700000000000284 -0.04463504563808294578  0.13581260593426314198  0.05306230996119255111 -0.00293112092875533062  0.02106316959429122698  0.07846472255009560859
1403636640.413555 -0.02593600000000000072  0.13755700000000001260  0.07620499999999999496 -0.00319199999999999996  0.02128999999999999990  0.07844600000000000184 -0.04191364573191190546  0.13559745592399277681  0.05676649636942377591 -0.00290289119094678605  0.02107631917837105018  0.07849880873311128326
1403636640.813555 -0.02594700000000000131  0.13755800000000001360  0.07620999999999999996 -0.00319199999999999996  0.02129100000000000090  0.07844600000000000184 -0.03831804136706244701  0.13616070333523391800  0.06058025895703382513 -0.00286264379862637185  0.02107184629086626335  0.07848946799696307486
1403636641.613555 -0.02597299999999999956  0.13756199999999998984  0.07622299999999999909 -0.00319199999999999996  0.02129100000000000090  0.07844399999999999984 -0.03362919628411600165  0.14201833535670224662  0.06570450608288547212 -0.00290012750725403669  0.02106457368552791184  0.07845702545943598893
1403636642.213556 -0.02598900000000000168  0.13756399999999999184  0.07623299999999999521 -0.00319199999999999996  0.02129199999999999843  0.07844299999999999884 -0.03219311890499071405  0.13658732088680716754  0.07015530687858834158 -0.00294032693501296294  0.02110171252185074481  0.07851156243183231298
1403636642.813555 -0.02600299999999999834  0.13756599999999999384  0.07623900000000000121 -0.00319300000000000009  0.02129199999999999843  0.07844199999999999784 -0.03538062461453819751  0.13856570386846431275  0.06443440521340466909 -0.00295551585069103295  0.02109704880949647698  0.07848611875418481931
1403636643.713556 -0.02602700000000000152  0.13756899999999999684  0.07624899999999999733 -0.00319300000000000009  0.02129299999999999943  0.07843999999999999584 -0.03391842347532638552  0.14439821171638270170  0.06921020255433750490 -0.00293943806790430062  0.02111540148920824575  0.07850303183334259027
1403636644.263556 -0.02604199999999999918  0.13756999999999999784  0.07625200000000000033 -0.00319399999999999979  0.02129400000000000043  0.07843899999999999484 -0.03451044947451386430  0.15157535444271155733  0.06852570625496279266 -0.00294741689232863461  0.02110614964608670610  0.07850014623109152767
1403636644.563555 -0.02605000000000000024  0.13756999999999999784  0.07625400000000000234 -0.00319399999999999979  0.02129400000000000043  0.07843899999999999484 -0.03400242581304594586  0.16108392304384905325  0.06989594918933035583 -0.00292645909091981222  0.02112717585774481072  0.07851468903219013806
1403636644.813555 -0.02605499999999999830  0.13757099999999999884  0.07625600000000000434 -0.00319399999999999979  0.02129400000000000043  0.07843799999999999384 -0.03370631016829271631  0.16568793381932286901  0.07059131244948606276 -0.00294544338646695464  0.02112356866455046209  0.07842918257076705868
1403636645.063555 -0.02606299999999999936  0.13757099999999999884  0.07625800000000000634 -0.00319399999999999979  0.02129400000000000043  0.07843799999999999384 -0.03359091154511194277  0.16817794238765840231  0.07000086966969804037 -0.00293770399074587277  0.02110294109665491677  0.07850908861599563415
1403636645.263556 -0.02606999999999999942  0.13757099999999999884  0.07625999999999999446 -0.00319399999999999979  0.02129500000000000143  0.07843799999999999384 -0.03306135457883895012  0.17011316315586635928  0.06889931612511093761 -0.00295442817765483815  0.02110699331739933002  0.07846223725313586361
1403636645.513556 -0.02607800000000000049  0.13757099999999999884  0.07626299999999999746 -0.00319399999999999979  0.02129500000000000143  0.07843700000000000672 -0.03374803293416584610  0.16616890997336544733  0.06586707390072472912 -0.00298093097636010444  0.02114746799930849325  0.07843979653536345409
1403636645.763556 -0.02608500000000000055  0.13757199999999999984  0.07626600000000000046 -0.00319399999999999979  0.02129500000000000143  0.07843700000000000672 -0.03407480489934121282  0.16527335192641290362  0.06478758068708269369 -0.00299206437478452851  0.02110043074457200463  0.07847019298978535895
1403636646.013556 -0.02608999999999999861  0.13757199999999999984  0.07626800000000000246 -0.00319399999999999979  0.02129500000000000143  0.07843600000000000572 -0.03348683211953593086  0.16814027319308233466  0.06504507052663348332 -0.00299745815569899985  0.02112940546202426301  0.07848256619898917597
1403636646.213556 -0.02609900000000000067  0.13757199999999999984  0.07627100000000000546 -0.00319399999999999979  0.02129599999999999896  0.07843600000000000572 -0.03280640076586471138  0.17214839948716953444  0.06495647671844427540 -0.00303449720199181708  0.02113858246849710174  0.07850385271175376600
1403636646.363556 -0.02610300000000000120  0.13757199999999999984  0.07627200000000000646 -0.00319499999999999992  0.02129599999999999896  0.07843600000000000572 -0.03315281763725218961  0.17185463366374689742  0.06327260025805950261 -0.00306751341185069028  0.02112290217083998001  0.07850540626267125954
1403636646.513556 -0.02610799999999999926  0.13757099999999999884  0.07627399999999999458 -0.00319499999999999992  0.02129599999999999896  0.07843500000000000472 -0.03332553880792610973  0.17278004135080551884  0.06238717235649327703 -0.00309228743070803910  0.02111242251998467559  0.07846641822137197242
1403636646.663556 -0.02611099999999999879  0.13757099999999999884  0.07627599999999999658 -0.00319499999999999992  0.02129599999999999896  0.07843500000000000472 -0.03326624999999926863  0.17354153221998230849  0.06297053082996967310 -0.00309167220534756681  0.02108759208136802912  0.07847698713275881588
1403636646.863556 -0.02611600000000000033  0.13756999999999999784  0.07627799999999999858 -0.00319499999999999992  0.02129599999999999896  0.07843500000000000472 -0.03277286788046439303  0.17363993587998624579  0.06537007608709541340 -0.00306782867801001823  0.02109258935872149535  0.07848699532160660630
1403636647.113555 -0.02612199999999999939  0.13756999999999999784  0.07628100000000000158 -0.00319499999999999992  0.02129599999999999896  0.07843400000000000372 -0.03219605713854290646  0.17446411404261810696  0.06768324873035651279 -0.00304349124668267922  0.02107123527542733438  0.07849448579458034869
1403636647.413555 -0.02613000000000000045  0.13756999999999999784  0.07628400000000000458 -0.00319499999999999992  0.02129699999999999996  0.07843400000000000372 -0.03251026976482598863  0.17248762528357677870  0.06781000128806739802 -0.00304110357492677185  0.02108592840490490158  0.07850757499004992757
1403636647.663556 -0.02613499999999999851  0.13756999999999999784  0.07628600000000000658 -0.00319499999999999992  0.02129699999999999996  0.07843300000000000272 -0.03252438571330341227  0.16970424509852147232  0.06855634968133288154 -0.00303661556238182806  0.02109578448295762812  0.07851022383087721823
1403636647.963556 -0.02614299999999999957  0.13756899999999999684  0.07628799999999999470 -0.00319499999999999992  0.02129699999999999996  0.07843300000000000272 -0.03232470235153742100  0.16378836887686337720  0.07053846607714921169 -0.00310138621281187991  0.02108970600068404977  0.07849484980316474847
1403636648.163556 -0.02614700000000000010  0.13756899999999999684  0.07628799999999999470 -0.00319499999999999992  0.02129699999999999996  0.07843300000000000272 -0.03196831000564970271  0.15114829120373349247  0.07262750633821206392 -0.00309687011603848985  0.02111710549066203937  0.07850688355733857759
1403636648.363556 -0.02615400000000000016  0.13756899999999999684  0.07628999999999999670 -0.00319600000000000006  0.02129699999999999996  0.07843200000000000172 -0.03089598457641924353  0.14691910340930661172  0.07657718931538523566 -0.00307204612619722123  0.02111160398327970728  0.07851203235552849102
1403636648.513556 -0.02615699999999999970  0.13756899999999999684  0.07629099999999999770 -0.00319600000000000006  0.02129800000000000096  0.07843200000000000172 -0.02980294715930623117  0.14623805229904310310  0.07992910232378874769 -0.00306185832076261415  0.02111398271079944697  0.07849395404174076829
1403636648.763556 -0.02616299999999999876  0.13756899999999999684  0.07629199999999999871 -0.00319600000000000006  0.02129800000000000096  0.07843100000000000072 -0.02942905759274013627  0.14960933867558512400  0.08073402814712639375 -0.00302287618083205145  0.02110639677398691572  0.07844659836840582601
1403636649.113555 -0.02616999999999999882  0.13756799999999999584  0.07629400000000000071 -0.00319600000000000006  0.02129800000000000096  0.07843100000000000072 -0.02938238397564508012  0.15479651582774431318  0.08141573041567425062 -0.00300417468720216721  0.02107870680611055939  0.07839913564551333203
1403636649.463556 -0.02617900000000000088  0.13756799999999999584  0.07629500000000000171 -0.00319600000000000006  0.02129800000000000096  0.07842999999999999972 -0.02948535157415001912  0.14564830124391353605  0.08234994665704191419 -0.00298441846859714543  0.02096960400445102568  0.07841408738502313180
1403636649.763556 -0.02618499999999999994  0.13756799999999999584  0.07629600000000000271 -0.00319600000000000006  0.02129899999999999849  0.07842999999999999972 -0.03028188119571807030  0.13884876247995842080  0.08095026636745976389 -0.00300199092809354858  0.02096656582027132953  0.07844149627442698058
1403636650.113555 -0.02619200000000000000  0.13756799999999999584  0.07629700000000000371 -0.00319600000000000006  0.02129899999999999849  0.07842899999999999872 -0.03117029326905514097  0.14150183673898655834  0.07912318323066300230 -0.00306136101390760409  0.02093739660174508480  0.07845032420351079339
1403636650.363556 -0.02619600000000000053  0.13756799999999999584  0.07629700000000000371 -0.00319700000000000019  0.02129899999999999849  0.07842899999999999872 -0.03111326018988398723  0.14652343985740592935  0.08000316508154288464 -0.00306725956792515408  0.02093022656938174977  0.07847088331921416027
1403636650.563555 -0.02620000000000000107  0.13756699999999999484  0.07629800000000000471 -0.00319700000000000019  0.02129899999999999849  0.07842799999999999772 -0.03165544808707760477  0.14980657902549779359  0.07941567411614783301 -0.00308838335034469303  0.02094850748447784142  0.07845487479509324902
1403636650.913555 -0.02620799999999999866  0.13756699999999999484  0.07629900000000000571 -0.00319700000000000019  0.02129999999999999949  0.07842799999999999772 -0.03277261065606108109  0.15151543568070707790  0.07730579551970047369 -0.00309296919743472839  0.02100231359915535889  0.07844754277112618579
1403636651.713556 -0.02622400000000000078  0.13756499999999999284  0.07630099999999999383 -0.00319700000000000019  0.02129999999999999949  0.07842599999999999572 -0.03297083157078782578  0.16040812126211331790  0.07654758917488957426 -0.00307901490056161240  0.02102736922969582548  0.07844632720778482726
1403636652.063555 -0.02622899999999999884  0.13756399999999999184  0.07630199999999999483 -0.00319700000000000019  0.02130100000000000049  0.07842599999999999572 -0.03227849602830917819  0.16201644464140424473  0.07884293374643443209 -0.00314080406948713141  0.02107702039881199224  0.07844166230830784681
1403636652.213556 -0.02623299999999999937  0.13756299999999999084  0.07630199999999999483 -0.00319700000000000019  0.02130100000000000049  0.07842499999999999472 -0.03141729715750726792  0.16235616894653540077  0.08139536641047108445 -0.00317485861072713252  0.02107847116155534689  0.07843313154329994985
1403636652.363556 -0.02623500000000000137  0.13756299999999999084  0.07630199999999999483 -0.00319799999999999989  0.02130100000000000049  0.07842499999999999472 -0.03130082138151524251 