1403636635.863556 -0.02582600000000000173  0.13754800000000000360  0.07614999999999999547 -0.00318899999999999999  0.02128700000000000037  0.07845399999999999596 -0.05666335192248131425  0.04415133901535889249  0.02432006671970313866 -0.00283667945013597834  0.02104971705193021264  0.07860519181294192692 0.18190107589796719600 1.29800043585062363505 1.24458699020725194195 0.00116924184537695432 0.00116933111313160783 0.00116929377347306409
1403636636.063555 -0.02583099999999999979  0.13754900000000000460  0.07615199999999999747 -0.00318899999999999999  0.02128700000000000037  0.07845399999999999596 -0.05577694357196595620  0.05017430300572262025  0.02639736841700843217 -0.00289803839727729128  0.02106189726710878257  0.07850723565825021288 0.17425936011705292494 1.24729743106006552011 1.19994561359134754852 0.00114292685700687026 0.00114300803084800128 0.00114297356316710673
1403636636.213556 -0.02583500000000000033  0.13754900000000000460  0.07615399999999999947 -0.00318899999999999999  0.02128700000000000037  0.07845399999999999596 -0.05539934806152910229  0.05623871857688319403  0.02723689950769838525 -0.00291141082423583032  0.02117772115368292754  0.07852437649722858459 0.17005064030763378247 1.21245991768217797890 1.17448318774184246038 0.00112396226727012752 0.00112404177096311572 0.00112400963300023104
1403636636.363556 -0.02583900000000000086  0.13754900000000000460  0.07615600000000000147 -0.00318899999999999999  0.02128700000000000037  0.07845299999999999496 -0.05501027896320796751  0.06372101001438820744  0.02769645903212597862 -0.00291294486062749223  0.02120737716520733687  0.07856522160546459965 0.16501094975680064003 1.17874866642375364378 1.14541871405304163112 0.00110563347657857626 0.00110571255960646188 0.00110567829452080674
1403636636.513556 -0.02584200000000000039  0.13754900000000000460  0.07615800000000000347 -0.00319000000000000013  0.02128700000000000037  0.07845299999999999496 -0.05503182551340000950  0.06439451853287557481  0.02747517964834499810 -0.00292856074006891866  0.02115168865155088451  0.07854939781072838023 0.16025952692609451988 1.14494091679559950592 1.11602109246647662744 0.00108790016512695089 0.00108798095274389344 0.00108793939787892708
1403636636.763556 -0.02584799999999999945  0.13755000000000000560  0.07616199999999999359 -0.00319000000000000013  0.02128700000000000037  0.07845299999999999496 -0.05526086609883883866  0.07462429914305671041  0.02754902317265219003 -0.00297097156702228783  0.02104520631739319886  0.07851277800157996367 0.15287598289883300162 1.08527076578764014592 1.06175019224497835246 0.00105960307408677241 0.00105968305265453943 0.00105963132761698444
1403636637.113555 -0.02585499999999999951  0.13755100000000000660  0.07616699999999999859 -0.00319000000000000013  0.02128800000000000137  0.07845199999999999396 -0.05620495068833283869  0.07024304889888520476  0.02977621338996631201 -0.00295480211914421823  0.02103682002995674663  0.07856489996779085494 0.14006121281936215195 1.01482194020954485936 0.95996619757997525557 0.00102243235272353808 0.00102250369172486220 0.00102244591439501031
1403636637.513556 -0.02586400000000000157  0.13755200000000000760  0.07617200000000000359 -0.00319000000000000013  0.02128800000000000137  0.07845100000000000684 -0.05391535186734165014  0.07868645649767219696  0.03691533398115552644 -0.00299378194970091214  0.02110959943002960193  0.07852939223380249467 0.12854298010482476111 0.96163574891411240930 0.87294700169117367405 0.00098307080938624613 0.00098312858374653201 0.00098308350398465939
1403636637.813555 -0.02587100000000000163  0.13755300000000000860  0.07617500000000000659 -0.00319000000000000013  0.02128800000000000137  0.07845100000000000684 -0.05357322295761764858  0.08200701752674187384  0.03720186736688816526 -0.00296692171489194596  0.02105935148764888354  0.07851890050672116761 0.12066078079483334717 0.92437257595983890468 0.82403071068440747471 0.00095550972179575804 0.00095556363380001549 0.00095552376237457266
1403636638.113555 -0.02587899999999999923  0.13755300000000000860  0.07617699999999999472 -0.00319000000000000013  0.02128899999999999890  0.07845000000000000584 -0.05135663177397693790  0.10063002821272563903  0.04087946568260626690 -0.00296707437617869333  0.02105386106850892780  0.07855121463786338132 0.11451473837977041437 0.88875429005791972692 0.78410781202661472555 0.00092948536004066316 0.00092953637124208667 0.00092950054965872087
1403636638.413555 -0.02588700000000000029  0.13755300000000000860  0.07617899999999999672 -0.00319099999999999983  0.02128899999999999890  0.07845000000000000584 -0.04988172131896798089  0.11732187678610532522  0.04442140019163671322 -0.00292634722149874267  0.02099589862660753911  0.07858103735898144815 0.10962356275825474450 0.85900203315343248711 0.74948300512138432694 0.00090488070223533992 0.00090492381366195939 0.00090489312592443032
1403636638.713556 -0.02589400000000000035  0.13755400000000000960  0.07618199999999999972 -0.00319099999999999983  0.02128899999999999890  0.07844900000000000484 -0.04904167884315175502  0.12164240274359698624  0.04520752952575277095 -0.00294005993894354408  0.02110979684395590528  0.07850385770525575291 0.10553427491368065627 0.82786633747850790765 0.71981729438181629721 0.00088157584899305576 0.00088160666728788462 0.00088158612939102964
1403636638.913555 -0.02589999999999999941  0.13755400000000000960  0.07618400000000000172 -0.00319099999999999983  0.02128899999999999890  0.07844900000000000484 -0.04775984985048450232  0.12697847450071741982  0.04609094444653493577 -0.00291361387549408327  0.02109022971323954929  0.07854467815966417743 0.10302028741544223822 0.80353126286297327230 0.70212325069382841569 0.00086670860013275978 0.00086673643283150946 0.00086671880653013829
1403636639.113555 -0.02590500000000000094  0.13755400000000000960  0.07618700000000000472 -0.00319099999999999983  0.02128899999999999890  0.07844800000000000384 -0.04685894158168788654  0.13108145510720667359  0.04718679918434473541 -0.00290876765079396129  0.02107672943881232219  0.07856234037625044186 0.10061092270363315715 0.78021013714825970808 0.68549576659964561731 0.00085234425300619672 0.00085237484629075409 0.00085235073040406826
1403636639.363556 -0.02590999999999999900  0.13755400000000000960  0.07618999999999999384 -0.00319099999999999983  0.02128999999999999990  0.07844800000000000384 -0.04670335625337136004  0.13351994125167282457  0.04812033730669926929 -0.00292978256638106544  0.02106539701448515226  0.07842985437823653261 0.09824097605379775167 0.75348008222844287118 0.66718318698369183384 0.00083506288845880167 0.00083509333625959772 0.00083506734730868040
1403636639.613555 -0.02591600000000000154  0.13755500000000001060  0.07619299999999999684 -0.00319099999999999983  0.02128999999999999990  0.07844800000000000384 -0.04647727664817184051  0.13619906984807314543  0.04898056475810427107 -0.00294799230880862101  0.02104251098760199015  0.07841472214626887816 0.09630769854073788216 0.72855253767718908264 0.65066517013910007972 0.00081850001745055988 0.00081852659701346902 0.00081849274805048493
1403636639.863556 -0.02592200000000000060  0.13755500000000001060  0.07619599999999999984 -0.00319099999999999983  0.02128999999999999990  0.07844700000000000284 -0.04655210950503115008  0.13707064645522559765  0.05001554578337209789 -0.00294032916984704115  0.02103886416930224323  0.07848692042040968098 0.09424363027226051459 0.70753851215130336705 0.63457082099931660935 0.00080259642889727526 0.00080261693834527152 0.00080258322145553528
1403636640.163556 -0.02592900000000000066  0.13755600000000001160  0.07620100000000000484 -0.00319099999999999983  0.02128999999999999990  0.07844700000000000284 -0.04533300792905510523  0.13649792302381616449  0.05111353133036522500 -0.00289271389070877875  0.02103821560948453476  0.07847900340702473887 0.09144441175877576766 0.68661997044172584648 0.61590671489463799659 0.00078433228845806776 0.00078435113971802206 0.00078431733440379738
1403636640.413555 -0.02593600000000000072  0.13755700000000001260  0.07620499999999999496 -0.00319199999999999996  0.02128999999999999990  0.07844600000000000184 -0.04292892137009082787  0.13617524910649031478  0.05330306005601294361 -0.00288300160095310634  0.02103414762118356943  0.07847306135347520417 0.08877992736740795976 0.67043763235488407215 0.59945473444947561248 0.00076975594350754835 0.00076977366067219812 0.00076973743315446796
1403636640.813555 -0.02594700000000000131  0.13755800000000001360  0.07620999999999999996 -0.00319199999999999996  0.02129100000000000090  0.07844600000000000184 -0.03969471260721776223  0.13633993150832882102  0.05671109714744583530 -0.00287560027624990215  0.02105335244972955308  0.07847858652042449812 0.08429935268668904691 0.64377887484926032968 0.56949925098175813165 0.00074757219456674906 0.00074758225725146546 0.00074754872619832359
1403636641.763556 -0.02597700000000000009  0.13756199999999998984  0.07622600000000000209 -0.00319199999999999996  0.02129199999999999843  0.07844399999999999984 -0.03444036696416152149  0.13267664630348646737  0.06433513654244434055 -0.00292156879167373941  0.02103563537215472762  0.07845869796100160554 0.07367787523096880342 0.58407407680898659752 0.49802418842949980338 0.00069991678139297449 0.00069991779418175594 0.00069988473569127148
1403636642.313555 -0.02599100000000000021  0.13756399999999999184  0.07623399999999999621 -0.00319300000000000009  0.02129199999999999843  0.07844299999999999884 -0.03329754986006859541  0.13389519223568160933  0.06836999485622824446 -0.00296162915615144628  0.02107831002976474216  0.07850417275486590296 0.06870884639876330413 0.55675518694656356278 0.46742342654206281427 0.00067507633399610284 0.00067509087403569640 0.00067506201455481963
1403636642.863556 -0.02600600000000000134  0.13756599999999999384  0.07624000000000000221 -0.00319300000000000009  0.02129299999999999943  0.07844199999999999784 -0.03351468699487254038  0.13794131128343908865  0.07028680132631232036 -0.00298323376140403494  0.02110978907858977738  0.07848731738340493369 0.06585862844754428180 0.54432019253829944105 0.44966086176565944754 0.00065201908173263248 0.00065202430126431890 0.00065201003385405775
1403636643.713556 -0.02602700000000000152  0.13756899999999999684  0.07624899999999999733 -0.00319300000000000009  0.02129299999999999943  0.07843999999999999584 -0.03353215120099128227  0.14454871780276939974  0.07108884134955448242 -0.00299121196666722556  0.02109510433318534384  0.07850798602368901091 0.06381531573531494528 0.53267384243691529022 0.43930374732636612300 0.00061948884319886030 0.00061947358788246173 0.00061947809683033663
1403636644.163556 -0.02604000000000000065  0.13756999999999999784  0.07625200000000000033 -0.00319300000000000009  0.02129400000000000043  0.07843999999999999584 -0.03357564588186243149  0.15104652269506183004  0.07168504575788847699 -0.00298352562894040746  0.02108289347028008062  0.07848684424249527392 0.06327067238163418261 0.52485265343394704729 0.43634517327339777948 0.00060359099948013341 0.00060356626684531509 0.00060358182548015434
1403636644.413555 -0.02604599999999999971  0.13756999999999999784  0.07625300000000000133 -0.00319399999999999979  0.02129400000000000043  0.07843899999999999484 -0.03313912170348671388  0.15649443709604216046  0.07288849022866399074 -0.00295325566949486288  0.02111171171408688513  0.07850934217392277481 0.06301157622162971428 0.51874200978869855483 0.43402637327539200784 0.00059513334601575215 0.00059509893382856684 0.00059511959152556873
1403636644.713556 -0.02605400000000000077  0.13757099999999999884  0.07625500000000000334 -0.00319399999999999979  0.02129400000000000043  0.07843899999999999484 -0.03327793857655684390  0.15971489959835483141  0.07269976987519990996 -0.00295481868053673255  0.02111542885494062730  0.07845141679248424094 0.06278523003162395089 0.51200437086166095124 0.43184076783364355734 0.00058529973767131450 0.00058526305108355680 0.00058528274504954030
1403636644.913555 -0.02605999999999999983  0.13757099999999999884  0.07625700000000000534 -0.00319399999999999979  0.02129400000000000043  0.07843799999999999384 -0.03342159020700902899  0.16162738115960725849  0.07237375567012456490 -0.00294819133950574184  0.02109811857693078690  0.07848842563187904964 0.06270948663987024885 0.50778381434043950993 0.43090357867979850459 0.00057893270836971607 0.00057889397841752032 0.00057891127647250417
1403636645.113555 -0.02606599999999999889  0.13757099999999999884  0.07625800000000000634 -0.00319399999999999979  0.02129500000000000143  0.07843799999999999384 -0.03272494877917626888  0.16292229928910850756  0.07139595865603347302 -0.00296949681058638996  0.02108030533637122311  0.07845344383068535155 0.06372325358005294371 0.50617481464301117278 0.42918290458418112410 0.00057271565696071479 0.00057267383404324560 0.00057269100453658450
1403636645.363556 -0.02607299999999999895  0.13757099999999999884  0.07626099999999999546 -0.00319399999999999979  0.02129500000000000143  0.07843700000000000672 -0.03232049777985048639  0.16301132008436286513  0.07040145734561217838 -0.00297462109531599532  0.02116339485344160762  0.07844067771396259769 0.06360306476927053698 0.50438460718542410532 0.42843353728765892763 0.00056513354494755171 0.00056509064469198857 0.00056511001239625965
1403636645.613555 -0.02608100000000000002  0.13757199999999999984  0.07626399999999999846 -0.00319399999999999979  0.02129500000000000143  0.07843700000000000672 -0.03236447144102439638  0.16335564732814905620  0.06980222890226391030 -0.00297776697747505247  0.02112578163372720585  0.07845874820699443031 0.06343871152732938334 0.50121808657609223658 0.42711143349811991898 0.00055776379317415750 0.00055772046250066151 0.00055773897932571265
1403636645.863556 -0.02608800000000000008  0.13757199999999999984  0.07626700000000000146 -0.00319399999999999979  0.02129500000000000143  0.07843700000000000672 -0.03226666784063030730  0.16444216006547007769  0.06915719460943108021 -0.00299200294236438413  0.02110905660760012750  0.07847531179773635512 0.06327754036540582383 0.49822000856291048798 0.42565058514119097355 0.00055059705813730194 0.00055055488295308313 0.00055057021674991891
1403636646.063555 -0.02609399999999999914  0.13757300000000000084  0.07627000000000000446 -0.00319399999999999979  0.02129500000000000143  0.07843600000000000572 -0.03196143333464629421  0.16560311455898557575  0.06798634911109029122 -0.00301482783278055489  0.02114906126749614701  0.07850615194787546880 0.06313851322816803335 0.49567736341445828296 0.42472702659844618900 0.00054500355506545309 0.00054495914196167551 0.00054497547923382857
1403636646.263556 -0.02609900000000000067  0.13757199999999999984  0.07627100000000000546 -0.00319399999999999979  0.02129599999999999896  0.07843600000000000572 -0.03192176368540212278  0.16710311390889520666  0.06707843469010453530 -0.00307296317313168234  0.02111142858120576560  0.07850106690799579789 0.06303036066391626280 0.49375365229910855858 0.42408673586769363162 0.00053953706903687895 0.00053948817526452649 0.00053950617744326205
1403636646.413555 -0.02610499999999999973  0.13757099999999999884  0.07627299999999999358 -0.00319499999999999992  0.02129599999999999896  0.07843600000000000572 -0.03191030014864925518  0.16844907951801496582  0.06659586596701656813 -0.00309960197559726010  0.02112397051864950415  0.07848125636822511630 0.06299821694951722451 0.49321823832941358301 0.42382646344457836074 0.00053551557451877421 0.00053546367333927064 0.00053548217372136118
1403636646.563555 -0.02610900000000000026  0.13757099999999999884  0.07627399999999999458 -0.00319499999999999992  0.02129599999999999896  0.07843500000000000472 -0.03208610258378928604  0.16953372314338469029  0.06667452983837875158 -0.00309793943628874306  0.02111818833263589407  0.07849203052993390661 0.06296717814834452975 0.49312005716390067134 0.42364399458631507578 0.00053154828523279698 0.00053150283967128324 0.00053152167099346009
1403636646.763556 -0.02611399999999999832  0.13757099999999999884  0.07627699999999999758 -0.00319499999999999992  0.02129599999999999896  0.07843500000000000472 -0.03232379197626682882  0.17066218724701728848  0.06726779874811200655 -0.00307109349383142063  0.02110754398394672909  0.07849481845438485705 0.06274742856810217040 0.49191471297748295965 0.42264576541184500913 0.00052636143708688517 0.00052631535341189346 0.00052633291939240695
1403636647.013556 -0.02612000000000000086  0.13756999999999999784  0.07628000000000000058 -0.00319499999999999992  0.02129599999999999896  0.07843500000000000472 -0.03225418308835537734  0.17139928837286619312  0.06804474768024215692 -0.00307209628572952149  0.02106790681997523437  0.07849559725960969514 0.06199790102719852231 0.48583001731249431110 0.41842043681358687124 0.00052002101805556742 0.00051997775550435973 0.00051999548289670254
1403636647.263556 -0.02612599999999999992  0.13756999999999999784  0.07628300000000000358 -0.00319499999999999992  0.02129599999999999896  0.07843400000000000372 -0.03210621867041217603  0.17156025600420940491  0.06898720223656790163 -0.00306893249741153418  0.02108942058142415643  0.07850522979197699369 0.06070088799500391458 0.47363392683956195839 0.41007525332205213564 0.00051384507929496932 0.00051380619932057893 0.00051382239006594616
1403636647.513556 -0.02613100000000000145  0.13756999999999999784  0.07628400000000000458 -0.00319499999999999992  0.02129699999999999996  0.07843400000000000372 -0.03234284425443910427  0.17040953037234418677  0.06906037141002434321 -0.00307113732862235615  0.02109114728431807362  0.07852700025195522016 0.05892673853142413321 0.45726202777845453840 0.39798955612455511055 0.00050782879338540608 0.00050779231075240207 0.00050780999614052024
1403636647.863556 -0.02614100000000000104  0.13756899999999999684  0.07628699999999999370 -0.00319499999999999992  0.02129699999999999996  0.07843300000000000272 -0.03271166039829914024  0.16310509818537705096  0.06941683724864383676 -0.00316438461009427774  0.02106884034869598715  0.07852527184963356555 0.05582794356063736085 0.43005671971067888082 0.37685986619960609723 0.00049966611910012945 0.00049963085563693623 0.00049964821874226822
1403636648.113555 -0.02614700000000000010  0.13756899999999999684  0.07628799999999999470 -0.00319499999999999992  0.02129699999999999996  0.07843300000000000272 -0.03244692844441002255  0.15405847003493874925  0.07153297515902197479 -0.00318109238021495192  0.02110885299593462383  0.07855113264829217956 0.05337477020089319985 0.40961316636979677730 0.35988793113930078738 0.00049401302587167336 0.00049398076755333403 0.00049399237275556921
1403636648.313555 -0.02615200000000000163  0.13756899999999999684  0.07628899999999999570 -0.00319600000000000006  0.02129699999999999996  0.07843200000000000172 -0.03171185314325822985  0.14886353256832071668  0.07443428051925213285 -0.00315068167032403002  0.02110040590417205236  0.07854029289343765485 0.05117397412919701127 0.39195196972331947105 0.34449959491131143530 0.00048958117143897304 0.00048955962694437834 0.00048956753081906166
1403636648.513556 -0.02615699999999999970  0.13756899999999999684  0.07629099999999999770 -0.00319600000000000006  0.02129800000000000096  0.07843200000000000172 -0.03110407311923623144  0.14668069783924830851  0.07653611471074948935 -0.00313896026223713575  0.02110362409751841833  0.07852268974202476770 0.04851832954987538027 0.37145148857945969878 0.32574271182247643841 0.00048523205522956804 0.00048522023970734460 0.00048522900884256595
1403636648.713556 -0.02616200000000000123  0.13756899999999999684  0.07629199999999999871 -0.00319600000000000006  0.02129800000000000096  0.07843200000000000172 -0.03083364219647487595  0.14796077289933989851  0.07720479041972479195 -0.00310339318370737166  0.02110446459269487568  0.07847500073000961140 0.04532995827777891451 0.34715948365375509654 0.30298234321330624885 0.00048096701075413159 0.00048096554324260278 0.00048097139037965646
1403636648.963556 -0.02616800000000000029  0.13756899999999999684  0.07629400000000000071 -0.00319600000000000006  0.02129800000000000096  0.07843100000000000072 -0.03140073758629271378  0.15015070862005699959  0.07658469283023894292 -0.00308206836569556268  0.02108435784207980321  0.07845656498939614087 0.04080802648435641333 0.31271110344734859288 0.27039855721264161037 0.00047575862214874312 0.00047575630698142127 0.00047576238858509527
1403636649.263556 -0.02617399999999999935  0.13756799999999999584  0.07629500000000000171 -0.00319600000000000006  0.02129800000000000096  0.07843100000000000072 -0.03201981643799881733  0.14573209534973580181  0.07619609085576475871 -0.00307466389464784197  0.02107881736441196210  0.07846471501356629130 0.03535948016158182300 0.26847405763687842706 0.23061643642706039503 0.00046967625452142979 0.00046966879598638376 0.00046967462680406812
1403636649.613555 -0.02618200000000000041  0.13756799999999999584  0.07629500000000000171 -0.00319600000000000006  0.02129899999999999849  0.07842999999999999972 -0.03219267762484206985  0.14055065711791742133  0.07652797526403166961 -0.00307572645815907273  0.02104512491291159193  0.07846735886190704667 0.02984836219764542761 0.22293573364641020018 0.19020725875020105811 0.00046278824904638427 0.00046277757163619264 0.00046278237346560161
1403636649.913555 -0.02618799999999999947  0.13756799999999999584  0.07629600000000000271 -0.00319600000000000006  0.02129899999999999849  0.07842899999999999872 -0.03235316081266238764  0.14146672075991431616  0.07651896013298865873 -0.00310885704692118788  0.02103728582923471147  0.07848125759549695601 0.02610041178843628198 0.19220388874076643759 0.16278932548503671773 0.00045707571190123234 0.00045704944221013478 0.00045705269296093879
1403636650.263556 -0.02619499999999999953  0.13756799999999999584  0.07629700000000000371 -0.00319700000000000019  0.02129899999999999849  0.07842899999999999872 -0.03189089356343153409  0.14459451309149565223  0.07890248403100638686 -0.00313504602626626504  0.02102621610012869735  0.07849605763888120591 0.02258614346109450235 0.16462494584032388856 0.13740914006462626173 0.00045058761143620344 0.00045055966591243918 0.00045056555611725023
1403636650.463556 -0.02619900000000000007  0.13756699999999999484  0.07629800000000000471 -0.00319700000000000019  0.02129899999999999849  0.07842799999999999772 -0.03214244988025351940  0.14534898356666731134  0.07887571821600106170 -0.00313638122607888883  0.02098711125850685061  0.07847596017458922935 0.02089968665026427017 0.15136511777901487386 0.12531159284639317719 0.00044697865381820449 0.00044694575267753832 0.00044695049307407999
1403636650.713556 -0.02620400000000000160  0.13756699999999999484  0.07629800000000000471 -0.00319700000000000019  0.02129999999999999949  0.07842799999999999772 -0.03318773637765597834  0.15079977709641595451  0.07635682923617020945 -0.00313680717646704511  0.02100575900221208353  0.07845456813456826162 0.01895101652527182018 0.13618471146383820392 0.11123781762066477230 0.00044255073929215408 0.00044252500620042872 0.00044251961285747288
1403636651.563555 -0.02622100000000000125  0.13756499999999999284  0.07630099999999999383 -0.00319700000000000019  0.02129999999999999949  0.07842699999999999672 -0.03321381306066705646  0.16222920581424515873  0.07598448719742349755 -0.00310113484466384860  0.02104545029229876185  0.07844555874754263747 0.01412929976166185306 0.09515129363603823387 0.07652670251847445981 0.00042824279849050214 0.00042820042690452275 0.00042818403619652171
1403636652.013556 -0.02622899999999999884  0.13756399999999999184  0.07630199999999999483 -0.00319700000000000019  0.02130100000000000049  0.07842599999999999572 -0.03258141371783011830  0.16349156635745212829  0.07817946084811527863 -0.00315100593763595642  0.02109185994795221425  0.07845263939275787246 0.01250345473037534939 0.08097062453233432044 0.06492568642229748499 0.00042106669803307665 0.00042101129457241756 0.00042099427902954762
1403636652.163556 -0.02623100000000000084  0.13756399999999999184  0.07630199999999999483 -0.00319700000000000019  0.02130100000000000049  0.07842599999999999572 -0.03229874084403910189  0.16107059442757967749  0.07939812146097287304 -0.00314427307802972846  0.02110306458945880245  0.07844956109257336663 0.01205023207909104895 0.07736142291787408143 0.06168696622336490576 0.00041873896752703520 0.00041867365441308795 0.00041865792438409999
1403636652.313555 -0.02623500000000000137  0.13756299999999999084  0.07630199999999999483 -0.00319799999999999989  0.02130100000000000049  0.07842499999999999472 -0.03251888244281448542  0.16218943900808033276  0.07939480089225849080 -0.00312622681427825134  0.02109858356049146288  0.07846694429599161691 0.01162251856691810976 0.07397916821153510680 0.05861325051403799141 0.00041644365610220193 0.00041636821492543462 0.00041635470498151242
1403636652.463556 -0.02623699999999999991  0.13756299999999999084  0.07630199999999999483 -0.00319799999999999989  0.02130100000000000049  0.07842499999999999472 -0.03379766583240194355  0.16716715352434607933  0.07701274368912007506 -0.00307110768946408869  0.02114241712647559057  0.07845770370907660662 0.01119847117332246032 0.07049643435327157537 0.05555927770920857101 0.00041417025045813573 0.00041408530747437221 0.00041407592595418829
1403636652.663556 -0.02623899999999999844  0.13756199999999998984  0.07630299999999999583 -0.00319799999999999989  0.02130100000000000049  0.07842499999999999472 -0.03526940183305135590  0.16824697910846270199  0.07403481136845659061 -0.00304321510876562730  0.02116558001212806572  0.07841998755643875274 0.01062925405303148316 0.06556331406425562613 0.05147805714859411685 0.00041117678221002713 0.00041108151854542859 0.00041107878257825388
1403636653.113555 -0.02624399999999999997  0.13755999999999998784  0.07630399999999999683 -0.00319799999999999989  0.02130200000000000149  0.07842399999999999372 -0.03576177894301788007  0.16747033145702125423  0.07351686832838098817 -0.00302661979478054859  0.02117904312610036782  0.07840822100842562148 0.00944356945397723489 0.05351454231609018009 0.04301080457520456424 0.00040461507903823520 0.00040451244581474118 0.00040451504609537278
1403636653.513556 -0.02624999999999999903  0.13755899999999998684  0.07630499999999999783 -0.00319799999999999989  0.02130200000000000149  0.07842300000000000659 -0.03605562851195153601  0.16284888521192489308  0.07457548479571342315 -0.00300242027578646571  0.02115378903995288051  0.07844291981010656500 0.00858096606117629210 0.04439076495397793060 0.03685255259577268488 0.00039897091589632353 0.00039887059236431180 0.00039887881405324032
1403636654.163556 -0.02625800000000000009  0.13755600000000001160  0.07630699999999999983 -0.00319799999999999989  0.02130200000000000149  0.07842200000000000559 -0.03548364470715318492  0.15804450636874653457  0.07640951013998623087 -0.00301984731744073687  0.02117052678415578398  0.07846009506763129693 0.00757687437917264808 0.03485480932081613803 0.02987919702407299677 0.00039018316329524186 0.00039008526012375617 0.00039009927948105785
1403636654.463556 -0.02626300000000000162  0.13755400000000000960  0.07630699999999999983 -0.00319900000000000002  0.02130299999999999902  0.07842200000000000559 -0.03499216609941566136  0.15869514679026303083  0.07691971222062994606 -0.00296314978197233366  0.02116912978605759235  0.07844849948951199137 0.00725145703207012281 0.03202700652368190709 0.02772294699475542218 0.00038628910886255358 0.00038618315708041276 0.00038619692464479151
1403636654.713556 -0.02626699999999999868  0.13755300000000000860  0.07630599999999999883 -0.00319900000000000002  0.02130299999999999902  0.07842100000000000459 -0.03441218347050918613  0.15652560707245738447  0.07774774636792326776 -0.00295308344580659044  0.02115462199593132891  0.07844358842072499116 0.00700275836731165113 0.03013636723024400166 0.02610692859949417105 0.00038311643882409471 0.00038300286856770774 0.00038301213283616515
1403636655.163556 -0.02627399999999999874  0.13755000000000000560  0.07630499999999999783 -0.00319900000000000002  0.02130299999999999902  0.07842000000000000359 -0.03382708167785497544  0.15354877147931914050  0.07913874582381093259 -0.00293533186672860968  0.02114848445665462595  0.07844417467807157651 0.00660912118041845700 0.02694425582218150372 0.02352367605160503999 0.00037755510094403347 0.00037742025405441688 0.00037743055477577767
1403636655.563555 -0.02628000000000000128  0.13754800000000000360  0.07630399999999999683 -0.00319900000000000002  0.02130400000000000002  0.07842000000000000359 -0.03353159595807583826  0.15219601475468666485  0.08008848319381825509 -0.00294316728773069301  0.02111862580216015972  0.07845341333041176701 0.00630692951823125496 0.02458844745058516579 0.02156738266059783984 0.00037275781759304376 0.00037261555178910060 0.00037262185311562882
1403636655.813555 -0.02628399999999999834  0.13754600000000000160  0.07630299999999999583 -0.00319900000000000002  0.02130400000000000002  0.07841900000000000259 -0.03376571552947472965  0.15290756752143869202  0.07921914573997242137 -0.00292588522505595090  0.02115336534067732352  0.07843552649963210499 0.00613393484372447891 0.02327223017663411844 0.02045724125890910350 0.00036983244975613664 0.00036968115404888987 0.00036968820577150993
1403636656.013556 -0.02628700000000000134  0.13754500000000000060  0.07630299999999999583 -0.00319900000000000002  0.02130400000000000002  0.07841900000000000259 -0.03411924853604737101  0.15407743998989162360  0.07844441181311673228 -0.00288678825382508416  0.02115877687696239920  0.07842555458988903494 0.00600724931704711609 0.02226970470544816297 0.01960707767930506412 0.00036753590153990062 0.00036737366606920125 0.00036737921331556598
1403636656.263556 -0.02629000000000000087  0.13754299999999999859  0.07630299999999999583 -0.00319900000000000002  0.02130400000000000002  0.07841800000000000159 -0.03444719003499670251  0.15602693957767102551  0.07749184727789616700 -0.00285666632232101656  0.02113377875212646070  0.07840393497849086624 0.00584181380513684040 0.02110249540292615661 0.01855485046424701009 0.00036471443044690911 0.00036453254344236130 0.00036454003925083175
1403636656.563555 -0.02629199999999999940  0.13754199999999999759  0.07630299999999999583 -0.00320000000000000015  0.02130400000000000002  0.07841800000000000159 -0.03508715617723329183  0.15688351801609257130  0.07599900131094193545 -0.00283265827204258859  0.02115300292200669383  0.07841686301129222048 0.00563666900642864274 0.01972056772411398193 0.01733820075634010666 0.00036139185083359761 0.00036118989068840729 0.00036119766867183319
1403636656.813555 -0.02629599999999999993  0.13753799999999999359  0.07630399999999999683 -0.00320000000000000015  0.02130500000000000102  0.07841700000000000059 -0.03535615515390760910  0.15664101551564835191  0.07577545205022867547 -0.00280562887726409351  0.02119718061704885942  0.07840844474067003300 0.00547963049692965116 0.01860685212617574011 0.01639572005941724100 0.00035866544061510986 0.00035845822430033647 0.00035846730543511032
1403636657.113555 -0.02630000000000000046  0.13753499999999999059  0.07630299999999999583 -0.00320000000000000015  0.02130500000000000102  0.07841700000000000059 -0.03529103691214693223  0.15574952413309542387  0.07634738807264702942 -0.00276930715982676417  0.02121407227427539802  0.07842517300294296612 0.00532317162337254089 0.01744062934941634918 0.01543791668775226431 0.00035546693368490476 0.00035524515724515648 0.00035525456958759063
1403636657.363556 -0.02630299999999999999  0.13753299999999998859  0.07630299999999999583 -0.00320000000000000015  0.02130500000000000102  0.07841700000000000059 -0.03535322727945840876  0.15469198725614746737  0.07646033976826438483 -0.00274924128864756541  0.02119981876508649637  0.07843193115860792874 0.00520534324164473056 0.01661814290675576317 0.01473308388462391851 0.00035283932877303010 0.00035261868862592599 0.00035262801821917228
1403636657.563555 -0.02630499999999999852  0.13753199999999998759  0.07630199999999999483 -0.00320000000000000015  0.02130500000000000102  0.07841599999999999959 -0.03522031622034228759  0.15362701768065351038  0.07696350216649994191 -0.00276527122598879726  0.02123168191270471614  0.07841962348345515865 0.00511590451580087088 0.01604124295109023157 0.01420689819056092720 0.00035076975183729323 0.00035054946231064037 0.00035055920912056973
1403636657.813555 -0.02630800000000000152  0.13753000000000001335  0.07630000000000000671 -0.00320000000000000015  0.02130500000000000102  0.07841599999999999959 -0.03517506296865605120  0.15213437981777877539  0.07727363836727146884 -0.00275235733623635558  0.02125089859277125293  0.07844886405616378899 0.00501307149362649994 0.01538347060395615570 0.01359919585936351406 0.00034822241063626531 0.00034800443877697771 0.00034801436353731988
1403636658.013556 -0.02631000000000000005  0.13752800000000001135  0.07630000000000000671 -0.00320000000000000015  0.02130599999999999855  0.07841499999999999859 -0.03507432129182516678  0.15076311483566076643  0.07777002001802113540 -0.00275933582581012549  0.02126369818685831803  0.07842797009989310730 0.00493414434421341093 0.01491664128369683297 0.01314049827155445820 0.00034622228516659794 0.00034599994664803870 0.00034601009514797587
1403636658.213556 -0.02631199999999999858  0.13752600000000000935  0.07629900000000000571 -0.00320000000000000015  0.02130599999999999855  0.07841499999999999859 -0.03536756988165391108  0.15018800496761117169  0.07736250258265214841 -0.00276617548872381755  0.02126013694691816086  0.07841457327110920583 0.00485470509111914257 0.01448413698862312075 0.01270437866273736553 0.00034425301056025236 0.00034402342503313634 0.00034403461491309690
1403636658.363556 -0.02631299999999999958  0.13752500000000000835  0.07629800000000000471 -0.00320000000000000015  0.02130599999999999855  0.07841499999999999859 -0.03571569482737366186  0.15050751283781932388  0.07684140083215429406 -0.00275127787289136672  0.02124949151740021525  0.07842174706973180365 0.00479959845057025773 0.01417510046841513605 0.01240303235823451283 0.00034280949206411218 0.00034256062041095444 0.00034257292410429843
1403636658.513556 -0.02631400000000000058  0.13752400000000000735  0.07629700000000000371 -0.00320099999999999985  0.02130599999999999855  0.07841499999999999859 -0.03601340449622177781  0.15006311464663904531  0.07649175514340401938 -0.00273019171460415610  0.02124432358649734620  0.07840838554452109199 0.00474791393191756079 0.01386859389597284130 0.01212321710049046007 0.00034135430646617133 0.00034111002548503996 0.00034112201536487389
1403636658.663556 -0.02631500000000000158  0.13752300000000000635  0.07629700000000000371 -0.00320099999999999985  0.02130599999999999855  0.07841399999999999759 -0.03621354233147631302  0.14983751477565249166  0.07629427396337254419 -0.00273934888856715601  0.02124056632875786360  0.07841674260598473223 0.00469789689696767637 0.01353934562883287937 0.01184697694800778377 0.00033992718147896170 0.00033967603189763814 0.00033968736948397480
1403636658.863556 -0.02631599999999999911  0.13752100000000000435  0.07629600000000000271 -0.00320099999999999985  0.02130599999999999855  0.07841399999999999759 -0.03647123523706573278  0.14953117160227274995  0.07602097821379082132 -0.00272980915052003018  0.02124456414640130478  0.07841778235172240652 0.00463607944776493058 0.01309198054784953616 0.01150927716241064054 0.00033803510847432819 0.00033778498999274581 0.00033779628313025179
1403636658.963556 -0.02631700000000000012  0.13752000000000000335  0.07629600000000000271 -0.00320099999999999985  0.02130599999999999855  0.07841399999999999759 -0.03662873796330951698  0.14949018644534736722  0.07583784137808456671 -0.00273578218172917898  0.02125464719533235250  0.07842360899794921514 0.00460702608201868629 0.01286722224292623749 0.01135189063539094982 0.00033709796393113051 0.00033684971562728840 0.00033686026472527455
1403636659.163556 -0.02631800000000000112  0.13751800000000000135  0.07629500000000000171 -0.00320099999999999985  0.02130599999999999855  0.07841299999999999659 -0.03684812753232168808  0.14903038772351356878  0.07556506814331627464 -0.00274091133839441921  0.02125880270474367686  0.07840862674745521788 0.00455453193882145342 0.01245043088523395056 0.01107083521411435061 0.00033524030753731305 0.00033499758066895906 0.00033500722229743563
1403636659.413555 -0.02631999999999999965  0.13751599999999999935  0.07629299999999999971 -0.00320099999999999985  0.02130699999999999955  0.07841299999999999659 -0.03686536535739571435  0.14825077509536443987  0.07574029992377258325 -0.00273304767817823726  0.02127595226946848647  0.07840191489052752982 0.00449459900473656981 0.01199700729992755725 0.01075749932102649208 0.00033296588973020732 0.00033271958867584211 0.00033272803793871154
1403636659.663556 -0.02632200000000000165  0.13751399999999999735  0.07629199999999999871 -0.00320099999999999985  0.02130699999999999955  0.07841299999999999659 -0.03679023813981381619  0.14699323730550936662  0.07621195138853233131 -0.00272591698426055771  0.02129880295414177463  0.07838479927633444644 0.00443633682534308200 0.01160248245344761182 0.01047313408868639009 0.00033074370670904842 0.00033047624450523898 0.00033048556496058167
1403636659.963556 -0.02632400000000000018  0.13751099999999999435  0.07628899999999999570 -0.00320099999999999985  0.02130699999999999955  0.07841199999999999559 -0.03668885439048795438  0.14592986769269136738  0.07684297951946168770 -0.00274449026457239181  0.02129148602581124039  0.07837103503411213534 0.00437425818119894626 0.01117178894853114099 0.01016639468073200249 0.00032811088196862053 0.00032783878941242887 0.00032784437505337978
1403636660.163556 -0.02632500000000000118  0.13750899999999999235  0.07628699999999999370 -0.00320099999999999985  0.02130699999999999955  0.07841199999999999559 -0.03667649330860253687  0.14566530910881708705  0.07700660122998959078 -0.00274255228023993465  0.02130243814837532931  0.07836826607814205425 0.00433695740726348401 0.01090704427720918211 0.00997735387242924820 0.00032636748289628295 0.00032610962330599324 0.00032610862679641802
1403636660.413555 -0.02632699999999999971  0.13750599999999998935  0.07628400000000000458 -0.00320099999999999985  0.02130699999999999955  0.07841099999999999459 -0.03659634972294177613  0.14493836885141914150  0.07751537725776280752 -0.00274905387561088415  0.02131510023721886610  0.07835346756621491826 0.00429165250544195562 0.01060034075383123504 0.00975366504197122328 0.00032422753971667273 0.00032398300178690539 0.00032397414683583167
1403636660.763556 -0.02632900000000000171  0.13750200000000001310  0.07628100000000000158 -0.00320199999999999999  0.02130800000000000055  0.07841099999999999459 -0.03651243016892906368  0.14387373102929168489  0.07780545805794775172 -0.00275551674130571815  0.02136754192540449987  0.07834380868670320908 0.00422442221886493770 0.01020917493518735432 0.00945152609582218702 0.00032128804491803688 0.00032105555451576717 0.00032104505830112673
1403636660.913555 -0.02632900000000000171  0.13750100000000001210  0.07628000000000000058 -0.00320199999999999999  0.02130800000000000055  0.07840999999999999359 -0.03644640807103148583  0.14357494647011834199  0.07786150925020779434 -0.00276397064560058268  0.02135325018462398000  0.07835672796066513179 0.00419851707576039852 0.01006135832832841595 0.00932939028690414791 0.00032004499279004778 0.00031981899407972449 0.00031980671398272825
1403636661.063555 -0.02633100000000000024  0.13749900000000001010  0.07627799999999999858 -0.00320199999999999999  0.02130800000000000055  0.07840999999999999359 -0.03641961099765331916  0.14320287909507181667  0.07783745023483340519 -0.00275959232640280881  0.02137218365942975332  0.07836808927441155093 0.00417504672191950851 0.00992385339944304098 0.00921848024213370136 0.00031881291763216163 0.00031859092355309749 0.00031857837141059057
1403636661.313555 -0.02633200000000000124  0.13749700000000000810  0.07627599999999999658 -0.00320199999999999999  0.02130800000000000055  0.07840999999999999359 -0.03636254791190454000  0.14250030161566851206  0.07790547880353573817 -0.00276878125195269623  0.02138595098676104173  0.07835594620275981859 0.00413894303805014980 0.00971982383872002469 0.00905363727125482916 0.00031678961268131111 0.00031657231327774564 0.00031656040607460484
1403636661.713556 -0.02633500000000000077  0.13749300000000000410  0.07627200000000000646 -0.00320199999999999999  0.02130800000000000055  0.07840900000000000647 -0.03619448684433214380  0.14188904668905918949  0.07804704593141069402 -0.00277536992020208702  0.02141378439707193604  0.07836096510870749210 0.00407900192556188718 0.00944177482103855659 0.00883560158783273063 0.00031362343875214970 0.00031341114921216296 0.00031340152366461524
1403636662.213556 -0.02633900000000000130  0.13748799999999999910  0.07626800000000000246 -0.00320199999999999999  0.02130800000000000055  0.07840800000000000547 -0.03449708080406761052  0.14306029942628903373  0.08188570460325679534 -0.00276888397548652769  0.02146465260380944415  0.07826006725775359885 0.00449520793502326387 0.00966793130615595415 0.00921439939508708096 0.00035446200880231488 0.00035418042947523066 0.00035417200501764964
1403636662.563555 -0.02634200000000000083  0.13748499999999999610  0.07626399999999999846 -0.00320199999999999999  0.02130900000000000155  0.07840800000000000547 -0.03420339301103841184  0.14265256464817738236  0.08221727518338300955 -0.00276463336520869430  0.02145100715155759397  0.07829093596630491703 0.00443578320809934114 0.00948410798007467797 0.00907922208863764027 0.00035081661367958165 0.00035054227800204984 0.00035053609762873786
1403636662.863556 -0.02634500000000000036  0.13748099999999999210  0.07625999999999999446 -0.00320300000000000012  0.02130900000000000155  0.07840700000000000447 -0.03393267103804212259  0.14203345703211892048  0.08262878816164292983 -0.00277317841482910494  0.02146121519766182317  0.07826040947936294123 0.00439038498862031126 0.00933974818566522466 0.00895965435507545954 0.00034776342391591182 0.00034749864582961316 0.00034748834070754390
1403636663.263556 -0.02634900000000000089  0.13747699999999998810  0.07625500000000000334 -0.00320300000000000012  0.02130900000000000155  0.07840600000000000347 -0.03365359987319777035  0.14166096345359197040  0.08285613233542046818 -0.00279790480690660873  0.02146215156842332106  0.07820653991383377801 0.00432860280478433290 0.00916251432124721640 0.00876139775991087791 0.00034379196375372209 0.00034353877948540770 0.00034352641544056609
1403636663.613555 -0.02635200000000000042  0.13747400000000001286  0.07625099999999999933 -0.00320300000000000012  0.02130900000000000155  0.07840600000000000347 -0.03345418160053485052  0.14166450299510327526  0.08290585477706062523 -0.00279847261594971071  0.02146718667272434419  0.07822747636980166563 0.00427393217941464398 0.00902220349797382137 0.00856270804716975469 0.00034040862873819443 0.00034016691639290360 0.00034014700674496115
1403636663.963556 -0.02635499999999999995  0.13747000000000000886  0.07624699999999999533 -0.00320300000000000012  0.02130900000000000155  0.07840500000000000247 -0.03311393997901307396  0.14188632399719741661  0.08336151738222895291 -0.00279709416921618574  0.02149978774171623641  0.07820191889199754054 0.00422055141980009259 0.00889631005269654954 0.00837518599043201271 0.00033710393199091728 0.00033686574145929375 0.00033684642318967945
1403636664.163556 -0.02635699999999999849  0.13746800000000000685  0.07624599999999999433 -0.00320300000000000012  0.02130999999999999908  0.07840500000000000247 -0.03300550772997710297  0.14221412932336771617  0.08329988599642620950 -0.00279416547991927179  0.02146789328081645173  0.07824599513960096842 0.00418975634043150177 0.00883089693111344456 0.00829034607026055310 0.00033524603870419033 0.00033500637396521545 0.00033499285505523749
1403636664.363556 -0.02635900000000000049  0.13746700000000000585  0.07624300000000000521 -0.00320300000000000012  0.02130999999999999908  0.07840500000000000247 -0.03277779004406088104  0.14220709651303700682  0.08345428528331219620 -0.00280129399753757712  0.02147625550782520515  0.07822517624746186393 0.00416122851697418340 0.00877079957590581188 0.00821473685860609620 0.00033341218569998138 0.00033317063340826110 0.00033316285744579722
1403636664.563555 -0.02636000000000000149  0.13746600000000000485  0.07624100000000000321 -0.00320300000000000012  0.02130999999999999908  0.07840400000000000147 -0.03282507031310821083  0.14227644013367216069  0.08324127250722769544 -0.00279837077845855728  0.02146899952731963837  0.07824393042063462755 0.00413769901942589828 0.00871596551094971049 0.00814692585170193571 0.00033160316264504677 0.00033136465563691391 0.00033135760928039502
1403636664.713556 -0.02636200000000000002  0.13746500000000000385  0.07623900000000000121 -0.00320399999999999982  0.02130999999999999908  0.07840400000000000147 -0.03285417797781128163  0.14238710337685880902  0.08296429817311147537 -0.00281281217064519159  0.02146426343928918914  0.07822434565317126776 0.00412049885942896658 0.00867707085476509925 0.00810392052583164962 0.00033026102135499301 0.00033002633166350832 0.00033001864143673327
1403636664.863556 -0.02636300000000000102  0.13746400000000000285  0.07623800000000000021 -0.00320399999999999982  0.02130999999999999908  0.07840400000000000147 -0.03287543147196196613  0.14271318633436208545  0.08259585864815814638 -0.00281184617487797474  0.02145509935820607769  0.07822856307255961206 0.00410260216994423436 0.00863636725374494763 0.00806340973252473239 0.00032893167098117554 0.00032870046945231163 0.00032869319432761760
1403636665.013556 -0.02636399999999999855  0.13746400000000000285  0.07623699999999999921 -0.00320399999999999982  0.02130999999999999908  0.07840300000000000047 -0.03290941171692442213  0.14256376052370128837  0.08238325326559230166 -0.00281918619396774768  0.02146248284259185193  0.07824150455139633475 0.00408430941946138354 0.00859616248992235536 0.00803057920590326962 0.00032761714929176790 0.00032739048243355447 0.00032738135628013171
1403636665.163556 -0.02636499999999999955  0.13746300000000000185  0.07623599999999999821 -0.00320399999999999982  0.02130999999999999908  0.07840300000000000047 -0.03298976818579525683  0.14250801583960104324  0.08187627097569448453 -0.00282802582141443827  0.02146950953477781004  0.07824239410625305480 0.00406538593830909397 0.00855834439038460730 0.00799978988504128179 0.00032631465624950083 0.00032609520177687493 0.00032608258691811865
1403636665.313555 -0.02636700000000000155  0.13746200000000000085  0.07623499999999999721 -0.00320399999999999982  0.02130999999999999908  0.07840300000000000047 -0.03327762849806793072  0.14237069334828070244  0.08101884509119026967 -0.00281574179610734332  0.02147192311301808140  0.07826635684523515490 0.00404557605678797141 0.00851940119418692805 0.00796638376096185999 0.00032502431919387704 0.00032480740584448159 0.00032479547342703652
1403636665.463556 -0.02636799999999999908  0.13746099999999999985  0.07623399999999999621 -0.00320399999999999982  0.02130999999999999908  0.07840300000000000047 -0.03339395097967053083  0.14245891211128047793  0.08091079132819144204 -0.00281892006991389318  0.02147245087777031880  0.07824059520532941625 0.00402651357275639679 0.00848013372524695185 0.00793194815374534921 0.00032374568580683147 0.00032352868438816150 0.00032351973713908759
1403636665.613555 -0.02636799999999999908  0.13746099999999999985  0.07623299999999999521 -0.00320399999999999982  0.02130999999999999908  0.07840199999999999947 -0.03360990419544127028  0.14267213731791081321  0.08053368367794884464 -0.00282543136568224815  0.02148175706081856609  0.07823690415574952040 0.00400775006949781638 0.00844078996801010326 0.00789545455672081495 0.00032248105379578760 0.00032226563618165924 0.00032225705915808468
1403636665.763556 -0.02636900000000000008  0.13745999999999999885  0.07623299999999999521 -0.00320399999999999982  0.02130999999999999908  0.07840199999999999947 -0.03377848979618480740  0.14268088841566511915  0.08038987080496000359 -0.00283151044098394963  0.02149843306998048403  0.07824746802418411362 0.00398935351241085957 0.00840400879493775552 0.00786187039943562170 0.00032122904141686849 0.00032101800230124612 0.00032100759437436299
1403636665.913555 -0.02636900000000000008  0.13745899999999999785  0.07623199999999999421 -0.00320399999999999982  0.02131100000000000008  0.07840199999999999947 -0.03403000115170844164  0.14265021097668209582  0.08006092400421792321 -0.00281694296308621604  0.02149925834861773216  0.07828697917967568365 0.00397072384062389060 0.00836376628345043491 0.00782605039116861419 0.00031998897145986839 0.00031978015531953380 0.00031976987350107900
1403636666.063555 -0.02637000000000000108  0.13745899999999999785  0.07623099999999999321 -0.00320399999999999982  0.02131100000000000008  0.07840199999999999947 -0.03409499484092110011  0.14231059500023002240  0.08022293303864098946 -0.00282206691908376247  0.02150304936090362620  0.07825422159908945741 0.00395281249464902399 0.00832565291490453864 0.00779014695885888245 0.00031875996605798697 0.00031855195296172091 0.00031854267113712423
1403636666.213556 -0.02637000000000000108  0.13745799999999999685  0.07623000000000000609 -0.00320399999999999982  0.02131100000000000008  0.07840099999999999847 -0.03419605610741622420  0.14202919508914463309  0.08019060534455159373 -0.00283422737611717466  0.02150239198072178073  0.07826091003903215548 0.00393626469744190206 0.00828522271740760735 0.00775580262858843565 0.00031754363953019773 0.00031733587544979178 0.00031732805067756048
1403636666.413555 -0.02637099999999999861  0.13745699999999999585  0.07622900000000000509 -0.00320399999999999982  0.02131100000000000008  0.07840099999999999847 -0.03424254510089071862  0.14190799802368103677  0.08018480291684465522 -0.00284631954944478084  0.02147452788806722065  0.07828455621995793201 0.00391620117361864140 0.00823707082316789407 0.00771675850882834469 0.00031594104312954283 0.00031573804219349043 0.00031572806068550928
1403636666.613555 -0.02637099999999999861  0.13745699999999999585  0.07622900000000000509 -0.00320399999999999982  0.02131100000000000008  0.07840099999999999847 -0.03428002522935410384  0.14218857307617560615  0.08014934096518366857 -0.00284220951722774246  0.02147547022461416752  0.07828095874198921778 0.00389546878406431523 0.00818506499444538252 0.00767752603578090911 0.00031435928511231966 0.00031415918719140560 0.00031414844451677098
1403636666.813555 -0.02637199999999999961  0.13745599999999999485  0.07622800000000000409 -0.00320499999999999995  0.02131100000000000008  0.07839999999999999747 -0.03430345701732761404  0.14217838119181941403  0.07994326248671602964 -0.00285407474368881827  0.02147589210425803960  0.07829077872422017526 0.00387341303150823962 0.00813314090498578300 0.00763695484058824012 0.00031279609868902159 0.00031259652344802700 0.00031258753013999936
1403636667.013556 -0.02637300000000000061  0.13745499999999999385  0.07622800000000000409 -0.00320499999999999995  0.02131100000000000008  0.07839999999999999747 -0.03427626079818625604  0.14244902533358072549  0.07988451925124943898 -0.00285763922481751826  0.02150017558059323652  0.07830174443040513466 0.00385172469180387065 0.00808316671725456404 0.00759186746598105883 0.00031125668582697804 0.00031105475343406926 0.00031104648530886817
1403636667.213556 -0.02637300000000000061  0.13745399999999999285  0.07622800000000000409 -0.00320499999999999995  0.02131100000000000008  0.07839999999999999747 -0.03414596512642222026  0.14253071919824200631  0.07980188925898289154 -0.00288189642849620434  0.02150144406848620779  0.07827358848109765288 0.00383187791190586378 0.00803892165054191990 0.00754533090533682661 0.00030973410758897997 0.00030953151353789682 0.00030952503807904421
1403636667.513556 -0.02637400000000000161  0.13745299999999999185  0.07622700000000000309 -0.00320499999999999995  0.02131100000000000008  0.07839899999999999647 -0.03403647532176726220  0.14231887846568103129  0.07988519457854105499 -0.00286774654994604791  0.02148402018472533176  0.07831419290513673415 0.00380352358807990515 0.00797319438807136786 0.00747502872977606585 0.00030748333397797494 0.00030728468014832032 0.00030727761182591768
1403636667.763556 -0.02637499999999999914  0.13745199999999999085  0.07622700000000000309 -0.00320499999999999995  0.02131100000000000008  0.07839899999999999647 -0.03409123229951379480  0.14233479543367122400  0.07981158267308564869 -0.00287201015985330630  0.02151500759279872249  0.07831408791309234230 0.00377983814644779160 0.00792390180877361634 0.00742550837372972766 0.00030564095004370970 0.00030544254601445301 0.00030543677524580838
1403636668.113555 -0.02637499999999999914  0.13745099999999998985  0.07622700000000000309 -0.00320499999999999995  0.02131200000000000108  0.07839799999999999547 -0.03421112110328741046  0.14255990982804520040  0.07930750261487927444 -0.00288720608639449206  0.02151899886390701636  0.07831114270129649335 0.00374624468653308269 0.00785941949552379851 0.00735456503875081807 0.00030310708040854093 0.00030291025349119455 0.00030290588058017753
1403636668.413555 -0.02637600000000000014  0.13744999999999998885  0.07622800000000000409 -0.00320499999999999995  0.02131200000000000108  0.07839799999999999547 -0.03399454224593847357  0.14257014194305792087  0.07939317021472158675 -0.00291177954237336039  0.02150873332464853585  0.07832960016605614029 0.00372093992182346168 0.00781174147534651527 0.00729343034383860261 0.00030097810976522298 0.00030078231345020945 0.00030077819002336231
1403636668.713556 -0.02637600000000000014  0.13744899999999998785  0.07622800000000000409 -0.00320499999999999995  0.02131200000000000108  0.07839699999999999447 -0.03397824660521021889  0.14276818994647694216  0.07906935292092071021 -0.00293165429819248645  0.02149218525883140815  0.07830224520342085603 0.00369655892298371373 0.00776504118413160697 0.00723491383022202561 0.00029888840521877154 0.00029869285170027718 0.00029868906345403124
1403636668.963556 -0.02637600000000000014  0.13744799999999998685  0.07622900000000000509 -0.00320600000000000008  0.02131200000000000108  0.07839699999999999447 -0.03399147305018015985  0.14302812133152315033  0.07897239204255566969 -0.00294299616678516751  0.02149098009089769196  0.07834413075682972183 0.00367643493889154493 0.00772984504622717481 0.00719539989244956119 0.00029717472829676218 0.00029697983088623758 0.00029697614772549678
1403636669.163556 -0.02637600000000000014  0.13744700000000001361  0.07623000000000000609 -0.00320600000000000008  0.02131200000000000108  0.07839599999999999347 -0.03426567683025014827  0.14325011110217070187  0.07880942376046821962 -0.00293879628269437271  0.02147887358618850301  0.07834306118765767268 0.00365829936543408691 0.00770265114814866914 0.00716551019995496658 0.00029582266299478147 0.00029562466148092161 0.00029562121395495372
1403636669.363556 -0.02637499999999999914  0.13744700000000001361  0.07623099999999999321 -0.00320600000000000008  0.02131200000000000108  0.07839599999999999347 -0.03450597555183439191  0.14390484351470153590  0.07875094887164536817 -0.00294532332944060990  0.02145812112645614084  0.07833130344403244072 0.00364548114389439109 0.00769042409174937758 0.00717095567065699491 0.00029449376287699264 0.00029429346155494470 0.00029428817752881221
1403636669.563555 -0.02637400000000000161  0.13744600000000001261  0.07623199999999999421 -0.00320600000000000008  0.02131200000000000108  0.07839599999999999347 -0.03470983916560291260  0.14415596044619646832  0.07863509633445871227 -0.00294779236638465988  0.02147889722363974935  0.07834232679366480434 0.00363082437886805796 0.00766690687357233364 0.00715441178190775236 0.00029317261649932275 0.00029297435811515346 0.00029296706296126694
1403636669.763556 -0.02637300000000000061  0.13744500000000001161  0.07623199999999999421 -0.00320600000000000008  0.02131200000000000108  0.07839500000000000635 -0.03476978685362488997  0.14417522469325039225  0.07877460432413163627 -0.00294232454637739478  0.02145677865436024928  0.07835230690840687406 0.00361613532654869903 0.00764010059412947948 0.00713958296956385130 0.00029186912298944067 0.00029166882179002419 0.00029166188161703916
1403636669.963556 -0.02637300000000000061  0.13744500000000001161  0.07623199999999999421 -0.00320600000000000008  0.02131200000000000108  0.07839500000000000635 -0.03469381953936490764  0.14406215951747705639  0.07893233556383752458 -0.00293916972438599449  0.02144739898010836199  0.07837046703684832916 0.00360033333310041687 0.00761148193900255780 0.00712959144663477280 0.00029058313557940932 0.00029038191523205961 0.00029037278509424006
1403636670.213556 -0.02637199999999999961  0.13744400000000001061  0.07623199999999999421 -0.00320600000000000008  0.02131299999999999861  0.07839400000000000535 -0.03465756179083199356  0.14365007959420370010  0.07902136879601391606 -0.00292813685709183936  0.02148042504921347448  0.07835999745860261489 0.00357880862109374257 0.00757258746353606065 0.00711406355979033768 0.00028899381677689528 0.00028879110074221047 0.00028878105159712642
1403636670.513556 -0.02637199999999999961  0.13744300000000000961  0.07623199999999999421 -0.00320600000000000008  0.02131299999999999861