1403636636.063555 -0.02583099999999999979  0.13754900000000000460  0.07615199999999999747 -0.00318899999999999999  0.02128700000000000037  0.07845399999999999596 -0.05487996075155621850  0.07467288519887674281  0.02808755477757009580 -0.00289127313591032529  0.02102649096908258339  0.07853360501883803468
1403636636.213556 -0.02583500000000000033  0.13754900000000000460  0.07615399999999999947 -0.00318899999999999999  0.02128700000000000037  0.07845399999999999596 -0.05489303286084256522  0.08068492401940402514  0.02728495950216639973 -0.00289878635076463737  0.02113575652453829681  0.07851328927554494796
1403636636.363556 -0.02583900000000000086  0.13754900000000000460  0.07615600000000000147 -0.00318899999999999999  0.02128700000000000037  0.07845299999999999496 -0.05539618566213675571  0.08426031298576636130  0.02571499051152500298 -0.00290612281290718397  0.02116001863115878068  0.07857188563366182543
1403636636.513556 -0.02584200000000000039  0.13754900000000000460  0.07615800000000000347 -0.00319000000000000013  0.02128700000000000037  0.07845299999999999496 -0.05484695200530254749  0.08950805648896259514  0.02665847387261486776 -0.00291664771005467789  0.02117564215609314335  0.07860006181856619978
1403636636.763556 -0.02584799999999999945  0.13755000000000000560  0.07616199999999999359 -0.00319000000000000013  0.02128700000000000037  0.07845299999999999496 -0.05525805139933161886  0.09017164703593491537  0.02585511989220441037 -0.00296217330187933644  0.02109639986068977818  0.07853448160153481128
1403636637.113555 -0.02585499999999999951  0.13755100000000000660  0.07616699999999999859 -0.00319000000000000013  0.02128800000000000137  0.07845199999999999396 -0.05631541984266744127  0.08853633654495825234  0.02639361919811148566 -0.00294812390081198835  0.02102911006851059667  0.07858060559577154103
1403636637.513556 -0.02586400000000000157  0.13755200000000000760  0.07617200000000000359 -0.00319000000000000013  0.02128800000000000137  0.07845100000000000684 -0.05189533086434823528  0.07780042368144826637  0.04312718933599277160 -0.00297271144723149647  0.02106085720230135502  0.07851659379742061129
1403636637.813555 -0.02587100000000000163  0.13755300000000000860  0.07617500000000000659 -0.00319000000000000013  0.02128800000000000137  0.07845100000000000684 -0.05156664839325627442  0.09234770068301899337  0.04302717066524985173 -0.00296245253110778489  0.02107016815562001016  0.07852428376225105422
1403636638.113555 -0.02587899999999999923  0.13755300000000000860  0.07617699999999999472 -0.00319000000000000013  0.02128899999999999890  0.07845000000000000584 -0.05024479112442219869  0.10928819405692195843  0.04475232988384708621 -0.00295060963835641274  0.02105145293614985383  0.07853833285574879364
1403636638.413555 -0.02588700000000000029  0.13755300000000000860  0.07617899999999999672 -0.00319099999999999983  0.02128899999999999890  0.07845000000000000584 -0.04857969081899025238  0.13022405364502920300  0.04816768758267394451 -0.00293867524975990543  0.02099711785623318769  0.07859141208918854482
1403636638.713556 -0.02589400000000000035  0.13755400000000000960  0.07618199999999999972 -0.00319099999999999983  0.02128899999999999890  0.07844900000000000484 -0.04740739500681230567  0.14082467642025228716  0.04942984583168218149 -0.00292823547428210139  0.02112605709059159689  0.07851037748752898171
1403636638.913555 -0.02589999999999999941  0.13755400000000000960  0.07618400000000000172 -0.00319099999999999983  0.02128899999999999890  0.07844900000000000484 -0.04603391800158819491  0.14112492235203377700  0.05095851276281983949 -0.00293604877450080477  0.02110607668614137428  0.07855581006657040566
1403636639.113555 -0.02590500000000000094  0.13755400000000000960  0.07618700000000000472 -0.00319099999999999983  0.02128899999999999890  0.07844800000000000384 -0.04604549900045899757  0.13852408686477998834  0.04958065042570728581 -0.00291086466753530133  0.02109925859541666310  0.07856471044217074040
1403636639.363556 -0.02590999999999999900  0.13755400000000000960  0.07618999999999999384 -0.00319099999999999983  0.02128999999999999990  0.07844800000000000384 -0.04611787248134868039  0.13825892120571081634  0.04947536201325574562 -0.00292404561799139125  0.02105835812727053016  0.07845739971689140446
1403636639.613555 -0.02591600000000000154  0.13755500000000001060  0.07619299999999999684 -0.00319099999999999983  0.02128999999999999990  0.07844800000000000384 -0.04593905048820838555  0.14066470571893960329  0.05025511785474331278 -0.00293374991645858722  0.02104284218747455235  0.07840724721013614396
1403636639.863556 -0.02592200000000000060  0.13755500000000001060  0.07619599999999999984 -0.00319099999999999983  0.02128999999999999990  0.07844700000000000284 -0.04603679416820608689  0.14210104059797587506  0.05031696853629068211 -0.00292818228342193922  0.02104172538007598528  0.07847181535293799859
1403636640.163556 -0.02592900000000000066  0.13755600000000001160  0.07620100000000000484 -0.00319099999999999983  0.02128999999999999990  0.07844700000000000284 -0.04420100023814101109  0.13744814114570774732  0.05482492871948378699 -0.00292243883097559288  0.02106106963874695981  0.07845051239987139990
1403636640.413555 -0.02593600000000000072  0.13755700000000001260  0.07620499999999999496 -0.00319199999999999996  0.02128999999999999990  0.07844600000000000184 -0.04135478511570295918  0.13391668054506300489  0.05900781515982801012 -0.00287374495873034307  0.02104597160915008813  0.07847596012760227335
1403636640.813555 -0.02594700000000000131  0.13755800000000001360  0.07620999999999999996 -0.00319199999999999996  0.02129100000000000090  0.07844600000000000184 -0.03789004446115679103  0.13474598002916485240  0.06261222009107730857 -0.00283928857372322792  0.02105366529600636097  0.07847757850254147294
1403636641.763556 -0.02597700000000000009  0.13756199999999998984  0.07622600000000000209 -0.00319199999999999996  0.02129199999999999843  0.07844399999999999984 -0.03364153772553488825  0.13922490948920604459  0.06668259317473483605 -0.00290407446558373040  0.02104473751763112979  0.07844782652943033119
1403636642.313555 -0.02599100000000000021  0.13756399999999999184  0.07623399999999999621 -0.00319300000000000009  0.02129199999999999843  0.07844299999999999884 -0.03221217777817140387  0.12909321943219315143  0.07143627445703538970 -0.00292818285423312183  0.02104795504987841750  0.07849483359797423954
1403636642.863556 -0.02600600000000000134  0.13756599999999999384  0.07624000000000000221 -0.00319300000000000009  0.02129299999999999943  0.07844199999999999784 -0.03383592192608244481  0.13543986025298568321  0.06935285509866258302 -0.00295936430629234904  0.02107827670014954247  0.07848453416937081761
1403636643.713556 -0.02602700000000000152  0.13756899999999999684  0.07624899999999999733 -0.00319300000000000009  0.02129299999999999943  0.07843999999999999584 -0.03314593327274958923  0.13967275990347993719  0.07224796432293946469 -0.00296832147905659290  0.02109902752532605633  0.07850874368878188458
1403636644.163556 -0.02604000000000000065  0.13756999999999999784  0.07625200000000000033 -0.00319300000000000009  0.02129400000000000043  0.07843999999999999584 -0.03362066261598452982  0.14778755282615596567  0.07197845833774579871 -0.00299189055857770371  0.02105919884104306625  0.07848524486646636655
1403636644.413555 -0.02604599999999999971  0.13756999999999999784  0.07625300000000000133 -0.00319399999999999979  0.02129400000000000043  0.07843899999999999484 -0.03329417983397361253  0.15499263778496291666  0.07287267606137574905 -0.00297448128692468297  0.02112339016057156529  0.07851136327395187575
1403636644.713556 -0.02605400000000000077  0.13757099999999999884  0.07625500000000000334 -0.00319399999999999979  0.02129400000000000043  0.07843899999999999484 -0.03291925318382990517  0.15943455030023997998  0.07421409526368279164 -0.00296032067020753596  0.02111023230590593214  0.07847344259888347495
1403636644.913555 -0.02605999999999999983  0.13757099999999999884  0.07625700000000000534 -0.00319399999999999979  0.02129400000000000043  0.07843799999999999384 -0.03355516144759887465  0.16312571383937865543  0.07239077582902808672 -0.00294745810818745468  0.02111934967847962918  0.07846278017959995577
1403636645.113555 -0.02606599999999999889  0.13757099999999999884  0.07625800000000000634 -0.00319399999999999979  0.02129500000000000143  0.07843799999999999384 -0.03316026038634174028  0.16448720442738343217  0.07252645264414955828 -0.00294109678804639575  0.02107693657211877347  0.07849761216906619987
1403636645.363556 -0.02607299999999999895  0.13757099999999999884  0.07626099999999999546 -0.00319399999999999979  0.02129500000000000143  0.07843700000000000672 -0.03205466571042832336  0.16640039736031167483  0.07120642215715682066 -0.00296889206297569356  0.02114261331272260930  0.07843936276064138180
1403636645.613555 -0.02608100000000000002  0.13757199999999999984  0.07626399999999999846 -0.00319399999999999979  0.02129500000000000143  0.07843700000000000672 -0.03288373398624618721  0.16380062123918295858  0.06854286737119713591 -0.00298474163619410473  0.02113281559134553775  0.07845303237975082000
1403636645.863556 -0.02608800000000000008  0.13757199999999999984  0.07626700000000000146 -0.00319399999999999979  0.02129500000000000143  0.07843700000000000672 -0.03265845923408411400  0.16432103549958462785  0.06899313837404388861 -0.00297903175171690925  0.02111060617736651088  0.07847725788674335401
1403636646.063555 -0.02609399999999999914  0.13757300000000000084  0.07627000000000000446 -0.00319399999999999979  0.02129500000000000143  0.07843600000000000572 -0.03199054360174778677  0.16784742179982536925  0.06893201937609329255 -0.00300893995897062640  0.02114028105562688192  0.07849724684578587852
1403636646.263556 -0.02609900000000000067  0.13757199999999999984  0.07627100000000000546 -0.00319399999999999979  0.02129599999999999896  0.07843600000000000572 -0.03246649183978979336  0.16818314136548942472  0.06628830255229326007 -0.00303745246866214029  0.02112180242384176926  0.07850927808045460310
1403636646.413555 -0.02610499999999999973  0.13757099999999999884  0.07627299999999999358 -0.00319499999999999992  0.02129599999999999896  0.07843600000000000572 -0.03245724580057549047  0.17052628097525829309  0.06533165433918358689 -0.00307510663338004565  0.02112020306479176282  0.07850036977994463705
1403636646.563555 -0.02610900000000000026  0.13757099999999999884  0.07627399999999999458 -0.00319499999999999992  0.02129599999999999896  0.07843500000000000472 -0.03237280911616575996  0.17204033592972184374  0.06526705928445322713 -0.00308984660962748677  0.02110462053462931753  0.07846072768169930212
1403636646.763556 -0.02611399999999999832  0.13757099999999999884  0.07627699999999999758 -0.00319499999999999992  0.02129599999999999896  0.07843500000000000472 -0.03248486977562462658  0.17107028404828680812  0.06610124641763381881 -0.00307200790905099060  0.02109944323981916697  0.07848916266867314584
1403636647.013556 -0.02612000000000000086  0.13756999999999999784  0.07628000000000000058 -0.00319499999999999992  0.02129599999999999896  0.07843500000000000472 -0.03224078149985937919  0.17170832717447076510  0.06777309552270434356 -0.00307933105601265701  0.02106930971556114293  0.07848651399893719072
1403636647.263556 -0.02612599999999999992  0.13756999999999999784  0.07628300000000000358 -0.00319499999999999992  0.02129599999999999896  0.07843400000000000372 -0.03188900020131809482  0.17160489665919206881  0.06938005365870709984 -0.00307111215425125888  0.02107904837404697695  0.07849083194865322244
1403636647.513556 -0.02613100000000000145  0.13756999999999999784  0.07628400000000000458 -0.00319499999999999992  0.02129699999999999996  0.07843400000000000372 -0.03172173550442820150  0.16911707481065862968  0.07068657392252897242 -0.00306898251613243285  0.02107937610640121806  0.07851934770783391970
1403636647.863556 -0.02614100000000000104  0.13756899999999999684  0.07628699999999999370 -0.00319499999999999992  0.02129699999999999996  0.07843300000000000272 -0.03245699170679428036  0.16512028174562198846  0.07008947631539803880 -0.00312631455594310301  0.02106263418975356377  0.07851082888971044893
1403636648.113555 -0.02614700000000000010  0.13756899999999999684  0.07628799999999999470 -0.00319499999999999992  0.02129699999999999996  0.07843300000000000272 -0.03245694377518147655  0.15104328725884663687  0.07153171962321622224 -0.00318095720084753597  0.02108325825852180174  0.07855002231135359281
1403636648.313555 -0.02615200000000000163  0.13756899999999999684  0.07628899999999999570 -0.00319600000000000006  0.02129699999999999996  0.07843200000000000172 -0.03132857219273758181  0.14482975027414113356  0.07564558862043795073 -0.00316499962609005951  0.02109958150831924700  0.07854809432919941659
1403636648.513556 -0.02615699999999999970  0.13756899999999999684  0.07629099999999999770 -0.00319600000000000006  0.02129800000000000096  0.07843200000000000172 -0.03039994466355016439  0.14209859220195464324  0.07868632891603818957 -0.00313290136810288628  0.02110649444118416554  0.07853542037837697720
1403636648.713556 -0.02616200000000000123  0.13756899999999999684  0.07629199999999999871 -0.00319600000000000006  0.02129800000000000096  0.07843200000000000172 -0.03025470518521035379  0.14503996930331231052  0.07882407032451740903 -0.00310975528480694373  0.02110845060763372194  0.07851247881356275549
1403636648.963556 -0.02616800000000000029  0.13756899999999999684  0.07629400000000000071 -0.00319600000000000006  0.02129800000000000096  0.07843100000000000072 -0.03073722909154478003  0.15037814842480179411  0.07782228860351339539 -0.00307035304043385467  0.02107672093258672677  0.07845054494273748236
1403636649.263556 -0.02617399999999999935  0.13756799999999999584  0.07629500000000000171 -0.00319600000000000006  0.02129800000000000096  0.07843100000000000072 -0.03134904525739374420  0.14970748163132130415  0.07733731859940833064 -0.00307820865304426561  0.02106908707648117926  0.07845575710174408635
1403636649.613555 -0.02618200000000000041  0.13756799999999999584  0.07629500000000000171 -0.00319600000000000006  0.02129899999999999849  0.07842999999999999972 -0.03187910868261535635  0.14041064373449979596  0.07721420092771452692 -0.00306044262716028553  0.02103689706245940455  0.07848051785571820427
1403636649.913555 -0.02618799999999999947  0.13756799999999999584  0.07629600000000000271 -0.00319600000000000006  0.02129899999999999849  0.07842899999999999872 -0.03222734138075249166  0.13847500648455357553  0.07686078286848879726 -0.00310907468668569819  0.02102939416208880405  0.07848485140469220467
1403636650.263556 -0.02619499999999999953  0.13756799999999999584  0.07629700000000000371 -0.00319700000000000019  0.02129899999999999849  0.07842899999999999872 -0.03209155624516837196  0.14194662936150090338  0.07805228477786602115 -0.00312792131806733514  0.02100752381694431792  0.07850236582844760669
1403636650.463556 -0.02619900000000000007  0.13756699999999999484  0.07629800000000000471 -0.00319700000000000019  0.02129899999999999849  0.07842799999999999772 -0.03156564906961838862  0.14576005843772438242  0.08018767758240473442 -0.00313758661241931745  0.02099206537316569351  0.07848070381316671340
1403636650.713556 -0.02620400000000000160  0.13756699999999999484  0.07629800000000000471 -0.00319700000000000019  0.02129999999999999949  0.07842799999999999772 -0.03240454617529901771  0.14936286272145912757  0.07824496030222027887 -0.00311347394206788709  0.02099441415148208673  0.07845172925662902141
1403636651.563555 -0.02622100000000000125  0.13756499999999999284  0.07630099999999999383 -0.00319700000000000019  0.02129999999999999949  0.07842699999999999672 -0.03363399340222027883  0.15615774548134411792  0.07501423687060057577 -0.00308375418565922212  0.02101496235928734108  0.07844399434999169141
1403636652.013556 -0.02622899999999999884  0.13756399999999999184  0.07630199999999999483 -0.00319700000000000019  0.02130100000000000049  0.07842599999999999572 -0.03322109273362820053  0.16380540219590578044  0.07629308216496231976 -0.00313374787731724065  0.02106736019962491060  0.07845203181027135542
1403636652.163556 -0.02623100000000000084  0.13756399999999999184  0.07630199999999999483 -0.00319700000000000019  0.02130100000000000049  0.07842599999999999572 -0.03249374001254169003  0.16381600564253337438  0.07857739833616908531 -0.00316718097020585133  0.02107584856718750302  0.07843762505957363462
1403636652.313555 -0.02623500000000000137  0.13756299999999999084  0.07630199999999999483 -0.00319799999999999989  0.02130100000000000049  0.07842499999999999472 -0.03230400862102945914  0.16145137625021283023  0.07955812512475435305 -0.00313494571846290124  0.02109026898043268178  0.07845711453104332878
1403636652.463556 -0.02623699999999999991  0.13756299999999999084  0.07630199999999999483 -0.00319799999999999989  0.02130100000000000049  0.07842499999999999472 -0.03286013790030715281  0.16530332073786310754  0.07867497679719681614 -0.00309404057647030785  0.02109586737718752159  0.07844678538414387448
1403636652.663556 -0.02623899999999999844  0.13756199999999998984  0.07630299999999999583 -0.00319799999999999989  0.02130100000000000049  0.07842499999999999472 -0.03424604031911061136  0.16977226929742439410  0.07618363567393146574 -0.00304268331172819406  0.02113861755114446531  0.07843106589984899513
1403636653.113555 -0.02624399999999999997  0.13755999999999998784  0.07630399999999999683 -0.00319799999999999989  0.02130200000000000149  0.07842399999999999372 -0.03550825521560638243  0.16952699148040470400  0.07384803226601445447 -0.00302139793792031161  0.02117174401397213870  0.07839937359198578815
1403636653.513556 -0.02624999999999999903  0.13755899999999998684  0.07630499999999999783 -0.00319799999999999989  0.02130200000000000149  0.07842300000000000659 -0.03561433402947788290  0.16734806485975528556  0.07512809684344060046 -0.00301193047582893909  0.02114841851250582119  0.07841834538088270079
1403636654.163556 -0.02625800000000000009  0.13755600000000001160  0.07630699999999999983 -0.00319799999999999989  0.02130200000000000149  0.07842200000000000559 -0.03583520663166587378  0.16172332720275556239  0.07504983288383589024 -0.00301915705788481821  0.02115105751072998697  0.07844676512330790719
1403636654.463556 -0.02626300000000000162  0.13755400000000000960  0.07630699999999999983 -0.00319900000000000002  0.02130299999999999902  0.07842200000000000559 -0.03526022162078872729  0.15762628712718482205  0.07672937584807218436 -0.00301264136811505313  0.02119327016411965553  0.07845544278354081580
1403636654.713556 -0.02626699999999999868  0.13755300000000000860  0.07630599999999999883 -0.00319900000000000002  0.02130299999999999902  0.07842100000000000459 -0.03472100730171071709  0.15787798579891235140  0.07718886943125498334 -0.00294141171530390086  0.02117718742074078259  0.07844941648935238598
1403636655.163556 -0.02627399999999999874  0.13755000000000000560  0.07630499999999999783 -0.00319900000000000002  0.02130299999999999902  0.07842000000000000359 -0.03421904725003686865  0.15542862942367646761  0.07792608242078037650 -0.00294162030244177414  0.02116888725241470454  0.07843657376817832205
1403636655.563555 -0.02628000000000000128  0.13754800000000000360  0.07630399999999999683 -0.00319900000000000002  0.02130400000000000002  0.07842000000000000359 -0.03374882691897104769  0.15292210888818408288  0.07955048997339184136 -0.00294140837961499348  0.02113657680117233401  0.07845518324279482369
1403636655.813555 -0.02628399999999999834  0.13754600000000000160  0.07630299999999999583 -0.00319900000000000002  0.02130400000000000002  0.07841900000000000259 -0.03366215666334777118  0.15248470541472450290  0.07969349748540861811 -0.00292847814747061426  0.02114643982709806316  0.07844607746684813254
1403636656.013556 -0.02628700000000000134  0.13754500000000000060  0.07630299999999999583 -0.00319900000000000002  0.02130400000000000002  0.07841900000000000259 -0.03403154197943452502  0.15357467634511701160  0.07865873942959836218 -0.00290998450792149567  0.02114853346344776341  0.07843287669743882751
1403636656.263556 -0.02629000000000000087  0.13754299999999999859  0.07630299999999999583 -0.00319900000000000002  0.02130400000000000002  0.07841800000000000159 -0.03433254763362270090  0.15471831927848125887  0.07799874137502772753 -0.00285291210518340407  0.02114780429480721605  0.07840925785695750105
1403636656.563555 -0.02629199999999999940  0.13754199999999999759  0.07630299999999999583 -0.00320000000000000015  0.02130400000000000002  0.07841800000000000159 -0.03463119389088106792  0.15653278697084560545  0.07722068907291260165 -0.00284111776628410235  0.02115257448582981772  0.07841243057461441679
1403636656.813555 -0.02629599999999999993  0.13753799999999999359  0.07630399999999999683 -0.00320000000000000015  0.02130500000000000102  0.07841700000000000059 -0.03519352224870295892  0.15691414191313823867  0.07587670932934947876 -0.00281918216933362302  0.02118541900055512933  0.07841694142878913310
1403636657.113555 -0.02630000000000000046  0.13753499999999999059  0.07630299999999999583 -0.00320000000000000015  0.02130500000000000102  0.07841700000000000059 -0.03536257069160227834  0.15667427525845170622  0.07595510433704720510 -0.00278614931825088780  0.02120512726826416158  0.07842777485799488912
1403636657.363556 -0.02630299999999999999  0.13753299999999998859  0.07630299999999999583 -0.00320000000000000015  0.02130500000000000102  0.07841700000000000059 -0.03528322311842641001  0.15546003221678078576  0.07641026296761284364 -0.00276083313089919499  0.02120358986571510215  0.07842500199387772430
1403636657.563555 -0.02630499999999999852  0.13753199999999998759  0.07630199999999999483 -0.00320000000000000015  0.02130500000000000102  0.07841599999999999959 -0.03527987704778447892  0.15398844208697778924  0.07667800582982142732 -0.00274323843560259160  0.02122785431202872664  0.07842673626381803376
1403636657.813555 -0.02630800000000000152  0.13753000000000001335  0.07630000000000000671 -0.00320000000000000015  0.02130500000000000102  0.07841599999999999959 -0.03509806820830976143  0.15290039957399681469  0.07720414485623941503 -0.00276433554769487224  0.02125846390691904855  0.07843548990090307149
1403636658.013556 -0.02631000000000000005  0.13752800000000001135  0.07630000000000000671 -0.00320000000000000015  0.02130599999999999855  0.07841499999999999859 -0.03510219834048083215  0.15145433336585586992  0.07744345051489641418 -0.00274664762369156417  0.02125650649954214516  0.07843656658541695026
1403636658.213556 -0.02631199999999999858  0.13752600000000000935  0.07629900000000000571 -0.00320000000000000015  0.02130599999999999855  0.07841499999999999859 -0.03508399882848520224  0.15043977400940550249  0.07783688772311482540 -0.00275962492867302088  0.02125434743892640893  0.07842098083561102606
1403636658.363556 -0.02631299999999999958  0.13752500000000000835  0.07629800000000000471 -0.00320000000000000015  0.02130599999999999855  0.07841499999999999859 -0.03546723114615623479  0.14994986709327368102  0.07729663578907847166 -0.00276342618716741246  0.02124107163503421644  0.07842423632344458495
1403636658.513556 -0.02631400000000000058  0.13752400000000000735  0.07629700000000000371 -0.00320099999999999985  0.02130599999999999855  0.07841499999999999859 -0.03580008655330005340  0.15029913580817957919  0.07677855700750259305 -0.00274730887763126276  0.02123341513821947954  0.07841507282349391428
1403636658.663556 -0.02631500000000000158  0.13752300000000000635  0.07629700000000000371 -0.00320099999999999985  0.02130599999999999855  0.07841399999999999759 -0.03609641985749226928  0.14980244579858131848  0.07641511100396891631 -0.00272227447173493693  0.02123676147441466017  0.07841458711829063510
1403636658.863556 -0.02631599999999999911  0.13752100000000000435  0.07629600000000000271 -0.00320099999999999985  0.02130599999999999855  0.07841399999999999759 -0.03628999057049481225  0.14966529231605241179  0.07624473799579317701 -0.00273863627297122941  0.02124113152590523940  0.07840689493824494483
1403636658.963556 -0.02631700000000000012  0.13752000000000000335  0.07629600000000000271 -0.00320099999999999985  0.02130599999999999855  0.07841399999999999759 -0.03652754525001856989  0.14939807875536431636  0.07599283391789307673 -0.00272561582174841348  0.02124572718076446140  0.07842298299268124495
1403636659.163556 -0.02631800000000000112  0.13751800000000000135  0.07629500000000000171 -0.00320099999999999985  0.02130599999999999855  0.07841299999999999659 -0.03667808263869697799  0.14930970017021014118  0.07581686678649027233 -0.00273270617806080406  0.02126420952376881224  0.07840705176450867009
1403636659.413555 -0.02631999999999999965  0.13751599999999999935  0.07629299999999999971 -0.00320099999999999985  0.02130699999999999955  0.07841299999999999659 -0.03686768825533543598  0.14879174381237392222  0.07552581387378975997 -0.00274157238545386312  0.02126241531491018799  0.07839214032858009273
1403636659.663556 -0.02632200000000000165  0.13751399999999999735  0.07629199999999999871 -0.00320099999999999985  0.02130699999999999955  0.07841299999999999659 -0.03680698215395958317  0.14792817575019595600  0.07598833474521210496 -0.00273253839456477805  0.02130600448233387761  0.07838100049594548535
1403636659.963556 -0.02632400000000000018  0.13751099999999999435  0.07628899999999999570 -0.00320099999999999985  0.02130699999999999955  0.07841199999999999559 -0.03679688979367445184  0.14650204024511573331  0.07637143016109931848 -0.00272548825456440675  0.02129144488186791861  0.07837982809321461519
1403636660.163556 -0.02632500000000000118  0.13750899999999999235  0.07628699999999999370 -0.00320099999999999985  0.02130699999999999955  0.07841199999999999559 -0.03666007957741426737  0.14547555550469962182  0.07702492932970426975 -0.00274767729454573678  0.02130299346034414745  0.07835070278846886782
1403636660.413555 -0.02632699999999999971  0.13750599999999998935  0.07628400000000000458 -0.00320099999999999985  0.02130699999999999955  0.07841099999999999459 -0.03665845437187480876  0.14511263434563062558  0.07729391730592828635 -0.00275038157844840862  0.02131452838834078933  0.07835362331678905057
1403636660.763556 -0.02632900000000000171  0.13750200000000001310  0.07628100000000000158 -0.00320199999999999999  0.02130800000000000055  0.07841099999999999459 -0.03657642969529752153  0.14470300919284220798  0.07769188422478670586 -0.00275575788317912592  0.02137047709788672534  0.07834190084410459776
1403636660.913555 -0.02632900000000000171  0.13750100000000001210  0.07628000000000000058 -0.00320199999999999999  0.02130800000000000055  0.07840999999999999359 -0.03652069143669084417  0.14369986097054218699  0.07780120593983499977 -0.00275299427532666591  0.02136094906997874562  0.07834740861739507289
1403636661.063555 -0.02633100000000000024  0.13749900000000001010  0.07627799999999999858 -0.00320199999999999999  0.02130800000000000055  0.07840999999999999359 -0.03641960245146127345  0.14348113002556656115  0.07790494223588662059 -0.00275591229886633111  0.02136116897723334962  0.07835840872578291039
1403636661.313555 -0.02633200000000000124  0.13749700000000000810  0.07627599999999999658 -0.00320199999999999999  0.02130800000000000055  0.07840999999999999359 -0.03639606647081165824  0.14307686800543176209  0.07786520389891250782 -0.00276817879694954546  0.02136906322035855496  0.07835445402786135605
1403636661.713556 -0.02633500000000000077  0.13749300000000000410  0.07627200000000000646 -0.00320199999999999999  0.02130800000000000055  0.07840900000000000647 -0.03625603593473861880  0.14240663482055929134  0.07790386676502444874 -0.00277095138542265626  0.02140060417056944761  0.07835059981427129616
1403636662.213556 -0.02633900000000000130  0.13748799999999999910  0.07626800000000000246 -0.00320199999999999999  0.02130800000000000055  0.07840800000000000547 -0.03589378086975400506  0.14179093335972614565  0.07810697634411825629 -0.00278931995858947446  0.02140474304999927593  0.07832849171878332462
1403636662.563555 -0.02634200000000000083  0.13748499999999999610  0.07626399999999999846 -0.00320199999999999999  0.02130900000000000155  0.07840800000000000547 -0.03424052207473615023  0.14287526132337674545  0.08210408510629566003 -0.00277800746720802474  0.02146076069353812163  0.07828326460081995453
1403636662.863556 -0.02634500000000000036  0.13748099999999999210  0.07625999999999999446 -0.00320300000000000012  0.02130900000000000155  0.07840700000000000447 -0.03402270617640559131  0.14253934459406750190  0.08236670051369771040 -0.00277749616852469416  0.02148104945756041523  0.07827534644403176534
1403636663.263556 -0.02634900000000000089  0.13747699999999998810  0.07625500000000000334 -0.00320300000000000012  0.02130900000000000155  0.07840600000000000347 -0.03369366380181550852  0.14186335437720876129  0.08275941709228670784 -0.00279437741538657303  0.02147252164622155332  0.07821990475163234646
1403636663.613555 -0.02635200000000000042  0.13747400000000001286  0.07625099999999999933 -0.00320300000000000012  0.02130900000000000155  0.07840600000000000347 -0.03349241533303399382  0.14158181952837503581  0.08292090467194122849 -0.00279404540770262924  0.02146179917291766992  0.07822941413757020235
1403636663.963556 -0.02635499999999999995  0.13747000000000000886  0.07624699999999999533 -0.00320300000000000012  0.02130900000000000155  0.07840500000000000247 -0.03329816876319594693  0.14167939418467104251  0.08289969399473090528 -0.00280637238955148147  0.02149034029853342728  0.07821255354381678737
1403636664.163556 -0.02635699999999999849  0.13746800000000000685  0.07624599999999999433 -0.00320300000000000012  0.02130999999999999908  0.07840500000000000247 -0.03306081074803778747  0.14190934284624021067  0.08335897074295400833 -0.00279470244224414195  0.02148960586494098879  0.07823898787163530155
1403636664.363556 -0.02635900000000000049  0.13746700000000000585  0.07624300000000000521 -0.00320300000000000012  0.02130999999999999908  0.07840500000000000247 -0.03294294362621796868  0.14225069203145745966  0.08326486233698156270 -0.00280017137706622867  0.02148158690595087725  0.07823927404951923348
1403636664.563555 -0.02636000000000000149  0.13746600000000000485  0.07624100000000000321 -0.00320300000000000012  0.02130999999999999908  0.07840400000000000147 -0.03277192781412162359  0.14226050063466158524  0.08339554503423048104 -0.00280610657900676229  0.02145948404683583124  0.07822890367850482418
1403636664.713556 -0.02636200000000000002  0.13746500000000000385  0.07623900000000000121 -0.00320399999999999982  0.02130999999999999908  0.07840400000000000147 -0.03280712123578246459  0.14235802910856534820  0.08320149284815603341 -0.00280483995354149094  0.02146481278717148056  0.07823182695910162188
1403636664.863556 -0.02636300000000000102  0.13746400000000000285  0.07623800000000000021 -0.00320399999999999982  0.02130999999999999908  0.07840400000000000147 -0.03280731739176998008  0.14249865961720620255  0.08293956338305812082 -0.00281211891116341962  0.02145806015062239058  0.07821789608874581134
1403636665.013556 -0.02636399999999999855  0.13746400000000000285  0.07623699999999999921 -0.00320399999999999982  0.02130999999999999908  0.07840300000000000047 -0.03285484866583993774  0.14275627682754796210  0.08257282320907614881 -0.00280896270570558547  0.02145523348500114752  0.07823590498632064516
1403636665.163556 -0.02636499999999999955  0.13746300000000000185  0.07623599999999999821 -0.00320399999999999982  0.02130999999999999908  0.07840300000000000047 -0.03288542514841626130  0.14260667277149194354  0.08233062230580757979 -0.00281786811532350970  0.02146174139038565382  0.07823701556640676180
1403636665.313555 -0.02636700000000000155  0.13746200000000000085  0.07623499999999999721 -0.00320399999999999982  0.02130999999999999908  0.07840300000000000047 -0.03301895530807039819  0.14254012373074695375  0.08176296499381796590 -0.00282462501954191180  0.02147969263431944581  0.07825881109632124022
1403636665.463556 -0.02636799999999999908  0.13746099999999999985  0.07623399999999999621 -0.00320399999999999982  0.02130999999999999908  0.07840300000000000047 -0.03331282064143196997  0.14232621339240855707  0.08096828344232344377 -0.00282161297477366698  0.02146368525167611022  0.07825909924148785612
1403636665.613555 -0.02636799999999999908  0.13746099999999999985  0.07623299999999999521 -0.00320399999999999982  0.02130999999999999908  0.07840199999999999947 -0.03345223997812825367  0.14251497171717408818  0.08085037785506449248 -0.00282202314791185063  0.02147560552905060371  0.07824386044377741600
1403636665.763556 -0.02636900000000000008  0.13745999999999999885 