1520530315.649646 0.00000000000000000000 0.00000000000000000000 0.00000000000000000000 0.00000000000000000000 0.00000000000000000000 0.00000000000000000000 -0.29739786487538666382 -0.10316705282893531836 -0.02247859462422396176 -0.00002527158688822008 -0.00010247503791432902 -0.00064655593013350553  6.85572242060561620747 10.49240295665399180791  0.07511915048758717461  0.00002985149092416627  0.00002775768934502081  0.00002770430190611191
1520530315.799640 0.00000000000000000000 0.00000000000000000000 0.00000000000000000000 0.00000000000000000000 0.00000000000000000000 0.00000000000000000000 -0.20569113319269793916 -0.10362318391249522587 -0.02648132272711090779  0.00032230133499051795 -0.00001341908425122090 -0.00053099498335173957 6.12507102847400553003 9.62122375932683482347 0.07319846686626821364 0.00002895444962015905 0.00002713036649853219 0.00002735392154732301
1520530315.949645 0.00000000000000000000 0.00000000000000000000 0.00000000000000000000 0.00000000000000000000 0.00000000000000000000 0.00000000000000000000 -0.13590741365414299446 -0.10529345769407692790 -0.02947833210211159988  0.00029830219975191538  0.00000209172830610358 -0.00050542508182037555 6.07222811738578016616 9.05756784404704440306 0.07361777302022481928 0.00002840431764636636 0.00002663854362446647 0.00002687136661944526
1520530316.100221 0.00000000000000000000 0.00000000000000000000 0.00000000000000000000 0.00000000000000000000 0.00000000000000000000 0.00000000000000000000 -0.06047229095480946559 -0.08979421010246739498 -0.03438309902944713947  0.00013486618687215149 -0.00007801372517294322 -0.00044011192088142773 5.28109731108023172652 8.50936175931266802763 0.07095029962416943281 0.00002734948790855521 0.00002604107055162602 0.00002624961172229616
1520530316.300227 0.00000000000000000000 0.00000000000000000000 0.00000000000000000000 0.00000000000000000000 0.00000000000000000000 0.00000000000000000000 -0.03186514406644910119 -0.07179850724020106489 -0.03790013285986833930  0.00001033716188588054 -0.00000049523426194377 -0.00040969668471561529 4.59297562207411580459 7.73700723739818840841 0.06450129606798700455 0.00002641343475392229 0.00002537465959884599 0.00002565951474319309
1520530316.450231 0.00000000000000000000 0.00000000000000000000 0.00000000000000000000 0.00000000000000000000 0.00000000000000000000 0.00000000000000000000 -0.02533739178779734549 -0.06606420941676087455 -0.03968007239166117944 -0.00002300003468921057 -0.00004387225398036055 -0.00035044890299365603 4.15990426413986735810 7.12640989992968432176 0.05979371977327450211 0.00002558468968773841 0.00002496535539513374 0.00002515994417627471
1520530316.650280 0.00000000000000000000 0.00000000000000000000 0.00000000000000000000 0.00000000000000000000 0.00000000000000000000 0.00000000000000000000 -0.02535933019765686941 -0.05784402380774059799 -0.04093574234366978426 -0.00013156390022642158 -0.00006620315048573702 -0.00033541768422168372 3.75137465889913768180 6.38105873605620566025 0.05537000023146890909 0.00002505837888474676 0.00002450575866202052 0.00002451601083293638
1520530316.850286 0.00000000000000000000 0.00000000000000000000 0.00000000000000000000 0.00000000000000000000 0.00000000000000000000 0.00000000000000000000 -0.02446982276670585030 -0.05714869027853059641 -0.04162372147804108136 -0.00008566998407538728 -0.00002834669146484086 -0.00041334284410878003 3.49413261756258908264 5.74613650757593763529 0.05255073832816709034 0.00002458057243880867 0.00002407318355924375 0.00002407839024970516
1520530316.949773 0.00000000000000000000 0.00000000000000000000 0.00000000000000000000 0.00000000000000000000 0.00000000000000000000 0.00000000000000000000 -0.02806754652161679367 -0.05121033736659851010 -0.04225722594715590474 -0.00002904314528918124 -0.00009244871877587712 -0.00038249022236256904 3.39395769308744466031 5.40066835413120216458 0.05177440323177975867 0.00002446591666663083 0.00002390897836074529 0.00002389010111606118
1520530317.149779 0.00000000000000000000 0.00000000000000000000 0.00000000000000000000 0.00000000000000000000 0.00000000000000000000 0.00000000000000000000 -0.02988573837917900267 -0.05189277566796315910 -0.04250150642839516102 -0.00000442428599039942 -0.00009239683819439089 -0.00033765115738921869 3.28132026011589728043 4.77543000726849875548 0.05076082695256142058 0.00002418972497861607 0.00002350602053449189 0.00002352925651229185
1520530317.349743 0.00000000000000000000 0.00000000000000000000 0.00000000000000000000 0.00000000000000000000 0.00000000000000000000 0.00000000000000000000 -0.03977693634130686356 -0.04437049977058550587 -0.04195311671031148187  0.00001665931444619018 -0.00017752318410814701 -0.00037034518869026188 3.23634589306523778873 4.33696496168159484341 0.05047552502458421686 0.00002390139139873023 0.00002310249738801496 0.00002323126494532912
1520530317.549752 0.00000000000000000000 0.00000000000000000000 0.00000000000000000000 0.00000000000000000000 0.00000000000000000000 0.00000000000000000000 -0.04257068502456285569 -0.04434061853338733261 -0.04163768597731439675  0.00007529850247388613 -0.00011456958655855663 -0.00039286178792856012 3.23539875421470890515 4.07815602243992980647 0.05073918552625519135 0.00002377090885738605 0.00002273806258744292 0.00002291133662113677
1520530317.750237 0.00000000000000000000 0.00000000000000000000 0.00000000000000000000 0.00000000000000000000 0.00000000000000000000 0.00000000000000000000 -0.03749650965517144913 -0.04074496674639396798 -0.04234160137071062147  0.00016856664555604291 -0.00000960012869740946 -0.00037485130945148819 3.23385045331762821519 3.91161418141057870557 0.05103545289702167420 0.00002348821453609858 0.00002234920090425336 0.00002248013587137309
1520530317.900242 0.00000000000000000000 0.00000000000000000000 0.00000000000000000000 0.00000000000000000000 0.00000000000000000000 0.00000000000000000000 -0.03371323761766650134 -0.03975073073696803322 -0.04234127551149332452  0.00026624061111772787 -0.00003070906571548630 -0.00044060415323915448 3.22507582302399464780 3.76595470418674382884 0.05076827873004297054 0.00002299843039797480 0.00002205543857529890 0.00002211902587973909
1520530318.050246 0.00000000000000000000 0.00000000000000000000 0.00000000000000000000 0.00000000000000000000 0.00000000000000000000 0.00000000000000000000 -0.03652267501907917324 -0.03700246792732753143 -0.04197369062686148039  0.00025239461779905575 -0.00002578964536284893 -0.00053347137226610216 3.19773903866864328549 3.62177672249080950806 0.05031624885764673927 0.00002301350967441182 0.00002188976290224441 0.00002197956515007940
1520530318.150816 0.00000000000000000000 0.00000000000000000000 0.00000000000000000000 0.00000000000000000000 0.00000000000000000000 0.00000000000000000000 -0.03823802182141688988 -0.03457903306414703004 -0.04187102426857600146  0.00021627541706856126  0.00002637155906677331 -0.00055537970539155815 3.15414443661546117781 3.51898393736172776514 0.04991393158029815841 0.00002290554880223190 0.00002170819329079305 0.00002184753581048510
1520530318.300772 0.00000000000000000000 0.00000000000000000000 0.00000000000000000000 0.00000000000000000000 0.00000000000000000000 0.00000000000000000000 -0.03137251861061493563 -0.03007105173964229675 -0.04298130112309390960  0.00018644795118490865  0.00006140776374678096 -0.00048117397090631937 3.03260250777712325743 3.39105290333110831469 0.04929211550371950801 0.00002254660407315380 0.00002145418663203519 0.00002160012864843315
1520530318.450777 0.00000000000000000000 0.00000000000000000000 0.00000000000000000000 0.00000000000000000000 0.00000000000000000000 0.00000000000000000000 -0.02995811782861131090 -0.02962734602258344091 -0.04329977546735918476  0.00012587166235209247  0.00000723834957565457 -0.00039157766411067606 2.82261250011196107579 3.27801749580952073160 0.04808339659950121997 0.00002259153797174100 0.00002130482533267503 0.00002145942617673653
1520530318.600567 0.00000000000000000000 0.00000000000000000000 0.00000000000000000000 0.00000000000000000000 0.00000000000000000000 0.00000000000000000000 -0.03084872181594431467 -0.03457310549650567666 -0.04303561978224727108  0.00012696629919240363 -0.00000940463911094816 -0.00035045968041012084 2.52652389305614777371 3.17384973474413101258 0.04626535438765472935 0.00002227368096280636 0.00002107547428128002 0.00002120239079395839
1520530318.750571 0.00000000000000000000 0.00000000000000000000 0.00000000000000000000 0.00000000000000000000 0.00000000000000000000 0.00000000000000000000 -0.01778869725502197144 -0.03809093863767640253 -0.04403735860717431644  0.00011577896103363985 -0.00006320837780318764 -0.00029867840877361969 2.20903004353718923625 3.06673958980255667583 0.04433001637022713354 0.00002184074285644477 0.00002086250763801221 0.00002098179834930788
1520530318.900576 0.00000000000000000000 0.00000000000000000000 0.00000000000000000000 0.00000000000000000000 0.00000000000000000000 0.00000000000000000000 -0.00730841139277831758 -0.04032833775424648354 -0.04506026372019805021  0.00014560049741370654 -0.00016988068572989986 -0.00025718200830043565 1.91302069955495190889 2.94774199218606103301 0.04262783470622023146 0.00002158307006626361 0.00002066037652474834 0.00002078267071003194
1520530318.999955 0.00000000000000000000 0.00000000000000000000 0.00000000000000000000 0.00000000000000000000 0.00000000000000000000 0.00000000000000000000 -0.00237475196176896051 -0.04860974458835087136 -0.04511266708414252147  0.00018978088464682670 -0.00014883898716469308 -0.00023600771254513218 1.73788743733555062221 2.84526857765851381998 0.04157795976431339496 0.00002139427567789243 0.00002057125401665244 0.00002068068947834309
1520530319.149961 0.00000000000000000000 0.00000000000000000000 0.00000000000000000000 0.00000000000000000000 0.00000000000000000000 0.00000000000000000000 -0.00213380876986681315 -0.05047472871206028222 -0.04508735097729259234  0.00023504568818772715 -0.00011281054858350294 -0.00022235407774584830 1.51806293491644050953 2.64008630039313052507 0.03993631395691443764 0.00002121243980111253 0.00002037733182081596 0.00002047889147448672
1520530319.299965 0.00000000000000000000 0.00000000000000000000 0.00000000000000000000 0.00000000000000000000 0.00000000000000000000 0.00000000000000000000 -0.00122210515192640681 -0.04775231579419068201 -0.04526969256582291656  0.00023701898257209790 -0.00009725471013714076 -0.00024291360969222082 1.34391697675565446879 2.44298491011784824067 0.03843568934220907563 0.00002084000808948234 0.00002015185805863215 0.00002025232017545934
1520530319.399832 0.00000000000000000000 0.00000000000000000000 0.00000000000000000000 0.00000000000000000000 0.00000000000000000000 0.00000000000000000000  0.00245335456275575740 -0.04334728546722908110 -0.04572848700809570288  0.00022319730945621704 -0.00003342568472470696 -0.00026681494106860708 1.27011940119557853457 2.30821828397664985388 0.03755781986654083832 0.00002068607005466170 0.00002002212131684034 0.00002009317725590342
1520530319.549837 0.00000000000000000000 0.00000000000000000000 0.00000000000000000000 0.00000000000000000000 0.00000000000000000000 0.00000000000000000000 -0.00006003331413199464 -0.03672578928753345712 -0.04614086509243909423  0.00021815273375468933  0.00001566852070473024 -0.00020917857131923963 1.18058559311433408645 2.16194868760976355304 0.03660514583265427058 0.00002068179902791747 0.00001987838292754778 0.00001999021971901509
1520530319.699841 0.00000000000000000000 0.00000000000000000000 0.00000000000000000000 0.00000000000000000000 0.00000000000000000000 0.00000000000000000000 -0.00364900460190705628 -0.03435993257401640660 -0.04584866729893737058  0.00019092400213063934  0.00007411384303512088 -0.00015982714865371941 1.12114774428256658290 2.07337259117511463202 0.03605509665936724312 0.00002063314139488210 0.00001974270519576334 0.00001986956519793158
1520530319.800341 0.00000000000000000000 0.00000000000000000000 0.00000000000000000000 0.00000000000000000000 0.00000000000000000000 0.00000000000000000000 -0.00241565929219871890 -0.03565291736899479230 -0.04553268532172211058  0.00008863327472449844  0.00002247692003816486 -0.00006959258067539632 1.09190705755407546640 2.05207355035590621739 0.03591630730237637542 0.00002023102059971566 0.00001957071255736771 0.00001966637103297140
1520530319.900344 0.00000000000000000000 0.00000000000000000000 0.00000000000000000000 0.00000000000000000000 0.00000000000000000000 0.00000000000000000000 -0.00035313766465653164 -0.03502420123010648728 -0.04552771734401104414 -0.00004705592120287364 -0.00003374185229156271 -0.00008235557396342985 1.07386958197861814845 2.05168597468979729825 0.03574599910603919184 0.00001991426143854045 0.00001941850064021151 0.00001946332595926937
1520530320.000347 0.00000000000000000000 0.00000000000000000000 0.00000000000000000000 0.00000000000000000000 0.00000000000000000000 0.00000000000000000000  0.00624427842250983335 -0.03312997494202843396 -0.04600569409245049146 -0.00011573025843970770 -0.00010207670108732601 -0.00019498535307047851 1.06506510815186716812 2.05024671744964459563 0.03533238786660997804 0.00001975130261353799 0.00001930769295888066 0.00001933052501374769
1520530320.100350 0.00000000000000000000 0.00000000000000000000 0.00000000000000000000 0.00000000000000000000 0.00000000000000000000 0.00000000000000000000  0.01123426703492939015 -0.03566930842555064707 -0.04605943976649450045 -0.00010470652411350795 -0.00012874502507255348 -0.00017007813231259623 1.06031431490231242698 2.04251344349714347715 0.03474733093422986002 0.00001962444132664466 0.00001921268847896609 0.00001923318582356572
1520530320.200401 0.00000000000000000000 0.00000000000000000000 0.00000000000000000000 0.00000000000000000000 0.00000000000000000000 0.00000000000000000000  0.00806480626249704742 -0.03820709579216884089 -0.04588711447928522230 -0.00001054687693231358 -0.00008002992090569364 -0.00016893653824712190 1.05633638533155926886 2.03278866684422743205 0.03413307316251246171 0.00001946825765934272 0.00001912650033799963 0.00001916022187677602
1520530320.300404 0.00000000000000000000 0.00000000000000000000 0.00000000000000000000 0.00000000000000000000 0.00000000000000000000 0.00000000000000000000  0.00548531802779816946 -0.03762660003265758807 -0.04610090281535102891  0.00008668807136652619 -0.00004799061782303269 -0.00025753106025953952 1.04870922772859942462 2.01730575746777951451 0.03349915796806547663 0.00001930091963942302 0.00001902813254391242 0.00001903098273656337
1520530320.450408 0.00000000000000000000 0.00000000000000000000 0.00000000000000000000 0.00000000000000000000 0.00000000000000000000 0.00000000000000000000  0.00423060426168807378 -0.03683845574774432391 -0.04639762424803295371  0.00007498232269394223 -0.00003356814746767644 -0.00027266463608068795 1.02877119893112367599 1.96953072404964402153 0.03252303974278448334 0.00001911963065437185 0.00001889004675325695 0.00001885465042222900
1520530320.599869 0.00000000000000000000 0.00000000000000000000 0.00000000000000000000 0.00000000000000000000 0.00000000000000000000 0.00000000000000000000  0.00291994714344727836 -0.03444020488750840214 -0.04704736495425805576  0.00006288741765274387 -0.00005983633040084763 -0.00032514413875210006 0.99442969141462100868 1.86116189848161783793 0.03121548053348267501 0.00001908569180166266 0.00001880177835930277 0.00001878133932706995
1520530320.749874 0.00000000000000000000 0.00000000000000000000 0.00000000000000000000 0.00000000000000000000 0.00000000000000000000 0.00000000000000000000  0.00180514689806353899 -0.03828090490590801281 -0.04712557034523592869  0.00013561306766359917 -0.00004523095770791078 -0.00036564998726802732 0.94729167619710330506 1.69917313821194571055 0.02971638786147647385 0.00001898267571577089 0.00001866302618562070 0.00001866717378117273
1520530320.899879 0.00000000000000000000 0.00000000000000000000 0.00000000000000000000 0.00000000000000000000 0.00000000000000000000 0.00000000000000000000  0.00056475442400069045 -0.04067673862253554096 -0.04699296275851112814  0.00022594844447270253 -0.00005929364472589765 -0.00037121815556653191 0.89384152878709433043 1.53757204012772374924 0.02830286505106060710 0.00001872218076663370 0.00001850271638832221 0.00001848450948425813
1520530321.049740 0.00000000000000000000 0.00000000000000000000 0.00000000000000000000 0.00000000000000000000 0.00000000000000000000 0.00000000000000000000  0.00116439456984816889 -0.03717535125927356326 -0.04737260907704588658  0.00017247134184353056  0.00004538470594555512 -0.00036150160212592293 0.84041659249663036579 1.41964067045736741512 0.02724027744564532644 0.00001865867887270269 0.00001840105490008366 0.00001841407333914577
1520530321.199745 0.00000000000000000000 0.00000000000000000000 0.00000000000000000000 0.00000000000000000000 0.00000000000000000000 0.00000000000000000000  0.00230288752959631818 -0.03878625128621875084 -0.04736098293975072454  0.00020337025133535449  0.00004998785851744537 -0.00032711401249489210 0.78995890986656469579 1.33105412804317979614 0.02641506530973078762 0.00001866142563471055 0.00001835460801688023 0.00001838301353652377
1520530321.349750 0.00000000000000000000 0.00000000000000000000 0.00000000000000000000 0.00000000000000000000 0.00000000000000000000 0.00000000000000000000  0.00173676989613813200 -0.03867261119505496086 -0.04720194987119391561  0.00022437260662817445  0.00004824912748616512 -0.00030534894700130294 0.74391971942400003659 1.24539181942196242048 0.02557430656777331252 0.00001868570650734381 0.00001829652449937468 0.00001830270482008567
1520530321.499857 0.00000000000000000000 0.00000000000000000000 0.00000000000000000000 0.00000000000000000000 0.00000000000000000000 0.00000000000000000000  0.00112208060695862715 -0.03555625909447439337 -0.04735463974663155912  0.00027665887728111678  0.00000355923322363705 -0.00030173204671048669 0.70308496858029878585 1.16432748142642972233 0.02467443106818022550 0.00001858289352032947 0.00001818722215138423 0.00001819449709967156
1520530321.599860 0.00000000000000000000 0.00000000000000000000 0.00000000000000000000 0.00000000000000000000 0.00000000000000000000 0.00000000000000000000  0.00003757392665438016 -0.03585277229693612649 -0.04748019347157279857  0.00027609028524357187 -0.00002275007428608326 -0.00033007275033113196 0.68109283628028483015 1.11662026252997459430 0.02416414480587836949 0.00001860378450993894 0.00001813809029800518 0.00001817074653313516
1520530321.699863 0.00000000000000000000 0.00000000000000000000 0.00000000000000000000 0.00000000000000000000 0.00000000000000000000 0.00000000000000000000  0.00002344707136879394 -0.03590622764485178892 -0.04735395932268491453  0.00027349095157416748 -0.00003357219612323143 -0.00034516327936261979 0.65927411857347806290 1.06799263913916342439 0.02356898190554844452 0.00001854953599457860 0.00001806061616600583 0.00001810348361537495
1520530321.799867 0.00000000000000000000 0.00000000000000000000 0.00000000000000000000 0.00000000000000000000 0.00000000000000000000 0.00000000000000000000  0.00159588530276852619 -0.03728956837000090008 -0.04691625271652961893  0.00023993592052176332 -0.00005679057905291192 -0.00033133229790654372 0.63787545363582975888 1.02397353191226248015 0.02289205272586690432 0.00001861234821002802 0.00001800226726360334 0.00001811172714094887
1520530321.900154 0.00000000000000000000 0.00000000000000000000 0.00000000000000000000 0.00000000000000000000 0.00000000000000000000 0.00000000000000000000  0.00318160755820958612 -0.03797877024302589999 -0.04692176552383214849  0.00011184029699057944 -0.00000773909596674257 -0.00032488740834190521 0.61731739906238147775 0.98081405269693833215 0.02224779361765831173 0.00001850589785178176 0.00001787589877637900 0.00001799866325342986
1520530322.050158 0.00000000000000000000 0.00000000000000000000 0.00000000000000000000 0.00000000000000000000 0.00000000000000000000 0.00000000000000000000  0.00441223114572070804 -0.03529215576149138944 -0.04742391365470692566  0.00001520128199437290  0.00002961136089368368 -0.00034729739050040978 0.58738981500436038274 0.92670006986752573308 0.02134853340520382822 0.00001841003776686258 0.00001774495387862405 0.00001790082255924200
1520530322.200163 0.00000000000000000000 0.00000000000000000000 0.00000000000000000000 0.00000000000000000000 0.00000000000000000000 0.00000000000000000000  0.00541039930847083197 -0.03248844215512793759 -0.04820175437268783836  0.00004473476855265004  0.00004984668558258310 -0.00037318281478041784 0.55999710611005160121 0.88799701940569508718 0.02072348580852142325 0.00001827125596145820 0.00001763030809774762 0.00001779804634629623
1520530322.400212 0.00000000000000000000 0.00000000000000000000 0.00000000000000000000 0.00000000000000000000 0.00000000000000000000 0.00000000000000000000  0.00505569837800792267 -0.02976234935723427039 -0.04886386004726159249  0.00007426675338712913  0.00005271344746796981 -0.00037979726001213728 0.52803954473084857568 0.85323019684190182232 0.02029125229550092502 0.00001809985485012003 0.00001750185035258753 0.00001767716079407096
1520530322.600218 0.00000000000000000000 0.00000000000000000000 0.00000000000000000000 0.00000000000000000000 0.00000000000000000000 0.00000000000000000000  0.00318138127568782158 -0.02967399864323231815 -0.04876323975792019871  0.00012342349655624260 -0.00000815137022671675 -0.00037247971744650455 0.50204311666031875561 0.82237699914252770927 0.02008916593593965128 0.00001796279160200714 0.00001739226851719874 0.00001757964081851072
1520530322.750027 0.00000000000000000000 0.00000000000000000000 0.00000000000000000000 0.00000000000000000000 0.00000000000000000000 0.00000000000000000000  0.00302507606359916697 -0.02909374421870296323 -0.04897872852276999311  0.00014435865194632435  0.00000697136695837538 -0.00037617902962867780 0.48642213831260899815 0.80520939278240555304 0.02011875903125534895 0.00001786418654983182 0.00001732708739158849 0.00001751011333596563
1520530322.900065 0.00000000000000000000 0.00000000000000000000 0.00000000000000000000 0.00000000000000000000 0.00000000000000000000 0.00000000000000000000  0.00308776406941975749 -0.02879279831227843714 -0.04890915436216406592  0.00014582926681961758  0.00002778648993570485 -0.00038481021970743115 0.47393121839035889931 0.79240075380437435815 0.02015026923156096675 0.00001777172067214340 0.00001726832992160229 0.00001746973647243905
1520530323.050036 0.00000000000000000000 0.00000000000000000000 0.00000000000000000000 0.00000000000000000000 0.00000000000000000000 0.00000000000000000000  0.00484804831120026845 -0.02870338549504330983 -0.04905184760841643787  0.00018523947623589067  0.00002432542761642043 -0.00035035502731258498 0.46425283871579553496 0.78127069216233624438 0.02016230107886003015 0.00001766453405737129 0.00001720730898931619 0.00001736128633720744
1520530323.200077 0.00000000000000000000 0.00000000000000000000 0.00000000000000000000 0.00000000000000000000 0.00000000000000000000 0.00000000000000000000  0.00462522418238445199 -0.02665090883865414359 -0.04912182805457132595  0.00015687119201066740 -0.00003479743186565743 -0.00029112084516123214 0.45665481225817211586 0.76999718592971333475 0.02012679786560920420 0.00001752530862509770 0.00001713259985195718 0.00001724375799672433
1520530323.350082 0.00000000000000000000 0.00000000000000000000 0.00000000000000000000 0.00000000000000000000 0.00000000000000000000 0.00000000000000000000  0.00828584312404377632 -0.02478537551252759860 -0.04857417463677633079  0.00013179428791275185 -0.00004425775008208297 -0.00040307848577142853 0.45184773250787624299 0.75923868454149756602 0.01991261298431470234 0.00001751157676609299 0.00001706468292949220 0.00001715747514773681
1520530323.450085 0.00000000000000000000 0.00000000000000000000 0.00000000000000000000 0.00000000000000000000 0.00000000000000000000 0.00000000000000000000  0.00647819441865563322 -0.02486906191286373038 -0.04834428441899180084  0.00001869757137551804 -0.00003041015660425392 -0.00039507445764303234 0.44827085280864675809 0.74528568055156463323 0.01967437582950703340 0.00001739015516281858 0.00001698847492981536 0.00001705687369456842
1520530323.550346 0.00000000000000000000 0.00000000000000000000 0.00000000000000000000 0.00000000000000000000 0.00000000000000000000 0.00000000000000000000  0.00515725438058473127 -0.02483584897402477121 -0.04865047460613097091 -0.00005552487610334754  0.00000815955213123557 -0.00038979571664793090 0.44578298468816390798 0.73218693000547585559 0.01940848037079763791 0.00001726677307997132 0.00001689904489319926 0.00001695773331792591
1520530323.650349 0.00000000000000000000 0.00000000000000000000 0.00000000000000000000 0.00000000000000000000 0.00000000000000000000 0.00000000000000000000  0.00458478195068925086 -0.02513558185701967110 -0.04896552271026127778 -0.00000982095257231363  0.00000479413810841879 -0.00038315676974138153 0.44427623739613042453 0.72295220317642761021 0.01922118081901604339 0.00001716702984451044 0.00001683137792381827 0.00001684544340822333
1520530323.750353 0.00000000000000000000 0.00000000000000000000 0.00000000000000000000 0.00000000000000000000 0.00000000000000000000 0.00000000000000000000  0.00536931240264554993 -0.02510608721007873481 -0.04897565631957275650  0.00006068635770302992 -0.00002555374527688611 -0.00039210258524582556 0.44333661245926708760 0.71763300422728282246 0.01910141455904857885 0.00001710892477856284 0.00001677927128727780 0.00001676551962834755
1520530323.900153 0.00000000000000000000 0.00000000000000000000 0.00000000000000000000 0.00000000000000000000 0.00000000000000000000 0.00000000000000000000  0.00542149632436163525 -0.02536723185184513660 -0.04920588904080074738  0.00011004460374289732 -0.00006401180296737558 -0.00039700473897722811 0.44268398558220584116 0.71300721650975407151 0.01898980965161746470 0.00001706848852509960 0.00001672158710955916 0.00001670943670557824
1520530324.050157 0.00000000000000000000 0.00000000000000000000 0.00000000000000000000 0.00000000000000000000 0.00000000000000000000 0.00000000000000000000  0.00592647287763158840 -0.02533277685135029364 -0.04954765411120615193  0.00011154592262729132 -0.00005827134779030067 -0.00043088691177097188 0.44235497039014315401 0.70948280351741677130 0.01896589159349072740 0.00001700383467711038 0.00001665148532387753 0.00001665987409893520
1520530324.200162 0.00000000000000000000 0.00000000000000000000 0.00000000000000000000 0.00000000000000000000 0.00000000000000000000 0.00000000000000000000  0.00429722090307500023 -0.02720525896756803563 -0.04946905650044704922  0.00011061662632181365 -0.00000580254791360502 -0.00042941608860597006 0.44151767288206900108 0.70529237453597082297 0.01900072930994641321 0.00001686589478182551 0.00001657628514217817 0.00001659093699236649
1520530324.299908 0.00000000000000000000 0.00000000000000000000 0.00000000000000000000 0.00000000000000000000 0.00000000000000000000 0.00000000000000000000  0.00465554700628757930 -0.02768150262277282656 -0.04982230962789718776  0.00016473532868522918 -0.00000422781709296192 -0.00041253179804008605 0.44155483029646169779 0.70224799398463444433 0.01906385990243375170 0.00001684055816113016 0.00001655057993187900 0.00001658735044678812
1520530324.399911 0.00000000000000000000 0.00000000000000000000 0.00000000000000000000 0.00000000000000000000 0.00000000000000000000 0.00000000000000000000  0.00544899362035495844 -0.02841144780215309334 -0.05013882277524200209  0.00022966861673362563 -0.00003217426820872046 -0.00042180443457776854 0.44159247398065831769 0.69862487227594671779 0.01914732268823208725 0.00001680965435385911 0.00001651319704462952 0.00001657215307009837
1520530324.499994 0.00000000000000000000 0.00000000000000000000 0.00000000000000000000 0.00000000000000000000 0.00000000000000000000 0.00000000000000000000  0.00286904643684505502 -0.02826163442588269098 -0.04979925486825768910  0.00023798574970322365 -0.00005249189567626390 -0.00042815497475424394 0.44155815188546726491 0.69554841306385484234 0.01922242472707542948 0.00001677630416972300 0.00001646719709375808 0.00001651768061967932
1520530324.599917 0.00000000000000000000 0.00000000000000000000 0.00000000000000000000 0.00000000000000000000 0.00000000000000000000 0.00000000000000000000 -0.00009732472212746360 -0.02925729102948625843 -0.04953590166043633086  0.00023916850522003876 -0.00003080404658276936 -0.00041511498404928559 0.44078566494343596194 0.69161663961079500318 0.01930439475327432736 0.00001676648878457739 0.00001642699890695547 0.00001646980452876865
1520530324.700018 0.00000000000000000000 0.00000000000000000000 0.00000000000000000000 0.00000000000000000000 0.00000000000000000000 0.00000000000000000000 -0.00060077589199188563 -0.03069775274468678275 -0.04944544086215293954  0.00020371990848609854 -0.00004061982385439121 -0.00041472222155914155 0.44003313682733485868 0.68852340111515031307 0.01935286136511853855 0.00001676222593543486 0.00001638443349278665 0.00001644409191535746
1520530324.850023 0.00000000000000000000 0.00000000000000000000 0.00000000000000000000 0.00000000000000000000 0.00000000000000000000 0.00000000000000000000 -0.00245094636867258754 -0.03073674583497551516 -0.04921571796881110683  0.00018206574554431823 -0.00003440251530746463 -0.00042428967030459905 0.43816565771650145544 0.68508211779820737952 0.01936482110037717613 0.00001668576308127029 0.00001633205862354034 0.00001639754626141523
1520530325.000028 0.00000000000000000000 0.00000000000000000000 0.00000000000000000000 0.00000000000000000000 0.00000000000000000000 0.00000000000000000000 -0.00248018646841961787 -0.02950816794718754896 -0.04947327251602278569  0.00014711964726722663 -0.00004642270512394243 -0.00040361247738809420 0.43603018050026909336 0.68204424422359999358 0.01928696637331516611 0.00001665217786695040 0.00001629824280925548 0.00001637521484588896
1520530325.100816 0.00000000000000000000 0.00000000000000000000 0.00000000000000000000 0.00000000000000000000 0.00000000000000000000 0.00000000000000000000 -0.00197049921655282614 -0.02879337955540946584 -0.04965082689574818603  0.00013640255585093642 -0.00004474012218426999 -0.00036494677360457650 0.43364145985159480157 0.67906849749060627097 0.01920102702432999187 0.00001651424726596732 0.00001621723790192412 0.00001626925802480194
1520530325.300822 0.00000000000000000000 0.00000000000000000000 0.00000000000000000000 0.00000000000000000000 0.00000000000000000000 0.00000000000000000000 -0.00144438661386045962 -0.02796849881719036882 -0.04974048514937987053  0.00017630981535449939 -0.00009058494346405834 -0.00026929202333231977 0.42863232169225767842 0.67056906211582079091 0.01894668514688540098 0.00001645290686167908 0.00001615613107427800 0.00001619093884706005
1520530325.500828 0.00000000000000000000 0.00000000000000000000 0.00000000000000000000 0.00000000000000000000 0.00000000000000000000 0.00000000000000000000 -0.00218875967747251231 -0.02969447529531784799 -0.04914419796309150990  0.00010999877252091993 -0.00007782977788705505 -0.00029433627025021605 0.42252162209768878709 0.65628439594647958177 0.01838249151803946282 0.00001635373996913445 0.00001607233848104463 0.00001609307984897834
1520530325.700918 0.00000000000000000000 0.00000000000000000000 0.00000000000000000000 0.00000000000000000000 0.00000000000000000000 0.00000000000000000000 -0.00044142438424052269 -0.02859412603294806191 -0.04955739515377898669  0.00006479903655697141 -0.00013868092429858276 -0.00035586333677188039 0.41840516372116814958 0.64396363660122990513 0.01790103098690571867 0.00001627741034379816 0.00001600015219775304 0.00001602024257008928
1520530325.900924 0.00000000000000000000 0.00000000000000000000 0.00000000000000000000 0.00000000000000000000 0.00000000000000000000 0.00000000000000000000 -0.00020637536019262569 -0.02701445437099980404 -0.05021453049124203344  0.00011524940087691610 -0.00010805305608295441 -0.00041559899768911778 0.41484634875722392611 0.63863857467888829333 0.01766421702516584105 0.00001624909365491837 0.00001593918614590449 0.00001595280173266768
1520530326.000543 0.00000000000000000000 0.00000000000000000000 0.00000000000000000000 0.00000000000000000000 0.00000000000000000000 0.00000000000000000000  0.00076429663370187453 -0.02629361074008580365 -0.05033042087329091946  0.00012095636237100991 -0.00009434341796251573 -0.00041941063834781390 0.41285779220581569904 0.63684803334085005044 0.01761635327295696385 0.00001626485234090705 0.00001592093492272235 0.00001593297856703876
1520530326.150548 0.00000000000000000000 0.00000000000000000000 0.00000000000000000000 0.00000000000000000000 0.00000000000000000000 0.00000000000000000000  0.00021279159886224952 -0.02551663018780859007 -0.05060388328120516560  0.00017878949329737040 -0.00007618230290819151 -0.00038091250590375223 0.41082045724316473834 0.63472530794288284373 0.01765622569936982703 0.00001624063788708486 0.00001587802850652750 0.00001588863904481298
1520530326.300552 0.00000000000000000000 0.00000000000000000000 0.00000000000000000000 0.00000000000000000000 0.00000000000000000000 0.00000000000000000000 -0.00045525697639725062 -0.02532100743992710470 -0.05031397860056111004  0.00020562459539284449 -0.00008390250442627620 -0.00035566716649262974 0.40792376933811147488 0.63190599137333158808 0.01767243299481782021 0.00001622061244446655 0.00001583495589884725 0.00001585649743047580
1520530326.400206 0.00000000000000000000 0.00000000000000000000 0.00000000000000000000 0.00000000000000000000 0.00000000000000000000 0.00000000000000000000 -0.00151264205837155154 -0.02517999898100047387 -0.05013703734832104103  0.00020701693032517285 -0.00006522490306006311 -0.00037558308662504467 0.40587523321861607162 0.62972164854835566139 0.01767764877428116416 0.00001623593153465210 0.00001582054854000620 0.00001585248473827002
1520530326.600213 0.00000000000000000000 0.00000000000000000000 0.00000000000000000000 0.00000000000000000000 0.00000000000000000000 0.00000000000000000000 -0.00206359542040358271 -0.02482138467557548633 -0.04995917482597576204  0.00022000144189817902 -0.00008493133529149306 -0.00037929250499226267 0.40114037502444060967 0.62379293028722015979 0.01767728319352706093 0.00001629075265023599 0.00001578395053854048 0.00001584676694840316
1520530326.750427 0.00000000000000000000 0.00000000000000000000 0.00000000000000000000 0.00000000000000000000 0.00000000000000000000 0.00000000000000000000 -0.00261012213897154639 -0.02281504547371874386 -0.04951086206884511287  0.00015849393707834946 -0.00002948681186410803 -0.00040103374555684176 0.39708417045867150375 0.61812369308226899900 0.01763947723690753935 0.00001628964381902460 0.00001573980647779906 0.00001581421503318157
1520530326.950432 0.00000000000000000000 0.00000000000000000000 0.00000000000000000000 0.00000000000000000000 0.00000000000000000000 0.00000000000000000000 -0.00290950459234541993 -0.02164209003556031435 -0.04905287800084583844  0.00002476476895723726  0.00002988665815338667 -0.00035393274322750460 0.38995890227080765023 0.60637902209201544057 0.01744585538201603309 0.00001627189496520343 0.00001568050889048345 0.00001575988744174715
1520530327.100437 0.00000000000000000000 0.00000000000000000000 0.00000000000000000000 0.00000000000000000000 0.00000000000000000000 0.00000000000000000000 -0.00259997265745279650 -0.01949658181501392334 -0.04946477862618838678  0.00000021194963067126  0.00005623762513386738 -0.00030595309044833402 0.38346605206900158391 0.59749369778291783195 0.01728062530111173709 0.00001623917177425301 0.00001564853396070053 0.00001572377861710590
1520530327.200433 0.00000000000000000000 0.00000000000000000000 0.00000000000000000000 0.00000000000000000000 0.00000000000000000000 0.00000000000000000000 -0.00159806795640603889 -0.01866811653276184008 -0.05001932351122646142  0.00002551593311681514 -0.00001545092875027923 -0.00028086857985284384 0.37950796588002799758 0.59398549245533216467 0.01724555287388640848 0.00001615022639749183 0.00001562201331301532 0.00001568568145979672
1520530327.350437 0.00000000000000000000 0.00000000000000000000 0.00000000000000000000 0.00000000000000000000 0.00000000000000000000 0.00000000000000000000 -0.00051730831112491919 -0.01892783317849938002 -0.05058871721273389133  0.00011161371548282277 -0.00007733273182215878 -0.00023776072446129309 0.37309473762113509743 0.59051879199880019655 0.01720548155261968429 0.00001611834120979559 0.00001559236184808551 0.00001566932153525180
1520530327.500442 0.00000000000000000000 0.00000000000000000000 0.00000000000000000000 0.00000000000000000000 0.00000000000000000000 0.00000000000000000000 -0.00046445549374145290 -0.02031762474673995747 -0.05060350916594928694  0.00013636865037159812 -0.00004743970824205369 -0.00014410068138591918 0.36748166413730865010 0.58755618883054183677 0.01725615814030933073 0.00001611296091167225 0.00001556672378239965 0.00001566231855268642
1520530327.550090 0.00000000000000000000 0.00000000000000000000 0.00000000000000000000 0.00000000000000000000 0.00000000000000000000 0.00000000000000000000 -0.00130832531060853623 -0.01940015520567487176 -0.05057063820237840679  0.00014311456447301676 -0.00003209965587865123 -0.00011384348583021419 0.36596718627277313729 0.58632450355660503671 0.01728508067285387806 0.00001605586711185949 0.00001556161305410525 0.00001565059600955779
1520530327.650103 0.00000000000000000000 0.00000000000000000000 0.00000000000000000000 0.00000000000000000000 0.00000000000000000000 0.00000000000000000000 -0.00199430661356202188 -0.01885054297900317505 -0.05087017317525823618  0.00015321524039732442 -0.00001971132524884230 -0.00007151124092913199 0.36346580404160533373 0.58459545065502604988 0.01733617586978986047 0.00001600677223228848 0.00001556030669698097 0.00001564866414592785
1520530327.750096 0.00000000000000000000 0.00000000000000000000 0.00000000000000000000 0.00000000000000000000 0.00000000000000000000 0.00000000000000000000 -0.00346994618532807560 -0.01846802973110009058 -0.05064467495749594428  0.00014785364671551397 -0.00007301921056769777  0.00001201700913433712 0.36197650403386449902 0.58371034628340834338 0.01737913331294890090 0.00001600126565152480 0.00001555382748190876 0.00001565028798180682
1520530327.850099 0.00000000000000000000 0.00000000000000000000 0.00000000000000000000 0.00000000000000000000 0.00000000000000000000 0.00000000000000000000 -0.00404584357228314397 -0.01710889889183647011 -0.05007993668462135117  0.00009272933797847099 -0.00011088969984475341  0.00000511594592706003 0.36150152919166356202 0.58336779605408961569 0.01736342222999938747 0.00001601022965936480 0.00001553715592571722 0.00001565215186742248
1520530327.950102 0.00000000000000000000 0.00000000000000000000 0.00000000000000000000 0.00000000000000000000 0.00000000000000000000 0.00000000000000000000 -0.00140330553337474333 -0.01614109690340021289 -0.05003688419748932026 -0.00001978863727923040 -0.00015750453954123804 -0.00007662199513579274 0.36069987419386978500 0.58114825063603225974 0.01726397316161237122 0.00001602873729175189 0.00001552377228582221 0.00001564755564347520
1520530328.050282 0.00000000000000000000 0.00000000000000000000 0.00000000000000000000 0.00000000000000000000 0.00000000000000000000 0.00000000000000000000 -0.00116451961585519207 -0.01669886053888998412 -0.05013403704805143718 -0.00003262342989659831 -0.00014756727525224090 -0.00011115865504463486 0.35933514731085519633 0.57614505557493067567 0.01710366011301365716 0.00001606363227391533 0.00001551811426126666 0.00001567611287110397
1520530328.150285 0.00000000000000000000 0.00000000000000000000 0.00000000000000000000 0.00000000000000000000 0.00000000000000000000 0.00000000000000000000 -0.00121115121097780244 -0.01573088015680389543 -0.05049012513636682437  0.00001912511492834747 -0.00013261068057226550 -0.00016834475062692806 0.35575035001482707697 0.56807011600989298916 0.01691499601829763583 0.00001603962253677960 0.00001553237278203709 0.00001570130826581837
1520530328.300290 0.00000000000000000000 0.00000000000000000000 0.00000000000000000000 0.00000000000000000000 0.00000000000000000000 0.00000000000000000000 -0.00273481070816312174 -0.01184453883525941192 -0.05117111644836010165  0.00015072638952693052 -0.00006609546588886447 -0.00043946078963501837 0.34457903110303139682 0.54989895579608127907 0.01661200418128312706 0.00001598311498374643 0.00001552339489439182 0.00001568827932529086
1520530328.350291 0.00000000000000000000 0.00000000000000000000 0.00000000000000000000 0.00000000000000000000 0.00000000000000000000 0.00000000000000000000 -0.00154297620608211420 -0.01379621136381397814 -0.05098534427002401198  0.00021670276179577911 -0.00007523544579680634 -0.00055151205227710093 0.33929726524210374050 0.54244670339885936450 0.01650476435688606053 0.00001594027882621298 0.00001552297552209205 0.00001562577253504952
1520530328.450338 0.00000000000000000000 0.00000000000000000000 0.00000000000000000000 0.00000000000000000000 0.00000000000000000000 0.00000000000000000000 -0.00092322428424691631 -0.01481116322329965006 -0.05090532045493254693  0.00021174636664725405 -0.00004568410933678114 -0.00063035776853048752 0.32709207190510641849 0.52649601278887880884 0.01630080643741802990 0.00001594088532869815 0.00001552927453383453 0.00001560056321342985
1520530328.550342 0.00000000000000000000 0.00000000000000000000 0.00000000000000000000 0.00000000000000000000 0.00000000000000000000 0.00000000000000000000 -0.00052113274899518033 -0.01731964240026909532 -0.05064830084338342586  0.00011031472339983694  0.00002190481370672757 -0.00072808622620379991 0.31443653891109640819 0.51130192093495663297 0.01611209284571321967 0.00001586443820141926 0.00001553955881984350 0.00001549816590439848
1520530328.650346 0.00000000000000000000 0.00000000000000000000 0.00000000000000000000 0.00000000000000000000 0.00000000000000000000 0.00000000000000000000  0.00125621081049385542 -0.01972169012805335964 -0.05072000002861417473  0.00010001822317648518  0.00009220685412254428 -0.00079903838891654411 0.30314192541657986046 0.49755932858525353524 0.01593956966750572149 0.00001575287823725408 0.00001549752114296843 0.00001539697599423707
1520530328.750348 0.00000000000000000000 0.00000000000000000000 0.00000000000000000000 0.00000000000000000000 0.00000000000000000000 0.00000000000000000000  0.00140924931600802097 -0.02078247422344380035 -0.05081284937186254097  0.00013278444478315789  0.00011695158462567502 -0.00074858293372895464 0.29413943165328454432 0.48548471058140446610 0.01578299472107010798 0.00001561804853600631 0.00001547530073333320 0.00001533391868627399
1520530328.850087 0.00000000000000000000 0.00000000000000000000 0.00000000000000000000 0.00000000000000000000 0.00000000000000000000 0.00000000000000000000  0.00050023233073155247 -0.02553070481812032624 -0.05012069579603483510  0.00017417499497459940  0.00011875551250115401 -0.00057532515912769779 0.28801932268410496141 0.47517768031774770821 0.01563231015137118984 0.00001558293935841142 0.00001547905533972460 0.00001532787329578188
1520530329.000092 0.00000000000000000000 0.00000000000000000000 0.00000000000000000000 0.00000000000000000000 0.00000000000000000000 0.00000000000000000000  0.00488746181269921094 -0.02713514077027802396 -0.04992174536257626416  0.00017277258968173239  0.00003030889036989905 -0.00026816024348532010 0.28311530483263169788 0.46041693756708140794 0.01537408075424600944 0.00001558289774471953 0.00001546397919951358 0.00001532726097543126
1520530329.100095 0.00000000000000000000 0.00000000000000000000 0.00000000000000000000 0.00000000000000000000 0.00000000000000000000 0.00000000000000000000  0.00665670874075569453 -0.02708079783013977310 -0.05002063953738622448  0.00017090264858031387 -0.00000088305867909119 -0.00014793534112821278 0.28131956001681746038 0.45195629404686127328 0.01520900035385857295 0.00001554619174356463 0.00001545143569225427 0.00001529407178029851
1520530329.200044 0.00000000000000000000 0.00000000000000000000 0.00000000000000000000 0.00000000000000000000 0.00000000000000000000 0.00000000000000000000  0.00592516892221905869 -0.02860538326317458441 -0.04987491784736040878  0.00017006210607477447 -0.00003388484523301736 -0.00011960883702114465 0.28009661740311370126 0.44490411567195808917 0.01506399593292460058 0.00001558798047729523 0.00001548249413035890 0.00001529829765969914
1520530329.300047 0.00000000000000000000 0.00000000000000000000 0.00000000000000000000 0.00000000000000000000 0.00000000000000000000 0.00000000000000000000  0.00543516245811879583 -0.03006039416575824463 -0.04954771445274149672  0.00014648411984742249 -0.00009147760039279038 -0.00009819085778395723 0.27890982518261625556 0.43753139517303740735 0.01492328872913066713 0.00001566124157586006 0.00001550839035186575 0.00001533532321407782
1520530329.400050 0.00000000000000000000 0.00000000000000000000 0.00000000000000000000 0.00000000000000000000 0.00000000000000000000 0.00000000000000000000  0.00619303440285495256 -0.02685564810195350052 -0.04998013573501634832  0.00013883662519107500 -0.00012791196165293432 -0.00015907700795143176 0.27729019905219448594 0.42888102864316574037 0.01476842407054856574 0.00001563164135507842 0.00001547943401324106 0.00001535023189367877
1520530329.650099 0.00000000000000000000 0.00000000000000000000 0.00000000000000000000 0.00000000000000000000 0.00000000000000000000 0.00000000000000000000  0.00767105113599559577 -0.02309661199224375544 -0.05029079014249260293  0.00006086808239917891 -0.00024738880912886620 -0.00054622324587472681 0.27021412490392227035 0.40711687113173344876 0.01439641013524084120 0.00001559184921403293 0.00001542052348001219 0.00001534408704245095
1520530329.750102 0.00000000000000000000 0.00000000000000000000 0.00000000000000000000 0.00000000000000000000 0.00000000000000000000 0.00000000000000000000  0.01207401235903904184 -0.02663110720784582497 -0.04985907424441519964  0.00007028523403460843 -0.00025809924995433812 -0.00073805247242942002 0.26621609083199260226 0.39979347949307303400 0.01427913185102308059 0.00001550981230274377 0.00001538188867684079 0.00001527820815645321
1520530329.850105 0.00000000000000000000 0.00000000000000000000 0.00000000000000000000 0.00000000000000000000 0.00000000000000000000 0.00000000000000000000  0.01155163966687633263 -0.02626937842291947670 -0.05014313066997487522  0.00012836081121224316 -0.00016928671596565963 -0.00069614612995032191 0.26214900466576684934 0.39440245231291443107 0.01419775344504956363 0.00001559202977636038 0.00001539471023544567 0.00001527561867134625
1520530329.950109 0.00000000000000000000 0.00000000000000000000 0.00000000000000000000 0.00000000000000000000 0.00000000000000000000 0.00000000000000000000  0.00940926678305157790 -0.02984863375741944255 -0.05022941266403724292  0.00017284620046687977 -0.00012035148250290128 -0.00067439191894250389 0.25767444103726783178 0.39138196472094327616 0.01417179223074100866 0.00001550135756380845 0.00001536534217562756 0.00001524742804794739
1520530330.050161 0.00000000000000000000 0.00000000000000000000 0.00000000000000000000 0.00000000000000000000 0.00000000000000000000 0.00000000000000000000  0.01120219916383443509 -0.02998090870803714683 -0.04994628533856013824  0.00022642063524828173  0.00007714016195998600 -0.00064204883165528358 0.25360904111529014582 0.39008953687016528766 0.01418355136897175330 0.00001549112100671120 0.00001534212486368893 0.00001525308821550695
1520530330.150164 0.00000000000000000000 0.00000000000000000000 0.00000000000000000000 0.00000000000000000000 0.00000000000000000000 0.00000000000000000000  0.01395260533835585709 -0.03229108319838613905 -0.04964759294910897625  0.00018915291732853013  0.00020609114512132795 -0.00063093710681014280 0.24939950012662137624 0.38925697210586734931 0.01422142547751050271 0.00001552853768921530 0.00001535209324986246 0.00001530618723126395
1520530330.200165 0.00000000000000000000 0.00000000000000000000 0.00000000000000000000 0.00000000000000000000 0.00000000000000000000 0.00000000000000000000  0.01624219539075778471 -0.03230981781301379974 -0.04948439760872515997  0.00017526824763147451  0.00024164816051251955 -0.00062914962778607981 0.24712332756634552977 0.38865213124951125678 0.01424652567565642437 0.00001553959961589219 0.00001535586735150574 0.00001530211427634727
1520530330.300169 0.00000000000000000000 0.00000000000000000000 0.00000000000000000000 0.00000000000000000000 0.00000000000000000000 0.00000000000000000000  0.01689255704806852734 -0.03043517689228387654 -0.04948408289890070949  0.00015446883523329163  0.00033659940407346559 -0.00063253836422077635 0.24302540505936590098 0.38670832493513823680 0.01428332823272788696 0.00001560604847996754 0.00001536632414003038 0.00001532416440922508
1520530330.400172 0.00000000000000000000 0.00000000000000000000 0.00000000000000000000 0.00000000000000000000 0.00000000000000000000 0.00000000000000000000  0.01566080078997215616 -0.03024379560223578942 -0.04965318801802473536  0.00013454462263693041  0.00039417990537329845 -0.00052806150171709346 0.23924032862981559067 0.38365200923092429575 0.01430855380359607153 0.00001563232520391150 0.00001536025151655756 0.00001533768706687340
1520530330.500788 0.00000000000000000000 0.00000000000000000000 0.00000000000000000000 0.00000000000000000000 0.00000000000000000000 0.00000000000000000000  0.01319398556318103488 -0.03040145283327201631 -0.04985621851721442482  0.00014115056373856355  0.00036128887023639719 -0.00030996357354359203 0.23591839124904825931 0.38037401005392279529 0.01432141891228190002 0.00001551823899105099 0.00001533223523772490 0.00001527467190653622
1520530330.600792 0.00000000000000000000 0.00000000000000000000 0.00000000000000000000 0.00000000000000000000 0.00000000000000000000 0.00000000000000000000  0.00997300988893585171 -0.02969824132070706529 -0.04977540898795076302  0.00020006659305365799  0.00026226462076332899 -0.00015194609319976485 0.23284633157835502026 0.37779976083712207835 0.01433767157640371617 0.00001545709761121538 0.00001532148263238409 0.00001525211827998351
1520530330.700795 0.00000000000000000000 0.00000000000000000000 0.00000000000000000000 0.00000000000000000000 0.00000000000000000000 0.00000000000000000000  0.00965519861555470121 -0.03188124745561474183 -0.04960140845247635460  0.00016367881005594496  0.00018188367976796642 -0.00004661718523061370 0.23013514871056614530 0.37598970754582944354 0.01435282833621889104 0.00001543173833974172 0.00001532729037698162 0.00001518923757947012
1520530330.800798 0.00000000000000000000 0.00000000000000000000 0.00000000000000000000 0.00000000000000000000 0.00000000000000000000 0.00000000000000000000  0.01081740414258326559 -0.03854675008090498178 -0.04925509263585881731 0.00018427284108664101 0.00005636066685095267 0.00002404304810147362 0.22768343627381881777 0.37486224903018766641 0.01437199679804748373 0.00001538517649652116 0.00001530150044661906 0.00001516326411703349
1520530330.850367 0.00000000000000000000 0.00000000000000000000 0.00000000000000000000 0.00000000000000000000 0.00000000000000000000 0.00000000000000000000  0.01086363390609159860 -0.03720743953152201577 -0.04931278687162180679  0.00021349577320910345 -0.00002586288599648513  0.00005171605419494803 0.22663015424501264938 0.37433915734794492858 0.01437873977340429175 0.00001539619859063534 0.00001529113161255813 0.00001518455579641996
1520530330.950279 0.00000000000000000000 0.00000000000000000000 0.00000000000000000000 0.00000000000000000000 0.00000000000000000000 0.00000000000000000000  0.01016186366329681345 -0.03753066112667859805 -0.04931693127831766887  0.00020749600297620830 -0.00017557479345074072 -0.00003199464375929348 0.22456839419036081495 0.37337071964565982096 0.01439097059745587937 0.00001545282350664828 0.00001528918432884313 0.00001526951001550495
1520530331.050282 0.00000000000000000000 0.00000000000000000000 0.00000000000000000000 0.00000000000000000000 0.00000000000000000000 0.00000000000000000000  0.01040890826786157811 -0.04107934274392252560 -0.04897864142955618560  0.00019193535045065413 -0.00020164074507047266 -0.00010564124312868269 0.22270991562039627043 0.37254548229613743127 0.01439960165298118447 0.00001547889568696807 0.00001528023416961513 0.00001527606815543724
1520530331.150285 0.00000000000000000000 0.00000000000000000000 0.00000000000000000000 0.00000000000000000000 0.00000000000000000000 0.00000000000000000000  0.01052072621462525961 -0.04210513403445292901 -0.04886586256082287028  0.00016073935232735094 -0.00028073579625331041 -0.00018915954656668720 0.22079396080119184642 0.37189313401134027615 0.01439804875454581481 0.00001547247851067248 0.00001527479900358452 0.00001525604932827594
1520530331.250735 0.00000000000000000000 0.00000000000000000000 0.00000000000000000000 0.00000000000000000000 0.00000000000000000000 0.00000000000000000000  0.01020117638001720450 -0.04109776166215970555 -0.04871490007402288352  0.00012444768574676425 -0.00035089045266376706 -0.00027928661185109242 0.21893312864912733984 0.37117675994938764683 0.01438253303270267160 0.00001544440234696620 0.00001525955685910885 0.00001523669553437426
1520530331.350738 0.00000000000000000000 0.00000000000000000000 0.00000000000000000000 0.00000000000000000000 0.00000000000000000000 0.00000000000000000000  0.01075290160815060847 -0.04141743993072263819 -0.04846141692802100054  0.00003675416371957550 -0.00041792528166107265 -0.00035946318632759986 0.21708062855256679557 0.37042483817373411670 0.01436311438412459646 0.00001543608220440185 0.00001525218691609993 0.00001524709225209494
1520530331.450741 0.00000000000000000000 0.00000000000000000000 0.00000000000000000000 0.00000000000000000000 0.00000000000000000000 0.00000000000000000000  0.01142973569156411316 -0.04048817899641708046 -0.04845890315769309925 -0.00000475095558964203 -0.00048119699836707774 -0.00043698990019509613 0.21527091425220873377 0.36980321809632116237 0.01434899558184573980 0.00001544282417453709 0.00001525125589118181 0.00001528489938219918
1520530331.550744 0.00000000000000000000 0.00000000000000000000 0.00000000000000000000 0.00000000000000000000 0.00000000000000000000 0.00000000000000000000  0.01266161802570783292 -0.03975756964573192581 -0.04866451759747608685  0.00004712530715920164 -0.00046124652313148394 -0.00055502886130875527 0.21353243451289730115 0.36927656999968977436 0.01435620713693885019 0.00001545155565876837 0.00001525474090866746 0.00001530005481828491
1520530331.650479 0.00000000000000000000 0.00000000000000000000 0.00000000000000000000 0.00000000000000000000 0.00000000000000000000 0.00000000000000000000  0.01230386804121074047 -0.04057626430020495195 -0.04876429144462961912  0.00009774694170474300 -0.00037243795681876261 -0.00062887614451781254 0.21185398253987494654 0.36846297521113369200 0.01440017424514722540 0.00001544920289070743 0.00001527675159658110 0.00001528176758519056
1520530331.700481 0.00000000000000000000 0.00000000000000000000 0.00000000000000000000 0.00000000000000000000 0.00000000000000000000 0.00000000000000000000  0.01154319264775579071 -0.04112514525813047023 -0.04878728291666237227  0.00012977644470979320 -0.00027944137875801661 -0.00062580281290374102 0.21104233544499784170 0.36785213805287519939 0.01443551790618562321 0.00001536959439022752 0.00001524774719222150 0.00001522701138773900
1520530331.800484 0.00000000000000000000 0.00000000000000000000 0.00000000000000000000 0.00000000000000000000 0.00000000000000000000 0.00000000000000000000  0.01084097907472374167 -0.04102094300747718275 -0.04881508997652549142  0.00014668462686152797 -0.00014188310513104619 -0.00061382713656529873 0.20941948152819916951 0.36587002721098244029 0.01453311610094682946 0.00001534497915208012 0.00001523938856420599 0.00001522770385254015
1520530331.900488 0.00000000000000000000 0.00000000000000000000 0.00000000000000000000 0.00000000000000000000 0.00000000000000000000 0.00000000000000000000  0.01049905989936503886 -0.03938384566129517900 -0.04882469622677040183  0.00017450143572660272  0.00001189907244757205 -0.00059828182934530021 0.20769457340621000352 0.36283269895782188641 0.01465367102494692132 0.00001534572991567938 0.00001522650055079599 0.00001523206197112492
1520530332.000491 0.00000000000000000000 0.00000000000000000000 0.00000000000000000000 0.00000000000000000000 0.00000000000000000000 0.00000000000000000000  0.01036540283680782368 -0.03739912674883750371 -0.04879325928243374855  0.00020841065240670949  0.00006769727794053209 -0.00056089926899953717 0.20583687969419592334 0.35932999168789331312 0.01477594996252593398 0.00001537758961271168 0.00001523394719661951 0.00001525206916185616
1520530332.100388 0.00000000000000000000 0.00000000000000000000 0.00000000000000000000 0.00000000000000000000 0.00000000000000000000 0.00000000000000000000  0.01053103756599022348 -0.03778593961480243568 -0.04857075492536543776  0.00021351404483521295  0.00009808629003590826 -0.00052372129487998729 0.20360028134295388158 0.35542210502354054658 0.01488908257040101428 0.00001542312577869145 0.00001525416777590054 0.00001526660955436507
1520530332.200392 0.00000000000000000000 0.00000000000000000000 0.00000000000000000000 0.00000000000000000000 0.00000000000000000000 0.00000000000000000000  0.01067300844545346350 -0.03878773725801643729 -0.04824727685156220830  0.00018150496254655050  0.00015722103313205553 -0.00045298784690272467 0.20095565943657486829 0.35107676764736611696 0.01498004171054462437 0.00001543888441823137 0.00001523649398946805 0.00001526153611770739
1520530332.300399 0.00000000000000000000 0.00000000000000000000 0.00000000000000000000 0.00000000000000000000 0.00000000000000000000 0.00000000000000000000  0.00944194007856466455 -0.03918157067067682547 -0.04811502558216435715  0.00008675093107529485  0.00021207532633817072 -0.00032512551122634175 0.19787004234414973247 0.34646169576728375050 0.01504493329430452338 0.00001544471647997819 0.00001524954782551787 0.00001526705549561848
1520530332.400401 0.00000000000000000000 0.00000000000000000000 0.00000000000000000000 0.00000000000000000000 0.00000000000000000000 0.00000000000000000000  0.00770980120802176611 -0.03914425951446164759 -0.04807977097442895503  0.00006449089615270058  0.00019819980170437669 -0.00023630391724668861 0.19438787873019491848 0.34209635737602100969 0.01509026793006413951 0.00001545105061812339 0.00001529074663175029 0.00001527016048972554
1520530332.450399 0.00000000000000000000 0.00000000000000000000 0.00000000000000000000 0.00000000000000000000 0.00000000000000000000 0.00000000000000000000  0.00656400772564341792 -0.03990956491753495233 -0.04804224107019267748  0.00007069926347794971  0.00018470242200916974 -0.00018313010109192570 0.19245699928895790287 0.33981032590977494623 0.01511082411157657970 0.00001543150690655263 0.00001529629759656812 0.00001527112260306922
1520530332.550483 0.00000000000000000000 0.00000000000000000000 0.00000000000000000000 0.00000000000000000000 0.00000000000000000000 0.00000000000000000000  0.00542962697020920280 -0.04211736961158108611 -0.04794622231687081793  0.00008422405912038227  0.00013520615497226372 -0.00013216058404267580 0.18856286335757366235 0.33529652711838542345 0.01513933792086595564 0.00001546905667829006 0.00001532851369390468 0.00001531777160796742
1520530332.600486 0.00000000000000000000 0.00000000000000000000 0.00000000000000000000 0.00000000000000000000 0.00000000000000000000 0.00000000000000000000  0.00468665285094773971 -0.04425167669746160604 -0.04799110325211189410  0.00009141786570626105  0.00008739418643443085 -0.00008528226535672597 0.18655039086791200265 0.33305078475271993055 0.01515159870164767622 0.00001541056935912500 0.00001528142042247874 0.00001524591843964120
1520530332.700489 0.00000000000000000000 0.00000000000000000000 0.00000000000000000000 0.00000000000000000000 0.00000000000000000000 0.00000000000000000000  0.00346842280849510298 -0.04753099464765150883 -0.04774956490643571944  0.00017167741652615297  0.00001889191802576849 -0.00005218307384323246 0.18262901826855398868 0.32864770435033946461 0.01517328332111274845 0.00001537156445683038 0.00001524890524554684 0.00001523886200540643
1520530332.800492 0.00000000000000000000 0.00000000000000000000 0.00000000000000000000 0.00000000000000000000 0.00000000000000000000 0.00000000000000000000  0.00173842924763068212 -0.04919905049590612978 -0.04745786400725533066  0.00024873173235336082 -0.00015464482236368017 -0.00005275355233751550 0.17886308574841100483 0.32430359056782787075 0.01519343473084569345 0.00001533265912659210 0.00001522195759745544 0.00001523501705436947
1520530332.900164 0.00000000000000000000 0.00000000000000000000 0.00000000000000000000 0.00000000000000000000 0.00000000000000000000 0.00000000000000000000  0.00055508554653940952 -0.05220389380405311697 -0.04708844369335912078  0.00025261415352182385 -0.00027156329199320799 -0.00007171427387000697 0.17536515624778095668 0.32103555611990280960 0.01520925071457464306 0.00001533306776203655 0.00001522977120854983 0.00001526249362713654
1520530333.000168 0.00000000000000000000 0.00000000000000000000 0.00000000000000000000 0.00000000000000000000 0.00000000000000000000 0.00000000000000000000 -0.00093301039215871030 -0.05459883283720045472 -0.04671347691270547053  0.00025764533187746711 -0.00036722138517147180 -0.00005867318556755732 0.17228877314090437767 0.31860613150138239469 0.01521172311865133346 0.00001532380791788411 0.00001521733155427483 0.00001528130815811746
1520530333.100171 0.00000000000000000000 0.00000000000000000000 0.00000000000000000000 0.00000000000000000000 0.00000000000000000000 0.00000000000000000000 -0.00333042636514102467 -0.05526957399491974621 -0.04605920354936993144  0.00025596012852367332 -0.00034098532699525696 -0.00003118036481321659 0.16972177103784855112 0.31714859182176136088 0.01519561177661621007 0.00001535440345145636 0.00001522096382270948 0.00001529274674789531
1520530333.200174 0.00000000000000000000 0.00000000000000000000 0.00000000000000000000 0.00000000000000000000 0.00000000000000000000 0.00000000000000000000 -0.00500365688739105342 -0.05693631183621944425 -0.04549073431248108063  0.00022081745428976994 -0.00031260250707652399 -0.00004336417746118533 0.16767738652019070766 0.31643285163605905375 0.01515776573934526569 0.00001540459415285604 0.00001523530888322572 0.00001530996701120882
1520530333.250175 0.00000000000000000000 0.00000000000000000000 0.00000000000000000000 0.00000000000000000000 0.00000000000000000000 0.00000000000000000000 -0.00495662498959894421 -0.05748478047328088592 -0.04547760241490897415  0.00016703450251887101 -0.00033476123753180861 -0.00006260136196217850 0.16688804766242146260 0.31627199866057614797 0.01512875073450864818 0.00001539026678887713 0.00001523548204445611 0.00001530396735737014
1520530333.350610 0.00000000000000000000 0.00000000000000000000 0.00000000000000000000 0.00000000000000000000 0.00000000000000000000 0.00000000000000000000 -0.00556611263445210697 -0.05837964966277037204 -0.04519656592452922506  0.00014747259947171158 -0.00036337845765545425 -0.00007519331976524371 0.16533348474412964957 0.31578402376964204157 0.01507491075096992379 0.00001543746996056497 0.00001525358326487357 0.00001535971476904890
1520530333.450613 0.00000000000000000000 0.00000000000000000000 0.00000000000000000000 0.00000000000000000000 0.00000000000000000000 0.00000000000000000000 -0.00500839082061098687 -0.05929069020490771585 -0.04519660693883877089  0.00019343396411110062 -0.00031108269402510834 -0.00008980149917559209 0.16361044932345938929 0.31492409598491444278 0.01502814831207924251 0.00001550496407463851 0.00001527965144007835 0.00001540828203950929
1520530333.650619 0.00000000000000000000 0.00000000000000000000 0.00000000000000000000 0.00000000000000000000 0.00000000000000000000 0.00000000000000000000 -0.00454187086725362909 -0.05893938690719226214 -0.04508484186383113906  0.00026208238551431423 -0.00033591842308442502 -0.00034719968963159176 0.15889418351624307046 0.30989113099689263864 0.01494431587128591116 0.00001571800068768952 0.00001543796048916407 0.00001563609095357488
1520530333.700541 0.00000000000000000000 0.00000000000000000000 0.00000000000000000000 0.00000000000000000000 0.00000000000000000000 0.00000000000000000000 -0.00669202243626180852 -0.06112500515370205417 -0.04476399836295788526  0.00021320661897949027 -0.00027393277965497589 -0.00052330214577807593 0.15732860712533602854 0.30766770939088528003 0.01491800699747791725 0.00001575853338920921 0.00001541561707906963 0.00001559366272868878
1520530333.800544 0.00000000000000000000 0.00000000000000000000 0.00000000000000000000 0.00000000000000000000 0.00000000000000000000 0.00000000000000000000 -0.00531426706026331096 -0.06247720285949193847 -0.04446491549769861218  0.00010896525661458288 -0.00015437414307066958 -0.00056032903850252249 0.15394534715826307947 0.30225917970893684261 0.01485932615212130076 0.00001581917936554620 0.00001542448785332705 0.00001570025026540567
1520530333.850545 0.00000000000000000000 0.00000000000000000000 0.00000000000000000000 0.00000000000000000000 0.00000000000000000000 0.00000000000000000000 -0.00368467082687538687 -0.06197837929326360101 -0.04456880566124535314  0.00007967966987851241 -0.00010118237274659708 -0.00051422655443036664 0.15254209414981612092 0.29918146886445845523 0.01480930351743430136 0.00001585660431221596 0.00001544417835340080 0.00001574340598144305
1520530333.950549 0.00000000000000000000 0.00000000000000000000 0.00000000000000000000 0.00000000000000000000 0.00000000000000000000 0.00000000000000000000 -0.00293121762647857330 -0.06232584571239482146 -0.04484026985444045793  0.00006602178132497639 -0.00002196594107808163 -0.00056047597069381542 0.14951153548007811711 0.29358459439432138538 0.01472509717785931878 0.00001587789708381305 0.00001550404527742104 0.00001581214987344837
1520530334.000561 0.00000000000000000000 0.00000000000000000000 0.00000000000000000000 0.00000000000000000000 0.00000000000000000000 0.00000000000000000000 -0.00077536873135466663 -0.06439075430916139930 -0.04482133800020749598  0.00011675449513967905 -0.00002675246816981370 -0.00059606271712490586 0.14815679915368085151 0.29121892376930774704 0.01467766194140161101 0.00001589314221557385 0.00001552440027562720 0.00001578258912174421
1520530334.100216 0.00000000000000000000 0.00000000000000000000 0.00000000000000000000 0.00000000000000000000 0.00000000000000000000 0.00000000000000000000 -0.00089372312473024016 -0.07029749093850329311 -0.04437917143811030696  0.00017963026858802475 -0.00008453349654671629 -0.00055668765471009966 0.14599911521752112487 0.28488062922543028188 0.01458056039495638986 0.00001595053725091869 0.00001554978902273813 0.00001582344009393360
1520530334.350224 0.00000000000000000000 0.00000000000000000000 0.00000000000000000000 0.00000000000000000000 0.00000000000000000000 0.00000000000000000000  0.00003898803347653095 -0.06594877830835452204 -0.04622714511379893976  0.00042221100257578586 -0.00024989845294599682 -0.00031929151533657504 0.14343299468541578778 0.27007159425913024320 0.01431913464465976900 0.00001607417713702554 0.00001551489508908861 0.00001586505846618501
1520530334.450227 0.00000000000000000000 0.00000000000000000000 0.00000000000000000000 0.00000000000000000000 0.00000000000000000000 0.00000000000000000000 -0.00064498120784176722 -0.06568665061900340330 -0.04548543774462332490  0.00056667489726674037 -0.00024493469455335568 -0.00017390469522254932 0.14303634528674050164 0.26639254078349039467 0.01423803522033341082 0.00001602114320464650 0.00001546592410487953 0.00001579341224759806
1520530334.550086 0.00000000000000000000 0.00000000000000000000 0.00000000000000000000 0.00000000000000000000 0.00000000000000000000 0.00000000000000000000  0.00012818979265226827 -0.06792247679001764404 -0.04529186717471932189  0.00052676936069891709 -0.00022083721054272124 -0.00016575064875745706 0.14285676959463952662 0.26409162208022179952 0.01417781704873515534 0.00001612098078049222 0.00001548581531442814 0.00001587330341957717
1520530334.650089 0.00000000000000000000 0.00000000000000000000 0.00000000000000000000 0.00000000000000000000 0.00000000000000000000 0.00000000000000000000  0.00128074296180202287 -0.06729628931514287926 -0.04554024583815827892  0.00048754212064988688 -0.00018106782849639641 -0.00017133890456637297 0.14285482635861726508 0.26349621928738070631 0.01415288823392352527 0.00001619716054870514 0.00001547270325170070 0.00001590567548270446
1520530334.750092 0.00000000000000000000 0.00000000000000000000 0.00000000000000000000 0.00000000000000000000 0.00000000000000000000 0.00000000000000000000  0.00190032733615782146 -0.06655848767916512643 -0.04557617872367045880  0.00052200262967476755 -0.00014244709458067703 -0.00017739766427253055 0.14286488478325590212 0.26245109349422501843 0.01413131624848676902 0.00001613670518916510 0.00001541934398109249 0.00001581971288621127
1520530334.850095 0.00000000000000000000 0.00000000000000000000 0.00000000000000000000 0.00000000000000000000 0.00000000000000000000 0.00000000000000000000  0.00245578209609110566 -0.06485795192400761744 -0.04561256904585090505  0.00060899806184138241 -0.00011548777976225573 -0.00021421224974058255 0.14292592921706009923 0.26160135853504085102 0.01414413529966116433 0.00001600458635842865 0.00001536113842589617 0.00001563712704506170
1520530334.950928 0.00000000000000000000 0.00000000000000000000 0.00000000000000000000 0.00000000000000000000 0.00000000000000000000 0.00000000000000000000  0.00195880812270579586 -0.06486582614012451065 -0.04499412990290327374  0.00043129902985203085 -0.00006290952722260497 -0.00031354507310510528 0.14295881889964856537 0.26069204037138432595 0.01418048657789850592 0.00001585487639713106 0.00001530442337504727 0.00001545005498769018
1520530335.100933 0.00000000000000000000 0.00000000000000000000 0.00000000000000000000 0.00000000000000000000 0.00000000000000000000 0.00000000000000000000  0.00123966207695048428 -0.06348771344083639634 -0.04449896660412894223  0.00006285540052071542 -0.00005365287334426450 -0.00036704183283691334 0.14303310588535655956 0.25909886497608841660 0.01426734073957771493 0.00001583513368896974 0.00001527981140120215 0.00001543681828505567
1520530335.200936 0.00000000000000000000 0.00000000000000000000 0.00000000000000000000 0.00000000000000000000 0.00000000000000000000 0.00000000000000000000  0.00203099199726198892 -0.06639152441649873171 -0.04474421057298950954 -0.00015708944322427861 -0.00014971181959211601 -0.00023261513433016159 0.14308626636130281073 0.25781612037067480614 0.01433990277138549180 0.00001613314668481091 0.00001536486578599231 0.00001572592962440224
1520530335.300938 0.00000000000000000000 0.00000000000000000000 0.00000000000000000000 0.00000000000000000000 0.00000000000000000000 0.00000000000000000000  0.00341289949875745987 -0.06610437716775889594 -0.04493017969624481939 -0.00023430383750576032 -0.00020647152625284480 -0.00023605081866481651 0.14307506978788028795 0.25617381450579684854 0.01442135387220082159 0.00001606920993347501 0.00001533145031091350 0.00001570281228920134
1520530335.401458 0.00000000000000000000 0.00000000000000000000 0.00000000000000000000 0.00000000000000000000 0.00000000000000000000 0.00000000000000000000  0.00414161053310831834 -0.06625918707059366697 -0.04505412717769643333 -0.00026755407607239088 -0.00022635127340565894 -0.00019887127744975334 0.14300577636266859072 0.25457758458614870856 0.01450321756217456959 0.00001591551401702209 0.00001530140216925590 0.00001564476455105957
1520530335.501461 0.00000000000000000000 0.00000000000000000000 0.00000000000000000000 0.00000000000000000000 0.00000000000000000000 0.00000000000000000000  0.00418694003153644110 -0.06678827491546013295 -0.04528383576652073028 -0.00024287453536381322 -0.00024120873091494123 -0.00015856530098238636 0.14290392041147600977 0.25335169723263706310 0.01457917636883287495 0.00001572131259356223 0.00001528394496804520 0.00001557305218422722
1520530335.601512 0.00000000000000000000 0.00000000000000000000 0.00000000000000000000 0.00000000000000000000 0.00000000000000000000 0.00000000000000000000  0.00345944373606747735 -0.06592972289260798369 -0.04508788625718797294 -0.00008689841295710348 -0.00018837044948957611 -0.00009501473237473396 0.14274867652514211525 0.25251901979000529463 0.01464816655952116617 0.00001593903627987488 0.00001533107481982740 0.00001564410941517646
1520530335.750223 0.00000000000000000000 0.00000000000000000000 0.00000000000000000000 0.00000000000000000000 0.00000000000000000000 0.00000000000000000000  0.00259121371613851414 -0.06737963269437698133 -0.04588261255132731337 -0.00003297375885964226 -0.00021204463553391748 -0.00008118666596233887 0.14239624139756157373 0.25213375057544118452 0.01472508545670522632 0.00001604325310354378 0.00001536671462721420 0.00001568615561660237
1520530335.900227 0.00000000000000000000 0.00000000000000000000 0.00000000000000000000 0.00000000000000000000 0.00000000000000000000 0.00000000000000000000  0.00334587235940707762 -0.06833237110251560997 -0.04652727027525712516  0.00014030022772008069 -0.00021561279637043944 -0.00001452585692966369 0.14192636764805971472 0.25207708734753264679 0.01478367804511180293 0.00001607369790477834 0.00001532931949194092 0.00001568229471776084
1520530336.000230 0.00000000000000000000 0.00000000000000000000 0.00000000000000000000 0.00000000000000000000 0.00000000000000000000 0.00000000000000000000  0.00346728517252306101 -0.06789869077965433874 -0.04632102443330866903  0.00036538306900035024 -0.00016490574279753772  0.00001522495930887663 0.14160915872603252463 0.25214887419271492242 0.01481049453238024623 0.00001595168310092446 0.00001530595213790977 0.00001561971402375872
1520530336.100233 0.00000000000000000000 0.00000000000000000000 0.00000000000000000000 0.00000000000000000000 0.00000000000000000000 0.00000000000000000000  0.00370480985991102031 -0.06758728923280396539 -0.04555326752212993796  0.00052474144124439563 -0.00010602250217958953  0.00009811097064614904 0.14124058608019313121 0.25215778466862948104 0.01483817749786251958 0.00001566961548874140 0.00001527719609107882 0.00001553141340767500
1520530336.200179 0.00000000000000000000 0.00000000000000000000 0.00000000000000000000 0.00000000000000000000 0.00000000000000000000 0.00000000000000000000  0.00488974791929893803 -0.06738027250999610585 -0.04510498827221531143  0.00049743647005059618 -0.00011372380881598741  0.00011389261816624793 0.14090183063232947225 0.25208546509868096086 0.01485424896883818374 0.00001562904181729166 0.00001531355547802857 0.00001551954242646146
1520530336.300182 0.00000000000000000000 0.00000000000000000000 0.00000000000000000000 0.00000000000000000000 0.00000000000000000000 0.00000000000000000000  0.00493487425194966828 -0.06800876315960181773 -0.04491806657852637219  0.00043659590775758738 -0.00016010520454196156  0.00018386531987855579 0.14056990622504794697 0.25160856083770816172 0.01485790316075001095 0.00001563007882915403 0.00001531762160671598 0.00001553113077638431
1520530336.400185 0.00000000000000000000 0.00000000000000000000 0.00000000000000000000 0.00000000000000000000 0.00000000000000000000 0.00000000000000000000  0.00482147794793919959 -0.06715180485031789492 -0.04435967620855543053  0.00037730122087617881 -0.00021571809547972371  0.00022658834275041936 0.14029431825361632358 0.25057914938172237695 0.01483104607590802516 0.00001559672249118837 0.00001528341875686049 0.00001553170834984705
1520530336.500188 0.00000000000000000000 0.00000000000000000000 0.00000000000000000000 0.00000000000000000000 0.00000000000000000000 0.00000000000000000000  0.00336205861899245518 -0.06550171824410951082 -0.04460781233879049235  0.00030264452864922371 -0.00025772405018128331  0.00019482580486727353 0.13990582358522102302 0.24928973255253886188 0.01478017393699605428 0.00001551602205844382 0.00001525470747124188 0.00001550235724175067
1520530336.600584 0.00000000000000000000 0.00000000000000000000 0.00000000000000000000 0.00000000000000000000 0.00000000000000000000 0.00000000000000000000  0.00207270734019450757 -0.06403109841530918445 -0.04525248018568656105  0.00023964532763006709 -0.00025022730372988955  0.00015956907760149056 0.13944513726672300158 0.24779402825342480843 0.01470767360313935887 0.00001537234713812622 0.00001521053881053012 0.00001539548283384264
1520530336.700586 0.00000000000000000000 0.00000000000000000000 0.00000000000000000000 0.00000000000000000000 0.00000000000000000000 0.00000000000000000000  0.00157768904505589799 -0.06371837299968556578 -0.04559301289459192358  0.00024945615687542926 -0.00018457874654158901  0.00010439350637980979 0.13885093794352831864 0.24647845848921129397 0.01464311839136695111 0.00001535058066134554 0.00001520643908343377 0.00001539672221446806
1520530336.800590 0.00000000000000000000 0.00000000000000000000 0.00000000000000000000 0.00000000000000000000 0.00000000000000000000 0.00000000000000000000  0.00144247365259038310 -0.06381400342123846881 -0.04581230424279584407  0.00028653426905531478 -0.00011247197998325385  0.00001066228788458040 0.13809575831536988200 0.24536196327475201517 0.01458686467760896173 0.00001533084979883933 0.00001519333507140656 0.00001534799558625572
1520530336.900594 0.00000000000000000000 0.00000000000000000000 0.00000000000000000000 0.00000000000000000000 0.00000000000000000000 0.00000000000000000000  0.00142193958779876181 -0.06438948311553709114 -0.04580225442373643541  0.00036349904635897453 -0.00012633285862484044 -0.00007670276336777363 0.13723482555827395957 0.24465418369947369848 0.01454852463401734401 0.00001533917642441817 0.00001519415504984749 0.00001531937573617172
1520530337.000258 0.00000000000000000000 0.00000000000000000000 0.00000000000000000000 0.00000000000000000000 0.00000000000000000000 0.00000000000000000000  0.00095719712291311818 -0.06442078938123198262 -0.04645003494070960165  0.00047026591971774883 -0.00011223844302191770 -0.00008682907877269830 0.13629409226618621753 0.24435118330080773941 0.01452387610282056610 0.00001534495889866779 0.00001519948439044067 0.00001531020818380352
1520530337.100266 0.00000000000000000000 0.00000000000000000000 0.00000000000000000000 0.00000000000000000000 0.00000000000000000000 0.00000000000000000000  0.00062732807003692572 -0.06422489909132607366 -0.04671433645156288644  0.00054720043152759813 -0.00010671246598591410 -0.00009779743757920812 0.13536347994413211460 0.24426458421346658456 0.01452951528581992828 0.00001535314504995319 0.00001518229927280454 0.00001529793613670745
1520530337.200351 0.00000000000000000000 0.00000000000000000000 0.00000000000000000000 0.00000000000000000000 0.00000000000000000000 0.00000000000000000000  0.00088544665038369386 -0.06429453342163123086 -0.04664611371528801231  0.00056452668603667114 -0.00007860143273055483 -0.00012792514047829247 0.13443892294740061866 0.24437557972590603916 0.01455381646810229718 0.00001539763033525249 0.00001519127975672796 0.00001531693280663270
1520530337.300267 0.00000000000000000000 0.00000000000000000000 0.00000000000000000000 0.00000000000000000000 0.00000000000000000000 0.00000000000000000000  0.00143921244457648114 -0.06447453960786617144 -0.04629871532408470769  0.00055211598256288484 -0.00008189826648911578 -0.00017645909848545930 0.13357771951342545247 0.24443826188958189816 0.01457783296646487751 0.00001546362452343981 0.00001522508008179585 0.00001535779976593713
1520530337.400301 0.00000000000000000000 0.00000000000000000000 0.00000000000000000000 0.00000000000000000000 0.00000000000000000000 0.00000000000000000000  0.00186364407037764666 -0.06490691667209981530 -0.04604501854894402918  0.00055166921636881129 -0.00010354138835882938 -0.00024835167393753393 0.13285015015398191074 0.24452883334751182587 0.01458314246665030553 0.00001557416180069990 0.00001526459821407994 0.00001541014784814752
1520530337.500304 0.00000000000000000000 0.00000000000000000000 0.00000000000000000000 0.00000000000000000000 0.00000000000000000000 0.00000000000000000000  0.00212823172087266100 -0.06531200578189112760 -0.04561728661399606227  0.00058335876133361537 -0.00009746967915263692 -0.00023177376137995169 0.13225011003825420941 0.24448433443179462543 0.01456953118243787919 0.00001573703767208012 0.00001532103156415724 0.00001550212816794679
1520530337.600307 0.00000000000000000000 0.00000000000000000000 0.00000000000000000000 0.00000000000000000000 0.00000000000000000000 0.00000000000000000000  0.00312175146934899487 -0.06651369115306986213 -0.04490901416609267144  0.00055987194333738366 -0.00009130723255683016 -0.00020461944718138354 0.13168648468916985261 0.24398870848747927775 0.01452281705582660065 0.00001581485918309573 0.00001537486933605203 0.00001555521342491310
1520530337.700310 0.00000000000000000000 0.00000000000000000000 0.00000000000000000000 0.00000000000000000000 0.00000000000000000000 0.00000000000000000000  0.00377441193505356851 -0.06714838012826056246 -0.04469795220436074273  0.00052707529808302528 -0.00002938388631201619 -0.00020867075241641093 0.13111910727198902715 0.24260416609067633753 0.01444954041967211507 0.00001588791076684486 0.00001538189437188627 0.00001563646996303381
1520530337.800854 0.00000000000000000000 0.00000000000000000000 0.00000000000000000000 0.00000000000000000000 0.00000000000000000000 0.00000000000000000000  0.00367584943224629314 -0.06696124056355257093 -0.04487735961590706701  0.00044386801542171332 -0.00009199897690245134 -0.00007990028730552840 0.13069216751480436378 0.24049004256410536073 0.01435211337850259353 0.00001592936187431586 0.00001533911367361166 0.00001563304193433696
1520530337.950858 0.00000000000000000000 0.00000000000000000000 0.00000000000000000000 0.00000000000000000000 0.00000000000000000000 0.00000000000000000000  0.00288453150813508400 -0.06647954351188151145 -0.04518820627252173594  0.00037695920196132495 -0.00008928020863338070  0.00000440388187082958 0.12979015290316045506 0.23707088979490995029 0.01424758448200819268 0.00001586810061166793 0.00001529396344424520 0.00001557448034998842
1520530338.050862 0.00000000000000000000 0.00000000000000000000 0.00000000000000000000 0.00000000000000000000 0.00000000000000000000 0.00000000000000000000  0.00233793550960602597 -0.06585166740872874791 -0.04561884450517064010  0.00031978559896700685 -0.00009851665462894490  0.00011536775599062307 0.12898897234705938852 0.23499051542032328710 0.01419735314100036873 0.00001581318737677877 0.00001526441159404264 0.00001553475854698389
1520530338.150864 0.00000000000000000000 0.00000000000000000000 0.00000000000000000000 0.00000000000000000000 0.00000000000000000000 0.00000000000000000000  0.00196777795331516637 -0.06378644626870383361 -0.04646066977868855419  0.00037854441582223751 -0.00014822609822791988  0.00016808663226749191 0.12810773792313184805 0.23298745165697487547 0.01414865517086507339 0.00001578310189292998 0.00001525163589033178 0.00001550263419158240
1520530338.200470 0.00000000000000000000 0.00000000000000000000 0.00000000000000000000 0.00000000000000000000 0.00000000000000000000 0.00000000000000000000  0.00134788649293527286 -0.06333711633486567572 -0.04676318205128610767  0.00043625343848397564 -0.00015685457681828427  0.00020452052999108121 0.12762891046547797380 0.23212706562319124215 0.01412473009660673157 0.00001576744649224152 0.00001525508540749652 0.00001550802594425452
1520530338.300474 0.00000000000000000000 0.00000000000000000000 0.00000000000000000000 0.00000000000000000000 0.00000000000000000000 0.00000000000000000000  0.00110278033528351345 -0.06257525714893881486 -0.04725859973647247858  0.00044881085510245185 -0.00014038547857500165  0.00024141907031262298 0.12650659857353852011 0.23057336458314026117 0.01409064400643577838 0.00001573810390149763 0.00001525775707643365 0.00001548085223657518
1520530338.400477 0.00000000000000000000 0.00000000000000000000 0.00000000000000000000 0.00000000000000000000 0.00000000000000000000 0.00000000000000000000  0.00074385007849420105 -0.06174310589197740812 -0.04750312883000754743  0.00044149129098117841 -0.00020321726791292484  0.00030397163996582496 0.12536207417749262172 0.22906612064482581581 0.01405719374456749181 0.00001561493121890271 0.00001522327631211101 0.00001540316439396975
1520530338.500480 0.00000000000000000000 0.00000000000000000000 0.00000000000000000000 0.00000000000000000000 0.00000000000000000000 0.00000000000000000000  0.00004720298822014101 -0.06148661099262901081 -0.04808418913734219952  0.00047468157305943022 -0.00024307319041179140  0.00029912575052338391 0.12422750224375089800 0.22777609777489296605 0.01403375389917591726 0.00001549394178544357 0.00001517029349224246 0.00001530753524991026
1520530338.600260 0.00000000000000000000 0.00000000000000000000 0.00000000000000000000 0.00000000000000000000 0.00000000000000000000 0.00000000000000000000 -0.00091021801140615929 -0.06122698311856117348 -0.04834330868543079696  0.00049579596470090634 -0.00024941658753149093  0.00025837757139361733 0.12314108060101283670 0.22651482353676694048 0.01402793146744494082 0.00001545672073804803 0.00001515697929169847 0.00001528124218450020
1520530338.700263 0.00000000000000000000 0.00000000000000000000 0.00000000000000000000 0.00000000000000000000 0.00000000000000000000 0.00000000000000000000 -0.00136286983964724806 -0.06024275493940316195 -0.04833779486704400941  0.00051959927282252405 -0.00022685116573658909  0.00024219959328078920 0.12214480592284229776 0.22531152496265383078 0.01403755053224888839 0.00001548538460600828 0.00001514969413360812 0.00001530633150742066
1520530338.800266 0.00000000000000000000 0.00000000000000000000 0.00000000000000000000 0.00000000000000000000 0.00000000000000000000 0.00000000000000000000 -0.00260518630824584747 -0.05920910378748948932 -0.04827100452049343932  0.00050732979497508960 -0.00018071544672369733  0.00023347983978436361 0.12129814062514110429 0.22411497201968869075 0.01405895981914400371 0.00001547934774375442 0.00001513979257399026 0.00001528827199063200
1520530338.900269 0.00000000000000000000 0.00000000000000000000 0.00000000000000000000 0.00000000000000000000 0.00000000000000000000 0.00000000000000000000 -0.00293018116152791649 -0.05953271897874162083 -0.04866773445850269136  0.00048339988047578085 -0.00018206855020609937  0.00022519619790540581 0.12056069585315262738 0.22325964279425331016 0.01408771668162568484 0.00001546469779897029 0.00001515284264858499 0.00001525749827717676
1520530339.000272 0.00000000000000000000 0.00000000000000000000 0.00000000000000000000 0.00000000000000000000 0.00000000000000000000 0.00000000000000000000 -0.00346602711323988795 -0.05927169801620509743 -0.04857119496133971426  0.00048920546669284847 -0.00015091244033735185  0.00021266452061382350 0.11998758073896240162 0.22232171806822770277 0.01412482695669534452 0.00001550116752377049 0.00001518245635323303 0.00001522762149123055
1520530339.100960 0.00000000000000000000 0.00000000000000000000 0.00000000000000000000 0.00000000000000000000 0.00000000000000000000 0.00000000000000000000 -0.00434640843346380604 -0.05852071643588920707 -0.04821490993864139402  0.00049412949144544461 -0.00011936174222022819  0.00025740173716940851 0.11957399932404230714 0.22150003892458008936 0.01416565120452733216 0.00001546798392981203 0.00001516517060475257 0.00001519452534705126
1520530339.150962 0.00000000000000000000 0.00000000000000000000 0.00000000000000000000 0.00000000000000000000 0.00000000000000000000 0.00000000000000000000 -0.00506476292503826170 -0.05856215509381171302 -0.04792329177616364011  0.00051976810130060309 -0.00005707220149637147  0.00028858258117194966 0.11944943900461243991 0.22105676629487078233 0.01418865361304341016 0.00001550042016547572 0.00001518667698831205 0.00001521905770047433
1520530339.250965 0.00000000000000000000 0.00000000000000000000 0.00000000000000000000 0.00000000000000000000 0.00000000000000000000 0.00000000000000000000 -0.00507955998975318825 -0.05849644459653922240 -0.04765068046974059446  0.00050795721736214311 -0.00007525998025080515  0.00030655332151938766 0.11929736584682947009 0.22064312975100738856 0.01423255213272870377 0.00001550317459649299 0.00001524501627434243 0.00001524198750640979
1520530339.350968 0.00000000000000000000 0.00000000000000000000 0.00000000000000000000 0.00000000000000000000 0.00000000000000000000 0.00000000000000000000 -0.00466347829810024716 -0.05859858200475027284 -0.04764994963713543169  0.00036731207942180524 -0.00011643890395526020  0.00029737124821188567 0.11927056362487988006 0.22026578506551550141 0.01427252405699125544 0.00001544799861962280 0.00001524742408576413 0.00001527666427894515
1520530339.451687 0.00000000000000000000 0.00000000000000000000 0.00000000000000000000 0.00000000000000000000 0.00000000000000000000 0.00000000000000000000 -0.00365596057542477530 -0.05789578264645928174 -0.04757347081718328596  0.00021470899399634956 -0.00014012507914862093  0.00027013088245497047 0.11929135637068008502 0.21978752990415256763 0.01430969585629034320 0.00001537967213664942 0.00001523727521481043 0.00001526505220037298
1520530339.551690 0.00000000000000000000 0.00000000000000000000 0.00000000000000000000 0.00000000000000000000 0.00000000000000000000 0.00000000000000000000 -0.00329569609631949825 -0.05789313304455642045 -0.04764278255345028024  0.00007820648602918237 -0.00012198186622377574  0.00019083514253187225 0.11924827183458241997 0.21916026886045150701 0.01434402074321794278 0.00001540072946971414 0.00001525173692243655 0.00001529592752692668
1520530339.651693 0.00000000000000000000 0.00000000000000000000 0.00000000000000000000 0.00000000000000000000 0.00000000000000000000 0.00000000000000000000 -0.00343106442535332998 -0.05709506624310271145 -0.04758037498831856754  0.00014929420360914748 -0.00014408953999347596  0.00012728963079080741 0.11901731774376633766 0.21805698976397328015 0.01438621549322607537 0.00001566498993348808 0.00001534981806671107 0.00001542180395450024
1520530339.751697 0.00000000000000000000 0.00000000000000000000 0.00000000000000000000 0.00000000000000000000 0.00000000000000000000 0.00000000000000000000 -0.00391647874667292763 -0.05698479095615210932 -0.04756830439546158584  0.00020432607286849158 -0.00010080826334972121  0.00006520944199656323 0.11845737610791144678 0.21656527098439043444 0.01443073708272437326 0.00001572430855277395 0.00001538941341694887 0.00001547324833847485
1520530339.851056 0.00000000000000000000 0.00000000000000000000 0.00000000000000000000 0.00000000000000000000 0.00000000000000000000 0.00000000000000000000 -0.00448681302560010806 -0.05831676407107962146 -0.04769015852186189730  0.00020228106047584648 -0.00012439034502533932  0.00008152604548101388 0.11759092186779845912 0.21474140970414912211 0.01447643734392172615 0.00001585991183221630 0.00001548621703236924 0.00001557691269424012
1520530339.951059 0.00000000000000000000 0.00000000000000000000 0.00000000000000000000 0.00000000000000000000 0.00000000000000000000 0.00000000000000000000 -0.00565948116155297245 -0.05958450208405369902 -0.04771505843690369841  0.00024758918276809373 -0.00005144892865541315  0.00007713748442607539 0.11636548006659035159 0.21294998967458064754 0.01451428165586253309 0.00001586807452376777 0.00001547214264030689 0.00001558986209004610
1520530340.051062 0.00000000000000000000 0.00000000000000000000 0.00000000000000000000 0.00000000000000000000 0.00000000000000000000 0.00000000000000000000 -0.00617318067857362471 -0.06039051791600908575 -0.04766736209158851240 0.00030466844301067319 0.00004878687903204951 0.00007104185736092673 0.11489436296555957662 0.21135810371837199240 0.01456047385060849422 0.00001586831110892617 0.00001543469622477331 0.00001560184103854026
1520530340.151065 0.00000000000000000000 0.00000000000000000000 0.00000000000000000000 0.00000000000000000000 0.00000000000000000000 0.00000000000000000000 -0.00695945541267127977 -0.06217553635782576554 -0.04807282192165517054 0.00037049664161387303 0.00003245886496735988 0.00001554088691067504 0.11326779592729244173 0.20954658959145835984 0.01461410286837434153 0.00001582488535437120 0.00001539900309336705 0.00001557705094917131
1520530340.250395 0.00000000000000000000 0.00000000000000000000 0.00000000000000000000 0.00000000000000000000 0.00000000000000000000 0.00000000000000000000 -0.00758151790825927711 -0.06335318079470654562 -0.04852228234414288771  0.00044055524259586676  0.00002389002370720083 -0.00000906334679002124 0.11158745295706941347 0.20816259356483171605 0.01468432041552960969 0.00001585272797663737 0.00001541166153210488 0.00001562517962677960
1520530340.350399 0.00000000000000000000 0.00000000000000000000 0.00000000000000000000 0.00000000000000000000 0.00000000000000000000 0.00000000000000000000 -0.00744769244867411924 -0.06272800775357373348 -0.04861989328223423334  0.00053916691398654302  0.00000799756890111110 -0.00002499000448634454 0.10997289784895912523 0.20656546010731779983 0.01476660794599675766 0.00001580453799697770 0.00001538176993591223 0.00001565941147942656
1520530340.450401 0.00000000000000000000 0.00000000000000000000 0.00000000000000000000 0.00000000000000000000 0.00000000000000000000 0.00000000000000000000 -0.00743295906724663301 -0.06274277633955090139 -0.04871183022130010781  0.00052663355405145476  0.00003138878113519448 -0.00001878226903471189 0.10856131078543150570 0.20507055505409088614 0.01485275757666237699 0.00001591484906166052 0.00001539507974526707 0.00001569183122829751
1520530340.550404 0.00000000000000000000 0.00000000000000000000 0.00000000000000000000 0.00000000000000000000 0.00000000000000000000 0.00000000000000000000 -0.00732668807983058706 -0.06285550454769307793 -0.04881817040313725375  0.00051126438467216141  0.00003763315137275379 -0.00004201005868382629 0.10733744605806980199 0.20389861788975291446 0.01493917970196933891 0.00001591077519592798 0.00001538197743415632 0.00001566734280032935
1520530340.650347 0.00000000000000000000 0.00000000000000000000 0.00000000000000000000 0.00000000000000000000 0.00000000000000000000 0.00000000000000000000 -0.00707386369954368828 -0.06262365357492212514 -0.04877573441367764884  0.00050983679215032391  0.00000860884295498645 -0.00005739223201677604 0.10619993292916818373 0.20335393713767910273 0.01502613660297055787 0.00001603894049579619 0.00001544478619808474 0.00001568048404501579
1520530340.750350 0.00000000000000000000 0.00000000000000000000 0.00000000000000000000 0.00000000000000000000 0.00000000000000000000 0.00000000000000000000 -0.00655880658815748054 -0.06240110535986890389 -0.04854271084612087755  0.00052887960810576800  0.00001320855057555291 -0.00010079052710676114 0.10524384353243700085 0.20289701144843111380 0.01510226539564987758 0.00001602029344642954 0.00001542301153331697 0.00001560547340649964
1520530340.900354 0.00000000000000000000 0.00000000000000000000 0.00000000000000000000 0.00000000000000000000 0.00000000000000000000 0.00000000000000000000 -0.00572975236420992205 -0.06270127784249583669 -0.04825276792629888678  0.00053413817508042257 -0.00004706288355035090  0.00003092228183973574 0.10444151283570618505 0.20269821099378645957 0.01516960716317547475 0.00001622311608080785 0.00001557931882493654 0.00001591638870597035
1520530341.050774 0.00000000000000000000 0.00000000000000000000 0.00000000000000000000 0.00000000000000000000 0.00000000000000000000 0.00000000000000000000 -0.00509994925994966975 -0.06320143439574152366 -0.04794150661730886553  0.00048471143133046085 -0.00003756934668272182  0.00010441075544932206 0.10398301734759587966 0.20267332812302310541 0.01519143027590320882 0.00001629533425467526 0.00001553248618293048 0.00001590418207409509
1520530341.300782 0.00000000000000000000 0.00000000000000000000 0.00000000000000000000 0.00000000000000000000 0.00000000000000000000 0.00000000000000000000 -0.00496257999305175362 -0.06389983435994180117 -0.04764091807057331540  0.00042320933771866214 -0.00017140322591328982  0.00027740393168667953 0.10365764194227931883 0.20213007782326439243 0.01517779749889546642 0.00001620380118536966 0.00001544547634401383 0.00001586484176178914
1520530341.450787 0.00000000000000000000 0.00000000000000000000 0.00000000000000000000 0.00000000000000000000 0.00000000000000000000 0.00000000000000000000 -0.00580536155279463319 -0.06349465452599713233 -0.04795234536412112253  0.00042133682925586018 -0.00013644088061196750  0.00031331754195699059 0.10327231548690324336 0.20171534645641681083 0.01518827902700512628 0.00001607284088205214 0.00001538865379445271 0.00001578418154815377
1520530341.650717 0.00000000000000000000 0.00000000000000000000 0.00000000000000000000 0.00000000000000000000 0.00000000000000000000 0.00000000000000000000 -0.00620549955578050382 -0.06369254066421656257 -0.04788762759327949009  0.00034714334124400187 -0.00011923028585433839  0.00030772168470137958 0.10282466918375350595 0.20129192576292753714 0.01520723314163392390 0.00001595962047081768 0.00001534389459888037 0.00001569665773064094
1520530341.900542 0.00000000000000000000 0.00000000000000000000 0.00000000000000000000 0.00000000000000000000 0.00000000000000000000 0.00000000000000000000 -0.00634356909189868166 -0.06271046258731315104 -0.04849537965469850193  0.00048397329999948045 -0.00006681525067896735  0.00025231076931042385 0.10223345208968491471 0.20065241826775268019 0.01523451054325327368 0.00001585729983186049 0.00001530690764804606 0.00001564114290974240
1520530342.100548 0.00000000000000000000 0.00000000000000000000 0.00000000000000000000 0.00000000000000000000 0.00000000000000000000 0.00000000000000000000 -0.00657704231337490151 -0.06233678256337912144 -0.04802956169694074656  0.00037586786913776637 -0.00006364201819910291  0.00013374381233216767 0.10174512814863737042 0.19944412332441466273 0.01525849863289887622 0.00001577119307479918 0.00001527415860527630 0.00001559947640952804
1520530342.250553 0.00000000000000000000 0.00000000000000000000 0.00000000000000000000 0.00000000000000000000 0.00000000000000000000 0.00000000000000000000 -0.00663889074159017788 -0.06267572238509935834 -0.04790092947815428881  0.00023635985542091870 -0.00009653026681613607  0.00003975882746752474 0.10147022420952929445 0.19804899160447611561 0.01524458440305298534 0.00001569447758063513 0.00001524523142392929 0.00001554616083675195
1520530342.350675 0.00000000000000000000 0.00000000000000000000 0.00000000000000000000 0.00000000000000000000 0.00000000000000000000 0.00000000000000000000 -0.00636682861409952530 -0.06209343079234262708 -0.04838248420799895477  0.00021474698982518171 -0.00014207051911838855 -0.00002853692873654430 0.10124080816355594814 0.19706545327153185410 0.01522481579092098414 0.00001561355365032909 0.00001521782746648953 0.00001551144052836050
1520530342.450678 0.00000000000000000000 0.00000000000000000000 0.00000000000000000000 0.00000000000000000000 0.00000000000000000000 0.00000000000000000000 -0.00616376111240231773 -0.06280458193884788654 -0.04844042840844862974  0.00023747219541976508 -0.00019109988525975289 -0.00004237636830908771 0.10101304125146647050 0.19605897611266948077 0.01520028351993858370 0.00001556472907727186 0.00001519855587610078 0.00001549251412948760
1520530342.600683 0.00000000000000000000 0.00000000000000000000 0.00000000000000000000 0.00000000000000000000 0.00000000000000000000 0.00000000000000000000 -0.00528114388006371057 -0.06182118223176445021 -0.04865298646498808499  0.00030788143032691736 -0.00015729517865654597  0.00003334543301583657 0.10062888982475062805 0.19428217543304285297 0.01515891189955972593 0.00001555273819227808 0.00001518295280026231 0.00001548259444250765
1520530342.750644 0.00000000000000000000 0.00000000000000000000 0.00000000000000000000 0.00000000000000000000 0.00000000000000000000 0.00000000000000000000 -0.00496698252323613931 -0.06013387711940795799 -0.04867495911620398769  0.00038723679048961886 -0.00015347168641034029  0.00001980273645534015 0.10008599614339160067 0.19161575434726066391 0.01511673012543258109 0.00001555188660220560 0.00001517139208947205 0.00001548101112450247
