1520530315.549643 0.00000000000000000000 0.00000000000000000000 0.00000000000000000000 0.00000000000000000000 0.00000000000000000000 0.00000000000000000000 -0.66321449228163376066  0.01449947976497066929 -0.00721985606119106196  0.00054268267602285093  0.00008895579010305681 -0.00049872057367379501 5.44571395317905704303 5.68319191643650434287 0.05320929495682921034 0.00002794503986847828 0.00002758947142920926 0.00002730678829646523
1520530315.699637 0.00000000000000000000 0.00000000000000000000 0.00000000000000000000 0.00000000000000000000 0.00000000000000000000 0.00000000000000000000 -0.67030643660454303223  0.00888848997172284050 -0.00556395896465492791  0.00051357964886890805  0.00006468833174311211 -0.00055856640345362070 4.53808436073716059411 5.10409132187628156174 0.04845307998873826100 0.00002768499020335372 0.00002710207008165442 0.00002707356656872799
1520530315.849642 0.00000000000000000000 0.00000000000000000000 0.00000000000000000000 0.00000000000000000000 0.00000000000000000000 0.00000000000000000000 -0.67855222805669823671  0.00245539201921741047 -0.00396317225659949170  0.00036262247636248071  0.00002152840866997355 -0.00058697004036822257 4.05178450729169004063 4.93674317704251741645 0.04954561988728731908 0.00002738647308630425 0.00002662117316680509 0.00002686062155973470
1520530315.949645 0.00000000000000000000 0.00000000000000000000 0.00000000000000000000 0.00000000000000000000 0.00000000000000000000 0.00000000000000000000 -0.74267094012728329666 -0.08240031272208304947  0.00601591367405498057 -0.00028133550266736727 -0.00025023117862487998 -0.00083178663341637929 4.14700372689949503524 5.40834221476375098803 0.05691338969451884694 0.00002750353020341858 0.00002632407353561321 0.00002680525839133100
1520530316.100221 0.00000000000000000000 0.00000000000000000000 0.00000000000000000000 0.00000000000000000000 0.00000000000000000000 0.00000000000000000000 -0.48018214030001471482  0.02650066765653311465 -0.01673523221206124970 -0.00064644220681424488 -0.00016153622520757770 -0.00103156921662096008 3.72087729282268897535 5.12942770207682219308 0.05445551909180133127 0.00002719962121908146 0.00002573577009982567 0.00002644363420490071
1520530316.250226 0.00000000000000000000 0.00000000000000000000 0.00000000000000000000 0.00000000000000000000 0.00000000000000000000 0.00000000000000000000 -0.45456262869585445374  0.04306622407523195278 -0.01484091172731241692 -0.00062936829469439567 -0.00024546223943562042 -0.00100041692259482547 3.22225997113077111678 4.73257605063677111445 0.03919707979471858533 0.00002644392860505257 0.00002523264216544491 0.00002601312538048382
1520530316.400230 0.00000000000000000000 0.00000000000000000000 0.00000000000000000000 0.00000000000000000000 0.00000000000000000000 0.00000000000000000000 -0.41597149354315365866  0.05108908195919502349 -0.01676993237707968126 -0.00030020534889051820 -0.00030673076383617976 -0.00105387269757158380 2.83944237114554898227 4.33467061395031727500 0.03615818702136311402 0.00002555428063507683 0.00002469362339044002 0.00002508447159423166
1520530316.600278 0.00000000000000000000 0.00000000000000000000 0.00000000000000000000 0.00000000000000000000 0.00000000000000000000 0.00000000000000000000 -0.42058589936476448168 -0.00350342132566263797 -0.01476639886317531597 -0.00023503235425900265 -0.00033458482971276835 -0.00069334018035510127 2.53202677611775195388 3.91288188156409688645 0.03385860911016434771 0.00002517216314981826 0.00002431490254849744 0.00002439821579205449
1520530316.800284 0.00000000000000000000 0.00000000000000000000 0.00000000000000000000 0.00000000000000000000 0.00000000000000000000 0.00000000000000000000 -0.39005110429820016860  0.00152042339070233498 -0.01953964296350654828 -0.00042709839604839666  0.00003080003375175346 -0.00065712977579091426 2.33197397687712859593 3.55294012719614293871 0.03232859393678519377 0.00002497108646345664 0.00002398075143175098 0.00002397458904900481
1520530316.949773 0.00000000000000000000 0.00000000000000000000 0.00000000000000000000 0.00000000000000000000 0.00000000000000000000 0.00000000000000000000 -0.40458676899731316201 -0.02001600875460409976 -0.01902202637715091904 -0.00017355803715497355 -0.00007713809082587208 -0.00078161483747855864 2.21749818999698655730 3.26287895859495158390 0.03159416072245290613 0.00002430271743077694 0.00002369348579843140 0.00002365358429533447
1520530316.999775 0.00000000000000000000 0.00000000000000000000 0.00000000000000000000 0.00000000000000000000 0.00000000000000000000 0.00000000000000000000 -0.43101133334620000959 -0.06948522363013152903 -0.01715190757753527404 -0.00035223659493301845 -0.00037546764867561592 -0.00077019135314454392 2.18428546731441874940 3.17317269238845511836 0.03131707203819901475 0.00002415378408855695 0.00002364167445028759 0.00002362230300431757
1520530317.149779 0.00000000000000000000 0.00000000000000000000 0.00000000000000000000 0.00000000000000000000 0.00000000000000000000 0.00000000000000000000 -0.45377875656045851827 -0.13836315853120434438 -0.01394652218710814261 -0.00032174210900093146 -0.00040779089571416348 -0.00048699930727361508 2.49078046683441600706 3.61980652002541303247 0.03696764969156134811 0.00002481521064160802 0.00002375297771927793 0.00002405559439670664
1520530317.349743 0.00000000000000000000 0.00000000000000000000 0.00000000000000000000 0.00000000000000000000 0.00000000000000000000 0.00000000000000000000 -0.50244987403502006096 -0.00679150630475306750 -0.02049040703642240543 -0.00047938784511753933 -0.00073217232519745513 -0.00064897449702414761 2.43183698757419630709 3.14150301400259879259 0.03592256532997292057 0.00002509071262459997 0.00002352229119249240 0.00002405133032644897
1520530317.549752 0.00000000000000000000 0.00000000000000000000 0.00000000000000000000 0.00000000000000000000 0.00000000000000000000 0.00000000000000000000 -0.49376862529067483409 -0.02925155897187060872 -0.01750068023171046441 -0.00052365340999829487 -0.00061722819444116255 -0.00088125990694241116 2.42569351323514759144 2.99193888211456515691 0.03644488163842572043 0.00002562518916864351 0.00002322860933541374 0.00002378622492860372
1520530317.699755 0.00000000000000000000 0.00000000000000000000 0.00000000000000000000 0.00000000000000000000 0.00000000000000000000 0.00000000000000000000 -0.50391874197819774839 -0.00260858576872680841 -0.01846834605885579877 -0.00052686678183466338 -0.00046530692106720999 -0.00092651002319197977 2.38215205459006051925 2.77349420500266274914 0.03599561441913069065 0.00002557900520723361 0.00002336767550604550 0.00002356371687087231
1520530317.800239 0.00000000000000000000 0.00000000000000000000 0.00000000000000000000 0.00000000000000000000 0.00000000000000000000 0.00000000000000000000 -0.53917896846015733736 -0.20525019964691773589 -0.00250748355057864997 -0.00044717397538542215 -0.00047519535935589040 -0.00098365467766156492 2.22835862177941690376 2.18291479374479546749 0.03296562436377935279 0.00002561083391807951 0.00002332104113185379 0.00002328867400009415
1520530317.950243 0.00000000000000000000 0.00000000000000000000 0.00000000000000000000 0.00000000000000000000 0.00000000000000000000 0.00000000000000000000 -0.43921284017283152012 -0.12310919181670294809 -0.01240241162033346375 -0.00062281793112505847 -0.00034577672219583645 -0.00116859064402149407 1.85549671250150360891 1.27770912006107151271 0.02745306278551952819 0.00002510258542178727 0.00002327585288827005 0.00002314597342544588
1520530318.100248 0.00000000000000000000 0.00000000000000000000 0.00000000000000000000 0.00000000000000000000 0.00000000000000000000 0.00000000000000000000 -0.15345001903778904273 -0.00342619419755822718 -0.03246378489551001584 -0.00044880356474667207 -0.00020825346270447430 -0.00129055027890524212 1.31553730596757634252 0.75054923134363871196 0.02408634526372805534 0.00002474573112896120 0.00002326612181778111 0.00002315903837345389
1520530318.200769 0.00000000000000000000 0.00000000000000000000 0.00000000000000000000 0.00000000000000000000 0.00000000000000000000 0.00000000000000000000  0.05492703633572457861  0.10636130323657012886 -0.03907627555233673944 -0.00024776699897255866 -0.00033498193120054488 -0.00137798731566154487 0.31756607419700194628