1413394890.005760 -0.01533900000000000020  0.08338299999999999879  0.03670400000000000051 -0.00155799999999999992  0.02460700000000000040  0.08051400000000000223 0.02830467208656079273 0.06732308811750351007 0.13956490954858685738 -0.00156608497868078846  0.02183767687770406599  0.08200082737563468838
1413394890.305761 -0.01533299999999999941  0.08337300000000000266  0.03672399999999999970 -0.00155700000000000001  0.02460700000000000040  0.08051400000000000223 0.01434200094156038753 0.05364100365599198950 0.09698188500967756809 -0.00188830344267978110  0.02366832565065502339  0.08174776136756090050
1413394890.405761 -0.01533200000000000014  0.08336899999999999866  0.03673099999999999976 -0.00155700000000000001  0.02460700000000000040  0.08051400000000000223 0.01483933067562156344 0.06131496671437795809 0.11189661579816345682 -0.00174479531544685781  0.02487199736276807932  0.08211824423580489640
1413394890.505760 -0.01532999999999999988  0.08336499999999999466  0.03673799999999999982 -0.00155700000000000001  0.02460700000000000040  0.08051300000000000123 0.00425194082923336693 0.05034506335141470529 0.07141503852018368792 -0.00194442927787780140  0.02463839122167727630  0.08209719351602864923
1413394890.605761 -0.01532900000000000061  0.08336200000000000554  0.03674499999999999988 -0.00155700000000000001  0.02460700000000000040  0.08051300000000000123 0.00290143117404042042 0.04855703313170820629 0.05807764787065671647 -0.00214884832912119348  0.02452335498455918833  0.08204825721016285878
1413394890.905761 -0.01532500000000000008  0.08335099999999999454  0.03676499999999999907 -0.00155700000000000001  0.02460700000000000040  0.08051300000000000123 0.00730115347540861818 0.03519878916631361682 0.06178873829646799182 -0.00184784676948708277  0.02370560152553859157  0.08182124417854665099
1413394891.005760 -0.01532299999999999982  0.08334700000000000442  0.03677199999999999913 -0.00155700000000000001  0.02460700000000000040  0.08051300000000000123 0.00757231165078543766 0.01914506983158952014 0.05245166359488291630 -0.00187806267450161841  0.02331508892364069635  0.08142677070538456574
1413394891.105761 -0.01532200000000000055  0.08334300000000000042  0.03678000000000000019 -0.00155700000000000001  0.02460700000000000040  0.08051300000000000123 0.01176066579494368207 0.01169038467369744837 0.06207603433467038384 -0.00167204817131171588  0.02351836628080350780  0.08123033513516825233
1413394891.255760 -0.01531899999999999928  0.08333699999999999442  0.03679099999999999732 -0.00155700000000000001  0.02460700000000000040  0.08051300000000000123 0.01112240830624999961 0.00700606254688099141 0.05532866866959382235 -0.00156733366289628557  0.02395213354075700560  0.08108426078313098195
1413394891.455760 -0.01531599999999999975  0.08332900000000000029  0.03680599999999999844 -0.00155700000000000001  0.02460800000000000140  0.08051300000000000123 0.01441117087237737092 0.00235100734076666446 0.05879064751303271497 -0.00157177130364313626  0.02445870850176842456  0.08111927420029081681
1413394891.555760 -0.01531399999999999949  0.08332499999999999629  0.03681399999999999950 -0.00155700000000000001  0.02460800000000000140  0.08051300000000000123  0.01244609198273009289 -0.00986780931986673548  0.05811174015328025161 -0.00158461914574849531  0.02504040179847560887  0.08133875614915547780
1413394891.655760 -0.01531199999999999922  0.08332100000000000617  0.03682200000000000056 -0.00155700000000000001  0.02460800000000000140  0.08051300000000000123  0.00857394369799184715 -0.00916786893085068562  0.04632348997133586832 -0.00155024047380360294  0.02493181802058522592  0.08151146750749123371
1413394891.805761 -0.01530899999999999969  0.08331399999999999917  0.03683399999999999869 -0.00155700000000000001  0.02460800000000000140  0.08051300000000000123  0.00995420572997673600 -0.00769526879902966178  0.05343524528141702784 -0.00165111609102460018  0.02481770637937552593  0.08147695449382856558
1413394891.955760 -0.01530600000000000016  0.08330799999999999317  0.03684599999999999681 -0.00155700000000000001  0.02460800000000000140  0.08051300000000000123  0.01620678233480011068 -0.01720471393981935077  0.07685342641761727656 -0.00171665420898531036  0.02510821989883164559  0.08150342275913130541
1413394892.055760 -0.01530399999999999990  0.08330300000000000205  0.03685499999999999887 -0.00155700000000000001  0.02460800000000000140  0.08051300000000000123  0.01934834769709709024 -0.01932465654910404257  0.09002362220283885441 -0.00180521945055369835  0.02523799819797893987  0.08150411298736312538
1413394892.205760 -0.01530100000000000036  0.08329599999999999504  0.03686699999999999700 -0.00155700000000000001  0.02460800000000000140  0.08051300000000000123  0.02169829940271626387 -0.01959081426085445762  0.09839250040991427693 -0.00177465274886505920  0.02512404426929866832  0.08147220663706487842
1413394892.355760 -0.01529800000000000083  0.08328900000000000192  0.03688000000000000306 -0.00155700000000000001  0.02460800000000000140  0.08051300000000000123  0.02593530795696619151 -0.01763614290963405953  0.11151756841265202114 -0.00170429821681733896  0.02501395662340575102  0.08134465569877420699
1413394892.505760 -0.01529499999999999957  0.08328199999999999492  0.03689200000000000118 -0.00155700000000000001  0.02460800000000000140  0.08051300000000000123  0.02763018490630135202 -0.00454269132060947795  0.11845743962109221703 -0.00189568031524997159  0.02523565577929965872  0.08138144262906638060
1413394892.655760 -0.01529100000000000077  0.08327400000000000080  0.03690500000000000030 -0.00155700000000000001  0.02460800000000000140  0.08051300000000000123 0.02323438370838943473 0.01797092044886951928 0.10818298907076676074 -0.00172640091008865928  0.02531016035931740044  0.08123466328982216489
1413394892.755760 -0.01528900000000000051  0.08326899999999999580  0.03691400000000000237 -0.00155700000000000001  0.02460800000000000140  0.08051300000000000123 0.01300222375363791275 0.02446958999425763101 0.08089303174240167205 -0.00130968159215635134  0.02526378987248137711  0.08118552176716965774
1413394892.905761 -0.01528599999999999924  0.08326200000000000268  0.03692700000000000149 -0.00155700000000000001  0.02460800000000000140  0.08051300000000000123 0.00881717779695383348 0.03158238599542588509 0.06487999043389429399 -0.00130195997200888126  0.02512923822657396958  0.08119901345491098432
1413394893.005760 -0.01528400000000000071  0.08325699999999999767  0.03693599999999999661 -0.00155700000000000001  0.02460800000000000140  0.08051300000000000123 0.00285661419456219702 0.03462033064763168910 0.04565303428154798837 -0.00123194062020377023  0.02481423027756556737  0.08117323898940309590
1413394893.055760 -0.01528299999999999971  0.08325399999999999467  0.03694000000000000061 -0.00155700000000000001  0.02460800000000000140  0.08051300000000000123 0.01397008606270869202 0.04494851587534969689 0.07838330429803487542 -0.00137767580105840784  0.02480942733335602182  0.08125090071176309381
1413394893.205760 -0.01527899999999999918  0.08324700000000000155  0.03695400000000000074 -0.00155700000000000001  0.02460800000000000140  0.08051300000000000123 -0.00026275150501712635  0.06002416902396834342  0.03960050421208771015 -0.00136219765133759486  0.02499079271153788889  0.08122974251143182112
1413394893.355760 -0.01527599999999999965  0.08323899999999999355  0.03696699999999999986 -0.00155700000000000001  0.02460800000000000140  0.08051300000000000123 0.01624585147467656754 0.02802735425277079126 0.08029117594049878237 -0.00198457063165173803  0.02480710353780665733  0.08143844660620171150
1413394893.505760 -0.01527200000000000085  0.08323099999999999943  0.03698099999999999998 -0.00155700000000000001  0.02460800000000000140  0.08051300000000000123 0.02622738893805462088 0.04389371785260409026 0.10404479575095415544 -0.00263538089396962846  0.02432436428816711627  0.08155347937020571147
1413394893.655760 -0.01526899999999999959  0.08322400000000000631  0.03699500000000000011 -0.00155700000000000001  0.02460800000000000140  0.08051300000000000123 0.02996633340814296512 0.06547014062457523487 0.11519261324946973579 -0.00380735165581260523  0.02391169304726556769  0.08144054116967985868
1413394893.805761 -0.01526500000000000079  0.08321599999999999830  0.03700900000000000023 -0.00155700000000000001  0.02460800000000000140  0.08051300000000000123 0.02865385118302960984 0.08550233464330933564 0.11637666043910546709 -0.00407948397769140013  0.02398899487995759250  0.08132537534175725280
1413394893.955760 -0.01526199999999999952  0.08320800000000000418  0.03702300000000000035 -0.00155700000000000001  0.02460800000000000140  0.08051300000000000123 0.02272552020173708442 0.10304874115916451416 0.10701377345097179417 -0.00383429483571791872  0.02437985483768068118  0.08133887681137318137
1413394894.105761 -0.01525800000000000073  0.08319999999999999618  0.03703700000000000048 -0.00155700000000000001  0.02460800000000000140  0.08051300000000000123 0.01678671215063329628 0.11788683753661427511 0.09494675109347537612 -0.00337565903251571932  0.02476314008883067491  0.08135042879759114831
1413394894.205760 -0.01525600000000000046  0.08319400000000000406  0.03704699999999999660 -0.00155700000000000001  0.02460800000000000140  0.08051300000000000123 0.01566340196776372373 0.12394396582618487368 0.09467172867526078839 -0.00316699047042826249  0.02485669753532572870  0.08142309999818997390
1413394894.305761 -0.01525400000000000020  0.08318899999999999906  0.03705599999999999866 -0.00155700000000000001  0.02460800000000000140  0.08051300000000000123 0.01418198241456455205 0.12201816036440843449 0.09271497254464944326 -0.00326442509160071578  0.02502877454525153159  0.08134689785024915021
1413394894.405761 -0.01525199999999999993  0.08318399999999999406  0.03706600000000000172 -0.00155700000000000001  0.02460800000000000140  0.08051300000000000123 0.01047458132778187646 0.11691652589614445756 0.08100591452635755307 -0.00335574482463031273  0.02496844781499407348  0.08123318236891084732
1413394894.505760 -0.01524900000000000040  0.08317800000000000193  0.03707499999999999685 -0.00155700000000000001  0.02460800000000000140  0.08051300000000000123 0.00781254693267039065 0.11488193738509858144 0.07241181306241957494 -0.00405477773396630600  0.02480962433211916784  0.08092843383572287386
1413394894.605761 -0.01524700000000000014  0.08317299999999999693  0.03708499999999999991 -0.00155700000000000001  0.02460800000000000140  0.08051300000000000123 0.00373757185523321137 0.11890367236048496324 0.06071017188344120241 -0.00431549349870318476  0.02483484252270090620  0.08087048511145378260
1413394894.705760 -0.01524499999999999987  0.08316800000000000581  0.03709500000000000297 -0.00155600000000000009  0.02460800000000000140  0.08051300000000000123 -0.00122943439308602982  0.12181500873362328952  0.04717702531061472582 -0.00415334105504561787  0.02503355347534456932  0.08087325606835184255
1413394894.805761 -0.01524200000000000034  0.08316300000000000081  0.03710499999999999909 -0.00155600000000000009  0.02460800000000000140  0.08051300000000000123 -0.00490056586536419952  0.13046212957297917412  0.03786275711821501799 -0.00462071723300683853  0.02521847648633064251  0.08089846251199699079
1413394894.905761 -0.01524000000000000007  0.08315799999999999581  0.03711500000000000216 -0.00155600000000000009  0.02460800000000000140  0.08051300000000000123 -0.00552036660963196955  0.13213964735289099317  0.03675408102913754055 -0.00446981052413163334  0.02534910955167025970  0.08106252403949537610
1413394895.005760 -0.01523700000000000054  0.08315300000000000469  0.03712499999999999828 -0.00155600000000000009  0.02460800000000000140  0.08051300000000000123 -0.00506150500305517417  0.13239296341921202860  0.03848929522627528993 -0.00445602024522804337  0.02533559386226042279  0.08109476838604624815
1413394895.105761 -0.01523500000000000028  0.08314799999999999969  0.03713500000000000134 -0.00155600000000000009  0.02460800000000000140  0.08051300000000000123 -0.00681655163830314093  0.14066869003043769304  0.03400883054494630020 -0.00478476725767428696  0.02524691638920615461  0.08090863667076474142
1413394895.205760 -0.01523200000000000075  0.08314199999999999369  0.03714499999999999746 -0.00155600000000000009  0.02460800000000000140  0.08051300000000000123 -0.00826743486052399987  0.14601507537829280792  0.03015305547737247641 -0.00487569510930137805  0.02531266617408287761  0.08086993344346384005
1413394895.305761 -0.01523000000000000048  0.08313700000000000256  0.03715500000000000053 -0.00155600000000000009  0.02460800000000000140  0.08051300000000000123 -0.00890533453100935193  0.14767234159513475955  0.02760354150083796712 -0.00489542668923418235  0.02549642062791020181  0.08077983517170574113
1413394895.405761 -0.01522699999999999922  0.08313199999999999756  0.03716599999999999765 -0.00155600000000000009  0.02460800000000000140  0.08051300000000000123 -0.00981696090712239240  0.14828988950965049654  0.02488754332823879187 -0.00513537636248638518  0.02557169559262303590  0.08061708065975183024
1413394895.505760 -0.01522500000000000069  0.08312700000000000644  0.03717600000000000071 -0.00155600000000000009  0.02460800000000000140  0.08051300000000000123 -0.01017421585854871163  0.15050787990529174154  0.02388921221919993246 -0.00521920938055862784  0.02554243694031438014  0.08070799104817368008
1413394895.605761 -0.01522199999999999942  0.08312200000000000144  0.03718699999999999783 -0.00155600000000000009  0.02460800000000000140  0.08051300000000000123 -0.01038566823110982640  0.15386647582214255103  0.02320752727473010188 -0.00519352657000838377  0.02555935089136830707  0.08074811904736500789
1413394895.705760 -0.01521899999999999989  0.08311699999999999644  0.03719800000000000190 -0.00155600000000000009  0.02460800000000000140  0.08051300000000000123 -0.01124643711981144871  0.15577903522438169004  0.02050246803026902626 -0.00516308447147681600  0.02536235948240728177  0.08084191800392681593
1413394895.805761 -0.01521600000000000036  0.08311200000000000532  0.03720899999999999902 -0.00155600000000000009  0.02460800000000000140  0.08051300000000000123 -0.01269007202298767616  0.15556991132455702531  0.01675983392492320229 -0.00524742471219239674  0.02521580272893958474  0.08081599081015247710
1413394895.905761 -0.01521300000000000083  0.08310700000000000032  0.03722000000000000308 -0.00155600000000000009  0.02460800000000000140  0.08051300000000000123 -0.01427513289480622505  0.15479201496700367713  0.01269220711694420828 -0.00526900637170513077  0.02513284505799046054  0.08066945307259783260
1413394896.005760 -0.01520900000000000030  0.08310199999999999532  0.03723100000000000021 -0.00155600000000000009  0.02460800000000000140  0.08051300000000000123 -0.01576994902176696856  0.15373334176192113287  0.01026402828114424993 -0.00524436450750909427  0.02513092542469112789  0.08069266509714531632
1413394896.105761 -0.01520600000000000077  0.08309800000000000519  0.03724199999999999733 -0.00155600000000000009  0.02460800000000000140  0.08051300000000000123 -0.01716235789353912772  0.15319221614041578228  0.00837777254375249476 -0.00520094756608777391  0.02512951950274180599  0.08075631626506148131
1413394896.255760 -0.01520099999999999923  0.08308999999999999719  0.03725900000000000045 -0.00155600000000000009  0.02460800000000000140  0.08051300000000000123 -0.01845705572996372834  0.15260980374101523749  0.00750287749609821440 -0.00512107810607960717  0.02523645500748836548  0.08086443333741918926
1413394896.355760 -0.01519700000000000044  0.08308500000000000607  0.03727099999999999858 -0.00155600000000000009  0.02460800000000000140  0.08051300000000000123 -0.01961712700070040311  0.15442919032899371512  0.00688827140823561942 -0.00522159222383771458  0.02523048118926033909  0.08094009848462650758
1413394896.505760 -0.01519200000000000064  0.08307799999999999907  0.03728800000000000170 -0.00155600000000000009  0.02460800000000000140  0.08051300000000000123 -0.02052735931687817497  0.15531134962214313000  0.00767812708533682168 -0.00526787555364237759  0.02524250035116152452  0.08088590531470093992
1413394896.655760 -0.01518599999999999985  0.08307100000000000595  0.03730499999999999788 -0.00155600000000000009  0.02460800000000000140  0.08051300000000000123 -0.02189381401003557409  0.15889763792601069303  0.00802882199221040434 -0.00518124635396504264  0.02523238248432816550  0.08085278336543090527
1413394896.855760 -0.01517800000000000052  0.08306199999999999695  0.03732800000000000007 -0.00155600000000000009  0.02460800000000000140  0.08051300000000000123 -0.02313504861525689585  0.16332350640117146434  0.00924850703884047554 -0.00504968019160544242  0.02523690449876749356  0.08077187114240580446
1413394897.055760 -0.01516900000000000019  0.08305300000000000182  0.03735100000000000225 -0.00155600000000000009  0.02460899999999999893  0.08051300000000000123 -0.02505632570518703806  0.17082640709294646952  0.00709384164485665769 -0.00487299559375486361  0.02506541982428713705  0.08069802995002746393
1413394897.155760 -0.01516499999999999966  0.08304799999999999682  0.03736300000000000038 -0.00155600000000000009  0.02460899999999999893  0.08051300000000000123 -0.02396429818117532667  0.16987003681658804921  0.00736408278079640766 -0.00473549799927092032  0.02499074854420497982  0.08059870338428570813
1413394897.255760 -0.01516100000000000086  0.08304400000000000670  0.03737499999999999850 -0.00155600000000000009  0.02460899999999999893  0.08051300000000000123 -0.02434118659575600432  0.17085230874288423464  0.00759410690491706640 -0.00472909535439496997  0.02495852319866726649  0.08052237308365552126
1413394897.355760 -0.01515599999999999933  0.08303900000000000170  0.03738699999999999662 -0.00155600000000000009  0.02460899999999999893  0.08051300000000000123 -0.02447343814928166703  0.17203764037956784105  0.00802410988843347758 -0.00470532360796139301  0.02493710170915256624  0.08031550877063474425
1413394897.405761 -0.01515400000000000080  0.08303599999999999870  0.03739300000000000263 -0.00155600000000000009  0.02460899999999999893  0.08051300000000000123 -0.02471972263581701662  0.17398221996052998239  0.00800197332562328605 -0.00478254175616534948  0.02494185757510894094  0.08030527591870437187
1413394897.505760 -0.01515000000000000027  0.08303199999999999470  0.03740500000000000075 -0.00155600000000000009  0.02460899999999999893  0.08051300000000000123 -0.02513395709919152149  0.17604541303134291219  0.00731932964556810447 -0.00472090816018206141  0.02492916399636825250  0.08039222291639129547
1413394897.555760 -0.01514700000000000074  0.08302900000000000558  0.03741099999999999981 -0.00155600000000000009  0.02460899999999999893  0.08051300000000000123 -0.02534289999081259376  0.17803741245370979795  0.00761424425547454174 -0.00466530320882711270  0.02493490664471184962  0.08049129324295714594
1413394897.655760 -0.01514300000000000021  0.08302400000000000058  0.03742299999999999793 -0.00155600000000000009  0.02460899999999999893  0.08051300000000000123 -0.02554778543959544679  0.17941834381248633612  0.00746802782301862669 -0.00459791466449822363  0.02489942703099091645  0.08054666305509024238
1413394897.705760 -0.01514099999999999994  0.08302199999999999858  0.03742999999999999799 -0.00155600000000000009  0.02460899999999999893  0.08051300000000000123 -0.02604231613499140632  0.17952520528967461089  0.00707569098393736988 -0.00449811874049031550  0.02496414596406615338  0.08056052690945410266
1413394897.805761 -0.01513600000000000015  0.08301699999999999358  0.03744200000000000306 -0.00155600000000000009  0.02460899999999999893  0.08051300000000000123 -0.02612906723019423061  0.17995156484393648455  0.00755187693219926560 -0.00436500629091278892  0.02498609230151972727  0.08060880341529332027
1413394897.905761 -0.01513100000000000035  0.08301200000000000245  0.03745400000000000118 -0.00155600000000000009  0.02460899999999999893  0.08051300000000000123 -0.02673557802691004653  0.18090499612633101356  0.00714462909096189643 -0.00423325262575098213  0.02505677067832035726  0.08065001727016948840
1413394898.005760 -0.01512699999999999982  0.08300699999999999745  0.03746700000000000030 -0.00155600000000000009  0.02460899999999999893  0.08051300000000000123 -0.02700909015652172215  0.18072435752028731537  0.00739113542040858301 -0.00409171689614146964  0.02497809512251138522  0.08071706744993083216
1413394898.105761 -0.01512200000000000003  0.08300299999999999345  0.03747899999999999843 -0.00155600000000000009  0.02460899999999999893  0.08051300000000000123 -0.02723239450682212945  0.17985968579553801572  0.00768751246491951659 -0.00410624315170532005  0.02491522040425236603  0.08071140909610137470
1413394898.205760 -0.01511700000000000023  0.08299800000000000233  0.03749099999999999655 -0.00155600000000000009  0.02460899999999999893  0.08051300000000000123 -0.02761229490667610129  0.18073348095752389542  0.00752497373724441646 -0.00417260024722122987  0.02492109757423886796  0.08070227290804542208
1413394898.305761 -0.01511299999999999970  0.08299299999999999733  0.03750400000000000261 -0.00155600000000000009  0.02460899999999999893  0.08051300000000000123 -0.02817589317306414681  0.18261935423305575288  0.00682568218957448503 -0.00412594725896393757  0.02494925965404129822  0.08067243879983483634
1413394898.405761 -0.01510799999999999990  0.08298800000000000621  0.03751600000000000074 -0.00155600000000000009  0.02460899999999999893  0.08051300000000000123 -0.02734070437736134743  0.18334277325424683247  0.01015393441287430233 -0.00381913808603850415  0.02495033648955624281  0.08066477130512253457
1413394898.505760 -0.01510300000000000011  0.08298400000000000221  0.03752899999999999986 -0.00155600000000000009  0.02460899999999999893  0.08051300000000000123 -0.02667994873850978998  0.18343268017718292184  0.01225555232821445503 -0.00362402053309166666  0.02485716013949286485  0.08067765037111071513
1413394898.605761 -0.01509899999999999957  0.08297899999999999721  0.03754199999999999898 -0.00155600000000000009  0.02460899999999999893  0.08051300000000000123 -0.02612487642786742031  0.18419119108201653656  0.01440959088681716127 -0.00345213382840606859  0.02482586747096617724  0.08065785196097122189
1413394898.755760 -0.01509100000000000025  0.08297200000000000408  0.03756000000000000311 -0.00155600000000000009  0.02460899999999999893  0.08051300000000000123 -0.02692115394657408622  0.18438375992798142211  0.01330115720199939386 -0.00335955098720006279  0.02478371277894492880  0.08073196070930306611
1413394898.955760 -0.01508199999999999992  0.08296199999999999408  0.03758600000000000135 -0.00155600000000000009  0.02460899999999999893  0.08051300000000000123 -0.02700403702888581892  0.18554773109004690790  0.01393963539218123771 -0.00334179013040983774  0.02471700991914345738  0.08064574312044982263
1413394899.205760 -0.01506900000000000080  0.08295099999999999696  0.03761799999999999866 -0.00155600000000000009  0.02460899999999999893  0.08051300000000000123 -0.02663176086477031176  0.18550361621494798614  0.01718856709277822442 -0.00322408930213447615  0.02462579341979799497  0.08079801292849528305
1413394899.405761 -0.01506000000000000047  0.08294200000000000184  0.03764399999999999691 -0.00155600000000000009  0.02460999999999999993  0.08051300000000000123 -0.02618310183072207822  0.18386821654710733265  0.02003866840148012599 -0.00313557220616988768  0.02466580333214182796  0.08083864097880388844
1413394899.555760 -0.01505199999999999941  0.08293499999999999484  0.03766400000000000303 -0.00155600000000000009  0.02460999999999999993  0.08051300000000000123 -0.02593653949290104094  0.18232618725026286666  0.02162860159453111261 -0.00313885930145073062  0.02465222415776363585  0.08083087241650444010
1413394899.705760 -0.01504499999999999935  0.08292900000000000271  0.03768300000000000122 -0.00155600000000000009  0.02460999999999999993  0.08051300000000000123 -0.02617623720181921909  0.18223349846085765136  0.02102936587289695042 -0.00317733547429021332  0.02469403814353759302  0.08072961769688610789
1413394899.805761 -0.01504100000000000055  0.08292399999999999771  0.03769600000000000034 -0.00155600000000000009  0.02460999999999999993  0.08051300000000000123 -0.02554767056292958291  0.18222138153691541662  0.02191818098121874406 -0.00328251131831817661  0.02470113205414794025  0.08069421278769195460
1413394899.905761 -0.01503600000000000075  0.08291999999999999371  0.03771000000000000046 -0.00155499999999999996  0.02460999999999999993  0.08051300000000000123 -0.02497208028178009992  0.18303683798199174571  0.02238164537907018012 -0.00344322078712651315  0.02476407536481545213  0.08068088748161270085
1413394900.005760 -0.01503200000000000022  0.08291600000000000359  0.03772299999999999959 -0.00155499999999999996  0.02460999999999999993  0.08051300000000000123 -0.02482364345770293051  0.18322753080208603604  0.02179717158138183217 -0.00336183000061894381  0.02475151342378515903  0.08066392040672942798
1413394900.105761 -0.01502700000000000043  0.08291199999999999959  0.03773599999999999871 -0.00155499999999999996  0.02460999999999999993  0.08051300000000000123 -0.02466106816733602131  0.18326779961758926651  0.02169042582670155719 -0.00330478210478994325  0.02479408633950362650  0.08068735850467610715
1413394900.205760 -0.01502299999999999990  0.08290799999999999559  0.03774899999999999783 -0.00155499999999999996  0.02460999999999999993  0.08051300000000000123 -0.02460409846161190975  0.18388303538622158273  0.02191655863486222100 -0.00323938136205275794  0.02486018784131289322  0.08070989933035455088
1413394900.305761 -0.01501800000000000010  0.08290400000000000547  0.03776199999999999696 -0.00155499999999999996  0.02460999999999999993  0.08051300000000000123 -0.02461400620158746624  0.18476366622166576215  0.02236909573875211360 -0.00321217051470267878  0.02492463971993248359  0.08074553090174732550
1413394900.405761 -0.01501399999999999957  0.08290000000000000147  0.03777400000000000202 -0.00155499999999999996  0.02460999999999999993  0.08051300000000000123 -0.02427504490246291599  0.18462126753454774497  0.02356068504173960965 -0.00321385673645544195  0.02495697888168796688  0.08071162160631968618
1413394900.505760 -0.01500899999999999977  0.08289599999999999747  0.03778700000000000114 -0.00155499999999999996  0.02460999999999999993  0.08051300000000000123 -0.02427937640288173327  0.18481608151177522648  0.02393494178275005352 -0.00319966623550095672  0.02495969837487948401  0.08063351990860709306
1413394900.655760 -0.01500300000000000071  0.08289100000000000634  0.03780599999999999933 -0.00155499999999999996  0.02460999999999999993  0.08051300000000000123 -0.02340865089555957401  0.18535137977745921867  0.02622671315680738524 -0.00323042854533458091  0.02499867774659358249  0.08059949802184011858
1413394900.755760 -0.01499799999999999918  0.08288700000000000234  0.03781799999999999745 -0.00155499999999999996  0.02460999999999999993  0.08051300000000000123 -0.02229248356204501305  0.18529898020042467888  0.02870512307057709878 -0.00347051008820697601  0.02498172139211659454  0.08062688238378978856
1413394900.855760 -0.01499400000000000038  0.08288299999999999834  0.03783099999999999657 -0.00155499999999999996  0.02460999999999999993  0.08051300000000000123 -0.02094173678949339326  0.18518035069073160437  0.03123800050146985363 -0.00370464488904008677  0.02480750371739613366  0.08074919473153797933
1413394900.955760 -0.01498900000000000059  0.08287999999999999534  0.03784300000000000164 -0.00155499999999999996  0.02460999999999999993  0.08051300000000000123 -0.02028919964553178509  0.18670843360206518247  0.03291439766248405868 -0.00364737750758592017  0.02474334542420133023  0.08079323985581016165
1413394901.055760 -0.01498500000000000006  0.08287600000000000522  0.03785499999999999976 -0.00155499999999999996  0.02460999999999999993  0.08051300000000000123 -0.01989217593032780590  0.18826601577978746560  0.03523657384594999081 -0.00366189420517774476  0.02488736996457948172  0.08074530869148244250
1413394901.155760 -0.01498099999999999953  0.08287300000000000222  0.03786599999999999688 -0.00155499999999999996  0.02461100000000000093  0.08051300000000000123 -0.01900783475521090893  0.18916322053753228949  0.03814294235394034144 -0.00351514987091340906  0.02493737322588555211  0.08085560859612303530
1413394901.205760 -0.01497799999999999999  0.08287100000000000022  0.03787200000000000288 -0.00155499999999999996  0.02461100000000000093  0.08051300000000000123 -0.01928072441091623415  0.18971816718533479618  0.03813684641552908539 -0.00355234133330887885  0.02500774252597862818  0.08087659735493642199
1413394901.305761 -0.01497399999999999946  0.08286799999999999722  0.03788400000000000101 -0.00155499999999999996  0.02461100000000000093  0.08051300000000000123 -0.01873176051396000311  0.19012406037420623295  0.04065779203813410514 -0.00358153256476562674  0.02507320260764659900  0.08097918881149178405
1413394901.355760 -0.01497199999999999920  0.08286599999999999522  0.03788899999999999907 -0.00155499999999999996  0.02461100000000000093  0.08051300000000000123 -0.01932084622530776466  0.18988904648533985742  0.04037079040980987021 -0.00361562003777212695  0.02515899493112506297  0.08098916819262128031
1413394901.455760 -0.01496699999999999940  0.08286300000000000610  0.03790099999999999719 -0.00155499999999999996  0.02461100000000000093  0.08051300000000000123 -0.01899486848309939885  0.19037625900443530536  0.04224464526862142105 -0.00360203250684152558  0.02520804048843461667  0.08095883237296530588
1413394901.555760 -0.01496300000000000061  0.08286000000000000310  0.03791200000000000125 -0.00155499999999999996  0.02461100000000000093  0.08051300000000000123 -0.01858291596280658292  0.19351397218011537338  0.04409309246546908034 -0.00348708499708489392  0.02515395036792816147  0.08075187047022981679
1413394901.655760 -0.01495800000000000081  0.08285700000000000010  0.03792299999999999838 -0.00155499999999999996  0.02461100000000000093  0.08051300000000000123 -0.01812161589947458920  0.19396213894661845645  0.04635714533221244743 -0.00371347167469462296  0.02502602450853476726  0.08068249958165382707
1413394901.755760 -0.01495400000000000028  0.08285499999999999809  0.03793300000000000144 -0.00155499999999999996  0.02461100000000000093  0.08051300000000000123 -0.01762588788171495779  0.19462548612376254220  0.04837487657807639646 -0.00377428495196884244  0.02495305129389493309  0.08059387538773771231
1413394901.855760 -0.01494999999999999975  0.08285199999999999509  0.03794399999999999856 -0.00155499999999999996  0.02461100000000000093  0.08051300000000000123 -0.01693281231305785936  0.19483975804027892087  0.05072421348678387426 -0.00397486370185111230  0.02499556565825212032  0.08055323479332703041
1413394901.955760 -0.01494599999999999922  0.08284900000000000597  0.03795400000000000162 -0.00155499999999999996  0.02461100000000000093  0.08051300000000000123 -0.01608487317024360694  0.19625774587719166386  0.05289923617532849703 -0.00412492700087404435  0.02484678841440906422  0.08052376984210836419
1413394902.055760 -0.01494200000000000042  0.08284600000000000297  0.03796499999999999875 -0.00155499999999999996  0.02461100000000000093  0.08051300000000000123 -0.01544576116077744747  0.19547813540801120546  0.05509384504348677214 -0.00429278047677618575  0.02483084148294584931  0.08052098578198596535
1413394902.155760 -0.01493799999999999989  0.08284299999999999997  0.03797500000000000181 -0.00155499999999999996  0.02461100000000000093  0.08051300000000000123 -0.01542193816815351851  0.19578934705130940364  0.05539477079945216015 -0.00428513816192238692  0.02489401005161542835  0.08049791246948449774
1413394902.255760 -0.01493399999999999936  0.08284099999999999797  0.03798499999999999793 -0.00155499999999999996  0.02461100000000000093  0.08051300000000000123 -0.01476459368785991780  0.19532800481974535445  0.05693223047289442534 -0.00451020915266356695  0.02491764216413741226  0.08055889952009068211
1413394902.355760 -0.01493000000000000056  0.08283799999999999497  0.03799500000000000099 -0.00155499999999999996  0.02461100000000000093  0.08051300000000000123 -0.01491844147027720537  0.19811321191711614431  0.05689827416691088657 -0.00433549318964683659  0.02503626449053055619  0.08050545292938331154
1413394902.455760 -0.01492600000000000003  0.08283500000000000585  0.03800400000000000306 -0.00155499999999999996  0.02461100000000000093  0.08051300000000000123 -0.01506304489284616618  0.20019721407570897909  0.05691760802262067070 -0.00393440688579673598  0.02509135456537869152  0.08041931682932043635
1413394902.555760 -0.01492300000000000050  0.08283300000000000385  0.03801399999999999918 -0.00155499999999999996  0.02461199999999999846  0.08051300000000000123 -0.01518364623359572813  0.20266223599910127007  0.05638242914160077057 -0.00372079567414989373  0.02506796614116126032  0.08046012670008585721
1413394902.655760 -0.01491899999999999997  0.08283000000000000085  0.03802300000000000124 -0.00155499999999999996  0.02461199999999999846  0.08051300000000000123 -0.01540846505087646416  0.20252991634684114342  0.05538352857460522582 -0.00368084638609198931  0.02498362334088335968  0.08047727443405414127
1413394902.755760 -0.01491600000000000044  0.08282799999999999885  0.03803200000000000330 -0.00155499999999999996  0.02461199999999999846  0.08051300000000000123 -0.01556906687795783610  0.20160610324231556523  0.05421081450039430538 -0.00388869590881737049  0.02478093875519373282  0.08049937439417255425
1413394902.855760 -0.01491199999999999991  0.08282499999999999585  0.03804099999999999843 -0.00155499999999999996  0.02461199999999999846  0.08051300000000000123 -0.01526392349447534824  0.19904871591954584331  0.05435939051367617847 -0.00432524459464354600  0.02469442452456957829  0.08064090038299651098
1413394902.955760 -0.01490900000000000038  0.08282299999999999385  0.03805000000000000049 -0.00155499999999999996  0.02461199999999999846  0.08051300000000000123 -0.01479881620854981913  0.19814822142088417412  0.05526808627578121136 -0.00455117824334076975  0.02467946604209068570  0.08060551487801075055
1413394903.155760 -0.01490200000000000032  0.08281700000000000172  0.03806699999999999667 -0.00155499999999999996  0.02461199999999999846  0.08051300000000000123 -0.01495395919814556870  0.19815690570991648101  0.05518997265657671347 -0.00459545812899758970  0.02464175640665938055  0.08067593989362827067
1413394903.355760 -0.01489399999999999925  0.08281199999999999672  0.03808399999999999980 -0.00155499999999999996  0.02461199999999999846  0.08051300000000000123 -0.01511390444859869731  0.19857183393500002500  0.05417127717157674965 -0.00452532860730838100  0.02457878325599241812  0.08072483239139471856
1413394903.555760 -0.01488699999999999919  0.08280700000000000560  0.03810000000000000192 -0.00155499999999999996  0.02461199999999999846  0.08051300000000000123 -0.01648654683385184644  0.20092361498832406186  0.05233414360098500445 -0.00408203990325772554  0.02488039638930472641  0.08043080679623765272
1413394903.705760 -0.01488100000000000013  0.08280300000000000160  0.03811200000000000004 -0.00155499999999999996  0.02461199999999999846  0.08051300000000000123 -0.01749926990035383795  0.20139771333060074721  0.05022427574534862188 -0.00396324479717297465  0.02480272604810311241  0.08034382580063653689
1413394903.955760 -0.01487100000000000054  0.08279599999999999460  0.03813099999999999823 -0.00155499999999999996  0.02461199999999999846  0.08051300000000000123 -0.01827044117541494136  0.19979496234205398886  0.04909536933008482734 -0.00401871130904278128  0.02466430263362931474  0.08043640205162862211
1413394904.205760 -0.01486099999999999921  0.08278900000000000148  0.03814900000000000235 -0.00155499999999999996  0.02461299999999999946  0.08051300000000000123 -0.01942235676353398430  0.19880740998514578877  0.04716998606268980182 -0.00402666327274926825  0.02448214600730679383  0.08056838052471308742
1413394904.355760 -0.01485500000000000015  0.08278499999999999748  0.03815999999999999948 -0.00155499999999999996  0.02461299999999999946  0.08051300000000000123 -0.02035418167061509714  0.19764277585139225502  0.04564748974981543833 -0.00402795136564249468  0.02442056353367712263  0.08052580004171647210
1413394904.505760 -0.01484899999999999935  0.08278099999999999348  0.03817000000000000254 -0.00155499999999999996  0.02461299999999999946  0.08051300000000000123 -0.02120143084075248874  0.19590835193370956246  0.04418189250094325948 -0.00407964292250030409  0.02435521950425904511  0.08049899950029831830
1413394904.605761 -0.01484500000000000056  0.08277900000000000535  0.03817700000000000260 -0.00155499999999999996  0.02461299999999999946  0.08051300000000000123 -0.02122764541841136443  0.19552053081994999473  0.04448127394644001142 -0.00418159229513171988  0.02439338355864106161  0.08048604124551371475
1413394904.705760 -0.01484199999999999929  0.08277600000000000235  0.03818400000000000266 -0.00155499999999999996  0.02461299999999999946  0.08051300000000000123 -0.02131738360700062562  0.19508209396656320256  0.04499904127551497546 -0.00423984427451187113  0.02445694088184789672  0.08050147178089406275
1413394904.805761 -0.01483800000000000049  0.08277400000000000035  0.03819000000000000172 -0.00155499999999999996  0.02461299999999999946  0.08051300000000000123 -0.02112428770294859023  0.19471137829983864442  0.04511953282502954160 -0.00442055649099687160  0.02424409046174946444  0.08053527970932354563
1413394904.905761 -0.01483399999999999996  0.08277199999999999835  0.03819600000000000078 -0.00155499999999999996  0.02461299999999999946  0.08051300000000000123 -0.02106510471642684262  0.19435367708380571483  0.04515792626386416764 -0.00459628335932307959  0.02418345152942261503  0.08058064934022696191
1413394905.005760 -0.01483100000000000043  0.08276999999999999635  0.03820300000000000085 -0.00155499999999999996  0.02461299999999999946  0.08051300000000000123 -0.02092504719165928437  0.19458625126588507959  0.04549563733665171195 -0.00478175154596673351  0.02418016352076528264  0.08057331063387392078
1413394905.055760 -0.01482900000000000017  0.08276899999999999535  0.03820599999999999691 -0.00155499999999999996  0.02461299999999999946  0.08051300000000000123 -0.02110538182473017943  0.19550734025712906972  0.04536364362641068931 -0.00487065207250417069  0.02424702455456829650  0.08053666073544701876
1413394905.205760 -0.01482400000000000037  0.08276600000000000623  0.03821499999999999897 -0.00155499999999999996  0.02461299999999999946  0.08051300000000000123 -0.02166534930659105851  0.19595093618298234373  0.04478953346054931339 -0.00483730512973581158  0.02432598133298269349  0.08059417366870948174
1413394905.305761 -0.01481999999999999984  0.08276400000000000423  0.03822199999999999903 -0.00155499999999999996  0.02461299999999999946  0.08051300000000000123 -0.02184040605812293673  0.19612506671041307627  0.04422991284653991773 -0.00483826786219871893  0.02417420491976783950  0.08054983769712724395
1413394905.405761 -0.01481700000000000031  0.08276300000000000323  0.03822799999999999809 -0.00155499999999999996  0.02461299999999999946  0.08051300000000000123 -0.02189450117784777841  0.19696235856500673989  0.04356616191292877333 -0.00476070873539525923  0.02415177226546386807  0.08046058762829813582
1413394905.505760 -0.01481299999999999978  0.08276100000000000123  0.03823499999999999815 -0.00155499999999999996  0.02461299999999999946  0.08051300000000000123 -0.02180705915132100797  0.19698090188199082751  0.04410814204601122557 -0.00462764541310985503  0.02429033118437935387  0.08047076053718046906
1413394905.705760 -0.01480599999999999972  0.08275799999999999823  0.03824799999999999728 -0.00155499999999999996  0.02461299999999999946  0.08051300000000000123 -0.02177746722691092582  0.19740479846193514923  0.04307135046243632664 -0.00461668465688944846  0.02443960899724485422  0.08036273528126995636
1413394905.755760 -0.01480399999999999945  0.08275799999999999823  0.03825100000000000028 -0.00155499999999999996  0.02461400000000000046  0.08051200000000000023 -0.02194157907483110584  0.19735184861809246248  0.04257975990567933883 -0.00459917400113245452  0.02445416191209888804  0.08035949225295403731
1413394905.855760 -0.01480000000000000066  0.08275699999999999723  0.03825699999999999934 -0.00155499999999999996  0.02461400000000000046  0.08051200000000000023 -0.02176256345685126381  0.19802418292324996951  0.04263114875646090152 -0.00461425676670646108  0.02442322869106694147  0.08042940071118863388
1413394905.905761 -0.01479800000000000039  0.08275599999999999623  0.03826100000000000334 -0.00155499999999999996  0.02461400000000000046  0.08051200000000000023 -0.02214063832021883824  0.19823701260887185982  0.04241974623362306657 -0.00457482859289993788  0.02442318090148819926  0.08048055950509377943
1413394906.005760 -0.01479399999999999986  0.08275499999999999523  0.03826700000000000240 -0.00155499999999999996  0.02461400000000000046  0.08051200000000000023 -0.02253070656530204580  0.19859447536247062938  0.04264770142563020089 -0.00465041819778634624  0.02448437064832603358  0.08051878553285074513
1413394906.105761 -0.01479100000000000033  0.08275399999999999423  0.03827300000000000146 -0.00155499999999999996  0.02461400000000000046  0.08051200000000000023 -0.02289061302007386334  0.19913803150025802258  0.04285031567198155367 -0.00466304466731535649  0.02455640851138093245  0.08056190817756800349
1413394906.255760 -0.01478499999999999953  0.08275299999999999323  0.03828299999999999759 -0.00155499999999999996  0.02461400000000000046  0.08051200000000000023 -0.02319603139304357228  0.20012272033487565892  0.04310406056947897052 -0.00469735262850774337  0.02445410414195924725  0.08058844619807611909
1413394906.355760 -0.01478200000000000000  0.08275200000000000611  0.03828899999999999665 -0.00155499999999999996  0.02461400000000000046  0.08051200000000000023 -0.02271099163961714032  0.20102340867365803279  0.04322304371944633156 -0.00460122754281687592  0.02427686637199472086  0.08052321457565550511
1413394906.455760 -0.01477799999999999947  0.08275100000000000511  0.03829500000000000265 -0.00155499999999999996  0.02461400000000000046  0.08051200000000000023 -0.02243255453018653395  0.20196008048088245901  0.04361999626132663510 -0.00437422958944254717  0.02449637970772386084  0.08054117134448252058
1413394906.555760 -0.01477499999999999994  0.08275100000000000511  0.03830100000000000171 -0.00155499999999999996  0.02461400000000000046  0.08051200000000000023 -0.02201614195837799104  0.20260691241248554584  0.04392387431900658668 -0.00418741329602580811  0.02455652432284920542  0.08048334684442025322
1413394906.655760 -0.01477200000000000041  0.08275000000000000411  0.03830800000000000177 -0.00155400000000000004  0.02461400000000000046  0.08051200000000000023 -0.02174072408169678422  0.20314857813713840806  0.04426839231991643031 -0.00422837914201553214  0.02461478210537500558  0.08048024333975981048
1413394906.755760 -0.01476899999999999914  0.08275000000000000411  0.03831400000000000083 -0.00155400000000000004  0.02461400000000000046  0.08051200000000000023 -0.02121654566756887503  0.20332117599724164325  0.04443489427386888846 -0.00420416052860550157  0.02466496836445376470  0.08048778806021539278
1413394906.855760 -0.01476599999999999961  0.08274900000000000311  0.03831999999999999990 -0.00155400000000000004  0.02461400000000000046  0.08051200000000000023 -0.02070370808533721421  0.20341231976616383492  0.04459241587774508825 -0.00430610074743592846  0.02470532419697167234  0.08049993271068203726
1413394906.955760 -0.01476300000000000008  0.08274900000000000311  0.03832599999999999896 -0.00155400000000000004  0.02461400000000000046  0.08051200000000000023 -0.02044470807675827576  0.20337441124176869334  0.04455601051753808189 -0.00435818160092497475  0.02468539290070186423  0.08053463986668536745
1413394907.005760 -0.01476200000000000082  0.08274900000000000311  0.03832900000000000196 -0.00155400000000000004  0.02461400000000000046  0.08051200000000000023 -0.02018811668625805980  0.20347168632887857598  0.04466703688038944214 -0.00432900209998187280  0.02464225722026238546  0.08060624143994854496
1413394907.105761 -0.01475899999999999955  0.08274800000000000211  0.03833600000000000202 -0.00155400000000000004  0.02461400000000000046  0.08051200000000000023 -0.02004329332841659969  0.20380022803628680683  0.04496588018598748210 -0.00432292391897013285  0.02462621463510076061  0.08067679890155569911
1413394907.255760 -0.01475399999999999975  0.08274800000000000211  0.03834499999999999714 -0.00155400000000000004  0.02461400000000000046  0.08051200000000000023 -0.01944017394467536033  0.20472778123078191892  0.04563302416749052959 -0.00415083175907329013  0.02446091982197865985  0.08070269053755534105
1413394907.355760 -0.01475199999999999949  0.08274800000000000211  0.03835199999999999720 -0.00155400000000000004  0.02461400000000000046  0.08051200000000000023 -0.01930872559652791962  0.20461693799527042037  0.04579765173205713885 -0.00392672230839553622  0.02442123401434386637  0.08068935616325870197
1413394907.455760 -0.01474899999999999996  0.08274800000000000211  0.03835800000000000320 -0.00155400000000000004  0.02461400000000000046  0.08051200000000000023 -0.01895337132122316623  0.20408368938577492457  0.04567258510143337030 -0.00397861938118378861  0.02438131192007843631  0.08069497726515389990
1413394907.555760 -0.01474600000000000043  0.08274900000000000311  0.03836500000000000327 -0.00155400000000000004  0.02461400000000000046  0.08051200000000000023 -0.01872783215671484924  0.20395513268443155042  0.04559943062977687978 -0.00409497081283152417  0.02438528932849199499  0.08068634600580026905
1413394907.655760 -0.01474299999999999916  0.08274900000000000311  0.03837100000000000233 -0.00155400000000000004  0.02461400000000000046  0.08051200000000000023 -0.01830007054406130804  0.20435981669261901739  0.04610508773969133195 -0.00403411723844211527  0.02454654301452239770  0.08058268051441694335
1413394907.755760 -0.01473999999999999963  0.08274900000000000311  0.03837800000000000239 -0.00155400000000000004  0.02461400000000000046  0.08051200000000000023 -0.01780890891697211459  0.20479307095515750237  0.04650275939562137362 -0.00404568691838917693  0.02463807114614964197  0.08045223046559565883
1413394907.855760 -0.01473600000000000083  0.08274900000000000311  0.03838500000000000245 -0.00155400000000000004  0.02461500000000000146  0.08051200000000000023 -0.01740223198950474615  0.20497332997475198324  0.04687807000757953507 -0.00402639469356664854  0.02471761632029296010  0.08040137610750493213
1413394907.905761 -0.01473499999999999983  0.08275000000000000411  0.03838799999999999851 -0.00155400000000000004  0.02461500000000000146  0.08051200000000000023 -0.01722894721046147257  0.20479569063660932327  0.04703325083072328050 -0.00395417515296101699  0.02479260483068896140  0.08043623409020732307
1413394908.005760 -0.01473200000000000030  0.08275000000000000411  0.03839499999999999857 -0.00155400000000000004  0.02461500000000000146  0.08051200000000000023 -0.01719302717034675368  0.20493524714324698466  0.04732989979176817352 -0.00383800780537869608  0.02474216069745018703  0.08047109367896465582
1413394908.105761 -0.01472799999999999977  0.08275000000000000411  0.03840099999999999764 -0.00155400000000000004  0.02461500000000000146  0.08051200000000000023 -0.01738257681445638456  0.20446425848649396606  0.04726126952007859983 -0.00377746804945540936  0.02458002881044800414  0.08060506154670185608
1413394908.205760 -0.01472500000000000024  0.08275100000000000511  0.03840799999999999770 -0.00155400000000000004  0.02461500000000000146  0.08051200000000000023 -0.01755912874939795365  0.20430674620297031852  0.04695422595465469084 -0.00384204604832326640  0.02436559483046172453  0.08060119643743397788
1413394908.305761 -0.01472099999999999971  0.08275200000000000611  0.03841499999999999776 -0.00155400000000000004  0.02461500000000000146  0.08051200000000000023 -0.01751724843857886335  0.20397252154496453569  0.04669784225069283090 -0.00383876773022057355  0.02428749175065749583  0.08063603291550625052
1413394908.355760 -0.01471899999999999945  0.08275200000000000611  0.03841800000000000076 -0.00155400000000000004  0.02461500000000000146  0.08051200000000000023 -0.01755207049893084056  0.20396633839059982729  0.04693856095647649940 -0.00370255850952152426  0.02444088397353597411  0.08062857273430648619
1413394908.455760 -0.01471500000000000065  0.08275299999999999323  0.03842500000000000082 -0.00155400000000000004  0.02461500000000000146  0.08051200000000000023 -0.01780975135355557237  0.20417480851298830391  0.04708337780153237090 -0.00364898993348257645  0.02445643284607937340  0.08063243341449288781
1413394908.605761 -0.01470899999999999985  0.08275399999999999423  0.03843699999999999894 -0.00155400000000000004  0.02461500000000000146  0.08051200000000000023 -0.01786872608186544295  0.20420429630283465361  0.04714444854483289954 -0.00362173394744009060  0.02457563988585438619  0.08057468812243388789
1413394908.705760 -0.01470400000000000006  0.08275499999999999523  0.03844399999999999901 -0.00155400000000000004  0.02461500000000000146  0.08051200000000000023 -0.01813213932067123807  0.20447354300735548494  0.04691047629919833928 -0.00367226357026806741  0.02466356195947986760  0.08060154340235929638
1413394908.805761 -0.01469900000000000026  0.08275599999999999623  0.03845200000000000007 -0.00155400000000000004  0.02461500000000000146  0.08051200000000000023 -0.01850141488915305749  0.20471647783624521977  0.04655605228924274835 -0.00363384475690395727  0.02469376533005023314  0.08065560667648974391
1413394908.905761 -0.01469499999999999973  0.08275699999999999723  0.03846000000000000113 -0.00155400000000000004  0.02461500000000000146  0.08051200000000000023 -0.01938110158376967623  0.20519986525636499386  0.04570880936169867403 -0.00362945943710206182  0.02461916503331788506  0.08072666995929993206
1413394908.955760 -0.01469200000000000020  0.08275699999999999723  0.03846499999999999919 -0.00155400000000000004  0.02461500000000000146  0.08051200000000000023 -0.01935232020973480169  0.20536027933700082282  0.04548996791277611779 -0.00361470076031457713  0.02456171765186859063  0.08074801558878164087
1413394909.105761 -0.01468599999999999940  0.08275899999999999923  0.03847699999999999732 -0.00155400000000000004  0.02461500000000000146  0.08051200000000000023 -0.01986261114947349138  0.20565882241250824092  0.04514918419341531347 -0.00357088335849586446  0.02438681111397322798  0.08075323910079414136
1413394909.205760 -0.01468200000000000061  0.08276000000000000023  0.03848599999999999938 -0.00155400000000000004  0.02461500000000000146  0.08051200000000000023 -0.01959227826723671656  0.20586740432474612272  0.04491179143570381976 -0.00359180746797350394  0.02428006939505203063  0.08068395122705629419
1413394909.305761 -0.01467800000000000007  0.08276200000000000223  0.03849400000000000044 -0.00155400000000000004  0.02461500000000000146  0.08051200000000000023 -0.01911721487383954976  0.20611927580071376376  0.04477567413916781064 -0.00365731956859509724  0.02422015970666024920  0.08062589435839029317
1413394909.405761 -0.01467399999999999954  0.08276300000000000323  0.03850300000000000250 -0.00155400000000000004  0.02461500000000000146  0.08051200000000000023 -0.01897165571987157254  0.20625371821119015125  0.04442759373148828794 -0.00366162326590981123  0.02431881411494853096  0.08064816319115987453
1413394909.555760 -0.01466899999999999975  0.08276500000000000523  0.03851500000000000062 -0.00155299999999999991  0.02461500000000000146  0.08051200000000000023 -0.01871167751265241999  0.20638844475597709072  0.04423108571588649229 -0.00360220123477754785  0.02446197107901863094  0.08067014952909067060
1413394909.655760 -0.01466499999999999922  0.08276699999999999335  0.03852400000000000269 -0.00155299999999999991  0.02461500000000000146  0.08051200000000000023 -0.01868469972308333879  0.20640050564275691514  0.04407134127338386415 -0.00355895604363087132  0.02455568511616349273  0.08068689875331365446
1413394909.755760 -0.01466100000000000042  0.08276799999999999435  0.03853299999999999781 -0.00155299999999999991  0.02461500000000000146  0.08051200000000000023 -0.01827871727318704231  0.20635334574235786320  0.04396035608992408805 -0.00351344953209064637  0.02454587446675067855  0.08066427327376896050
1413394909.855760 -0.01465799999999999916  0.08276999999999999635  0.03854199999999999987 -0.00155299999999999991  0.02461500000000000146  0.08051200000000000023 -0.01802426928384989746  0.20609924923847394718  0.04371464420771409287 -0.00345757142873097867  0.02443983801882691070  0.08064801295958425043
1413394910.055760 -0.01464999999999999983  0.08277299999999999935  0.03855999999999999706 -0.00155299999999999991  0.02461500000000000146  0.08051200000000000023 -0.01830200352527039734  0.20585332880668014144  0.04314827608506352496 -0.00352781419510311703  0.02441532648667190178  0.08068118433437995729
1413394910.155760 -0.01464700000000000030  0.08277500000000000135  0.03856799999999999812 -0.00155299999999999991  0.02461500000000000146  0.08051200000000000023 -0.01775996091025117476  0.20603962710102177724  0.04306227656220616012 -0.00356070321172301035  0.02427898702208043658  0.08067545894922328875
1413394910.255760 -0.01464299999999999977  0.08277700000000000335  0.03857700000000000018 -0.00155299999999999991  0.02461500000000000146  0.08051200000000000023 -0.01739213820950452627  0.20606009228493923913  0.04345993185729919023 -0.00361114371222611211  0.02433978866358778997  0.08066474786855604151
1413394910.355760 -0.01464000000000000024  0.08277800000000000435  0.03858600000000000224 -0.00155299999999999991  0.02461500000000000146  0.08051200000000000023 -0.01736691169260744239  0.20608409762466678439  0.04371411974178514986 -0.00362575497295618884  0.02454687969576812429  0.08064789920076138874
1413394910.605761 -0.01463099999999999991  0.08278299999999999548  0.03860899999999999749 -0.00155299999999999991  0.02461500000000000146  0.08051200000000000023 -0.01674466581354846009  0.20621627424386887451  0.04370001062817686216 -0.00353409465084427842  0.02481188804833730360  0.08059183451662904618
1413394910.705760 -0.01462800000000000038  0.08278499999999999748  0.03861799999999999955 -0.00155299999999999991  0.02461500000000000146  0.08051200000000000023 -0.01649540665623962232  0.20592866075166729734  0.04390377738839135874 -0.00348211432829498334  0.02481299658149141787  0.08061104774155458674
1413394910.755760 -0.01462600000000000011  0.08278499999999999748  0.03862299999999999761 -0.00155299999999999991  0.02461500000000000146  0.08051200000000000023 -0.01635356823080010014  0.20554124332338008507  0.04390546028152451236 -0.00343216155738951386  0.02476539215340864755  0.08067905687811084692
1413394910.855760 -0.01462199999999999958  0.08278699999999999948  0.03863199999999999967 -0.00155299999999999991  0.02461500000000000146  0.08051200000000000023 -0.01635414280525460812  0.20540581658147091804  0.04393212180868736466 -0.00337153648824739137  0.02472809245070309303  0.08076228887554033620
1413394911.005760 -0.01461699999999999978  0.08279000000000000248  0.03864599999999999980 -0.00155299999999999991  0.02461500000000000146  0.08051200000000000023 -0.01637090750510872272  0.20521390462872127203  0.04394395954930802733 -0.00329674651382685533  0.02465489406118927251  0.08081941046197815837
1413394911.105761 -0.01461299999999999925  0.08279200000000000448  0.03865500000000000186 -0.00155299999999999991  0.02461500000000000146  0.08051200000000000023 -0.01658180633537410104  0.20513346944670851624  0.04443172974940440972 -0.00325748309484644822  0.02468430141133891309  0.08082596486826629234
1413394911.205760 -0.01460900000000000046  0.08279400000000000648  0.03866499999999999798 -0.00155299999999999991  0.02461500000000000146  0.08051200000000000023 -0.01649910218374589510  0.20495979942928699291  0.04420892146043196164 -0.00330110793665157679  0.02463197926550598701  0.08071152469169474986
1413394911.305761 -0.01460499999999999993  0.08279599999999999460  0.03867400000000000004 -0.00155299999999999991  0.02461500000000000146  0.08051200000000000023 -0.01631117293748344035  0.20519319228249760512  0.04421382900368640151 -0.00330700818427166060  0.02463436652286239356  0.08065006887535373925
1413394911.405761 -0.01460099999999999940  0.08279799999999999660  0.03868400000000000311 -0.00155299999999999991  0.02461500000000000146  0.08051200000000000023 -0.01634781633696085618  0.20515637667714989312  0.04409699987500492052 -0.00325528341377186430  0.02473181898122424338  0.08061855839313404604
1413394911.505760 -0.01459700000000000060  0.08279999999999999860  0.03869399999999999923 -0.00155299999999999991  0.02461500000000000146  0.08051300000000000123 -0.01629211754408063997  0.20500063291172646029  0.04424362762056506526 -0.00317739757064470271  0.02484516863339938583  0.08059104508895666152
1413394911.655760 -0.01459099999999999980  0.08280300000000000160  0.03870900000000000035 -0.00155299999999999991  0.02461599999999999899  0.08051300000000000123 -0.01596297001295081050  0.20441005297295061771  0.04428628509841747718 -0.00313565997136520426  0.02494562272374623718  0.08059572071950382721
1413394911.755760 -0.01458699999999999927  0.08280500000000000360  0.03871900000000000341 -0.00155299999999999991  0.02461599999999999899  0.08051300000000000123 -0.01587747920985451214  0.20388586944154449276  0.04467966662638196695 -0.00312079507700713417  0.02501603384247684178  0.08060819782520356469
1413394911.855760 -0.01458300000000000048  0.08280700000000000560  0.03873000000000000054 -0.00155299999999999991  0.02461599999999999899  0.08051300000000000123 -0.01562815819499300402  0.20366557084784880916  0.04488067283771689925 -0.00306384318369030961  0.02501941762099677349  0.08062698395966817755
1413394912.105761 -0.01457199999999999988  0.08281199999999999672  0.03875699999999999978 -0.00155299999999999991  0.02461599999999999899  0.08051300000000000123 -0.01560424264102718353  0.20346312684522624425  0.04455782878246451750 -0.00298586214989453791  0.02476526368318758206  0.08061514501241912045
1413394912.205760 -0.01456799999999999935  0.08281399999999999872  0.03876799999999999691 -0.00155299999999999991  0.02461599999999999899  0.08051300000000000123 -0.01557859575890698130  0.20311301232324979749  0.04375492029207094652 -0.00302970403607474370  0.02471081502576451261  0.08062927031526927191
1413394912.305761 -0.01456400000000000056  0.08281700000000000172  0.03877900000000000097 -0.00155299999999999991  0.02461599999999999899  0.08051300000000000123 -0.01542811247362568979  0.20280038395735944246  0.04350025936282608807 -0.00303307132678491947  0.02479930434744448756  0.08059875823231077430
1413394912.455760 -0.01455799999999999976  0.08282000000000000473  0.03879599999999999715 -0.00155299999999999991  0.02461599999999999899  0.08051300000000000123 -0.01536670737035030453  0.20244687074333281296  0.04329411684935981913 -0.00302443456985467939  0.02483545734313479664  0.08060006931273702713
1413394912.605761 -0.01455099999999999970  0.08282299999999999385  0.03881300000000000028 -0.00155299999999999991  0.02461599999999999899  0.08051300000000000123 -0.01517203441413354087  0.20202097368131147204  0.04341716580756050520 -0.00301286105295265347  0.02481792711802441667  0.08061653625209024010
1413394912.705760 -0.01454699999999999917  0.08282599999999999685  0.03882499999999999840 -0.00155299999999999991  0.02461599999999999899  0.08051300000000000123 -0.01509769574919429640  0.20200322464151859725  0.04335264649700186490 -0.00300935287696534439  0.02475616417821608489  0.08062483313709911670
1413394912.855760 -0.01454000000000000084  0.08282899999999999985  0.03884200000000000153 -0.00155199999999999999  0.02461599999999999899  0.08051300000000000123 -0.01513180109242225936  0.20198339384231669968  0.04300392280678420887 -0.00303759276363027141  0.02466026932935784510  0.08061257198977053728
1413394913.005760 -0.01453300000000000078  0.08283300000000000385  0.03885999999999999871 -0.00155199999999999999  0.02461599999999999899  0.08051300000000000123 -0.01514810513962952174  0.20176130529129507329  0.04269046969344828663 -0.00306246031637804434  0.02460948181580890903  0.08057835635997738499
1413394913.205760 -0.01452499999999999972  0.08283699999999999397  0.03888500000000000290 -0.00155199999999999999  0.02461599999999999899  0.08051300000000000123 -0.01503751021236421521  0.20130405189749756012  0.04254094374202183060 -0.00306200191821373851  0.02459318596035626678  0.08059167108611289820
1413394913.355760 -0.01451799999999999966  0.08283999999999999697  0.03890400000000000108 -0.00155199999999999999  0.02461599999999999899  0.08051300000000000123 -0.01494971809651736080  0.20084237829378032147  0.04225384691571724277 -0.00305805476332901690  0.02457890696603907271  0.08061184322945341707
1413394913.505760 -0.01451099999999999959  0.08284400000000000097  0.03892299999999999927 -0.00155199999999999999  0.02461599999999999899  0.08051300000000000123 -0.01490793894036446764  0.20028778682506373499  0.04200915748859922194 -0.00306508126975916671  0.02453968159462751805  0.08059955150629556642
1413394913.655760 -0.01450500000000000053  0.08284700000000000397  0.03894299999999999845 -0.00155199999999999999  0.02461599999999999899  0.08051300000000000123 -0.01480947946428073751  0.19991756821784223419  0.04126577766253924917 -0.00308210317973814764  0.02446804882374594217  0.08056228456082713263
1413394913.755760 -0.01450000000000000074  0.08284900000000000597  0.03895599999999999757 -0.00155199999999999999  0.02461599999999999899  0.08051300000000000123 -0.01468227066454255367  0.19987599131190458834  0.04091167307616157961 -0.00306855541919384212  0.02442647911642789257  0.08055484591740373623
1413394913.855760 -0.01449600000000000020  0.08285099999999999409  0.03896999999999999770 -0.00155199999999999999  0.02461599999999999899  0.08051300000000000123 -0.01464886778600710780  0.19992183872417923496  0.04072341710659137248 -0.00307180755915406134  0.02442237181848659969  0.08059182103924036888
1413394913.955760 -0.01449100000000000041  0.08285299999999999609  0.03898399999999999782 -0.00155199999999999999  0.02461699999999999999  0.08051300000000000123 -0.01456163850480361038  0.19998530728382310495  0.04067861043078020711 -0.00312758010867077120  0.02444606721249955802  0.08059866038333937666
1413394914.055760 -0.01448699999999999988  0.08285499999999999809  0.03899699999999999694 -0.00155199999999999999  0.02461699999999999999  0.08051300000000000123 -0.01441047795310256008  0.20007754879523398372  0.04075948362612431125 -0.00314321634874881704  0.02447073063503739029  0.08058543569886394975
1413394914.205760 -0.01447999999999999982  0.08285900000000000210  0.03901799999999999713 -0.00155199999999999999  0.02461699999999999999  0.08051300000000000123 -0.01429748831747933331  0.20024667647268698523  0.04083059099897764360 -0.00311066693014068474  0.02450756975763377851  0.08052926562098350338
1413394914.355760 -0.01447299999999999975  0.08286300000000000610  0.03903899999999999731 -0.00155199999999999999  0.02461699999999999999  0.08051300000000000123 -0.01408161113133999352  0.20044764219725544341  0.04066924254416547091 -0.00310524799799356214  0.02449046502054938804  0.08052252156847768128
1413394914.455760 -0.01446799999999999996  0.08286499999999999422  0.03905200000000000338 -0.00155199999999999999  0.02461699999999999999  0.08051300000000000123 -0.01385902227959523274  0.20034812782147820576  0.04053684546308271297 -0.00309811237658718383  0.02443741377019248776  0.08053347488756081030
1413394914.555760 -0.01446399999999999943  0.08286799999999999722  0.03906599999999999656 -0.00155199999999999999  0.02461699999999999999  0.08051300000000000123 -0.01379905832115848989  0.20021145319349922809  0.04040897405517830665 -0.00311988500724119742  0.02441667091181398339  0.08056985586400521038
1413394914.655760 -0.01446000000000000063  0.08286999999999999922  0.03907999999999999668 -0.00155199999999999999  0.02461699999999999999  0.08051300000000000123 -0.01375397300150277974  0.20009664690882039695  0.04041469946428370014 -0.00312239858425444709  0.02443909639703134226  0.08064677093550939868
1413394914.755760 -0.01445600000000000010  0.08287300000000000222  0.03909300000000000275 -0.00155199999999999999  0.02461699999999999999  0.08051300000000000123 -0.01366233205655502207  0.20007801516364706607  0.04042168107383155989 -0.00314543769708511018  0.02441876871207541641  0.08066461491117707383
1413394914.905761 -0.01444900000000000004  0.08287700000000000622  0.03911300000000000193 -0.00155199999999999999  0.02461699999999999999  0.08051300000000000123 -0.01352334284972694402  0.20009960801858323043  0.04045909593746363497 -0.00313397382257851569  0.02441830751978679714  0.08065333419335370124
1413394915.055760 -0.01444299999999999924  0.08288199999999999734  0.03913400000000000212 -0.00155199999999999999  0.02461699999999999999  0.08051300000000000123 -0.01330974002331239414  0.20030150981367111918  0.04064472047981642494 -0.00318731986309353683  0.02446595950948217413  0.08061159865037470507
1413394915.205760 -0.01443700000000000018  0.08288700000000000234  0.03915400000000000130 -0.00155199999999999999  0.02461699999999999999  0.08051300000000000123 -0.01307807906073905381 