1403636635.963556 -0.02582800000000000026  0.13754800000000000360  0.07614999999999999547 -0.00318899999999999999  0.02128700000000000037  0.07845399999999999596 -0.05602855984437137005  0.04876277982553356427  0.02507122576163195449 -0.00293393780105629135  0.02099997569147133217  0.07857819727386719522 0.17812952496124867530 1.28000868985159610425 1.22536855483479922846 0.00115589918660144626 0.00115601404445810031 0.00115596445505312625
1403636636.163556 -0.02583399999999999933  0.13754900000000000460  0.07615399999999999947 -0.00318899999999999999  0.02128700000000000037  0.07845399999999999596 -0.05516973181352519823  0.05315472054162933419  0.02690256856514127923 -0.00296720588944577495  0.02112906515414682274  0.07849020114797768122 0.17204415366467201709 1.23234245455989466222 1.18857796540548266151 0.00113018783320619366 0.00113029952990932299 0.00113024924436265473
1403636636.313555 -0.02583600000000000133  0.13754900000000000460  0.07615500000000000047 -0.00318899999999999999  0.02128700000000000037  0.07845299999999999496 -0.05474331984519007627  0.06016981429227213213  0.02795149945600317390 -0.00295814044802158657  0.02114825584596300226  0.07856230241025632943 0.16729161823032193124 1.19763163174314990478 1.16017880906151971132 0.00111165303749350178 0.00111176368471876410 0.00111170854379557789
1403636636.463556 -0.02584099999999999939  0.13754900000000000460  0.07615800000000000347 -0.00319000000000000013  0.02128700000000000037  0.07845299999999999496 -0.05442115892515962672  0.06798557346625126729  0.02834714265178641529 -0.00297193271255756768  0.02116971575349736734  0.07860297109969424656 0.16236051795487732585 1.16371526837727801151 1.13079401923519151651 0.00109372810264672052 0.00109383057475531068 0.00109377901175794988
1403636636.663556 -0.02584600000000000092  0.13755000000000000560  0.07616000000000000547 -0.00319000000000000013  0.02128700000000000037  0.07845299999999999496 -0.05448157364129019992  0.07303606588030524260  0.02831653593896172813 -0.00301089156124117801  0.02110406018506608139  0.07852168799731161497 0.15664902890158396986 1.11688485229608680527 1.09102274086760453464 0.00107072108493925567 0.00107082606596887705 0.00107076457682188549
1403636637.013556 -0.02585300000000000098  0.13755100000000000660  0.07616599999999999759 -0.00319000000000000013  0.02128800000000000137  0.07845199999999999396 -0.05540798094586825429  0.07584910651702861384  0.02961430647529820701 -0.00299772198890660901  0.02101247901278251173  0.07862068280099077100 0.14452954052753019809 1.04012929330600201183 0.99506445179224412012 0.00103275255531742795 0.00103284573649860723 0.00103278767877787209
1403636637.413555 -0.02586199999999999957  0.13755200000000000760  0.07617100000000000259 -0.00319000000000000013  0.02128800000000000137  0.07845100000000000684 -0.05462793868723216095  0.07949676127798070702  0.03494824728022866839 -0.00300257831353510727  0.02102807180259262665  0.07851405414550685635 0.13193014359067709029 0.98189923746205620692 0.89775640023399450040 0.00099260208623340625 0.00099267111912071620 0.00099262693610753690
1403636637.763556 -0.02587000000000000063  0.13755300000000000860  0.07617500000000000659 -0.00319000000000000013  0.02128800000000000137  0.07845100000000000684 -0.05247768324989911248  0.08544854826114303692  0.03912465237551335934 -0.00300164167393224485  0.02104855291367996317  0.07851120800660386922 0.12285027927050488905 0.93826676555916344036 0.83740614123056777984 0.00095997580626617585 0.00096004197854491558 0.00096000252832044843
1403636638.013556 -0.02587700000000000070  0.13755300000000000860  0.07617599999999999372 -0.00319000000000000013  0.02128800000000000137  0.07845000000000000584 -0.05094580957250189474  0.09623465742759863828  0.04114007595337128981 -0.00301457237290383290  0.02102350003900107026  0.07852483152229693120 0.11734770971774670378 0.90697652675441087222 0.80234917330913524403 0.00093798051919554326 0.00093804438389008180 0.00093800493164277626
1403636638.413555 -0.02588700000000000029  0.13755300000000000860  0.07617899999999999672 -0.00319099999999999983  0.02128899999999999890  0.07845000000000000584 -0.04936631929072499841  0.11632086881482352203  0.04486248335026108564 -0.00296917091629810134  0.02096927242716895359  0.07857210806372159906 0.11055147949508152549 0.86637443033857053365 0.75520079904893810951 0.00090486892714112188 0.00090492643173436518 0.00090489105203173917
1403636638.713556 -0.02589400000000000035  0.13755400000000000960  0.07618199999999999972 -0.00319099999999999983  0.02128899999999999890  0.07844900000000000484 -0.04852687907653911031  0.12105008094215052861  0.04571099971757881103 -0.00299202666426541357  0.02109397911560789013  0.07851098329480442339 0.10647509142255401349 0.83512439347836975312 0.72555682243219921101 0.00088156417239697760 0.00088160693960561960 0.00088158165063324909
1403636638.913555 -0.02589999999999999941  0.13755400000000000960  0.07618400000000000172 -0.00319099999999999983  0.02128899999999999890  0.07844900000000000484 -0.04708163117519468394  0.12853451097774695744  0.04697986186998950875 -0.00295758690867221636  0.02108386969800911045  0.07856287687501765926 0.10393908449039530872 0.81055787209098961732 0.70770656858786507026 0.00086669643021964780 0.00086673592565318658 0.00086671375202476990
1403636639.113555 -0.02590500000000000094  0.13755400000000000960  0.07618700000000000472 -0.00319099999999999983  0.02128899999999999890  0.07844800000000000384 -0.04627469178956272050  0.13272789238335938600  0.04783581538072521899 -0.00296128997719178905  0.02106802122307593894  0.07857440849299258956 0.10153838190446287659 0.78708973565369655390 0.69118126522387401955 0.00085233276971606110 0.00085237452221153035 0.00085234785604348180
1403636639.363556 -0.02590999999999999900  0.13755400000000000960  0.07618999999999999384 -0.00319099999999999983  0.02128999999999999990  0.07844800000000000384 -0.04629387240922645808  0.13451385929092027349  0.04840851271256292609 -0.00298309764971205812  0.02105747014129191047  0.07844149735282737734 0.09914234492700194079 0.76036160977652222925 0.67273371911366530718 0.00083505091556165193 0.00083509009878242465 0.00083506348812591093
1403636639.563555 -0.02591399999999999954  0.13755500000000001060  0.07619199999999999584 -0.00319099999999999983  0.02128999999999999990  0.07844800000000000384 -0.04615991325852868143  0.13631303532035224380  0.04885346435071241666 -0.00299506909475090238  0.02103215824766445710  0.07841349585426310442 0.09756291285995728757 0.73991346455712569963 0.65930490395916385715 0.00082174091605668553 0.00082177607893056280 0.00082174596369458694
1403636639.763556 -0.02591999999999999860  0.13755500000000001060  0.07619499999999999884 -0.00319099999999999983  0.02128999999999999990  0.07844700000000000284 -0.04625540937501088773  0.13745062728924761775  0.04943013997989272740 -0.00297510379093377311  0.02105411314992971378  0.07847805174531650996 0.09592922170531786863 0.72197833453833926143 0.64603362488447513279 0.00080886116922926387 0.00080889212472470861 0.00080886187902986519
1403636640.013556 -0.02592399999999999913  0.13755500000000001060  0.07619800000000000184 -0.00319099999999999983  0.02128999999999999990  0.07844700000000000284 -0.04587339754680562487  0.13730628876521855375  0.05074055292626173524 -0.00297315892549655878  0.02106406848320053690  0.07848725130781229742 0.09366336380906994941 0.70305276595770227477 0.62999512103639154770 0.00079333481073991978 0.00079336223987631091 0.00079333044493247560
1403636640.313555 -0.02593300000000000119  0.13755600000000001160  0.07620300000000000684 -0.00319099999999999983  0.02128999999999999990  0.07844600000000000184 -0.04350783463756675157  0.13777511195361066831  0.05244395957062603086 -0.00293671663082978145  0.02103975243500242134  0.07849423514449678507 0.09061327271388187887 0.68319660596675291231 0.61087612620449793788 0.00077550204827594787 0.00077553301822990718 0.00077549874051290480
1403636640.713556 -0.02594499999999999931  0.13755800000000001360  0.07620899999999999896 -0.00319199999999999996  0.02129100000000000090  0.07844600000000000184 -0.04018106727704322256  0.13836993073765166407