1403636636.163556 -0.02583399999999999933  0.13754900000000000460  0.07615399999999999947 -0.00318899999999999999  0.02128700000000000037  0.07845399999999999596 -0.05466784994110247820  0.07892864454002507246  0.02730163405479673483 -0.00295960469699794049  0.02106664774503294937  0.07849737133112333343
1403636636.313555 -0.02583600000000000133  0.13754900000000000460  0.07615500000000000047 -0.00318899999999999999  0.02128700000000000037  0.07845299999999999496 -0.05438951102080185479  0.08417283781476887772  0.02744647063543102089 -0.00295278561087122717  0.02115465522578490951  0.07852743311949658689
1403636636.463556 -0.02584099999999999939  0.13754900000000000460  0.07615800000000000347 -0.00319000000000000013  0.02128700000000000037  0.07845299999999999496 -0.05439418618659856708  0.08802083650387271252  0.02727348184879383255 -0.00294034838016060760  0.02119475169306596352  0.07857320041199641891
1403636636.663556 -0.02584600000000000092  0.13755000000000000560  0.07616000000000000547 -0.00319000000000000013  0.02128700000000000037  0.07845299999999999496 -0.05411778967428292064  0.09304703108842110604  0.02781592531889587327 -0.00301076475646621733  0.02113610256784950389  0.07853533809681925715
1403636637.013556 -0.02585300000000000098  0.13755100000000000660  0.07616599999999999759 -0.00319000000000000013  0.02128800000000000137  0.07845199999999999396 -0.05588590411239565542  0.09249440555497268068  0.02516540050314067939 -0.00299188212996128952  0.02101422441623397586  0.07858445166161569240
1403636637.413555 -0.02586199999999999957  0.13755200000000000760  0.07617100000000000259 -0.00319000000000000013  0.02128800000000000137  0.07845100000000000684 -0.05340288945814333776  0.08164537469872455711  0.03815318155360464258 -0.00299646295688131689  0.02101075815838505598  0.07850612942614773604
1403636637.763556 -0.02587000000000000063  0.13755300000000000860  0.07617500000000000659 -0.00319000000000000013  0.02128800000000000137  0.07845100000000000684 -0.05221813845264482168  0.08820034072732807484  0.04057648746694657305 -0.00301520528839943147  0.02106923941355726485  0.07852000101447960401
1403636638.013556 -0.02587700000000000070  0.13755300000000000860  0.07617599999999999372 -0.00319000000000000013  0.02128800000000000137  0.07845000000000000584 -0.04993803201870596065  0.10702762851511066211  0.04481109363713740856 -0.00299856528086392708  0.02106180604800492531  0.07852451830851828185
1403636638.413555 -0.02588700000000000029  0.13755300000000000860  0.07617899999999999672 -0.00319099999999999983  0.02128899999999999890  0.07845000000000000584 -0.04861535964177268743  0.12595294291955883015  0.04739913380053371178 -0.00298606167816489959  0.02094166280441467701  0.07857297696968479350
1403636638.713556 -0.02589400000000000035  0.13755400000000000960  0.07618199999999999972 -0.00319099999999999983  0.02128899999999999890  0.07844900000000000484 -0.04677935999137888823  0.14285983283580835912  0.04995864072062045774 -0.00297410038625196349  0.02109922957591390050  0.07849698810802727134
1403636638.913555 -0.02589999999999999941  0.13755400000000000960  0.07618400000000000172 -0.00319099999999999983  0.02128899999999999890  0.07844900000000000484 -0.04534889370646297962  0.14248467357793084820  0.05180518514596250956 -0.00298542360499760547  0.02108950295611546066  0.07856973656903858128
1403636639.113555 -0.02590500000000000094  0.13755400000000000960  0.07618700000000000472 -0.00319099999999999983  0.02128899999999999890  0.07844800000000000384 -0.04531042428569131281  0.14034832040003358822  0.05057168172588106386 -0.00295386518575470802  0.02108791996201970706  0.07858701436062048851
1403636639.363556 -0.02590999999999999900  0.13755400000000000960  0.07618999999999999384 -0.00319099999999999983  0.02128999999999999990  0.07844800000000000384 -0.04565185190283042177  0.14016778513577746179  0.04972778693011129653 -0.00297626684205602688  0.02104584447613697465  0.07847370308647516612
1403636639.563555 -0.02591399999999999954  0.13755500000000001060  0.07619199999999999584 -0.00319099999999999983  0.02128999999999999990  0.07844800000000000384 -0.04562995574520576497  0.14180736179221525850  0.05011856386201114788 -0.00298747637225785191  0.02103611909649818340  0.07842583405671513241
1403636639.763556 -0.02591999999999999860  0.13755500000000001060  0.07619499999999999884 -0.00319099999999999983  0.02128999999999999990  0.07844700000000000284 -0.04568205047354853554  0.14241569358008082657  0.05006162423646081522 -0.00296336657454549998  0.02103512255278257650  0.07847035162409457532
1403636640.013556 -0.02592399999999999913  0.13755500000000001060  0.07619800000000000184 -0.00319099999999999983  0.02128999999999999990  0.07844700000000000284 -0.04542635254547690293  0.14000105332489531929  0.05117092017036478646 -0.00298488418181195843  0.02102665258453713729  0.07848765898189268009
1403636640.313555 -0.02593300000000000119  0.13755600000000001160  0.07620300000000000684 -0.00319099999999999983  0.02128999999999999990  0.07844600000000000184 -0.04216198362082561324  0.13637111611801039368  0.05766233576365242114 -0.00293133230218650632  0.02107011053289050903  0.07851068678330751227
1403636640.713556 -0.02594499999999999931  0.13755800000000001360  0.07620899999999999896 -0.00319199999999999996  0.02129100000000000090  0.07844600000000000184 -0.03847421860462718612  0.13715954954900480556  0.06147869092636175370 -0.00287982212650131700  0.02104480390790488750  0.07849997403807404406
1403636641.513556 -0.02597000000000000003  0.13756099999999998884  0.07622199999999999809 -0.00319199999999999996  0.02129100000000000090  0.07844399999999999984 -0.03347916020047383978  0.14114309587524379030  0.06668268199193493062 -0.00291050493093579846  0.02104347706561304765  0.07846776683764980498
1403636642.163556 -0.02598800000000000068  0.13756399999999999184  0.07623199999999999421 -0.00319199999999999996  0.02129199999999999843  0.07844299999999999884 -0.03193914772301099242  0.13459406832796239062  0.07079149792204375569 -0.00296279232916441459  0.02104039479143377661  0.07847694406612301665
1403636642.713556 -0.02600200000000000081  0.13756599999999999384  0.07623800000000000021 -0.00319300000000000009  0.02129199999999999843  0.07844199999999999784 -0.03426116136760857384  0.13290778077138928892  0.06757332975158315824 -0.00297964667853008788  0.02103711646191574330  0.07848742332093887331
1403636643.613555 -0.02602399999999999852  0.13756899999999999684  0.07624799999999999633 -0.00319300000000000009  0.02129299999999999943  0.07844099999999999684 -0.03326664375470079343  0.13928812636868340147  0.07110111946970658348 -0.00297231925589101905  0.02110551020853905502  0.07851553859618443099
1403636644.013556 -0.02603600000000000012  0.13756999999999999784  0.07625099999999999933 -0.00319300000000000009  0.02129400000000000043  0.07843999999999999584 -0.03300305829087979426  0.14656342724982199255  0.07261423560042458425 -0.00296651261366797639  0.02105448007344404293  0.07849530622799910651
1403636644.363556 -0.02604499999999999871  0.13756999999999999784  0.07625300000000000133 -0.00319399999999999979  0.02129400000000000043  0.07843899999999999484 -0.03281333351706894330  0.15317204883603932619  0.07355916333027179288 -0.00295104002752202095  0.02109734527375734317  0.07852465516252074562
1403636644.663556 -0.02605299999999999977  0.13756999999999999784  0.07625500000000000334 -0.00319399999999999979  0.02129400000000000043  0.07843899999999999484 -0.03305208058155844481  0.15997291876930527788  0.07307824160084817888 -0.00295210144455655427  0.02110797694103858438  0.07849333250852860711
1403636644.863556 -0.02605800000000000130  0.13757099999999999884  0.07625600000000000434 -0.00319399999999999979  0.02129400000000000043  0.07843799999999999384 -0.03291637511288302009  0.16314276739879421396  0.07347241552572972290 -0.00295043640859925542  0.02112449378049616883  0.07845753115406742251
1403636645.063555 -0.02606299999999999936  0.13757099999999999884  0.07625800000000000634 -0.00319399999999999979  0.02129400000000000043  0.07843799999999999384 -0.03279642370869000068  0.16512441462062332764  0.07335555967929380250 -0.00293162255624773238